{"version": "0.5.3", "metadata": {"date": {"year": 2024, "month": 10, "day": 2, "hour": 3, "minute": 3, "second": 57}, "loudness": -13.699029922485352, "gain": 0.8575229605787688, "training": {"settings": {"fit_cab": false, "ignore_checks": false}, "data": {"latency": {"manual": null, "calibration": {"algorithm_version": 1, "delays": [136, 136], "safety_factor": 4, "recommended": 132, "warnings": {"matches_lookahead": false, "disagreement_too_high": false}}}, "checks": {"version": 3, "passed": true}}, "validation_esr": 0.012232947423003192}}, "architecture": "WaveNet", "config": {"layers": [{"input_size": 1, "condition_size": 1, "head_size": 8, "channels": 16, "kernel_size": 3, "dilations": [1, 2, 4, 8, 16, 32, 64, 128, 256, 512], "activation": "Tanh", "gated": false, "head_bias": false}, {"input_size": 16, "condition_size": 1, "head_size": 1, "channels": 8, "kernel_size": 3, "dilations": [1, 2, 4, 8, 16, 32, 64, 128, 256, 512], "activation": "Tanh", "gated": false, "head_bias": true}], "head": null, "head_scale": 0.02}, "weights": [-0.11309615522623062, 0.5868047475814819, -0.9119914174079895, -0.8943094611167908, -0.4018602669239044, 0.38599953055381775, -0.1952991932630539, 0.9479316473007202, -0.14044500887393951, 0.22074051201343536, -0.47836360335350037, -0.3874589204788208, -1.051111102104187, -0.72574383020401, -0.5492479205131531, 0.2152099609375, 0.1703224629163742, 0.2712482511997223, -0.5485953092575073, -0.18222665786743164, -0.059298645704984665, 0.5410416722297668, 0.08783113956451416, 0.21810638904571533, -0.4475991725921631, 0.1343134492635727, 0.24125440418720245, -0.5599890351295471, 0.031210249289870262, 0.08497139066457748, -0.47450387477874756, -0.00017848986317403615, -0.21448847651481628, 0.3524179756641388, 0.05532170832157135, 0.032612670212984085, -0.4671608805656433, 0.0031546195968985558, -0.04491492733359337, 0.49643632769584656, 0.15491127967834473, 0.07829562574625015, -0.37057366967201233, -0.2628462612628937, -0.23033004999160767, 0.3339770436286926, 0.21555255353450775, 0.20636850595474243, -0.48715725541114807, 0.12168323248624802, 0.21905235946178436, -0.28622326254844666, 0.17503395676612854, 0.12809787690639496, -0.33193060755729675, 0.03530589118599892, 0.13885626196861267, -0.5355339050292969, 0.024852192029356956, 0.0435628816485405, -0.36232367157936096, -0.08197084814310074, -0.22988049685955048, 0.46339699625968933, -0.0354406014084816, 0.05955897271633148, -0.03857449069619179, 0.08032774925231934, -0.031096352264285088, 0.10512220114469528, -0.15372000634670258, 0.07184433192014694, 0.09548663347959518, 0.07506293803453445, 0.2502249777317047, 0.1645214706659317, -0.024952026084065437, -0.0071266088634729385, 0.039524685591459274, -0.03504103794693947, -0.246361643075943, 0.10564257949590683, 0.012097437866032124, -0.07340894639492035, -0.005433619022369385, 0.02022331953048706, -0.14779672026634216, -0.10444192588329315, -0.02708595246076584, 0.0008896974613890052, 0.04121824726462364, 0.1287587434053421, -0.00811031460762024, 0.033843278884887695, -0.19645901024341583, 0.02178509160876274, 0.0982581153512001, -0.030141573399305344, 0.0024438556283712387, -0.062013961374759674, 0.09230756014585495, 0.22353258728981018, -0.023300090804696083, -0.0823163092136383, -0.014810004271566868, 0.03332113102078438, -0.15963995456695557, 0.01007058098912239, 0.02305684983730316, 0.10147680342197418, -0.14481832087039948, 0.09110511839389801, 0.05936184898018837, -0.14385852217674255, 0.30165785551071167, -0.22928491234779358, 0.23376719653606415, -0.10883623361587524, 0.12498965859413147, -0.24047841131687164, 0.16502541303634644, 0.11352252215147018, -0.3464355170726776, 0.17890693247318268, -0.025746004655957222, -0.35392361879348755, 0.08858026564121246, -0.18864864110946655, 0.21034227311611176, -0.24753408133983612, 0.11886832863092422, -0.19519191980361938, 0.09448274970054626, -0.11351921409368515, 0.378825843334198, -0.1245071142911911, 0.14557790756225586, -0.24951577186584473, 0.2005188912153244, -0.02464819885790348, 0.3929935395717621, -0.04152589291334152, 0.25255629420280457, -0.27855923771858215, -0.004984058439731598, 0.05147179588675499, -0.17264166474342346, 0.13196910917758942, 0.03233793005347252, -0.388193815946579, -0.026412777602672577, -0.014325770549476147, -0.30117979645729065, 0.19223995506763458, 0.1886817216873169, -0.41482290625572205, 0.2100972831249237, -0.2623414099216461, 0.2053588628768921, -0.23314407467842102, -0.03635172173380852, 0.217206209897995, -0.3388427495956421, -0.1663171648979187, -0.2724136412143707, 0.12387804687023163, -0.021104658022522926, 0.308220237493515, -0.24343247711658478, 0.035023052245378494, 0.382902592420578, -0.17513182759284973, 0.16660566627979279, 0.29979678988456726, -0.26124194264411926, 0.06147107854485512, -0.2548244893550873, 0.07010718435049057, 0.10632698237895966, 0.08197133243083954, -0.18712590634822845, -0.07392420619726181, -0.1523209810256958, 0.15526458621025085, 0.07720323652029037, 0.2681749761104584, -0.21027587354183197, -0.06076069548726082, -0.3547899127006531, 0.21612994372844696, 0.14755602180957794, 0.3440893292427063, -0.23172257840633392, 0.036378663033246994, 0.14529624581336975, -0.21848075091838837, -0.03850463405251503, 0.3067041039466858, -0.2000792771577835, 0.03800177946686745, 0.25696074962615967, -0.025148725137114525, -0.06851021200418472, 0.15590770542621613, -0.2089868187904358, 0.10245616734027863, -0.26092541217803955, 0.29983922839164734, -0.13317275047302246, -0.17133772373199463, 0.15864604711532593, 0.18642249703407288, 0.2197958528995514, -0.13562847673892975, -0.21650330722332, -0.1844344586133957, -0.010073120705783367, -0.29206445813179016, -0.0881054475903511, -0.01334378495812416, -0.21966317296028137, -0.05778622254729271, 0.15748178958892822, 0.20302437245845795, 0.06387363374233246, -0.048478905111551285, -0.2662205398082733, -0.19153933227062225, 0.11025303602218628, 0.1965925097465515, 0.2090097814798355, 0.016396617516875267, -0.16425681114196777, -0.04433370754122734, 0.22876065969467163, 0.10869370400905609, 0.25464513897895813, -0.21738532185554504, -0.2690533697605133, -0.1565002053976059, 0.1623949408531189, -0.09277580678462982, -0.24466347694396973, 0.12440277636051178, -0.14416348934173584, -0.3473970890045166, 0.20647619664669037, -0.3323175013065338, -0.20073014497756958, 0.08037152886390686, -0.2902463674545288, -0.18779724836349487, 0.2300453633069992, 0.13842365145683289, 0.0899604856967926, -0.20577265322208405, -0.03668946027755737, -0.050844501703977585, -0.0008937453967519104, -0.16040344536304474, 0.025595773011446, 0.11288222670555115, 0.1370524913072586, -0.0016724391607567668, 0.01576334610581398, 0.013576125726103783, -0.15397630631923676, 0.008221318945288658, 0.1871291846036911, -0.0703125, -0.08920187503099442, -0.1429625004529953, -0.038882240653038025, 0.04677801579236984, 0.03102255053818226, -0.19307269155979156, 0.1826263666152954, -0.15662941336631775, 0.09582348167896271, 0.07760598510503769, 0.10101708769798279, -0.1779690682888031, -0.08880378305912018, 0.04369761794805527, 0.12427466362714767, 0.13154736161231995, 0.023553550243377686, -0.061949942260980606, -0.054520294070243835, 0.07093818485736847, -0.19364051520824432, 0.03563812002539635, 0.10622332990169525, -0.1184435710310936, -0.06984120607376099, -0.024916380643844604, -0.010525943711400032, -0.13989044725894928, 0.12569592893123627, -0.16156072914600372, -0.09716261923313141, -0.080162413418293, -0.010483724065124989, 0.00920570082962513, -0.0013140833470970392, -0.29182639718055725, 0.34664422273635864, 0.14000603556632996, 0.2636280357837677, -0.24041716754436493, -0.20174598693847656, -0.23389673233032227, 0.26583772897720337, -0.13487178087234497, -0.1573675274848938, 0.31466326117515564, -0.14774920046329498, -0.2036728709936142, 0.2916397452354431, 0.07961802929639816, 0.2063772827386856, -0.21995702385902405, -0.1431802660226822, -0.13956834375858307, 0.3997592329978943, 0.21176595985889435, 0.29683443903923035, -0.19774800539016724, 0.024743210524320602, -0.23725418746471405, 0.15859967470169067, -0.05792202800512314, 0.3355509340763092, -0.14806301891803741, -0.17283077538013458, -0.14662697911262512, 0.3414500653743744, 0.07723934948444366, -0.07559377700090408, 0.35593464970588684, -0.1164902076125145, -0.2649374306201935, 0.3346778452396393, 0.001468896633014083, -0.29532286524772644, 0.35012364387512207, -0.007493920158594847, -0.13205331563949585, 0.13772480189800262, 0.0809352695941925, 0.10741376131772995, -0.1741916835308075, -0.05177225545048714, -0.16912028193473816, 0.13741812109947205, 0.13971175253391266, 0.19931405782699585, 0.04472307860851288, -0.18378357589244843, -0.2215745896100998, -0.07857751846313477, -0.2249278426170349, -0.37123623490333557, 0.1338832974433899, 0.004940118174999952, -0.11126778274774551, 0.14908188581466675, -0.060771577060222626, 0.1397450864315033, -0.0637190043926239, -0.11847351491451263, -0.08799492567777634, -0.0038159044925123453, 0.012003232724964619, 0.11680632084608078, -0.09985040128231049, 0.07666238397359848, -0.09274693578481674, 0.18155041337013245, 0.1796855330467224, 0.36502325534820557, -0.07765385508537292, -0.009495476260781288, -0.11895952373743057, 0.08078673481941223, 0.07673698663711548, -0.17211146652698517, 0.13115625083446503, -0.13425737619400024, -0.18869486451148987, 0.03369850665330887, -0.11431079357862473, -0.3336676359176636, -0.05896352231502533, -0.18918512761592865, -0.15853914618492126, 0.1291329562664032, 0.023814771324396133, 0.1262863725423813, 0.025506438687443733, 0.056456614285707474, 0.012793343514204025, 0.012584032490849495, 0.2045379877090454, 0.05805574730038643, -0.12295732647180557, 0.058870766311883926, 0.1061425656080246, -0.04536614567041397, 0.004465128295123577, -0.08485367894172668, -0.012798723764717579, 0.05918964371085167, 0.008496780879795551, -0.07940735667943954, 0.018085775896906853, -0.051204126328229904, -0.054333604872226715, -0.018999703228473663, 0.16819433867931366, 0.07878581434488297, -0.0115910479798913, 0.009679222479462624, 0.06157466769218445, 0.03483852744102478, -0.0976368635892868, 0.038198694586753845, -0.04521244391798973, -0.07025173306465149, 0.022583574056625366, -0.17477716505527496, 0.05708925798535347, 0.14109238982200623, -0.05471319332718849, -0.08926183730363846, -0.022923754528164864, -0.04663613811135292, -0.11530590802431107, 0.07850148528814316, -0.20615506172180176, -0.13967788219451904, -0.128986194729805, -0.09951423853635788, 0.098087839782238, -0.11854957789182663, 0.1750890016555786, -0.10021497309207916, -0.01545732282102108, -0.03820371627807617, -0.2680152654647827, 0.31866100430488586, 0.16698266565799713, 0.29095831513404846, -0.017500312998890877, -0.1889476329088211, -0.033912647515535355, 0.08954290300607681, -0.02475845254957676, -0.27019625902175903, 0.04410376772284508, -0.22579166293144226, -0.20258565247058868, 0.129882350564003, -0.03395812213420868, 0.18471108376979828, -0.025829488411545753, -0.01906883344054222, -0.18742872774600983, 0.06762571632862091, 0.04842298850417137, 0.21822530031204224, 0.05922462046146393, 0.026619289070367813, -0.12951591610908508, 0.19963674247264862, -0.0628470778465271, 0.013779311440885067, -0.03977441415190697, -0.16472068428993225, -0.07624701410531998, -0.0027490074280649424, -0.1506413221359253, -0.2643268406391144, 0.18600600957870483, -0.10910837352275848, -0.045553114265203476, 0.1722547858953476, -0.010307868011295795, -0.14704029262065887, 0.04186450317502022, -0.12125260382890701, -0.1343734711408615, 0.1664581298828125, -0.04449222981929779, 0.23557983338832855, -0.1572502702474594, -0.08526116609573364, -0.4941900372505188, 0.3179835081100464, 0.1356774866580963, 0.2736092209815979, -0.038998328149318695, 0.0653022900223732, -0.3268842101097107, 0.2563408613204956, -0.08445347100496292, -0.3688274919986725, 0.19507402181625366, -0.04115518927574158, -0.3581611216068268, 0.10530132055282593, 0.08105786889791489, 0.35828956961631775, -0.20887260138988495, 0.07963651418685913, -0.30935758352279663, 0.14267539978027344, 0.017658820375800133, 0.4969578683376312, -0.15083162486553192, 0.07239656150341034, -0.41355642676353455, 0.23692837357521057, -0.11052379012107849, 0.30979543924331665, -0.2274247258901596, 0.1374211609363556, -0.44540849328041077, 0.1492885798215866, -0.06130610778927803, -0.2667270302772522, 0.2959973216056824, -0.1162603497505188, -0.5326606631278992, 0.024230998009443283, -0.003979505971074104, -0.44630151987075806, 0.04387333244085312, -0.0532899871468544, -0.38792890310287476, 0.0680135190486908, -0.00956525094807148, 0.34295254945755005, -0.27182891964912415, -0.10041327774524689, 0.34249114990234375, -0.17691676318645477, 0.11213832348585129, -0.2700134813785553, 0.15351362526416779, -0.2355981022119522, 0.08250777423381805, 0.13564139604568481, -0.1919804811477661, 0.2500651180744171, -0.021203558892011642, -0.14154522120952606, 0.18195047974586487, 0.07152334600687027, 0.12245475500822067, -0.34560856223106384, -0.05941605940461159, -0.2023177146911621, 0.243853360414505, -0.17228487133979797, 0.23807360231876373, -0.2540033161640167, -0.01794581115245819, -0.02925615943968296, 0.2535038888454437, 0.057579949498176575, 0.1981048285961151, -0.2459307163953781, -0.06520801782608032, -0.1209479570388794, 0.33329179883003235, -0.06872572749853134, -0.2492586225271225, 0.27491456270217896, 0.11386580020189285, -0.1407971978187561, 0.10399968922138214, -0.1379740685224533, -0.06776036322116852, 0.205734983086586, -0.08528121560811996, -0.07796268910169601, 0.27667707204818726, 0.09933263063430786, 0.25953254103660583, -0.19932572543621063, -0.06385767459869385, -0.07451293617486954, -0.15290617942810059, 0.29063522815704346, 0.04965526983141899, 0.1946171224117279, -0.04871880263090134, 0.14661403000354767, -0.19453832507133484, 0.055760301649570465, -0.0441642701625824, -0.42518699169158936, 0.3163154423236847, -0.044318072497844696, -0.38163429498672485, 0.25936663150787354, -0.08974604308605194, 0.24044205248355865, -0.2072177529335022, 0.03777576982975006, -0.3855845332145691, 0.358779639005661, -0.07584812492132187, 0.3768642544746399, -0.05560717359185219, 0.11441987752914429, -0.2668876051902771, 0.34452107548713684, -0.006016697734594345, 0.23481404781341553, -0.060950346291065216, 0.055811405181884766, -0.4571838974952698, 0.15237408876419067, -0.07513320446014404, -0.1917746663093567, 0.17237156629562378, -0.1211327314376831, -0.33509963750839233, 0.2692806124687195, 0.052221108227968216, -0.2740749716758728, 0.19696831703186035, 0.0682162195444107, -0.36029675602912903, 0.1275823563337326, -0.1870933324098587, 0.1805470734834671, -0.17569635808467865, -0.17552940547466278, 0.08678922802209854, 0.0531589649617672, 0.05113383010029793, -0.16664785146713257, 0.06846170872449875, -0.12163848429918289, 0.19291530549526215, -0.040222395211458206, -0.07335908710956573, 0.15451738238334656, 0.015703730285167694, 0.07420091331005096, -0.025565043091773987, -0.059354592114686966, -0.014472492039203644, -0.03627858683466911, 0.07610483467578888, -0.15277522802352905, 0.08475694060325623, -0.03035825490951538, 0.007431279867887497, 0.03139936178922653, -0.18880225718021393, -0.058572523295879364, 0.17817886173725128, 0.004941063933074474, 0.1593054234981537, -0.11143960058689117, 0.059041962027549744, -0.18595750629901886, 0.04647020250558853, 0.0399116650223732, -0.005904354155063629, 0.12406295537948608, 0.1708025336265564, -0.05873000621795654, 0.0723511278629303, 0.17693136632442474, -0.07909353822469711, 0.20011009275913239, -0.02255186066031456, -0.05908549949526787, 0.06697273999452591, 0.13487613201141357, 0.169977068901062, -0.051286857575178146, -0.15036430954933167, 0.1755099594593048, -0.15718795359134674, 0.10268421471118927, -0.1733047515153885, 0.27146175503730774, 0.1314939558506012, 0.09444022178649902, -0.3173462152481079, 0.10016357898712158, -0.024516036733984947, -0.15102851390838623, 0.021098796278238297, 0.02249888889491558, -0.12739329040050507, -0.1160806193947792, -0.06437366455793381, 0.07504776120185852, -0.03562158718705177, 0.13920442759990692, -0.018347954377532005, 0.00035798203316517174, 0.008097897283732891, 0.1646445095539093, -0.06790561974048615, -0.010409269481897354, -0.2820456922054291, 0.19287057220935822, -0.1279362589120865, 0.17616453766822815, 0.018134187906980515, 0.1896645873785019, -0.05447884649038315, 0.1276860237121582, -0.009062215685844421, -0.20035803318023682, -0.06656013429164886, -0.0008342555956915021, -0.1515026092529297, 0.13325637578964233, -0.03000105731189251, -0.09251317381858826, -0.07178348302841187, 0.05997220426797867, -0.06880033761262894, -0.02528204955160618, -0.11309686303138733, 0.03789452090859413, 0.06511219590902328, -0.015236160717904568, -0.09616199880838394, 0.028317850083112717, -0.06623218208551407, -0.10228929668664932, 0.07550263404846191, 0.0724455788731575, -0.058767661452293396, -0.0036189162638038397, 0.0839129164814949, 0.07804355770349503, -0.14594587683677673, -0.04623045772314072, -0.05875212326645851, -0.1777135282754898, 0.02774135395884514, 0.10840842127799988, 0.1721184402704239, 0.022394342347979546, 0.0753951445221901, -0.05937909707427025, 0.148478701710701, -0.043102286756038666, -0.02888382598757744, 0.019399870187044144, 0.11239723861217499, -0.1477258801460266, 0.15920411050319672, 0.05790546536445618, -0.04996762424707413, -0.06508040428161621, 0.11464089900255203, -0.17183387279510498, -0.06831667572259903, 0.039876773953437805, -0.17925550043582916, 0.037686772644519806, 0.05464792624115944, 0.015727944672107697, -0.13021217286586761, 0.12784302234649658, -0.15350942313671112, 0.10951998829841614, -0.15395788848400116, -0.19441211223602295, 0.09814795851707458, -0.018153222277760506, 0.026190606877207756, -0.3751060366630554, -0.1410018354654312, -0.1322820484638214, -0.04974481090903282, 0.013445661403238773, 0.03519134595990181, -0.0464063324034214, 0.003772590309381485, 0.21266837418079376, 0.033281389623880386, -0.24826481938362122, -0.031139880418777466, -0.057380158454179764, -0.05223554000258446, 0.03098566271364689, 0.07682548463344574, 0.8751478791236877, -0.47545376420021057, 0.6999539732933044, -0.5995453000068665, -0.09129121154546738, 0.947231650352478, 0.7903936505317688, -0.5855839848518372, 0.18056926131248474, 0.04758533462882042, -0.593575119972229, -0.34766340255737305, 0.10005046427249908, -0.7814664244651794, 0.17613543570041656, 0.5142048001289368, -0.3790547847747803, 0.07967568933963776, 0.2537291646003723, -0.07650761306285858, 0.5918757319450378, 0.0020607125479727983, 0.3602999448776245, 0.25891590118408203, 0.09290804713964462, 0.215737447142601, 0.32635605335235596, -0.36366942524909973, 0.2800765335559845, -0.06738924235105515, 0.32692399621009827, 0.029352614656090736, -0.16474443674087524, 0.03798351064324379, -0.4700269103050232, 0.19908884167671204, -0.04852907359600067, -0.15312014520168304, -0.2693508267402649, -0.1065867617726326, -0.11992546170949936, 0.024161171168088913, -0.3035331070423126, 0.22368279099464417, -0.1406320482492447, -0.006694457959383726, -0.07026582956314087, 0.07421508431434631, -0.2120363861322403, 0.1234835609793663, -0.0898280143737793, 0.2997719645500183, -0.3725954592227936, -0.22143563628196716, -0.12736687064170837, -0.38378599286079407, -0.011900111101567745, -0.2932068705558777, 0.03582606092095375, -0.2195170670747757, -0.010677112266421318, 0.31968972086906433, -0.05527004227042198, -0.09535583853721619, -0.19923754036426544, -0.09482309967279434, 0.01453221496194601, -0.17244532704353333, -0.05551127716898918, 0.018856029957532883, -0.028606217354536057, 0.00766270374879241, -0.22480663657188416, 0.0010009434772655368, -0.0795641764998436, -0.25708258152008057, 0.23624838888645172, 0.18647052347660065, -0.09366953372955322, -0.07850643247365952, -0.2796556055545807, -0.1289190948009491, -0.3523765206336975, 0.18123801052570343, 0.41796085238456726, -0.05434571951627731, 0.2078268826007843, -0.07326381653547287, 0.18003012239933014, 0.3631439208984375, -0.1907804012298584, 0.5854926705360413, -0.004894688259810209, 0.3066829741001129, -0.24658361077308655, 0.07395689189434052, 0.10055024176836014, -0.09156709909439087, 0.09036353975534439, 0.012972202152013779, 0.41345614194869995, 0.25145459175109863, 0.4134743809700012, 0.25253382325172424, 0.3170080780982971, 0.14059601724147797, -0.045550789684057236, 0.06039304658770561, 0.03155440837144852, -0.0930652767419815, 0.15057234466075897, 0.17396686971187592, -0.11937250941991806, 0.35935524106025696, -0.07610005140304565, 0.28535038232803345, -0.32371199131011963, -0.4494209885597229, -0.13620975613594055, -0.16569559276103973, -0.13562530279159546, -0.4124090373516083, -0.46534138917922974, 0.40217912197113037, -0.01931019313633442, 0.030210938304662704, -0.17657266557216644, -0.4790871739387512, 0.45614612102508545, -0.009796262718737125, 0.39067763090133667, -0.31828007102012634, -0.05248548835515976, 0.2447575330734253, 0.39971813559532166, 0.18854883313179016, 0.29362791776657104, -0.08793991059064865, 0.342275470495224, -0.21972541511058807, 0.151411235332489, -0.2179635763168335, -0.008921658620238304, 0.1484653353691101, -0.3258952498435974, 0.11519074440002441, -0.262662410736084, -0.2681885063648224, 0.1910257488489151, -0.23191644251346588, -0.08084776997566223, -0.03612520918250084, -0.30416321754455566, -0.10472598671913147, 0.11732771247625351, 0.2040674388408661, 0.07270181179046631, -0.017359666526317596, 0.0898432508111, -0.11410865932703018, -0.10808893293142319, 0.16218993067741394, 0.2715076804161072, -0.17479465901851654, -0.12354855984449387, -0.09362301975488663, 0.22910507023334503, -0.10982226580381393, -0.03494706749916077, 0.1184152364730835, 0.3011589050292969, 0.2553136646747589, 0.31132107973098755, 0.27473482489585876, -0.1731240302324295, -0.13503098487854004, -0.24957598745822906, 0.30200713872909546, -0.44235238432884216, 0.22926859557628632, -0.16067181527614594, -0.34901314973831177, -0.09331692010164261, -0.12539182603359222, -0.044611334800720215, -0.22552737593650818, -0.32176369428634644, 0.09035932272672653, -0.23554624617099762, 0.24403057992458344, -0.09861066192388535, 0.10975737124681473, -0.5498533844947815, 0.12775202095508575, 0.06076677888631821, 0.005153727252036333, -0.045570358633995056, -0.26111355423927307, -0.12457114458084106, -0.05445931479334831, -0.198968306183815, -0.26748380064964294, -0.11086244881153107, -0.30773240327835083, -0.04610443860292435, 0.2114579826593399, -0.19372788071632385, -0.4249431788921356, -0.5209664106369019, 0.060652654618024826, -0.0891912654042244, 0.008952246978878975, 0.29979807138442993, -0.30263862013816833, -0.0894520953297615, 0.12557446956634521, 0.29096269607543945, 0.08449695259332657, -0.2311810553073883, 0.18951497972011566, 0.07793737947940826, -0.05995599552989006, -0.19268885254859924, 0.04499804973602295, -0.3509683609008789, -0.1208922490477562, -0.25183242559432983, 0.10552569478750229, -0.057202745229005814, 0.08920719474554062, 0.14485792815685272, 0.014111563563346863, -0.06369497627019882, -0.0778099000453949, -0.15235330164432526, 0.060125213116407394, -0.2605037987232208, -0.0012746935244649649, -0.2311066836118698, 0.06030750647187233, -0.687710165977478, 0.30097052454948425, -0.18331724405288696, -0.136354461312294, 0.14766843616962433, -0.11014453321695328, 0.13436152040958405, 0.1947205364704132, -0.27385658025741577, 0.15054607391357422, -0.1207088828086853, -0.03534436598420143, 0.14920328557491302, 0.26621460914611816, -0.2107282280921936, -0.1018872782588005, 0.4623385965824127, -0.16425514221191406, 0.5242123007774353, -0.28037431836128235, 0.18474255502223969, 0.34913763403892517, 0.408149778842926, 0.46880027651786804, 0.12114308029413223, 0.12440654635429382, 0.2690265476703644, -0.5085644125938416, 0.3904270529747009, 0.05595535784959793, 0.3094126582145691, 0.1962571144104004, 0.24647681415081024, -0.17521190643310547, 0.352448046207428, -0.2720114588737488, 0.05203450843691826, 0.09079846739768982, 0.10823332518339157, 0.24117033183574677, -0.033943165093660355, -0.1424742341041565, -0.025609852746129036, -0.14573156833648682, 0.21799874305725098, 0.10249552875757217, -0.06512344628572464, 0.15572375059127808, 0.018115101382136345, 0.019724810495972633, 0.05938657745718956, 0.10125114768743515, 0.024420326575636864, 0.1280089020729065, -0.12978988885879517, 0.006079853978008032, 0.1220615804195404, -0.20810911059379578, -0.006646646652370691, 0.027522366493940353, -0.1558736115694046, -0.02867157571017742, 0.14318829774856567, 0.29777291417121887, -0.0428507924079895, 0.044223684817552567, -0.2169523388147354, -0.1474447399377823, 0.06390243023633957, 0.25116249918937683, -0.09467615932226181, -0.24452637135982513, -0.1978348344564438, 0.16665183007717133, -0.023372620344161987, -0.08507370948791504, 0.06613729894161224, -0.15453088283538818, -0.29912683367729187, -0.061879612505435944, 0.11087342351675034, -0.37650349736213684, -0.03689497336745262, 0.15585371851921082, -0.2327781468629837, 0.07742036134004593, 0.08961953222751617, -0.18544362485408783, 0.08673081547021866, -0.057765793055295944, -0.3435676097869873, 0.19122077524662018, 0.16101904213428497, 0.3018401861190796, -0.09030153602361679, -0.11109130829572678, -0.18779100477695465, 0.17561125755310059, 0.26141589879989624, 0.141529843211174, -0.0394555889070034, -0.003980613313615322, 0.11700962483882904, 0.08775375783443451, 0.2309604436159134, -0.17004410922527313, 0.011007905006408691, -0.13118861615657806, 0.17840999364852905, -0.023388640955090523, 0.15012769401073456, -0.29533815383911133, -0.06886579096317291, 0.05567575991153717, 0.4154530465602875, -0.20044280588626862, -0.16012918949127197, -0.10647539794445038, -0.06933661550283432, 0.057929348200559616, -0.02126322127878666, -0.17586037516593933, -0.26710668206214905, -0.08435069769620895, -0.07372459024190903, -0.24875272810459137, 0.37506118416786194, 0.10471255332231522, 0.014101294800639153, 0.10664299130439758, -0.06535917520523071, 0.11188340932130814, 0.06227664649486542, 0.13965252041816711, 0.22011566162109375, 0.22168681025505066, 0.09383455663919449, 0.0208445955067873, -0.03117057867348194, -0.05105340853333473, -0.09470190107822418, -0.41257938742637634, 0.14192628860473633, -0.01639367826282978, -0.36225584149360657, -0.21411773562431335, -0.10061110556125641, 0.44385260343551636, 0.08979476243257523, 0.07499869167804718, 0.13455162942409515, -0.08937519043684006, -0.054279543459415436, 0.07655321806669235, -0.16931574046611786, -0.23239615559577942, 0.17642411589622498, -0.1146884560585022, 0.15149660408496857, -0.25558972358703613, 0.30815640091896057, 0.32609063386917114, 0.4085630476474762, -0.2286074310541153, -0.11574020236730576, -0.2933029234409332, 0.21550646424293518, 0.27293750643730164, -0.11794308573007584, -0.40059056878089905, -0.11923274397850037, -0.26892292499542236, -0.019261831417679787, -0.20057591795921326, 0.12308593094348907, -0.35648930072784424, -0.03831540420651436, 0.2818070948123932, -0.34688058495521545, -0.10464534908533096, 0.2158491015434265, -0.11378586292266846, -0.09540417790412903, 0.1243777722120285, -0.09856422990560532, 0.07101429998874664, -0.13112573325634003, -0.3549361526966095, -0.126593217253685, -0.36399999260902405, 0.2943567633628845, 0.15971869230270386, -0.1704055219888687, -0.021292969584465027, 0.005400059279054403, 0.03288948908448219, -0.044541534036397934, 0.11249899864196777, -0.0063173165544867516, -0.31908276677131653, -0.1776820570230484, 0.03640257939696312, -0.002165457233786583, -0.12161413580179214, 0.12459205836057663, -0.1684333235025406, 0.059409916400909424, -0.0059324707835912704, 0.3727959096431732, 0.04458797723054886, 0.22402417659759521, -0.11845987290143967, 0.16216160356998444, -0.09668232500553131, 0.3998231589794159, 0.07948458194732666, 0.1250978261232376, -0.36089828610420227, 0.3129139244556427, 0.14052793383598328, -0.04218227043747902, 0.09002622961997986, 0.09490471333265305, -0.5226799845695496, 0.020146287977695465, -0.0182451531291008, -0.2639416754245758, 0.08554167300462723, 0.002842661691829562, -0.09350451081991196, -0.13246050477027893, 0.10717161744832993, -0.26985180377960205, -0.044948510825634, -0.11765863001346588, -0.33361220359802246, 0.2567049562931061, -0.04233745485544205, 0.36926397681236267, 0.002897573634982109, -0.025748541578650475, -0.38095822930336, 0.26502111554145813, 0.09764008224010468, 0.39171087741851807, -0.18915963172912598, -0.08196844160556793, 0.02923528663814068, -0.2683619558811188, -0.07004082947969437, 0.11147681623697281, 0.14199304580688477, 0.11278046667575836, 0.11298190802335739, -0.19601266086101532, -0.1557740718126297, -0.06322505325078964, 0.139908567070961, 0.1013089194893837, 0.04002051800489426, -0.3122465908527374, -0.09731253236532211, -0.0064452639780938625, 0.35112226009368896, 0.16079118847846985, 0.12782931327819824, -0.16691650450229645, -0.06936787813901901, -0.15051233768463135, 0.22459162771701813, 0.18272846937179565, 0.024800507351756096, -0.3213803768157959, 0.009225600399076939, 0.15597748756408691, -0.041887376457452774, -0.046095822006464005, -0.15416362881660461, -0.025822650641202927, 0.004065110348165035, 0.01699328050017357, -0.15577685832977295, 0.16771483421325684, -0.11319049447774887, -0.15069521963596344, 0.046494852751493454, -0.1715131402015686, 0.23830832540988922, -0.11811389774084091, 0.12401409447193146, 0.1239980161190033, -0.1550900638103485, -0.021296007558703423, -0.22835081815719604, 0.002047768095508218, 0.14202360808849335, -0.035755839198827744, 0.02204148843884468, 0.18618430197238922, -0.0266688484698534, -0.16269734501838684, 0.15110425651073456, -0.15977300703525543, 0.029605349525809288, -0.28794777393341064, 0.14833132922649384, 0.12535785138607025, -0.16096888482570648, -0.3054083585739136, 0.08834569156169891, -0.41978633403778076, 0.3288317322731018, 0.2706116735935211, 0.34903955459594727, -0.2941981852054596, 0.16642583906650543, -0.0411442331969738, -0.007162986323237419, 0.142614483833313, 0.2502461373806, -0.10434471070766449, 0.20145326852798462, 0.23673857748508453, -0.05912376940250397, 0.02093406394124031, 0.3289927542209625, -0.04822544381022453, -0.0074384878389537334, -0.03420857712626457, -0.06609983742237091, -0.027772696688771248, 0.6538903117179871, -0.280523419380188, -0.031908027827739716, -0.15687698125839233, 0.30867621302604675, 0.016149122267961502, 0.5963529944419861, -0.11849625408649445, 0.09202919900417328, -0.2551557421684265, 0.028933510184288025, 0.016553081572055817, -0.08135134726762772, 0.23912133276462555, 0.01174653135240078, -0.19647924602031708, -0.16608555614948273, -0.06779105961322784, -0.1175014078617096, 0.0054129320196807384, 0.20076875388622284, 0.46749627590179443, 0.06453469395637512, 0.19318507611751556, -0.3071472942829132, 0.18763482570648193, 0.043622784316539764, 0.44971564412117004, 0.0066358656622469425, 0.015542480163276196, -0.22708217799663544, -0.017161499708890915, -0.03868991881608963, 0.05058642104268074, -0.11925718933343887, 0.05940303951501846, -0.3470737636089325, 0.12348323315382004, -0.14031296968460083, -0.41551512479782104, -0.052391551434993744, 0.1314479112625122, 0.1021159365773201, 0.21641123294830322, 0.0841585025191307, 0.07196485251188278, -0.05015619844198227, -0.15758109092712402, -0.08934181183576584, -0.03220947086811066, -0.1013684943318367, 0.20740832388401031, -0.09552644938230515, -0.24317972362041473, 0.21068644523620605, 0.019096940755844116, 0.3192554712295532, -0.10479431599378586, -0.0456073135137558, -0.3244779706001282, 0.0011421891395002604, 0.10903138667345047, -0.09397225826978683, 0.00440935930237174, -0.03202790394425392, 0.2987688481807709, -0.13529936969280243, -0.23863829672336578, 0.21252650022506714, -0.00191107124555856, -0.07763826102018356, 0.04417196288704872, -0.2480039745569229, 0.04184757545590401, 0.06543479114770889, -0.056969232857227325, 0.01744185760617256, 0.3814418911933899, -0.0502682663500309, 0.10588660091161728, 0.19872291386127472, 0.27348437905311584, -0.06916343420743942, 0.05140240117907524, -0.27858251333236694, -0.015772951766848564, -0.13071462512016296, -0.1638479083776474, 0.08880406618118286, -0.12764140963554382, 0.13142943382263184, -0.06947367638349533, -0.12459063529968262, -0.002120280871167779, -0.0869419127702713, 0.07429472357034683, 0.22872360050678253, -0.010213198140263557, -0.1464257687330246, 0.025149213150143623, 0.027852633967995644, 0.14492903649806976, 0.17965085804462433, 0.19749557971954346, -0.22663453221321106, -0.29920467734336853, -0.3164554536342621, 0.1812196969985962, 0.20342940092086792, 0.31096330285072327, -0.11468242108821869, -0.07726907730102539, -0.0916985347867012, 0.08281408250331879, -0.06258033961057663, -0.11602883040904999, -0.03335975483059883, -0.02564561739563942, -0.11731504648923874, 0.057888489216566086, 0.08561749756336212, 0.03195823356509209, 0.0016985790571197867, -0.0614485964179039, 0.054949529469013214, -0.1262558549642563, -0.15395241975784302, 0.1826169639825821, -0.001984626753255725, 0.11668826639652252, -0.07415106892585754, -0.011005096137523651, 0.004721871577203274, -0.002395744901150465, -0.23397059738636017, -0.03169628232717514, 0.13722623884677887, -0.0761779174208641, 0.13416141271591187, 0.1556413769721985, -0.05963077396154404, -0.10098052769899368, -0.12900154292583466, -0.181204155087471, -0.1904984414577484, 0.07660315930843353, 0.05813448131084442, 0.02367527037858963, -0.05581921339035034, 0.07423735409975052, 0.28902414441108704, 0.09141115844249725, 0.025153685361146927, -0.11246047914028168, 0.07512762397527695, -0.07193377614021301, -0.09866122901439667, -0.045802827924489975, 0.1026119738817215, 0.21049538254737854, 0.009602459147572517, 0.24993108212947845, -0.014020616188645363, 0.08797487616539001, -0.13043291866779327, 0.0319773405790329, 0.10740717500448227, 0.10606735944747925, -0.1803397238254547, 0.008610440418124199, -0.2403259575366974, 0.08954434841871262, 0.12648488581180573, 0.15116006135940552, 0.09546913206577301, -0.039674900472164154, -0.1492583006620407, -0.0356144979596138, 0.063608318567276, 0.008600234054028988, -0.05990882217884064, 0.0877651497721672, 0.17008638381958008, -0.010117209516465664, -0.026068314909934998, 0.10276962071657181, -0.09714663773775101, -0.06225832551717758, 0.043042223900556564, -0.04143431410193443, -0.007273365743458271, 0.2056693434715271, -0.07613260298967361, 0.13797958195209503, -0.20327907800674438, 0.1134437620639801, -0.09471030533313751, 0.13917961716651917, 0.41425177454948425, 0.09580995887517929, -0.02171357534825802, -0.13630825281143188, -0.20161963999271393, -0.04952053725719452, 0.039614636451005936, 0.1566104143857956, -0.1669701337814331, -0.13411568105220795, -0.1282453089952469, 0.6723071932792664, 0.11675728857517242, -0.04581917077302933, -0.010548160411417484, 0.20275850594043732, 0.1395961344242096, 0.07044349610805511, -0.09182874113321304, 0.03571881353855133, -0.28254926204681396, 0.18462282419204712, 0.18261344730854034, 0.37299907207489014, -0.05551503971219063, 0.11321888118982315, -0.32663559913635254, -0.26540008187294006, -0.1896878331899643, 0.34979575872421265, -0.12909245491027832, -0.12135026603937149, 0.21920478343963623, -0.03449693322181702, -0.18329687416553497, 0.6184077858924866, 0.2866043448448181, 0.15401612222194672, 0.3744490146636963, 0.023278819397091866, 0.15479230880737305, 0.5762931108474731, 0.17445987462997437, 0.04433958977460861, -0.3422580361366272, -0.012700045481324196, 0.09129087626934052, 0.8058287501335144, 0.09249598532915115, 0.17330411076545715, -0.4003031849861145, -0.02971176989376545, -0.1514541208744049, -0.05027646943926811, 0.23699340224266052, 0.32043296098709106, -0.3044024407863617, -0.27595028281211853, -0.2334440052509308, -0.056853972375392914, -0.026384444907307625, -0.09763135761022568, 0.41609203815460205, 0.2867330312728882, 0.007042993791401386, -0.20751143991947174, -0.09245728701353073, 0.1385747194290161, 0.4153350591659546, 0.2847328782081604, 0.048274438828229904, 0.1104685440659523, -0.045550525188446045, 0.14493577182292938, -0.2640573978424072, -0.049570053815841675, -0.178781658411026, -0.21544761955738068, 0.021277092397212982, 0.043256957083940506, -0.4934965670108795, -0.21251320838928223, -0.07360124588012695, -0.02604098990559578, 0.007975257001817226, 0.3008040189743042, 0.16831578314304352, 0.12253805249929428, 0.0891934484243393, 0.021004263311624527, -0.03149477764964104, -0.011259358376264572, 0.08166804164648056, 0.07028713822364807, 0.04206997528672218, -0.1459314078092575, 0.034206025302410126, 0.13915306329727173, 0.059257276356220245, 0.10915146768093109, -0.2141183763742447, 0.1289585530757904, 0.11445488780736923, -0.09158837795257568, 0.027348410338163376, 0.039341602474451065, -0.03606949746608734, -0.07870995253324509, 0.02014312520623207, -0.06216616928577423, -0.13029932975769043, -0.2205972522497177, 0.2513062357902527, -0.018460357561707497, -0.03214094042778015, -0.15780076384544373, -0.09359072148799896, -0.21412760019302368, 0.11230097711086273, -0.22912156581878662, 0.1039789468050003, 0.06884398311376572, -0.08170820772647858, -0.04344407096505165, -0.04997697472572327, 0.12215343117713928, 0.2620866596698761, -0.05567681044340134, 0.14244557917118073, -0.03088153526186943, -0.08102997392416, -0.08672884851694107, -0.07558353245258331, 0.12779487669467926, -0.039426498115062714, 0.012174117378890514, -0.15422268211841583, -0.03729439154267311, 0.04633369296789169, 0.12252813577651978, 0.0647774264216423, -0.004767586477100849, 0.11047600954771042, -0.14033262431621552, -0.04228955879807472, -0.05282183736562729, 0.17345021665096283, 0.14848683774471283, 0.09584159404039383, -0.006730441004037857, -0.07832574099302292, 0.18098880350589752, -0.25496044754981995, -0.07806096225976944, -0.0112606855109334, 0.13606363534927368, 0.10919651389122009, 0.11850053817033768, 0.04133295640349388, 0.09474862366914749, -0.17512570321559906, 0.0036515803076326847, 0.11187384277582169, 0.18083567917346954, 0.2253434956073761, 0.0828256905078888, -0.035521313548088074, -0.15464238822460175, -0.1007935106754303, 0.05194535851478577, 0.013548454269766808, -0.0482112318277359, 0.08120954781770706, -0.02748754620552063, -0.007578510791063309, 0.012924730777740479, -0.24255922436714172, -0.0808953270316124, -0.06236419081687927, -0.17514903843402863, -0.00025178739451803267, -0.014960513450205326, -0.014977970160543919, 0.07197178155183792, -0.06742110103368759, -0.2908424437046051, -0.06644462794065475, -0.19006167352199554, -0.013626212254166603, -0.06967612355947495, 0.010748747736215591, -0.1599893718957901, -0.12553969025611877, 0.16601577401161194, -0.08715801686048508, 0.2685334384441376, -0.3712705075740814, -0.12029991298913956, 0.15658719837665558, -0.06557751446962357, -0.012240201234817505, 0.034911561757326126, -0.011382444761693478, -0.17697159945964813, 0.20079050958156586, -0.09394367784261703, 0.13648806512355804, -0.2960134446620941, 0.07531405240297318, -0.01678626611828804, 0.2296701818704605, -0.12146608531475067, 0.05255239084362984, -0.2635354995727539, 0.026501329615712166, 0.05736277252435684, 0.11983880400657654, -0.11492762714624405, -0.04944119229912758, -0.1540963351726532, 0.2730105519294739, -0.06836598366498947, 0.31413233280181885, -0.042564425617456436, 0.04445403814315796, 0.31380677223205566, -0.1437378078699112, -0.12095800042152405, 0.08200749009847641, -0.025875544175505638, -0.057864490896463394, 0.09597887843847275, -0.14447465538978577, -0.21831423044204712, 0.20211118459701538, -0.11069096624851227, 0.15421020984649658, -0.24952402710914612, 0.14620880782604218, -0.08662297576665878, 0.22778135538101196, 0.17560575902462006, -0.013923603110015392, -0.04613383486866951, -0.1550828516483307, 0.09108391404151917, 0.10072734951972961, 0.07518918067216873, 0.22145801782608032, 0.1180245578289032, -0.06323674321174622, -0.16785115003585815, 0.013862487860023975, 0.10991019010543823, -0.14205427467823029, -0.1776292771100998, 0.10490119457244873, 0.04467305168509483, 0.06167005002498627, -0.3385407626628876, 0.0008446231367997825, -0.2186664193868637, -0.08538507670164108, -0.11553653329610825, -0.10738356411457062, -0.10453067719936371, -0.042894985526800156, 0.159622460603714, 0.2695729434490204, 0.05639206990599632, 0.1775984764099121, -0.16752448678016663, 0.08421338349580765, 0.12065103650093079, -0.025835219770669937, -0.07329690456390381, -0.08843172341585159, 0.10643798112869263, 0.039948634803295135, 0.13462887704372406, -0.13219507038593292, 0.08803492039442062, 0.02070995233952999, 0.1725614219903946, 0.01589350588619709, 0.14373622834682465, 0.21052676439285278, 0.14563409984111786, 0.13502156734466553, 0.028160549700260162, 0.10739830881357193, -0.1716163158416748, 0.1051681637763977, 0.2658884525299072, 0.12319036573171616, 0.0741979107260704, -0.12041617929935455, 0.17360398173332214, 0.28006404638290405, 0.05880870670080185, 0.09228362143039703, -0.0013055084273219109, -0.06438557803630829, -0.577460765838623, 0.27746865153312683, 0.8963453769683838, -0.49781322479248047, 0.2837655544281006, -0.8365991115570068, -0.1709117591381073, -0.2753525376319885, 0.6644296646118164, -0.9658962488174438, -0.530922532081604, -0.9532181620597839, -0.05560998618602753, -0.7775816917419434, 0.08987584710121155, -0.9870795011520386, -0.2871077358722687, 0.02355429157614708, 0.3126552402973175, 0.1743600219488144, 0.30663377046585083, -0.13658380508422852, -0.3692278563976288, -0.10827562212944031, -0.09903233498334885, -0.1330336481332779, 0.1260141134262085, -0.09732969105243683, 0.1850235015153885, 0.3331262171268463, -0.1311095803976059, 0.1535390317440033, 0.1696261316537857, -0.15210242569446564, -0.04273347184062004, -0.10174782574176788, -0.1976412981748581, 0.38521161675453186, -0.04699257016181946, -0.26036813855171204, 0.04191439226269722, -0.15099063515663147, -0.0023242749739438295, 0.142013818025589, 0.07363545894622803, 0.16300925612449646, 0.1624729037284851, 0.23975783586502075, -0.023325815796852112, -0.19849199056625366, 0.0906016156077385, 0.058628540486097336, 0.17557117342948914, 0.17706842720508575, -0.004311792086809874, -0.1081877127289772, -0.10763578116893768, 0.042521025985479355, -0.26714351773262024, -0.20385077595710754, 0.09106028825044632, -0.18036167323589325, 0.183195099234581, 0.12508581578731537, 0.04728686809539795, -0.01383256260305643, 0.02120044082403183, -0.2804552912712097, -0.07862204313278198, 0.03307737037539482, -0.07644937932491302, -0.2190369963645935, -0.13615334033966064, 0.03492981567978859, 0.06340029835700989, 0.2202228307723999, 0.28495773673057556, 0.016659164801239967, 0.09764207899570465, 0.2534976005554199, 0.37592360377311707, -0.25473499298095703, -0.2401418685913086, -0.29756560921669006, 0.12996995449066162, -0.06618441641330719, 0.038474034518003464, 0.314726322889328, 0.5584352612495422, -0.2221299260854721, -0.8025447726249695, 0.35357341170310974, -0.21475090086460114, 0.3227795660495758, -0.06863617151975632, -0.09508275985717773, -0.19220983982086182, -0.02408166043460369, -0.4092981219291687, -0.06824960559606552, 0.05798372998833656, -0.18164889514446259, -0.18653975427150726, -0.19278328120708466, 0.09039924293756485, 0.36364561319351196, -0.046832360327243805, -0.12129025161266327, -0.19741852581501007, 0.05150894448161125, 0.08774673938751221, 0.0005578644340857863, 0.24378949403762817, -0.11123986542224884, -0.12760686874389648, -0.22798961400985718, 0.14831961691379547, 0.29100847244262695, -0.2992711067199707, -0.13820695877075195, -0.009173586033284664, -0.008773497305810452, -0.06584782153367996, 0.19817839562892914, 0.031159482896327972, 0.13752147555351257, 0.11541564017534256, 0.22922368347644806, 0.09637632966041565, 0.00015554073615930974, -0.05231863260269165, 0.11248467862606049, 0.09983187168836594, -0.18343044817447662, -0.07795236259698868, 0.10568687319755554, 0.011359813623130322, 0.22183164954185486, -0.38810643553733826, 0.08147497475147247, -0.13132821023464203, 0.11287827789783478, 0.12118198722600937, 0.06980818510055542, -0.15411080420017242, 0.24147245287895203, 0.10578450560569763, -0.0962032824754715, 0.14156879484653473, -0.12501418590545654, -0.12609955668449402, -0.20907655358314514, -0.09257392585277557, 0.07602853327989578, 0.36648985743522644, -0.24047602713108063, 0.10562112182378769, -0.11564768105745316, -0.0707802027463913, 0.3359672725200653, -0.14001542329788208, 0.08370591700077057, -0.05140211060643196, 0.08301365375518799, 0.1254129558801651, -0.03679576516151428, 0.012728081084787846, -0.04902200400829315, -0.0413302443921566, 0.24133023619651794, 0.207632914185524, 0.3885036110877991, -0.008355341851711273, -0.040805429220199585, 0.2195315659046173, -0.022867856547236443, -0.10882618278265, -0.13276851177215576, 0.1739346981048584, 0.24551691114902496, 0.1277809739112854, -0.1875607818365097, 0.004036739934235811, -0.0013101290678605437, 0.030246231704950333, 0.10950101166963577, -0.1316690742969513, 0.15225477516651154, -0.030911605805158615, 0.014391391538083553, -0.18237613141536713, 0.02140618860721588, 0.26762011647224426, 0.10478310286998749, -0.34534549713134766, -0.062399689108133316, -0.3319810926914215, 0.002113951602950692, 0.16515879333019257, 0.242812380194664, -0.11115823686122894, 0.24394527077674866, 0.18727371096611023, -0.14779241383075714, -0.11926435679197311, -0.06908058375120163, -0.07101204991340637, -0.06564249098300934, -0.028587840497493744, -0.22426222264766693, -0.24646110832691193, 0.3317350745201111, -0.10036143660545349, 0.06500133872032166, -0.1486242562532425, 0.261663019657135, -0.002191043458878994, -0.14743120968341827, -0.2867674231529236, -0.2808968424797058, 0.006106414366513491, 0.04716172441840172, 0.021803107112646103, -0.12310846149921417, 0.14875365793704987, -0.037180207669734955, -0.24017611145973206, 0.20525239408016205, -0.1501707136631012, 0.14312325417995453, -0.06330548971891403, 0.008340533822774887, 0.22062380611896515, 0.09990257024765015, 0.03872958943247795, -0.08564039319753647, 0.10260022431612015, 0.28979942202568054, 0.14358198642730713, -0.024981264024972916, 0.09818509221076965, 0.17238329350948334, 0.09450455009937286, 0.009511550888419151, -0.21231268346309662, -0.13116872310638428, 0.188162162899971, 0.02378680184483528, -0.07417158037424088, -0.09056748449802399, -0.3233166038990021, 0.07500562071800232, -0.22496719658374786, 0.19764083623886108, 0.008176152594387531, -0.017374271526932716, 0.22953879833221436, -0.21540221571922302, -0.11016536504030228, -0.13688498735427856, -0.15079265832901, -0.07985760271549225, -0.2227342426776886, 0.15050311386585236, 0.2998809814453125, -0.22791866958141327, -0.0416223369538784, 0.1082579642534256, -0.25116094946861267, 0.14934217929840088, -0.23440630733966827, -0.26556771993637085, 0.03985113278031349, -0.0801200270652771, 0.2525489330291748, -0.2182793915271759, 0.3591574728488922, 0.19523277878761292, 0.10877936333417892, 0.35899293422698975, 0.039726465940475464, -0.1439112275838852, 0.08908222615718842, -0.3197937607765198, 0.31795746088027954, -0.15256904065608978, -0.18919076025485992, 0.1470452845096588, -0.12204683572053909, 0.05845614895224571, -0.07586664706468582, 0.10007277876138687, -0.1428663581609726, 0.09761754423379898, -0.04120277613401413, -0.24712185561656952, -0.00682076346129179, 0.1238560751080513, -0.2652354836463928, 0.08502895385026932, 0.15247391164302826, 0.14894217252731323, -0.15044043958187103, -0.03945627436041832, 0.29110270738601685, -0.17532451450824738, -0.09283139556646347, -0.23111073672771454, 0.040692560374736786, -0.06385596096515656, 0.20936302840709686, -0.2481706142425537, -0.05622066557407379, 0.0009200285421684384, 0.09638436138629913, 0.1049899011850357, -0.251225084066391, -0.041855163872241974, -0.12231098860502243, -0.10738418996334076, -0.22417300939559937, 0.16841134428977966, -0.09441599249839783, 0.0425710529088974, -0.015109309926629066, -0.10451246798038483, -0.024638822302222252, 0.12522107362747192, 0.15933352708816528, 0.0022572509478777647, 0.19894185662269592, 0.025866787880659103, 0.018183818086981773, 0.062391865998506546, 0.08614861965179443, -0.10239576548337936, -0.09130233526229858, -0.25581541657447815, -0.028395988047122955, -0.06081225350499153, 0.32869598269462585, -0.07113638520240784, -0.07676505297422409, 0.10397731512784958, -0.1444433480501175, -0.12643727660179138, -0.04734475165605545, -0.20939324796199799, 0.1769353449344635, -0.1411980837583542, 0.07946076989173889, -0.07354220002889633, 0.1678340882062912, 0.16296929121017456, 0.08114366233348846, 0.06472504884004593, 0.11685780435800552, -0.11467093974351883, -0.34289422631263733, -0.10429652780294418, 0.015119291841983795, 0.09551022201776505, -0.13432922959327698, 0.2903252840042114, 0.1228509396314621, 0.1217806488275528, -0.05157826468348503, 0.1855790615081787, -0.22795072197914124, -0.028064671903848648, 0.1088239774107933, 0.046842191368341446, -0.3262755870819092, 0.021494409069418907, -0.08614058047533035, -0.043742820620536804, 0.1565738469362259, 0.025883212685585022, 0.02031770907342434, 0.12112966924905777, -0.027804838493466377, 0.18429942429065704, -0.2386242002248764, 0.23004943132400513, -0.0794728547334671, 0.03669751435518265, -0.1857464611530304, -0.019050830975174904, 0.044591572135686874, -0.011346898972988129, 0.02359149046242237, -0.036058057099580765, 0.3305620551109314, -0.31698665022850037, 0.1037679985165596, 0.1789841502904892, 0.08424969017505646, -0.03795768320560455, -0.1443101018667221, 0.3046203851699829, 0.11190052330493927, 0.11308804899454117, -0.042501211166381836, 0.12420237064361572, 0.10240907967090607, 0.21792158484458923, 0.19318822026252747, 0.026829449459910393, -0.0719296857714653, -0.005215076729655266, 0.0838208794593811, -0.30853813886642456, 0.44882166385650635, -0.18323734402656555, 0.025972425937652588, -0.3202427625656128, 0.10509835183620453, -0.23717044293880463, 0.195381760597229, 0.04950791969895363, -0.17310957610607147, 0.12549276649951935, 0.1328802853822708, -0.2674419581890106, 0.08259712159633636, 0.12761300802230835, 0.16095367074012756, -0.04467662796378136, -0.21760889887809753, 0.0642305463552475, 0.11307763308286667, -0.07788923382759094, 0.08865325152873993, -0.31016841530799866, 0.050376661121845245, -0.2104058563709259, 0.16795457899570465, -0.028743520379066467, -0.03507707267999649, 0.37728434801101685, 0.03812509402632713, 0.02966485358774662, 0.16507427394390106, -0.12711234390735626, 0.10717981308698654, -0.0556814968585968, -0.10846380889415741, 0.21401198208332062, -0.18131019175052643, -0.11947552114725113, 0.049279652535915375, 0.1450945883989334, -0.12542866170406342, 0.0343804657459259, -0.22942616045475006, -0.04676949977874756, -0.08328850567340851, 0.10691428184509277, 0.03694262355566025, 0.26954764127731323, -0.41169607639312744, -0.1701820343732834, -0.030890755355358124, 0.4044687747955322, 0.37497398257255554, 0.08754416555166245, 0.23799921572208405, 0.02604166604578495, -0.03646160289645195, 0.034041810780763626, 0.07122093439102173, 0.037145163863897324, 0.06424836814403534, 0.22243116796016693, 0.07722002267837524, 0.056793831288814545, 0.06864430010318756, -0.030136533081531525, -0.18674857914447784, -0.0504014827311039, -0.01308323536068201, -0.08446276187896729, 0.15614743530750275, -0.09225624799728394, 0.04498012363910675, -0.06359121203422546, 0.18912936747074127, 0.3458026647567749, -0.0064574480056762695, -0.08289767056703568, 0.18739822506904602, -0.15226435661315918, 0.049389202147722244, 0.07168254256248474, -0.05089960992336273, -0.007802486885339022, -0.10650426894426346, -0.041386112570762634, -0.13498204946517944, -0.06100160628557205, 0.1065170094370842, 0.02214732952415943, -0.04786220192909241, 0.15809881687164307, -0.08134641498327255, -0.2062149941921234, 0.05707481503486633, -0.13193337619304657, 0.10774113237857819, 0.2207021713256836, 0.09190905094146729, 0.3079562783241272, 0.2553454637527466, -0.14931556582450867, -0.0766756683588028, -0.2495712786912918, 0.07640755921602249, 0.1467914581298828, -0.010179453529417515, -0.011606404557824135, -0.113303042948246, 0.11721138656139374, -0.18642975389957428, 0.03486267477273941, -0.05560863018035889, 0.04570099711418152, -0.07214122265577316, -0.12148161977529526, 0.24684731662273407, -0.5519756078720093, -0.05567792057991028, -0.10333488136529922, 0.1743636429309845, 0.05381576716899872, -0.19473151862621307, -0.057528842240571976, -0.17866551876068115, -0.2527710795402527, 0.010570057667791843, 0.06703551113605499, 0.16259223222732544, 0.20594611763954163, 0.08471066504716873, 0.08139485120773315, -0.07623393088579178, 0.1875302493572235, -0.24205011129379272, 0.2755656838417053, 0.04800071567296982, 0.09994254261255264, -0.2488369345664978, 0.0650707259774208, -0.07537201792001724, 0.05310846120119095, -0.058534976094961166, 0.12466540932655334, -0.339701771736145, -0.0037662466056644917, -0.09931906312704086, 0.01118496060371399, 0.0884331539273262, -0.17820675671100616, 0.5374358892440796, 0.1031409427523613, 0.02366878278553486, 0.14156180620193481, -0.09633707255125046, -0.12387830018997192, 0.38370779156684875, 0.17660516500473022, 0.009539932943880558, 0.23007279634475708, -0.0994858369231224, 0.30995550751686096, -0.017944278195500374, 0.011733288876712322, -0.1964251846075058, 0.23520958423614502, -0.07108395546674728, 0.2808772027492523, -0.13757076859474182, 0.00363229401409626, 0.13301703333854675, -0.28649628162384033, -0.18759988248348236, 0.26055610179901123, 0.0980495885014534, 0.12029895186424255, -0.14341692626476288, -0.17699319124221802, 0.1799510270357132, -0.2038331776857376, 0.178997203707695, 0.04043298587203026, 0.1186327189207077, -0.12875835597515106, -0.11047198623418808, -0.11682762950658798, 0.14418230950832367, -0.14301711320877075, 0.044815290719270706, -0.05060120299458504, 0.09680576622486115, 0.15838861465454102, 0.4514646530151367, -0.19195465743541718, -0.22493258118629456, -0.1788090020418167, -0.36930906772613525, 0.264082133769989, -0.36629876494407654, 0.028797414153814316, -0.0911964401602745, -0.36421868205070496, 0.13480299711227417, 0.10444192588329315, -0.38010281324386597, -0.08330085128545761, -0.020718788728117943, -0.36860814690589905, 0.23908980190753937, -0.025251172482967377, -0.0597725436091423, 0.027958856895565987, -0.027853047475218773, -0.16883836686611176, -0.0009386911406181753, -0.11495242267847061, 0.19835242629051208, 0.060250815004110336, -0.1736140251159668, 0.28676095604896545, -0.04793758690357208, -0.298993855714798, 0.1315850466489792, 0.03525840491056442, -0.020897524431347847, 0.009067650884389877, -0.12485664337873459, -0.05817091092467308, -0.29376253485679626, -0.15348292887210846, -0.24068517982959747, 0.15295949578285217, -0.000659705838188529, 0.021335115656256676, -0.11038811504840851, -0.024658160284161568, -0.1616365611553192, 0.17818225920200348, -0.09955647587776184, -0.06405811011791229, 0.1293502300977707, 0.16177242994308472, 0.07791419327259064, -0.14829221367835999, 0.181540384888649, -0.0769604817032814, 0.2970101535320282, -0.16987468302249908, -0.10001702606678009, 0.028916552662849426, 0.12324532121419907, -0.19405049085617065, 0.05818482115864754, 0.08040452748537064, 0.19946150481700897, 0.2234848588705063, -0.10163232684135437, -0.023060863837599754, -0.24768026173114777, 0.004000233486294746, -0.14535556733608246, -0.11329511553049088, -0.02576824463903904, 0.24216264486312866, -0.14657583832740784, 0.09252879023551941, -0.10509428381919861, -0.17424455285072327, 0.16921456158161163, 0.047858480364084244, -0.1768118441104889, 0.0252444576472044, -0.3681393563747406, -0.18658766150474548, -0.17444123327732086, -0.3149082064628601, 0.10883790999650955, -0.08263162523508072, 0.19297122955322266, -0.16622017323970795, -0.005166263785213232, 0.03303460776805878, 0.1974136084318161, 0.04038217291235924, 0.18866071105003357, -0.14434416592121124, 0.12078888714313507, 0.47065818309783936, 0.3852700889110565, -0.17323905229568481, -0.049549948424100876, -0.09324996173381805, -0.07334863394498825, -0.009543697349727154, -0.2288915514945984, -0.0739782452583313, -0.5638477802276611, -0.1818314492702484, 0.2293778508901596, -0.06667565554380417, -0.0855124443769455, 0.1779991090297699, 0.12155690789222717, -0.3856108486652374, 0.05417971312999725, 0.007656667847186327, 0.22319261729717255, -0.03686269372701645, -0.03259894251823425, -0.26108989119529724, -0.19180354475975037, -0.1267390251159668, 0.21171611547470093, 0.007532462943345308, -0.0630275160074234, 0.029698995873332024, -0.04359258711338043, -0.16261954605579376, 0.08860790729522705, -0.10966141521930695, 0.07299964129924774, -0.030325455591082573, -0.022576479241251945, 0.040211185812950134, 0.17604726552963257, -0.32597115635871887, -0.2811841368675232, 0.07084940373897552, -0.18806682527065277, 0.20720236003398895, -0.15123029053211212, -0.09989692270755768, -0.26241686940193176, -0.1812896430492401, 0.011718477122485638, 0.26510852575302124, -0.019791146740317345, 0.38921332359313965, 0.03897137567400932, -0.2188565880060196, 0.12812629342079163, -0.10726509243249893, 0.31362107396125793, 0.0068673803471028805, -0.007848106324672699, 0.024001462385058403, -0.2150951623916626, -0.08413586020469666, 0.031693436205387115, 0.034353360533714294, -0.1340717375278473, -0.21668896079063416, -0.06374525278806686, 0.2882043719291687, -0.02530878409743309, -0.13689279556274414, 0.021733829751610756, 0.04148663580417633, -0.07010186463594437, -0.07632686197757721, 0.013612358830869198, 0.2869890630245209, 0.034616656601428986, -0.13256603479385376, 0.331881046295166, -0.04880252480506897, -0.09459983557462692, 0.11077769100666046, 0.14630384743213654, -0.07683951407670975, -0.03532382845878601, 0.05343543365597725, 0.09440263360738754, -0.350539892911911, 0.04742928594350815, -0.02206558734178543, -0.08893567323684692, 0.23924539983272552, 0.26835137605667114, 0.04946194961667061, -0.06488043814897537, 0.0272674560546875, -0.026885773986577988, -0.05866212397813797, -0.23829583823680878, -0.06140337511897087, -0.02407126873731613, -0.16029134392738342, -0.024555649608373642, -0.17437012493610382, -0.16944020986557007, 0.04351280257105827, 0.09712301194667816, 0.02008795365691185, 0.08811769634485245, 0.011673088185489178, -0.08246209472417831, 0.04676033556461334, -0.039586856961250305, 0.02074667625129223, -0.18891631066799164, 0.13059298694133759, 0.012280135415494442, -0.07427409291267395, -0.06843455135822296, -0.1330474615097046, -0.2350664734840393, -0.17790855467319489, -0.12459777295589447, 0.2359304279088974, -0.23197273910045624, -0.25383806228637695, 0.1942899078130722, -0.39998653531074524, -0.09497834742069244, 0.24275065958499908, 0.17743279039859772, 0.17127318680286407, -0.05828298255801201, -0.08927921205759048, 0.23328910768032074, -0.10552992671728134, -0.22439812123775482, 0.017612570896744728, 0.29235175251960754, 0.3591111898422241, 0.08059438318014145, -0.3150641620159149, -0.3733377456665039, -0.05478587746620178, -0.006212770938873291, -0.13792917132377625, -0.17548762261867523, -0.01810610666871071, -0.1887381374835968, -0.21342764794826508, 0.11438779532909393, -0.07086276262998581, -0.01983083039522171, 0.35407575964927673, -0.14275650680065155, 0.13455545902252197, -0.03353496268391609, -0.16157864034175873, 0.022418735548853874, 0.3411467671394348, -0.1929825395345688, -0.0845533087849617, 0.324899822473526, 0.17461733520030975, 0.06950736045837402, -0.3176373243331909, 0.05030909180641174, -0.31536605954170227, 0.39049971103668213, 0.01300123706459999, 0.19266612827777863, -0.27463582158088684, -0.14162562787532806, -0.043004222214221954, -0.1601514220237732, 0.005179605912417173, 0.2352665513753891, -0.1276998072862625, 0.1823507696390152, 0.12246370315551758, -0.081546850502491, 0.11796491593122482, -0.025392992421984673, -0.22681725025177002, -0.1935032159090042, 0.30312785506248474, -0.2532750964164734, 0.07936236262321472, -0.29048672318458557, 0.05274144187569618, -0.03906027600169182, -0.059663452208042145, -0.042498309165239334, 0.03351730480790138, -0.04227113351225853, 0.26472970843315125, -0.04532650113105774, 0.1374705731868744, 0.1657336801290512, 0.19085575640201569, 0.34905534982681274, 0.040944892913103104, -0.16594403982162476, 0.12079757452011108, -0.30684834718704224, 0.04771425947546959, 0.28728145360946655, -0.08454671502113342, 0.06449539214372635, 0.10062329471111298, -0.2832075357437134, 0.15954625606536865, -0.2329060584306717, 0.052762363106012344, -0.17370985448360443, 0.053902387619018555, 0.050730179995298386, 0.20310157537460327, -0.15506628155708313, -0.051930200308561325, 0.12321552634239197, 0.02525542676448822, 0.06523946672677994, -0.023674579337239265, -0.14420172572135925, 0.10111959278583527, -0.12600132822990417, 0.2045668512582779, 0.14024567604064941, -0.1827509105205536, 0.13046647608280182, 0.05735068395733833, 0.10857687145471573, -0.016997572034597397, 0.05027236044406891, -0.07896563410758972, 0.13164275884628296, -0.04836057871580124, 0.09943244606256485, -0.1073659285902977, 0.0021845304872840643, 0.17410632967948914, -0.058753062039613724, 0.12722641229629517, 0.26494261622428894, -0.26768946647644043, 0.09753171354532242, 0.07117247581481934, -0.0952514261007309, -0.161711186170578, -0.013134624809026718, 0.13532614707946777, 0.03568626567721367, 0.18089129030704498, 0.013701635412871838, -0.13554415106773376, 0.20672963559627533, -0.1440238356590271, -0.1210513487458229, -0.13201825320720673, 0.112324558198452, 0.018231084570288658, -0.11018539220094681, 0.058058761060237885, 0.056080516427755356, 0.08211761713027954, -0.12530949711799622, 0.01797432266175747, 0.04339154064655304, -0.230514794588089, -0.05596568062901497, -0.08378002047538757, -0.36823347210884094, 0.08676046878099442, -0.1955929845571518, 0.0016973188612610102, -0.1490471363067627, -0.044140711426734924, 0.13079112768173218, -0.20060139894485474, 0.06976018100976944, -0.11619412899017334, -0.0848517045378685, -0.00458840187638998, 0.2124813199043274, -0.013842425309121609, 0.1416768729686737, -0.2202627956867218, 0.17327047884464264, 0.0057039218954741955, -0.6256715655326843, -0.0051933336071670055, 0.2537616789340973, 0.3884572684764862, 0.2102857530117035, -0.2207932025194168, -0.07513922452926636, -0.10112801939249039, -0.11386130750179291, -0.2887413203716278, -0.20209532976150513, 0.007135096471756697, -0.19936375319957733, 0.037107840180397034, -0.27930161356925964, -0.24183756113052368, 0.2166804075241089, -0.13818876445293427, 0.40418416261672974, -0.2104194015264511, 0.06036379933357239, 0.15623542666435242, 0.006996890064328909, -0.07923417538404465, 0.014381556771695614, -0.041954390704631805, -0.04729485884308815, 0.2897249460220337, -0.12704062461853027, -0.20697294175624847, 0.05319429934024811, -0.028226792812347412, 0.026890750974416733, 0.07831352949142456, 0.1429355889558792, 0.12412074208259583, -0.3264724314212799, -0.0515538714826107, 0.03761420398950577, 0.08009829372167587, 0.08218889683485031, 0.053382083773612976, -0.05860001966357231, 0.17900574207305908, -0.04624580591917038, 0.051574431359767914, -0.06877264380455017, -0.12272463738918304, 0.00773261534050107, 0.13253161311149597, -0.08105971664190292, 0.8973564505577087, 0.01274072751402855, -0.22306711971759796, 0.0995892584323883, 0.15998730063438416, -0.10581081360578537, 0.40162143111228943, -0.1328824758529663, -0.022485362365841866, 0.21106235682964325, -0.03772181645035744, -0.01741602085530758, 0.3203195035457611, -0.03848739713430405, -0.050492849200963974, -0.27834969758987427, 0.3630232810974121, 0.04970337823033333, 0.2859033942222595, 0.037575021386146545, -0.07101608067750931, 0.14979317784309387, 0.15866301953792572, -0.21889856457710266, 0.06954403966665268, 0.21528346836566925, -0.013274360448122025, 0.2702627182006836, 0.03845367953181267, -0.26861315965652466, 0.047960925847291946, 0.037660449743270874, 0.11504236608743668, -0.2723095715045929, -0.5263800621032715, 0.9351373910903931, 0.07718343287706375, -0.43225932121276855, 0.08218849450349808, -0.1936091184616089, -0.11430741846561432, 0.5241482257843018, -0.8236556649208069, 1.3382329940795898, 0.4909208416938782, 0.05640918016433716, -0.45287373661994934, 0.16365939378738403, -0.8035945892333984, 0.10040685534477234, -0.18148593604564667, -0.022200988605618477, -0.2427971512079239, -0.053822215646505356, 0.03900618851184845, 0.2570442259311676, -0.011469896882772446, 0.3655014634132385, -0.025443505495786667, 0.022128300741314888, 0.14213918149471283, -0.3792273700237274, 0.3605903685092926, 0.03216206282377243, -0.3308345377445221, 0.20791186392307281, -0.1373719871044159, -0.4968566596508026, 0.06935177743434906, 0.22160819172859192, -0.4178837835788727, 0.08248253911733627, -0.5159136056900024, -0.132211834192276, -0.041947513818740845, -0.11523427814245224, 0.11827053874731064, -0.163479283452034, 0.8141721487045288, 0.36162692308425903, 0.029318854212760925, -0.047787901014089584, -0.30883389711380005, 0.20981241762638092, -0.1846168041229248, 0.459635466337204, -0.03290116786956787, -0.20129598677158356, -0.06730953603982925, -0.37749919295310974, 0.47341859340667725, -0.08844692260026932, 0.37147825956344604, 0.2465192973613739, -0.49558350443840027, -0.13054139912128448, 0.33921101689338684, 0.06115991994738579, -0.1729191243648529, 0.0902218446135521, -0.14825524389743805, -0.41722699999809265, 0.21566034853458405, -0.10435865074396133, 0.06919702142477036, 0.29578864574432373, 0.050449129194021225, 0.09038132429122925, 0.2512142062187195, 0.18493768572807312, 0.36116713285446167, 0.09159956127405167, -0.3882274031639099, 0.06067682430148125, -0.2825500965118408, 0.2197963148355484, -0.21236802637577057, 0.009813738986849785, -0.4413292109966278, 0.3932766318321228, -0.2029653936624527, 0.44613927602767944, -0.21565018594264984, 0.11013107746839523, 0.015505455434322357, -0.28711700439453125, 0.21044208109378815, 0.2293020337820053, -0.45068690180778503, 0.02957955375313759, -0.22693398594856262, -0.042686909437179565, -0.05097871646285057, 0.11293970048427582, -0.2349155843257904, -0.07195043563842773, 0.19757147133350372, -0.3157441020011902, -0.08572396636009216, -0.0016168970614671707, 0.17928241193294525, -0.32105281949043274, 0.14595188200473785, 0.24488836526870728, 0.1748402863740921, -0.14172613620758057, 0.18212386965751648, -0.16471226513385773, -0.03292165324091911, 0.07259044051170349, -0.06288906186819077, 0.2711661756038666, -0.033689942210912704, -0.04767892509698868, 0.16689419746398926, 0.01791187934577465, -0.16587506234645844, 0.18642789125442505, 0.18344751000404358, 0.06642835587263107, -0.17278073728084564, 0.4068208336830139, 0.02138778567314148, -0.11938071995973587, -0.140656977891922, 0.13817501068115234, -0.23818261921405792, 0.09673545509576797, -0.12001869082450867, 0.06838072091341019, 0.09484678506851196, 0.06671258807182312, 0.19644862413406372, 0.030048111453652382, 0.05083146318793297, 0.20099125802516937, -0.15932251513004303, -0.24748162925243378, 0.2896732687950134, -0.1789112687110901, 0.24514606595039368, 0.16342292726039886, 0.19453991949558258, -0.29469624161720276, 0.1187564805150032, -0.09078242629766464, 0.11286754161119461, -0.2289247214794159, 0.3144822418689728, -0.15871427953243256, -0.022065995261073112, -0.021854594349861145, 0.058662932366132736, 0.5084439516067505, -0.03953700140118599, -0.23506952822208405, 0.16967837512493134, 0.2805631458759308, 0.26395952701568604, -0.18812628090381622, -0.09583380818367004, -0.12942850589752197, 0.11682578176259995, 0.09203182905912399, -0.13870109617710114, -0.009924916550517082, -0.02974768728017807, 0.2785153090953827, 0.17231711745262146, 0.1918938308954239, -0.06643632054328918, -0.30820900201797485, -0.3013562560081482, -0.12585847079753876, 0.06456179171800613, 0.21270062029361725, -0.08482599258422852, 0.20500726997852325, 0.09117702394723892, -0.2737205922603607, 0.25854164361953735, 0.14268304407596588, -0.13251623511314392, 0.06597915291786194, 0.18353061378002167, 0.09263095259666443, 0.011488767340779305, -0.21306054294109344, -0.11718636751174927, 0.03150952234864235, -0.10792127251625061, 0.31600382924079895, -0.009084723889827728, 0.0415036603808403, -0.3154037892818451, -0.2545068860054016, 0.3297286927700043, -0.44917088747024536, 0.25890791416168213, 0.057708609849214554, 0.03787200525403023, -0.28871950507164, -0.21066802740097046, 0.2389705628156662, -0.008381953462958336, 0.23393778502941132, 0.09674705564975739, -0.30995041131973267, -0.32314956188201904, 0.038975100964307785, 0.07655810564756393, -0.06300145387649536, -0.1199694499373436, -0.00907046440988779, -0.062272991985082626, -0.003323638578876853, -0.14394356310367584, -0.2121240347623825, 0.14006395637989044, -0.2480725646018982, -0.12391551584005356, -0.1406434178352356, -0.6179320812225342, 0.36975952982902527, -0.2498072236776352, 0.13273979723453522, -0.12047021836042404, 0.07865023612976074, -0.20753125846385956, -0.09523593634366989, 0.4742598533630371, -0.16784550249576569, -0.09951039403676987, 0.12008590251207352, 0.061751168221235275, 0.01104031316936016, -0.16814753413200378, -0.15574267506599426, 0.09907994419336319, -0.00556617695838213, -0.3092464208602905, 0.1256117820739746, 0.30131879448890686, 0.3586257994174957, 0.23495788872241974, -0.23728047311306, 0.15272937715053558, 0.11127875745296478, -0.15718699991703033, 0.05354241281747818, -0.29355332255363464, 0.0032042143866419792, -0.16813716292381287, -0.380453884601593, -0.2531594932079315, 0.2344905585050583, -0.18546049296855927, 0.22304441034793854, 0.05564779043197632, 0.37415868043899536, 0.1515813171863556, -0.010245884768664837, -0.004365905653685331, -0.1733115315437317, -0.4086792469024658, 0.17721663415431976, 0.1578046679496765, 0.19866327941417694, 0.03108530305325985, 0.1874939203262329, 0.20839166641235352, 0.00534269493073225, 0.0694829672574997, -0.15168114006519318, -0.19391527771949768, -0.003505444386973977, -0.07653415203094482, 0.1968480944633484, 0.1888810694217682, -0.0035835388116538525, 0.15960693359375, -0.12937122583389282, -0.18302008509635925, 0.11936625838279724, -0.08754340559244156, -0.19079813361167908, 0.1394759565591812, -0.03817600756883621, -0.4670833647251129, 0.2546011805534363, 0.22049373388290405, -0.020701976493000984, 0.10859941691160202, -0.06096525490283966, -0.17845463752746582, 0.022055985406041145, -0.019769860431551933, -0.02434961311519146, 0.1709684580564499, 0.2509775161743164, -0.03811715915799141, -0.22221273183822632, -0.3011922538280487, 0.03830895945429802, 0.18182410299777985, 0.12618717551231384, -0.1847618669271469, -0.20434579253196716, -0.09177710115909576, 0.07519213110208511, 0.19477374851703644, -0.06205609813332558, -0.45918384194374084, 0.3908478319644928, 0.2656620144844055, -0.17041417956352234, -0.12377837300300598, -0.2317262589931488, -0.2875250577926636, 0.24420906603336334, 0.08505865931510925, 0.03159884363412857, -0.40431562066078186, -0.1980937421321869, -0.2585611939430237, 0.17421723902225494, -0.10396032780408859, -0.06122083216905594, 0.14229677617549896, -0.223390594124794, 0.293388694524765, -0.08694503456354141, -0.158829003572464, -0.2677588164806366, -0.220482736825943, -0.21070541441440582, -0.302630215883255, -0.04293908551335335, -0.39286836981773376, 0.06348571926355362, 0.47510793805122375, 0.03136236593127251, 0.16799134016036987, 0.28055813908576965, 0.12131530046463013, -0.3296136260032654, -0.27377524971961975, -0.07120946794748306, -0.06686578691005707, 0.13751725852489471, 0.007528283633291721, 0.19639407098293304, -0.11494149267673492, 0.01716565154492855, -0.13284210860729218, -0.009747231379151344, -0.26484715938568115, 0.42937350273132324, -0.05676086246967316, -0.5865861177444458, 0.2672331631183624, 0.15336382389068604, 0.08414412289857864, -0.3559461832046509, 0.1847374141216278, -0.24571087956428528, -0.5872972011566162, -0.2621328830718994, -0.23743204772472382, -0.42125436663627625, -0.22375833988189697, -0.20141573250293732, 0.143605038523674, 0.06230268254876137, -0.1646300107240677, 0.18175587058067322, -0.12629103660583496, -0.09826921671628952, -0.15654370188713074, 0.1871991604566574, 0.05264180526137352, -0.05318094417452812, 0.09279727190732956, -0.10741597414016724, -0.21989433467388153, 0.11254304647445679, -0.13036109507083893, 0.14998187124729156, 0.11107292026281357, 0.12117704749107361, 0.06999731063842773, 0.0343371219933033, 1.5888488633208908e-05, 0.07513625174760818, 0.37527990341186523, 0.03810344263911247, 0.11828265339136124, -0.10366754978895187, 0.011988342739641666, -0.04207233339548111, 0.19507025182247162, -0.06233762204647064, -0.05790431424975395, 0.14249342679977417, 0.1640002578496933, 0.12550924718379974, -0.009487898088991642, -0.06938274949789047, -0.18789517879486084, 0.05004061385989189, -0.15403613448143005, -0.2640973925590515, 0.19340991973876953, -0.16688328981399536, -0.18327029049396515, -0.6041151881217957, -0.09438516199588776, -0.10200528055429459, -0.07208388298749924, 0.12580130994319916, -0.1674143373966217, 0.061810173094272614, -0.09261547774076462, 0.08688616752624512, 0.1675783097743988, -0.04072791710495949, 0.2148178666830063, -0.008072740398347378, 0.17467628419399261, 0.2996269464492798, 0.026462601497769356, -0.2540900409221649, 0.20369170606136322, 0.28238794207572937, 0.03974204882979393, -0.11186046153306961, -0.18071933090686798, -0.008437580429017544, 0.2834656238555908, -0.025132467970252037, -0.03627746179699898, 0.05642244592308998, 0.12125252187252045, 0.22995775938034058, -0.050684742629528046, 0.024843385443091393, -0.07018813490867615, 0.11408660560846329, 0.110105499625206, 0.1582394540309906, -0.24513979256153107, -0.14823327958583832, -0.09905596077442169, -0.06486911326646805, 0.06148236617445946, -0.1630961149930954, 0.33788272738456726, 0.0027162593323737383, 0.16575036942958832, 0.20196980237960815, 0.12371096014976501, 0.039362017065286636, -0.05298035964369774, -0.0835074707865715, 0.3111717700958252, 0.09395016729831696, -0.26078373193740845, -0.3031221032142639, 0.18201741576194763, -0.02016373910009861, -0.25975725054740906, 0.1720399707555771, -0.03033282235264778, 0.1108943298459053, -0.07058107107877731, -0.162906214594841, -0.08741994202136993, -0.10934501886367798, 0.2805987298488617, -0.2468355894088745, -0.08460934460163116, -0.3145761787891388, -0.2106124758720398, -0.051954563707113266, 0.01744753122329712, 0.08874530345201492, -0.1715862900018692, -0.0661773756146431, -0.2669498920440674, 0.06942788511514664, 0.2255147248506546, -0.10078354924917221, -0.07145123183727264, -0.013791064731776714, 0.1597202718257904, 0.01496490091085434, -0.025973573327064514, -0.20449604094028473, 0.1384725570678711, -0.17028652131557465, -0.18714506924152374, -0.11374368518590927, 0.011198975145816803, -0.0026802325155586004, 0.02599942311644554, -0.04765353724360466, -0.32608580589294434, -0.06259389966726303, 0.05140717327594757, -0.13660043478012085, 0.3130902647972107, 0.14502662420272827, -0.08934648334980011, 0.015962393954396248, 0.14905907213687897, -0.016643505543470383, -0.14648063480854034, 0.04184533283114433, 0.1290697157382965, -0.1899678111076355, 0.0026486380957067013, 0.11090531200170517, -0.10228685289621353, -0.12180399894714355, 0.1571902185678482, 0.15805159509181976, -0.078279048204422, 0.41109031438827515, 0.03154328092932701, -0.04238276556134224, -0.33024561405181885, -0.07959450781345367, -0.19098736345767975, 0.12015295028686523, -0.15456144511699677, -0.17921508848667145, -0.025683602318167686, -0.13995279371738434, 0.09231410175561905, -0.1257399171590805, -0.009162984788417816, 0.012667795643210411, 0.10940925031900406, -0.020200446248054504, -0.10841020196676254, -0.21295057237148285, 0.032177411019802094, -0.04459993168711662, 0.1521475911140442, 0.1152687594294548, -0.10951794683933258, -0.09373325109481812, 0.03318057581782341, -0.14664791524410248, -0.2264259308576584, -0.06714185327291489, 0.1628066450357437, 0.05340125784277916, 0.02722296118736267, -0.5409263372421265, -0.1335475742816925, -0.02915993519127369, -0.010426020249724388, 0.050082702189683914, 0.0912230834364891, -0.15921255946159363, 0.0922076627612114, 0.049453120678663254, -0.040000200271606445, -0.007930686697363853, 0.0037260064855217934, -0.01307669561356306, 0.013042612001299858, -0.13479861617088318, -0.0014078866224735975, -0.018965596333146095, 0.13316819071769714, 0.25250571966171265, -0.2045454978942871, -0.09409685432910919, -0.29223233461380005, -0.21836258471012115, 0.050669554620981216, 0.06746737658977509, -0.17934302985668182, -0.03510117903351784, 0.22413522005081177, -0.07099735736846924, -0.08372312784194946, -0.24548742175102234, 0.03303280100226402, -0.1299893707036972, -0.022199466824531555, 0.011650675907731056, 0.23465411365032196, 0.006565974559634924, -0.023940306156873703, 0.027697086334228516, 0.15389426052570343, 0.06303926557302475, 0.06358138471841812, 0.2183549851179123, 0.11624353379011154, 0.14059661328792572, -0.0846896842122078, 0.059781964868307114, -0.0037803894374519587, 0.17407475411891937, 0.2083570510149002, 0.11026237159967422, -0.23988214135169983, -0.1929059475660324, 0.2556484341621399, 0.2984953224658966, -0.06921268254518509, -0.048152901232242584, -0.036274254322052, -0.05926690995693207, 0.0781446099281311, 0.10333193093538284, 0.24837450683116913, 0.10139823704957962, 0.3450202941894531, -0.24908547103405, -0.17422997951507568, 0.017374610528349876, 0.17768733203411102, -0.21991011500358582, -0.11288563162088394, -0.15206225216388702, 0.1517772674560547, 0.012477550655603409, -0.04770290479063988, -0.15374580025672913, -0.016984738409519196, 0.06905964761972427, -0.40017855167388916, -0.1120491549372673, -0.1748446673154831, 0.18090380728244781, -0.04924502596259117, 0.20452460646629333, -0.10794797539710999, 0.02877683751285076, -0.0706280767917633, -0.0024770100135356188, 0.24733395874500275, -0.010263858363032341, 0.08297745883464813, -0.12547653913497925, 0.23491810262203217, -0.3569318652153015, 0.145706444978714, 0.029887156561017036, -0.03179331123828888, 0.22961416840553284, 0.1176147535443306, -0.3132222294807434, -0.07173330336809158, -0.17053012549877167, 0.0018456459511071444, 0.05840832367539406, -0.2087191939353943, 0.05180620029568672, 0.03248707577586174, -0.031971096992492676, 0.20485073328018188, 0.041435886174440384, 0.07589807361364365, 0.04737743362784386, -0.040738750249147415, -0.1077057272195816, -0.003996392246335745, -0.021122492849826813, -0.2192663699388504, -0.4730003774166107, 0.03906611353158951, -0.1650533378124237, 0.05513496324419975, -0.06104457005858421, 0.01584574021399021, 0.2586650550365448, 0.10184115916490555, 0.10278645902872086, -0.33598554134368896, -0.09001708030700684, 0.09769368916749954, 0.18053850531578064, -0.08102531731128693, -0.09662716835737228, -0.23043717443943024, -0.014571216888725758, 0.07282956689596176, 0.2357403188943863, 0.16764745116233826, 0.0200407262891531, 0.017087865620851517, -0.3564116954803467, 0.17197012901306152, -0.23796124756336212, 0.3071597218513489, 0.19636502861976624, 0.4406915009021759, -0.43383345007896423, 0.07184614986181259, -0.021390855312347412, -0.07970425486564636, -0.10942207276821136, 0.05574290454387665, -0.11638644337654114, 0.03427150472998619, 0.10111493617296219, 0.15837834775447845, -0.36295053362846375, -0.030856464058160782, 0.1697114259004593, 0.21747252345085144, -0.283217191696167, 0.1527845561504364, -0.06352216005325317, -0.06989175081253052, -0.05862430855631828, 0.28660646080970764, -0.038013093173503876, -0.14771242439746857, -0.1462593376636505, -0.006144617218524218, 0.3714938461780548, -0.2425885945558548, -0.04401296004652977, 0.1541191041469574, 0.263825386762619, 0.049131933599710464, 0.031763169914484024, -0.23570974171161652, -0.010066717863082886, 0.30344197154045105, 0.26361918449401855, 0.07152365148067474, -0.23776115477085114, -0.23219220340251923, -0.23234358429908752, -0.02452867105603218, -0.14143343269824982, -0.1491595208644867, 0.13506299257278442, 0.12588344514369965, -0.23378627002239227, -0.23772138357162476, 0.03412485867738724, -0.015579231083393097, 0.0491224005818367, 0.2440294772386551, 0.22669506072998047, -0.06405053287744522, -0.08561956882476807, -0.042954035103321075, 0.10086216032505035, -0.1866433024406433, -0.09908417612314224, 0.35517916083335876, 0.006688544061034918, -0.10087132453918457, 0.19007596373558044, 0.1526450663805008, 0.13385029137134552, 0.11488435417413712, -0.26927444338798523, -0.142957866191864, 0.1241443082690239, 0.07832670211791992, 0.025598973035812378, -0.16378110647201538, -0.20955486595630646, -0.1115134060382843, 0.1313854455947876, 0.24793773889541626, 0.07857327163219452, -0.014870701357722282, 0.12541510164737701, 0.15220016241073608, -0.21855506300926208, -0.18091362714767456, -0.045108046382665634, 0.18349449336528778, 0.15091562271118164, 0.15314558148384094, -0.0312016811221838, -0.1327233761548996, 0.033256541937589645, 0.0714770257472992, -0.11880186200141907, 0.05710076168179512, 0.13524766266345978, -0.037365689873695374, -0.05929701775312424, -0.3354630470275879, 0.4349689185619354, -0.11831513047218323, 0.011514020152390003, 0.16577112674713135, 0.030198579654097557, -0.18173198401927948, -0.04569033533334732, 0.2148851454257965, 0.4500043988227844, -0.06649758666753769, -0.001743107452057302, 0.21990354359149933, -0.25779488682746887, -0.2077540159225464, 0.2940422296524048, 0.1054350957274437, -0.2712040841579437, 0.03486119583249092, 0.34714746475219727, -0.0019019056344404817, -0.18341846764087677, 0.16780726611614227, -0.11647558957338333, -0.2210213989019394, -0.2677099406719208, -0.23460473120212555, 0.3874041736125946, -0.104805126786232, -0.21453224122524261, 0.13598208129405975, 0.1895475536584854, 0.07873202115297318, -0.3269674777984619, -0.12138983607292175, -0.15880350768566132, 0.421418160200119, 0.10428722202777863, -0.002352674724534154, -0.2755415141582489, -0.2378195971250534, 0.021716536954045296, 0.2402171641588211, 0.18433938920497894, -0.44595253467559814, 0.32186946272850037, 0.291746586561203, -0.0987948551774025, -0.13301485776901245, 0.28814083337783813, 0.04818391799926758, -0.3396943509578705, 0.3112587332725525, 0.0697643905878067, 0.01947682350873947, -0.19316692650318146, -0.3679976165294647, 0.13332617282867432, -0.09895005077123642, -0.2314942181110382, 0.3601609468460083, 0.05771516636013985, 0.03112168237566948, -0.14542365074157715, 0.03211154788732529, 0.02065405063331127, 0.04891259968280792, 0.5029004812240601, -0.34051185846328735, -0.4473415017127991, -0.2839259207248688, -0.09188399463891983, 0.02214491367340088, 0.08365249633789062, 0.08422975242137909, -0.17900113761425018, 0.07862939685583115, -0.030205940827727318, -0.16393058001995087, -0.17886509001255035, 0.016174284741282463, 0.004217684734612703, 0.09530799090862274, 0.0815020203590393, -0.029933998361229897, -0.16206304728984833, 0.06390690803527832, -0.05010012909770012, -0.17290298640727997, 0.11933507770299911, -0.027601484209299088, 0.05233430117368698, 0.013986038975417614, -0.23319174349308014, -0.2054557204246521, -0.03222563862800598, 0.24114130437374115, 0.20747333765029907, 0.025842467322945595, -0.23109333217144012, 0.08823326230049133, 0.10715831816196442, 0.2669937312602997, -0.02694551832973957, -0.06548064202070236, -0.12973499298095703, 0.1330847293138504, 0.03402065113186836, -0.1313902735710144, 0.18740352988243103, -0.011776016093790531, 0.09944703429937363, -0.0795840322971344, 0.27059659361839294, 0.6115890145301819, 0.22029367089271545, -0.003880999982357025, -0.20514331758022308, -0.11124236136674881, 0.25818851590156555, 0.28384485840797424, 0.2387574017047882, 0.027392825111746788, 0.1585676074028015, 0.2058125138282776, 0.051115233451128006, 0.0453030951321125, -0.2419147491455078, 0.10594411194324493, 0.3209320902824402, 0.02835078537464142, -0.02520994283258915, -0.19200272858142853, -0.1617424041032791, 0.05829297751188278, 0.1846814751625061, 0.00816622469574213, 0.07121656090021133, -0.1494886726140976, -0.12412641197443008, 0.24627310037612915, 0.02149452641606331, -0.08652401715517044, 0.1673654466867447, 0.2407320737838745, -0.07196859270334244, 0.0807473286986351, 0.05149603635072708, -0.2547789216041565, 0.010717115364968777, 0.5394532680511475, 0.06840751320123672, 0.10610789805650711, -0.0075662084855139256, 0.18271315097808838, 0.07338552176952362, -0.008654124103486538, 0.08736924827098846, -0.012996246106922626, 0.14858663082122803, -0.2235146462917328, -0.05941013619303703, 0.42274385690689087, -0.27382564544677734, -0.2676505446434021, -0.01769399270415306, -0.32134735584259033, -0.02068733051419258, 0.26533639430999756, -0.016518734395503998, -0.11012818664312363, -0.17435836791992188, 0.26301905512809753, 0.04566776007413864, 0.06999286264181137, -0.1652848720550537, -0.19436781108379364, 0.14189106225967407, 0.0005640675080940127, 0.020907990634441376, -0.02700127474963665, -0.16072754561901093, 0.07910250872373581, 0.2151237577199936, 0.12729178369045258, 0.14791832864284515, -0.16441477835178375, -0.19387000799179077, -0.29502543807029724, 0.11621467769145966, 0.05877653509378433, -0.06550577282905579, -0.04539459943771362, -0.18451261520385742, 0.029255567118525505, -0.12395676970481873, -0.21774989366531372, 0.1394498199224472, 0.18172778189182281, 0.032101109623909, 0.007495661731809378, -0.2309868037700653, 0.10423067957162857, 0.05278807133436203, -0.07814118266105652, -0.21920596063137054, 0.27669382095336914, 0.12522132694721222, -0.3746744394302368, 0.44941088557243347, -0.05271303653717041, -0.9582244157791138, -0.21737918257713318, 0.20612026751041412, 0.046581629663705826, -0.04507843405008316, 0.22326986491680145, -0.17211006581783295, 0.33481281995773315, -0.0009048005449585617, -0.25989410281181335, 0.2225770801305771, 0.03613590821623802, 0.2694316506385803, -0.09674489498138428, -0.05577681213617325, -0.1744007021188736, 0.33901381492614746, -0.12228840589523315, 0.152284637093544, -0.2861967086791992, 0.08118045330047607, -0.32865288853645325, 0.007940170355141163, 0.11672238260507584, -0.39699530601501465, 0.1175408661365509, -0.18194584548473358, 0.06007135286927223, -0.10968822985887527, 0.005524813663214445, -0.23546186089515686, 0.16757164895534515, 0.09053974598646164, 0.21906328201293945, -0.023572413250803947, -0.28339558839797974, -0.3550063967704773, 0.10754715651273727, -0.04587051644921303, -0.2249327152967453, 0.17514173686504364, 0.14425787329673767, -0.028855029493570328, -0.12854322791099548, 0.11684458702802658, -0.09195917099714279, 0.09488260746002197, 0.155398890376091, -0.06003183498978615, -0.11411020159721375, 0.046172384172677994, 0.22759389877319336, 0.3230610191822052, -0.10789332538843155, 0.12245746701955795, 0.07273600250482559, 0.006097367033362389, 0.08489564061164856, 0.6226446628570557, 0.20332229137420654, 0.5458462238311768, -0.9927679896354675, -0.37494805455207825, 0.17783057689666748, 0.12974248826503754, 0.0188132431358099, 0.365122526884079, 0.5023859739303589, -0.9116336107254028, 0.5168957114219666, -0.030762631446123123, -0.9847772121429443, 0.0646195113658905, -0.17053528130054474, -0.04617621377110481, -0.21258631348609924, 0.357059508562088, -0.3107171058654785, 0.2625477910041809, 0.21952450275421143, 0.043441783636808395, -0.4648805558681488, -0.48087888956069946, 0.05098041146993637, -0.12026295810937881, 0.24674591422080994, 0.07802221924066544, -0.0010717727709561586, 0.0903865247964859, -0.11044087260961533, 0.05912644788622856, -0.03473064303398132, 0.02756369486451149, -0.41340404748916626, 0.3076073229312897, 0.1567050665616989, -0.022549789398908615, -0.2905464470386505, -0.005684966687113047, 0.0031699445098638535, -0.25857797265052795, 0.4626504182815552, 0.4419249892234802, -0.022011438384652138, 0.16873425245285034, 0.031367216259241104, -0.12059278786182404, 0.24564604461193085, -0.4224727153778076, -0.23836006224155426, 0.20314078032970428, -0.20862750709056854, -0.2684178948402405, 0.15806818008422852, 0.20673201978206635, -0.1535216122865677, -0.22431601583957672, -0.4009406268596649, 0.5763516426086426, 0.0371992364525795, -0.5184028148651123, 0.24104800820350647, -0.35358744859695435, -0.10493924468755722, -0.2749973237514496, 0.2903096079826355, 0.19318343698978424, 0.04378023371100426, 0.3786787986755371, -0.019972875714302063, -0.2466772049665451, -0.33220410346984863, 0.053786974400281906, -0.39442306756973267, -0.045484352856874466, 0.4105794429779053, -0.20983082056045532, -0.4126560091972351, 0.2701180875301361, -0.13739027082920074, -0.15360544621944427, 0.1506778597831726, 0.036960504949092865, -0.034502968192100525, -0.07404369115829468, -0.13210098445415497, 0.23015911877155304, 0.3269023895263672, 0.17510323226451874, 0.47857287526130676, -0.1352025270462036, -0.1215384379029274, -0.2747812867164612, -0.07614373415708542, -0.10835782438516617, 0.24435198307037354, 6.919923180248588e-05, 0.296469122171402, 0.03835645318031311, 0.26580747961997986, -0.06028508394956589, 0.27353721857070923, 0.13585230708122253, 0.1462954431772232, -0.38210293650627136, 0.24216961860656738, 0.42475414276123047, 0.006969928275793791, -0.2124822586774826, -0.23504842817783356, -0.08018814027309418, -0.07208354026079178, -0.051700230687856674, 0.18550506234169006, -0.2602948248386383, -0.294722318649292, 0.39400315284729004, 0.17118842899799347, -0.0779183879494667, -0.08984877169132233, 0.24461905658245087, -0.12010052055120468, -0.5503233075141907, -0.11071328073740005, -0.22127215564250946, -0.1902228444814682, 0.04374029487371445, 0.22676068544387817, 0.012674928642809391, 0.22375431656837463, 0.07385993003845215, -0.1758643090724945, 0.020383430644869804, 0.4589243233203888, 0.0606016181409359, 0.14344795048236847, 0.20751488208770752, 0.1494176983833313, -0.2197733372449875, -0.021968429908156395, 0.1727958768606186, 0.08815769106149673, -0.019600365310907364, 0.16400662064552307, -0.011565138585865498, -0.3721563220024109, 0.3060166835784912, 0.09256058931350708, -0.2520982325077057, -0.17084237933158875, -0.019305936992168427, -0.27232781052589417, -0.29057031869888306, -0.25681397318840027, 0.5291735529899597, 0.2001648098230362, 0.03482561931014061, -0.1145658865571022, 0.09050624817609787, -0.07071030139923096, -0.011678535491228104, 0.1647118330001831, 0.002179512521252036, 0.18682368099689484, -0.12092801183462143, -0.006892064120620489, -0.14593708515167236, -0.1712009310722351, -0.04572112485766411, 0.02780705690383911, 0.011798348277807236, -0.18092013895511627, -0.1287284642457962, 0.28207898139953613, -0.3127098083496094, 0.19683603942394257, -0.22066465020179749, -0.2852952778339386, -0.1974390298128128, 0.24336740374565125, -0.28946393728256226, -0.20868045091629028, 0.39589160680770874, -0.24050529301166534, -0.23688438534736633, -0.06434120982885361, 0.1633966714143753, 0.08534474670886993, 0.3668596148490906, -0.11915445327758789, 0.04982535168528557, 0.10673796385526657, -0.05188995599746704, -0.16498860716819763, -0.09351073950529099, -0.18701313436031342, 0.06458789110183716, -0.06286828219890594, -0.19302698969841003, 0.06979034096002579, 0.3440491855144501, 0.3844365179538727, -0.20119354128837585, 0.17022070288658142, 0.04063594713807106, -0.13288789987564087, -0.06809637695550919, 0.386344313621521, -0.03241065517067909, 0.32170262932777405, -0.12057723850011826, 0.09643611311912537, -0.2696215808391571, -0.10954544693231583, 0.06642808765172958, 0.0317336805164814, -0.36054301261901855, -0.2292795032262802, 0.13645434379577637, 0.21493157744407654, 0.20891909301280975, -0.3782510757446289, 0.14746679365634918, 0.17100997269153595, 0.03409851714968681, 0.4704643785953522, -0.28159403800964355, -0.05471963807940483, 0.0004639212565962225, -0.11360995471477509, 0.07553945481777191, 0.45115768909454346, 0.1896464228630066, 0.11511138826608658, -0.36455437541007996, -0.40007370710372925, 0.026553558185696602, 0.15351632237434387, 0.13773894309997559, -0.08821383863687515, 0.0393148735165596, -0.015619881451129913, 0.05490346625447273, -0.0444907620549202, 0.055429257452487946, 0.17567378282546997, -0.10565143078565598, 0.05200417712330818, -0.2146589308977127, 0.11447861790657043, 0.07258249074220657, -0.03589318320155144, -0.18495865166187286, -0.17494899034500122, -0.03908032551407814, 0.04928196594119072, -0.4193855822086334, -0.04773673415184021, -0.0808570608496666, -0.1708756685256958, 0.09731201827526093, -0.04047833010554314, -0.3771671652793884, -0.0003175885940436274, -0.02192629687488079, 0.03342616930603981, 0.004103092942386866, 0.00789247639477253, 0.2837662994861603, -0.17421281337738037, -0.17844253778457642, 0.09772013872861862, 0.1786866933107376, -0.1980961561203003, 0.0858287364244461, 0.25950348377227783, -0.07451946288347244, 0.03393181785941124, -0.1372523307800293, 0.04735278710722923, 0.03693566843867302, -0.054307516664266586, 0.21208195388317108, -0.01401415653526783, -0.1597699075937271, 0.03211255744099617, 0.24885891377925873, -0.013434398919343948, -0.02811059169471264, -0.12641939520835876, 0.03341885656118393, -0.26390910148620605, 0.11413275450468063, 0.11203999072313309, -0.11449668556451797, -0.04029843956232071, 0.04768979921936989, 0.4309820532798767, 0.035292673856019974, 0.017599204555153847, -0.5389315485954285, 0.20894749462604523, -0.009361130185425282, -0.22440440952777863, -0.10851722955703735, -0.09760595113039017, 0.19340230524539948, 0.2902759313583374, 0.1473374217748642, -0.40136203169822693, -0.11250734329223633, -0.11947277188301086, 0.5208646655082703, 0.1515284925699234, -0.12150999903678894, -0.13918927311897278, 0.31638026237487793, 0.21301566064357758, 0.04457427188754082, -0.1999446302652359, -0.12610892951488495, -0.012053982354700565, 0.1716918647289276, 0.1119411438703537, 0.058282800018787384, -0.22405090928077698, -0.1869886815547943, -0.1415930986404419, 0.17840109765529633, -0.04543156921863556, -0.2997233271598816, 0.022891145199537277, 0.0642373114824295, -0.18044842779636383, -0.016726141795516014, -0.4006238579750061, 0.20379091799259186, 0.08891183882951736, 0.3563717305660248, 0.05787172168493271, 0.09140706807374954, 0.24987474083900452, 0.2082630693912506, -0.06756765395402908, 0.15996941924095154, -0.1722594052553177, 0.18884822726249695, 0.1313486546278, 0.07785767316818237, 0.18834127485752106, -0.02191292680799961, 0.10487231612205505, -0.21311859786510468, 0.19904501736164093, -0.015162650495767593, -0.072054423391819, -0.24111656844615936, -0.006322355940937996, 0.05323124676942825, 0.3377547264099121, 0.17363280057907104, 0.06731575727462769, 0.07610156387090683, -0.15426421165466309, 0.09661668539047241, -0.11489151418209076, 0.04632296785712242, -0.2716677188873291, 0.27077314257621765, -0.10487176477909088, 0.040056440979242325, -0.057900864630937576, 0.09333696216344833, -0.18134959042072296, 0.16565082967281342, -0.04039754718542099, 0.017098311334848404, -0.01640135794878006, -0.17332662642002106, 0.14488638937473297, -0.15197616815567017, 0.07879314571619034, 0.16084124147891998, -0.026624279096722603, -0.11584313958883286, -0.033555254340171814, -0.05855894461274147, -0.022078033536672592, 0.05897219106554985, -0.0068940287455916405, 0.13001973927021027, -0.09322343021631241, -0.020649345591664314, -0.19533072412014008, 0.010950226336717606, -0.07374255359172821, -0.35538139939308167, 0.075161412358284, 0.23787154257297516, 0.007535208947956562, -0.20576231181621552, -0.18869419395923615, 0.06250015646219254, 0.14543703198432922, 0.023220062255859375, -0.28283175826072693, -0.09422574192285538, -0.13578945398330688, 0.23915767669677734, 0.1686360090970993, -0.052412379533052444, 0.08569763600826263, 0.343865305185318, 0.007250864524394274, 0.11660502851009369, -0.2613354027271271, 0.03345037251710892, 0.12351847440004349, 0.0934656485915184, 0.009154732339084148, 0.006327407900243998, -0.182533398270607, -0.05063942074775696, 0.17167507112026215, 0.3069435656070709, 0.024156829342246056, -0.2196439653635025, 0.11087927222251892, -0.14968697726726532, -0.40760141611099243, 0.0579935684800148, -0.040071792900562286, -0.011291852220892906, 0.025611035525798798, -0.06373479962348938, -0.15861035883426666, 0.0004439686599653214, 0.25581902265548706, 0.17297320067882538, 0.10178808867931366, -0.1571706235408783, 0.3176480531692505, 0.024368073791265488, 0.17502765357494354, -0.2739662528038025, -0.0035740083549171686, 0.09529916942119598, -0.09962766617536545, 0.08963820338249207, -0.1495285928249359, 0.2549709379673004, 0.14463721215724945, 0.08669330924749374, -0.3513302505016327, -0.05348056182265282, -0.14778190851211548, 0.460915207862854, -0.048813123255968094, 0.1914241909980774, -0.008605443872511387, 0.16314475238323212, 0.1714894026517868, 0.09288927167654037, -0.2153090089559555, -0.11703164130449295, 0.038402434438467026, 0.06539588421583176, 0.24392831325531006, 0.0011404183460399508, -0.00591195048764348, -0.03184812515974045, -0.1911545991897583, 0.1730346828699112, 0.16681650280952454, -0.18715856969356537, 0.14145974814891815, 0.06487695127725601, -0.21139374375343323, 0.061797067523002625, 0.004057129845023155, 0.1504281461238861, 0.30474933981895447, 0.25794586539268494, -0.1038433089852333, 0.23634327948093414, 0.10586424171924591, 0.07686764001846313, -0.15008433163166046, 0.056286536157131195, 0.12084988504648209, 0.07540354132652283, -0.004058811813592911, 0.10519974678754807, 0.2612096965312958, -0.022435439750552177, -0.4596163034439087, 0.07598956674337387, 0.07469315081834793, -0.035859365016222, 0.09679563343524933, 0.014188800007104874, 0.06012430042028427, 0.09456118941307068, 0.17747534811496735, 0.22944895923137665, 0.026206107810139656, -0.06206561252474785, 0.08519066870212555, -0.3510207235813141, -0.1609380841255188, 0.048740483820438385, 0.0002727323735598475, 0.12541568279266357, 0.03847949951887131, -0.015070783905684948, 0.22165152430534363, -0.08620135486125946, -0.09003512561321259, 0.18903234601020813, -0.1809128075838089, -0.25410890579223633, -0.17591379582881927, 0.24044892191886902, -0.03404955193400383, -0.14633195102214813, -0.0474168062210083, -0.26465094089508057, 0.04348836839199066, 0.3609733283519745, 0.03639398515224457, 0.0937851145863533, -0.2567844092845917, -0.1889980584383011, 0.13674572110176086, -0.16313086450099945, 0.026610054075717926, -0.0037002076860517263, 0.09107930958271027, -0.13136008381843567, -0.20046363770961761, -0.008955559693276882, -0.12642082571983337, -0.13541512191295624, 0.008332529105246067, 0.19693048298358917, -0.0762239322066307, -0.29265880584716797, -0.24701161682605743, 0.028241058811545372, 0.174779012799263, 0.02835940197110176, -0.0645742416381836, -0.25071802735328674, -0.21089813113212585, 0.11975543946027756, -0.012064221315085888, -0.05211694911122322, 0.10418212413787842, -0.011635557748377323, 0.1610705554485321, 0.1955379992723465, -0.21112899482250214, 0.008936583995819092, 0.15061025321483612, -0.32263848185539246, 0.3231429159641266, 0.0312744677066803, -0.26142382621765137, -0.001352299121208489, 0.17766831815242767, 0.02285064570605755, -0.04387582838535309, -0.029844990000128746, 0.2701597511768341, -0.045364752411842346, -0.10523630678653717, 0.014053047634661198, -0.1849474161863327, 0.05694682523608208, 0.1417318880558014, -0.13454420864582062, -0.1297527551651001, 0.12839560210704803, 0.02574584260582924, 0.09358594566583633, -0.08534854650497437, 0.08542299270629883, 0.02711688168346882, -0.03222936764359474, -0.01648871973156929, 0.0007596906507387757, 0.0858486145734787, 0.025779888033866882, 0.14462101459503174, -0.12489396333694458, -0.12196961045265198, -0.2040790319442749, -0.005934190005064011, -0.10763805359601974, -0.05240024998784065, 0.007357829250395298, -0.1588265299797058, 0.06606466323137283, -0.046150531619787216, -0.11971545219421387, 0.08005452901124954, 