{"version": "0.5.3", "metadata": {"date": {"year": 2024, "month": 10, "day": 2, "hour": 2, "minute": 13, "second": 38}, "loudness": -13.789533615112305, "gain": 0.9049790746097395, "training": {"settings": {"fit_cab": false, "ignore_checks": false}, "data": {"latency": {"manual": null, "calibration": {"algorithm_version": 1, "delays": [136, 136], "safety_factor": 4, "recommended": 132, "warnings": {"matches_lookahead": false, "disagreement_too_high": false}}}, "checks": {"version": 3, "passed": true}}, "validation_esr": 0.010185767390335436}}, "architecture": "WaveNet", "config": {"layers": [{"input_size": 1, "condition_size": 1, "head_size": 8, "channels": 16, "kernel_size": 3, "dilations": [1, 2, 4, 8, 16, 32, 64, 128, 256, 512], "activation": "Tanh", "gated": false, "head_bias": false}, {"input_size": 16, "condition_size": 1, "head_size": 1, "channels": 8, "kernel_size": 3, "dilations": [1, 2, 4, 8, 16, 32, 64, 128, 256, 512], "activation": "Tanh", "gated": false, "head_bias": true}], "head": null, "head_scale": 0.02}, "weights": [-0.24959248304367065, 0.7279712557792664, -0.9957906007766724, -0.888896107673645, -0.5772508382797241, 0.38670000433921814, -0.26751992106437683, 0.9374203085899353, -0.1871684342622757, 0.3077901005744934, -0.6332146525382996, -0.41287872195243835, -1.1718789339065552, -0.8265919089317322, -0.6641657948493958, 0.14879831671714783, 0.13473190367221832, 0.1352323740720749, -0.12635040283203125, -0.11189490556716919, 0.05888276547193527, 0.15139080584049225, 0.021423164755105972, 0.09561972320079803, -0.05368399620056152, 0.06601888686418533, 0.12121317535638809, -0.16629181802272797, -0.039973460137844086, -0.03816510736942291, -0.08828422427177429, 0.07447846978902817, -0.08264073729515076, -0.029486672952771187, -0.03818633779883385, -0.12501023709774017, -0.1340894103050232, 0.07261725515127182, 0.07402627915143967, 0.10118371993303299, 0.08049517869949341, -0.06579847633838654, -0.002022348577156663, -0.18250532448291779, -0.10312499850988388, -0.04429399594664574, 0.14410598576068878, 0.07470988482236862, -0.10102041065692902, 0.04712686687707901, 0.09736361354589462, 0.109958216547966, 0.10822607576847076, 0.009253179654479027, 0.06639022380113602, -0.03326518088579178, 0.018974149599671364, -0.14160636067390442, -0.049645472317934036, -0.08133982867002487, 0.033328160643577576, -0.011224638670682907, -0.10283719748258591, 0.0741163119673729, -0.005858652759343386, 0.114366814494133, -0.11277513206005096, 0.06783892959356308, -0.07270722091197968, 0.19910456240177155, -0.1426636129617691, 0.10677985846996307, -0.0024978690780699253, 0.08672437816858292, 0.2868708670139313, 0.06790924817323685, -0.010803474113345146, 0.036378923803567886, -0.05153065547347069, -0.05178447812795639, -0.28883105516433716, 0.19739709794521332, 0.04788225144147873, -0.003086368553340435, -0.07416217029094696, 0.007501205429434776, -0.18411268293857574, -0.006302012130618095, 0.011903969570994377, 0.05762144550681114, -0.028011200949549675, 0.10873372107744217, -0.051294855773448944, 0.12070204317569733, -0.18411192297935486, 0.061439912766218185, 0.00042625769856385887, -0.015313140116631985, 0.04711752012372017, -0.15489350259304047, 0.10423918813467026, 0.2588212192058563, -0.12170761823654175, -0.06924856454133987, 0.022635065019130707, -0.06289416551589966, -0.147649347782135, 0.048772260546684265, -0.07249883562326431, 0.08494463562965393, -0.19888831675052643, 0.17869281768798828, -0.04127456247806549, -0.19290845096111298, 0.33911988139152527, -0.14395038783550262, 0.30126798152923584, -0.1845429688692093, 0.03826841339468956, -0.30003592371940613, 0.2395406812429428, 0.029273254796862602, -0.40721309185028076, 0.2551569938659668, -0.10938558727502823, -0.42401233315467834, 0.1628684550523758, -0.09810136258602142, 0.27559545636177063, -0.3231220543384552, 0.005269414279609919, -0.30066418647766113, 0.14723710715770721, -0.027440166100859642, 0.43740078806877136, -0.20182012021541595, 0.041139472275972366, -0.3104870617389679, 0.2606571316719055, 0.06390151381492615, 0.4475429356098175, -0.11303114891052246, 0.16159172356128693, -0.34668388962745667, 0.07249335944652557, -0.03649711608886719, -0.242283433675766, 0.206241175532341, -0.05272985249757767, -0.4460606276988983, 0.05010524392127991, -0.10023763030767441, -0.3621790409088135, 0.26595574617385864, 0.10324418544769287, -0.4771983325481415, 0.28535041213035583, -0.16529642045497894, 0.2736890912055969, -0.31262537837028503, -0.02779264934360981, 0.1544038951396942, -0.3223593235015869, -0.16668932139873505, -0.20246978104114532, 0.14299826323986053, -0.02154441736638546, 0.22645443677902222, -0.26459601521492004, 0.03387002646923065, 0.30562135577201843, -0.19541184604167938, 0.1656574159860611, 0.2344774603843689, -0.27668049931526184, 0.05947339907288551, -0.1815282106399536, 0.08834952116012573, 0.12224795669317245, 0.04314196854829788, -0.18642468750476837, -0.07183342427015305, -0.07014938443899155, 0.17858955264091492, 0.10647246241569519, 0.20986364781856537, -0.20462600886821747, -0.06293460726737976, -0.2781446874141693, 0.23026129603385925, 0.14717495441436768, 0.2665081322193146, -0.2563307583332062, 0.039165399968624115, 0.08657268434762955, -0.232347771525383, -0.03969799727201462, 0.2251209169626236, -0.2220917046070099, 0.03679480776190758, 0.17834201455116272, -0.04497422277927399, -0.06726815551519394, 0.08377613872289658, -0.22611986100673676, 0.09089487046003342, -0.21718348562717438, 0.3130095303058624, 0.012737154960632324, 0.09876374155282974, 0.04945916682481766, -0.0024914820678532124, -0.08195752650499344, -0.038923975080251694, -0.028699154034256935, 0.12572669982910156, -0.10941239446401596, -0.10322809964418411, 0.21914391219615936, -0.11221456527709961, -0.03736021742224693, 0.24064739048480988, 0.059379950165748596, 0.023307060822844505, -0.24129651486873627, 0.0551629513502121, -0.10905230045318604, 0.09393239766359329, 0.01638590358197689, 0.004904294386506081, -0.1041259840130806, 0.11299532651901245, -0.005106251686811447, 0.23808002471923828, 0.11754252016544342, -0.06478136032819748, -0.030973240733146667, -0.1150224581360817, -0.08198470622301102, 0.16224616765975952, 0.06445736438035965, 0.08221284300088882, 0.048204608261585236, 0.014274739660322666, 0.04656821861863136, -0.03568016365170479, 0.10815374553203583, -0.14487172663211823, 0.10692702978849411, -0.018996423110365868, -0.1048721894621849, 0.11893433332443237, 0.12425209581851959, -0.011312254704535007, -0.18177339434623718, -0.08408807963132858, -0.032376036047935486, -0.041483279317617416, 0.04961402714252472, -0.17341755330562592, 0.021131277084350586, 0.023344432935118675, 0.14915743470191956, 0.009924164041876793, 0.10496855527162552, 0.026887547224760056, -0.14383968710899353, 0.09760408103466034, 0.20188072323799133, -0.06657368689775467, -0.004377036355435848, -0.15274222195148468, -0.04798676073551178, -0.04095214232802391, 0.025075146928429604, -0.20954039692878723, 0.2458810955286026, -0.16904081404209137, 0.08434316515922546, -0.01533025223761797, 0.09861382097005844, -0.16281211376190186, -0.013454731553792953, 0.03602491691708565, 0.1167813241481781, 0.04660080745816231, 0.03641718998551369, -0.050124555826187134, 0.03807731717824936, 0.0815524160861969, -0.19463244080543518, 0.1219172477722168, 0.11966043710708618, -0.10554040968418121, 0.022137556225061417, -0.012724189087748528, -0.0015622548526152968, -0.05159497261047363, 0.1386452317237854, -0.15257103741168976, -0.009103003889322281, -0.0808037519454956, 0.004879071842879057, -0.07929221540689468, -0.5759190320968628, 0.05147035792469978, 0.40406715869903564, 0.6832493543624878, -0.07408089935779572, -0.37711772322654724, -0.7476791739463806, 0.11249818652868271, 0.40406936407089233, -0.6771535277366638, 0.1857416033744812, 0.45139065384864807, -0.7001874446868896, 0.1323583573102951, 0.42226606607437134, 0.6351388096809387, -0.13956989347934723, -0.3546842336654663, -0.7413991689682007, 0.1827315390110016, 0.5092762112617493, 0.7530488967895508, -0.050232626497745514, -0.3385674059391022, -0.5110752582550049, 0.10892222076654434, 0.2656480073928833, 0.4748832583427429, -0.0026607289910316467, -0.2696557641029358, -0.7366006970405579, 0.2056916058063507, 0.4853360652923584, -0.4813370704650879, 0.2567980885505676, 0.47713208198547363, -0.658419132232666, 0.08245473355054855, 0.4736812114715576, -0.5425432324409485, 0.04647749662399292, 0.4846579432487488, -0.5600217580795288, 0.2095784693956375, 0.26753824949264526, 0.6471282243728638, -0.22398503124713898, -0.27242565155029297, 0.0554688535630703, -0.0955825001001358, 0.08437421172857285, 0.012700805440545082, 0.12688857316970825, 0.051670677959918976, -0.05435934290289879, -0.14002108573913574, -0.08123121410608292, -0.09431170672178268, -0.29128652811050415, 0.13152532279491425, 0.13385847210884094, -0.0392712727189064, 0.14060908555984497, -0.18445836007595062, 0.06910476833581924, -0.05342116951942444, -0.02163567580282688, -0.0631575882434845, -0.049385253340005875, -0.11782310158014297, 0.03480883687734604, -0.10030733793973923, 0.1812615692615509, -0.024360883980989456, 0.15332666039466858, 0.05931791663169861, 0.2878533899784088, -0.06837858259677887, 0.11810032278299332, -0.044257380068302155, 0.07578705251216888, 0.2024810016155243, -0.10165689885616302, 0.119113989174366, -0.004607848823070526, -0.10609623044729233, 0.032176923006772995, 0.01425180770456791, -0.2543252408504486, -0.06301440298557281, -0.05902775377035141, -0.07830431312322617, 0.123794786632061, -0.09992706030607224, 0.05624992400407791, 0.04341845586895943, 0.21914125978946686, -0.11441170424222946, 0.02262694202363491, 0.03151068091392517, 0.1767098307609558, -0.15813112258911133, 0.23396919667720795, -0.005239284597337246, -0.009448042139410973, 0.18116474151611328, -0.19761817157268524, 0.024839814752340317, 0.23155279457569122, -0.11066082119941711, -0.047145284712314606, -0.1512652486562729, 0.0715031698346138, -0.08325410634279251, 0.1188056468963623, 0.005658263340592384, 0.07840245962142944, -0.1861778050661087, 0.12365546822547913, 0.02419362962245941, 0.18377411365509033, -0.2260342389345169, 0.05916031450033188, -0.21195273101329803, 0.04385000839829445, -0.010043103247880936, -0.002906250301748514, -0.06502591073513031, 0.1713622361421585, 0.1222473680973053, -0.21490837633609772, 0.010977376252412796, 0.1288066953420639, -0.22676481306552887, 0.1161184012889862, -0.031455524265766144, -0.2534234821796417, -0.09384630620479584, 0.07716051489114761, -0.017536841332912445, -0.08188598603010178, -0.011766275390982628, 0.0372680239379406, -0.06297807395458221, -0.22685977816581726, 0.05413701385259628, 0.2161557525396347, 0.3355720341205597, -0.052902910858392715, 0.032699208706617355, -0.3604690134525299, 0.3175346851348877, 0.03883052617311478, -0.195120707154274, 0.0785818099975586, -0.007224990986287594, -0.4044260084629059, 0.13694138824939728, 0.07178286463022232, 0.14639678597450256, -0.1642952561378479, 0.03105674684047699, -0.22442199289798737, 0.13708315789699554, -0.014276676811277866, 0.21685078740119934, -0.13445253670215607, 0.1068987175822258, -0.15374737977981567, 0.19522978365421295, 0.11869495362043381, 0.10796193778514862, -0.3153883218765259, 0.020802734419703484, -0.3456909954547882, 0.28358811140060425, -0.05477166548371315, -0.3325323462486267, 0.0730876699090004, 0.12445791810750961, -0.2768952548503876, 0.30779367685317993, 0.12351184338331223, -0.18071509897708893, 0.20129281282424927, -0.01004090066999197, -0.2970384955406189, 0.21451513469219208, 0.10901312530040741, 0.1663874089717865, -0.06409214437007904, -0.08010125160217285, -0.16864842176437378, -0.498974084854126, 0.354424387216568, 0.21933266520500183, 0.28343939781188965, -0.13682913780212402, -0.0200197771191597, -0.326600044965744, 0.3574506342411041, -0.1679481565952301, -0.3705243766307831, 0.29498210549354553, -0.12489715963602066, -0.37361136078834534, 0.200436070561409, 0.16976769268512726, 0.3630184829235077, -0.3108897805213928, -0.027153940871357918, -0.35580572485923767, 0.21075771749019623, 0.1016177386045456, 0.49565213918685913, -0.25330689549446106, -0.025130072608590126, -0.4067589342594147, 0.3051186800003052, -0.02806067280471325, 0.30953729152679443, -0.3130810558795929, 0.047199271619319916, -0.4522881805896759, 0.25604620575904846, -0.14959774911403656, -0.28322944045066833, 0.38545510172843933, -0.19920067489147186, -0.5305871367454529, 0.12655815482139587, -0.08678309619426727, -0.4478239417076111, 0.1431407630443573, -0.1391533613204956, -0.3935071527957916, 0.16539980471134186, 0.09094485640525818, 0.3626447916030884, -0.3344617486000061, 0.06342542171478271, 0.21414819359779358, -0.19427502155303955, 0.00013124707038514316, -0.14369893074035645, 0.2293115109205246, -0.12858831882476807, -0.04868923872709274, 0.06080597639083862, -0.08575057983398438, 0.11794164031744003, -0.09861073642969131, -0.029641518369317055, 0.05634026974439621, -0.002748911501839757, 0.0073576318100094795, -0.2245686948299408, 0.008373411372303963, -0.0440903939306736, 0.16128183901309967, -0.20609796047210693, 0.13207580149173737, -0.12027455866336823, 0.06078791618347168, 0.11660201847553253, 0.1316637545824051, 0.005862192716449499, 0.07585488259792328, -0.11971482634544373, 0.0010567351710051298, -0.00973355583846569, 0.2087930589914322, -0.13978783786296844, -0.12544085085391998, 0.15523222088813782, 0.046358294785022736, -0.03555722162127495, -0.03182051330804825, -0.21690474450588226, 0.03824854642152786, 0.07473663240671158, -0.16132839024066925, 0.0356224924325943, 0.1459396332502365, 0.025610819458961487, 0.10831665247678757, -0.08915028721094131, -0.010051160119473934, -0.11545008420944214, 0.024228394031524658, 0.20223666727542877, 0.054791782051324844, 0.0001415397709934041, -0.011202980764210224, 0.14152179658412933, 0.001630727550946176, 0.019405245780944824, -0.047110963612794876, -0.2263931930065155, 0.2806790769100189, -0.04940108209848404, -0.19335335493087769, 0.22164277732372284, -0.080498605966568, 0.05345727875828743, -0.16392704844474792, 0.009960135444998741, -0.23514039814472198, 0.28717607259750366, -0.07243409007787704, 0.17691785097122192, -0.019817540422081947, 0.07448147237300873, -0.0838766023516655, 0.2745921015739441, 0.006147060077637434, 0.04090806469321251, -0.010741458274424076, 0.04913889244198799, -0.27041447162628174, 0.11263871937990189, -0.08700116723775864, -0.0025022984482347965, 0.12189184129238129, -0.12432187795639038, -0.1340758055448532, 0.23432712256908417, 0.04840870946645737, -0.07751794159412384, 0.15978896617889404, 0.061742108315229416, -0.1617628037929535, 0.08748698234558105, -0.14567935466766357, -0.0018028757767751813, -0.091815285384655, -0.2873918414115906, 0.24154619872570038, 0.024910839274525642, 0.17015467584133148, -0.3174464702606201, 0.14728601276874542, -0.24056634306907654, 0.33605533838272095, -0.12765631079673767, -0.1928323656320572, 0.2999822795391083, -0.06886270642280579, -0.04732726886868477, 0.12319135665893555, -0.13414941728115082, 0.10035694390535355, -0.1892603635787964, 0.15464505553245544, -0.2442319393157959, 0.2761191427707672, -0.057611994445323944, 0.12493270635604858, -0.11436626315116882, -0.10104939341545105, -0.15101349353790283, 0.34376201033592224, -0.040659647434949875, 0.273781955242157, -0.2565920352935791, 0.13473694026470184, -0.3032989799976349, 0.19883616268634796, -0.04244932159781456, -0.1268642544746399, 0.28007709980010986, 0.09436479210853577, -0.17773739993572235, 0.21607403457164764, 0.08970844745635986, -0.19763362407684326, 0.34581756591796875, -0.10750695317983627, -0.18075406551361084, 0.21427379548549652, 0.050966210663318634, 0.29490694403648376, -0.2211439609527588, -0.06996802240610123, 0.3370303213596344, 0.04922880604863167, -0.23956194519996643, -0.35016703605651855, 0.10015180706977844, 0.4475640058517456, 0.2724681496620178, -0.14349474012851715, -0.21151289343833923, 0.1547345519065857, 0.024938927963376045, -0.2917863428592682, 0.19970712065696716, 0.04707993194460869, -0.43802496790885925, -0.23459216952323914, -0.09444483369588852, 0.28634631633758545, 0.2827371656894684, 0.1207551583647728, -0.3788551092147827, -0.1679060012102127, -0.009548395872116089, 0.2436191737651825, 0.15129050612449646, -0.11551070958375931, -0.1421041488647461, -0.293927937746048, 0.005575328134000301, 0.3336528539657593, 0.3627423644065857, 0.11568505316972733, -0.19861063361167908, 0.16192597150802612, -0.024134235456585884, -0.3912048041820526, 0.17854654788970947, 0.025647161528468132, -0.17662034928798676, 0.14769281446933746, 0.08128002285957336, -0.3849017918109894, 0.23832829296588898, 0.11089803278446198, -0.34109756350517273, -0.268220990896225, -0.1310020089149475, 0.38685712218284607, 0.10496711730957031, 0.03905579075217247, -0.2473263442516327, -0.1785738319158554, -0.23744645714759827, 0.35707223415374756, 0.1830630898475647, 0.08385580033063889, -0.2850671708583832, 0.19683997333049774, 0.2184159904718399, -0.4290415644645691, 0.06741433590650558, 0.07987971603870392, -0.46655526757240295, -0.08013344556093216, -0.03153018280863762, 0.45707234740257263, 0.10667220503091812, 0.18198266625404358, -0.3810667395591736, 0.038017693907022476, -0.1831967830657959, 0.2505028247833252, 0.11734668165445328, 0.25515684485435486, -0.4232665002346039, 0.05317443236708641, -0.07593026012182236, 0.21687649190425873, 0.0438849963247776, 0.2581568658351898, -0.4638567268848419, 0.04546963796019554, 0.17276138067245483, -0.46966347098350525, 0.14985746145248413, 0.19742895662784576, -0.26292160153388977, -0.018956325948238373, 0.26753878593444824, -0.4365288019180298, 0.22224289178848267, -0.013690442778170109, -0.479139119386673, -0.0226639024913311, -0.14898623526096344, 0.28595229983329773, -0.055573996156454086, -0.03893212601542473, -0.28596070408821106, -0.057924214750528336, 0.04955901950597763, 0.052111562341451645, -0.052538350224494934, -0.008895118720829487, 0.06840284913778305, 0.06178843230009079, -0.05818288400769234, -0.0190853551030159, -0.00461671082302928, 0.0479428805410862, -0.13219653069972992, -0.06972423940896988, 0.4735526144504547, -0.3759133517742157, 0.6254861354827881, -0.5762472748756409, 0.005219893530011177, 0.8554405570030212, 0.6479067206382751, -0.5872495174407959, 0.14156463742256165, 0.09218422323465347, -0.6969695687294006, -0.26562923192977905, 0.12948858737945557, -0.690045177936554, 0.48040473461151123, 0.792371928691864, -0.19991858303546906, 0.16554689407348633, 0.041937023401260376, 0.13987784087657928, 0.2715347707271576, -0.037999071180820465, 0.37522220611572266, -0.03214963898062706, -0.0006843669689260423, 0.05576855316758156, 0.13399536907672882, -0.032348133623600006, 0.09295837581157684, 0.08800279349088669, 0.0891619324684143, -0.07772446423768997, -0.05710282549262047, 0.1260061115026474, -0.2931673228740692, 0.25566527247428894, -0.025127675384283066, -0.40196847915649414, -0.1411498785018921, 0.19889730215072632, -0.2892148792743683, 0.1376604288816452, -0.10218847543001175, 0.1142280250787735, 0.19356359541416168, 0.23781216144561768, -0.06516844779253006, -0.0403047576546669, 0.02313845604658127, -0.09811907261610031, -0.041728101670742035, 0.06589198112487793, -0.138908252120018, 0.004165199585258961, 0.10350852459669113, 0.057222917675971985, 0.17162342369556427, -0.10053122788667679, 0.1306939423084259, -0.24945735931396484, 0.12024862319231033, 0.15239229798316956, 0.05547110363841057, -0.0517718531191349, 0.09473490715026855, -0.03779546916484833, -0.2511909008026123, -0.2763892710208893, 0.16338960826396942, 0.04684477671980858, -0.05011874809861183, -0.15602338314056396, -0.27608418464660645, 0.2184571772813797, -0.23326052725315094, 0.15758377313613892, 0.015599272213876247, 0.17645788192749023, -0.3541702926158905, -0.2855879068374634, 0.03239613398909569, -0.12922661006450653, -0.5186344385147095, 0.2875988483428955, 0.17631621658802032, 0.11533469706773758, 0.11249314993619919, -0.16225214302539825, 0.0733792781829834, 0.23301362991333008, -0.37739771604537964, 0.1675874888896942, -0.10053319483995438, 0.22860592603683472, -0.2822679281234741, -0.132055401802063, -0.2721223831176758, 0.09542345255613327, 0.14266906678676605, 0.22566501796245575, 0.28233325481414795, -0.06488475948572159, 0.27826499938964844, 0.06503424048423767, -0.031516183167696, 0.021338678896427155, -0.14461274445056915, 0.03216691315174103, 0.013532149605453014, 0.13679848611354828, 0.14888757467269897, 0.1518179327249527, 0.042451273649930954, 0.19019928574562073, 0.14515000581741333, 0.17719855904579163, -0.17744778096675873, -0.12840861082077026, -0.2744504511356354, -0.07332059741020203, 0.09654546529054642, -0.3872124254703522, -0.36307692527770996, 0.12540915608406067, 2.5838056672000675e-07, -0.15334288775920868, 0.07323189824819565, -0.3013497591018677, 0.12052164226770401, 0.09042325615882874, 0.3901088237762451, -0.1490568369626999, -0.12129336595535278, -0.014499888755381107, 0.38625097274780273, 0.033673543483018875, 0.04812495410442352, -0.09692305326461792, 0.29635927081108093, -0.0748809203505516, 0.06728021055459976, -0.047741688787937164, 0.05127788707613945, 0.3438630998134613, 0.10322736948728561, 0.11288856714963913, -0.20542865991592407, -0.07781165838241577, 0.008982464671134949, -0.12480707466602325, -0.36950698494911194, -0.13318082690238953, -0.3460572063922882, -0.22893103957176208, -0.003337379777804017, 0.1886291205883026, -0.053139250725507736, -0.10517629235982895, 0.2343197613954544, 0.1564093828201294, -0.24994361400604248, -0.06313220411539078, 0.2419135570526123, -0.25236526131629944, -0.05504549294710159, -0.004240460693836212, 0.08983634412288666, 0.01298777386546135, 0.21350504457950592, 0.2158466875553131, 0.04266634210944176, -0.09739866852760315, 0.17160890996456146, 0.2698628604412079, -0.16301950812339783, -0.024711698293685913, 0.16658686101436615, 0.22179031372070312, -0.4821976125240326, 0.15498770773410797, -0.10721085220575333, -0.14852261543273926, -0.08783084899187088, -0.10952115058898926, -0.01782798208296299, -0.2175266593694687, -0.2796322703361511, 0.08923160284757614, -0.21631543338298798, 0.161655992269516, -0.1636718213558197, -0.012320474721491337, -0.14037427306175232, -0.03164847195148468, -0.03567645698785782, 0.04826733097434044, 0.20968450605869293, -0.02654486708343029, 0.04223527014255524, -0.009087074548006058, 0.0012724469415843487, -0.048281535506248474, -0.0968412458896637, -0.13070522248744965, -0.09820196777582169, 0.22791637480258942, -0.4546593129634857, -0.4951856732368469, -0.08803847432136536, -0.09790236502885818, 0.12236128747463226, -0.07567225396633148, -0.0669364333152771, -0.06739331781864166, -0.1761530190706253, 0.3916209936141968, 0.3455997407436371, -0.2583295404911041, -0.1315627247095108, -0.1602841019630432, 0.3786132335662842, -0.2938825786113739, -0.07321981340646744, 0.0641665831208229, 0.0035797578748315573, -0.11110473424196243, -0.2418767660856247, 0.13499771058559418, -0.16981355845928192, 0.09586367011070251, 0.11761608719825745, 0.07037901133298874, -0.11310787498950958, -0.22067229449748993, -0.06985186785459518, 0.08353029936552048, -0.08669822663068771, -0.07111012935638428, -0.25747132301330566, -0.020630737766623497, 0.040272053331136703, 0.29475703835487366, -0.3322402238845825, -0.02294645458459854, 0.07059498131275177, -0.07585914433002472, 0.13994094729423523, 0.005686863791197538, -0.35025686025619507, 0.08470812439918518, -0.18296748399734497, 0.09271284937858582, 0.012041275389492512, 0.24831819534301758, -0.2627749443054199, -0.1157580092549324, 0.07390476763248444, 0.06313028186559677, 0.45004451274871826, -0.09818533807992935, -0.11585597693920135, 0.1789708137512207, -0.02830776944756508, 0.23824380338191986, 0.11052141338586807, -0.32427743077278137, -0.012522700242698193, -0.3717005252838135, 0.08344750851392746, 0.2174677848815918, 0.2468985766172409, 0.09077668935060501, 0.20184046030044556, -0.18656249344348907, 0.13580116629600525, -0.4168568253517151, 0.01746741123497486, 0.03453495353460312, 0.053523723036050797, 0.14488783478736877, -0.03252001106739044, -0.04000325873494148, -0.05051601305603981, 0.00425516115501523, 0.024464748799800873, -0.017924902960658073, 0.05611399561166763, 0.06209589168429375, 0.08655448257923126, 0.10392885655164719, 0.05587451905012131, 0.10536203533411026, -0.21345026791095734, 0.17107723653316498, -0.067191943526268, 0.08017828315496445, 0.20173189043998718, -0.23367758095264435, -0.04687011241912842, 0.11717263609170914, -0.055859196931123734, -0.12565679848194122, 0.31496620178222656, 0.35246068239212036, -0.01407771185040474, -0.155478373169899, -0.1746538281440735, -0.14576205611228943, 0.2654508352279663, 0.16001467406749725, 0.03096686489880085, -0.44267016649246216, -0.07590910792350769, -0.09311696141958237, -0.0851503312587738, -0.16470319032669067, 0.11025522649288177, -0.17398017644882202, -0.22016394138336182, -0.1719641089439392, 0.3057061433792114, -0.3195784389972687, -0.07366889715194702, 0.3770231008529663, -0.2124350368976593, 0.04275863245129585, 0.1025778129696846, -0.11257965117692947, 0.01624819077551365, 0.05359502136707306, -0.151376873254776, 0.05083096772432327, 0.3006892204284668, 0.12728485465049744, 0.02712147869169712, -0.4142403304576874, 0.1178489550948143, -0.11276809871196747, 0.13057264685630798, -0.20085127651691437, -0.14962448179721832, 0.15105724334716797, -0.13881555199623108, -0.058963481336832047, 0.25768938660621643, -0.2869289219379425, -0.09436338394880295, -0.05489538609981537, 0.018197285011410713, -0.255715548992157, 0.20798826217651367, 0.07811173051595688, -0.09220530837774277, -0.1277872622013092, -0.11948587000370026, -0.09821859002113342, 0.08558192849159241, 0.37431493401527405, 0.12064304202795029, -0.09166806191205978, -0.4807701110839844, 0.3034987449645996, 0.03314412385225296, 0.30671486258506775, -0.0343424491584301, -0.2635229229927063, -0.17848122119903564, -0.12777486443519592, 0.12395070493221283, -0.24379751086235046, -0.22523567080497742, 0.23896463215351105, -0.2687109410762787, 0.06700962036848068, 0.20180359482765198, -0.028808578848838806, -0.01689993031322956, 0.17731785774230957, -0.12432051450014114, -0.1989974081516266, 0.11130575835704803, 0.041899424046278, 0.40019649267196655, -0.22405435144901276, -0.028360027819871902, -0.14255866408348083, 0.03006451204419136, 0.0865924134850502, 0.06696771830320358, 0.025556931272149086, -0.012913051061332226, 0.025728244334459305, -0.0759505182504654, 0.17625586688518524, -0.07950694113969803, -0.09588045626878738, 0.1773509979248047, -0.15876485407352448, 0.19347994029521942, -0.1155254915356636, 0.11967146396636963, 0.3479410409927368, 0.15689490735530853, -0.10042686760425568, -0.1644374281167984, -0.12722894549369812, 0.02336699515581131, 0.1579095423221588, -0.15725955367088318, -0.00563759496435523, 0.0008323309593833983, 0.07261374592781067, 0.09595542401075363, -0.20752769708633423, -0.12186256796121597, -0.28618916869163513, 0.0695933997631073, 0.29301565885543823, -0.16588914394378662, -0.008955552242696285, 0.1269618421792984, 0.12717118859291077, -0.18677189946174622, -0.007188810966908932, -0.10225556045770645, 0.09850102663040161, 0.0087984474375844, -0.06432298570871353, 0.06789302080869675, -0.20731252431869507, 0.2368827909231186, -0.00772068789228797, 0.02121143788099289, -0.07667893916368484, -0.03848831355571747, -0.014996916055679321, 0.11681681126356125, 0.0650777742266655, 0.06915310770273209, -0.22984102368354797, -0.24812832474708557, 0.23386281728744507, 0.11312075704336166, -0.12558910250663757, 0.16198094189167023, -0.1006319522857666, -0.0608467198908329, 0.004066089633852243, 0.17125046253204346, 0.14097072184085846, 0.04270017892122269, 0.08016011118888855, -0.04346190020442009, -0.3198116421699524, 0.05698247253894806, 0.16920775175094604, -0.061616890132427216, -0.21749863028526306, 0.005551450420171022, 0.15453669428825378, -0.0922049731016159, 0.045473530888557434, 0.2612420618534088, -0.15141814947128296, -0.10514732450246811, 0.30223599076271057, 0.11007411032915115, 0.028758537024259567, -0.020063083618879318, -0.02185554802417755, -0.12475734204053879, 0.14542894065380096, -0.21050938963890076, -0.10140633583068848, 0.16812732815742493, -0.09848443418741226, 0.10277390480041504, -0.1776682436466217, 0.08962976932525635, 0.1746833175420761, -0.21346765756607056, -0.14318104088306427, 0.24048657715320587, 0.11264902353286743, 0.3215116560459137, -0.25689926743507385, -0.08201800286769867, -0.09983566403388977, -0.10685063153505325, -0.025035133585333824, 0.04977831244468689, 0.041255075484514236, 0.051966868340969086, 0.08551730215549469, -0.31407999992370605, -0.32592543959617615, 0.16920103132724762, 0.07366643846035004, 0.1969713270664215, -0.13640227913856506, -0.278174489736557, -0.112406425178051, 0.07525680959224701, 0.3768795132637024, 0.21557849645614624, 0.4057199954986572, -0.420604944229126, -0.1724819839000702, -0.30533653497695923, 0.25099557638168335, 0.22281157970428467, 0.023953784257173538, -0.323153555393219, 0.010168557055294514, -0.28792378306388855, 0.0601629838347435, -0.06487133353948593, -0.32210686802864075, -0.06331038475036621, 0.0797143280506134, 0.0015873621450737119, -0.06499951332807541, 0.08284015953540802, -0.13799546658992767, -0.2222612500190735, 0.03899071738123894, -0.15997403860092163, 0.23104670643806458, -0.2538352310657501, -0.10865821689367294, 0.05891392007470131, -0.24532249569892883, 0.4170515239238739, -0.028597384691238403, -0.07218559831380844, -0.10101651400327682, -0.051175251603126526, -0.030294980853796005, 0.13365742564201355, 0.0294803474098444, -0.34931713342666626, 0.2595480680465698, -0.02369477041065693, -0.04469922557473183, -0.12361661344766617, 0.07624942064285278, 0.20006127655506134, -0.27121686935424805, -0.2016105353832245, 0.12378519028425217, -0.3253912031650543, 0.19955773651599884, 0.5074551701545715, 0.34137168526649475, -0.0633159652352333, 0.04703774303197861, -0.11084803938865662, 0.03209904953837395, 0.07003192603588104, 0.35033512115478516, 0.019848180934786797, 0.009019809775054455, 0.03553461283445358, 0.05849262326955795, 0.23223039507865906, -0.19748558104038239, -0.11329634487628937, -0.11720233410596848, 0.05629910156130791, 0.02003769390285015, -0.1907920241355896, 0.2642337381839752, -0.1474209725856781, 0.23938989639282227, -0.43305501341819763, 0.029942380264401436, -0.08606264740228653, -0.041749656200408936, -0.08882937580347061, 0.37436628341674805, 0.11546657234430313, 0.046033669263124466, -0.29342785477638245, -0.19057384133338928, 0.14697514474391937, 0.1430051028728485, -0.007651668041944504, 0.024237550795078278, 0.054327841848134995, 0.04064767807722092, 0.008897275663912296, 0.38888439536094666, 0.24029935896396637, 0.03533133864402771, -0.07257840037345886, -0.1373366266489029, 0.19587355852127075, 0.08752040565013885, 0.24288703501224518, -0.1211320236325264, 0.08428521454334259, -0.04915084317326546, 0.0844215601682663, 0.1284906268119812, 0.09587832540273666, -0.08324260264635086, -0.04749542474746704, -0.29033204913139343, 0.14486604928970337, -0.2685966193675995, -0.12965331971645355, 0.037247877568006516, -0.27884894609451294, 0.21408364176750183, 0.265168160200119, -0.010569067671895027, 0.027071969583630562, -0.09135128557682037, -0.16626137495040894, -0.07239022105932236, -0.0677231028676033, -0.22340966761112213, 0.1351131945848465, -0.03816159442067146, -0.295121431350708, 0.013381983153522015, 0.10435523837804794, 0.42853066325187683, -0.09385023266077042, -0.05302470177412033, -0.3147198259830475, -0.06176966801285744, 0.10464958846569061, -0.04856459051370621, -0.01117287389934063, -0.01638602651655674, 0.1357516050338745, -0.10860247910022736, -0.136052668094635, 0.1318095475435257, -0.02341204136610031, -0.10248912125825882, -0.07558255642652512, -0.15223060548305511, 0.02548791654407978, 0.07191850990056992, 0.020080579444766045, -0.0803147703409195, 0.20866692066192627, -0.2517579197883606, 0.2378155142068863, 0.06964095681905746, 0.1814834475517273, -0.0699416846036911, 0.05383569747209549, -0.25829440355300903, 0.051144253462553024, -0.27914178371429443, -0.10359638184309006, 0.09659457951784134, -0.33148524165153503, 0.055235959589481354, -0.06134452670812607, -0.1325889676809311, -0.07010047137737274, -0.13930509984493256, -0.07585404813289642, 0.05451042577624321, 0.028006892651319504, -0.2982001006603241, 0.06202288717031479, 0.0718584731221199, 0.19449935853481293, 0.20799337327480316, 0.08073241263628006, -0.16110599040985107, -0.40170690417289734, -0.32819879055023193, 0.19247247278690338, 0.02950294129550457, 0.1802850365638733, 0.10771261155605316, -0.0819157138466835, -0.11522587388753891, 0.3388144373893738, 0.057370107620954514, 0.09938333928585052, -0.17171165347099304, -0.16413038969039917, -0.05865710973739624, 0.005463911686092615, -0.07724814862012863, -0.03522589057683945, -0.2636726498603821, -0.11579913645982742, 0.09695997834205627, -0.09302957355976105, -0.3060458302497864, -0.27224424481391907, -0.020744243636727333, 0.12567108869552612, 0.022790465503931046, 0.16424332559108734, -0.04720892757177353, -0.07762213796377182, 0.1233019158244133, 0.08610111474990845, 0.16931363940238953, -0.05290074646472931, 0.06943502277135849, 0.05172598361968994, 0.10170044749975204, -0.16286323964595795, -0.1622978150844574, 0.3147846758365631, -0.13435029983520508, 0.07190749049186707, -0.3357606530189514, 0.0027772197499871254, -0.15376566350460052, 0.1905316263437271, 0.143341526389122, 0.0018330327002331614, -0.0797991156578064, -0.12679539620876312, 0.0037688089068979025, -0.09314245730638504, 0.05436483025550842, 0.16888031363487244, -0.07941059023141861, 0.04604881629347801, 0.018316004425287247, 0.11427062749862671, -0.22245001792907715, -0.014641485176980495, 0.030934635549783707, -0.12475376576185226, -0.04999280720949173, -0.01259204838424921, 0.006121633108705282, 0.19780419766902924, -0.03399956226348877, 0.12365098297595978, 0.11180458217859268, -0.03481420502066612, 0.16296985745429993, -0.009602364152669907, -0.12038933485746384, -0.13848154246807098, 0.002106694271788001, -0.08611645549535751, -0.04884614050388336, 0.1390838623046875, -0.019013002514839172, -0.07173225283622742, 0.11808332055807114, -0.15206757187843323, 0.06985924392938614, 0.14843378961086273, -0.06864001601934433, -0.026672711595892906, 0.11984407901763916, -0.025571070611476898, -0.30425938963890076, 0.19648393988609314, -0.10000184178352356, 0.29289695620536804, -0.03555380553007126, 0.2610306441783905, 0.33069807291030884, 0.2439633160829544, -0.44121354818344116, -0.15123270452022552, -0.33259764313697815, -0.012618185952305794, 0.08520402759313583, 0.12046932429075241, -0.7259668111801147, -0.4306427240371704, -0.3973338305950165, -0.235148623585701, 0.047417085617780685, -0.249789759516716, 0.176761656999588, 0.10921671986579895, 0.2424595057964325, -0.17325326800346375, 0.02319394424557686, -0.02112218365073204, 0.23706085979938507, 0.22718267142772675, 0.36088159680366516, 0.08385440707206726, -0.14568039774894714, -0.1499754637479782, -0.14809998869895935, -0.1983993649482727, -0.1455231010913849, -0.05763882398605347, -0.10595659166574478, -0.17634357511997223, -0.1047017052769661, -0.03510094806551933, -0.19318191707134247, 0.020918020978569984, 0.10009255260229111, 0.015591609291732311, -0.04258138686418533, -0.04375723749399185, 0.022548556327819824, -0.04272116720676422, 0.19106176495552063, -0.022703267633914948, 0.09079770743846893, -0.2653818130493164, -0.0057309032417833805, 0.4219967722892761, 0.053677670657634735, -0.05325660854578018, -0.19625253975391388, 0.053317755460739136, -0.10709962248802185, -0.1458558589220047, 0.20328649878501892, 0.20186260342597961, -0.17294630408287048, 0.027998369187116623, -0.016949253156781197, -0.17973692715168, 0.18065351247787476, -0.06462160497903824, 0.3429855406284332, 0.13510355353355408, -0.11677512526512146, -0.4289967715740204, -0.06650761514902115, 0.259372353553772, 0.5943722128868103, 0.078182153403759, -0.06887518614530563, -0.37409844994544983, -0.18394650518894196, -0.04633435606956482, 0.040027596056461334, 0.022132424637675285, -0.12672829627990723, -0.4797302484512329, 0.13240744173526764, 0.07266900688409805, -0.2917981445789337, 0.10911451280117035, 0.14826150238513947, -0.347933828830719, -0.05568600818514824, 0.20562924444675446, 0.03382140398025513, 0.08473999798297882, -0.05914574861526489, -0.04465615376830101, 0.22295956313610077, -0.09578806161880493, 0.04542649909853935, -0.13805581629276276, 0.023274173960089684, 0.0704035684466362, 0.16407102346420288, -0.03303919732570648, -0.30477309226989746, -0.12713785469532013, -0.1941569447517395, 0.4353342056274414, 0.12329980731010437, 0.011826134286820889, -0.023446768522262573, -0.07266691327095032, -0.07203452289104462, 0.16168594360351562, -0.08139780908823013, -0.03313567116856575, -0.1494482308626175, -0.10817942023277283, 0.09018862992525101, -0.09607808291912079, -0.07653792202472687, -0.05563729256391525, -0.0842239037156105, -0.012245097197592258, 0.11501163989305496, -0.299713134765625, 0.0964411124587059, -0.038991305977106094, 0.03631753847002983, -0.10607331991195679, -0.08828746527433395, 0.11166511476039886, 0.19566857814788818, 0.00769005948677659, 0.308337539434433, -0.02135849930346012, 0.048710279166698456, 0.4267651438713074, -0.23569686710834503, 0.12718474864959717, 0.17099805176258087, 0.024775706231594086, -0.0261851754039526, 0.4231906831264496, -0.08440341800451279, 0.18400298058986664, 0.1411207616329193, 0.1011497974395752, -0.1265583038330078, -0.19004854559898376, -0.008750258944928646, -0.06465121358633041, 0.23726004362106323, -0.09118815511465073, 0.09007588773965836, 0.040368515998125076, -0.17695902287960052, -0.019931605085730553, 0.09189173579216003, -0.027885759249329567, 0.015983693301677704, 0.23691804707050323, -0.10087618231773376, 0.20625677704811096, -0.1398828625679016, 0.029944676905870438, 0.057819876819849014, 0.05853366106748581, 0.0070717246271669865, 0.06784548610448837, -0.1661762148141861, 0.14358432590961456, 0.025874407961964607, 0.11281877756118774, -0.2138317972421646, 0.07153546810150146, -0.012689181603491306, -0.05525884032249451, 0.04539744183421135, 0.257355272769928, -0.1076267808675766, -0.1094958484172821, 0.07338959723711014, 0.11890189349651337, -0.13125357031822205, -0.10187558084726334, -0.035319115966558456, 0.07003707438707352, 0.22403238713741302, 0.05716986954212189, -0.10580277442932129, 0.19695089757442474, -0.1297273337841034, -0.08212321251630783, -0.3655875325202942, 0.04863043129444122, 0.011722957715392113, 0.2219865918159485, 0.023731311783194542, -0.045906659215688705, -0.25269901752471924, 0.1338420808315277, -0.06401757150888443, -0.032208461314439774, 0.07424672693014145, 0.13740243017673492, -0.14718540012836456, -0.08181976526975632, -0.00533687137067318, -0.11391031742095947, 0.11474846303462982, 0.02210874669253826, 0.18858776986598969, -0.21991987526416779, -0.282559335231781, -0.2210906744003296, 0.18477888405323029, 0.18949779868125916, 0.25754496455192566, -0.10423395782709122, -0.13519585132598877, -0.4414733946323395, 0.026718394830822945, -0.04073551669716835, 0.15526451170444489, -0.2518654763698578, 0.11483382433652878, -0.25382739305496216, 0.21086996793746948, 0.1514834463596344, 0.19221965968608856, 0.04429740831255913, 0.052138231694698334, -0.20226633548736572, 0.1028149202466011, 0.052892688661813736, -0.08191492408514023, 0.00548943504691124, 0.05900092422962189, -0.139854297041893, -0.013726082630455494, -0.09802436828613281, 0.199427992105484, 0.030501829460263252, 0.052976641803979874, -0.19777239859104156, 0.0752025842666626, -0.04170980677008629, 0.09642083197832108, 0.04182900860905647, -0.0518614687025547, 0.013155581429600716, -0.07125118374824524, 0.07904432713985443, 0.13115419447422028, 0.08533758670091629, -0.052721183747053146, -0.007827692665159702, -0.0915195494890213, 0.02368217334151268, -0.091551773250103, -0.1865449845790863, 0.10411852598190308, 0.11194851994514465, 0.06246936321258545, -0.28696486353874207, -0.03827953711152077, -0.15443359315395355, -0.035161588340997696, -0.028228595852851868, -0.09996284544467926, -0.3476346731185913, -0.16397076845169067, 0.10323455929756165, 0.3292106091976166, 0.12169934064149857, 0.12106291204690933, -0.22377516329288483, -0.03854605183005333, 0.06721358746290207, 0.07975425571203232, -5.159168358659372e-05, -0.22278989851474762, 0.017986441031098366, 0.1308649629354477, 0.06360781192779541, -0.11171922832727432, 0.05723215639591217, -0.227132648229599, 0.11905570328235626, 0.048733022063970566, 0.25318223237991333, 0.16098444163799286, 0.1796385943889618, 0.1274947226047516, -0.003861304372549057, 0.06405634433031082, -0.10539066046476364, 0.09940812736749649, 0.07348252832889557, 0.08243509382009506, 0.08044932037591934, -0.03289252519607544, 0.23403717577457428, 0.15544436872005463, 0.2696252167224884, 0.022633269429206848, 0.1488129198551178, -0.11836307495832443, -0.5688071846961975, 0.2472984939813614, 0.44477880001068115, -0.49036407470703125, 0.2437930554151535, -0.7241832613945007, -0.3035278022289276, -0.41309666633605957, 0.8264696598052979, -1.1298646926879883, -0.19232210516929626, -0.911976158618927, 0.19590362906455994, -0.79176926612854, 0.3757075369358063, -0.7330414056777954, -0.4369656443595886, -0.12336516380310059, 0.11229245364665985, 0.25014495849609375, 0.29115280508995056, 0.09982568770647049, -0.08287752419710159, -0.010683277621865273, -0.09438394010066986, 0.1649245321750641, 0.009652660228312016, -0.2097308486700058, 0.05970785394310951, 0.11402451246976852, -0.05944065377116203, -0.2004823386669159, 0.12610457837581635, -0.15694354474544525, -0.20056481659412384, -0.22185581922531128, -0.2951127588748932, 0.22141461074352264, -0.04138629138469696, -0.17193739116191864, 0.184775248169899, 0.08031968027353287, -0.027984697371721268, 0.30392560362815857, -0.020137717947363853, 0.007097809575498104, 0.23783165216445923, 0.3610181212425232, -2.4647091777296737e-05, -0.2114659696817398, 0.026291437447071075, 0.2243664711713791, 0.13752780854701996, 0.09450364112854004, -0.08775726705789566, 0.015974432229995728, 0.17677077651023865, -0.016303230077028275, -0.25690948963165283, -0.279541552066803, 0.18755415081977844, 0.2708657681941986, -0.13069716095924377, 0.06529396772384644, 0.1941707730293274, 0.2257368564605713, -0.1033480316400528, -0.29002583026885986, -0.26664483547210693, 0.15437860786914825, -0.1646871417760849, -0.1649959236383438, -0.14868362247943878, -0.010616818442940712, 0.21582305431365967, 0.4816497564315796, 0.10847055166959763, -0.1640801727771759, 0.10907203704118729, 0.11474510282278061, 0.25177454948425293, -0.09748873114585876, -0.3251032829284668, -0.40118488669395447, 0.20351462066173553, 0.08334852010011673, 0.014559817500412464, 0.3639955520629883, 0.04605068266391754, 0.07644019275903702, -0.07735739648342133, 0.24088934063911438, -0.4685852825641632, -0.20875808596611023, -0.1483779400587082, 0.018973978236317635, -0.1940430998802185, -0.2669360041618347, -0.5473461747169495, -0.4664689302444458, -0.034627899527549744, 0.02868005447089672, -0.06659922748804092, -0.08961079269647598, 0.011337717063724995, 0.1757848560810089, -0.17615781724452972, 0.017874620854854584, -0.22873303294181824, -0.3261270821094513, 0.5201029777526855, 0.0016932250000536442, 0.07294339686632156, -0.18719345331192017, 0.1261308193206787, -0.06283499300479889, 0.13532337546348572, 0.33062615990638733, -0.15787535905838013, -0.09894883632659912, 0.22098611295223236, -0.05371331050992012, -0.04155687987804413, 0.1726885735988617, -0.003006132785230875, 0.14671030640602112, -0.18873287737369537, 0.2703711688518524, 0.12718118727207184, 0.04801693186163902, -0.06734604388475418, 0.04761475324630737, 0.12745562195777893, -0.13727284967899323, 0.05720958486199379, 0.21212416887283325, -0.15672272443771362, 0.22218120098114014, -0.3175662159919739, 0.011048308573663235, -0.21449509263038635, -0.08203405141830444, 0.183304563164711, -0.09380665421485901, -0.1556958705186844, 0.1011597067117691, -0.10817905515432358, 0.23085759580135345, -0.1783156543970108, -0.1236429437994957, -0.12174251675605774, -0.292324960231781, 0.2658039331436157, 0.20753662288188934, 0.19881732761859894, -0.37375980615615845, 0.17225775122642517, 0.49668243527412415, -0.24296864867210388, 0.4236598610877991, -0.15253879129886627, -0.0016465253429487348, 0.08225006610155106, 0.0564284548163414, 0.1192302405834198, -0.153566375374794, 0.16369187831878662, 0.12461811304092407, -0.08485209941864014, 0.11825768649578094, 0.08933580666780472, 0.04866429790854454, -0.003876755014061928, 0.06481019407510757, 0.011784709990024567, -0.08895905315876007, 0.10349280387163162, -0.05388841778039932, 0.011819666251540184, 0.055466461926698685, 0.013624482788145542, -0.16197867691516876, -0.01969188079237938, -0.01734420284628868, 0.2577650547027588, 0.1653023660182953, -0.19955164194107056, 0.20165663957595825, 0.1392987221479416, 0.129850834608078, -0.10146879404783249, 0.08856964111328125, 0.3161557912826538, 0.13398416340351105, -0.26600709557533264, -0.48316073417663574, -0.24572743475437164, -0.1413862556219101, 0.33812010288238525, 0.41369426250457764, -0.47576045989990234, 0.07390899211168289, 0.12510442733764648, 0.03094111941754818, -0.4083377718925476, -0.3851838707923889, 0.20445191860198975, -0.13928072154521942, -0.14017000794410706, -0.17016009986400604, -0.2018798142671585, 0.16400142014026642, 0.10844498127698898, 0.11922721564769745, -0.3596239686012268, -0.004202145617455244, 0.02643592841923237, -0.010697958990931511, -0.21827955543994904, -0.30495041608810425, 0.3517923355102539, -0.058857500553131104, -0.07069763541221619, 0.07310029119253159, 0.05063426494598389, 0.03470401093363762, -0.18748696148395538, 0.2480642944574356, -0.17190681397914886, 0.06795564293861389, -0.07239020615816116, -0.11218269914388657, 0.19879582524299622, 0.20469191670417786, 0.08728179335594177, -0.06513050943613052, 0.18007507920265198, 0.22379721701145172, -0.026131972670555115, 0.07211326062679291, 0.2064410150051117, 0.27241256833076477, 0.01704215072095394, -0.247012659907341, -0.21751898527145386, -0.28325968980789185, 0.2571670413017273, 0.10227840393781662, -0.15520648658275604, 0.11488615721464157, -0.16668598353862762, 0.1150989681482315, -0.22449226677417755, -0.01822495646774769, 0.20084743201732635, 0.019456539303064346, 0.14677676558494568, -0.18180815875530243, -0.05790296196937561, -0.08197785913944244, -0.13934049010276794, 0.19264823198318481, -0.08430877327919006, 0.09440126270055771, 0.11592930555343628, -0.4914008378982544, 0.3036789894104004, 0.16405989229679108, -0.25289908051490784, 0.16328416764736176, -0.2409081906080246, -0.28028586506843567, 0.13700905442237854, -0.06105080619454384, 0.05252605676651001, -0.24981750547885895, 0.09105964004993439, 0.18507632613182068, 0.03875025361776352, 0.3514153063297272, 0.009690406732261181, 0.11234849691390991, -0.07018914818763733, -0.12017633765935898, 0.12060651928186417, -0.37730517983436584, -0.07430294901132584, -0.06296781450510025, -0.256759375333786, 0.06540194898843765, 0.015208630822598934, 0.11173810809850693, -0.4464932084083557, -0.11736956983804703, 0.1718485951423645, -0.04636767879128456, -0.0005290677072480321, 0.2055414915084839, -0.31414318084716797, -0.11192304641008377, 0.041798874735832214, 0.12531253695487976, 0.05390003323554993, -0.04703397676348686, -0.37534740567207336, -0.05626661702990532, -0.048023682087659836, -0.15653714537620544, -0.0063208723440766335, -0.17988550662994385, 0.24244534969329834, -0.17706021666526794, -0.037216510623693466, 0.04413941502571106, -0.01128094457089901, 0.04992653429508209, 0.1337427943944931, -0.06250051409006119, 0.13166940212249756, -0.07501218467950821, -0.08135190606117249, -0.1582116335630417, 0.07093007117509842, 0.13267554342746735, 0.18470196425914764, -0.1767236590385437, -0.011691661551594734, 0.15392430126667023, 0.031783003360033035, -0.06553570926189423, 0.3056497275829315, 0.19735978543758392, -0.03662462905049324, -0.2345821112394333, -0.41847845911979675, -0.15577132999897003, -0.08149833977222443, -0.18204060196876526, -0.00926581397652626, -0.14062552154064178, 0.3632930517196655, -0.13779549300670624, 0.15959382057189941, 0.3395540416240692, 0.186298206448555, -0.0820775032043457, -0.07083475589752197, -0.24630828201770782, 0.17114199697971344, -0.15000244975090027, 0.1697290539741516, 0.12744487822055817, 0.2704816460609436, 0.17416895925998688, 0.04114759713411331, -0.017974982038140297, 0.08665375411510468, -0.0351174958050251, -0.23450766503810883, 0.04086226969957352, 0.000801234447862953, 0.10798510164022446, -0.27750733494758606, 0.1355362981557846, 0.028259068727493286, 0.11036060750484467, 0.19960784912109375, 0.28001073002815247, -0.025128290057182312, 0.027925260365009308, -0.2803308367729187, -0.0924445167183876, -0.07432961463928223, 0.22666308283805847, -0.06773402541875839, -0.12418098747730255, 0.10920523852109909, -0.2434675246477127, 0.17048773169517517, 0.0578451007604599, 0.1395760029554367, 0.13692240417003632, -0.04555441811680794, 0.1014508381485939, 0.14704759418964386, 0.0686628594994545, 0.0671287477016449, 0.2749788463115692, -0.22099152207374573, -0.1347741186618805, 0.08740724623203278, -0.10268937796354294, 0.14048871397972107, 0.1577361673116684, -0.07646384835243225, 0.030957188457250595, -0.23306675255298615, -0.030687103047966957, -0.18619541823863983, 0.6663506627082825, 0.2558915615081787, 0.4238308072090149, 0.10806609690189362, 0.09345367550849915, 0.019928736612200737, -0.10152871161699295, 0.35266345739364624, 0.19517020881175995, 0.06690987199544907, -0.21003344655036926, -0.03306061774492264, -0.0481274388730526, 0.18569795787334442, 0.00645264470949769, -0.20153984427452087, -0.1406049132347107, -0.07023725658655167, -0.14830295741558075, 0.1864529848098755, 0.09894977509975433, 0.16242732107639313, -0.06860668957233429, 0.1145273968577385, -0.00270770862698555, -0.21675091981887817, 0.04982002452015877, -0.3081982731819153, -0.12404273450374603, 0.0865982174873352, -0.029648475348949432, 0.17749525606632233, -0.04144572466611862, -0.3247532844543457, -0.1304171085357666, 0.6775740385055542, -0.02960333600640297, 0.20485495030879974, -0.18107090890407562, 0.12406467646360397, 0.36646294593811035, -0.14410778880119324, 0.34778910875320435, 0.1398683339357376, -0.39173296093940735, 0.28695109486579895, 0.1232411116361618, -0.2635793089866638, 0.14764979481697083, 0.2908652424812317, 0.21529380977153778, 0.27714821696281433, 0.11769206821918488, -0.20771634578704834, -0.07099389284849167, -0.03878325596451759, 0.26241379976272583, -0.005816712975502014, 0.14414115250110626, -0.09125478565692902, -0.18793700635433197, -0.22453191876411438, -0.028866562992334366, 0.10763678699731827, 0.1726071685552597, -0.1398371160030365, 0.23577015101909637, -0.11747818440198898, -0.2004036158323288, -0.042734503746032715, 0.03487573564052582, -0.11852491647005081, 0.08633448928594589, 0.03875481337308884, -0.08075378090143204, 0.11470498889684677, 0.038151815533638, -0.3131830394268036, 0.03352545574307442, -0.07299253344535828, 0.1583397537469864, 0.2115391045808792, -0.269119530916214, -0.023031584918498993, -0.22837810218334198, 0.06703505665063858, 0.21400806307792664, -0.14675042033195496, 0.05126325413584709, -0.016759801656007767, -0.11646202206611633, 0.4229753911495209, -0.0027011262718588114, -0.1188405454158783, 0.15441589057445526, -0.02210431732237339, 0.015288874506950378, 0.04241987317800522, 0.07458401471376419, -0.2832021117210388, -0.041004955768585205, 0.23775140941143036, 0.1421113908290863, -0.13881951570510864, -0.04806964099407196, -0.14453764259815216, -0.22568050026893616, 0.15318472683429718, 0.1922641396522522, 0.10175850987434387, -0.08210165053606033, -0.19650283455848694, 0.1022341325879097, 0.15661488473415375, 0.1755787432193756, 0.5094206929206848, -0.2529938519001007, -0.2317395955324173, -0.00036035507218912244, 0.12202593684196472, -0.17124740779399872, 0.011104862205684185, 0.30909430980682373, 0.1513383835554123, 0.4194507300853729, 0.030402427539229393, 0.1251278817653656, -0.13830208778381348, -0.2494170367717743, -0.1883324384689331, -0.15227435529232025, 0.04702907055616379, 0.3288664221763611, 0.02567344531416893, -0.021524984389543533, 0.029873892664909363, -0.2194065898656845, -0.009588818997144699, 0.4644578993320465, 0.13246436417102814, -0.008721877820789814, 0.10991813242435455, -0.029857603833079338, 0.2363429218530655, -0.1533178985118866, 0.11095132678747177, 0.37479886412620544, 0.09767760336399078, 0.05237521603703499, 0.022122876718640327, -0.3178628385066986, -0.15339791774749756, 0.11448991298675537, 0.10316504538059235, -0.09708499163389206, -0.1880197376012802, -0.08578386157751083, 0.11227291077375412, 0.12621288001537323, 0.13134868443012238, -0.06481731683015823, -0.03596309572458267, -0.020888572558760643, 0.11421144753694534, 0.0703386515378952, 0.23032823204994202, -0.14493516087532043, -0.03566502779722214, 0.18418873846530914, -0.0813169926404953, -0.05411504954099655, 0.028048619627952576, -0.08759231120347977, 0.0003595480229705572, 0.06925970315933228, 0.0640135332942009, 0.007385216187685728, -0.23333129286766052, -0.10002142190933228, 0.014014514163136482, 0.07498963922262192, -0.031334880739450455, -0.13756898045539856, 0.2806569039821625, -0.12137763202190399, 0.01337508950382471, 0.10739202052354813, 0.08039303123950958, -0.16394124925136566, 0.1684768795967102, -0.1004403755068779, 0.18526706099510193, -0.4806457459926605, 0.05297574773430824, 0.14190101623535156, 0.12583884596824646, 0.004436795134097338, -0.02277960255742073, 0.0736992284655571, 0.16977658867835999, -0.08137699961662292, -0.1443617194890976, -0.06592798233032227, 0.05895243212580681, -0.07621168345212936, 0.12211759388446808, -0.05547671765089035, 0.014772052876651287, -0.032775964587926865, -0.04520874470472336, -0.12983262538909912, -0.3588458001613617, -0.016962388530373573, 0.04422923922538757, -0.055145952850580215, 0.2551629841327667, 0.08280924707651138, -0.23623843491077423, -0.11331899464130402, -0.07061129063367844, -0.23416118323802948, 0.0753345713019371, 0.04056919738650322, -0.041466716676950455, 0.006155512295663357, -0.07037889957427979, -0.19854240119457245, -0.2476043850183487, 0.20382097363471985, 0.17642825841903687, 0.04109019786119461, 0.05183541774749756, 0.10553179681301117, -0.04756074398756027, -0.11136657744646072, 0.1640554964542389, 0.09510874003171921, -0.18218494951725006, -0.01544294971972704, -0.025056513026356697, -0.28513243794441223, -0.17644190788269043, -0.09911337494850159, 0.04210028797388077, 0.056536003947257996, 0.02498634159564972, 0.022163810208439827, 0.21626630425453186, 0.12083352357149124, 0.1547108292579651, 0.11569336801767349, -0.13307002186775208, 0.05378555878996849, 0.02535763569176197, -0.029276244342327118, 0.29107949137687683, -0.1192522794008255, -0.0811430886387825, -0.10042738914489746, 0.14529207348823547, -0.0588444322347641, 0.0968155562877655, 0.03650803491473198, 0.15025921165943146, 0.15006856620311737, -0.0779036208987236, -0.008860435336828232, 0.05072851479053497, 0.16254068911075592, 0.072050541639328, -0.19226309657096863, -0.03444250673055649, 0.08933822810649872, -0.2649375796318054, -0.05942511931061745, -0.03403681144118309, 0.06874190270900726, -0.3748120367527008, 0.12701760232448578, -0.11131397634744644, 0.03667761757969856, 0.022575972601771355, -0.04796356335282326, -0.11068358272314072, 0.12206358462572098, -0.2793523669242859, -0.0026444518007338047, -0.16505113244056702, 0.03029441088438034, -0.19962230324745178, 0.09080667048692703, -0.05507311597466469, -0.14523667097091675, 0.06090337783098221, 0.07578425109386444, 0.07669351994991302, -0.12473341822624207, 0.07062730193138123, -0.12844683229923248, 0.24852925539016724, 0.03627776354551315, 0.283246248960495, -0.06552422791719437, -0.09080084413290024, -0.10009612143039703, 0.012318868190050125, 0.1371886432170868, 0.09349703043699265, -0.03593435510993004, -0.19410860538482666, 0.07881594449281693, 0.0658353865146637, -0.08558250963687897, -0.1508396714925766, 0.20306599140167236, 0.19139210879802704, -0.022339118644595146, -0.029011491686105728, -0.10553956031799316, -0.0917416661977768, -0.35831955075263977, 0.024569831788539886, -0.5855662822723389, -0.31258344650268555, -0.14776000380516052, 0.23065176606178284, 0.15963013470172882, -0.21379368007183075, 0.005287421401590109, 0.08145526796579361, -0.23719744384288788, 0.45862042903900146, -0.025524580851197243, -0.02413792349398136, 0.31034621596336365, 0.18492603302001953, -0.10463657230138779, 0.03641477972269058, -0.18241915106773376, -0.29549431800842285, 0.09418740123510361, -0.06443947553634644, 0.25595223903656006, -0.22260427474975586, -0.1259586364030838, -0.1956137865781784, -0.16493567824363708, 0.14458951354026794, 0.2500047981739044, -0.16454696655273438, -0.04280325397849083, -0.08474363386631012, 0.2621515691280365, -0.009029082022607327, 0.17783308029174805, 0.47295811772346497, -0.21320320665836334, -0.26026055216789246, -0.024479862302541733, 0.028801659122109413, -0.22909550368785858, 0.04385243356227875, 0.13673244416713715, 0.09291205555200577, 0.6974133849143982, -0.21218052506446838, 0.2013324648141861, -0.017806019634008408, -0.06900747865438461, 0.20169076323509216, -0.055067382752895355, 0.05469850078225136, 0.00622544577345252, 0.0600634440779686, -0.00424976646900177, 0.03819411247968674, -0.0055636209435760975, 0.11880836635828018, -0.20324502885341644, -0.195692241191864, -0.37935400009155273, 0.1958385556936264, -0.08782414346933365, 0.11385009437799454, 0.22484393417835236, 0.29131171107292175, 0.03730669990181923, 0.10594628751277924, 0.0677020326256752, -0.2136865109205246, 0.05133302882313728, 0.193209707736969, 0.1627870500087738, -0.05123387649655342, 0.049302034080028534, -0.07837691903114319, -0.05948304012417793, 0.0023891478776931763, 0.0802106037735939, -0.024330949410796165, -0.1544908732175827, 0.008894380182027817, -0.013546248897910118, -0.3328574001789093, 0.2094591110944748, 0.09855381399393082, 0.001104077324271202, -0.032845109701156616, 0.026417851448059082, -0.3273371756076813, -0.257291704416275, -0.3786301612854004, -0.3041843771934509, -0.028563331812620163, 0.0253987405449152, -0.0790938138961792, -0.1784827560186386, -0.0429600328207016, 0.11514957994222641, 0.17820776998996735, -0.03592565655708313, -0.02143486775457859, 0.15799260139465332, -0.1200886070728302, -0.04799560084939003, 0.20354413986206055, -0.14446716010570526, -0.08194061368703842, -0.06205492839217186, -0.00453195022419095, -0.03441658616065979, -0.1386469155550003, 0.036361515522003174, -0.06333111971616745, -0.11607483774423599, -0.1611013114452362, 0.05750100314617157, 0.18841774761676788, 0.17683404684066772, -0.08724279701709747, -0.25667381286621094, -0.26384833455085754, 0.08768222481012344, 0.014265323057770729, -0.00013707902689930052, -0.026904145255684853, -0.2162126898765564, -0.24045410752296448, -0.14778608083724976, 0.03298439085483551, 0.2251206785440445, -0.1598411500453949, -0.14570435881614685, -0.07202170044183731, 0.04178999736905098, 0.0981883555650711, -0.2090461254119873, -0.11077779531478882, 0.20336687564849854, -0.02792648784816265, -0.3114696145057678, -0.23613299429416656, 0.037898510694503784, -0.24029456079006195, -0.26837894320487976, 0.013305224478244781, -0.14300718903541565, 0.2903829514980316, 0.10505440831184387, 0.09680957347154617, -0.2020770162343979, 0.04167714715003967, 0.029342947527766228, -0.007440750952810049, -0.13819798827171326, 0.2112760692834854, -0.004309435840696096, -0.07734278589487076, 0.10325644165277481, -0.26029467582702637, -0.2616193890571594, -0.037879202514886856, -0.12600362300872803, -0.03454095870256424, 0.3473464846611023, -0.01346760243177414, -0.027173103764653206, -0.35547128319740295, -0.17978109419345856, 0.08935791999101639, -0.10114965587854385, 0.01452668011188507, -0.18719519674777985, -0.0007930037099868059, -0.0909670814871788, 0.21542544662952423, 0.3710528612136841, 0.12324012815952301, 0.06449335068464279, 0.11001269519329071, 0.004800570663064718, -0.06672563403844833, 0.14977265894412994, -0.0629567950963974, 0.19209806621074677, 0.3647628426551819, 0.07475928962230682, 0.05057062953710556, 0.28420501947402954, -0.21102742850780487, -0.1492285281419754, -0.14262457191944122, 0.09460566192865372, -0.03078489750623703, 0.5314410924911499, 0.19016100466251373, 0.2589782774448395, -0.18641136586666107, -0.15316373109817505, 0.3036319613456726, 0.047401949763298035, -0.16721594333648682, 0.019045310094952583, -0.2029387205839157, 0.011308958753943443, 0.06735508143901825, 0.021494748070836067, -0.14324450492858887, -0.4199541509151459, -0.15281154215335846, -0.1492765247821808, 0.21603251993656158, -0.08304969221353531, -0.13482283055782318, -0.2016216665506363, 0.0628441870212555, -0.04066113382577896, 0.1507272571325302, 0.008881456218659878, -0.05955085530877113, -0.015192327089607716, 0.12100889533758163, 0.2502395212650299, 0.1799967736005783, -0.19442345201969147, -0.21190331876277924, -0.28330105543136597, -0.13712666928768158, 0.05237383022904396, 0.06532733887434006, 0.06005305051803589, -0.15766189992427826, 0.23459818959236145, 0.04322744160890579, -0.23623505234718323, -0.22962072491645813, -0.28020837903022766, -0.03156612068414688, -0.07736128568649292, -0.05296233668923378, 0.044334691017866135, -0.03872376307845116, 0.38471195101737976, 0.12771768867969513, 0.09645617008209229, -0.1389658898115158, 0.0031683342531323433, 0.14186851680278778, -0.100773386657238, 0.053632527589797974, -0.13507992029190063, -0.24056687951087952, 0.3148248493671417, -0.028505198657512665, -0.21756674349308014, -0.1422564834356308, 0.1310882717370987, 0.32837292551994324, -0.18467071652412415, 0.07149937748908997, -0.023828476667404175, -0.12522342801094055, -0.1182413399219513, 0.033078767359256744, -0.0751969963312149, 0.016097834333777428, -0.2182283103466034, -0.03160562366247177, 0.0882377177476883, 0.029068946838378906, 0.17567148804664612, -0.0061264256946742535, -0.24570232629776, -0.0018093731487169862, -0.1541505753993988, 0.0613987073302269, 0.056691210716962814, 0.07911421358585358, -0.11663132905960083, -0.13903112709522247, 0.07853828370571136, -0.2428884655237198, 0.13370320200920105, -0.23208104074001312, -0.2771858274936676, 0.11320100724697113, 0.20630545914173126, 0.16110162436962128, -0.10940366983413696, -0.10225848853588104, 0.034163374453783035, 0.17102070152759552, -0.08085723221302032, 0.1109699234366417, 0.09577449411153793, -0.09746558964252472, 0.25578513741493225, 0.02758214809000492, -0.2686099410057068, 0.13999681174755096, 0.13073354959487915, 0.15584778785705566, 0.31787198781967163, 0.0964672863483429, 0.24802802503108978, 0.04729532077908516, -0.1796395629644394, -0.019355036318302155, 0.0605720654129982, 0.05678414925932884, 0.10052303969860077, -0.09567621350288391, 0.16415797173976898, -0.04441191628575325, 0.007209497969597578, -0.05947212874889374, -0.09818316996097565, -0.09381506592035294, 0.014162317849695683, 0.025614436715841293, 0.09861468523740768, -0.05427151545882225, 0.038255397230386734, 0.18337197601795197, 0.043136753141880035, -0.1960616111755371, 0.19959670305252075, -0.19937777519226074, -0.13415846228599548, 0.2501421272754669, -0.16144505143165588, 0.4115789532661438, 0.1820138692855835, -0.020340394228696823, -0.16513530910015106, -0.2664192020893097, 0.30613458156585693, 0.05259542167186737, 0.17328697443008423, 0.03822717443108559, -0.05336427316069603, 0.031059855595231056, -0.024879762902855873, -0.07216183841228485, 0.11321226507425308, 0.13978393375873566, 0.05860356241464615, 0.10656531155109406, -0.059177789837121964, -0.2711247205734253, 0.009886371903121471, -0.30154216289520264, 0.108273446559906, -0.2835559844970703, -0.49503037333488464, 0.9772135615348816, 0.6350961923599243, -0.5631293654441833, 0.0871531069278717, -0.4036867022514343, -0.04468998685479164, 0.35587015748023987, -0.8335818648338318, 1.1286686658859253, 0.6165842413902283, -0.035238344222307205, -0.29796040058135986, 0.04996168240904808, -0.7362737059593201, 0.41249507665634155, -0.2223416119813919, 0.09405267238616943, -0.2918514907360077, 0.2618841528892517, 0.12801697850227356, 0.4623619019985199, 0.11370573937892914, 0.10325171053409576, 0.16646172106266022, 0.11212262511253357, 0.09924937039613724, -0.314208060503006, 0.0914534404873848, 0.11354557424783707, -0.42493897676467896, 0.3986034393310547, -0.09037347137928009, 0.1525869220495224, 0.0914715826511383, -0.10577315837144852, 0.026208095252513885, 0.14159713685512543, -0.24098989367485046, -0.30906686186790466, -0.18033276498317719, 0.020168207585811615, -0.04201701655983925, 0.004974646028131247, 0.4788037836551666, 0.3594624698162079, -0.18733642995357513, -0.07765959203243256, -0.13479797542095184, 0.013112659566104412, -0.23980088531970978, 0.4256913959980011, -0.10513537377119064, 0.029068587347865105, -0.17791913449764252, -0.1176055520772934, 0.23262062668800354, -0.23986265063285828, 0.20795466005802155, 0.24793961644172668, -0.27466505765914917, 0.034031592309474945, -0.19344334304332733, 0.22134816646575928, 0.06157469376921654, 0.1747831255197525, -0.28339841961860657, -0.14625084400177002, 0.26216644048690796, -0.11703579127788544, 0.2698485553264618, 0.18029911816120148, -0.1516241729259491, 0.12626893818378448, 0.12622469663619995, 0.029607385396957397, 0.25393688678741455, 0.08153551071882248, -0.22374258935451508, 0.14559991657733917, -0.22628147900104523, 0.10592269897460938, -0.18406423926353455, 0.056191619485616684, -0.13143980503082275, -0.04230062663555145, -0.27183449268341064, 0.35231590270996094, -0.07904449105262756, -0.23066283762454987, 0.33951354026794434, -0.15818655490875244, -0.15857771039009094, 0.2941405475139618, -0.02010016329586506, 0.023341583088040352, -0.2054334431886673, -0.04408768191933632, -0.08768440783023834, -0.07385880500078201, -0.43663233518600464, 0.41131988167762756, 0.07288971543312073, -0.23941341042518616, -0.15261119604110718, -0.16810056567192078, 0.2558506727218628, 0.07163680344820023, 0.119172602891922, 0.3753093183040619, 0.03481294959783554, 0.20815372467041016, 0.1768684834241867, -0.1216566413640976, -0.07023880630731583, 0.20490461587905884, -0.0006696277414448559, 0.03158720210194588, 0.020017443224787712, -0.31064945459365845, 0.11674021929502487, 0.20946922898292542, -0.22798559069633484, 0.004842114634811878, 0.07320656627416611, 0.08466564118862152, 0.08183496445417404, 0.14253027737140656, 0.03681398555636406, -0.13341505825519562, 0.042096707969903946, 0.0457654632627964, -0.45833101868629456, -0.3495270311832428, -0.18448883295059204, 0.10892444849014282, 0.06466846913099289, 0.005478003062307835, 0.26999592781066895, 0.04663751274347305, 0.11278106272220612, 0.13229045271873474, 0.13254901766777039, -0.21331602334976196, 0.23528577387332916, -0.18024709820747375, 0.07462514191865921, 0.2818059027194977, -0.12739403545856476, -0.20121002197265625, 0.03606760501861572, -0.07614579051733017, 0.20430892705917358, -0.08073894679546356, 0.47755613923072815, -0.25873133540153503, -0.15600016713142395, -0.001207238994538784, 0.056745823472738266, 0.3045231103897095, -0.1138911247253418, -0.21155120432376862, -0.060603924095630646, -0.08441958576440811, 0.11572017520666122, -0.030467664822936058, 0.061465438455343246, -0.1413874477148056, -0.08137169480323792, 0.040092065930366516, -0.48685750365257263, 0.03858982399106026, 0.07613026350736618, 0.06900911033153534, -0.03988858684897423, 0.3553810715675354, -0.12769180536270142, -0.18876469135284424, -0.2000838816165924, 0.23702633380889893, -0.23639409244060516, 0.038236454129219055, -0.10633773356676102, 0.23616459965705872, 0.07626061886548996, -0.35028281807899475, 0.14506912231445312, -0.02389405481517315, -0.14338533580303192, 0.031355250626802444, 0.3238759934902191, 7.865438237786293e-05, 0.12973494827747345, -0.12644322216510773, 0.018494941294193268, -0.2714039981365204, 0.12269987910985947, 0.31611958146095276, 0.07694321870803833, -0.24091140925884247, -0.29062506556510925, -0.08971300721168518, 0.2269982099533081, -0.21212419867515564, -0.3229171633720398, -0.04224780946969986, -0.054714810103178024, -0.07609827816486359, -0.3354693353176117, 0.0037209629081189632, 0.07310227304697037, 0.12937594950199127, -0.1244177296757698, -0.2283620536327362, -0.4387921392917633, 0.10530892014503479, -0.05836638808250427, -0.12612640857696533, 0.1314980536699295, -0.1034569963812828, 0.1174808219075203, 0.11212456226348877, 0.21309393644332886, -0.0057715848088264465, 0.15889976918697357, -0.027833545580506325, 0.020978495478630066, -0.12891840934753418, 0.1050189733505249, 0.0796286091208458, -0.2922312617301941, 0.015088092535734177, -0.09245111793279648, 0.1401774138212204, -0.15243037045001984, -0.09316669404506683, 0.19585084915161133, -0.13287870585918427, 0.1190434917807579, -0.02617560885846615, 0.17713205516338348, -0.07563795894384384, -0.028208067640662193, -0.19773565232753754, -0.1080591008067131, -0.040444184094667435, -0.2935646176338196, 0.15401753783226013, 0.03532041236758232, 0.0760049894452095, 0.13257387280464172, -0.08098261803388596, 0.1354927271604538, 0.08653581887483597, -0.17410270869731903, -0.1348070651292801, -0.017621951177716255, -0.09333067387342453, -0.2565973103046417, -0.07177093625068665, -0.28921762108802795, -0.2504064440727234, -0.39414331316947937, 0.20994579792022705, 0.21777574717998505, 0.279385507106781, 0.4522075057029724, -0.07698380947113037, -0.13041196763515472, -0.09102366119623184, 0.019675474613904953, 0.11267891526222229, 0.09541075676679611, 0.13959862291812897, -0.03803391009569168, 0.0889701247215271, 0.2567252814769745, -0.050087299197912216, 0.21039210259914398, -0.17584018409252167, -0.1039845198392868, 0.023298710584640503, 0.09555267542600632, 0.2611449360847473, 0.050478775054216385, 0.09864385426044464, 0.0870404988527298, -0.12816905975341797, -0.10829246044158936, 0.056498002260923386, 0.36632347106933594, -0.13793349266052246, 0.10969380289316177, 0.09667520225048065, -0.21646733582019806, -0.025070680305361748, 0.1468214988708496, 0.07173046469688416, 0.45434969663619995, -0.07027928531169891, -0.15477433800697327, -0.0921570286154747, 0.1940193623304367, 0.2204648107290268, -0.039211198687553406, 0.19032801687717438, -0.14646242558956146, -0.1383846253156662, -0.322929710149765, 0.08417198807001114, 0.1103893294930458, 0.09199588000774384, -0.17785140872001648, -0.25674673914909363, -0.11933724582195282, -0.06335238367319107, 0.07426906377077103, 0.03683307021856308, -0.3377014398574829, 0.06993859261274338, 0.07585395127534866, 0.27623251080513, -0.12675055861473083, -0.0382174514234066, -0.07882704585790634, -0.09206560999155045, 0.15596026182174683, -0.13861989974975586, -0.24065440893173218, -0.3444397747516632, -0.16097725927829742, -0.20085369050502777, -0.19643697142601013, -0.10499647259712219, 0.08095364272594452, -0.10308729857206345, 0.0674341470003128, -0.29189789295196533, -0.1674136072397232, 0.004793912637978792, -0.25244805216789246, 0.14171981811523438, -0.09482111781835556, 0.003191798459738493, -0.33848974108695984, -0.08340136706829071, 0.012879744172096252, 0.10646822303533554, 0.02602107636630535, 0.048094242811203, -0.0018383474089205265, 0.15472888946533203, -0.012066836468875408, -0.08441685885190964, 0.05383390188217163, 0.005960209760814905, 0.10241546481847763, 0.03151070699095726, -0.11701697111129761, -0.12197599560022354, 0.03052724152803421, -0.1506354659795761, -0.0916643887758255, 0.1251254379749298, 0.1514059603214264, -0.06555759161710739, 0.09156548976898193, -0.12111099064350128, 0.41703736782073975, 0.09426556527614594, -0.011511312797665596, -0.27398988604545593, 0.10821933299303055, -0.12258820235729218, -0.345415323972702, -0.06629163026809692, -0.1207609474658966, 0.17534999549388885, 0.07862192392349243, 0.007432825397700071, 0.09845028072595596, 0.16300609707832336, -0.15508624911308289, 0.049064282327890396, 0.00917663611471653, 0.1240261048078537, 0.32418593764305115, -0.1624467372894287, -0.23551799356937408, -0.23767739534378052, 0.04908251762390137, 0.07348360121250153, -0.22564361989498138, -0.1844024807214737, 0.24723993241786957, 0.048378415405750275, -0.08776907622814178, 0.02827298454940319, 0.033883560448884964, -0.30899497866630554, -0.058371756225824356, 0.022440534085035324, 0.17106418311595917, -0.12847177684307098, -0.10539797693490982, -0.060604117810726166, 0.05060141161084175, -0.04507956653833389, 0.13637378811836243, 0.05372367799282074, 0.055487778037786484, 0.07840631902217865, -0.08050556480884552, -0.021721957251429558, 0.10013464093208313, 0.033818088471889496, -0.30844542384147644, -0.5290486216545105, 0.0073855784721672535, 0.26762470602989197, 0.11948924511671066, 0.03132738918066025, -0.016464199870824814, 0.06413240730762482, -0.08966021984815598, -0.2621316909790039, -0.3018551468849182, -0.17493845522403717, -0.17314139008522034, -0.03737420216202736, 0.17524516582489014, -0.2830117344856262, 0.14727483689785004, -0.09018559753894806, 0.0739220529794693, 0.10335569083690643, -0.004426992032676935, 0.18214482069015503, 0.03558402135968208, -0.08898664265871048, 0.0498034805059433, 0.25223809480667114, -0.11893132328987122, -0.11030901968479156, 0.20609571039676666, -0.06360278278589249, -0.06198149919509888, 0.004817635752260685, -0.04036698862910271, 0.21687203645706177, -0.06058041378855705, -0.04420718923211098, -0.04553697630763054, 0.07003185153007507, 0.22442008554935455, 0.09496727585792542, -0.23005333542823792, -0.24114130437374115, -0.15352146327495575, -0.08814966678619385, 0.13786102831363678, -0.023800188675522804, 0.21690969169139862, -0.03327368199825287, 0.19838745892047882, 0.040880344808101654, 0.11510651558637619, 0.011773045174777508, 0.2312050759792328, -0.10301245003938675, 0.2611553966999054, 0.008497081696987152, -0.17947645485401154, -0.11807099729776382, 0.202893927693367, 0.011264070868492126, -0.1860678791999817, 0.12556491792201996, 0.04917164891958237, 0.37236618995666504, -0.15896821022033691, -0.10071463137865067, -0.14278140664100647, -0.37844541668891907, -0.004457508679479361, -0.09517750889062881, 0.4270915985107422, 0.03433327376842499, 0.17846687138080597, -0.3590452969074249, -0.030556058511137962, 0.3183562457561493, -0.12730763852596283, -0.09635893255472183, -0.07756906747817993, -0.3725344240665436, 0.1854420304298401, -0.1695336401462555, 0.049288298934698105, 0.1042696088552475, 0.26047083735466003, -0.049249835312366486, -0.04673091694712639, -0.2513922452926636, 0.44827160239219666, -0.023291755467653275, -0.1449521780014038, -0.31704631447792053, -0.028530064970254898, 0.07019050419330597, 0.365410715341568, -0.03536996617913246, -0.027631662786006927, -0.3366663157939911, 0.09755625575780869, -0.1628313809633255, 0.2389366179704666, 0.02700202539563179, -0.3051854968070984, 0.09042581915855408, 0.014703446999192238, 0.15161485970020294, -0.10877920687198639, -0.019671596586704254, 0.36562657356262207, -0.10254815965890884, -0.016906484961509705, 0.1994175910949707, -0.15045568346977234, -0.03941969946026802, -0.08285903185606003, -0.09520455449819565, -0.17281390726566315, -0.014966639690101147, 0.3182767927646637, 0.15535768866539001, -0.3586505651473999, -0.23880764842033386, -0.2652657628059387, 0.20161056518554688, -0.17606066167354584, -0.13350120186805725, 0.20967164635658264, -0.30924898386001587, 0.06600982695817947, -0.087006114423275, 0.19371581077575684, 0.053924161940813065, 0.13212467730045319, -0.08837029337882996, 0.010109612718224525, -0.2786184549331665, 0.16059325635433197, -0.041583213955163956, 0.006436815019696951, -0.05985751375555992, -0.12132299691438675, -0.07721041887998581, 0.11816109716892242, -0.08866241574287415, -0.12355490773916245, -0.18409214913845062, 0.19079846143722534, 0.17343205213546753, 0.12304355204105377, -0.04905430227518082, -0.08511119335889816, 0.1283237785100937, -0.012569294311106205, 0.02274702861905098, 0.06606380641460419, 0.04700440168380737, 0.11112739890813828, 0.1089789941906929, 0.08191082626581192, -0.14988048374652863, 0.03515661880373955, -0.001825968036428094, 0.28627172112464905, -0.1824093908071518, 0.17235736548900604, 0.14274734258651733, 0.03970498964190483, 0.09384077042341232, 0.034594785422086716, -0.02144448831677437, -0.25225406885147095, -0.15541748702526093, 0.11818242073059082, 0.12977266311645508, 0.055149395018815994, -0.0845421627163887, 0.08858687430620193, -0.06415106356143951, -0.06611897796392441, -0.16542014479637146, 0.21002188324928284, 0.03201383352279663, 0.15697641670703888, 0.20410782098770142, 0.038851529359817505, -0.053938817232847214, -0.10900386422872543, 0.021590741351246834, 0.19553755223751068, 0.4093277156352997, -0.030075794085860252, 0.17568524181842804, -0.31276535987854004, -0.10056895762681961, 0.03767754137516022, 0.639438271522522, -0.020848240703344345, 0.3030853867530823, 0.13333448767662048, 0.004899042658507824, -0.08696671575307846, -0.010601860471069813, 0.059300150722265244, 0.17612643539905548, -0.12831178307533264, 0.06880618631839752, -0.08485637605190277, -0.15855763852596283, 0.07445447146892548, -0.007549798581749201, 0.27672386169433594, -0.24124875664710999, 0.12720684707164764, -0.07017843425273895, -0.37333881855010986, 0.07843385636806488, 0.09673354029655457, 0.0760011076927185, 0.10624296963214874, -0.19941334426403046, 0.20005056262016296, -0.011898573487997055, -0.028606446459889412, 0.11279158294200897, -0.22287319600582123, 0.06905368715524673, -0.2903168201446533, 0.012911693193018436, -0.09403247386217117, 0.10955365002155304, -0.13666854798793793, 0.0691867247223854, -0.11250437051057816, 0.013405581004917622, -0.04948088899254799, -0.10084633529186249, 0.04501211643218994, -0.07533227652311325, -0.2920006513595581, -0.10232776403427124, -0.020873745903372765, 0.31193533539772034, -0.05583648383617401, 0.054293930530548096, -0.4523942768573761, -0.04806716740131378, 0.09391310811042786, -0.39876511693000793, -0.08399800211191177, -0.09852705150842667, -0.08068858087062836, -0.1358351856470108, -0.10934285074472427, -0.0064429910853505135, 0.011166970245540142, -0.2933926284313202, 0.16794447600841522, -0.10419780015945435, 0.15578357875347137, 0.28421077132225037, 0.26471075415611267, -0.09966868162155151, -0.330935001373291, 0.08723317086696625, -0.2613433003425598, 0.1243085041642189, 0.2771014869213104, -0.2896207869052887, -0.051754143089056015, -0.12967485189437866, -0.06458012759685516, 0.3946232199668884, -0.0948614850640297, 0.012598955072462559, -0.17652606964111328, 0.044171445071697235, -0.09077619016170502, 0.04971867799758911, -0.14430339634418488, -0.08327560126781464, -0.38389381766319275, -0.08677609264850616, 0.06395302712917328, 0.1798684149980545, -0.10076993703842163, -0.15664216876029968, -0.2875070869922638, -0.09439168125391006, 0.1767767369747162, 0.07463598996400833, -0.23193222284317017, 0.11990969628095627, -0.1544356346130371, -0.2264346182346344, -0.021801361814141273, -0.04701215773820877, 0.07657025754451752, 0.021520888432860374, 0.0027021579444408417, -0.04894756153225899, -0.0816287249326706, -0.13902713358402252, -0.010988282039761543, -0.23265516757965088, 0.022030649706721306, 0.06262347847223282, 0.4244827926158905, -0.13240845501422882, -0.3573671579360962, 0.24583277106285095, 0.008024652488529682, -0.03256949037313461, 0.1684648096561432, -0.05153293162584305, -0.5289109349250793, -0.19189393520355225, 0.07898852974176407, 0.18055211007595062, -0.15710783004760742, 0.07039384543895721, -0.3363436162471771, 0.19978322088718414, -0.07597215473651886, -0.06232934817671776, -0.33537766337394714, 0.0002062184503301978, 0.24737930297851562, 0.2540392279624939, -0.002214329084381461, -0.07288110256195068, -0.0967181995511055, -0.032080236822366714, 0.08667541295289993, 0.022207245230674744, 0.07320858538150787, -0.21738474071025848, -0.029007285833358765, -0.01165857445448637, -0.4526214599609375, 0.14899948239326477, -0.07344323396682739, -0.05025626718997955, 0.18267056345939636, 0.045250680297613144, -0.26998990774154663, -0.16200315952301025, 0.09080206602811813, -0.05099385976791382, -0.2547294497489929, -0.037719693034887314, 0.3541140854358673, -0.01860237680375576, -0.1423943191766739, 0.0695699006319046, 0.13471102714538574, -0.017337443307042122, -0.08272160589694977, -0.096194326877594, -0.051023419946432114, 0.01974266767501831, 0.05130443349480629, 0.178819939494133, 0.012034947052598, -0.24774524569511414, -0.2342526763677597, 0.07371263206005096, 0.15158617496490479, 0.04132377728819847, 0.1681555211544037, 0.21233394742012024, 0.13855303823947906, -0.23651240766048431, -0.15651899576187134, -0.023523643612861633, 0.19834713637828827, 0.06665991991758347, 0.18612104654312134, -0.05957762897014618, -0.030956458300352097, -0.02662433311343193, -0.04445236921310425, -0.028018657118082047, -0.02237825281918049, -0.09017248451709747, -0.1954474002122879, -0.07230214029550552, -0.09874973446130753, 0.04572736471891403, 0.03153832256793976, 0.03485285863280296, 0.30891796946525574, 0.05462910234928131, -0.14353002607822418, 0.07420559227466583, 0.07848411053419113, 0.18774592876434326, -0.05932028964161873, 0.17218810319900513, 0.39295095205307007, -0.3230535387992859, -0.18137630820274353, 0.3104654550552368, 0.3109838366508484, -0.07325097918510437, 0.13700897991657257, 0.31100788712501526, -0.1088077574968338, -0.27658191323280334, 0.3291391432285309, -0.5061591863632202, 0.7862131595611572, -0.3122197091579437, -0.38158607482910156, 0.2638743817806244, -0.15746602416038513, 0.006022653542459011, 0.25414061546325684, 0.2871313989162445, 0.008517327718436718, -0.41023898124694824, -0.29950806498527527, -0.11939898878335953, 0.34634262323379517, 0.13787317276000977, 0.03745035082101822, -0.5268945693969727, -0.1965293288230896, 0.0613444559276104, 0.4714542627334595, 0.42417871952056885, -0.4627443253993988, -0.31113144755363464, -0.11336696892976761, -0.30584028363227844, 0.07974250614643097, 0.18688493967056274, 0.15142060816287994, -0.24157147109508514, 0.4115547239780426, 0.04875975474715233, -0.19415929913520813, -0.2652277946472168, -0.3015543818473816, 0.08585738390684128, -0.3081585466861725, -0.1936279535293579, 0.27214476466178894, 0.02117629535496235, 0.024609671905636787, -0.07693815231323242, -0.16007843613624573, 0.032906513661146164, 0.01181274838745594, -0.0070482660084962845, -0.09900148212909698, -0.10000009089708328, -0.05985097959637642, 0.042667318135499954, -0.030986040830612183, 0.049130238592624664, -0.009492553770542145, -0.13161176443099976, 0.06843943893909454, -0.21016918122768402, -0.07312162965536118, -0.2881958782672882, 0.11179174482822418, -0.044911712408065796, 0.24712365865707397, 0.03240260109305382, 0.014901040121912956, -0.21441563963890076, 0.1294412463903427, -0.11832119524478912, -0.12895695865154266, 0.22949551045894623, -0.06658939272165298, -0.036430180072784424, -0.047876033931970596, -0.11272545903921127, -0.1970922201871872, -0.1660115271806717, -0.027381805703043938, -0.0057767354883253574, -0.033257246017456055, 0.015183850191533566, 0.006860162131488323, 0.21768449246883392, 0.21055343747138977, 0.03148433938622475, -0.04110129177570343, -0.07501129806041718, 0.1701616495847702, -0.04731626436114311, -0.12468638271093369, 0.049380894750356674, 0.02184518799185753, 0.07592375576496124, -0.3224751949310303, 0.2588171362876892, 0.2592584192752838, -0.09814461320638657, -0.02370429039001465, 0.27815037965774536, -0.2509354054927826, -0.19026502966880798, 0.30831217765808105, 0.22612646222114563, -0.05742964893579483, 0.23976601660251617, 0.16732271015644073, 0.08958596736192703, 0.25005385279655457, -0.18021531403064728, 0.09778720140457153, 0.26871374249458313, 0.08200177550315857, 0.03579331561923027, -0.20974496006965637, -0.17996901273727417, 0.07724087685346603, 0.19941993057727814, 0.05237187072634697, 0.14620846509933472, 0.03806089609861374, -0.057421959936618805, -0.12621666491031647, 0.4478958547115326, 0.021238183602690697, -0.12589982151985168, 0.020229851827025414, 0.020408332347869873, 0.014490751549601555, 0.3449556231498718, -0.15440917015075684, -0.0066137611865997314, 0.26003292202949524, 0.025290731340646744, -0.1420598030090332, 0.08885133266448975, 0.17382673919200897, 0.03321727737784386, 0.0054415748454630375, 0.2193695455789566, 0.005692007020115852, 0.12904566526412964, -0.3578221797943115, 0.013201219961047173, 0.15747402608394623, -0.20455877482891083, 0.03586970269680023, -0.017358267679810524, -0.29512810707092285, -0.037462688982486725, -0.047258343547582626, -0.07484327256679535, -0.19965484738349915, -0.14969222247600555, 0.1768750697374344, 0.08310115337371826, 0.18496939539909363, 0.012151683680713177, -0.0327301025390625, 0.10735652595758438, 0.05449641868472099, -0.023929234594106674, -0.014245917089283466, -0.13512803614139557, 0.08891148865222931, 0.1390458345413208, -0.04848159849643707, 0.028814850375056267, -0.06490817666053772, -0.20379643142223358, -0.016357989981770515, -0.029330553486943245, 0.3984592854976654, 0.09779496490955353, 0.041127484291791916, -0.3687197268009186, 0.003211342031136155, 0.04321141541004181, -0.1908963918685913, 0.2763301432132721, 0.105554960668087, 0.0021966006606817245, -0.047889042645692825, -0.056776706129312515, 0.002988435560837388, -0.05030817911028862, -0.16173990070819855, -0.10217247903347015, 0.1809655874967575, 0.2695508301258087, -0.12335037440061569, -0.14001430571079254, 0.09019684791564941, -0.01636769250035286, -0.15081198513507843, -0.11658011376857758, 0.13137103617191315, -0.24288950860500336, 0.4733550250530243, -0.1294441968202591, 0.010307416319847107, 0.026735829189419746, -0.10092691332101822, -0.11467456817626953, 0.2734099328517914, 0.03317287936806679, -0.016274498775601387, -0.06985827535390854, -0.027403756976127625, 0.20629189908504486, -0.11153937131166458, 0.09302092343568802, 0.006852184422314167, -0.0002158732240786776, -0.1979808807373047, 0.27312764525413513, 0.0636737123131752, 0.04896305128931999, 0.0024005831219255924, 0.009809467941522598, 0.017315926030278206, -0.10387910157442093, -0.061606265604496, -0.15411652624607086, -0.1891222894191742, 0.117364302277565, -0.16054004430770874, 0.0348566472530365, 0.07467054575681686, -0.06511195003986359, -0.05622914433479309, -0.015957297757267952, -0.0948152244091034, -0.10775058716535568, 0.15988169610500336, 0.049556612968444824, -0.12575621902942657, 0.10962845385074615, 0.041712284088134766, 0.11583077907562256, 0.11870215833187103, 0.049839846789836884, -0.22493231296539307, 0.15682274103164673, 0.08302371948957443, 0.1746470332145691, -0.0279447752982378, 0.037702515721321106, 0.06826530396938324, 0.010764317587018013, 0.21881145238876343, 0.7767645716667175, 0.183895543217659, 0.5282395482063293, -0.9216108918190002, -0.4269162714481354, 0.135214164853096, 0.22466357052326202, -0.03553956001996994, 0.28803786635398865, 0.5870716571807861, -0.6980046033859253, 0.5597034096717834, 0.036022674292325974, -1.1040968894958496, 0.04529532417654991, -0.38735970854759216, -0.0821169763803482, -0.20563684403896332, 0.05261782556772232, 0.014992481097579002, 0.027278568595647812, 0.17091475427150726, -0.0655059665441513, -0.3949095904827118, -0.17337572574615479, 0.258564829826355, 0.06401979178190231, 0.049900177866220474, 0.03186183050274849, -0.27092254161834717, -0.2594848871231079, -0.15201956033706665, 0.19736401736736298, -0.010523931123316288, -0.1855485439300537, -0.4454755485057831, 0.4573498070240021, -0.0056940424256026745, -0.012120596133172512, -0.10695841163396835, -0.3657571077346802, -0.06446444243192673, -0.3839421272277832, 0.0010725344764068723, 0.09355486929416656, -0.010125521570444107, 0.22336512804031372, 0.03987371549010277, 0.06590791046619415, 0.11526031047105789, -0.08695068955421448, -0.28249862790107727, 0.12509508430957794, -0.12815462052822113, -0.11802932620048523, 0.20943009853363037, 0.2521837651729584, -0.05032872408628464, -0.21796374022960663, -0.46239060163497925, 0.08960871398448944, 0.08983875811100006, -0.1927545964717865, 0.13127534091472626, -0.2930906116962433, 0.0220442246645689, -0.45704197883605957, 0.22914816439151764, 0.18228891491889954, 0.13179101049900055, -0.0818401500582695, -0.25385400652885437, -0.07574403285980225, -0.19735868275165558, 0.07651758193969727, -0.39217832684516907, 0.08407316356897354, 0.16161200404167175, 0.015346399508416653, -0.33270180225372314, 0.059011515229940414, -0.047163184732198715, -0.36261850595474243, 0.058575138449668884, -0.07834485173225403, -0.09599970281124115, -0.27475377917289734, 0.2095475047826767, 0.32785242795944214, 0.23542755842208862, 0.21443228423595428, 0.22786284983158112, -0.46034306287765503, -0.23491746187210083, -0.054859790951013565, -0.28627726435661316, -0.05785169452428818, 0.41528695821762085, 0.11478862166404724, 0.2126527577638626, -0.16175080835819244, 0.27707356214523315, 0.09496895968914032, 0.07784909754991531, 0.007886586710810661, 0.30075451731681824, -0.3346501290798187, 0.18289999663829803, -0.01704322174191475, -0.13006840646266937, -0.10437338799238205, -0.2304556518793106, -0.22702349722385406, -0.1757771521806717, 0.05224846675992012, 0.037770405411720276, -0.037119824439287186, -0.15196625888347626, 0.41282984614372253, -0.0653890073299408, -0.4389762580394745, -0.03667861223220825, 0.2886141836643219, -0.07493323087692261, -0.28843173384666443, 0.026044951751828194, 0.23183774948120117, 0.09757684916257858, 0.07783222198486328, 0.2866349518299103, 0.0520993135869503, -0.07553502917289734, 0.17770323157310486, -0.159971684217453, -0.3426911234855652, 0.4021357297897339, 0.2662544548511505, -0.009154477156698704, -0.0822736844420433, 0.03823776915669441, 0.11179021745920181, -0.02504471316933632, 0.6212013363838196, 0.0006417662953026593, -0.15532337129116058, 0.002397761447355151, 0.05930868536233902, -0.2630090117454529, 0.3754309117794037, 0.17425931990146637, -0.259065717458725, -0.011910919100046158, -0.16118896007537842, -0.23968441784381866, -0.15903247892856598, -0.029928946867585182, 0.2363426238298416, 0.11606947332620621, 0.2673363983631134, 0.39812636375427246, -0.096722312271595, 0.2888237535953522, 0.25140732526779175, -0.09041206538677216, 0.10383320599794388, 0.2912515699863434, -0.3674013018608093, -0.11388704180717468, -0.28699764609336853, -0.15777727961540222, 0.0507119819521904, -0.14508628845214844, 0.06022283062338829, -0.25078728795051575, 0.37213486433029175, -0.04247007891535759, -0.13649053871631622, 0.2319691926240921, -0.23883293569087982, 0.030119135975837708, -0.28027936816215515, -0.11371029168367386, -0.26255345344543457, -0.19637832045555115, 0.16267609596252441, -0.10174112766981125, -0.25221946835517883, 0.03029302880167961, 0.08848582208156586, 0.11831877380609512, 0.5836381912231445, -0.011126437224447727, -0.09008071571588516, 0.29377588629722595, -0.1131058931350708, 0.06313435733318329, -0.005310870707035065, -0.15604476630687714, -0.27363044023513794, -0.1727961003780365, -0.15773390233516693, 0.1065967008471489, 0.2793717384338379, 0.07521438598632812, -0.23758332431316376, 0.1799645572900772, 0.11584334820508957, -0.24420130252838135, 0.0975375771522522, 0.17428436875343323, 0.27191293239593506, 0.2360306829214096, -0.08064749091863632, 0.06855335831642151, 0.025555824860930443, 0.375839501619339, 0.008683926425874233, -0.1582116037607193, -0.232110857963562, -0.18528343737125397, -0.11253248155117035, 0.029645340517163277, -0.24786239862442017, -0.01960083097219467, -0.12114481627941132, -0.029693471267819405, 0.13307394087314606, 0.18692509829998016, -0.1548355221748352, -0.12394020706415176, -0.20478536188602448, 0.23415139317512512, -0.03793330863118172, 0.1074240431189537, 0.3595908284187317, -0.15217795968055725, -0.5156577825546265, -0.30770501494407654, -0.041002307087183, 0.20406274497509003, 0.12193585187196732, -0.10896830260753632, 0.17362092435359955, 0.160767063498497, -0.14386513829231262, -0.23718608915805817, 0.36667150259017944, 0.16656510531902313, -0.27380913496017456, -0.021313371136784554, -0.2347542941570282, -0.09584267437458038, 0.42440760135650635, -0.03383956849575043, -0.38735467195510864, 0.1724425107240677, -0.13397648930549622, 0.02801816165447235, -0.04789799079298973, -0.11071561276912689, -0.2142382264137268, -0.295015424489975, 0.23548570275306702, 0.1161196157336235, -0.24450284242630005, -0.06628857553005219, -0.07296989858150482, -0.17199024558067322, 0.23659762740135193, -0.0480043925344944, 0.13107752799987793, 0.06639636307954788, -0.22636514902114868, 0.09387765824794769, 0.24544814229011536, -0.13378584384918213, 0.10295584797859192, 0.20556965470314026, -0.19524399936199188, 0.27679428458213806, -0.07376206666231155, 0.10530472546815872, 0.053792208433151245, 0.04992889612913132, 0.14672434329986572, -0.20079360902309418, 0.04867679625749588, 0.03978913649916649, 0.24760380387306213, -0.3489437997341156, 0.08403871953487396, 0.17909839749336243, 0.19790351390838623, 0.17230142652988434, 0.07855994254350662, 0.005827999673783779, -0.13065683841705322, -0.03796179220080376, -0.1046065092086792, 0.07338868081569672, 0.06006940081715584, -0.04857611656188965, -0.30444350838661194, 0.27243003249168396, 0.08075948804616928, 0.15213888883590698, -0.07444829493761063, -0.047356899827718735, 0.21371416747570038, 0.20719502866268158, 0.12490200996398926, -0.28939732909202576, 0.04723075032234192, -0.07548140734434128, 0.21434786915779114, 0.09848422557115555, -0.029794802889227867, 0.103678859770298, 0.20858430862426758, 0.032096486538648605, -0.09469439834356308, -0.041016630828380585, -0.29763785004615784, 0.09020537883043289, 0.2966783046722412, 0.11964506655931473, -0.13375791907310486, -0.4201884865760803, -0.19737306237220764, 0.04324754327535629, 0.1967323273420334, 0.05282292515039444, 0.0001927571283886209, 0.11145252734422684, -0.03519488498568535, -0.27035748958587646, -0.04640120640397072, -0.4712236225605011, 0.25423818826675415, 0.2759135961532593, 0.0860852375626564, 0.210667684674263, 0.07899537682533264, -0.036043234169483185, -0.03223290294408798, -0.04629211500287056, 0.06138751283288002, 0.10724775493144989, 0.22565358877182007, 0.08580160140991211, 0.15176422894001007, 0.22981393337249756, -0.2639075219631195, -0.2739277184009552, -0.18465763330459595, 0.12892834842205048, 0.1128508672118187, 0.05051153898239136, -0.04921650141477585, -0.01751955971121788, 0.1100386306643486, 0.3884979784488678, 0.1055070236325264, 0.1287568360567093, -0.1461285501718521, 0.2335096299648285, 0.220088928937912, 0.13474151492118835, -0.06399939954280853, -0.14743836224079132, -0.6033495664596558, -0.2115524411201477, 0.3510296046733856, 0.4930052161216736, 0.27731001377105713, -0.17769375443458557, 0.20224528014659882, 0.13395240902900696, 0.3251112103462219, -0.12089740484952927, 0.31643545627593994, -0.053413860499858856, -0.12488618493080139, -0.02705797553062439, 0.14860175549983978, -0.09456145763397217, 0.4206376075744629, 0.01906650699675083, 0.10755118727684021, 0.6749380230903625, -0.00441040238365531, 0.23158593475818634, 0.08593972027301788, -0.12895777821540833, 0.05510661005973816, 0.15236817300319672, -0.01900750771164894, -0.21365922689437866, -0.4655873477458954, 0.17126907408237457, 0.24666188657283783, 0.016544004902243614, -0.18758785724639893, -0.17026206851005554, 0.0694231316447258, 0.057431187480688095, 0.0703214555978775, -0.23961026966571808, 0.022937528789043427, -0.08097512274980545, 0.2967017590999603, 0.16324827075004578, 0.0017600092105567455, 0.18231242895126343, 0.0710526555776596, 0.192602276802063, -0.0103742191568017, 0.06590586155653, 0.10687059909105301, -0.06265880912542343, 0.14568990468978882, 0.40523651242256165, -0.24908241629600525, -0.12223726511001587, -0.03569525107741356, -0.03917524591088295, 0.3386926054954529, 0.07818139344453812, -0.17467376589775085, 0.2773187756538391, -0.14874807000160217, -0.21088717877864838, -0.1856819987297058, -0.13504165410995483, 0.11624705791473389, -0.07545486092567444, 0.1321345865726471, -0.24206271767616272, 0.04591929912567139, 0.11619491130113602, -0.1835036277770996, 0.09392937272787094, -0.31969326734542847, 0.1891908347606659, -0.03565637767314911, 0.15506426990032196, 0.01773236319422722, 0.04274839907884598, 0.09676425158977509, -0.03695371747016907, 0.03112625703215599, -0.12042559683322906, 0.17663602530956268, 0.15158547461032867, 0.06650392711162567, -0.1582890897989273, -0.0242165457457304, -0.1512639820575714, 0.03425184264779091, 0.03312573581933975, -0.10572013258934021, -0.1171952337026596, 0.05024164915084839, -0.08166985958814621, -0.011802932247519493, 0.31261926889419556, -0.4641176462173462, 0.10526669770479202, -0.10837852209806442, -0.04700663685798645, -0.08100802451372147, -0.2049691528081894, 0.049181465059518814, 0.00966665893793106, 0.257721483707428, -0.039413344115018845, -0.21873237192630768, 0.26332277059555054, -0.015962310135364532, -0.1627771407365799, -0.21607983112335205, -0.018907714635133743, 0.09381232410669327, -0.016084467992186546, 0.07488109171390533, 0.0862601101398468, 0.08391790837049484, 0.04519648477435112, 0.301819384098053, 0.006531126331537962, -0.06850040704011917, 0.3187498450279236, -0.06412912905216217, -0.1019444689154625, 0.06491021811962128, 0.35314154624938965, 0.09136796742677689, -0.1411282867193222, 0.2922089397907257, 0.038922857493162155, 0.003178006038069725, 0.039046239107847214, 0.12046050280332565, 0.006868511438369751, -0.08669855445623398, 0.0759071409702301, -0.0383332334458828, -0.07939830422401428, -0.1987580507993698, 0.17095458507537842, 0.011573766358196735, 0.06164884567260742, -0.007410054095089436, 0.07763694226741791, -0.29016390442848206, -0.22365154325962067, 0.1522664576768875, 0.35051217675209045, -0.20077702403068542, 0.0980566069483757, 0.10733000934123993, -0.03496255353093147, -0.09077044576406479, -0.1614094376564026, 0.1755620688199997, -0.23642219603061676, 0.00421232869848609, 0.22976480424404144, -0.2837531566619873, 0.17148399353027344, -0.21898788213729858, 0.10735134035348892, -0.023449920117855072, 0.0868067815899849, 0.025615893304347992, -0.053109101951122284, 0.03565765544772148, 0.12823066115379333, 0.08549067378044128, -0.03735702484846115, -0.30247652530670166, -0.04876014590263367, -0.04170374944806099, 0.062025804072618484, 0.20427748560905457, 0.38551247119903564, 0.3069891333580017, 0.030193932354450226, -0.20441113412380219, -0.24989373981952667, 0.02139401249587536, 0.04630223289132118, -0.020345263183116913, -0.19741886854171753, 0.01912291906774044, -0.26265421509742737, 0.00807998888194561, -0.10079211741685867, 0.13530202209949493, 0.06492898613214493, 0.03149602934718132, 0.12280984967947006, 0.4741024374961853, -0.0757140964269638, -0.09931683540344238, -0.10763628780841827, 0.07573723793029785, 0.08871980756521225, -0.047841452062129974, -0.13707144558429718, 0.050066784024238586, 0.17594483494758606, 0.04822193458676338, -0.23419028520584106, 0.14516989886760712, 0.12694257497787476, -0.21557708084583282, 0.11325112730264664, 0.18968676030635834, -0.13731877505779266, -0.005347474943846464, 0.009567167609930038, -0.14087888598442078, -0.2645396590232849, 0.17113235592842102, 0.17479273676872253, 0.013358223251998425, 0.10316621512174606, 0.10806459188461304, 0.10036788135766983, 0.06292393058538437, -0.40824246406555176, -0.12788142263889313, 0.1362488567829132, -0.004104651976376772, 0.08088015764951706, -0.15151061117649078, -0.0646928921341896, -0.3235350549221039, -0.061667896807193756, -0.03273770585656166, 0.07071924954652786, 0.014206680469214916, -0.00028990517603233457, -0.09801550954580307, -0.006709315814077854, -0.07034310698509216, 0.35297951102256775, 0.028846310451626778, 