{"version": "0.5.3", "metadata": {"date": {"year": 2024, "month": 10, "day": 2, "hour": 14, "minute": 37, "second": 21}, "loudness": -13.81551742553711, "gain": 0.8403806155744401, "training": {"settings": {"fit_cab": false, "ignore_checks": false}, "data": {"latency": {"manual": null, "calibration": {"algorithm_version": 1, "delays": [136, 136], "safety_factor": 4, "recommended": 132, "warnings": {"matches_lookahead": false, "disagreement_too_high": false}}}, "checks": {"version": 3, "passed": true}}, "validation_esr": 0.012876372019458545}}, "architecture": "WaveNet", "config": {"layers": [{"input_size": 1, "condition_size": 1, "head_size": 8, "channels": 16, "kernel_size": 3, "dilations": [1, 2, 4, 8, 16, 32, 64, 128, 256, 512], "activation": "Tanh", "gated": false, "head_bias": false}, {"input_size": 16, "condition_size": 1, "head_size": 1, "channels": 8, "kernel_size": 3, "dilations": [1, 2, 4, 8, 16, 32, 64, 128, 256, 512], "activation": "Tanh", "gated": false, "head_bias": true}], "head": null, "head_scale": 0.02}, "weights": [-0.16459889709949493, 0.5411160588264465, -1.0129987001419067, -0.8929766416549683, -0.4356321394443512, 0.4748559594154358, -0.16762888431549072, 0.9936003684997559, -0.1886376142501831, 0.2754104733467102, -0.5519119501113892, -0.36022111773490906, -1.0485414266586304, -0.7405315041542053, -0.6185054779052734, 0.3838304877281189, 0.18805371224880219, 0.2623399794101715, -0.49044013023376465, -0.18985876441001892, -0.04296025261282921, 0.5235548615455627, 0.09504524618387222, 0.20103643834590912, -0.43364644050598145, 0.14201858639717102, 0.22492827475070953, -0.5444820523262024, 0.037633731961250305, 0.06797900795936584, -0.4612686038017273, -0.00571178924292326, -0.196681410074234, 0.3356254994869232, 0.066913902759552, 0.029803523793816566, -0.4291066527366638, -0.004408087115734816, -0.029209967702627182, 0.4814448058605194, 0.15836478769779205, 0.057934220880270004, -0.36928993463516235, -0.26855000853538513, -0.2142239511013031, 0.3203859031200409, 0.22319725155830383, 0.18797951936721802, -0.47421637177467346, 0.1286705583333969, 0.20200210809707642, -0.26685506105422974, 0.18281646072864532, 0.11225409805774689, -0.3154044449329376, 0.04266456514596939, 0.12252751737833023, -0.5199550986289978, 0.03160484507679939, 0.028297184035182, -0.3477418124675751, -0.09197961539030075, -0.21057893335819244, 0.45349547266960144, -0.08332845568656921, -0.02144995704293251, 0.020909279584884644, 0.12153629213571548, 0.03595524653792381, 0.02535582147538662, -0.19562402367591858, 0.0035933370236307383, 0.1772240400314331, 0.03325159102678299, 0.18282926082611084, 0.24568799138069153, -0.06590881943702698, -0.07412829250097275, 0.11998604983091354, 0.006747907493263483, -0.17717361450195312, 0.025342725217342377, -0.0365384966135025, -0.15111865103244781, 0.05314140394330025, 0.06208079680800438, -0.08039023727178574, -0.1862795650959015, -0.06830975413322449, -0.06177031248807907, 0.1265648752450943, 0.16976909339427948, 0.05797714367508888, -0.045689910650253296, -0.239076629281044, -0.0470321923494339, 0.1812397539615631, -0.07252577692270279, -0.0676652044057846, 0.018384652212262154, 0.050713252276182175, 0.15611255168914795, 0.057578958570957184, -0.1236872598528862, -0.08232559263706207, 0.11438572406768799, -0.20178064703941345, -0.05781438574194908, 0.10495475679636002, 0.1487475037574768, -0.07333364337682724, 0.005385410971939564, 0.05266676843166351, -0.13354066014289856, 0.26664867997169495, -0.2276085764169693, 0.22987498342990875, -0.05745495483279228, 0.12465998530387878, -0.23832975327968597, 0.11325933784246445, 0.11268804967403412, -0.34394675493240356, 0.12638059258460999, -0.027245353907346725, -0.35364624857902527, 0.03768971562385559, -0.1879177987575531, 0.20744964480400085, -0.1974637359380722, 0.12153389304876328, -0.18240046501159668, 0.0644368827342987, -0.11283105611801147, 0.37651416659355164, -0.0710412934422493, 0.14410744607448578, -0.2563750743865967, 0.14566081762313843, -0.02317361906170845, 0.39258864521980286, 0.009656921960413456, 0.2519552409648895, -0.27708593010902405, -0.058814432471990585, 0.050677355378866196, -0.167018860578537, 0.07938195019960403, 0.031138844788074493, -0.38576412200927734, -0.0793849304318428, -0.015304331667721272, -0.2990780472755432, 0.139820396900177, 0.1880042850971222, -0.41270849108695984, 0.15641963481903076, -0.26461702585220337, 0.20819765329360962, -0.17495188117027283, -0.09538187831640244, 0.17948080599308014, -0.309198260307312, -0.11816629767417908, -0.25016817450523376, 0.07650217413902283, -0.07031209021806717, 0.2872152626514435, -0.1964067816734314, -0.013161996379494667, 0.3625750243663788, -0.1265251338481903, 0.11846434324979782, 0.2814437448978424, -0.21331796050071716, 0.11174390465021133, -0.2344830483198166, 0.023792916908860207, 0.04698188230395317, 0.04942828044295311, -0.15928296744823456, -0.025959398597478867, -0.13229499757289886, 0.10609323531389236, 0.030319368466734886, 0.25925400853157043, -0.1577359288930893, -0.01253091637045145, -0.3362642824649811, 0.16891515254974365, 0.0984978973865509, 0.325659841299057, -0.1828872412443161, -0.01328495517373085, 0.1244380995631218, -0.16906873881816864, -0.08626190572977066, 0.28623276948928833, -0.15137691795825958, -0.010161252692341805, 0.23728488385677338, 0.022956833243370056, -0.1173178106546402, 0.13649366796016693, -0.15922971069812775, 0.15338586270809174, -0.2527362108230591, 0.24581922590732574, -0.349581241607666, 0.025917159393429756, 0.1949954628944397, 0.3763790428638458, 0.01110969576984644, -0.23369944095611572, -0.40950191020965576, 0.028189055621623993, 0.09171166270971298, -0.48396778106689453, 0.12306775152683258, 0.08729828894138336, -0.4164614677429199, 0.14483827352523804, 0.25205719470977783, 0.39917317032814026, -0.1474418193101883, -0.1434326022863388, -0.4694462716579437, -0.0019490579143166542, 0.17774520814418793, 0.39048951864242554, -0.002824567724019289, -0.08538512885570526, -0.3792763352394104, 0.14359648525714874, 0.31574657559394836, 0.3027037978172302, 0.05223081633448601, -0.31106480956077576, -0.4704349637031555, 0.05330368131399155, 0.26102960109710693, -0.29039260745048523, -0.03515714406967163, 0.21913495659828186, -0.33636656403541565, -0.1364014744758606, 0.3069606423377991, -0.5249765515327454, 0.009418338537216187, 0.18029822409152985, -0.4881553053855896, 0.02154691144824028, 0.3289843201637268, 0.35808464884757996, -0.11542494595050812, -0.3031538724899292, -0.020071541890501976, 0.04088066145777702, -0.08315214514732361, -0.17481163144111633, -0.05449793115258217, 0.21904674172401428, 0.15262103080749512, 0.07948565483093262, -0.09271840006113052, 0.028674067929387093, -0.07408957183361053, -0.10012056678533554, 0.20160581171512604, 0.009035960771143436, -0.1966182142496109, -0.15843777358531952, -0.12058442085981369, 0.15332086384296417, 0.052169784903526306, -0.1029932051897049, 0.10110469907522202, -0.1718462109565735, 0.015784574672579765, 0.18688923120498657, 0.11521778255701065, -0.10475785285234451, -0.2034388780593872, 0.02846226468682289, 0.045275576412677765, 0.23697040975093842, 0.03961540386080742, 0.019755437970161438, -0.16497457027435303, 0.08599302172660828, -0.11191264539957047, -0.07210425287485123, 0.1210227683186531, -0.03871464356780052, -0.17787480354309082, -0.010088945738971233, 0.06908105313777924, -0.24782013893127441, 0.1410081386566162, -0.0812365785241127, -0.20668572187423706, -0.0992276668548584, -0.0894930437207222, 0.12606015801429749, 0.01163612399250269, -0.1981469988822937, 0.2777459919452667, 0.11910039931535721, 0.1674313247203827, -0.18375177681446075, -0.18104051053524017, -0.13784028589725494, 0.2091333121061325, -0.11381777375936508, -0.061695873737335205, 0.25736716389656067, -0.1285310685634613, -0.11096759885549545, 0.23446878790855408, 0.05755684897303581, 0.10839210450649261, -0.16459499299526215, -0.11465512216091156, -0.0359315499663353, 0.3542063236236572, 0.19130219519138336, 0.20136241614818573, -0.14012625813484192, 0.041625797748565674, -0.15115219354629517, 0.09939774125814438, -0.07743263244628906, 0.2426295280456543, -0.09243042021989822, -0.15269465744495392, -0.05063089728355408, 0.28334999084472656, 0.09905704855918884, 0.022499239072203636, 0.29862260818481445, -0.09616772830486298, -0.17007502913475037, 0.27686968445777893, 0.021994519978761673, -0.20061850547790527, 0.292753130197525, 0.012451372109353542, -0.03687140345573425, 0.08002202957868576, 0.06065838783979416, 0.015887605026364326, -0.11384661495685577, -0.07028183341026306, -0.10672473907470703, 0.11270587146282196, 0.1482568234205246, 0.1355380266904831, 0.04936223104596138, -0.19300150871276855, -0.1584949493408203, -0.08189184963703156, -0.23381280899047852, -0.30824288725852966, 0.129043310880661, -0.005637442227452993, -0.05140622332692146, 0.1422967165708542, -0.051627300679683685, 0.07533640414476395, -0.06075740233063698, -0.12176652252674103, -0.019318630918860435, -0.005622043740004301, 0.021848874166607857, 0.05419353395700455, -0.0952906385064125, 0.060929108411073685, -0.043756674975156784, 0.16716082394123077, 0.18937277793884277, 0.30441856384277344, -0.07270658016204834, -0.02048376575112343, -0.05709356069564819, 0.07549575716257095, 0.06694180518388748, -0.10759716480970383, 0.12568975985050201, -0.1440296769142151, -0.1260896623134613, 0.028778579086065292, -0.12390992045402527, -0.2713008522987366, -0.06346853077411652, -0.1996772289276123, -0.09635177254676819, 0.12381544709205627, 0.03850848227739334, 0.07226020842790604, 0.0362347736954689, 0.06106437370181084, 0.012634648010134697, -0.01795966736972332, 0.19424407184123993, 0.055922020226716995, -0.09875574707984924, 0.06882677227258682, 0.10836765915155411, -0.07228650152683258, 0.014587649144232273, -0.084127277135849, -0.03970691189169884, 0.0670323446393013, 0.010381277650594711, -0.10469108074903488, 0.007323966361582279, -0.054313644766807556, -0.029911916702985764, -0.0018180788028985262, 0.17843206226825714, 0.07443392276763916, -0.021734293550252914, 0.008989877998828888, 0.08878687769174576, 0.04115821048617363, -0.10066057741641998, 0.0098703159019351, -0.05409838259220123, -0.07282198220491409, 0.04639723151922226, -0.16424256563186646, 0.05962229147553444, 0.11355384439229965, -0.04347510635852814, -0.08664320409297943, -0.04821928218007088, -0.036630336195230484, -0.11448634415864944, 0.05178670585155487, -0.19599922001361847, -0.13829034566879272, -0.1552702784538269, -0.0904388427734375, 0.09863752126693726, -0.14568181335926056, 0.15954594314098358, -0.09849217534065247, 0.014495053328573704, -0.057139620184898376, -0.2242288738489151, 0.33995944261550903, 0.17769914865493774, 0.2452029138803482, -0.050787221640348434, -0.20085036754608154, 0.011345809325575829, 0.12301762402057648, -0.035886894911527634, -0.22574244439601898, 0.076959028840065, -0.23911020159721375, -0.1612551361322403, 0.16039054095745087, -0.023853441700339317, 0.13793538510799408, -0.05834959074854851, -0.01736408844590187, -0.13168027997016907, 0.10808175057172775, 0.06059090420603752, 0.17461778223514557, 0.026687035337090492, 0.00956546887755394, -0.09797804057598114, 0.22508087754249573, -0.051345065236091614, -0.02932075224816799, -0.07124742120504379, -0.1780725121498108, -0.03223801031708717, 0.029073653742671013, -0.16135255992412567, -0.21843492984771729, 0.21769265830516815, -0.12126754969358444, -0.0018287039129063487, 0.2049257457256317, -0.02227335050702095, -0.10335777699947357, 0.07419487833976746, -0.13412611186504364, -0.09151379019021988, 0.19845303893089294, -0.02993662841618061, 0.19699779152870178, -0.19059166312217712, -0.06523223221302032, -0.6010489463806152, 0.34426966309547424, 0.11836119741201401, 0.3988688290119171, -0.044797465205192566, 0.08411169052124023, -0.45689910650253296, 0.26378133893013, -0.06632034480571747, -0.4977686405181885, 0.20076468586921692, -0.0235650185495615, -0.48838841915130615, 0.11159031838178635, 0.06209760159254074, 0.487140029668808, -0.2180289924144745, 0.10711925476789474, -0.41458749771118164, 0.17116433382034302, -0.0005284687504172325, 0.6271176934242249, -0.15640801191329956, 0.0903918519616127, -0.5539860129356384, 0.241939514875412, -0.12763705849647522, 0.4385966658592224, -0.23377077281475067, 0.15620198845863342, -0.5778653621673584, 0.1563892662525177, -0.04242619872093201, -0.39347922801971436, 0.30231815576553345, -0.09847938269376755, -0.6616715788841248, 0.029799528419971466, 0.014089658856391907, -0.575710117816925, 0.0500279925763607, -0.03492799401283264, -0.5187936425209045, 0.07326439768075943, -0.03356357663869858, 0.4880139231681824, -0.2812960743904114, -0.17868894338607788, 0.2606092691421509, -0.057764239609241486, 0.19890543818473816, -0.18472927808761597, 0.01989583484828472, -0.3233319818973541, -0.0010620979592204094, 0.2702656090259552, -0.2801165282726288, 0.16572684049606323, 0.11418969184160233, -0.22767801582813263, 0.10030832886695862, 0.20578299462795258, 0.20984715223312378, -0.26025280356407166, -0.19042500853538513, -0.29206618666648865, 0.1521257907152176, -0.05825318768620491, 0.3267420828342438, -0.16916237771511078, -0.1542789340019226, -0.11534737795591354, 0.17848894000053406, 0.19737508893013, 0.2818056344985962, -0.16586537659168243, -0.19788512587547302, -0.20911112427711487, 0.2502123713493347, 0.06942417472600937, -0.3367934823036194, 0.1884225755929947, 0.2475411593914032, -0.22846359014511108, 0.020131530240178108, -0.002349360380321741, -0.15513847768306732, 0.12257145345211029, 0.049008648842573166, -0.1661335527896881, 0.19172698259353638, 0.23621700704097748, 0.35223594307899475, -0.12182067334651947, -0.2095787525177002, -0.09929153323173523, -0.1490301489830017, 0.24814066290855408, 0.06499852240085602, 0.17813178896903992, -0.026920411735773087, 0.13073508441448212, -0.1785641312599182, 0.034839872270822525, -0.05936677008867264, -0.40964654088020325, 0.2942456007003784, -0.06023794785141945, -0.3699328899383545, 0.23624294996261597, -0.07457148283720016, 0.22202068567276, -0.18523021042346954, 0.02821505255997181, -0.36660081148147583, 0.3375459313392639, -0.05948571115732193, 0.3617760241031647, -0.03302295133471489, 0.09839814901351929, -0.2613384425640106, 0.3217853605747223, 0.010523836128413677, 0.22124475240707397, -0.03747184947133064, 0.03727017715573311, -0.4442383348941803, 0.12882937490940094, -0.08991426229476929, -0.1720007210969925, 0.14969179034233093, -0.1377180516719818, -0.3206295073032379, 0.24601922929286957, 0.03603756055235863, -0.25892969965934753, 0.17420393228530884, 0.05238163843750954, -0.3452681005001068, 0.10513749718666077, -0.16648001968860626, 0.17153297364711761, -0.15060412883758545, -0.1918305605649948, 0.056135524064302444, 0.04894452169537544, 0.05972727760672569, -0.15113073587417603, 0.05938389152288437, -0.13060630857944489, 0.17733944952487946, -0.029790526255965233, -0.08253034204244614, 0.1393919140100479, 0.02562338300049305, 0.06566322594881058, -0.041654884815216064, -0.049128979444503784, -0.005156113300472498, -0.02007347159087658, 0.06810219585895538, -0.1706015169620514, 0.05827457085251808, -0.04079490154981613, 0.016482260078191757, 0.04635074362158775, -0.19837599992752075, -0.0662192702293396, 0.16719308495521545, 0.021200057119131088, 0.16920427978038788, -0.09469542652368546, 0.051005907356739044, -0.19538761675357819, 0.030355378985404968, 0.05036943033337593, -0.01485480647534132, 0.10737825930118561, 0.17877915501594543, -0.06762134283781052, 0.05733684450387955, 0.18612836301326752, -0.08807111531496048, 0.18489126861095428, -0.013491758145391941, -0.068072609603405, 0.05149638652801514, 0.14446711540222168, 0.18382102251052856, -0.03783600032329559, -0.16081111133098602, 0.07507921010255814, -0.11356866359710693, 0.16152548789978027, -0.08286692947149277, 0.2279215306043625, 0.07784068584442139, 0.004314425867050886, -0.27476248145103455, 0.1531621813774109, -0.11418990790843964, -0.10863925516605377, 0.07416631281375885, -0.0679711177945137, -0.08693727850914001, -0.06358379870653152, 0.025276368483901024, 0.03111441805958748, -0.09138527512550354, 0.05271068960428238, 0.03219980746507645, 0.07137451320886612, 0.09829765558242798, 0.12256570160388947, -0.12042386084794998, -0.1019415631890297, -0.24922887980937958, 0.2424793243408203, -0.03832850232720375, 0.1355295330286026, -0.03409399092197418, 0.09860161691904068, -0.0121363066136837, 0.18042315542697906, -0.09875760227441788, -0.15568843483924866, -0.011435522697865963, -0.0911044031381607, -0.10961530357599258, 0.18583008646965027, -0.11973847448825836, -0.05067358538508415, -0.018896253779530525, -0.030628476291894913, -0.02685737982392311, 0.027296900749206543, -0.024779342114925385, 0.001119411550462246, 0.0106678931042552, -0.005311563145369291, -0.12871453166007996, 0.07242129743099213, -0.08220894634723663, -0.06600076705217361, 0.02108101174235344, 0.08843475580215454, -0.09484279155731201, 0.04853562265634537, 0.10060597211122513, 0.04094647243618965, -0.09244467318058014, -0.031051142141222954, -0.09506510943174362, -0.1251617968082428, 0.010431122034788132, 0.14223556220531464, 0.1181768998503685, 0.04654424265027046, 0.04938603565096855, 0.00868549756705761, 0.13211888074874878, -0.005452037323266268, -0.08264671266078949, 0.03374596685171127, 0.0680464506149292, -0.10043002665042877, 0.14291323721408844, 0.09200707077980042, -0.10277819633483887, -0.0480811782181263, 0.07890704274177551, -0.11906570941209793, -0.04991518706083298, 0.006139838136732578, -0.12344907969236374, 0.05403073504567146, 0.017698615789413452, 0.0697011947631836, -0.11371495574712753, 0.09157810360193253, -0.1002795472741127, 0.12596619129180908, -0.19088181853294373, -0.1398674100637436, 0.077256940305233, 0.027491940185427666, -0.022454408928751945, -0.37371984124183655, -0.09636358171701431, -0.08461473882198334, -0.04344714432954788, -0.011877959594130516, 0.018757060170173645, -0.01222250983119011, -0.023572202771902084, 0.20798175036907196, -0.0036899903789162636, -0.31939950585365295, -0.0441921129822731, -0.04270424693822861, -0.0993848368525505, 0.016302337870001793, 0.10810486972332001, 0.8590502142906189, -0.5569397807121277, 0.7531090378761292, -0.6482035517692566, -0.1950511336326599, 1.0555639266967773, 0.8480473160743713, -0.5815232396125793, 0.20814396440982819, 0.014412591233849525, -0.5986453890800476, -0.4826459586620331, 0.12266366183757782, -0.7913620471954346, 0.12412241846323013, 0.4607431888580322, -0.19934754073619843, 0.030857982113957405, 0.11654014140367508, 0.05358712002635002, 0.5058639645576477, 0.07428368926048279, 0.2422807514667511, 0.12003423273563385, 0.06945974379777908, 0.12070340663194656, 0.20623335242271423, -0.15227462351322174, 0.14560067653656006, -0.07958701252937317, 0.24627470970153809, 0.09844427555799484, -0.38996002078056335, 0.2300482839345932, -0.43911105394363403, 0.1276286393404007, 0.3781571388244629, -0.3552577495574951, -0.10202150046825409, 0.14861775934696198, -0.17119348049163818, 0.1980648785829544, -0.26868733763694763, 0.47431138157844543, -0.012277895584702492, 0.14213481545448303, 0.04157017916440964, -0.09485217928886414, -0.24813130497932434, 0.11160217225551605, -0.0911535918712616, 0.21256473660469055, -0.2891221046447754, -0.2884065508842468, -0.012477567419409752, -0.26360294222831726, 0.02327338047325611, -0.1685313582420349, 0.03001512587070465, -0.2699802815914154, 0.03347254917025566, 0.33118176460266113, -0.012779285199940205, -0.05651843920350075, -0.08694180846214294, -0.11516032367944717, -0.03814662620425224, -0.12177282571792603, -0.4722425639629364, 0.0027290419675409794, -0.10645316541194916, -0.13846944272518158, -0.24993273615837097, -0.08240409195423126, -0.16030430793762207, -0.2658323645591736, 0.14245235919952393, 0.20245902240276337, -0.2187013030052185, -0.008443983271718025, -0.2972806990146637, -0.16451507806777954, -0.3500620722770691, 0.21238210797309875, 0.6743330359458923, 0.07231370359659195, 0.2018444538116455, -0.031114323064684868, 0.13754792511463165, 0.3270147144794464, -0.2501752972602844, 0.6455168724060059, -0.05289476364850998, 0.2421211302280426, -0.13395938277244568, 0.04629899933934212, -0.09676653891801834, -0.04605025053024292, 0.14709295332431793, 0.02732991613447666, 0.6679807901382446, 0.22957751154899597, 0.46395978331565857, 0.34194692969322205, 0.304799884557724, 0.24787980318069458, 0.0036304881796240807, 0.09437818825244904, 0.136610746383667, -0.07601732015609741, 0.29985445737838745, 0.17036087810993195, -0.025592362508177757, 0.20947511494159698, 0.05158422514796257, 0.18182654678821564, -0.2319338470697403, -0.3044876754283905, -0.01969328336417675, 0.005631460342556238, -0.06640279293060303, -0.27914002537727356, -0.44946181774139404, 0.32624170184135437, 0.04492184892296791, -0.09420738369226456, -0.01633976399898529, -0.2842974364757538, 0.5113052129745483, -0.0202233474701643, 0.41305670142173767, -0.28987133502960205, -0.05256401002407074, 0.31324276328086853, 0.3519200086593628, 0.14849959313869476, 0.26527103781700134, -0.1226583793759346, 0.3837425708770752, -0.2186715453863144, 0.16853052377700806, -0.24557024240493774, -0.016553960740566254, 0.15739615261554718, -0.33251532912254333, 0.08284562081098557, -0.3080751597881317, -0.1827615350484848, 0.11465581506490707, -0.1908741444349289, -0.13912393152713776, -0.093381367623806, -0.3065825402736664, -0.1700752079486847, -0.018079327419400215, 0.2893331050872803, -0.025531401857733727, -0.05028461292386055, 0.08965355902910233, -0.020734330639243126, -0.07170572876930237, 0.19468998908996582, 0.14888858795166016, -0.09098437428474426, -0.06899034231901169, -0.060551274567842484, 0.08860812336206436, -0.19170768558979034, -0.03916916623711586, 0.056646138429641724, 0.09817180037498474, 0.38274049758911133, 0.05905890464782715, 0.2801215946674347, -0.21901167929172516, -0.15155592560768127, -0.2511352002620697, 0.27396276593208313, -0.4150370955467224, 0.1911945790052414, -0.15557977557182312, -0.33834773302078247, -0.05142246186733246, -0.06667742878198624, -0.028024347499012947, -0.19312922656536102, -0.3670061528682709, -0.02290988527238369, -0.20731757581233978, 0.22711659967899323, -0.04691611975431442, 0.10962388664484024, -0.4610556662082672, 0.1718551069498062, 0.08662375807762146, -0.041744157671928406, -0.10651124268770218, -0.2812129855155945, -0.054413385689258575, -0.023249799385666847, -0.23307444155216217, -0.22797992825508118, -0.1206623911857605, -0.07949841022491455, -0.09329979121685028, 0.18921251595020294, -0.17574909329414368, -0.3186143934726715, -0.6296584010124207, -0.1224137544631958, 0.03176267817616463, -0.08824528008699417, 0.27529188990592957, -0.19520115852355957, 0.023584378883242607, 0.2255896031856537, 0.2777978777885437, 0.20482297241687775, -0.30790677666664124, -0.08700082451105118, 0.15274548530578613, -0.18321411311626434, -0.04199220612645149, 0.20765210688114166, -0.16040882468223572, -0.13454926013946533, -0.2716829478740692, 0.17665748298168182, -0.24226948618888855, 0.12577655911445618, 0.05494547262787819, -0.08877113461494446, -0.12190815061330795, -0.20953620970249176, -0.3131086826324463, 0.009985465556383133, -0.34749776124954224, 0.002010954776778817, -0.27457618713378906, 0.045943159610033035, -0.725653886795044, 0.30472636222839355, -0.100718192756176, -0.22020365297794342, 0.17562785744667053, -0.14817650616168976, 0.21202968060970306, 0.2707224190235138, -0.2591043710708618, 0.23352088034152985, -0.13863247632980347, -0.05549035966396332, 0.21792751550674438, 0.2273712456226349, -0.08640828728675842, -0.07531227916479111, 0.5791972279548645, -0.12381848692893982, 0.4014633297920227, -0.17014169692993164, 0.10886260867118835, 0.36310023069381714, 0.2959562838077545, 0.3402528166770935, 0.12483955919742584, 0.047088272869586945, 0.28703784942626953, -0.38899657130241394, 0.3331252932548523, 0.055154282599687576, 0.2073461413383484, 0.2254512459039688, 0.21532954275608063, -0.1738918423652649, 0.3763011395931244, -0.2591247856616974, 0.056809864938259125, 0.09095346182584763, 0.09813759475946426, 0.24945183098316193, -0.07672219723463058, -0.15864822268486023, -0.013329860754311085, -0.21251730620861053, 0.13161034882068634, 0.014631458558142185, -0.013769020326435566, 0.18898755311965942, 0.18681201338768005, 0.1362977921962738, -0.10133045166730881, -0.03530960902571678, 0.08852453529834747, 0.3196088373661041, -0.16178640723228455, -0.023063594475388527, 0.16043660044670105, -0.2567267119884491, -0.03376447781920433, 0.07631867378950119, -0.13958525657653809, 0.06091165915131569, 0.1239541620016098, 0.48999086022377014, 0.1344265192747116, -0.08463490754365921, -0.2809275686740875, -0.20121069252490997, 0.24970781803131104, 0.36244478821754456, -0.04766341298818588, -0.3908902108669281, -0.2150813788175583, 0.248553067445755, 0.1275636851787567, -0.09532870352268219, 0.08952523022890091, -0.13934187591075897, -0.36197683215141296, -0.09539076685905457, 0.23211850225925446, -0.4609054923057556, -0.10824395716190338, 0.28146666288375854, -0.18500572443008423, 0.13142834603786469, 0.06162237375974655, -0.28479617834091187, -0.03502213954925537, -0.04340626299381256, -0.25779956579208374, 0.255759596824646, 0.14990347623825073, 0.4118976593017578, -0.06114202365279198, -0.29447615146636963, -0.19074788689613342, 0.19725993275642395, 0.22093605995178223, 0.11506626009941101, -0.09528152644634247, -0.00019496813183650374, 0.08922036737203598, 0.059970442205667496, 0.24568678438663483, -0.13044190406799316, -0.001579313655383885, -0.16497939825057983, 0.23387397825717926, 0.012661728076636791, 0.12843085825443268, -0.30149760842323303, -0.072854183614254, -0.005255420226603746, 0.5897220373153687, -0.2288280576467514, -0.12169281393289566, -0.19121260941028595, -0.03052084892988205, 0.06345166265964508, 0.06839440762996674, -0.14822401106357574, -0.22076374292373657, -0.0833546370267868, -0.11113322526216507, -0.2606908679008484, 0.46361133456230164, 0.041732415556907654, 0.011381639167666435, 0.0997563973069191, -0.10060009360313416, 0.09356237202882767, 0.03548149764537811, 0.19064554572105408, 0.2242402732372284, 0.34236881136894226, -0.04943211004137993, -0.04299287870526314, -0.09944938123226166, 0.046820174902677536, -0.09128314256668091, -0.4776201546192169, 0.2043738216161728, -0.0025569896679371595, 0.14818616211414337, -0.2561706006526947, -0.14833316206932068, 0.21473731100559235, 0.2390020787715912, 0.09414614737033844, -0.051444895565509796, -0.016434378921985626, 0.023599904030561447, 0.14369645714759827, 0.0485629141330719, -0.024416407570242882, 0.3101014494895935, -0.014630381017923355, 0.132888063788414, 0.07340219616889954, 0.11732921004295349, 0.1053922027349472, 0.11015614122152328, -0.09948857128620148, -0.009847371838986874, -0.1252213716506958, -0.007317445706576109, 0.11810564249753952, 0.11136447638273239, -0.05972737446427345, 0.05738098546862602, -0.038425933569669724, 0.09090323746204376, -0.09197332710027695, -0.10951800644397736, -0.2288079857826233, 0.034302785992622375, 0.12846288084983826, -0.108368419110775, 0.10113120824098587, 0.29360195994377136, -0.003964672796428204, -0.0404755100607872, -0.092862568795681, -0.04590928554534912, 0.07451201975345612, 0.14499720931053162, -0.042525120079517365, 0.006936951074749231, -0.09768068045377731, 0.144691601395607, 0.09856003522872925, -0.24601911008358002, -0.11356212943792343, 0.032798852771520615, 0.14209191501140594, -0.24794185161590576, -0.009438231587409973, 0.1078936755657196, -0.2833404839038849, -0.24638772010803223, 0.11796999722719193, -0.004132559057325125, -0.17522957921028137, 0.2241552621126175, -0.2030664086341858, 0.04845821112394333, -0.1572544276714325, 0.3282261788845062, 0.15429720282554626, 0.4452406167984009, -0.046969592571258545, 0.0610908567905426, -0.4259280860424042, 0.4651637673377991, 0.2079952210187912, 0.33637577295303345, -0.5503207445144653, 0.03221579268574715, 0.08751620352268219, -0.1279572695493698, 0.01579570583999157, 0.3409580886363983, -0.4819868206977844, -0.12649835646152496, 0.1524878442287445, -0.245835542678833, -0.06804833561182022, 0.09846074134111404, -0.06947902590036392, -0.155265212059021, 0.3178737163543701, -0.19035333395004272, -0.055295679718256, 0.06420676410198212, -0.4335003197193146, 0.0362500362098217, -0.2883094847202301, 0.45897918939590454, 0.1723928153514862, 0.024409862235188484, -0.35287928581237793, 0.08035632967948914, -0.0030192360281944275, 0.40269631147384644, -0.1560322642326355, -0.0326785072684288, 0.06690581142902374, -0.2215091586112976, -0.06684917211532593, 0.17324690520763397, 0.0031173063907772303, 0.05092444643378258, 0.2760646939277649, -0.37784674763679504, -0.1481838971376419, -0.06975654512643814, 0.11814219504594803, 0.09192337840795517, 0.06945111602544785, -0.24627511203289032, -0.06452086567878723, -0.04304612800478935, 0.40207386016845703, 0.12602294981479645, 0.22591567039489746, -0.27581125497817993, -0.08637776970863342, -0.13329483568668365, 0.08595636487007141, 0.1686781942844391, 0.05474972724914551, -0.30841922760009766, 0.004774442873895168, 0.20872126519680023, -0.07308036834001541, 0.009041336365044117, -0.1437361240386963, -0.14144393801689148, -0.030276278033852577, 0.0838383361697197, -0.12132209539413452, 0.22354894876480103, -0.060057081282138824, -0.37246453762054443, 0.05824589356780052, -0.19051377475261688, 0.20975536108016968, -0.09987613558769226, 0.12576133012771606, -0.00698372907936573, -0.10364104062318802, 0.16730967164039612, -0.25462648272514343, -0.05941289663314819, 0.14449936151504517, -0.024650415405631065, 0.05233781039714813, 0.2150363177061081, 0.02916346676647663, -0.23310628533363342, 0.27406951785087585, -0.250265896320343, 0.07778828591108322, -0.26046159863471985, 0.030501339584589005, 0.019615178927779198, -0.18285827338695526, -0.2759840488433838, 0.13037677109241486, -0.490852415561676, 0.32976993918418884, 0.21544788777828217, 0.501899003982544, -0.32083138823509216, 0.26948538422584534, 0.04632604122161865, 0.028536202386021614, 0.06809193640947342, 0.3178005516529083, -0.07036873698234558, 0.19430683553218842, 0.2414083629846573, 0.016876772046089172, -0.05276641994714737, 0.41865333914756775, -0.08575571328401566, -0.07367170602083206, -0.10659142583608627, -0.10635881125926971, -0.0075621223077178, 0.7748346924781799, -0.3253381848335266, 0.012112844735383987, -0.2948330044746399, 0.2913271188735962, 0.08333229273557663, 0.6639478802680969, 0.035984523594379425, 0.03467497229576111, -0.08331003040075302, -0.2844160199165344, 0.08664946258068085, -0.03438207879662514, 0.2690452039241791, 0.09533799439668655, -0.2428130805492401, -0.1460607349872589, -0.013974436558783054, 0.07320714741945267, -0.04534202441573143, 0.139949768781662, 0.5353444218635559, 0.03895901143550873, 0.2631669044494629, -0.2330632358789444, 0.13273249566555023, -0.034001294523477554, 0.3899611234664917, 0.06419201195240021, 0.10047237575054169, -0.12088287621736526, -0.14816617965698242, -0.12718938291072845, 0.04578585922718048, -0.11666473001241684, 0.13573038578033447, -0.3033089339733124, 0.08551443368196487, -0.03275122120976448, -0.3498190641403198, -0.0978841707110405, 0.2541883587837219, 0.24889378249645233, 0.25806760787963867, 0.12351518869400024, 0.054388899356126785, -0.06683318316936493, -0.03306159749627113, 0.06227106600999832, -0.04334525763988495, -0.16056343913078308, 0.12483145296573639, -0.012573872692883015, -0.24518057703971863, 0.34823912382125854, 0.03307127580046654, 0.20405052602291107, -0.16794666647911072, -0.09100542962551117, -0.20907621085643768, -0.05449853092432022, 0.17032283544540405, -0.053299713879823685, -0.10699047148227692, 0.012530309148132801, 0.08208368718624115, 0.004186767153441906, -0.2520821690559387, 0.13525864481925964, 0.21234071254730225, -0.10730341076850891, 0.07032876461744308, -0.332480251789093, 0.08388298004865646, 0.0691620334982872, 0.043990932404994965, 0.011534464545547962, 0.12080900371074677, -0.0637274906039238, 0.16987916827201843, 0.10385061800479889, 0.25600314140319824, -0.06455817073583603, 0.05598152056336403, -0.3411990702152252, 0.012841552495956421, -0.10285236686468124, -0.26562726497650146, 0.166739359498024, -0.17872095108032227, 0.2263973206281662, -0.027077345177531242, -0.12133199721574783, -0.13572506606578827, -0.059483133256435394, -0.00658984063193202, 0.2910292446613312, 0.09106443077325821, -0.10866899788379669, 0.059711817651987076, 0.03099437989294529, 0.42555713653564453, 0.4585045576095581, 0.2831849455833435, -0.20830708742141724, -0.2743571996688843, -0.2791353166103363, 0.21014218032360077, 0.2720601558685303, 0.4138539135456085, -0.3062048852443695, -0.2894864082336426, -0.35983067750930786, 0.1413246989250183, 0.0336492657661438, -0.009939457289874554, 0.12866157293319702, 0.11460350453853607, -0.032148320227861404, 0.027518482878804207, 0.07426110655069351, 0.09847070276737213, 0.06660450994968414, -0.06594110280275345, 0.05302226543426514, -0.18475067615509033, -0.12639398872852325, 0.15472550690174103, -0.12639297544956207, -0.056602753698825836, -0.34481081366539, -0.052508410066366196, 0.006023753434419632, 0.07595866918563843, -0.39856016635894775, -0.1388130784034729, 0.02199585735797882, -0.05760735273361206, 0.23903320729732513, 0.2368379682302475, -0.04287288710474968, 0.008369999937713146, -0.004731401335448027, -0.09132175147533417, -0.04393928870558739, 0.08706799894571304, 0.15405906736850739, -0.05431995168328285, -0.1550995260477066, 0.18800322711467743, 0.007413728162646294, 0.1606035679578781, -0.2790412902832031, -0.008242035284638405, 0.025157900527119637, 0.0035017344634979963, 0.06320373713970184, -0.0170434582978487, 0.044344816356897354, 0.15670563280582428, -0.07596586644649506, -0.027554713189601898, -0.15919722616672516, 0.04353815317153931, -0.10023950040340424, -0.18620683252811432, 0.15393075346946716, -0.04137640818953514, 0.007256682496517897, -0.015065852552652359, -0.08016998320817947, 0.027676964178681374, 0.17798654735088348, 0.03612532466650009, 0.009687542915344238, -0.019880831241607666, -0.0978129655122757, -0.19703352451324463, 0.08503763377666473, -0.10222610086202621, 0.11043928563594818, 0.05843043699860573, 0.11818468570709229, 0.021391598507761955, -0.09516013413667679, 0.09218194335699081, -0.18954326212406158, -0.024921732023358345, -0.10068462789058685, 0.0695551335811615, -0.0623072013258934, 0.1683492809534073, -0.2463383674621582, 0.15492157638072968, -0.060013823211193085, 0.025356529280543327, -0.05029353126883507, 0.16147497296333313, 0.3696303367614746, 0.10629338026046753, -0.006408702582120895, -0.10863254219293594, -0.1858014613389969, 0.040654633194208145, 0.03217017650604248, 0.15019769966602325, -0.12421219050884247, -0.166877880692482, -0.1350507289171219, 0.4706168472766876, 0.20500805974006653, -0.004645807668566704, 0.035328011959791183, 0.26322290301322937, 0.14949871599674225, 0.17194706201553345, -0.04642622917890549, 0.0679812803864479, -0.2969163954257965, 0.22155632078647614, 0.18247090280056, 0.3177269399166107, -0.09648558497428894, 0.10364856570959091, -0.3869292736053467, -0.26060304045677185, -0.12566743791103363, 0.3784154951572418, -0.09858651459217072, -0.09449344873428345, 0.22087474167346954, -0.08774296939373016, -0.19403302669525146, 0.7041510343551636, 0.35008370876312256, 0.2170175313949585, 0.2726259231567383, -0.026181157678365707, 0.12677448987960815, 0.850646436214447, 0.2221364676952362, 0.10323125869035721, -0.33473631739616394, 1.294860430789413e-05, 0.10215163230895996, 0.041152048856019974, 0.46680939197540283, 0.3077407777309418, -0.4573706090450287, -0.35709577798843384, -0.20919737219810486, 0.013117396272718906, 0.2112034559249878, 0.2842767536640167, -0.05571580305695534, -0.19541625678539276, -0.21031834185123444, -0.15316341817378998, 0.01507936418056488, 0.014468410052359104, -0.16567762196063995, 0.5286505222320557, 0.2981872260570526, -0.07295777648687363, -0.2235741764307022, 0.11660880595445633, 0.356369286775589, 0.368786096572876, 0.06981374323368073, -0.026618797332048416, -0.13456663489341736, 0.05983632802963257, -0.31124070286750793, -3.2070252927951515e-05, -0.17302913963794708, -0.14408953487873077, -0.08060237765312195, 0.008312434889376163, -0.3115682303905487, -0.2841762602329254, -0.09984832257032394, -0.05908173322677612, 0.056697435677051544, 0.3349098861217499, 0.18729497492313385, 0.007934154942631721, 0.0020743589848279953, -0.06562568992376328, 0.046780165284872055, 0.021654142066836357, 0.05064525455236435, 0.17933392524719238, 0.08042847365140915, -0.1131628081202507, 0.11284104734659195, 0.14011810719966888, 0.03588526323437691, 0.01425738912075758, -0.13755163550376892, 0.2574034631252289, 0.2272510975599289, -0.06130479648709297, 0.017348650842905045, 0.032888930290937424, -0.18293319642543793, 0.020246995612978935, 0.026329785585403442, 0.0549173466861248, -0.1300855427980423, -0.21041181683540344, 0.4093731939792633, 0.010177157819271088, -0.06645537912845612, -0.10792592912912369, -0.1248105838894844, -0.19518224895000458, 0.13852660357952118, -0.12338945269584656, 0.12737999856472015, 0.0154328104108572, -0.13571013510227203, -0.0856628343462944, -0.1907518208026886, 0.1930176466703415, 0.27216386795043945, -0.022492336109280586, 0.13476547598838806, -0.08206605911254883, -0.20826779305934906, 0.05695432797074318, 0.016587236896157265, 0.2324700504541397, 0.11605948954820633, 0.07478531450033188, -0.08360688388347626, 0.0774347186088562, 0.12520262598991394, 0.13357944786548615, 0.03363202139735222, 0.013044055551290512, 0.07910309731960297, -0.07461994141340256, 0.06096024438738823, -0.02063165046274662, 0.4821142256259918, 0.24040652811527252, 0.06658116728067398, -0.058261483907699585, -0.15888705849647522, 0.14154310524463654, -0.2757604420185089, -0.11069316416978836, 0.061455488204956055, 0.3073681592941284, 0.1789412498474121, 0.056074608117341995, 0.10237233340740204, 0.1772087812423706, -0.19603799283504486, 0.09630327671766281, 0.08403070271015167, 0.12605658173561096, 0.13082174956798553, 0.07199273258447647, -0.011862150393426418, -0.02521658129990101, -0.08435747772455215, 0.05602351576089859, 0.015549544245004654, -0.04297827184200287, 0.08619844168424606, 0.012352054007351398, -0.039053335785865784, -0.014181572012603283, -0.24880562722682953, -0.09825292974710464, -0.06012512370944023, -0.18463580310344696, 0.007818619720637798, -0.06740833073854446, -0.010088946670293808, 0.06852252781391144, -0.07527696341276169, -0.1943567544221878, -0.07492528855800629, -0.2077857255935669, -0.04350218549370766, -0.09853141754865646, 0.06847192347049713, -0.04417402669787407, 0.03704475238919258, 0.17988955974578857, 0.07945166528224945, 0.14151623845100403, -0.2928338050842285, -0.10854809731245041, 0.18242965638637543, -0.07868875563144684, -0.12770548462867737, 0.01073379348963499, -0.12254907190799713, 0.22850003838539124, 0.18123005330562592, 0.10520436614751816, 0.1941496878862381, -0.24842984974384308, 0.1645737886428833, -0.005048097111284733, 0.15878193080425262, -0.06686700135469437, -0.008705688640475273, -0.21940596401691437, 0.02017936483025551, 0.16799277067184448, 0.07655363529920578, -0.08218991011381149, -0.024259919300675392, -0.17644034326076508, 0.20922158658504486, -0.0212777741253376, 0.2641258239746094, -0.014552254229784012, 0.029430095106363297, 0.23807929456233978, -0.1703401654958725, 0.033252324908971786, 0.10724979639053345, 0.04777088388800621, 0.0022754562087357044, 0.08832614123821259, -0.1435399055480957, -0.10754521191120148, 0.2146039605140686, -0.023214489221572876, 0.07972338795661926, -0.21182166039943695, 0.10555768013000488, -0.19263945519924164, 0.1567562371492386, 0.05355328693985939, -0.12917207181453705, 0.06290539354085922, -0.052583131939172745, 0.11268660426139832, 0.12157522886991501, 0.024485215544700623, 0.13095194101333618, 0.06200665980577469, -0.2094271332025528, -0.33364686369895935, 0.04592961072921753, 0.15366022288799286, -0.18373438715934753, -0.20626699924468994, 0.16205331683158875, 0.021978409960865974, 0.08336514234542847, -0.3244823217391968, 0.04014447331428528, -0.24345923960208893, -0.04019800201058388, -0.24602769315242767, -0.08503670990467072, -0.16883061826229095, -0.12464744597673416, 0.10091418772935867, 0.18275517225265503, 0.05677688494324684, 0.21827730536460876, -0.17875193059444427, 0.05209312215447426, 0.10722889751195908, -0.1272347867488861, -0.14064739644527435, -0.10167646408081055, 0.08767660707235336, 0.08862582594156265, 0.12776313722133636, -0.18034204840660095, -0.05496370419859886, 0.005399140529334545, 0.07818511128425598, 0.036065418273210526, 0.10979893803596497, 0.2122345119714737, 0.13501937687397003, 0.1443149447441101, -0.04498877748847008, 0.12994244694709778, -0.1340935081243515, 0.08043136447668076, 0.30371561646461487, 0.13167226314544678, 0.2360600382089615, -0.05415988713502884, 0.19414755702018738, 0.2521682381629944, 0.16596785187721252, 0.07455985248088837, 0.0922875925898552, -0.02093360759317875, -0.5753303170204163, 0.36514124274253845, 0.452043354511261, -0.3013196587562561, 0.5183236002922058, -0.807040274143219, -0.20488238334655762, -0.3297198414802551, 0.8357387185096741, -1.04184091091156, -0.5770271420478821, -0.9584859609603882, -0.03198597580194473, -0.6830499172210693, 0.012473724782466888, -0.8221439123153687, -0.31998273730278015, 0.05723641812801361, -0.05055251345038414, 0.29594650864601135, 0.2664487361907959, -0.11002951115369797, -0.2957850992679596, -0.25577622652053833, -0.10684354603290558, -0.05688627436757088, 0.10826125741004944, -0.009315302595496178, 0.09492059051990509, 0.13816159963607788, -0.16249394416809082, 0.11237072944641113, 0.10688474774360657, -0.14729778468608856, -0.19525669515132904, -0.15553981065750122, -0.20639555156230927, 0.2722688615322113, -0.06939511746168137, -0.06664738804101944, 0.23307296633720398, -0.16659602522850037, -0.08829240500926971, 0.24873198568820953, 0.03551523759961128, 0.3060401976108551, 0.2040420025587082, 0.19815053045749664, -0.11206063628196716, -0.25230711698532104, 0.06938853114843369, 0.08658482879400253, 0.11462187021970749, 0.11782556027173996, -0.14981091022491455, -0.021126797422766685, -0.06764383614063263, 0.048336777836084366, -0.2809324264526367, -0.1806110143661499, 0.07940541952848434, 0.025302806869149208, 0.1662861853837967, 0.019972320646047592, -0.02407800778746605, -0.0012129961978644133, -0.08275291323661804, -0.18056124448776245, -0.021049370989203453, -0.03687063977122307, -0.15304474532604218, -0.18088462948799133, -0.13344806432724, -0.015611052513122559, 0.0293978750705719, 0.2677190899848938, 0.46953171491622925, -0.17383618652820587, 0.14204859733581543, 0.36406847834587097, 0.33351966738700867, -0.2647689878940582, -0.23652072250843048, -0.2611576020717621, 0.06588315218687057, -0.006497318856418133, -0.19297273457050323, 0.2905462980270386, 0.6730517745018005, 0.2061290740966797, -0.6784597635269165, 0.18421542644500732, -0.2711784541606903, 0.11940193921327591, -0.032270047813653946, -0.2191213220357895, -0.22900401055812836, 0.009509739466011524, -0.0673074722290039, -0.19287922978401184, 0.0868314579129219, -0.1132434532046318, -0.17727112770080566, -0.1315886378288269, 0.23765426874160767, -0.039950091391801834, -0.07687518000602722, -0.3217017948627472, -0.20797915756702423, 0.1920631378889084, 0.08578117191791534, -0.014122089371085167, 0.23560722172260284, -0.05022398754954338, -0.22491797804832458, -0.3448006510734558, 0.08256757259368896, 0.29987260699272156, -0.3584817945957184, -0.1716194599866867, 0.10609524697065353, 0.15937909483909607, -0.10318806767463684, 0.09967117756605148, 0.1046936959028244, -0.08340314775705338, 0.06480447947978973, 0.2934511601924896, 0.08720429241657257, 0.032200492918491364, -0.18707409501075745, 0.012628240510821342, 0.1902346909046173, -0.11242328584194183, -0.02482043020427227, 0.07754864543676376, -0.035526908934116364, 0.09474802762269974, -0.3478300869464874, 0.008889134973287582, -0.1572793573141098, 0.10625132918357849, 0.1706753373146057, 0.08543483167886734, -0.10964265465736389, 0.20392458140850067, -0.027669556438922882, -0.1589929759502411, 0.06890272349119186, -0.1365523338317871, -0.1088540330529213, -0.222131609916687, -0.22610419988632202, 0.08689659833908081, 0.31896305084228516, -0.11616094410419464, 0.048495322465896606, -0.14526823163032532, -0.06275038421154022, 0.2730405330657959, -0.12912073731422424, 0.16713833808898926, -0.23215924203395844, 0.16897839307785034, 0.16232247650623322, -0.07518700510263443, 0.06555639952421188, -0.10557178407907486, -0.14172731339931488, 0.061948105692863464, 0.1612725406885147, 0.24256661534309387, 0.12112341821193695, -0.01961950771510601, 0.14848537743091583, 0.0007077708723954856, -0.07576639205217361, -0.18237176537513733, 0.16833342611789703, 0.25219792127609253, 0.11295809596776962, -0.2566235065460205, -0.011884151957929134, 0.03396127000451088, 0.0334000438451767, 0.09653521329164505, -0.13028660416603088, 0.13158629834651947, -0.04547807574272156, 0.15670087933540344, -0.12469851970672607, -0.09570052474737167, 0.22366291284561157, 0.11503927409648895, -0.18807591497898102, -0.025598246604204178, -0.37604033946990967, -0.05208355933427811, 0.27966463565826416, 0.2610820531845093, -0.20031121373176575, 0.18731063604354858, 0.22686462104320526, -0.017230896279215813, -0.06171950697898865, -0.1791815459728241, 0.041595250368118286, -0.123853400349617, -0.12780968844890594, -0.3222350478172302, -0.28878656029701233, 0.17801691591739655, -0.1028408408164978, 0.008619794622063637, -0.3032974600791931, 0.21178220212459564, 0.026763422414660454, -0.16403256356716156, -0.30761632323265076, -0.24201305210590363, 0.16523320972919464, 0.07302746921777725, 0.10125204175710678, -0.07517760246992111, 0.22038774192333221, -0.05995524302124977, -0.2031683474779129, 0.1604868471622467, -0.18741412460803986, 0.14836327731609344, -0.11216526478528976, 0.030347291380167007, 0.21767456829547882, -0.01205671951174736, 0.05677885189652443, -0.1753411740064621, 0.15131479501724243, 0.2884981036186218, 0.13206428289413452, -0.13494573533535004, 0.14237625896930695, 0.12254473567008972, 0.08489871025085449, 0.04417208582162857, -0.119161456823349, -0.17183303833007812, 0.14919114112854004, 0.08659640699625015, -0.02927698940038681, -0.218729168176651, -0.30141493678092957, 0.06901194900274277, -0.2804854214191437, 0.1632590889930725, 0.1490619033575058, -0.096982441842556, 0.27956193685531616, -0.1386803239583969, 0.01863265410065651, -0.07776933163404465, -0.10043651610612869, 0.0072203706949949265, -0.21902213990688324, 0.18463271856307983, 0.4075218439102173, -0.17104050517082214, -0.051110513508319855, 0.07387856394052505, -0.2159622460603714, 0.40352171659469604, -0.20192839205265045, -0.18383248150348663, -0.042154889553785324, 0.0062202452681958675, 0.26246604323387146, -0.19889801740646362, 0.2684338390827179, 0.1861320585012436, 0.12427951395511627, 0.37480971217155457, -0.003614285262301564, -0.12584452331066132, 0.10757636278867722, -0.38196614384651184, 0.2702956795692444, -0.2526017427444458, -0.0962848961353302, 0.14587922394275665, -0.174130380153656, 0.06290670484304428, -0.07557452470064163, 0.12881062924861908, -0.16688939929008484, -0.013573267497122288, 0.10296507179737091, -0.17088200151920319, 0.09143595397472382, 0.11590795964002609, -0.29203274846076965, -0.05953679233789444, 0.15062621235847473, 0.17421354353427887, -0.09273415058851242, 0.03395894914865494, 0.09506679326295853, 0.10371505469083786, 0.009599250741302967, -0.20718856155872345, 0.07706529647111893, 0.006114031188189983, 0.2909943461418152, -0.11693404614925385, -0.04528601095080376, -0.002410090994089842, 0.018551260232925415, -0.1882459968328476, -0.17082569003105164, -0.23325014114379883, -0.31569522619247437, 0.30992239713668823, -0.27308228611946106, 0.003331321757286787, -0.005512892734259367, 0.0432472862303257, 0.0041934289038181305, -0.049095138907432556, 0.1942770779132843, 0.05205699801445007, 0.01939539425075054, -0.0497296079993248, 0.15582187473773956, 0.11565925925970078, -0.09194784611463547, 0.06403901427984238, 0.05857105925679207, -0.03614619001746178, -0.08689548820257187, -0.14494720101356506, 0.01500729750841856, -0.06861411780118942, 0.3213071823120117, -0.11502398550510406, -0.032678499817848206, 0.12247670441865921, 0.03887464851140976, -0.1634143888950348, 0.028569301590323448, -0.1892218291759491, 0.14991304278373718, -0.14636200666427612, 0.0980663001537323, 0.02541404962539673, 0.10163576900959015, -0.09230653196573257, 0.0741182267665863, 0.04477960988879204, 0.07421045005321503, -0.0796327069401741, -0.3738485872745514, -0.02304818481206894, 0.016498496755957603, 0.11601827293634415, -0.11234194785356522, 0.2554270923137665, 0.3817788064479828, 0.15293845534324646, -0.22345204651355743, 0.46930381655693054, -0.3282521963119507, -0.13414327800273895, 0.09019534289836884, -0.00019941972277592868, -0.4350755512714386, 0.14412054419517517, -0.08239466696977615, -0.07962595671415329, 0.20232391357421875, -0.16289958357810974, -0.08502370864152908, 0.13849908113479614, 0.1038721352815628, 0.17061619460582733, -0.240573450922966, 0.12844990193843842, -0.22495020925998688, 0.11025167256593704, -0.06987420469522476, -0.011529731564223766, 0.026333294808864594, -0.0024292937014251947, 0.219572052359581, -0.01796591654419899, 0.322435587644577, -0.2455669343471527, -0.1844681203365326, 0.04248828440904617, -0.007280654273927212, -0.010735922493040562, 0.09314478933811188, 0.08251819014549255, 0.47888660430908203, 0.13039056956768036, 0.1137213259935379, 0.09344670921564102, 0.09275791049003601, 0.16101273894309998, 0.31194302439689636, 0.1271536499261856, 0.000968560460023582, -0.038165383040905, -0.12330646067857742, -0.348910391330719, 0.2093806117773056, -0.19232991337776184, 0.19977739453315735, 0.22221815586090088, 0.22565890848636627, -0.22654308378696442, -0.26227903366088867, -0.0013313699746504426, 0.01704283431172371, -0.039668820798397064, 0.4313453137874603, -0.11964335292577744, -0.16446135938167572, 0.12280275672674179, -0.0337635800242424, -0.13182756304740906, -0.16032743453979492, -0.008551601320505142, 0.08329353481531143, 0.16823743283748627, 0.03716982528567314, -0.19479593634605408, 0.21694982051849365, -0.19846290349960327, 0.3014993667602539, -0.07717595249414444, -0.03786959499120712, 0.4545691907405853, 0.042953506112098694, -0.013768818229436874, 0.25590476393699646, -0.14555950462818146, 0.11653996258974075, -0.11166484653949738, -0.09840153902769089, 0.08897220343351364, -0.04564942046999931, -0.018341435119509697, -0.009461990557610989, 0.15251211822032928, -0.19995743036270142, 0.02368011698126793, -0.24333219230175018, -0.022617846727371216, -0.08973809331655502, 0.14992250502109528, 0.04719388857483864, 0.023447146639227867, -0.07014044374227524, -0.24166250228881836, 0.01905902475118637, 0.41268181800842285, 0.5886556506156921, 0.13064603507518768, 0.15788902342319489, -0.008140850812196732, -0.22052891552448273, 0.16892138123512268, -0.060449328273534775, 0.027994783595204353, 0.2371343970298767, 0.17871719598770142, 0.08478463441133499, 0.009949987754225731, 0.06651370972394943, -0.0403326041996479, -0.2694334387779236, -0.030844878405332565, -0.013009647838771343, -0.05354559049010277, -0.027511481195688248, -0.03311094269156456, -0.08189922571182251, -0.002701449440792203, 0.19860750436782837, 0.2830704152584076, -0.16970586776733398, -0.07684354484081268, 0.18420496582984924, -0.1795526146888733, -0.04071316868066788, 0.07579462230205536, 0.023413749411702156, -0.08210644870996475, -0.05606050416827202, -0.18738014996051788, -0.11550332605838776, -0.13988640904426575, 0.0870618149638176, -0.04147094115614891, -0.04541969671845436, 0.15543532371520996, -0.03736765682697296, -0.1840999722480774, 0.06075289845466614, -0.0909399688243866, 0.23820018768310547, 0.045992981642484665, 0.24645018577575684, 0.5210815668106079, 0.15083418786525726, -0.1949480175971985, -0.04351942986249924, -0.16573378443717957, 0.0023618731647729874, 0.35385429859161377, -0.1585509032011032, 0.026265468448400497, -0.13052824139595032, -0.005012504290789366, -0.02036757580935955, 0.35520800948143005, 0.31580668687820435, 0.01953062228858471, -0.05054362490773201, -0.10671355575323105, 0.12869158387184143, -0.6053938269615173, -0.06852148473262787, -0.03293567895889282, 0.3283602297306061, 0.07422011345624924, -0.17161209881305695, -0.06469955295324326, -0.10969724506139755, -0.28039175271987915, -0.0020850254222750664, 0.054923754185438156, 0.1800527572631836, 0.34642234444618225, 0.04246204346418381, 0.14855287969112396, -0.3717612624168396, 0.30728185176849365, -0.24845775961875916, 0.3000623881816864, 0.029206305742263794, 0.08936815708875656, -0.29840853810310364, 0.05681848153471947, -0.1048378050327301, 0.06977131217718124, -0.06531493365764618, 0.019803427159786224, -0.46257954835891724, 0.09804423898458481, -0.11129026114940643, 0.23830059170722961, 0.013423018157482147, -0.20125724375247955, 0.5714316964149475, 0.0747867077589035, 0.024015694856643677, 0.00881761685013771, -0.04369853809475899, -0.07988612353801727, 0.45628389716148376, 0.1961149424314499, -0.03162698447704315, 0.5084072351455688, -0.11129911243915558, 0.3319797217845917, 0.011479436419904232, -0.004605518653988838, -0.18176953494548798, 0.1888801008462906, -0.11480218172073364, 0.18334150314331055, -0.16302208602428436, -1.7157522961497307e-05, 0.0943768322467804, -0.3550485074520111, -0.20497891306877136, 0.22915785014629364, 0.12117642909288406, 0.11654765158891678, -0.20310048758983612, -0.07333346456289291, 0.13699620962142944, -0.3181779384613037, 0.31888091564178467, -0.008869360201060772, 0.11217465996742249, -0.12566068768501282, -0.0877218022942543, -0.06976594030857086, 0.15989448130130768, -0.15262506902217865, 0.030741635710000992, -0.05629873648285866, 0.10547652840614319, 0.11713597923517227, 0.40834304690361023, -0.15082058310508728, -0.1714399755001068, -0.21909289062023163, -0.4381997287273407, 0.21804554760456085, -0.19654282927513123, 0.06804369390010834, -0.14988620579242706, -0.20765194296836853, 0.10844847559928894, 0.05652434378862381, -0.4017503559589386, -0.11480972170829773, -0.22814568877220154, -0.09468945115804672, 0.12325548380613327, -0.02063724584877491, -0.04074762389063835, 0.02532190829515457, -0.044379424303770065, -0.1250779926776886, 0.033287741243839264, -0.042396608740091324, 0.2589343190193176, 0.04823596403002739, -0.14779694378376007, 0.30472108721733093, 0.017941094934940338, -0.33205941319465637, 0.12602505087852478, 0.016800740733742714, 0.0695066899061203, 0.03184344992041588, -0.1266307234764099, 0.11055998504161835, -0.1683163046836853, 0.16156670451164246, -0.22542116045951843, 0.17558300495147705, 0.0014510434120893478, 0.048232801258563995, -0.10145735740661621, -0.014073466882109642, -0.157268226146698, 0.2111055850982666, -0.06759874522686005, -0.07167333364486694, 0.09460113942623138, -0.04864498972892761, 0.08352555334568024, -0.07675167173147202, 0.2646278142929077, -0.0971154123544693, 0.2859021723270416, -0.24892614781856537, -0.008987639099359512, 0.1503879278898239, 0.18304002285003662, -0.16362294554710388, 0.17811094224452972, 0.0701659545302391, 0.34608227014541626, 0.20485296845436096, -0.13611993193626404, -0.016699669882655144, -0.2387850284576416, -0.03738496080040932, -0.14686881005764008, -0.09120512753725052, -0.04107138141989708, 0.21232189238071442, -0.07664690911769867, 0.07006344944238663, -0.10125630348920822, -0.08708076924085617, 0.08734864741563797, 0.03145921602845192, -0.19524991512298584, -0.06470492482185364, -0.34185823798179626, -0.12080343812704086, -0.12885767221450806, -0.23070500791072845, -0.018046028912067413, 0.08252774924039841, 0.15559974312782288, -0.1295255720615387, -0.039399825036525726, 0.11722991615533829, 0.2569313645362854, 0.10041117668151855, 0.1589619219303131, -0.1786668747663498, 0.018490759655833244, 0.612454891204834, 0.3221913278102875, 0.04211528226733208, 0.05266689881682396, -0.06212719529867172, -0.0016969847492873669, -0.023862402886152267, -0.23722109198570251, -0.11738254129886627, -0.48143792152404785, -0.41814810037612915, 0.29804110527038574, -0.0657343789935112, -0.1865359991788864, 0.151870459318161, 0.05166362226009369, -0.34969255328178406, -0.012536854483187199, 0.006771706510335207, 0.27869319915771484, 0.10445593297481537, -0.039685435593128204, -0.012339751236140728, -0.09682710468769073, -0.05293602496385574, 0.1522473245859146, 0.03724491596221924, 0.0010649802861735225, -0.061978619545698166, -0.07760478556156158, -0.23629209399223328, 0.02798006683588028, -0.10935734957456589, 0.06843437999486923, -0.010471153073012829, 0.10448458045721054, -0.11149447411298752, 0.16724303364753723, -0.3382972478866577, -0.212422713637352, 0.04358552768826485, -0.1362261176109314, 0.1714583933353424, -0.10340627282857895, -0.09969648718833923, -0.1877150982618332, -0.1668187528848648, 0.04295870661735535, 0.11772122979164124, -0.09618797898292542, 0.2171410471200943, 0.08258218318223953, -0.231882706284523, -0.022774232551455498, -0.06339053064584732, 0.24964174628257751, 0.04029933363199234, -0.12721092998981476, 0.12099260091781616, -0.20497830212116241, -0.06971003115177155, -0.09296640753746033, 0.01804717816412449, -0.1214979887008667, -0.18097327649593353, -0.3124212920665741, 0.1966528743505478, -0.015828313305974007, -0.13592062890529633, -0.052441492676734924, 0.044330306351184845, -0.02054181694984436, -0.18508568406105042, 0.04046779125928879, 0.12421256303787231, -0.07973466068506241, -0.11073292046785355, 0.2023555487394333, -0.08834309130907059, 0.10831059515476227, 0.268539160490036, 0.1727548986673355, -0.16467207670211792, -0.10521721094846725, 0.07143557816743851, -0.01965845748782158, -0.11267361789941788, -0.03722632676362991, 0.054970040917396545, -0.05461236089468002, 0.2273750901222229, 0.16124553978443146, -0.02395057864487171, -0.09748360514640808, 0.04509279504418373, 0.026287101209163666, -0.021070552989840508, 0.00986061617732048, 0.045978181064128876, -0.06919416785240173, -0.11227967590093613, 0.12336760759353638, -0.041581083089113235, -0.131786048412323, 0.18454164266586304, -0.1794455647468567, -0.056996624916791916, -0.029347602277994156, -0.05291865020990372, -0.20256729423999786, 0.09362837672233582, 0.1206023320555687, -0.04713902249932289, -0.332866907119751, 0.12181942164897919, -0.13046576082706451, -0.17730613052845, -0.1345563530921936, -0.0900467112660408, 0.03253340348601341, -0.022431636229157448, -0.12667769193649292, 0.10249272733926773, -0.0820089653134346, -0.17460639774799347, 0.31349343061447144, -0.2876104414463043, -0.01747415028512478, 0.19447222352027893, 0.24728861451148987, 0.04273136332631111, -0.08035740256309509, -0.2105884701013565, -0.09714920073747635, 0.18046113848686218, -0.08659005910158157, 0.08151982724666595, 0.24886737763881683, 0.3334391713142395, 0.09249945729970932, -0.1987464427947998, -0.37577471137046814, -0.019412918016314507, -0.046410493552684784, 0.06987624615430832, -0.06684810668230057, -0.2019692361354828, -0.1426636427640915, -0.1608242690563202, 0.2621768116950989, -0.03318548947572708, -0.03728945925831795, 0.16253727674484253, -0.07655640691518784, -0.0037521535996347666, 0.2429538518190384, -0.1121252253651619, -0.11104529350996017, 0.24074797332286835, 0.007863884791731834, -0.23042312264442444, 0.1787603795528412, 0.1112782210111618, 0.03740523383021355, -0.3058817982673645, 0.12352130562067032, -0.1439594328403473, 0.591312050819397, -0.026155678555369377, 0.10642116516828537, -0.4134664237499237, -0.11253009736537933, 0.08940626680850983, -0.10748609900474548, -0.04216993227601051, 0.22471047937870026, -0.15395282208919525, 0.1894926279783249, 0.06284505128860474, -0.07308115810155869, -0.05510411411523819, 0.1569031924009323, 0.3322873115539551, -0.1729726493358612, 0.3510942757129669, -0.28730034828186035, 0.04851420596241951, -0.2874351441860199, 0.10444942116737366, 0.021382492035627365, 0.04380979761481285, -0.001062521361745894, -0.09317667782306671, -0.10292630642652512, 0.2522890567779541, 0.14070509374141693, 0.087737075984478, -0.055322036147117615, 0.20921730995178223, 0.14716045558452606, -0.0759647935628891, -0.10002550482749939, 0.2534858286380768, -0.1243952140212059, 0.05203942954540253, 0.24918735027313232, -0.181742325425148, 0.005826300475746393, -0.20559893548488617, -0.5010104179382324, 0.14311480522155762, -0.28236252069473267, 0.07751103490591049, -0.26919806003570557, 0.02712538093328476, 0.055166635662317276, 0.06716983020305634, -0.1552729606628418, -0.163564532995224, 0.27363282442092896, 0.07066020369529724, 0.14924965798854828, 0.029077671468257904, -0.12945853173732758, 0.058272235095500946, -0.12851570546627045, 0.2106822282075882, 0.1268543154001236, -0.4133932590484619, -0.044438835233449936, 0.1006191074848175, 0.10838433355093002, -0.007164409849792719, -0.031285420060157776, 0.01426964346319437, 0.1787097156047821, -0.02688412182033062, 0.045138902962207794, -0.02761685475707054, -0.02146121673285961, -0.06199472025036812, -0.025854330509901047, 0.1138734444975853, 0.1649276614189148, 0.018623046576976776, 0.19149476289749146, 0.07256124168634415, -0.1338634192943573, -0.10995380580425262, 0.11108412593603134, -0.059858523309230804, 0.12048207223415375, 0.06406006217002869, -0.11523452401161194, -0.15796510875225067, 0.004601327236741781, -0.13193157315254211, 0.015879888087511063, -0.06775577366352081, 0.058085646480321884, 0.012225463055074215, 0.07537756115198135, 0.22923396527767181, 0.08210095018148422, 0.03129744902253151, -0.17482087016105652, -0.049151744693517685, 0.1975579708814621, 0.043290477246046066, 0.2031620889902115, -0.15154370665550232, -0.30295324325561523, 0.07088680565357208, -0.11149808019399643, -0.02331552840769291, -0.23984137177467346, 0.0910206288099289, -0.06991858780384064, -0.11732642352581024, -0.011881208047270775, -0.18515384197235107, -0.10914918780326843, 0.09349992871284485, 0.23354214429855347, 0.043560680001974106, 0.11549751460552216, -0.1498866230249405, 0.10720507800579071, -0.1757168024778366, -0.11936084181070328, 0.004644297994673252, 0.5023815631866455, 0.4262132942676544, 0.03696032613515854, -0.1438731700181961, 0.008719570934772491, -0.18141654133796692, 0.21855899691581726, 0.09682129323482513, -0.025349605828523636, 0.05580982565879822, -0.21450749039649963, 0.04391300305724144, -0.0716814324259758, -0.0833357721567154, -0.01913185603916645, -0.11629217118024826, 0.3080756366252899, -0.25763022899627686, 0.032496288418769836, 0.12883272767066956, 0.05472144857048988, 0.012630418874323368, 0.05943804234266281, 0.05483493581414223, -0.1073700413107872, 0.2850882411003113, -0.057075876742601395, -0.2686278522014618, 0.12507253885269165, 0.02195129171013832, 0.09465409815311432, 0.0702991783618927, 0.12603597342967987, 0.1524714082479477, -0.15251220762729645, -0.26336491107940674, -0.004838187247514725, 0.0989813506603241, 0.026196222752332687, 0.031235869973897934, -0.14234383404254913, 0.16888655722141266, -0.08184175193309784, 0.029895972460508347, -0.0774051621556282, -0.3227621614933014, 0.03993639722466469, 0.01153605431318283, 0.07480696588754654, 0.8069688677787781, -0.044013213366270065, -0.20649972558021545, 0.1645381897687912, 0.07640223205089569, -0.1644277274608612, 0.40284451842308044, -0.026007268577814102, 0.07702820748090744, 0.4131345748901367, -0.19622455537319183, 0.09676627814769745, 0.044756799936294556, 0.09559928625822067, -0.011893116869032383, -0.2348320037126541, 0.3830884099006653, 0.08621063828468323, 0.2175803780555725, 0.19014696776866913, -0.09765944629907608, 0.1354702264070511, 0.14273293316364288, -0.2187195122241974, 0.05580246448516846, 0.2712734341621399, -0.014373499900102615, 0.021766724064946175, -0.06008201837539673, -0.2652783989906311, 0.05320555344223976, -0.043530844151973724, 0.1353278011083603, -0.30408814549446106, -0.6334785223007202, 0.951893150806427, 0.2389456033706665, -0.4504445493221283, 0.07434219121932983, -0.22925841808319092, -0.02008606493473053, 0.6636071801185608, -0.7826506495475769, 1.149970293045044, 0.47558340430259705, 0.04630294442176819, -0.6051149964332581, 0.07986702024936676, -0.8138124346733093, 0.038157869130373, -0.23755300045013428, -0.040668223053216934, -0.3355485498905182, 0.1030711904168129, 0.23779010772705078, 0.24647922813892365, -0.05254943668842316, 0.36040881276130676, 0.05260101705789566, -0.03636447712779045, 0.15335863828659058, -0.31589508056640625, 0.05042703077197075, 0.04747842252254486, -0.31135672330856323, 0.30754294991493225, -0.16814757883548737, 0.10078880190849304, 0.02713019773364067, 0.2139759063720703, -0.3252735733985901, 0.12870490550994873, -0.33782950043678284, -0.13595163822174072, -0.029353206977248192, -0.14929325878620148, -0.24649125337600708, 0.013175331987440586, 0.5919442176818848, 0.2309165745973587, -0.1678656041622162, -0.02159678004682064, -0.2095782309770584, -0.19840070605278015, -0.3174750804901123, 0.4862452447414398, -0.28451836109161377, -0.3374701142311096, 0.014269065111875534, -0.3710882365703583, 0.37250444293022156, -0.04260965809226036, 0.6136636137962341, 0.34638553857803345, -0.38378363847732544, 0.07348079234361649, 0.38131237030029297, 0.14282535016536713, -0.15431109070777893, 0.2082097828388214, -0.09609530121088028, -0.4310113489627838, 0.2778944671154022, -0.11441551893949509, 0.16979363560676575, 0.25404393672943115, -0.0813191831111908, -0.12289813905954361, 0.26154837012290955, 0.09831562638282776, 0.5967146158218384, 0.11208389699459076, -0.36416056752204895, 0.1321020871400833, -0.3540487289428711, 0.37161919474601746, -0.1533498764038086, -0.037587765604257584, -0.37093597650527954, 0.27629464864730835, -0.11372421681880951, 0.3807072639465332, -0.24169456958770752, -0.08855707198381424, 0.08773843944072723, -0.38376355171203613, 0.20509639382362366, 0.336002379655838, -0.4598562717437744, -0.13665452599525452, -0.07005974650382996, -0.21181483566761017, -0.05650513991713524, -0.028385652229189873, -0.25197649002075195, -0.04666800796985626, 0.011398757807910442, -0.11021123081445694, -0.05193513631820679, 0.23069122433662415, 0.04012865200638771, -0.3001514971256256, 0.14019981026649475, 0.1967388391494751, 0.004955735523253679, -0.03510835021734238, 0.22985388338565826, -0.16432522237300873, -0.02841154858469963, 0.11332841217517853, -0.10755404829978943, 0.190047487616539, -0.12727540731430054, -0.08222148567438126, -0.02086217701435089, -0.06207551434636116, -0.13586005568504333, 0.050754208117723465, 0.19610197842121124, -0.05780203267931938, -0.04208165034651756, 0.3317577540874481, 0.05608208477497101, -0.17232736945152283, -0.11310970038175583, 0.1767711639404297, -0.2514040172100067, 0.0006360848783515394, -0.12027885019779205, -0.005928003694862127, 0.1352948546409607, -0.004792589694261551, 0.12222154438495636, 0.022722098976373672, 0.10104672610759735, 0.16421964764595032, -0.12936630845069885, -0.16993513703346252, 0.2836960256099701, -0.14451231062412262, 0.1537661999464035, 0.3210848867893219, 0.18430817127227783, -0.24951313436031342, 0.08782773464918137, -0.08278840035200119, 0.08086586743593216, -0.1280529648065567, 0.3410467207431793, -0.13724485039710999, 0.009013550356030464, -0.014685319736599922, 0.13218377530574799, 0.33172473311424255, -0.1686658263206482, -0.21391095221042633, 0.15892140567302704, 0.3059001564979553, 0.30973559617996216, -0.21016116440296173, -0.15418054163455963, -0.09845911711454391, 0.1304526925086975, 0.3786040246486664, -0.042491134256124496, -0.12530775368213654, 0.014029284007847309, 0.25209397077560425, 0.11047680675983429, 0.14129380881786346, -0.12666435539722443, -0.19151294231414795, -0.34961143136024475, 0.1255359798669815, -0.02169300802052021, 0.30894142389297485, -0.07674651592969894, 0.20953062176704407, 0.059162355959415436, -0.5564597249031067, 0.03192112222313881, 0.14579832553863525, -0.3832692801952362, 0.03944619745016098, 0.19719244539737701, -0.06677578389644623, -0.10182841867208481, -0.13664108514785767, -0.23645775020122528, -0.02478368766605854, 0.013681960292160511, 0.367928683757782, 0.0013587514404207468, 0.10567237436771393, -0.42746326327323914, -0.43394365906715393, 0.21299944818019867, -0.426240473985672, 0.1556544005870819, 0.05890606343746185, 0.12989278137683868, -0.25899067521095276, -0.2224959135055542, 0.07445622980594635, -0.06591624021530151, -0.23410631716251373, -0.12034139037132263, -0.29994240403175354, -0.13356907665729523, 0.04091627523303032, -0.10510405153036118, -0.16919586062431335, -0.19517311453819275, 0.06796799600124359, 0.0754738301038742, 0.08990085124969482, -0.2695442736148834, -0.1790008693933487, 0.09848600625991821, -0.1253306269645691, -0.17654554545879364, -0.11676212400197983, -0.6145303845405579, 0.25023072957992554, -0.25524720549583435, 0.14060568809509277, -0.12903940677642822, -0.0705709457397461, -0.08438961207866669, -0.13092078268527985, 0.14853566884994507, -0.19087950885295868, 0.08315970003604889, 0.13025833666324615, 0.040963638573884964, 0.1434771567583084, -0.03894452005624771, -0.09290029108524323, 0.24716399610042572, 0.17880520224571228, -0.2045237123966217, 0.20218050479888916, 0.42461100220680237, 0.5842944383621216, 0.15241333842277527, 0.07889978587627411, -0.058430224657058716, 0.1057647094130516, -0.2612305283546448, 0.03472760319709778, -0.2121049165725708, -0.05632738023996353, -0.055782120674848557, -0.31412699818611145, -0.14175648987293243, 0.075892873108387, -0.14366835355758667, 0.07757145911455154, 0.05898868292570114, 0.24741195142269135, 0.23255401849746704, -0.035922784358263016, -0.1113363727927208, -0.1851416528224945, -0.2937306761741638, 0.14342907071113586, 0.13915149867534637, 0.30599185824394226, 0.05552433058619499, 0.1981683075428009, 0.2691275179386139, 0.033975228667259216, 0.19166472554206848, -0.18203267455101013, -0.16190846264362335, 0.01813986524939537, -0.12303919345140457, 0.28120195865631104, 0.11307338625192642, 0.02084660530090332, 0.0907449796795845, -0.093349888920784, -0.1445217728614807, 0.1535675823688507, -0.15381044149398804, -0.17292018234729767, 0.31727370619773865, -0.2613275349140167, -0.40977248549461365, 0.08915754407644272, 0.16589826345443726, 0.04345441982150078, -0.09465717524290085, -0.04840859770774841, -0.15669144690036774, 0.05034717917442322, -0.02448006346821785, 0.037744197994470596, 0.13994763791561127, 0.22277280688285828, -0.028966819867491722, -0.18811140954494476, -0.2936559319496155, 0.04416859894990921, 0.16018638014793396, 0.13190773129463196, -0.158946692943573, -0.20201855897903442, -0.040537040680646896, 0.05965258181095123, 0.07344640046358109, -0.1031254455447197, -0.34472277760505676, 0.36393535137176514, 0.2561984360218048, -0.012090058997273445, -0.05994516611099243, -0.18964210152626038, -0.241164430975914, -0.039480093866586685, 0.10198841243982315, -0.0001657956454437226, -0.2639252245426178, -0.20655415952205658, -0.18999914824962616, 0.20022131502628326, -0.09718667715787888, -0.037820689380168915, 0.14691367745399475, -0.10444346070289612, 0.3230954706668854, -0.0895516574382782, -0.13028199970722198, -0.23486430943012238, -0.22105391323566437, -0.4502145051956177, -0.20993980765342712, -0.11423224210739136, -0.5181134343147278, 0.0613296814262867, 0.4273146688938141, -0.012007358483970165, 0.1866052746772766, 0.10309959948062897, 0.2093808352947235, -0.17326386272907257, -0.23927299678325653, -0.1465785950422287, 0.011349054053425789, 0.12640373408794403, 0.1398962289094925, 0.08753269165754318, -0.21899886429309845, -0.0959693118929863, -0.03598538786172867, 0.06536973267793655, -0.09624046832323074, 0.22124789655208588, 0.17717288434505463, -0.5257002711296082, 0.15163837373256683, 0.004494868218898773, -0.07645048946142197, -0.09928909689188004, 0.23352991044521332, -0.17300894856452942, -0.43321898579597473, -0.194570392370224, 0.008823257870972157, -0.1624184399843216, -0.051485590636730194, -0.2962454855442047, 0.10350581258535385, -0.02298196405172348, -0.03847910091280937, 0.20848248898983002, -0.18521848320960999, -0.04675165191292763, -0.11862757056951523, 0.02873808704316616, -0.06861992925405502, 0.1459127515554428, -0.13867062330245972, 0.10716494917869568, -0.2846567928791046, 0.43738827109336853, -0.17415469884872437, -0.00863673910498619, 0.07928261160850525, 0.13275344669818878, -0.005131519865244627, -0.20081304013729095, 0.03604862093925476, -0.13433045148849487, -0.011140798218548298, -0.025788065046072006, 0.12007441371679306, 0.03301676735281944, 0.12386048585176468, -0.029243886470794678, 0.022666051983833313, -0.08728144317865372, 0.052427563816308975, 0.20448336005210876, 0.21403636038303375, 0.12360107153654099, -0.051584456115961075, 0.0880710631608963, -0.16000477969646454, 0.13492558896541595, -0.1999579221010208, -0.08354197442531586, 0.035778146237134933, -0.3468222916126251, -0.08654157817363739, 0.17650765180587769, -0.30315136909484863, 0.02131122536957264, 0.1681370884180069, 0.26077109575271606, -0.10643810033798218, -0.056608106940984726, 0.014196716248989105, 0.07571543008089066, -0.08770216256380081, -0.14565080404281616, 0.26444849371910095, 0.0027996054850518703, 0.16250431537628174, 0.2362188696861267, 0.10430634766817093, -0.1238173320889473, 0.18684972822666168, 0.31177574396133423, -0.006158095318824053, -0.10186825692653656, -0.2389228790998459, -0.029357483610510826, 0.22837483882904053, -0.06949561834335327, -0.1572411209344864, 0.00986307393759489, -0.03029829077422619, 0.21611113846302032, -0.06334168463945389, 0.030754005536437035, -0.08494653552770615, 0.1258651316165924, 0.12935280799865723, 0.15302148461341858, -0.21072232723236084, -0.11251305043697357, -0.18208616971969604, -0.14391131699085236, 0.07636010646820068, -0.07125305384397507, 0.4349554777145386, 0.09204242378473282, 0.17956840991973877, 0.21598443388938904, 0.13532418012619019, 0.03484329581260681, -0.11084931343793869, -0.3571033179759979, 0.18620269000530243, 0.09719420224428177, -0.19366955757141113, -0.29150745272636414, 0.1731269210577011, -0.0331457257270813, -0.2512223720550537, 0.1811942756175995, -0.011855408549308777, 0.1143636405467987, -0.11980978399515152, -0.17021909356117249, -0.18295633792877197, -0.0043946001678705215, 0.23558253049850464, -0.20744572579860687, -0.030347535386681557, -0.30224406719207764, -0.01954834721982479, 0.07409712672233582, -0.11159485578536987, 0.08458209782838821, -0.16157442331314087, -0.08166339248418808, -0.27122604846954346, -0.0667562261223793, 0.2767324149608612, -0.09506043791770935, -0.0025801989249885082, 0.00828903540968895, 0.16291242837905884, -0.0009207182447426021, -0.018394939601421356, -0.21152232587337494, 0.09706203639507294, -0.16399933397769928, 0.021129805594682693, -0.11767318099737167, 0.06275714188814163, 0.1237872838973999, 0.08363408595323563, -0.10897374898195267, -0.1310836523771286, -0.040718141943216324, -0.03268922492861748, -0.2025490552186966, 0.20123988389968872, 0.09423693269491196, -0.1392706334590912, 0.023699508979916573, 0.012452654540538788, 0.06019847095012665, -0.12175477296113968, -0.028794284909963608, 0.10693510621786118, -0.19864988327026367, -0.05109259858727455, 0.16573145985603333, -0.042602214962244034, -0.09948879480361938, 0.4454389810562134, 0.29470959305763245, 0.07648056745529175, 0.40707048773765564, -0.08542389422655106, -0.07765202969312668, 0.07266620546579361, 0.20215079188346863, -0.10069092363119125, 0.2594152092933655, -0.14363451302051544, -0.20365004241466522, 0.0694376528263092, -0.2551896274089813, 0.14022982120513916, -0.13825127482414246, 0.06248578429222107, 0.0583052821457386, 0.11218602955341339, -0.06972672045230865, -0.14438354969024658, -0.27763766050338745, 0.0664171501994133, -0.04758810997009277, 0.06080297753214836, 0.09956474602222443, -0.24206125736236572, -0.007047303952276707, -0.02892441302537918, -0.24636554718017578, -0.01172698475420475, 0.0846613198518753, 0.15969732403755188, 0.15262660384178162, 0.02191169373691082, -0.08686669915914536, -0.1893400251865387, 0.02011321671307087, 0.04120700806379318, 0.1187131330370903, 0.08443587273359299, -0.2846209406852722, 0.1727026104927063, 0.059385739266872406, -0.07377400994300842, -0.04494144767522812, -0.011940510012209415, -0.010135237127542496, -0.004989920649677515, -0.09331688284873962, 0.029303276911377907, -0.052603837102651596, 0.14598548412322998, 0.1906341165304184, -0.07806627452373505, 0.027348589152097702, -0.1680329442024231, -0.09703882038593292, 0.04589608311653137, 0.10864907503128052, -0.31016573309898376, -0.16061966121196747, 0.08379200845956802, -0.04801260307431221, -0.09416043758392334, -0.22312453389167786, 0.00639079324901104, -0.12233167141675949, -0.046954404562711716, -0.014272008091211319, 0.2550821602344513, -0.0399327278137207, -0.10593133419752121, -0.04730014130473137, 0.26049065589904785, 0.14212070405483246, -0.022573595866560936, 0.20596441626548767, 0.18767094612121582, 0.06104789674282074, -0.15664128959178925, 0.1889827996492386, -0.10928951948881149, 0.012901452369987965, 0.22774840891361237, 0.09294770658016205, -0.3142072558403015, -0.21310603618621826, 0.29744353890419006, 0.32378295063972473, -0.09047014266252518, -0.09149471670389175, -0.03920607641339302, -0.058297570794820786, 0.11661768704652786, -0.017155835404992104, 0.23102185130119324, 0.07600157707929611, 0.4053606688976288, -0.3010093569755554, -0.12994089722633362, 0.022528722882270813, 0.06103554368019104, 0.09930314868688583, -0.22852642834186554, -0.1621910035610199, 0.21906636655330658, 0.06773713231086731, -0.05287120118737221, 0.023077115416526794, -0.06047295406460762, 0.10112383961677551, -0.3285839557647705, -0.018955225124955177, -0.1393381655216217, 0.17590785026550293, -0.06403397768735886, 0.20300942659378052, -0.10262344032526016, 0.048484109342098236, 0.08836302906274796, -0.020712796598672867, 0.02885267324745655, -0.06346631795167923, 0.10355786979198456, -0.12005526572465897, 0.20662283897399902, -0.23711442947387695, 0.2257898896932602, 0.06381352245807648, 0.0833091288805008, 0.04705333337187767, 0.19134478271007538, -0.2787556052207947, -0.0656716525554657, -0.2121066451072693, -0.028325561434030533, 0.013407138176262379, -0.19132903218269348, 0.061465851962566376, 0.051351819187402725, -0.07278350740671158, 0.18727904558181763, 0.13069546222686768, 0.1847379058599472, 0.036549247801303864, 0.012276951223611832, -0.10725580155849457, -0.0872240960597992, 0.1058579608798027, -0.36809295415878296, -0.23028627038002014, -0.05583914741873741, -0.11479701101779938, 0.07315218448638916, 0.014551466330885887, -0.056886203587055206, -0.06131251901388168, 0.08095237612724304, -0.03696778789162636, -0.2233755737543106, -0.10934007912874222, 0.08813604712486267, 0.0555541068315506, -0.05628444626927376, -0.14318500459194183, -0.2624947428703308, -0.08811020851135254, 0.4838355779647827, 0.36978745460510254, -0.06706385314464569, 0.10617523640394211, 0.2553393542766571, -0.0318119078874588, 0.06296798586845398, -0.31783685088157654, 0.35360416769981384, 0.13771113753318787, 0.11438062787055969, -0.24450673162937164, 0.10491469502449036, 0.0669473335146904, 0.04354614391922951, 0.001211911323480308, 0.04333805665373802, -0.17548666894435883, 0.0790671780705452, 0.035544849932193756, 0.16175909340381622, -0.3727511167526245, -0.044607214629650116, 0.1423969268798828, 0.12082825601100922, -0.26786431670188904, 0.16619481146335602, 0.06689167022705078, -0.06891700625419617, 0.05974707379937172, 0.3655441701412201, -0.08207329362630844, -0.06937722116708755, -0.14953148365020752, -0.00300306617282331, 0.2814551591873169, -0.13949894905090332, 0.16342350840568542, 0.05127182975411415, 0.2459663599729538, 0.02934136614203453, 0.0512828603386879, -0.23025792837142944, -0.0008271643309853971, 0.2561827600002289, 0.28183120489120483, 0.06907564401626587, -0.16081473231315613, -0.36299657821655273, -0.1749695986509323, -0.02352701500058174, -0.1062791645526886, -0.08912985026836395, 0.12258121371269226, 0.11428952217102051, -0.2013617604970932, -0.24196115136146545, 0.08382540196180344, -0.002319646766409278, 0.07898726314306259, 0.19883349537849426, 0.2687698304653168, -0.07022456079721451, -0.10011624544858932, -0.015398642048239708, 0.09035590291023254, -0.16232170164585114, -0.08244461566209793, 0.32398754358291626, -0.06764023751020432, -0.15684591233730316, 0.22263304889202118, 0.19809909164905548, 0.08935141563415527, -0.06231360137462616, -0.0017295650904998183, -0.020934585481882095, 0.11525284498929977, -0.08460946381092072, 0.13822555541992188, -0.139970064163208, -0.15921668708324432, -0.11390384286642075, 0.07398281991481781, 0.24001961946487427, 0.122000552713871, -0.029205910861492157, 0.18370959162712097, 0.12648729979991913, -0.1979682445526123, -0.1368841975927353, 0.012854944914579391, 0.18832986056804657, 0.13606150448322296, 0.12052898854017258, 0.0013164845295250416, -0.23655767738819122, -0.04154832288622856, 0.059867292642593384, 0.010169461369514465, 0.11852262914180756, 0.12761718034744263, -0.12119822949171066, -0.10008794814348221, -0.29513952136039734, 0.3877966105937958, -0.13229481875896454, -0.12741653621196747, 0.09852661192417145, 0.011979194357991219, -0.08129612356424332, -0.10918852686882019, 0.20934376120567322, 0.32098713517189026, -0.09946439415216446, 0.038423094898462296, 0.21225088834762573, -0.2523769736289978, -0.19543850421905518, 0.2455272525548935, 0.12303104996681213, -0.16454319655895233, 0.13026924431324005, 0.3770143389701843, -0.094551682472229, -0.15505388379096985, 0.2284565269947052, -0.23434491455554962, -0.25017067790031433, -0.24365079402923584, -0.27689632773399353, 0.35728153586387634, -0.1615818440914154, -0.18155722320079803, 0.14120794832706451, 0.163177028298378, 0.039746493101119995, -0.33016422390937805, -0.13872282207012177, -0.13297626376152039, 0.3860560655593872, 0.10507838428020477, -0.015449607744812965, -0.24444462358951569, -0.17667143046855927, 0.04404747486114502, 0.21432052552700043, 0.2169663906097412, -0.4748011827468872, 0.35535287857055664, 0.2953883111476898, -0.18348436057567596, -0.11057059466838837, 0.24218930304050446, -0.11620905250310898, -0.1031699851155281, 0.21399235725402832, 0.04577537626028061, -0.022202806547284126, -0.1811833381652832, -0.3552069067955017, 0.15901809930801392, -0.09821932017803192, -0.20624108612537384, 0.3503367006778717, 0.10855068266391754, 0.03471386432647705, -0.14547809958457947, 0.08783825486898422, 0.016005901619791985, -0.03421946242451668, 0.5217825770378113, -0.13390277326107025, -0.3809627294540405, -0.4057082235813141, -0.17191888391971588, -0.16038522124290466, 0.0603066124022007, 0.08079247921705246, -0.1358717381954193, 0.20865978300571442, -0.1653662472963333, -0.18201987445354462, -0.20701093971729279, 0.04756883159279823, -0.06544192135334015, 0.17516586184501648, 0.03605033829808235, -0.017460482195019722, -0.17472286522388458, 0.09215597808361053, -0.07905954867601395, 0.05888337269425392, 0.13937583565711975, -0.021080927923321724, 0.06891404092311859, 0.10972993075847626, -0.1831890195608139, -0.1531776338815689, 0.07140597701072693, 0.28523388504981995, 0.2803359627723694, -0.0025696526281535625, -0.14591412246227264, 0.11403151601552963, 0.07868755608797073, 0.1046392172574997, -0.023008139804005623, -0.04196188971400261, -0.07812541723251343, 0.15088866651058197, 0.002457399619743228, -0.14977043867111206, 0.19603978097438812, -0.02798551693558693, 0.07233257591724396, -0.06097273528575897, 0.30760452151298523, 0.39625632762908936, -0.05332009494304657, -0.012540916912257671, -0.12430830299854279, -0.047683075070381165, 0.04666423052549362, 0.5191322565078735, 0.2031106799840927, -0.007052846718579531, 0.10647979378700256, -0.0401848703622818, -0.1847946047782898, 0.09391679614782333, -0.23340924084186554, 0.1252814680337906, 0.30234384536743164, 0.03206397220492363, -0.052816711366176605, -0.19430868327617645, -0.16844229400157928, 0.10195735096931458, 0.18681593239307404, 0.12058864533901215, 0.09429655224084854, -0.020115654915571213, -0.0742299035191536, 0.11023490130901337, 0.07545123249292374, -0.0525122806429863, 0.2717114984989166, 0.27165481448173523, -0.46231263875961304, -0.18796512484550476, 0.29519814252853394, -0.263923704624176, 0.04157976061105728, 0.4398503303527832, 0.1070803850889206, 0.030137518420815468, -0.029263125732541084, 0.13821183145046234, 0.03336717560887337, -0.05568166822195053, -0.0028745566960424185, 0.04614950716495514, 0.1105956956744194, -0.4092062711715698, -0.07032041996717453, 0.2530847191810608, -0.46551045775413513, -0.16535504162311554, -0.04732874408364296, -0.2691112160682678, 0.030096430331468582, 0.041671402752399445, -0.14934571087360382, -0.07083040475845337, -0.09137880802154541, 0.08390308171510696, -0.20021821558475494, 0.0348072350025177, -0.17953836917877197, -0.16405460238456726, 0.1578770875930786, -0.001524341874755919, -0.06547082215547562, 0.0430329367518425, -0.22832439839839935, 0.12154429405927658, 0.11152590811252594, 0.11146333068609238, 0.22395481169223785, -0.13823150098323822, -0.26353976130485535, 0.0036896367091685534, 0.14932255446910858, -0.16735956072807312, 0.1691332310438156, -0.07911430299282074, -0.3100125193595886, -0.08170103281736374, 0.11270224303007126, -0.38192614912986755, -0.02458859421312809, 0.31104403734207153, -0.054938074201345444, 0.07494806498289108, -0.13268855214118958, 0.06703934073448181, -0.08909895271062851, -0.09473538398742676, -0.22090215981006622, 0.3265122175216675, 0.05794740840792656, -0.31075215339660645, 0.2191901057958603, -0.06979961693286896, -0.6987211108207703, -0.2687515616416931, -0.0778585821390152, 0.12448716163635254, -0.11209707707166672, 0.09620095789432526, -0.16296295821666718, 0.31391674280166626, 0.043292611837387085, -0.03376802057027817, 0.020645026117563248, -0.14461906254291534, 0.2424832135438919, -0.1832807958126068, -0.09434562921524048, -0.16233877837657928, 0.3241007924079895, -0.18652547895908356, 0.17082208395004272, -0.3048797845840454, 0.0852239578962326, -0.20017258822917938, -0.09477031230926514, 0.23547306656837463, -0.27544665336608887, 0.36447644233703613, -0.16524909436702728, 0.2605452835559845, -0.26484617590904236, 0.1753493845462799, 0.17006643116474152, 0.17157122492790222, -0.19656501710414886, 0.21060699224472046, 0.04439814016222954, -0.21470493078231812, -0.3160746693611145, 0.043266043066978455, -0.010129538364708424, -0.16138717532157898, 0.19890442490577698, 0.0812419205904007, -0.0066266292706131935, -0.10452033579349518, 0.07823611050844193, -0.06681221723556519, 0.06268750131130219, 0.1541329175233841, -0.01901421882212162, -0.09913218766450882, 0.02920501120388508, 0.2232411503791809, 0.23158352077007294, -0.09978161007165909, 0.04136611148715019, 0.04839715361595154, -0.0004537282220553607, 0.06611236184835434, 0.6281031966209412, 0.1929119974374771, 0.28337937593460083, -0.9291815757751465, -0.4253278374671936, 0.1223699152469635, 0.23386359214782715, -0.032567959278821945, 0.38472676277160645, 0.4499334394931793, -0.9438912272453308, 0.5026901364326477, -0.06000260263681412, -0.971280038356781, 0.08010416477918625, -0.21100646257400513, -0.03421429172158241, -0.061994682997465134, 0.2022635042667389, -0.2970719635486603, 0.17527274787425995, 0.3548504114151001, 0.06446858495473862, -0.2331714928150177, -0.2332584112882614, 0.12448689341545105, -0.09063143283128738, 0.2353556603193283, 0.07815580815076828, -0.013233187608420849, 0.08519786596298218, -0.14740067720413208, -0.02120836451649666, -0.18128132820129395, 0.20323872566223145, -0.40206336975097656, 0.414425253868103, -0.03558587282896042, -0.13099084794521332, -0.3917537331581116, -0.06324466317892075, 0.05629609525203705, -0.2856612503528595, 0.5211541652679443, 0.45390018820762634, 0.09966351836919785, 0.057743657380342484, 0.01996549777686596, -0.048131924122571945, 0.2075037807226181, -0.1987791359424591, -0.3051605522632599, 0.20137055218219757, -0.2784547507762909, -0.3779076635837555, 0.020939340814948082, 0.1839613914489746, -0.25259682536125183, -0.3050179183483124, -0.3723559081554413, 0.3203330636024475, 0.0318184569478035, -0.3224860429763794, 0.29609352350234985, -0.2994388937950134, -0.16510017216205597, -0.30199792981147766, 0.4009844958782196, 0.08002479374408722, 0.019995423033833504, 0.355890154838562, -0.08829312026500702, -0.3642634451389313, -0.21131539344787598, 0.08079896122217178, -0.40411534905433655, 0.07263597100973129, 0.27906307578086853, 0.012405228801071644, -0.27066096663475037, 0.36026617884635925, -0.09263069927692413, -0.10239047557115555, 0.17925547063350677, 0.026257919147610664, -0.1195114254951477, -0.05487874150276184, -0.07695237547159195, 0.09946146607398987, 0.36168912053108215, 0.15161140263080597, 0.4402109980583191, -0.1058841273188591, -0.20187632739543915, -0.11126841604709625, -0.12298647314310074, -0.06028858944773674, 0.3074010908603668, 0.21240505576133728, 0.1316162496805191, -0.22677814960479736, 0.13239359855651855, -0.18867576122283936, 0.1950226128101349, 0.1287267804145813, 0.03676401078701019, -0.3293307423591614, 0.18761445581912994, 0.07256022840738297, -0.05861184000968933, -0.3311067223548889, -0.09275016188621521, -0.05961238220334053, -0.1516442596912384, -0.3685026168823242, 0.18418698012828827, -0.41885414719581604, -0.31007829308509827, 0.6242258548736572, 0.04862234741449356, -0.26428210735321045, 0.022132594138383865, 0.27557891607284546, -0.03836347162723541, -0.3297211229801178, -0.05283742398023605, 0.13550743460655212, -0.11138450354337692, 0.03423161059617996, 0.10633095353841782, -0.22430287301540375, 0.22444821894168854, 0.15486614406108856, -0.22041422128677368, 0.004089194815605879, 0.3920808732509613, -0.029045410454273224, 0.11005830764770508, 0.14504438638687134, 0.16147445142269135, -0.11032488197088242, -0.06040246784687042, -0.022346042096614838, 0.14006604254245758, 0.018579525873064995, 0.16046521067619324, 0.13588666915893555, -0.3981248736381531, 0.18319003283977509, 0.11275831609964371, -0.1724422127008438, -0.2304353415966034, 0.058505117893218994, -0.2798584997653961, -0.30632954835891724, -0.31373926997184753, 0.36798587441444397, 0.23493990302085876, -0.06301566958427429, -0.12398871779441833, 0.06485673785209656, 0.03981940075755119, 0.15406931936740875, 0.07359948009252548, 0.030484486371278763, 0.12490813434123993, 0.00956727098673582, 0.13606739044189453, -0.226515993475914, -0.10681983083486557, 0.03935009613633156, -0.12117519229650497, 0.4053296744823456, -0.20538678765296936, 0.062218837440013885, 0.15801991522312164, -0.2351761907339096, 0.19022300839424133, 0.25054869055747986, -0.2633161246776581, 0.27692335844039917, 0.17245152592658997, -0.2924203872680664, -0.5153279900550842, 0.4093145430088043, -0.06558676064014435, -0.32444190979003906, 0.0360211618244648, 0.17869898676872253, 0.08684154599905014, 0.1672985702753067, -0.07030710577964783, -0.05240025743842125, 0.14260424673557281, -0.04716227948665619, -0.22178921103477478, -0.02188308909535408, -0.11245749890804291, 0.02549445442855358, -0.03305825963616371, -0.1299312263727188, 0.10361862182617188, 0.3464556038379669, 0.389801025390625, -0.25031211972236633, 0.24809075891971588, 0.06649567186832428, -0.19564394652843475, 0.07793772965669632, 0.35669440031051636, 0.04680132493376732, 0.35580259561538696, -0.2982909083366394, -0.06938259303569794, -0.20969563722610474, 0.04025936871767044, 0.15623866021633148, -0.020099658519029617, -0.3256862461566925, -0.33101245760917664, -0.1935339868068695, 0.18719908595085144, -0.07044167816638947, -0.20954269170761108, -0.05926629155874252, 0.16158568859100342, -0.046682361513376236, 0.4402150511741638, -0.12733349204063416, -0.026706362143158913, -0.03119925782084465, -0.15134668350219727, 0.08773774653673172, 0.437801331281662, 0.15023140609264374, 0.16890421509742737, -0.24187226593494415, -0.31059730052948, -0.1126454547047615, 0.13830919563770294, 0.10281049460172653, -0.24804307520389557, -0.1274983435869217, 0.073484867811203, 0.03391256928443909, -0.02255331724882126, 0.045692604035139084, 0.06441164761781693, -0.06649541109800339, 0.10514603555202484, -0.1490461677312851, 0.0402582623064518, 0.08151239156723022, 0.04713122174143791, 0.08556441962718964, -0.1072707548737526, 0.039169881492853165, 0.02365988679230213, -0.3638659715652466, -0.09358834475278854, -0.19695644080638885, -0.07703319191932678, 0.28626248240470886, -0.04278567060828209, -0.41807687282562256, 0.04459080100059509, -0.03056059032678604, -0.0041421023197472095, 0.06786713004112244, -0.019628459587693214, 0.25525233149528503, -0.16718432307243347, -0.1773565262556076, 0.08331768959760666, 0.1749059110879898, -0.08807288855314255, 0.07194723933935165, 0.20185516774654388, -0.08255680650472641, 0.18646109104156494, -0.17099590599536896, 0.022614192217588425, 0.05900474637746811, -0.06921268999576569, 0.13257062435150146, -0.06407438218593597, -0.15409742295742035, 0.007239824160933495, 0.14180584251880646, 0.021442171186208725, -0.05462775379419327, -0.11070913821458817, -0.017593342810869217, -0.06080710142850876, 0.203746035695076, 0.22665269672870636, -0.12621982395648956, -0.0278860442340374, -0.009924333542585373, 0.40107011795043945, 0.06632774323225021, 0.038858335465192795, -0.5090098977088928, 0.23966696858406067, 0.0466589629650116, -0.11199409514665604, -0.08782926201820374, -0.08533572405576706, 0.23084592819213867, 0.323299765586853, 0.1884288489818573, -0.4344654083251953, -0.11213428527116776, -0.14922195672988892, 0.5438572764396667, 0.08580130338668823, 0.044760484248399734, -0.059996843338012695, 0.3248242735862732, 0.133686363697052, 0.029767639935016632, -0.0793817862868309, -0.06776586174964905, 0.06283234804868698, 0.21671004593372345, 0.1046375259757042, 0.19699344038963318, -0.2479739487171173, -0.18674203753471375, -0.1692306101322174, 0.14915624260902405, -0.047243230044841766, -0.2813836336135864, 0.08644235134124756, 0.15567992627620697, -0.2629171907901764, -0.017295964062213898, -0.3441690504550934, 0.36756280064582825, 0.11532623320817947, 0.36439043283462524, -0.054447125643491745, -0.07827714085578918, 0.17020617425441742, 0.0853879451751709, -0.04554292559623718, 0.07458601146936417, -0.2179810255765915, 0.13168877363204956, 0.1708013415336609, 0.06160902604460716, 0.18166707456111908, -0.04748556762933731, 0.0849466547369957, -0.16435635089874268, 0.2323720008134842, -0.0007396936416625977, -0.08029814064502716, -0.18463659286499023, -0.0021084246691316366, 0.059007033705711365, 0.3616322875022888, 0.15000282227993011, 0.21337787806987762, 0.053340885788202286, -0.06958525627851486, 0.11551877111196518, -0.08458767831325531, 0.22849041223526, -0.2628255784511566, 0.16923438012599945, -0.23272772133350372, -0.11865997314453125, -0.224075049161911, 0.15444578230381012, -0.12625744938850403, 0.10737692564725876, -0.03683467581868172, 0.019097842276096344, 0.08519953489303589, -0.16793763637542725, 0.11405239999294281, -0.20332159101963043, 0.04063092917203903, 0.10323440283536911, -0.1543896198272705, -0.028338752686977386, -0.04782654717564583, 0.040326494723558426, -0.21000808477401733, 0.1655387133359909, 0.03686170652508736, 0.12533608078956604, -0.17205648124217987, -0.01998971402645111, -0.04032403603196144, 0.02185760624706745, -0.1337684541940689, -0.40556761622428894, 0.1339113712310791, 0.2827490568161011, -0.03637849912047386, -0.2123601883649826, -0.15333326160907745, 0.07127898186445236, 0.12657760083675385, 0.04607798531651497, -0.28978267312049866, -0.03570537641644478, -0.10727880150079727, 0.38104796409606934, 0.14733794331550598, -0.16057193279266357, -0.04837225005030632, 0.3337272107601166, 0.01698223128914833, 0.12178835272789001, -0.2431396245956421, 0.0481841005384922, 0.16869941353797913, 0.1555705964565277, 0.029421024024486542, 0.008736805059015751, -0.0659308135509491, -0.01391239371150732, 0.11821160465478897, 0.22936950623989105, 0.03654901310801506, -0.16506819427013397, 0.22186803817749023, -0.13017140328884125, -0.32266107201576233, 0.09222100675106049, -0.07237987220287323, -0.004704807419329882, -0.072734534740448, -0.10346584022045135, -0.030651746317744255, -0.05450248345732689, 0.2548215389251709, -0.002097992692142725, -0.013840089552104473, -0.1281900554895401, 0.22033929824829102, 0.0784292221069336, 0.028801895678043365, -0.21363402903079987, -0.1507309228181839, 0.1048889309167862, 0.042027417570352554, 0.05071845278143883, -0.1855994164943695, 0.24539536237716675, 0.23330189287662506, 0.11218754947185516, -0.31649765372276306, -0.18665474653244019, -0.0934755802154541, 0.34305983781814575, -0.08087006211280823, 0.28469252586364746, -0.10531459003686905, 0.06182054057717323, 0.007266080006957054, -0.014693077653646469, -0.34586673974990845, -0.2532970905303955, 0.022560134530067444, -0.03318361937999725, 0.02411453053355217, 0.04063886031508446, -0.0010507437400519848, -0.10856624692678452, -0.02992130070924759, 0.08093401789665222, 0.10671669244766235, -0.23466013371944427, 0.13836844265460968, 0.1240486353635788, -0.22419728338718414, 0.0581682063639164, -0.1341748833656311, 0.07455533742904663, 0.33192208409309387, 0.24160094559192657, -0.014098182320594788, 0.17015069723129272, 0.15974794328212738, 0.11001626402139664, -0.16132210195064545, 0.11504703760147095, 0.1874089241027832, 0.05814630538225174, 0.05663568899035454, 0.1311855912208557, 0.29737913608551025, -0.0511348582804203, -0.478754460811615, 0.17787937819957733, 0.11233596503734589, -0.018650872632861137, 0.09391658008098602, 0.0287166777998209, -0.0004535879706963897, 0.053920645266771317, 0.14694757759571075, 0.2704007625579834, 0.13687455654144287, -0.10249102115631104, 0.21911321580410004, -0.2984316349029541, -0.13862484693527222, 0.02001200057566166, -0.06170932203531265, 0.04510648921132088, 0.12479790300130844, -0.03282003104686737, 0.06516758352518082, -0.0756247416138649, -0.006210413295775652, 0.0286563690751791, -0.2412785142660141, -0.24255667626857758, -0.17318469285964966, 0.12513655424118042, -0.06905339658260345, -0.07842757552862167, 0.06372536718845367, -0.20044659078121185, -0.013289038091897964, 0.4342154860496521, 0.0124294962733984, 0.021356459707021713, -0.18329201638698578, -0.21976882219314575, 0.12943504750728607, -0.13930098712444305, -0.0144737483933568, -0.0837775468826294, -0.04490254819393158, -0.15567170083522797, -0.1728580892086029, -0.02878175675868988, -0.2513934373855591, -0.10835149884223938, -0.22509485483169556, 0.20818978548049927, -0.046327512711286545, -0.30751195549964905, -0.2641017436981201, 0.0025301219429820776, 0.16945780813694, 0.03257447108626366, -0.0486912839114666, -0.2604813873767853, -0.20465637743473053, 0.016822651028633118, 0.08451681584119797, -0.09603513032197952, 0.1304577887058258, -0.04382629692554474, 0.1468607485294342, 0.19360266625881195, -0.2769993841648102, -0.06344757229089737, 0.003979082219302654, -0.38491880893707275, 0.23553787171840668, 0.07220230251550674, -0.3461151421070099, -0.06266618520021439, 0.14075365662574768, -0.07466565817594528, -0.08456110954284668, -0.12871287763118744, 0.39398080110549927, -0.14685221016407013, -0.09849920123815536, 0.07474227249622345, -0.08777260035276413, 0.004357785452157259, 0.15026654303073883, -0.12339837849140167, -0.1346353441476822, 0.23251836001873016, 0.07857245206832886, 0.007221979554742575, -0.04259061440825462, 0.06042424961924553, 0.09000527858734131, -0.03346459940075874, -0.0393851213157177, -0.059502147138118744, 0.10051514208316803, 0.07402871549129486, 0.0765119343996048, -0.1429673582315445, -0.1748839020729065, -0.1830013543367386, 0.047622669488191605, -0.11856591701507568, -0.025944391265511513, 0.021700946614146233, -0.11822472512722015, 0.15215441584587097, -0.11603544652462006, -0.10375869274139404, 0.14367659389972687, 0.2630957067012787, 0.024701552465558052, -0.015389260835945606, 