{"version": "0.5.3", "metadata": {"date": {"year": 2024, "month": 10, "day": 1, "hour": 3, "minute": 28, "second": 22}, "loudness": -13.905607223510742, "gain": 0.8195010494751195, "training": {"settings": {"fit_cab": false, "ignore_checks": false}, "data": {"latency": {"manual": null, "calibration": {"algorithm_version": 1, "delays": [136, 136], "safety_factor": 4, "recommended": 132, "warnings": {"matches_lookahead": false, "disagreement_too_high": false}}}, "checks": {"version": 3, "passed": true}}, "validation_esr": 0.013430054693194455}}, "architecture": "WaveNet", "config": {"layers": [{"input_size": 1, "condition_size": 1, "head_size": 8, "channels": 16, "kernel_size": 3, "dilations": [1, 2, 4, 8, 16, 32, 64, 128, 256, 512], "activation": "Tanh", "gated": false, "head_bias": false}, {"input_size": 16, "condition_size": 1, "head_size": 1, "channels": 8, "kernel_size": 3, "dilations": [1, 2, 4, 8, 16, 32, 64, 128, 256, 512], "activation": "Tanh", "gated": false, "head_bias": true}], "head": null, "head_scale": 0.02}, "weights": [-0.09965996444225311, 0.6234913468360901, -0.9594489932060242, -0.8956266641616821, -0.46018093824386597, 0.3788435459136963, -0.10791299492120743, 0.9255152344703674, -0.17736691236495972, 0.2663924992084503, -0.5034355521202087, -0.34801265597343445, -1.0234407186508179, -0.7142866253852844, -0.5823989510536194, 0.3372513949871063, 0.15965072810649872, 0.2493971586227417, -0.4845510721206665, -0.18120060861110687, -0.049514468759298325, 0.4963229298591614, 0.09107255190610886, 0.20940746366977692, -0.4037829041481018, 0.13589081168174744, 0.23193486034870148, -0.5148035883903503, 0.03153981268405914, 0.07534844428300858, -0.43206164240837097, -0.0030935758259147406, -0.20435602962970734, 0.3075595796108246, 0.0486321821808815, 0.02473987638950348, -0.4066530764102936, 0.001497406861744821, -0.03636840358376503, 0.44976136088371277, 0.14534787833690643, 0.062139276415109634, -0.33188125491142273, -0.261894166469574, -0.2218117117881775, 0.2880067527294159, 0.21749186515808105, 0.1945587396621704, -0.4440721273422241, 0.12290329486131668, 0.2099568247795105, -0.23828324675559998, 0.1760624796152115, 0.11941295117139816, -0.28436902165412903, 0.037242576479911804, 0.13027597963809967, -0.4895172715187073, 0.02455483376979828, 0.034907855093479156, -0.3152048587799072, -0.09257344901561737, -0.22225819528102875, 0.42349329590797424, -0.1512100249528885, 0.01336148101836443, 0.007361902855336666, 0.17482838034629822, -0.004392420873045921, 0.033981285989284515, -0.24774819612503052, 0.0448673777282238, 0.16719572246074677, -0.01886730268597603, 0.22352586686611176, 0.2361649125814438, -0.11999444663524628, -0.0343356616795063, 0.10962192714214325, 0.060399726033210754, -0.217442587018013, 0.03580810874700546, -0.0974530503153801, -0.11807753890752792, 0.03924688324332237, 0.11329636722803116, -0.12118943780660629, -0.17641465365886688, -0.1241954043507576, -0.02725694701075554, 0.11263366043567657, 0.22276590764522552, 0.019342513754963875, -0.035505227744579315, -0.29208868741989136, -0.00617029657587409, 0.1711609661579132, -0.12586084008216858, -0.025797737762331963, 0.009537169709801674, -0.0007942754309624434, 0.19683629274368286, 0.047788724303245544, -0.17535308003425598, -0.04168587177991867, 0.10424166917800903, -0.25471270084381104, -0.01807706244289875, 0.0942399650812149, 0.20014190673828125, -0.11587628722190857, 0.016724910587072372, 0.10974816977977753, -0.1462850570678711, 0.2521454095840454, -0.272952139377594, 0.24256840348243713, -0.05370805785059929, 0.1693873554468155, -0.24944226443767548, 0.11072077602148056, 0.15708741545677185, -0.35521382093429565, 0.12316707521677017, 0.019635947421193123, -0.3643762171268463, 0.03397418558597565, -0.23467940092086792, 0.21774078905582428, -0.1933550238609314, 0.16457286477088928, -0.19214443862438202, 0.04947545379400253, -0.15656055510044098, 0.3868696689605713, -0.06908086687326431, 0.1912621557712555, -0.25866833329200745, 0.14664657413959503, -0.06906022131443024, 0.40039074420928955, 0.011030037887394428, 0.29763415455818176, -0.28768807649612427, -0.059943363070487976, 0.09670611470937729, -0.17952778935432434, 0.07746334373950958, 0.07505559921264648, -0.3960739076137543, -0.08156323432922363, 0.028659366071224213, -0.30943912267684937, 0.13755875825881958, 0.23368458449840546, -0.42233896255493164, 0.15565380454063416, -0.31506285071372986, 0.21426711976528168, -0.18256835639476776, -0.023611919954419136, 0.25029879808425903, -0.28389424085617065, -0.19069723784923553, -0.3199537992477417, 0.0626053661108017, 0.001537188421934843, 0.3533356189727783, -0.1864320933818817, 0.059018366038799286, 0.4293517470359802, -0.11527299880981445, 0.1899738311767578, 0.3486701548099518, -0.1992030143737793, 0.03990122675895691, -0.2998102903366089, 0.012096000835299492, 0.12015626579523087, 0.11607467383146286, -0.1378518044948578, -0.09789403527975082, -0.1976000964641571, 0.09634201228618622, 0.10269183665513992, 0.318799763917923, -0.1471879631280899, -0.08470948785543442, -0.4018740653991699, 0.15678048133850098, 0.17171452939510345, 0.39138755202293396, -0.17227037250995636, 0.060577914118766785, 0.1922173798084259, -0.15671975910663605, -0.014197045937180519, 0.35241493582725525, -0.14068709313869476, 0.06150047853589058, 0.30227187275886536, 0.03267920762300491, -0.04484182968735695, 0.20197880268096924, -0.14835545420646667, 0.08210734277963638, -0.30758365988731384, 0.2447248101234436, -0.26223674416542053, 0.013791496865451336, 0.21485097706317902, 0.32837578654289246, 0.03339454159140587, -0.19718247652053833, -0.3621259927749634, 0.00174778513610363, 0.04930576682090759, -0.4362523555755615, 0.09767154604196548, 0.04628939926624298, -0.3615988790988922, 0.12517684698104858, 0.2180546373128891, 0.3473564088344574, -0.12397832423448563, -0.10799295455217361, -0.3802344799041748, 0.0028540566563606262, 0.18628785014152527, 0.34134945273399353, 0.021318737417459488, -0.0426323227584362, -0.31148841977119446, 0.1379416137933731, 0.2921685576438904, 0.25058868527412415, 0.07368222624063492, -0.2751370668411255, -0.4198063611984253, 0.0302455872297287, 0.22133439779281616, -0.2359069287776947, -0.05622756853699684, 0.18329595029354095, -0.28744232654571533, -0.16070909798145294, 0.2650364637374878, -0.47448068857192993, -0.013830393552780151, 0.14011622965335846, -0.43493470549583435, 0.001968071097508073, 0.29073479771614075, 0.28809815645217896, -0.10965071618556976, -0.2733686566352844, 0.01600627601146698, -0.03334212303161621, -0.053573135286569595, -0.2016819715499878, 0.014090064913034439, 0.17387567460536957, 0.17827922105789185, 0.009909325279295444, -0.044965680688619614, 0.054307516664266586, -0.14275109767913818, -0.0532890222966671, 0.23011565208435059, -0.05883593112230301, -0.15044812858104706, -0.18608899414539337, -0.05203227698802948, 0.10627638548612595, 0.08004596084356308, -0.17047268152236938, 0.14026793837547302, -0.1967466175556183, 0.08426743745803833, 0.13826484978199005, 0.14434212446212769, -0.16515275835990906, -0.15136998891830444, 0.0010721466969698668, 0.11114882677793503, 0.18955111503601074, 0.06607920676469803, -0.049238964915275574, -0.11622558534145355, 0.11355417966842651, -0.1812819540500641, -0.025008035823702812, 0.14617010951042175, -0.10709787160158157, -0.13010568916797638, 0.015407388098537922, 0.0009754385682754219, -0.19956718385219574, 0.1681237518787384, -0.14843815565109253, -0.15742795169353485, -0.1298750638961792, -0.026356615126132965, 0.06558959931135178, 0.03730399161577225, -0.2730189561843872, 0.3074991703033447, 0.10370597243309021, 0.2401079535484314, -0.21623092889785767, -0.16473780572414398, -0.21090401709079742, 0.24216032028198242, -0.09886165708303452, -0.13468509912490845, 0.28950074315071106, -0.11113820225000381, -0.18206004798412323, 0.26767203211784363, 0.04151174798607826, 0.18314777314662933, -0.1947137862443924, -0.10782384127378464, -0.11294519156217575, 0.3711535334587097, 0.1755509227514267, 0.27347037196159363, -0.17329874634742737, 0.05885876342654228, -0.21756531298160553, 0.13134413957595825, -0.09451721608638763, 0.31125861406326294, -0.1254066377878189, -0.13523238897323608, -0.12453129887580872, 0.3169655501842499, 0.11574627459049225, -0.05228044092655182, 0.33159708976745605, -0.08023092150688171, -0.24121367931365967, 0.310425341129303, 0.037764448672533035, -0.27208128571510315, 0.32602304220199585, 0.02996332012116909, -0.1083870530128479, 0.11460622400045395, 0.03575449436903, 0.08269643783569336, -0.15821625292301178, -0.12833471596240997, -0.06531446427106857, 0.10219591856002808, 0.21529726684093475, 0.0909511148929596, 0.0681849867105484, -0.25970882177352905, -0.11185237020254135, -0.10043885558843613, -0.300927072763443, -0.26200589537620544, 0.11014848202466965, -0.07118383795022964, -0.006059350445866585, 0.1235651820898056, 0.01665159873664379, 0.03086175210773945, -0.03937142342329025, -0.1902455985546112, 0.017874039709568024, -0.02622700110077858, 0.08846966177225113, 0.006296477280557156, -0.07685389369726181, -0.004651363473385572, 0.009532648138701916, 0.15194816887378693, 0.2553805112838745, 0.25967153906822205, -0.0537111833691597, -0.08828102797269821, -0.00960230827331543, 0.05597630888223648, -0.0003838254197034985, -0.06192097067832947, 0.10584733635187149, -0.21045392751693726, -0.07899679243564606, 0.010510663501918316, -0.1903727948665619, -0.22452610731124878, -0.08137375861406326, -0.26583218574523926, -0.04740258306264877, 0.10582000017166138, 0.1050439178943634, 0.009768495336174965, 0.04397618770599365, 0.10259582847356796, 0.014649887569248676, 0.012702799402177334, 0.17287041246891022, 0.07302549481391907, -0.10881707817316055, 0.09094277024269104, 0.09133245050907135, -0.06041772663593292, 0.035832375288009644, -0.10027910768985748, -0.029001398012042046, 0.08890315890312195, -0.00622145039960742, -0.09541317820549011, -0.014807222411036491, -0.03756767511367798, -0.040194425731897354, 0.016917850822210312, 0.1587616205215454, 0.08179965615272522, -0.043173205107450485, 0.025099625810980797, 0.07734987884759903, 0.06415392458438873, -0.1121230348944664, 0.02317862957715988, -0.07591663300991058, -0.0558256059885025, 0.03610691800713539, -0.14184969663619995, 0.04298320785164833, 0.12509119510650635, -0.02155447006225586, -0.10409558564424515, -0.04042661935091019, -0.015044041909277439, -0.13074031472206116, 0.06327435374259949, -0.17454086244106293, -0.15494796633720398, -0.1437636911869049, -0.0678744688630104, 0.08388789743185043, -0.13435804843902588, 0.14252403378486633, -0.08387414366006851, 0.003977689892053604, 0.029024889692664146, -0.2569742202758789, 0.3081062436103821, 0.10990139096975327, 0.2745552659034729, -0.01449117623269558, -0.13390734791755676, -0.017526498064398766, 0.08665081113576889, 0.03108718991279602, -0.2542240619659424, 0.04043927788734436, -0.16811636090278625, -0.18875017762184143, 0.12560425698757172, -0.09235195815563202, 0.16705003380775452, -0.023005958646535873, 0.05621208995580673, -0.1589663028717041, 0.08060817420482635, -0.007094820495694876, 0.20092463493347168, 0.0621003732085228, 0.08575329929590225, -0.11602146178483963, 0.1944092959165573, -0.12000878155231476, -0.0025862816255539656, -0.03713236376643181, -0.10850970447063446, -0.05923507735133171, -0.006297956686466932, -0.09112536907196045, -0.24766458570957184, 0.18157611787319183, -0.05343923717737198, -0.02867407165467739, 0.16922079026699066, 0.04552924260497093, -0.12996475398540497, 0.03965967148542404, -0.06313911825418472, -0.11653163284063339, 0.16344575583934784, -0.10593269020318985, 0.2184504121541977, -0.15542852878570557, -0.06865342706441879, -0.5381709933280945, 0.3250802755355835, 0.12214025855064392, 0.3263789415359497, -0.03495711088180542, 0.07871544361114502, -0.38029032945632935, 0.2530207931995392, -0.07126903533935547, -0.4220843017101288, 0.1904689520597458, -0.026042917743325233, -0.41274091601371765, 0.10229742527008057, 0.06443806737661362, 0.40896978974342346, -0.20802082121372223, 0.10325967520475388, -0.3398268520832062, 0.15528561174869537, 0.004623565822839737, 0.5494612455368042, -0.14653973281383514, 0.08833563327789307, -0.467386931180954, 0.2390993982553482, -0.12481092661619186, 0.3605805039405823, -0.2266228348016739, 0.15170975029468536, -0.5002875924110413, 0.14750133454799652, -0.04589022696018219, -0.3186950385570526, 0.29464566707611084, -0.10376891493797302, -0.5847592353820801, 0.019956720992922783, 0.009152354672551155, -0.49816951155662537, 0.040565844625234604, -0.03823785111308098, -0.4401061236858368, 0.06642493605613708, -0.03037961944937706, 0.3990568220615387, -0.28083139657974243, -0.06648296117782593, 0.3966745138168335, -0.29862478375434875, 0.10390116274356842, -0.312343955039978, 0.28605836629867554, -0.23540574312210083, 0.12386979907751083, -0.0009288277942687273, -0.18781645596027374, 0.290401816368103, -0.15593568980693817, -0.13180434703826904, 0.2270890176296234, -0.060006141662597656, 0.11962521821260452, -0.3902312219142914, 0.07191944122314453, -0.1641903668642044, 0.2949124276638031, -0.2824022173881531, 0.23556996881961823, -0.29340699315071106, 0.11794331669807434, -0.004271063022315502, 0.3113504648208618, -0.062492795288562775, 0.1880461424589157, -0.29045188426971436, 0.06227073818445206, -0.1175570860505104, 0.38003331422805786, -0.2043060064315796, -0.23949840664863586, 0.3192221224308014, -0.022807428613305092, -0.13753600418567657, 0.1427042931318283, -0.2742915451526642, -0.06484726816415787, 0.24666066467761993, -0.21981531381607056, -0.07224807888269424, 0.3174201548099518, -0.038409847766160965, 0.2673480808734894, -0.25070303678512573, 0.08174014091491699, -0.01877237670123577, -0.14010366797447205, 0.20016123354434967, -0.012255091220140457, 0.17893297970294952, 0.025971513241529465, 0.20801903307437897, -0.17823190987110138, -0.01831769198179245, 0.016642583534121513, -0.40922871232032776, 0.24076683819293976, 0.017396898940205574, -0.3681831359863281, 0.18443989753723145, -0.15222801268100739, 0.22397109866142273, -0.13228827714920044, 0.09320573508739471, -0.3715079724788666, 0.2770034670829773, -0.13660863041877747, 0.35981976985931396, 0.019574513658881187, 0.17415300011634827, -0.25834813714027405, 0.2658192813396454, -0.06567955762147903, 0.21990734338760376, 0.013926067389547825, 0.11649749428033829, -0.4437570869922638, 0.07606283575296402, -0.012400848791003227, -0.1726560741662979, 0.09603739529848099, -0.060573428869247437, -0.31798017024993896, 0.19405721127986908, 0.1122216209769249, -0.25769972801208496, 0.12132273614406586, 0.13069725036621094, -0.3430143892765045, 0.05293440446257591, -0.2521054744720459, 0.16375361382961273, -0.09718094021081924, -0.2124781608581543, 0.07158555835485458, 0.09042712301015854, 0.07861968874931335, -0.1717274934053421, 0.00930978637188673, -0.1486647129058838, 0.19821642339229584, 0.01975267566740513, -0.1004805937409401, 0.15957112610340118, 0.07581360638141632, 0.04616504907608032, -0.02294672094285488, 0.00025866215582937, 0.013069042935967445, -0.041283346712589264, 0.016595156863331795, -0.18600717186927795, 0.08222983032464981, 0.008906465023756027, 0.03410134091973305, 0.026111962273716927, -0.24812181293964386, -0.08470461517572403, 0.18312861025333405, 0.06582833081483841, 0.18662671744823456, -0.11561708152294159, 0.002042831853032112, -0.21314649283885956, 0.0511915497481823, 0.10113827884197235, -0.03310313820838928, 0.1283235102891922, 0.23138785362243652, -0.08520758897066116, 0.07758741825819016, 0.23552675545215607, -0.10569057613611221, 0.2053268551826477, 0.035733412951231, -0.08695942908525467, 0.06990256905555725, 0.19387862086296082, 0.1995050013065338, -0.05725585296750069, -0.2155715823173523, 0.045543123036623, -0.18301701545715332, 0.21650856733322144, -0.04512016475200653, 0.2980000376701355, 0.02593616582453251, -0.03410730138421059, -0.3451797068119049, 0.20498493313789368, -0.15415136516094208, -0.1783401370048523, 0.1252749115228653, -0.10458938032388687, -0.15562808513641357, -0.01159730926156044, 0.061055392026901245, 0.100122831761837, -0.14310301840305328, 0.017110006883740425, -0.03176157921552658, 0.11922087520360947, 0.13818897306919098, 0.1917809545993805, -0.17252641916275024, -0.14125123620033264, -0.31173112988471985, 0.2992854416370392, -0.0019674417562782764, 0.2021714597940445, -0.08726473152637482, 0.06044831499457359, -0.08306607604026794, 0.23425568640232086, -0.13695992529392242, -0.2264799028635025, 0.04281216859817505, -0.13068264722824097, -0.17849980294704437, 0.2379370778799057, -0.15840964019298553, -0.11934260278940201, 0.03363215550780296, -0.06888512521982193, -0.09499388188123703, 0.08206416666507721, 0.009152195416390896, 0.06509166210889816, -0.055250536650419235, 0.10502482950687408, -0.1022164523601532, -0.04921727254986763, -0.17224225401878357, -0.09707678854465485, 0.16536903381347656, 0.17679795622825623, -0.06384781748056412, -0.09492813050746918, 0.18832089006900787, 0.07246985286474228, -0.2370293140411377, 0.059152450412511826, -0.06507991999387741, -0.26662787795066833, -0.07896885275840759, 0.11134810000658035, 0.26164039969444275, 0.13974903523921967, 0.08008971065282822, -0.12512736022472382, 0.044536739587783813, -0.03790195286273956, 0.06223218888044357, 0.12379603832960129, 0.10440733283758163, -0.24453847110271454, 0.05500626191496849, 0.062047701328992844, 0.038354892283678055, 0.04153622314333916, 0.11078880727291107, -0.264901340007782, 0.03979870304465294, 0.035506732761859894, -0.2684117257595062, 0.14182768762111664, 0.049301113933324814, -0.07376917451620102, -0.025751225650310516, 0.12332987785339355, -0.24229349195957184, 0.21575714647769928, -0.1576824188232422, -0.2841190695762634, -0.008436247706413269, -0.011859994381666183, 0.12447180598974228, -0.23815679550170898, -0.010573363862931728, -0.11805807799100876, -0.12608975172042847, -0.017744217067956924, -0.06165602430701256, -0.010558810085058212, 0.03616868332028389, 0.18730737268924713, 0.09963911771774292, -0.35266733169555664, -0.005232064053416252, -0.03375955671072006, -0.02007722668349743, -0.009708658792078495, 0.005752246361225843, 0.8298996090888977, -0.5480449199676514, 0.7562417387962341, -0.6582072973251343, -0.14972199499607086, 1.0086419582366943, 0.8151560425758362, -0.5626247525215149, 0.1970321238040924, 0.050758689641952515, -0.5876553058624268, -0.20994259417057037, 0.17512132227420807, -0.8415310382843018, 0.07318677008152008, 0.6048980355262756, -0.22692862153053284, 0.21331796050071716, 0.21032768487930298, 0.17718994617462158, 0.6135430335998535, -0.1276382952928543, 0.4545382261276245, 0.23447489738464355, -0.03376041725277901, 0.19473478198051453, 0.2963969111442566, -0.12047850340604782, 0.3421502411365509, 0.16017526388168335, 0.4494915306568146, -0.0805543065071106, -0.1395232379436493, 0.09531965106725693, -0.496127188205719, 0.031946539878845215, 0.46479150652885437, -0.20879898965358734, -0.07882952690124512, 0.312205970287323, -0.08399883657693863, 0.18408896028995514, -0.24998947978019714, 0.5045946836471558, -0.14033564925193787, 0.01288585364818573, 0.1215968206524849, -0.04652300104498863, -0.1750282198190689, 0.1367073506116867, -0.11190430074930191, 0.2372143566608429, -0.216878741979599, -0.22941261529922485, -0.062122099101543427, -0.2514120936393738, -0.014381205663084984, -0.20220960676670074, 0.05358852446079254, -0.00738007016479969, -0.0016884274082258344, 0.3031698167324066, -0.08178891986608505, -0.06707856804132462, -0.13141542673110962, -0.02961054816842079, -0.04060645401477814, -0.10274997353553772, -0.36375921964645386, -0.061223939061164856, -0.05562954023480415, -0.19173097610473633, -0.2846815586090088, -0.021384719759225845, -0.09015211462974548, -0.45342329144477844, 0.24665065109729767, 0.26715806126594543, -0.24629640579223633, -0.13894866406917572, -0.39808782935142517, -0.016776572912931442, -0.35686859488487244, 0.30789726972579956, 0.19714710116386414, -0.0877922847867012, 0.08445531874895096, -0.23504795134067535, 0.005812397226691246, 0.19080477952957153, -0.18072690069675446, 0.010091164149343967, -0.12642909586429596, 0.3278539776802063, -0.19153238832950592, -0.14301542937755585, 0.06312448531389236, -0.02095361240208149, 0.04305125027894974, 0.1486121416091919, 0.49882784485816956, 0.2530677616596222, 0.2645432949066162, 0.28503650426864624, 0.2424507439136505, 0.04413655400276184, -0.13629817962646484, 0.46282386779785156, -0.13659408688545227, -0.07398374378681183, 0.1476811170578003, 0.10243259370326996, -0.015284238383173943, 0.12596604228019714, 0.03462618589401245, 0.17595039308071136, -0.44109654426574707, -0.2711525559425354, -0.1540229767560959, -0.14067751169204712, -0.03514387086033821, -0.3846203088760376, -0.43012717366218567, -0.20222416520118713, 0.0504506416618824, -0.15438944101333618, -0.0873795673251152, -0.24689683318138123, 0.39048370718955994, 0.07410874962806702, 0.3783665597438812, -0.2642763555049896, -0.08046935498714447, 0.18913307785987854, 0.33633333444595337, 0.12248994410037994, 0.16811101138591766, -0.15940216183662415, 0.3466084897518158, -0.12570692598819733, 0.11815131455659866, -0.16613322496414185, -0.000549385033082217, 0.03656766191124916, -0.264021098613739, 0.08997318148612976, -0.1879909783601761, -0.28282225131988525, 0.062232617288827896, -0.16924045979976654, -0.14686423540115356, -0.09596852213144302, -0.2975188195705414, -0.22256959974765778, 0.1072787418961525, -0.08459173142910004, 0.08719213306903839, -0.09925814718008041, 0.07156447321176529, -0.08914700150489807, 0.011433472856879234, 0.14031539857387543, 0.21591827273368835, -0.08416521549224854, -0.25982633233070374, -0.04207304120063782, 0.03504735231399536, -0.28995180130004883, 0.01127181388437748, 0.017673343420028687, 0.23388433456420898, 0.3377645015716553, 0.09763249009847641, 0.2347133904695511, -0.25281187891960144, -0.11155141890048981, -0.11892124265432358, 0.2581825852394104, -0.43880608677864075, 0.20696084201335907, -0.11969029903411865, -0.31799548864364624, -0.07546347379684448, -0.041057225316762924, 0.01807701215147972, -0.18389160931110382, -0.3484446108341217, 0.11816123127937317, -0.23100543022155762, 0.2250746190547943, -0.06930757313966751, 0.14748214185237885, -0.3593111038208008, 0.17120563983917236, -0.07976032793521881, -0.012710273265838623, -0.07637186348438263, -0.2956477999687195, -0.20394445955753326, -0.10101865231990814, -0.28443410992622375, -0.36746910214424133, -0.20201198756694794, -0.10264400392770767, -0.16073018312454224, 0.24534453451633453, -0.3047124147415161, -0.4443834125995636, -0.16688671708106995, -0.03998290002346039, -0.046985428780317307, 0.10642575472593307, 0.07262609899044037, -0.2455265074968338, -0.08396780490875244, 0.104685939848423, 0.2260139137506485, 0.018294714391231537, -0.3298018276691437, -0.10112603008747101, 0.14426784217357635, -0.08444748818874359, -0.1861349493265152, 0.11138887703418732, -0.21771718561649323, -0.14801207184791565, -0.3042914867401123, 0.1358247697353363, -0.2875159680843353, 0.10875152051448822, -0.009352730587124825, -0.10871543735265732, -0.13939128816127777, -0.22401650249958038, -0.3038402199745178, -0.187578946352005, -0.30034202337265015, -0.0169731006026268, -0.3222755789756775, 0.09459960460662842, -0.6113322377204895, 0.3062562048435211, -0.17143362760543823, -0.18654678761959076, 0.20465993881225586, -0.14288996160030365, 0.19222962856292725, 0.2569589614868164, -0.22140008211135864, 0.19783158600330353, -0.19344401359558105, -0.26034820079803467, 0.16691164672374725, 0.27678486704826355, -0.1024995893239975, -0.1516321450471878, 0.4539436101913452, -0.1384800225496292, 0.4856211841106415, -0.10871992260217667, 0.1611069291830063, 0.39878371357917786, 0.36326509714126587, 0.4098711609840393, 0.1337033212184906, 0.10671108216047287, 0.3076010048389435, -0.039724841713905334, 0.26339688897132874, 0.0489446297287941, 0.3116026520729065, 0.24548731744289398, 0.10157055407762527, -0.1328999549150467, 0.32328471541404724, -0.33297574520111084, 0.0944581925868988, 0.0807124674320221, 0.019517863169312477, 0.15770456194877625, -0.03552469238638878, -0.08808279037475586, 0.07067394256591797, -0.26928842067718506, 0.12744362652301788, -0.0007994452025741339, 0.06930187344551086, 0.19587261974811554, 0.3870839774608612, 0.6281902194023132, -0.2754259705543518, 0.08362375944852829, 0.06970417499542236, 0.3693392276763916, -0.2187415361404419, 0.055406391620635986, 0.29449716210365295, -0.35254645347595215, -0.05072060972452164, 0.06223994120955467, -0.2816027104854584, -0.07128431648015976, 0.23479034006595612, 0.6547962427139282, 0.04709989205002785, -0.2557918131351471, -0.4178731143474579, -0.2587314248085022, 0.3702516257762909, 0.3750758767127991, -0.06417159736156464, -0.5041652917861938, -0.09602060914039612, 0.4982040226459503, 0.23111197352409363, -0.08324719220399857, 0.06146612763404846, -0.16020320355892181, -0.4140503406524658, -0.0694732740521431, 0.33326712250709534, -0.6759408116340637, -0.11507580429315567, 0.39486682415008545, -0.2914254069328308, 0.037106405943632126, 0.19316597282886505, -0.31663984060287476, -0.025883357971906662, 0.12678468227386475, -0.29735034704208374, 0.26314613223075867, 0.20823796093463898, 0.5054405927658081, 0.02067754603922367, -0.467698872089386, -0.3605251610279083, -0.05417127162218094, 0.04426989331841469, -0.3739112317562103, -0.1351873129606247, 0.32780617475509644, 0.11495523154735565, 0.1251400262117386, 0.22980763018131256, -0.17004160583019257, -0.019159547984600067, -0.2209470272064209, 0.09438875317573547, -0.23123016953468323, -0.0253310389816761, -0.2921805679798126, -0.18130981922149658, 0.12752032279968262, 0.47410905361175537, -0.05907890573143959, -0.13667388260364532, -0.061277419328689575, -0.09423123300075531, 0.07917629182338715, -0.14455445110797882, -0.18747054040431976, -0.4726121127605438, -0.048683639615774155, -0.10907609015703201, -0.24226757884025574, 0.3445986807346344, 0.21641264855861664, 0.05139734223484993, -0.0406576432287693, -0.07512742280960083, 0.016173377633094788, 0.18995451927185059, 0.16302728652954102, 0.13416871428489685, 0.4186992347240448, 0.11973201483488083, 0.040122341364622116, -0.22562313079833984, -0.03804558888077736, -0.14044499397277832, -0.3645629286766052, 0.05783877149224281, -0.03670730069279671, 0.20893432199954987, -0.4308127164840698, 0.060061220079660416, 0.4232959449291229, 0.26117658615112305, 0.018434416502714157, 0.04011230915784836, -0.017842592671513557, -0.040464386343955994, 0.12450787425041199, 0.016078559681773186, -0.08532391488552094, 0.21665027737617493, 0.018404584378004074, 0.07150643318891525, -0.02033829502761364, 0.11737915873527527, 0.25603753328323364, 0.15065565705299377, -0.02695821039378643, -0.1372833102941513, -0.16234548389911652, -0.0496513731777668, 0.23026858270168304, 0.03202679753303528, -0.18197576701641083, -0.1311652958393097, -0.07987935841083527, 0.09576097130775452, -0.06828568130731583, -0.011471441015601158, -0.16384756565093994, -0.056695785373449326, 0.21513423323631287, -0.03949734941124916, 0.03143715113401413, 0.18429400026798248, 0.011051557958126068, -0.07834947854280472, -0.025004129856824875, 0.028802143409848213, 0.004396818578243256, 0.029122591018676758, -0.11479254812002182, 0.013935976661741734, -0.14922413229942322, 0.05769680440425873, 0.22757501900196075, -0.41327035427093506, -0.11853066086769104, 0.15060065686702728, 0.16100278496742249, -0.19085635244846344, 0.5160133242607117, 0.024998771026730537, -0.39751631021499634, -0.2551623284816742, -0.005778277292847633, -0.08791764080524445, -0.20181216299533844, 0.005389001686125994, -0.30801910161972046, -0.06307730823755264, -0.03783416002988815, 0.41051432490348816, 0.08903759717941284, 0.28264787793159485, -0.06920331716537476, 0.07516805827617645, -0.0962577536702156, 0.5093569755554199, 0.13824990391731262, 0.03761455789208412, -0.2976285219192505, 0.33055320382118225, 0.08293372392654419, -0.1087140217423439, -0.01976015232503414, 0.08928340673446655, -0.5119538903236389, -0.11209273338317871, -0.001888398895971477, -0.31988662481307983, -0.00269650318659842, 0.06269272416830063, -0.1824958771467209, -0.19329679012298584, 0.23090939223766327, -0.3020011782646179, -0.06146661564707756, -0.09118939191102982, -0.31075525283813477, 0.1613224744796753, -0.04166627675294876, 0.41392645239830017, 0.07735373079776764, 0.15343159437179565, -0.018497968092560768, 0.08004561066627502, -0.020767338573932648, 0.2618037164211273, -0.35226407647132874, -0.04314354807138443, 0.10421355068683624, -0.21631987392902374, 0.010887332260608673, 0.3195887506008148, 0.2175135463476181, 0.04240100085735321, 0.13832242786884308, -0.2813671827316284, -0.2119472622871399, -0.11072361469268799, -0.07302415370941162, 0.0851614847779274, -0.011786196380853653, -0.16439786553382874, -0.0730699747800827, -0.0393294058740139, 0.3205510973930359, 0.27372971177101135, 0.3004705011844635, -0.04921252653002739, 0.04519047960639, -0.029885858297348022, 0.27625635266304016, 0.17218069732189178, 0.020881973206996918, -0.29375481605529785, 0.03528023883700371, 0.28207552433013916, 0.06336581707000732, -0.12692473828792572, -0.07321127504110336, -0.17620855569839478, -0.030336016789078712, 0.041254278272390366, -0.12559442222118378, 0.19625873863697052, 0.0907253623008728, -0.2997838854789734, 0.07193374633789062, -0.16737183928489685, 0.16200432181358337, -0.0872364416718483, 0.14874961972236633, 0.20113183557987213, -0.004771696403622627, -0.22729340195655823, -0.3122379779815674, -0.0020248766522854567, 0.2847597897052765, -0.012492669746279716, 0.0008912543416954577, 0.16505847871303558, -0.07274369895458221, -0.1476898193359375, 0.10734018683433533, -0.14407400786876678, 0.07886186987161636, -0.37067416310310364, 0.19931192696094513, 0.10290522873401642, -0.0747121199965477, -0.36276182532310486, 0.11577579379081726, -0.39397212862968445, 0.37232428789138794, 0.21178372204303741, 0.23933973908424377, -0.24606770277023315, 0.13344989717006683, -0.08126983046531677, 0.06968247890472412, 0.1050143837928772, 0.3630618155002594, -0.14389680325984955, 0.14954999089241028, 0.16996577382087708, -0.10922522842884064, 0.02062249556183815, 0.2973001003265381, -0.0842326283454895, 0.011535855010151863, -0.02214912138879299, -0.11661823838949203, -0.1310756802558899, 0.5084041953086853, -0.285322368144989, -0.052147988229990005, -0.16412870585918427, 0.32259273529052734, -0.23908410966396332, 0.421224445104599, 0.17367027699947357, 0.4038723409175873, -0.12457748502492905, -0.25471433997154236, -0.059215325862169266, -0.1546492576599121, 0.18397261202335358, 0.05217423662543297, -0.08981512486934662, -0.06676138192415237, 0.02847050502896309, 0.018882330507040024, 0.07413612306118011, 0.2736310064792633, 0.3778077960014343, 0.16544367372989655, 0.23131847381591797, -0.20009562373161316, 0.10994184017181396, -0.008472415618598461, 0.3220444321632385, -0.020504899322986603, -0.08879721909761429, -0.09555378556251526, -0.12537409365177155, -0.0252025555819273, 0.03707977011799812, -0.04827094450592995, 0.10035229474306107, -0.30481186509132385, 0.09224352985620499, -0.14865876734256744, -0.2709190547466278, -0.06225111708045006, 0.13638222217559814, 0.05120869353413582, 0.2400037944316864, 0.06609911471605301, -0.031289827078580856, -0.14726775884628296, -0.15676699578762054, -0.05908581614494324, 0.03694857284426689, -0.10107791423797607, 0.1863119751214981, -0.008651120588183403, -0.3586832582950592, 0.42294052243232727, -0.057936009019613266, 0.7223864793777466, -0.08326844871044159, -0.15127016603946686, -0.28279784321784973, 0.021215984597802162, 0.128579244017601, -0.15647301077842712, -0.05252067744731903, -0.025016045197844505, 0.04328075796365738, -0.1524774432182312, -0.19494092464447021, 0.27404123544692993, -0.011694403365254402, -0.11747315526008606, 0.04782366007566452, -0.2073550671339035, 0.09794994443655014, 0.04053053259849548, -0.05227261036634445, -0.019618386402726173, 0.023107467219233513, 0.1098404973745346, 0.26617059111595154, -0.0052518947049975395, 0.15280656516551971, -0.02708033286035061, 0.07114825397729874, -0.2243812084197998, -0.0036673867143690586, -0.12417062371969223, -0.11320530623197556, 0.08166170865297318, -0.08413967490196228, -0.03260277584195137, -0.012800771743059158, -0.05501265078783035, -0.0809212252497673, -0.03931935504078865, -0.04730423539876938, 0.19769425690174103, 0.05702362209558487, -0.11489313095808029, 0.034155718982219696, -0.044045109301805496, 0.495553582906723, 0.008904354646801949, -0.2906899154186249, -0.5186710953712463, -0.12516909837722778, -0.14926205575466156, -0.014509767293930054, 0.04435903951525688, 0.1236577108502388, 0.179208904504776, 0.13385288417339325, 0.06683869659900665, -0.05619971454143524, 0.04752747714519501, -0.038887154310941696, -0.05386810749769211, -0.15687713027000427, -0.2964753806591034, -0.20642918348312378, 0.0649760439991951, 0.07141981273889542, 0.03100128285586834, -0.1816035956144333, -0.05773342028260231, -0.10824409127235413, -0.049327410757541656, 0.16670851409435272, 0.13128937780857086, 0.17904239892959595, -0.08226267993450165, -0.20084431767463684, -0.010343623347580433, 0.01412764098495245, -0.08723359555006027, 0.1852695196866989, 0.3445585370063782, -0.20321017503738403, 0.08670081943273544, 0.008276812732219696, -0.25241369009017944, -0.10410549491643906, -0.15126651525497437, -0.07337421178817749, -0.1395345777273178, 0.004143284633755684, 0.19674916565418243, -0.15332947671413422, -0.23750637471675873, -0.24891987442970276, -0.0907786637544632, 0.07480596005916595, -0.09404650330543518, 0.32645905017852783, 0.2305891066789627, -0.12022498995065689, -0.14132249355316162, -0.06304077804088593, 0.04248178005218506, 0.03547055274248123, -0.06678516417741776, 0.1337887942790985, -0.05308137089014053, -0.014797559008002281, -0.1770554482936859, 0.08624543994665146, 0.15074530243873596, 0.16942629218101501, -0.08180568367242813, -0.008838178589940071, -0.15121671557426453, 0.08207553625106812, 0.15760481357574463, 0.17413894832134247, 0.1446206420660019, 0.10867731273174286, -0.15240205824375153, -0.2128634750843048, -0.03894106298685074, -0.05530016869306564, -0.0003508460067678243, 0.082312673330307, 0.06672041118144989, -0.09739625453948975, -0.04226559400558472, 0.03447561338543892, -0.08860548585653305, -0.08055289834737778, 0.006022213958203793, -0.022886183112859726, -0.06469941884279251, -0.013564962893724442, -0.19827483594417572, 0.15896406769752502, -0.20138520002365112, 0.04139995202422142, -0.04899037629365921, 0.28021177649497986, 0.31746822595596313, -0.00759617704898119, 0.3356478810310364, 0.020823869854211807, -0.08742531388998032, 0.24277038872241974, 0.14229454100131989, 0.2517673373222351, -0.15981149673461914, -0.17785987257957458, -0.1577051281929016, 0.12116826325654984, -0.02140062302350998, -0.06967534124851227, -0.007686337921768427, 0.2848238945007324, 0.16448070108890533, 0.08200962096452713, -0.128825843334198, 0.057314272969961166, -0.28561916947364807, 0.20743738114833832, 0.14352741837501526, 0.34828075766563416, -0.1034201979637146, 0.03992437943816185, -0.47642791271209717, -0.3611156642436981, -0.219926118850708, 0.4441165328025818, -0.07029994577169418, -0.040783870965242386, 0.22295086085796356, -0.12140057235956192, -0.20671604573726654, 0.5069006681442261, 0.17322592437267303, 0.221955806016922, 0.18882611393928528, -0.16361023485660553, 0.08629078418016434, 0.8246095776557922, 0.28743255138397217, 0.1101253405213356, -0.2297622710466385, 0.08248381316661835, 0.10959988832473755, -0.029528720304369926, -0.38715893030166626, 0.14600136876106262, -0.0938621535897255, -0.36922287940979004, -0.36813196539878845, 0.0225704163312912, 0.1436540186405182, 0.1375555694103241, -0.0287398062646389, -0.09994793683290482, -0.18739604949951172, 0.0343896709382534, -0.0662693977355957, -0.28319716453552246, -0.024319646880030632, 0.26455533504486084, 0.30312469601631165, 0.03585405275225639, -0.09078723192214966, -0.06637624651193619, 0.09679130464792252, 0.2550675570964813, 0.235465869307518, 0.3040950894355774, -0.3018605411052704, -0.1259101778268814, -0.21002890169620514, 0.0633864477276802, -0.07703008502721786, -0.03557463362812996, -0.019317327067255974, -0.1434933990240097, -0.10860327631235123, -0.21390245854854584, -0.37381511926651, 0.052044790238142014, -0.04910176247358322, 0.11063271015882492, 0.25145354866981506, 0.0738677978515625, -0.12836270034313202, 0.08486688882112503, -0.130805104970932, -0.16180215775966644, -0.16225318610668182, 0.10206328332424164, 0.32448408007621765, -0.16759496927261353, 0.23363080620765686, 0.04109692946076393, 0.31197503209114075, 0.05815122276544571, 0.07965043932199478, 0.146547332406044, 0.07959231734275818, -0.044709980487823486, 0.04874875023961067, 0.06098509579896927, -0.050660621374845505, 0.1764412820339203, -0.07031217962503433, -0.06621692329645157, -0.12758460640907288, -0.1360834687948227, 0.24621105194091797, 0.024465952068567276, -0.15954123437404633, -0.09050697088241577, -0.19045227766036987, -0.09353111684322357, 0.08134804666042328, -0.020149793475866318, 0.013432017527520657, 0.03651241958141327, -0.0602777935564518, 0.008494491688907146, -0.0850629135966301, 0.20161767303943634, 0.14150820672512054, -0.009994884952902794, 0.2060483694076538, -0.15060952305793762, -0.052070122212171555, 0.09533335268497467, -0.08395823836326599, 0.0898493230342865, 0.04595915600657463, -0.1264408677816391, -0.16801191866397858, 0.10891105979681015, 0.07504713535308838, 0.11462513357400894, -0.06479041278362274, 0.14245767891407013, 0.049796175211668015, 0.12197931855916977, 0.04515187814831734, -0.06737127155065536, 0.8217746019363403, 0.22966498136520386, 0.07881968468427658, 0.015945542603731155, -0.04744773358106613, 0.15376915037631989, -0.2942676246166229, -0.09467481821775436, -0.0035226051695644855, 0.05322713777422905, 0.03564555197954178, 0.10286681354045868, 0.18570195138454437, 0.08916246891021729, -0.12933583557605743, -0.05334047973155975, 0.11167421191930771, 0.14917126297950745, 0.0981350988149643, 0.05583333596587181, -0.021790413185954094, -0.2476111501455307, -0.1779949963092804, 0.03943726420402527, -0.09990715980529785, -0.11275164783000946, 0.11166660487651825, 0.065271757543087, 0.021850917488336563, -0.014010336250066757, -0.1301015019416809, -0.009765148162841797, -0.07670421153306961, -0.17940948903560638, -0.11064238846302032, -0.039573393762111664, 0.006762840319424868, 0.07771988213062286, -0.05477949231863022, -0.09531669318675995, -0.122516930103302, -0.2090727835893631, -0.02725394256412983, -0.10612247884273529, 0.03541233390569687, -0.24115771055221558, 0.025257589295506477, 0.06290645897388458, -0.29594025015830994, 0.26110684871673584, -0.45472240447998047, -0.12425744533538818, 0.28126928210258484, -0.036563508212566376, 0.04020727053284645, 0.10464441776275635, -0.018239701166749, -0.12708112597465515, 0.1774192750453949, -0.12380298227071762, 0.12522974610328674, -0.33358001708984375, 0.03727326914668083, -0.030145548284053802, 0.17114374041557312, -0.11035840213298798, 0.11579357087612152, -0.2756516635417938, 0.07469212263822556, 0.12120161950588226, 0.13520900905132294, -0.041011326014995575, -0.013070437125861645, -0.1660197228193283, 0.22964006662368774, -0.14402464032173157, 0.32737308740615845, -0.07683593779802322, 0.02566761150956154, 0.3002568781375885, -0.1331242024898529, -0.09527694433927536, 0.18835259974002838, -0.0977078452706337, -0.01912134326994419, 0.12238204479217529, -0.1718544214963913, -0.2772670388221741, 0.3024202883243561, -0.16771453619003296, 0.18104518949985504, -0.20738588273525238, 0.15507684648036957, -0.13120734691619873, 0.09617673605680466, 0.07545860856771469, -0.07920979708433151, 0.21548861265182495, 0.021566050127148628, 0.08727287501096725, 0.18616852164268494, 0.11810366809368134, 0.0035576755180954933, 0.016729261726140976, -0.23835144937038422, -0.05069541931152344, 0.11628050357103348, 0.06819786131381989, -0.08480746299028397, -0.18651805818080902, 0.1830943077802658, 0.03308761492371559, 0.14160975813865662, -0.32369211316108704, 0.05169914290308952, -0.2832270562648773, -0.062381114810705185, -0.22936458885669708, -0.13486452400684357, -0.20144148170948029, -0.12716157734394073, 0.007613045629113913, 0.1231698989868164, 0.04642830044031143, 0.30446523427963257, -0.12675859034061432, -0.043075304478406906, 0.07472508400678635, -0.11042392998933792, -0.06577899307012558, 0.007971905171871185, 0.05768027901649475, 0.05156712979078293, 0.22404399514198303, -0.12808826565742493, -0.012568485923111439, 0.0173505749553442, 0.09048803150653839, 0.004656005185097456, 0.05127635598182678, 0.22919566929340363, 0.18797767162322998, 0.17600226402282715, -0.03350657597184181, 0.15528392791748047, -0.2591058313846588, 0.1600891798734665, 0.20220470428466797, 0.13096465170383453, -0.18504902720451355, -0.06630071252584457, 0.2508072853088379, 0.19240795075893402, 0.07015823572874069, 0.06665593385696411, 0.05703018233180046, 0.05073756352066994, -0.6466997861862183, 0.31443625688552856, 0.4172074794769287, -0.3574378490447998, 0.2946912944316864, -0.8413317203521729, -0.3097604811191559, -0.35320326685905457, 0.6096231341362, -1.0109434127807617, -0.5139725804328918, -0.7844834327697754, 0.00835826713591814, -0.6736276149749756, 0.12292151898145676, -0.8295872807502747, -0.3331115245819092, 0.12651705741882324, 0.28079816699028015, 0.24874646961688995, 0.11107602715492249, -0.10164155066013336, -0.3432561159133911, -0.08146128058433533, -0.08703181892633438, 0.011474470607936382, 0.19800147414207458, 0.04369404539465904, 0.17783600091934204, 0.22744213044643402, 0.030177585780620575, -0.044937923550605774, 0.05112161859869957, -0.2154221385717392, -0.22742697596549988, -0.2090429812669754, -0.38054028153419495, 0.42710739374160767, 0.02569115348160267, 0.0479278601706028, 0.16183245182037354, -0.30828720331192017, -0.26122432947158813, 0.29187947511672974, -0.1721406728029251, 0.32186251878738403, 0.24732641875743866, 0.3027101755142212, -0.15220879018306732, -0.2673564553260803, 0.0765264704823494, 0.171016126871109, 0.11081025004386902, 0.18325795233249664, 0.02589058317244053, -0.03388960286974907, -0.10460546612739563, 0.1508156806230545, -0.3247920274734497, -0.07435238361358643, -0.032938212156295776, 0.039907168596982956, 0.12346544116735458, 0.070303775370121, 0.06276585161685944, 0.044796571135520935, 0.02451789751648903, -0.13336387276649475, -0.11671297997236252, 0.06800317019224167, -0.19241772592067719, -0.14301203191280365, 0.0031265506986528635, 0.1338997632265091, 0.06641491502523422, 0.2350931614637375, 0.24226517975330353, -0.1258576363325119, -0.022656604647636414, 0.25103476643562317, 0.4948450028896332, -0.019685378298163414, 0.09784127026796341, -0.12216054648160934, -0.06210022792220116, -0.03818473964929581, -0.1538601815700531, 0.40961310267448425, 0.3643617630004883, -0.20234546065330505, -0.61403489112854, 0.26679345965385437, -0.34453535079956055, 0.3349684178829193, -0.1351434737443924, -0.23635241389274597, -0.22148185968399048, -0.06847182661294937, -0.4049050211906433, 0.008813433349132538, -0.0023997060488909483, -0.10348113626241684, -0.028086278587579727, -0.015329429879784584, 0.03702162578701973, 0.18581800162792206, -0.01389829721301794, -0.09833745658397675, -0.17626504600048065, 0.12990640103816986, 0.20948907732963562, 0.020787345245480537, 0.19929134845733643, -0.10945934802293777, -0.005033585708588362, -0.3178459405899048, 0.01798165589570999, 0.2594606578350067, -0.2830864191055298, -0.12988273799419403, 0.11598934978246689, 0.04327446222305298, -0.09927169233560562, 0.1440030187368393, 0.12648862600326538, -0.2977968454360962, 0.012094270437955856, 0.2366143763065338, 0.16406729817390442, 0.039156973361968994, -0.094406358897686, 0.062461961060762405, 0.16519059240818024, -0.20657014846801758, -0.019605714827775955, 0.1152331531047821, -0.1308983564376831, 0.25909069180488586, -0.2652359902858734, 0.07145948708057404, -0.11021581292152405, 0.06013387069106102, 0.06079777702689171, 0.02252061665058136, -0.07202092558145523, 0.2242034524679184, -0.003679569810628891, 0.04178173094987869, -0.04003322869539261, -0.13730573654174805, -0.12456683814525604, -0.23875942826271057, 0.22172856330871582, 0.08838845789432526, 0.292792946100235, -0.1188320741057396, 0.03639945760369301, -0.031121715903282166, -0.05469547212123871, 0.2735973000526428, 0.06327667832374573, 0.03772364929318428, -0.26847705245018005, -0.027949297800660133, 0.13330742716789246, -0.04277557134628296, 0.08531777560710907, -0.02638627216219902, -0.03575000539422035, 0.14137108623981476, 0.2770313620567322, 0.14337116479873657, 0.17928467690944672, -0.09238220006227493, 0.363128125667572, -0.165287047624588, -0.17677287757396698, -0.14302769303321838, 0.16796065866947174, 0.2063581943511963, 0.08401942998170853, -0.1809619665145874, 0.023913655430078506, 0.02896084077656269, 0.06802892684936523, 0.05294787883758545, -0.08201391249895096, 0.13605251908302307, -0.05938161909580231, 0.12637633085250854, -0.1954754889011383, -0.031222783029079437, 0.26462844014167786, 0.11977522075176239, -0.23429162800312042, -0.08728259801864624, -0.271492600440979, -0.043656859546899796, 0.18065939843654633, 0.2229248732328415, -0.24390490353107452, 0.11554578691720963, 0.1862485557794571, -0.028253305703401566, -0.13033579289913177, 0.04246676340699196, -0.0301114059984684, -0.14364099502563477, -0.07538088411092758, -0.26139774918556213, -0.19510670006275177, 0.30649831891059875, -0.1802002340555191, 0.056251805275678635, -0.13625046610832214, 0.27443280816078186, -0.12120839953422546, -0.19485612213611603, -0.3224375247955322, -0.3369399309158325, 0.13642092049121857, 0.020225081592798233, 0.12926329672336578, -0.07448260486125946, 0.1402551680803299, -0.03815886005759239, -0.09398213773965836, 0.27069413661956787, -0.22832992672920227, 0.117117740213871, -0.015026464127004147, -0.12688398361206055, 0.17599385976791382, 0.1753925234079361, 0.09309884160757065, -0.0048346612602472305, 0.1838182806968689, -0.03784851357340813, 0.09741510450839996, 0.006528441794216633, 0.039230700582265854, 0.10795622318983078, -0.08956187218427658, -0.0266671571880579, -0.013240081258118153, -0.20330189168453217, 0.14165319502353668, 0.06787385791540146, -0.01297813281416893, -0.1539973020553589, -0.32687801122665405, 0.028903484344482422, -0.38758236169815063, 0.185219407081604, 0.043962512165308, 0.041989266872406006, 0.16544626653194427, -0.14536648988723755, 0.0192333422601223, -0.11872527748346329, -0.11091076582670212, -0.08115743100643158, -0.1647479087114334, 0.20395296812057495, 0.25618940591812134, -0.217731311917305, -0.05626756697893143, 0.03937976807355881, -0.23871728777885437, 0.35712364315986633, -0.15029506385326385, -0.2538984417915344, -0.060402389615774155, -0.016773730516433716, 0.21999862790107727, -0.2653035521507263, 0.26566213369369507, 0.15410014986991882, 0.097556933760643, 0.28561991453170776, 0.05776748061180115, -0.055740904062986374, 0.1524132788181305, -0.45240557193756104, 0.23655998706817627, -0.3062358498573303, -0.06013167276978493, 0.15235188603401184, -0.04340572655200958, 0.03276011720299721, -0.06079677864909172, 0.008680708706378937, -0.2708081603050232, -0.011567758396267891, 0.06477376818656921, -0.10143532603979111, 0.09304670244455338, 0.07939410209655762, -0.34498557448387146, 0.015625931322574615, 0.17964191734790802, 0.12117904424667358, -0.13442464172840118, -0.1559089720249176, 0.09119798243045807, -0.17329999804496765, -0.07078621536493301, -0.2669331729412079, 0.05344563350081444, -0.0012990270042791963, 0.3238682150840759, -0.10140050202608109, -0.03654017671942711, -0.016678599640727043, 0.01499462965875864, -0.10151077806949615, -0.18214067816734314, -0.11582233756780624, -0.031878404319286346, 0.154108464717865, 0.06060514599084854, 0.01062425971031189, -0.09980841726064682, 0.022457169368863106, 0.12635867297649384, 0.15867994725704193, 0.02051980048418045, 0.1267555058002472, 0.12380708009004593, -0.05281243100762367, 0.13356007635593414, 0.12173677980899811, -0.12234781682491302, 0.08575288951396942, 0.09933096915483475, -0.023414669558405876, 0.06301095336675644, -0.4658523201942444, -0.02636175975203514, -0.05736199766397476, 0.19773967564105988, -0.14619356393814087, 0.01980840601027012, 0.029405228793621063, 0.09302881360054016, -0.17997236549854279, -0.12566734850406647, -0.21437841653823853, 0.18127840757369995, -0.1284734606742859, 0.09560064226388931, -0.07242373377084732, -0.0397370345890522, 0.04682771861553192, 0.09332261979579926, 0.10155991464853287, 0.16193556785583496, -0.004780150484293699, -0.2539915144443512, 0.022246884182095528, -0.010338314808905125, 0.13418416678905487, -0.09054512530565262, 0.25971686840057373, -0.03496088832616806, 0.13172145187854767, 0.0491933710873127, 0.4741586446762085, 0.039393432438373566, -0.061896536499261856, 0.18742255866527557, -0.0026017106138169765, -0.11053305864334106, 0.09848077595233917, 0.024778317660093307, -0.1026633232831955, 0.27560850977897644, -0.11657415330410004, 0.10122860223054886, 0.058627210557460785, 0.09523962438106537, 0.20540298521518707, -0.29576197266578674, 0.06920045614242554, 0.09699060767889023, 0.16839158535003662, -0.010717872530221939, -0.05357017740607262, -0.050627801567316055, -0.1516304314136505, -0.09174014627933502, 0.03189534321427345, 0.1885417252779007, -0.2606521546840668, 0.0605233833193779, 0.16387489438056946, -0.078870490193367, -0.14757901430130005, -0.04771767184138298, 0.17731374502182007, 0.03353825956583023, -0.15026327967643738, -0.034959785640239716, 0.09482719749212265, 0.13772089779376984, 0.07800642400979996, 0.13085873425006866, 0.03112567402422428, 0.018611876294016838, 0.04604090377688408, 0.10504061728715897, -0.045035962015390396, 0.4172680377960205, -0.10972308367490768, -0.14748980104923248, -0.0604647733271122, 0.11176857352256775, -0.21677164733409882, 0.11817203462123871, 0.03848661109805107, -0.14860135316848755, -0.07549707591533661, 0.12856365740299225, -0.2552887797355652, -0.052672531455755234, 0.2526390850543976, 0.2617398798465729, -0.1560523360967636, -0.2274242788553238, 0.04091588407754898, 0.013781377114355564, -0.05691893771290779, -0.06738296896219254, 0.05327204242348671, 0.3565948009490967, -0.1594180464744568, 0.18008120357990265, -0.09407561272382736, -0.04058709740638733, 0.37821581959724426, -0.01574595272541046, 0.043988458812236786, 0.288235604763031, -0.1479051560163498, 0.13490520417690277, -0.1135893389582634, -0.06579319387674332, 0.22693608701229095, 0.1450987160205841, 0.20978310704231262, 0.04401738941669464, 0.13379736244678497, -0.20239590108394623, 0.029156357049942017, -0.17632657289505005, 0.05651279166340828, -0.11874484270811081, 0.14286448061466217, 0.008669165894389153, -0.13473056256771088, -0.07098686695098877, -0.057243090122938156, 0.11382583528757095, -0.26505666971206665, 0.35433298349380493, 0.01973443664610386, 0.0090005649253726, -0.26271942257881165, -0.12204650789499283, -0.2221490442752838, 0.29988160729408264, -0.032282572239637375, -0.22136300802230835, 0.330933541059494, -0.03832078352570534, -0.06859095394611359, -0.06703793257474899, 0.015175645239651203, -0.16901573538780212, -0.003908616490662098, 0.07116257399320602, 0.23370057344436646, 0.01785593293607235, -0.03522316738963127, -0.0999959334731102, -0.0934668704867363, 0.1869976967573166, 0.3584485650062561, -0.10640477389097214, -0.053419314324855804, 0.1837940514087677, -0.14163638651371002, -0.018249591812491417, -0.04818936809897423, -0.03655989095568657, 0.06734012067317963, 0.046552855521440506, -0.12787316739559174, -0.16363975405693054, -0.07418088614940643, 0.07225748151540756, -0.07372530549764633, -0.1633767932653427, 0.09046529978513718, -0.013476584106683731, -0.10358376801013947, 0.06869255006313324, -0.22202056646347046, -0.23816658556461334, 0.35211580991744995, -0.05763998255133629, 0.46308422088623047, -0.018501220270991325, -0.06874378025531769, 0.086854949593544, -0.07155552506446838, 0.15054090321063995, 0.27161580324172974, -0.010739059187471867, -0.05626371130347252, -0.12881112098693848, 0.17887473106384277, -0.2210836112499237, 0.34736087918281555, 0.15655609965324402, 0.05024958401918411, -0.14418847858905792, -0.07851576805114746, 0.1889844834804535, -0.032457996159791946, -0.0005779446801170707, 0.08246475458145142, 0.13256853818893433, -0.003574390895664692, -0.2445940524339676, -0.2792302966117859, -0.24971218407154083, -0.012370167300105095, 0.05865603685379028, 0.0964028388261795, 0.013213003054261208, -0.05891972407698631, 0.20489035546779633, -0.1951947659254074, -0.15662802755832672, 0.032471802085638046, -0.14864178001880646, 0.17478230595588684, -0.05711720511317253, -0.11983281373977661, -0.24580150842666626, 0.04259277507662773, 0.08105415105819702, 0.12424594908952713, -0.16597580909729004, 0.15114173293113708, -0.17267118394374847, 0.1722794771194458, -0.19884848594665527, -0.24339574575424194, 0.02467780001461506, 0.2049712985754013, 0.31672850251197815, 0.20058107376098633, -0.029037700966000557, -0.1724984496831894, -0.08899495005607605, 0.1770467311143875, 0.1917547881603241, 0.1497037410736084, -0.15371574461460114, 0.060766566544771194, -0.07197496294975281, 0.13593703508377075, -0.04417712986469269, 0.1197037547826767, -0.09157374501228333, 0.21135522425174713, -0.13228675723075867, 0.0998598113656044, -0.24668562412261963, 0.021641695871949196, 0.05162423476576805, -0.2900116443634033, -0.23427222669124603, 0.20181317627429962, 0.06763678789138794, 0.10836733132600784, -0.16288581490516663, -0.13295909762382507, 0.27812105417251587, -0.28120437264442444, 0.17442777752876282, 0.02965315617620945, 0.15493053197860718, -0.15757693350315094, -0.084280826151371, -0.05546477809548378, 0.14698617160320282, -0.15645471215248108, 0.046325746923685074, -0.09028548747301102, 0.13501232862472534, 0.0645359605550766, 0.37811487913131714, -0.19559650123119354, -0.18863128125667572, -0.10581693798303604, -0.2803230285644531, 0.16505852341651917, -0.31388381123542786, 0.07025079429149628, -0.2068505436182022, -0.17217020690441132, 0.045392200350761414, 0.1638951450586319, -0.2901151180267334, -0.008570334874093533, -0.2475549280643463, -0.14363090693950653, 0.24132536351680756, -0.05821041762828827, -0.0027803864795714617, 0.019600439816713333, 0.06239558383822441, -0.5078498721122742, 0.015962954610586166, -0.09545409679412842, 0.3053617775440216, 0.13794180750846863, -0.07009821385145187, 0.18629492819309235, -0.022418377920985222, -0.42117053270339966, 0.05112432315945625, 0.03493111953139305, -0.059162672609090805, 0.2914053797721863, -0.0677909404039383, 0.05948871001601219, -0.20243217051029205, -0.009896285831928253, -0.24875055253505707, 0.23494869470596313, 0.1092718094587326, 0.12795178592205048, -0.004843047820031643, -0.026974724605679512, -0.162729412317276, 0.2262413203716278, -0.027500005438923836, -0.07875745743513107, -0.13040806353092194, -0.07106893509626389, 0.21801519393920898, 0.08631005138158798, 0.0967121496796608, -0.2853446304798126, 0.4616873860359192, -0.10996345430612564, 0.15885402262210846, 0.21445173025131226, 0.27761611342430115, -0.2798115909099579, 0.28695350885391235, 0.05698968842625618, 0.11717089265584946, 0.2646457552909851, 0.0199894942343235, 0.06646077334880829, -0.230547696352005, -0.027710387483239174, 0.06202208995819092, -0.06569677591323853, -0.1589074730873108, 0.05881239101290703, -0.15310285985469818, 0.11009672284126282, -0.09651465713977814, -0.24499072134494781, -0.06699810177087784, -0.1569238007068634, -0.24082829058170319, -0.084549181163311, -0.40202954411506653, -0.0750323012471199, 0.08007759600877762, -0.005404983647167683, -0.10400243103504181, -0.13258686661720276, 0.12238308042287827, -0.21043241024017334, -0.02793901413679123, 0.059629589319229126, 0.17855271697044373, 0.1649254858493805, 0.19043268263339996, -0.1680934876203537, -0.009608883410692215, 0.15171092748641968, 0.3405030369758606, 0.0156661719083786, 0.03201405331492424, -0.46732285618782043, -0.36638057231903076, -0.07341938465833664, -0.0863397940993309, 0.02708159200847149, -0.2921794652938843, -0.05993682146072388, 0.004791643004864454, -0.10091975331306458, -0.08174525946378708, -0.1993688941001892, -0.2775924801826477, -0.3799295127391815, 0.11027470976114273, -0.02099776081740856, 0.3031209111213684, 0.13094604015350342, -0.06091848388314247, -0.0643835961818695, -0.035273853689432144, 0.010852282866835594, 0.23059074580669403, 0.012220270000398159, -0.05438666790723801, -0.0036748857237398624, -0.15322716534137726, -0.12097812443971634, 0.15222880244255066, -0.07114195823669434, 0.30365291237831116, -0.15657715499401093, 0.1347256898880005, 0.00829290971159935, 0.08031230419874191, -0.1301586627960205, -0.20016071200370789, 0.14461803436279297, -0.14205758273601532, 0.14652033150196075, -0.19448968768119812, -0.08233670890331268, -0.1939440369606018, -0.08242218941450119, 0.06645296514034271, 0.027514616027474403, -0.16005949676036835, 0.182203009724617, 0.07826681435108185, -0.10004298388957977, -0.12379397451877594, -0.059937622398138046, 0.322237104177475, 0.002158129820600152, -0.0032794498838484287, -0.05196880176663399, -0.21810689568519592, -0.07630040496587753, 0.04683441296219826, 0.12193769961595535, 0.08004675805568695, -0.13420823216438293, -0.39213141798973083, 0.33890533447265625, -0.1093650534749031, -0.07223651558160782, -0.27215495705604553, -0.12211336195468903, -0.17824587225914001, -0.11504411697387695, 0.05812019854784012, 0.3119677007198334, -0.008883224800229073, 0.03147627413272858, 0.32512199878692627, -0.06363120675086975, -0.10953804850578308, 0.04025128856301308, 0.03517504408955574, -0.15129956603050232, -0.06152135878801346, 0.11745884269475937, 0.20249345898628235, -0.1097477525472641, 0.11716669797897339, 0.08027826249599457, 0.04544168338179588, 0.20213578641414642, 0.2602063715457916, 0.17387081682682037, 0.006076083052903414, 0.06546052545309067, 0.05080098658800125, -0.13752472400665283, -0.09558793902397156, 0.053077541291713715, 0.05492664501070976, 0.12041817605495453, 0.15764980018138885, -0.20930510759353638, -0.2234727442264557, 0.008633112534880638, 0.025251969695091248, -0.026178136467933655, 0.24750812351703644, -0.05693526566028595, -0.4621984362602234, -0.024978291243314743, -0.030185893177986145, 0.19560356438159943, -0.18288512527942657, 0.08223049342632294, -0.01565937139093876, -0.10865111649036407, -0.024065954610705376, -0.31889939308166504, -0.10043381154537201, 0.006389410234987736, -0.08234503120183945, 0.14692874252796173, -0.13066469132900238, -0.30017024278640747, 0.06650465726852417, -0.2647092342376709, -0.0338694229722023, 0.19792303442955017, 0.11214317381381989, 0.11803092807531357, -0.1107792779803276, -0.09928259253501892, -0.1625281721353531, -0.13317908346652985, -0.1489492952823639, 0.04602917283773422, 0.21989589929580688, 0.2566426992416382, 0.12473748624324799, -0.18776574730873108, -0.3020954430103302, -0.1451842486858368, -0.08576694875955582, 0.059973057359457016, 0.04148353636264801, -0.11702650785446167, -0.11227482557296753, -0.26067444682121277, -0.0623101070523262, -0.011170822195708752, 0.02724836952984333, 0.2907041907310486, 0.05547948554158211, -0.010302932001650333, -0.2928834557533264, -0.01439712941646576, 0.06025359034538269, 0.2397570163011551, -0.12009204179048538, -0.26164761185646057, 0.14288616180419922, 0.10994981974363327, 0.048189446330070496, -0.24059823155403137, 0.09390296041965485, -0.2022026926279068, 0.3672129809856415, 0.05595805495977402, 0.22516557574272156, -0.24729488790035248, -0.10372760891914368, -0.019664881750941277, -0.1682291179895401, -0.037239428609609604, 0.1956750601530075, -0.07736493647098541, 0.2432359904050827, 0.14563457667827606, -0.051068130880594254, -0.026078015565872192, 0.06569313257932663, 0.0032379727344959974, -0.1595480740070343, 0.32321372628211975, -0.15476442873477936, 0.07207942008972168, -0.26025503873825073, 0.022693166509270668, 0.003101475303992629, 0.03293469920754433, -0.023930063471198082, -0.1274193525314331, -0.16274453699588776, 0.07873952388763428, -0.08199815452098846, 0.04691913351416588, 0.033468395471572876, 0.0455939956009388, 0.20068171620368958, -0.044301483780145645, -0.18341675400733948, 0.14417125284671783, -0.19660358130931854, 0.004891793709248304, 0.224226176738739, 0.012955906800925732, -0.04264010488986969, 0.08991417288780212, -0.6444838047027588, 0.205171599984169, -0.2306937277317047, 0.1250791698694229, -0.2229934185743332, 0.09473281353712082, 0.02697989158332348, 0.08381453901529312, -0.14585000276565552, -0.037750862538814545, 0.12167470902204514, 0.10506298393011093, 0.22176949679851532, -0.013512734323740005, -0.141325905919075, 0.10364248603582382, -0.0653517097234726, 0.13336549699306488, 0.057455774396657944, -0.15996041893959045, 0.04707176983356476, 0.1789274960756302, 0.09628236293792725, -0.03985152393579483, 0.035555701702833176, -0.03667423874139786, 0.04089196398854256, -0.08118775486946106, 0.11168638616800308, 0.017938992008566856, 0.06444042176008224, 0.14742030203342438, 0.10620612651109695, -0.06950072944164276, 0.23403750360012054, -0.2278434932231903, -0.24610896408557892, 0.1277417689561844, -0.1564909666776657, -0.151278555393219, -0.1601696014404297, 0.12071101367473602, 0.2448468804359436, 0.2036074995994568, 0.02875877171754837, -0.12734025716781616, 0.09099932760000229, -0.1472371220588684, -0.20564033091068268, -0.19294072687625885, 0.07538026571273804, -0.014879658818244934, -0.08555611222982407, 0.25207024812698364, -0.007981404662132263, 0.2089022397994995, -0.1411653608083725, 0.21180205047130585, -0.09615617245435715, -0.18344780802726746, 0.2973197400569916, -0.0837109237909317, -0.3604326546192169, -0.09182118624448776, -0.17507857084274292, -0.22637787461280823, -0.15386196970939636, 0.1296466737985611, 0.011264549568295479, -0.0543772429227829, 0.06407403200864792, -0.09924402087926865, -0.09542238712310791, -0.04701434075832367, 0.17203180491924286, 0.1064196527004242, 0.2574475407600403, -0.08849265426397324, 0.0978122279047966, -0.14792366325855255, 0.02616901881992817, -0.40472710132598877, -0.19068866968154907, -0.18051980435848236, -0.01698399893939495, -0.02554110251367092, -0.18063046038150787, -0.17177285254001617, -0.12504571676254272, -0.08780974894762039, 0.27665600180625916, -0.05622569099068642, -0.37302619218826294, 0.0669289156794548, -0.168889582157135, -0.2676403224468231, 0.13985495269298553, -0.1575552523136139, 0.2951365113258362, -0.061409540474414825, -0.04774770885705948, 0.0024631069973111153, 0.02185620367527008, 0.020091932266950607, 0.08056468516588211, -0.017968714237213135, -0.010089644230902195, 0.2689639627933502, -0.15768006443977356, -0.21389468014240265, 0.09291712194681168, 0.02069459855556488, 0.08249868452548981, -0.006713277194648981, 0.08614686131477356, 0.28808721899986267, -0.002857350278645754, -0.1483331173658371, 0.004637063946574926, 0.11340714991092682, 0.021721236407756805, 0.03820372000336647, -0.07248853892087936, 0.1435307413339615, -0.09092861413955688, 0.040628381073474884, -0.08862396329641342, -0.24251602590084076, -0.3346922993659973, 0.29076990485191345, 0.07792327553033829, 0.46830156445503235, -0.05453309789299965, -0.14433658123016357, 0.16447947919368744, 0.20356585085391998, 0.10397439450025558, 0.5243894457817078, -0.22016696631908417, -0.025106536224484444, 0.31236639618873596, -0.16261495649814606, 0.03361964225769043, -0.035099197179079056, 0.09549813717603683, -0.018191175535321236, -0.30914008617401123, 0.3236631155014038, 0.11575336754322052, 0.28368183970451355, 0.05840710178017616, -0.16425377130508423, 0.12977436184883118, 0.005135948769748211, -0.16661030054092407, 0.16186657547950745, 0.2548780143260956, 0.016361618414521217, 0.32834598422050476, 0.004771141335368156, -0.13023437559604645, 0.032134126871824265, 0.1644396334886551, 0.07809507101774216, -0.34716278314590454, -0.49525681138038635, 0.882278323173523, 0.3996773362159729, -0.4927646815776825, 0.09237591922283173, -0.2746569812297821, -0.06285533308982849, 0.5642310976982117, -0.6955624222755432, 1.3810226917266846, 0.5316447615623474, 0.05806681886315346, -0.4003819227218628, 0.14764349162578583, -0.7165030837059021, 0.09583404660224915, -0.2351253181695938, -0.126652330160141, -0.27220532298088074, -0.016674891114234924, 0.2327943593263626, 0.1029057502746582, 0.14376714825630188, 0.22344328463077545, 0.09056107699871063, 0.011341138742864132, 0.15628297626972198, -0.17900137603282928, 0.06862839311361313, 0.03949342295527458, -0.1631595939397812, 0.189198300242424, -0.16034774482250214, -0.09630128741264343, 0.06596755236387253, -0.1488201916217804, -0.2656252682209015, 0.25565212965011597, -0.5558489561080933, -0.10009818524122238, -0.5447230339050293, 0.01775694452226162, -0.19936245679855347, 0.01064808014780283, 0.5611818432807922, 0.3708168566226959, -0.28696930408477783, 0.043395016342401505, -0.20069043338298798, -0.37789466977119446, -0.1336470991373062, 0.5298371315002441, -0.7251118421554565, -0.21721655130386353, -0.05566871538758278, -0.08676893264055252, 0.4263291358947754, -0.30252504348754883, 0.5397530198097229, 0.43229082226753235, -0.20711110532283783, -0.12498559802770615, 0.3315976858139038, 0.09885692596435547, -0.07174608111381531, -0.21400828659534454, -0.08611907064914703, -0.3902973234653473, 0.1852232813835144, -0.10766696184873581, 0.2530840039253235, 0.32942095398902893, -0.06701763719320297, 0.051816876977682114, 0.2022692859172821, 0.12157438695430756, 0.2712748944759369, 0.20544134080410004, -0.34066513180732727, 0.1756581813097, -0.39765962958335876, 0.13660183548927307, -0.06766435503959656, -0.2895055115222931, -0.6193578243255615, 0.3902393579483032, -0.29017940163612366, 0.28011059761047363, -0.4337363839149475, 0.18624749779701233, 0.08175589889287949, -0.32269805669784546, 0.1403004676103592, 0.31701287627220154, -0.44867756962776184, 0.0697239562869072, -0.06885843724012375, 0.15932825207710266, -0.12402287125587463, 0.3966216742992401, -0.3795296251773834, -0.022676784545183182, 0.0974133312702179, -0.12009524554014206, 0.03225727751851082, -0.06624188274145126, 0.3273439109325409, -0.0038351991679519415, 0.09024506062269211, 0.06438691169023514, 0.13171687722206116, -0.33970263600349426, 0.16148841381072998, -0.1981658786535263, 0.09669790416955948, 0.007848295383155346, 0.19468505680561066, 0.21686454117298126, -0.10667348653078079, -0.12894044816493988, -0.021345771849155426, -0.05943663418292999, -0.1596072018146515, 0.1365319937467575, -0.04894019663333893, -0.02972213737666607, 0.02482297271490097, 0.3161271810531616, -0.01222044974565506, -0.11239638179540634, -0.2328810840845108, 0.04696142300963402, 0.001566527527756989, -0.02289757877588272, -0.05425285920500755, 0.08193836361169815, 0.10549219697713852, -0.006512614898383617, 0.24367718398571014, 0.09022806584835052, -0.2965298891067505, 0.31541508436203003, -0.13289104402065277, -0.3147393465042114, 0.2900204062461853, -0.036296289414167404, 0.2575473487377167, 0.26243212819099426, -0.1495247185230255, -0.2768874168395996, 0.19907556474208832, -0.10615978389978409, 0.1847165822982788, -0.212831512093544, 0.22785444557666779, -0.1825188398361206, 0.03837263211607933, 0.05082109570503235, -0.04742353782057762, 0.18837380409240723, -0.09968119859695435, -0.44203585386276245, 0.1024157926440239, 0.04239042475819588, 0.13948819041252136, -0.15477119386196136, 0.010768169537186623, -0.04838871583342552, 0.22407099604606628, 0.1582881212234497, -0.1002936065196991, 0.0782385841012001, 0.03567595034837723, 0.47985875606536865, 0.14760565757751465, 0.18100111186504364, -0.04875518009066582, -0.017403747886419296, -0.24409538507461548, 0.10869529098272324, 0.1365441232919693, 0.19794057309627533, -0.11113291233778, 0.2827977240085602, 0.2334577739238739, -0.38329067826271057, -0.0004870741395279765, 0.11192448437213898, -0.27264657616615295, 0.049323856830596924, 0.31665632128715515, 0.12852410972118378, -0.009697580710053444, -0.3281163275241852, -0.23753595352172852, -0.0050252871587872505, 0.18034394085407257, 0.36359095573425293, -0.031073857098817825, 0.05036177113652229, -0.5330906510353088, -0.1407422423362732, 0.411971777677536, -0.45160192251205444, -0.07760390639305115, 0.08526483923196793, 0.04268188029527664, -0.11289528012275696, -0.19868715107440948, 0.03555251657962799, 0.10935936868190765, 0.17799857258796692, -0.2986907362937927, -0.38771528005599976, -0.1109667718410492, 0.1357870101928711, -0.08086732774972916, -0.3104129135608673, 0.088992640376091, -0.14905473589897156, 0.14290668070316315, -0.25205469131469727, 0.12917642295360565, -0.385295569896698, 0.14210134744644165, -0.4088597595691681, -0.10009899735450745, 0.09189611673355103, -0.2061997354030609, 0.32674917578697205, -0.4384116530418396, 0.2308468371629715, -0.4446355402469635, 0.012144885025918484, -0.16655772924423218, -0.10768083482980728, 0.17030467092990875, -0.06028219684958458, 0.09898695349693298, 0.25545361638069153, 0.0255935937166214, 0.07765407860279083, -0.083692267537117, -0.11780581623315811, -0.19491437077522278, 0.09201229363679886, -0.17973428964614868, 0.26899492740631104, 0.29546058177948, 0.1885649412870407, 0.2967425584793091, -0.08206810802221298, 0.1800965964794159, 0.1331777572631836, -0.25490036606788635, 0.03210427612066269, -0.4084859788417816, 0.1352432370185852, -0.14643529057502747, -0.5621033906936646, -0.3337463140487671, 0.21912781894207, -0.2730553448200226, 0.023737391456961632, -0.03471250832080841, 0.4069519639015198, 0.2927749752998352, -0.17426149547100067, -0.19142694771289825, 0.0305862445384264, -0.3542906939983368, 0.09031490236520767, 0.14315401017665863, 0.19772809743881226, 0.049676038324832916, 0.17085595428943634, 0.13636332750320435, 0.029383312910795212, -0.0576755553483963, -0.16166481375694275, -0.1953800767660141, 0.0695066750049591, -0.07116257399320602, 0.21868877112865448, 0.13015860319137573, 0.04856777563691139, 0.2018522322177887, -0.07208821922540665, -0.15234681963920593, 0.09486096352338791, -0.08561478555202484, -0.17183630168437958, -0.060794685035943985, -0.2015077769756317, -0.2594919502735138, 0.3641085922718048, 0.13750074803829193, 0.057250749319791794, 0.11422591656446457, -0.07027256488800049, -0.16311587393283844, 0.002270652446895838, -0.07619287073612213, -0.012991458177566528, 0.16815510392189026, 0.2336929738521576, -0.052191685885190964, -0.20831753313541412, -0.24437901377677917, 0.06453285366296768, 0.1721711903810501, 0.09636636823415756, -0.17551502585411072, -0.22039110958576202, -0.042644888162612915, 0.13515712320804596, -0.016690906137228012, -0.04985329881310463, -0.3011235296726227, 0.4026229679584503, 0.16588611900806427, -0.20383641123771667, -0.03814341127872467, -0.2903323769569397, -0.07640988379716873, 0.18992383778095245, 0.23427903652191162, -0.032536569982767105, -0.32214149832725525, -0.22710120677947998, -0.19058148562908173, 0.12797331809997559, -0.08661025017499924, -0.04491758719086647, 0.13763993978500366, -0.2396194040775299, 0.32140153646469116, 0.018776245415210724, 0.15897874534130096, -0.19807320833206177, -0.19931383430957794, -0.23456783592700958, -0.2439851462841034, -0.057459186762571335, -0.5882776975631714, 0.06542084366083145, 0.5757066607475281, -0.1676182746887207, 0.19236494600772858, 0.11734514683485031, -0.17130374908447266, -0.17527730762958527, -0.2952377200126648, 0.010625885799527168, -0.0608861930668354, 0.10602734982967377, 0.06185846030712128, 0.23165985941886902, -0.031387247145175934, 0.03751750662922859, -0.19612331688404083, -0.016803430393338203, -0.19670560956001282, 0.17571595311164856, -0.03566526249051094, -0.5126107335090637, 0.1362893432378769, 0.008634103462100029, 0.027176598086953163, -0.09598814696073532, 0.12173397839069366, -0.12522168457508087, -0.4097222089767456, -0.4500437378883362, 0.06913886964321136, -0.22900454699993134, -0.004315937403589487, -0.1253429651260376, 0.31611597537994385, 0.0728488638997078, -0.15459340810775757, 0.22899001836776733, -0.1270523965358734, -0.201402947306633, -0.24894866347312927, 0.194451704621315, -0.22738337516784668, -0.3000906705856323, 0.04293648153543472, -0.14278224110603333, -0.0695418044924736, -0.03671040013432503, -0.2027416229248047, 0.19030854105949402, 0.26944756507873535, 0.1127459853887558, -0.12959443032741547, 0.03292638063430786, -0.10617563128471375, -0.15619835257530212, -0.03112977370619774, 0.07724440842866898, 0.15779882669448853, -0.12169323861598969, 0.003763445420190692, -0.144817516207695, 0.1227041631937027, -0.0054017165675759315, 0.07830192148685455, 0.0648379996418953, -0.270175039768219, -0.06075182929635048, -0.027298923581838608, -0.2348417341709137, -0.36478397250175476, -0.1370997577905655, -0.0859973207116127, -0.23663173615932465, -0.0037789074704051018, -0.3386792540550232, -0.047463346272706985, -0.15383991599082947, -0.32418015599250793, -0.12823091447353363, -0.057397812604904175, 0.12635990977287292, -0.22031773626804352, 0.08130422979593277, 0.03466944769024849, -0.01139145065099001, 0.1854081004858017, -0.1649240106344223, 0.21728409826755524, 0.02858489379286766, 0.2649826109409332, 0.29636451601982117, -0.08714713156223297, 0.1181887686252594, 0.0040608798153698444, 0.1392512172460556, -0.1222689151763916, -0.11163060367107391, -0.13092194497585297, 0.00012611340207513422, 0.2672683596611023, -0.05406178534030914, -0.13178138434886932, -0.0819481611251831, 0.051682233810424805, 0.270191490650177, -0.06139197200536728, -0.021397443488240242, -0.12248516827821732, 0.061611831188201904, 0.1852702498435974, 0.16493290662765503, -0.2187643051147461, -0.1700102686882019, -0.14432111382484436, -0.08398459106683731, 0.11645584553480148, -0.09810781478881836, 0.40089544653892517, 0.0034613001625984907, 0.16131432354450226, 0.16088730096817017, -0.07106988877058029, -0.062041640281677246, 0.02812267281115055, -0.23755843937397003, 0.38373902440071106, 0.2552775740623474, -0.3387022018432617, -0.3348364531993866, 0.12977834045886993, -0.0704241693019867, -0.25734949111938477, 0.15572471916675568, 0.0031471753027290106, 0.1273992657661438, -0.03709685802459717, -0.1185053288936615, -0.10419061779975891, 0.17804469168186188, 0.01312984712421894, 0.14920152723789215, -0.1514185518026352, -0.07437292486429214, -0.018880251795053482, -0.06176139786839485, -0.020214391872286797, 0.050062958151102066, -0.23263615369796753, -0.17656412720680237, -0.062341637909412384, 0.038937341421842575, 0.14113199710845947, -0.06721333414316177, -0.06474524736404419, 0.06386316567659378, 0.18416553735733032, 0.054612431675195694, -0.032397691160440445, -0.13105598092079163, 0.10138928890228271, -0.11861443519592285, -0.07834028452634811, 0.19185513257980347, -0.09174613654613495, 0.18890345096588135, 0.03349987417459488, -0.027819601818919182, -0.4236695468425751, -0.3247370719909668, -0.17347024381160736, 0.006455315742641687, 0.02363138273358345, 0.06988860666751862, -0.1956923007965088, 0.03760271519422531, 0.04749532416462898, 0.06310882419347763, -0.04239989444613457, -0.028497857972979546, 0.10344832390546799, -0.14734336733818054, -0.022423597052693367, 0.11066179722547531, -0.02237292379140854, -0.08480137586593628, 0.05174802988767624, 0.4268987476825714, 0.29020336270332336, 0.33835476636886597, -0.08126892894506454, -0.25200769305229187, -0.17795825004577637, -0.06918688118457794, 0.02863982319831848, 0.15456277132034302, -0.18718045949935913, -0.15744982659816742, -0.08113204687833786, -0.11944262683391571, -0.11805874109268188, -0.07395428419113159, 0.062366314232349396, 0.16957953572273254, 0.08908898383378983, 0.041933562606573105, -0.130427747964859, -0.11638998240232468, 0.02365012653172016, 0.022022169083356857, -0.05029330030083656, 0.04019385576248169, -0.09601904451847076, -0.11508049815893173, -0.04146995395421982, -0.3165476322174072, -0.19526301324367523, -0.06998898088932037, 0.28652846813201904, 0.06982183456420898, -0.13800355792045593, -0.39394521713256836, -0.21916717290878296, 0.06559350341558456, 0.23115523159503937, 0.15728597342967987, 0.046808645129203796, -0.07975636422634125, 0.10263694077730179, 0.09001389890909195, -0.0454130582511425, 0.020251110196113586, -0.03071008250117302, 0.005895058158785105, 0.07864437252283096, 0.05744180828332901, 0.16951674222946167, 0.2209949493408203, -0.043633632361888885, 0.16948673129081726, -0.06028015539050102, -0.14637714624404907, -0.08778934180736542, -0.20180381834506989, -0.064222551882267, 0.1133134737610817, -0.16598725318908691, -0.2562781572341919, 0.26377072930336, 0.0038476302288472652, 0.0322791188955307, -0.17656826972961426, -0.009934368543326855, -0.13095910847187042, 0.08640217036008835, 0.11700726300477982, 0.2079448103904724, -0.07385329157114029, 0.033138614147901535, 0.008648600429296494, 0.18280576169490814, 0.032469891011714935, -0.08806567639112473, 0.3086386024951935, 0.17639288306236267, -0.160391703248024, -0.12162373960018158, 0.37557125091552734, -0.17593207955360413, 0.033171460032463074, 0.013869917020201683, 0.2800939977169037, -0.23883730173110962, -0.07000359892845154, 0.23131117224693298, 0.3641585111618042, -0.12955953180789948, -0.13198982179164886, -0.06667385250329971, -0.05158738046884537, 0.1653117835521698, 0.05502917617559433, 0.26114708185195923, 0.47707390785217285, -0.24681414663791656, -0.5038782954216003, -0.362983375787735, 0.20442655682563782, -0.07647290825843811, 0.048235028982162476, 0.059761952608823776, -0.20198364555835724, 0.33259910345077515, -0.006938354577869177, -0.1870201677083969, -0.02128518745303154, -0.08009893447160721, 0.12708155810832977, -0.34450188279151917, -0.06678652763366699, -0.15280330181121826, 0.22416846454143524, -0.01171345729380846, 0.18320335447788239, -0.17754922807216644, 0.060504984110593796, -0.12663282454013824, 0.029401425272226334, -0.09538266807794571, -0.32594549655914307, 0.053730081766843796, -0.14761412143707275, 0.045478660613298416, -0.4959815740585327, 0.08198552578687668, -0.09340058267116547, 0.15274471044540405, 0.035750675946474075, 0.21614815294742584, -0.08780357241630554, -0.3770489990711212, -0.21783265471458435, 0.07441968470811844, 0.010986873880028725, -0.14500465989112854, 0.13208793103694916, 0.04336264356970787, -0.08187322318553925, 0.2701667845249176, 0.169783353805542, 0.1658090054988861, 0.032303664833307266, -0.05334516614675522, 0.14507247507572174, -0.10874638706445694, -0.05471985414624214, -0.3293305039405823, -0.274755597114563, -0.014786869287490845, -0.1978621631860733, 0.028782853856682777, -0.0720452219247818, -0.052018485963344574, 0.10789059847593307, -0.3552587628364563, -0.033017292618751526, -0.3355659246444702, -0.04690949246287346, 0.006308887619525194, 0.09025052189826965, -0.07835718244314194, -0.0345049723982811, -0.27439844608306885, -0.11781735718250275, -0.07203500717878342, 0.20620949566364288, -0.1782097965478897, 0.07194750010967255, 0.13161572813987732, -0.061955470591783524, 0.18493308126926422, -0.18345683813095093, 0.22107477486133575, 0.529147744178772, 0.0541205070912838, -0.17313948273658752, 0.18263189494609833, -0.1871696263551712, 0.2455819547176361, -0.09110969305038452, 0.1168045774102211, -0.1860879510641098, -0.03267236053943634, 0.026015812531113625, 0.10030708461999893, -0.3254621624946594, -0.04318748414516449, 0.15970639884471893, 0.1419803500175476, -0.10031647980213165, 0.3566531836986542, 0.06162118911743164, -0.19422225654125214, -0.031998585909605026, 0.46725034713745117, 0.011506372131407261, -0.26423344016075134, -0.132684126496315, -0.04679964855313301, 0.2673041820526123, -0.21166639029979706, -0.10452587902545929, 0.014806250110268593, 0.2239755392074585, 0.03205493465065956, -0.006060123909264803, -0.20756980776786804, -0.014253845438361168, 0.28170058131217957, 0.2819455564022064, 0.09802083671092987, -0.2093825489282608, -0.2638949751853943, 0.005311237648129463, 0.04391336441040039, -0.04241088032722473, -0.057737085968256, 0.1271495819091797, 0.26021328568458557, -0.2926667332649231, -0.3508933186531067, 0.07301660627126694, 0.04276682063937187, -0.03232913091778755, 0.1877988874912262, 0.2262088507413864, -0.12047047913074493, -0.0035690502263605595, 0.04527963325381279, 0.10558772087097168, -0.16785261034965515, -0.12842096388339996, 0.34195345640182495, 0.10482565313577652, -0.1219840869307518, 0.15516193211078644, 0.21633197367191315, 0.006627669092267752, 0.035993244498968124, -0.3406658172607422, -0.10020957142114639, 0.077840656042099, -0.034349557012319565, 0.16542568802833557, 0.026773562654852867, -0.22912122309207916, -0.16293326020240784, 0.043155964463949203, 0.14999233186244965, 0.03269289806485176, 0.1333225965499878, 0.19213099777698517, 0.17031311988830566, -0.1573674976825714, -0.15954509377479553, -0.027635548263788223, 0.18775536119937897, 0.12347009032964706, 0.12950681149959564, 0.008154843933880329, -0.21415607631206512, -0.019829103723168373, 0.1625240296125412, -0.0029563503339886665, 0.0656077191233635, 0.18839824199676514, 0.002960497047752142, -0.039115045219659805, -0.2051788866519928, 0.29530593752861023, -0.1250683069229126, -0.20657557249069214, 0.19787092506885529, 0.034152187407016754, -0.1517101675271988, -0.050926584750413895, 0.1817021518945694, 0.3217516541481018, -0.05937853455543518, 0.014144502580165863, 0.11149690300226212, -0.29574665427207947, -0.19444328546524048, 0.18162743747234344, 0.04699976369738579, -0.3322545289993286, 0.2713645398616791, 0.4256475567817688, -0.19910532236099243, -0.1225699633359909, 0.2109072357416153, -0.188421830534935, -0.2454071342945099, -0.25345829129219055, -0.3145371675491333, 0.3290403485298157, -0.1325022429227829, -0.29532891511917114, 0.08469615876674652, 0.18809406459331512, 0.054276786744594574, -0.29324471950531006, -0.1419910341501236, -0.17492812871932983, 0.3600005805492401, 0.10178090631961823, -0.0010379413142800331, -0.24800121784210205, -0.2850831151008606, 0.13372667133808136, 0.2903704047203064, 0.21490789949893951, -0.4596099853515625, 0.3007790446281433, 0.2668471336364746, -0.35330602526664734, -0.12514975666999817, 0.23200668394565582, -0.0036073781084269285, -0.2740456759929657, 0.31833791732788086, -0.05768429487943649, -0.00540162855759263, -0.1921290159225464, -0.3837220072746277, 0.12313340604305267, -0.08068118244409561, -0.21024353802204132, 0.34443408250808716, 0.13922566175460815, 0.061482593417167664, -0.07097792625427246, 0.055986758321523666, -0.06561094522476196, 0.0008499814430251718, 0.13850097358226776, -0.15473568439483643, -0.3606832027435303, -0.11998433619737625, 0.006679937243461609, -0.255161315202713, 0.027043577283620834, 0.04547639191150665, -0.12445855885744095, 0.14807285368442535, -0.01225548330694437, -0.16702063381671906, -0.17648307979106903, 0.06887838244438171, -0.05330292880535126, 0.19299474358558655, 0.003336844500154257, -0.002245019655674696, -0.1758696585893631, 0.13984838128089905, -0.07899337261915207, -0.08295535296201706, 0.15040355920791626, -0.07935427129268646, 0.10207284241914749, 0.1178065836429596, -0.19978173077106476, -0.18925321102142334, 0.09367795288562775, 0.253160685300827, 0.11031835526227951, 0.09064348042011261, -0.11477714776992798, 0.15197044610977173, 0.10519583523273468, 0.2711285650730133, -0.011499322019517422, -0.09309867024421692, -0.11104223877191544, 0.15770861506462097, -0.05972426384687424, -0.10206234455108643, 0.22368000447750092, 0.00704908324405551, 0.004859025590121746, -0.4834432303905487, -0.03266936540603638, -0.26640981435775757, 0.005153598263859749, -0.016364356502890587, 0.134707510471344, 0.27192050218582153, 0.03586161509156227, 0.32654130458831787, 0.27108749747276306, -0.023566661402583122, -0.054909076541662216, 0.10240394622087479, 0.044596996158361435, -0.12686026096343994, -0.31504401564598083, 0.005719393957406282, 0.26009002327919006, 0.04414345696568489, 0.01859944686293602, -0.2873769700527191, -0.19007469713687897, -0.014093557372689247, 0.30573731660842896, 0.15135638415813446, 0.040106240659952164, -0.049182385206222534, 0.06424403935670853, 0.05043012648820877, -0.04358196631073952, 0.06753671914339066, 0.09535548090934753, -0.013187214732170105, -0.005381936673074961, -0.13021236658096313, 0.2176443338394165, -0.26079174876213074, -0.09091588854789734, 0.2916276752948761, 0.06488816440105438, -0.02130187302827835, -0.13139301538467407, 0.13908639550209045, 0.10955951362848282, -0.12818872928619385, 0.09807910770177841, 0.0926588699221611, 0.04331197217106819, -0.18810847401618958, -0.07284729927778244, 0.3963783085346222, -0.3199006915092468, -0.40181469917297363, -0.011679735034704208, -0.09892674535512924, -0.05577804520726204, -0.13977262377738953, -0.05095008388161659, -0.13777509331703186, -0.14475032687187195, 0.19752299785614014, 0.050193626433610916, 0.07800949364900589, -0.0858674868941307, -0.23030762374401093, 0.13198357820510864, 0.00590095529332757, 0.10649894922971725, -0.009272000752389431, -0.13001923263072968, -0.0180799663066864, 0.10675442963838577, -0.044062480330467224, 0.18597684800624847, -0.13772568106651306, 0.0049406313337385654, -0.19718965888023376, 0.06109010428190231, 0.1841229498386383, 0.02405032515525818, -0.04796557500958443, -0.12930341064929962, -0.0720280259847641, 0.17757689952850342, -0.04108507186174393, 0.10494202375411987, 0.27805086970329285, -0.008356012403964996, -0.01068180799484253, -0.18720537424087524, 0.009085087105631828, 0.06153314560651779, -0.06602971255779266, -0.20785300433635712, 0.18273283541202545, 0.07585860043764114, -0.13760565221309662, -0.013121187686920166, -0.08680034428834915, -0.17127680778503418, -0.1775304079055786, -0.33073437213897705, 0.47034573554992676, -0.1659756600856781, -0.07997249066829681, -0.14578421413898468, 0.12143101543188095, 0.18367624282836914, -0.25099441409111023, 0.08826873451471329, 0.08005531877279282, 0.1644551306962967, -0.11019934713840485, -0.1672791838645935, -0.15046875178813934, 0.23349514603614807, -0.0035033593885600567, 0.16834907233715057, -0.18344949185848236, -0.1846371740102768, -0.07374781370162964, 0.024846242740750313, 0.18757081031799316, -0.07296258956193924, 0.021693425253033638, -0.11295074969530106, 0.48070698976516724, -0.19581586122512817, 0.20578226447105408, 0.27494701743125916, 0.23709560930728912, 0.01020190678536892, 0.33188119530677795, -0.11088152229785919, 0.0736025869846344, -0.14167778193950653, 0.06766825169324875, 0.022800417616963387, -0.21592353284358978, 0.07358278334140778, 0.21292278170585632, 0.02562677301466465, -0.08882754296064377, 0.08194950222969055, -0.09821006655693054, 0.10062701255083084, 0.0037466709036380053, 0.07835368812084198, -0.05363297089934349, 0.02198737859725952, 0.24276702105998993, 0.2509056627750397, -0.11637099832296371, 0.09073483943939209, -0.16879650950431824, 0.03405483812093735, 0.05912138149142265, 0.6259034872055054, 0.26443997025489807, 0.5476192831993103, -0.8709412813186646, -0.3764515817165375, 0.171669140458107, 0.2926517128944397, 0.027103392407298088, 0.18482258915901184, 0.4868859052658081, -0.9158552885055542, 0.5277482271194458, -0.04954662546515465, -0.885870099067688, 0.19973503053188324, -0.060445114970207214, -0.07167750597000122, -0.19780007004737854, 0.23859092593193054, -0.37868532538414, 0.27829262614250183, 0.2141779512166977, -0.02613857202231884, -0.14143894612789154, -0.30248361825942993, 0.07357505708932877, -0.12255583703517914, 0.24358056485652924, 0.266841858625412, 0.04148127883672714, 0.2984634041786194, -0.17242226004600525, -0.15638893842697144, -0.018131304532289505, -0.07142838835716248, -0.24461939930915833, 0.2001136690378189, 0.26906871795654297, 0.07423505187034607, -0.18154296278953552, -0.05671464651823044, 0.03745210915803909, -0.28651753067970276, 0.3786331117153168, 0.26772981882095337, 0.16587884724140167, 0.025478219613432884, 0.04672161862254143, -0.1319485753774643, 0.005215655080974102, 0.05735403671860695, -0.3631816804409027, 0.20887336134910583, 0.004379880614578724, -0.20007333159446716, 0.20239095389842987, 0.3102898597717285, -0.18597812950611115, -0.24355243146419525, -0.4218895733356476, 0.12183314561843872, 0.15620926022529602, -0.3967122435569763, 0.3324538469314575, -0.4497237801551819, -0.16882270574569702, -0.1348164975643158, 0.1600233018398285, -0.09773411601781845, -0.03255416452884674, 0.24532997608184814, -0.035974565893411636, -0.2598516345024109, -0.2578839957714081, 0.13147440552711487, -0.33406248688697815, 0.11255918443202972, 0.2301187515258789, -0.06409476697444916, -0.32278671860694885, 0.2594938278198242, -0.15336598455905914, -0.14562389254570007, 0.13728803396224976, -0.014570252038538456, -0.0341152548789978, -0.02273597940802574, -0.21692726016044617, 0.15556195378303528, 0.3671613037586212, 0.16889111697673798, 0.42966538667678833, -0.1934705674648285, -0.14034873247146606, -0.20947572588920593, 0.06712482869625092, 0.055552490055561066, 0.11550356447696686, 0.09332485496997833, 0.34929484128952026, 0.06387417763471603, 0.36347654461860657, -0.008370164781808853, 0.2743832767009735, 0.2195822298526764, 0.1382949948310852, -0.3238646984100342, 0.35178112983703613, 0.05251206457614899, 0.02735588140785694, -0.36445102095603943, 0.029589097946882248, -0.12412088364362717, -0.20283974707126617, 0.011511621065437794, 0.07474559545516968, -0.4498288333415985, -0.5185672044754028, 0.20382332801818848, -0.09012360870838165, -0.19237571954727173, 0.076668381690979, 0.27640318870544434, -0.13632377982139587, -0.33828607201576233, -0.034404341131448746, -0.34074726700782776, -0.04697798937559128, 0.0653076097369194, 0.17252208292484283, -0.057036370038986206, 0.13182471692562103, -0.004440471064299345, -0.3572184443473816, -0.09848272055387497, 0.3007066547870636, -0.018289370462298393, 0.14929063618183136, 0.27632519602775574, 0.06769321858882904, -0.12179508805274963, 0.006805021781474352, 0.023795215412974358, 0.1275128424167633, -0.09920907765626907, 0.13454923033714294, 0.10287225991487503, -0.5494359731674194, 0.052821312099695206, 0.03904600441455841, -0.2190687656402588, -0.05339555814862251, -0.07406435161828995, -0.31907913088798523, -0.4197574257850647, -0.32099491357803345, 0.33580589294433594, 0.34604230523109436, -0.07560189813375473, 0.027397070080041885, -0.12855473160743713, -0.002965017920359969, 0.14929170906543732, 0.20738811790943146, -0.0955342948436737, 0.17765823006629944, -0.057714078575372696, 0.24990731477737427, -0.12623795866966248, -0.08496689796447754, 0.034575704485177994, 0.04291578754782677, 0.12763634324073792, -0.17778979241847992, -0.010593551211059093, -0.06017149239778519, -0.2872197926044464, 0.16306670010089874, -0.0026287438813596964, -0.5004028081893921, 0.044857729226350784, 0.1740625649690628, -0.18426842987537384, -0.5524641871452332, 0.3471633195877075, -0.06879115104675293, -0.2919621765613556, 0.016820937395095825, -0.07490765303373337, 0.26150819659233093, 0.6104360818862915, -0.16051986813545227, 0.03331264480948448, 0.09382111579179764, -0.06627138704061508, -0.13335905969142914, 0.023535573855042458, -0.14794708788394928, 0.0676141157746315, -0.02288426272571087, -0.16750243306159973, 0.05540374293923378, 0.37471163272857666, 0.45240700244903564, -0.22797077894210815, 0.15585346519947052, 0.0802278146147728, -0.08716294914484024, 0.10347806662321091, 0.3954066336154938, -0.07877899706363678, 0.23558010160923004, -0.009624365717172623, 0.1817048043012619, -0.03670132905244827, -0.24048830568790436, 0.08897844702005386, 0.17917396128177643, -0.21865049004554749, -0.18479233980178833, -0.11461956799030304, 0.2530798316001892, -0.08807402104139328, -0.08833549916744232, -0.03134637326002121, 0.025583600625395775, -0.012940330430865288, 0.2032647430896759, -0.14897698163986206, -0.03888963907957077, -0.04274445027112961, 0.09010931104421616, 0.1189943179488182, 0.31276893615722656, 0.12298737466335297, 0.13955456018447876, -0.379500150680542, -0.19731394946575165, -0.21916495263576508, 0.07358917593955994, 0.17250603437423706, -0.09250903129577637, 0.10883385688066483, -0.07847485691308975, -0.1718560755252838, -0.1941329389810562, -0.004326770082116127, 0.10474373400211334, -0.009102088399231434, 0.03349106386303902, -0.16098035871982574, 0.051667168736457825, 0.2048368602991104, -0.07052558660507202, -0.10818540304899216, 0.03507373854517937, -0.03726809471845627, -0.03576239198446274, -0.41474634408950806, -0.08675320446491241, -0.24580484628677368, -0.1881009191274643, 0.12356739491224289, -0.19766350090503693, -0.4642455279827118, 0.08987744152545929, -0.014101512730121613, -0.06090681627392769, -0.158596470952034, -0.05834183841943741, 0.07051821053028107, -0.02800023928284645, -0.15318739414215088, 0.0798218697309494, 0.165688619017601, -0.13158605992794037, 0.06571457535028458, 0.23353298008441925, -0.10090430080890656, 0.11371969431638718, -0.22889789938926697, 0.0003294430789537728, 0.040361419320106506, -0.00788065791130066, 0.14753630757331848, -0.044207826256752014, -0.12736156582832336, 0.009130247868597507, 0.15442584455013275, 0.046922747045755386, -0.10363209992647171, -0.041434746235609055, -0.02039089985191822, -0.009220501407980919, 0.15495170652866364, 0.27618902921676636, -0.09433925896883011, 0.012535757385194302, 0.051397424191236496, 0.34571924805641174, 0.03307624161243439, 0.0739387795329094, -0.4453655779361725, 0.08226723968982697, -0.10555693507194519, -0.19070206582546234, -0.07639376074075699, -0.04639480635523796, 0.2497052550315857, 0.3122028112411499, 0.20281079411506653, -0.38056811690330505, -0.11985933780670166, -0.110647052526474, 0.4920988976955414, 0.2449541538953781, -0.11671929061412811, -0.07822088897228241, 0.3144122362136841, 0.3103835880756378, 0.06286431849002838, -0.18024858832359314, -0.05979122221469879, -0.04641306772828102, -0.03935648873448372, 0.02924092672765255, 0.1232900321483612, -0.23802870512008667, -0.12835007905960083, 0.008154620416462421, 0.18077141046524048, -0.05156515911221504, -0.2770085334777832, 0.14765755832195282, 0.14958399534225464, -0.1782016158103943, -0.13158302009105682, -0.28883427381515503, 0.27581843733787537, 0.22719208896160126, -0.04738066345453262, -0.1284123659133911, 0.0750562846660614, 0.04749209061264992, 0.14440235495567322, -0.18447628617286682, 0.2344031184911728, -0.06109180673956871, 0.10597610473632812, -0.03831303119659424, 0.0655376985669136, 0.2010660171508789, 0.09632890671491623, 0.10001188516616821, -0.25695452094078064, 0.1278918832540512, -0.03490966185927391, -0.1523510366678238, -0.19611015915870667, 0.037884876132011414, 0.2058086097240448, 0.42815420031547546, 0.1148049607872963, 0.22337622940540314, 0.05032692477107048, 0.17146052420139313, 0.13449911773204803, -0.035048503428697586, 0.2009914368391037, -0.28893527388572693, 0.13228857517242432, -0.16180619597434998, 0.11032944172620773, -0.031032240018248558, -0.057173263281583786, -0.11658883094787598, 0.07768723368644714, -0.26776832342147827, 0.08611990511417389, -0.06284722685813904, 0.009988225996494293, -0.17400993406772614, -0.35387900471687317, 0.008185691200196743, 0.07484377175569534, -0.05742302164435387, -0.035541631281375885, -0.010461164638400078, -0.044824279844760895, -0.17400911450386047, 0.12440808117389679, 0.03645496442914009, 0.00773800490424037, -0.19920745491981506, -0.019688868895173073, -0.10932564735412598, -0.030346980318427086, -0.06037453934550285, -0.37741199135780334, 0.20720984041690826, 0.21486732363700867, 0.08880554884672165, -0.27427950501441956, -0.1857791692018509, 0.05237323418259621, 0.11659779399633408, -0.024608612060546875, -0.2855381667613983, 0.0036617922596633434, -0.12674908339977264, 0.20981468260288239, 0.3093506097793579, -0.07204820960760117, 0.04993131756782532, 0.22878912091255188, 0.20735301077365875, 0.11990560591220856, -0.1942722350358963, -0.024364039301872253, 0.07985100895166397, 0.09425945580005646, -0.023577049374580383, 0.14128437638282776, -0.05709921196103096, -0.03532915562391281, 0.2825901508331299, 0.1394028514623642, 0.019713373854756355, -0.23767635226249695, 0.057607501745224, -0.012097474187612534, -0.43593788146972656, -0.023802055045962334, -0.0459088459610939, -0.06473848223686218, 0.029932210221886635, -0.006098130252212286, -0.18424563109874725, 0.08580880612134933, 0.2153244912624359, 0.020094478502869606, 0.03809632733464241, -0.14163237810134888, 0.3829464018344879, 0.048639215528964996, 0.11840739846229553, -0.3458813726902008, 0.032452117651700974, -0.020517483353614807, -0.08074014633893967, 0.0013120456133037806, -0.18127581477165222, 0.27574029564857483, 0.20553168654441833, 0.07702990621328354, -0.3876540958881378, -0.013813016936182976, -0.04798717424273491, 0.5325251817703247, -0.09149253368377686, 0.17506606876850128, -0.06476033478975296, 0.1489914357662201, 0.22039386630058289, 0.08022557944059372, -0.2339596152305603, -0.23011349141597748, -0.060538534075021744, 0.0377885140478611, 0.16831573843955994, 0.010232467204332352, -0.06641461700201035, 0.012146925553679466, -0.16070397198200226, 0.1576593965291977, 0.05674278736114502, -0.2599903345108032, 0.19953057169914246, 0.18610219657421112, -0.2150295078754425, -0.08910881727933884, 0.042218077927827835, 0.05316568538546562, 0.3428043723106384, 0.19944578409194946, -0.17538078129291534, 0.37006497383117676, 0.103916235268116, 0.17876507341861725, -0.34016063809394836, 0.14419417083263397, 0.17316091060638428, 0.13010071218013763, 0.010268980637192726, 0.003104204311966896, 0.26702702045440674, -0.12363717705011368, -0.4212542176246643, 0.11499135941267014, 0.13581286370754242, -0.09579832851886749, 0.1026175394654274, -0.018030645325779915, 0.10140533000230789, 0.07463279366493225, 0.13255606591701508, 0.30545586347579956, -0.23871338367462158, 0.05866806209087372, 0.2742445766925812, -0.21099549531936646, -0.049391310662031174, -0.08752569556236267, -0.243495374917984, 0.13835111260414124, 0.15300966799259186, -0.09037551283836365, 0.009081230498850346, -0.08091971278190613, 0.027603868395090103, 0.2531263530254364, -0.01688256487250328, -0.0801602452993393, 0.0252344012260437, 0.24470645189285278, -0.157859668135643, -0.22180971503257751, 0.4421118497848511, -0.33151111006736755, 0.09216109663248062, 0.24347886443138123, 0.05619622394442558, -0.13402500748634338, 0.07539641857147217, -0.1997935175895691, 0.13185705244541168, -0.020607121288776398, 0.06915812939405441, 0.06739981472492218, -0.0912364050745964, -0.14136992394924164, -0.14593122899532318, 0.0041056047193706036, -0.22130441665649414, -0.043825481086969376, 0.10510469228029251, 0.27546316385269165, -0.08492888510227203, -0.2998325228691101, -0.2828860878944397, 0.0661206990480423, 0.11734499782323837, 0.041794586926698685, -0.0969180315732956, 0.008788589388132095, -0.20174536108970642, 0.20042847096920013, 0.16551217436790466, 0.019112085923552513, 0.13334698975086212, 0.03715847432613373, 0.24768641591072083, 0.15999242663383484, -0.21278035640716553, 0.16822493076324463, 0.03584211319684982, -0.27904877066612244, 0.25236451625823975, -0.027875876054167747, -0.27854982018470764, -0.10956000536680222, 0.23917745053768158, 0.015177693217992783, -0.17848211526870728, 0.055160436779260635, 0.12693844735622406, -0.11588045954704285, -0.025111326947808266, 0.12271231412887573, -0.08042012155056, 0.031218761578202248, -0.48275676369667053, -0.1264994889497757, -0.13533368706703186, 0.30305206775665283, 0.047053445130586624, 0.030375881120562553, -0.043174486607313156, 0.024016518145799637, 0.04363332688808441, -0.12462945282459259, -0.030194684863090515, 0.13587234914302826, 0.23785094916820526, 0.036824747920036316, 0.025611750781536102, -0.21198756992816925, -0.3242841362953186, -0.19663408398628235, 0.07424890995025635, 0.12021337449550629, 0.07696490734815598, 0.20388944447040558, -0.006308640353381634, 0.14137518405914307, 0.05368230491876602, -0.14403389394283295, 0.10806674510240555, 