{"version": "0.5.3", "metadata": {"date": {"year": 2024, "month": 10, "day": 2, "hour": 1, "minute": 34, "second": 11}, "loudness": -14.034323692321777, "gain": 0.9207677422240429, "training": {"settings": {"fit_cab": false, "ignore_checks": false}, "data": {"latency": {"manual": null, "calibration": {"algorithm_version": 1, "delays": [136, 136], "safety_factor": 4, "recommended": 132, "warnings": {"matches_lookahead": false, "disagreement_too_high": false}}}, "checks": {"version": 3, "passed": true}}, "validation_esr": 0.009191735303950678}}, "architecture": "WaveNet", "config": {"layers": [{"input_size": 1, "condition_size": 1, "head_size": 8, "channels": 16, "kernel_size": 3, "dilations": [1, 2, 4, 8, 16, 32, 64, 128, 256, 512], "activation": "Tanh", "gated": false, "head_bias": false}, {"input_size": 16, "condition_size": 1, "head_size": 1, "channels": 8, "kernel_size": 3, "dilations": [1, 2, 4, 8, 16, 32, 64, 128, 256, 512], "activation": "Tanh", "gated": false, "head_bias": true}], "head": null, "head_scale": 0.02}, "weights": [-0.23404105007648468, 0.9840465188026428, -1.227004885673523, -1.031802773475647, -0.6478202939033508, 0.5748502612113953, -0.24675734341144562, 0.9777497053146362, -0.5560380220413208, 0.37502095103263855, -0.7300812602043152, -0.4138663113117218, -1.2339611053466797, -0.9605005979537964, -0.710497260093689, 0.7014715075492859, 0.17083072662353516, 0.15891575813293457, -0.15135017037391663, -0.1617102473974228, -0.004874208476394415, 0.16910819709300995, 0.068484365940094, 0.16536974906921387, -0.07149019837379456, 0.11495029181241989, 0.1902949959039688, -0.17967811226844788, 0.014690090902149677, 0.027615370228886604, -0.10139045119285583, 0.02639799378812313, -0.1512199193239212, -0.01573077216744423, -0.0026183081790804863, -0.08050546050071716, -0.15246079862117767, 0.02504468522965908, 0.005731197074055672, 0.11615615338087082, 0.10795469582080841, -0.022387931123375893, -0.04040185362100601, -0.23852351307868958, -0.16754071414470673, -0.03179382532835007, 0.18598729372024536, 0.13669945299625397, -0.1228298619389534, 0.10043063014745712, 0.15830528736114502, 0.09895540028810501, 0.15566357970237732, 0.07737267017364502, 0.05074712634086609, 0.014646620489656925, 0.08549639582633972, -0.15942281484603882, 0.0031188984867185354, -0.013357385993003845, 0.01967274397611618, 0.09581757336854935, -0.01637335866689682, 0.15683695673942566, -0.08334019035100937, 0.22821736335754395, -0.19787675142288208, 0.15703555941581726, -0.16224685311317444, 0.29095134139060974, -0.23249053955078125, 0.19412903487682343, -0.09274096041917801, 0.001790508278645575, 0.37375015020370483, -0.02205851674079895, -0.0947832390666008, 0.12360627204179764, -0.14143967628479004, 0.03684017434716225, -0.3858923614025116, 0.28252464532852173, -0.036742206662893295, 0.10159123688936234, -0.1552833616733551, 0.09193934500217438, -0.26873308420181274, 0.08207247406244278, -0.10279124975204468, 0.1486825942993164, -0.12784919142723083, 0.19225184619426727, -0.14135608077049255, 0.20898135006427765, -0.2752637565135956, 0.1536725014448166, -0.08728629350662231, -0.09853503853082657, 0.13957615196704865, -0.2444072812795639, 0.019693410024046898, 0.34419962763786316, -0.21175029873847961, -0.15672554075717926, 0.10845840722322464, -0.1536436676979065, -0.23484307527542114, 0.13500159978866577, -0.16431646049022675, 0.2064378261566162, -0.3159569203853607, 0.19886858761310577, 0.0406024232506752, -0.1731213480234146, 0.2724466621875763, -0.2198512852191925, 0.24342741072177887, -0.10818037390708923, 0.11297131329774857, -0.23782919347286224, 0.16542868316173553, 0.1002155989408493, -0.34543928503990173, 0.17812784016132355, -0.03653458505868912, -0.3623182773590088, 0.08558826148509979, -0.17257042229175568, 0.22079098224639893, -0.2426733523607254, 0.08655421435832977, -0.25504064559936523, 0.0692916214466095, -0.09883777797222137, 0.3734237253665924, -0.1259942650794983, 0.13714799284934998, -0.26421183347702026, 0.18479163944721222, -0.017567237839102745, 0.39404234290122986, -0.043273549526929855, 0.24073824286460876, -0.28289467096328735, -0.004166509490460157, 0.036768119782209396, -0.18681110441684723, 0.1262187510728836, 0.020374154672026634, -0.3826691806316376, -0.025020208209753036, -0.02586834877729416, -0.30105865001678467, 0.19130951166152954, 0.17946626245975494, -0.4137692153453827, 0.20712634921073914, -0.3060312271118164, 0.21801960468292236, -0.1629863977432251, 0.10653088241815567, 0.8940771222114563, -0.5932321548461914, -0.2866499125957489, -0.9116149544715881, 0.42585647106170654, 0.08752959221601486, 0.9233200550079346, -0.5566037893295288, 0.14607132971286774, 0.9947584867477417, -0.4732353687286377, 0.28820493817329407, 0.9353882074356079, -0.5520322918891907, -0.058134451508522034, -0.8948670625686646, 0.3828030526638031, 0.26974254846572876, 0.7948278784751892, -0.4528241753578186, -0.1849733591079712, -0.756628155708313, 0.4571278393268585, 0.20798194408416748, 0.9649184346199036, -0.5458239316940308, -0.17887012660503387, -0.9763174057006836, 0.5013962984085083, 0.2724628448486328, 0.9917793273925781, -0.550958514213562, 0.1681084930896759, 0.7921373248100281, -0.4936250150203705, 0.07335314899682999, 0.9156094193458557, -0.49832403659820557, 0.15183570981025696, 0.8763072490692139, -0.32620447874069214, 0.050566550344228745, 0.7848914861679077, -0.5034558176994324, -0.04771825298666954, -1.0173604488372803, 0.5940655469894409, -0.16874834895133972, -0.04831138253211975, 0.18032245337963104, 0.19610974192619324, 0.06636921316385269, -0.17661476135253906, -0.22765390574932098, -0.02471543475985527, 0.02906426042318344, -0.29746562242507935, 0.06641674786806107, 0.023051762953400612, -0.2390584647655487, 0.08573496341705322, 0.1934095323085785, 0.22473634779453278, -0.08922145515680313, -0.08371387422084808, -0.29887375235557556, -0.07573818415403366, 0.15237560868263245, 0.19916726648807526, 0.04835868254303932, -0.022502951323986053, -0.20934809744358063, 0.12511543929576874, 0.27124789357185364, 0.12276335060596466, 0.11590175330638885, -0.2485027313232422, -0.28884899616241455, 0.005115449894219637, 0.2032124251127243, -0.11601481586694717, -0.11564641445875168, 0.14126987755298615, -0.1458127498626709, -0.1891079843044281, 0.2437555491924286, -0.3406050205230713, -0.04549697786569595, 0.11724316328763962, -0.3027622103691101, -0.034887976944446564, 0.258526474237442, 0.14647984504699707, -0.0529823899269104, -0.14349989593029022, -0.03173326700925827, 0.07533957064151764, -0.0991215929389, -0.1763170212507248, -0.09855635464191437, 0.1764800101518631, 0.15020740032196045, 0.12980085611343384, -0.0421191044151783, 0.024456702172756195, -0.029496951028704643, -0.04989635944366455, 0.19900688529014587, 0.05092687904834747, -0.1573246568441391, -0.1527864784002304, -0.16587448120117188, 0.11257070302963257, 0.024864882230758667, -0.10313302278518677, 0.08813732862472534, -0.16669157147407532, -0.03125786408782005, 0.1315031498670578, 0.12282530963420868, -0.01801266148686409, -0.17869195342063904, 0.02982053905725479, 0.0015270148869603872, 0.19370268285274506, 0.037540387362241745, 0.07216241955757141, -0.11789149791002274, 0.0781274065375328, -0.08468309789896011, -0.03397234529256821, 0.11881761997938156, 0.009122544899582863, -0.1251664161682129, -0.011687755584716797, 0.11566106975078583, -0.20037202537059784, 0.14045140147209167, -0.033160388469696045, -0.16274423897266388, -0.15017817914485931, -0.14616453647613525, 0.17742997407913208, -0.27027788758277893, -0.038151804357767105, 0.22649069130420685, 0.382802277803421, -0.012803207151591778, -0.2149340957403183, -0.4411875307559967, 0.04533074423670769, 0.24489346146583557, -0.36740386486053467, 0.11751412600278854, 0.2900297939777374, -0.39703062176704407, 0.06289936602115631, 0.25156357884407043, 0.32944151759147644, -0.06610892713069916, -0.18538764119148254, -0.4270402193069458, 0.09096691757440567, 0.31623226404190063, 0.44346410036087036, 0.019091811031103134, -0.17655925452709198, -0.2710699439048767, 0.039472952485084534, 0.09717652946710587, 0.18078674376010895, 0.07669499516487122, -0.10748635977506638, -0.430555135011673, 0.13465259969234467, 0.31172603368759155, -0.172105073928833, 0.18319769203662872, 0.3036561906337738, -0.346998393535614, 0.013246971182525158, 0.31271302700042725, -0.23749859631061554, -0.021713314577937126, 0.3236564099788666, -0.2547774612903595, 0.14080189168453217, 0.09961811453104019, 0.29247090220451355, -0.24453206360340118, -0.05892905592918396, -0.10458262264728546, 0.1756664365530014, -0.06460343301296234, 0.18804731965065002, -0.14320194721221924, 0.20023128390312195, -0.23268014192581177, 0.12558825314044952, -0.23053023219108582, -0.2725275158882141, -0.031297456473112106, -0.018927937373518944, -0.04819555580615997, 0.22263915836811066, -0.015372734516859055, -0.005724105518311262, -0.20603260397911072, 0.09756819158792496, -0.1857215315103531, 0.22370757162570953, -0.19093331694602966, 0.05929407849907875, -0.22560933232307434, 0.04815129563212395, 0.015718530863523483, 0.28066548705101013, -0.0009219700004905462, 0.229054793715477, 0.03578498214483261, 0.08338707685470581, -0.06160322204232216, 0.23653310537338257, -0.07425268739461899, 0.023573869839310646, 0.15767759084701538, -0.03705509379506111, -0.18003346025943756, 0.15395255386829376, -0.11617552489042282, -0.1619606465101242, 0.008016087114810944, -0.21264611184597015, -0.23843041062355042, 0.1859740912914276, -0.031165869906544685, 0.027501506730914116, -0.3121396005153656, 0.18953512609004974, 0.2065834403038025, -0.12339591979980469, 0.007933640852570534, 0.04820612445473671, 0.18812423944473267, -0.1378515362739563, 0.2156025618314743, -0.01760963536798954, -0.030840087682008743, 0.16042883694171906, -0.20873066782951355, 0.0042536621913313866, 0.21046361327171326, -0.11985556781291962, -0.06750248372554779, -0.13472016155719757, 0.0846467986702919, -0.0620238333940506, 0.11321290582418442, 0.006419907324016094, 0.07713455706834793, -0.16540776193141937, 0.13362228870391846, 0.04471854120492935, 0.1756640523672104, -0.24409860372543335, 0.01653994247317314, -0.19711104035377502, 0.054098229855298996, 0.006598120555281639, -0.01695018634200096, -0.07323279231786728, 0.15401361882686615, 0.10561240464448929, -0.22169765830039978, -0.002351377159357071, 0.10894043743610382, -0.23711968958377838, 0.09685932844877243, -0.04933642968535423, -0.26340049505233765, -0.1125505119562149, 0.05991175398230553, -0.026008905842900276, -0.10174615681171417, -0.07783157378435135, -0.0017456293571740389, -0.04474535584449768, -0.22411683201789856, -0.006228077225387096, 0.2388911098241806, 0.341254860162735, 0.015244738198816776, 0.019058478996157646, -0.3652397096157074, 0.24814945459365845, 0.05309663340449333, -0.19598446786403656, 0.0050215101800858974, 0.0064409938640892506, -0.4091223478317261, 0.06096697598695755, 0.08332983404397964, 0.1475335955619812, -0.09213356673717499, 0.017813313752412796, -0.2050585001707077, 0.05639839917421341, 0.0046957507729530334, 0.21787060797214508, -0.06140550598502159, 0.09327039867639542, -0.17933616042137146, 0.169357568025589, 0.13235262036323547, 0.11052849888801575, -0.24932751059532166, 0.007150822784751654, -0.3479973375797272, 0.21049010753631592, -0.041873738169670105, -0.32884514331817627, -0.00940569769591093, 0.13524554669857025, -0.2782060205936432, 0.23330079019069672, 0.13655997812747955, -0.1832827478647232, 0.130012646317482, 0.00415152357891202, -0.29827144742012024, 0.13980089128017426, 0.12012642621994019, 0.1373390406370163, -0.017363669350743294, -0.0021273863967508078, -0.10978522896766663, -0.3738589286804199, 0.30156877636909485, 0.15786975622177124, 0.16598758101463318, -0.0630597397685051, 0.04336444288492203, -0.21019156277179718, 0.28320014476776123, -0.10750401020050049, -0.24988792836666107, 0.2131449431180954, -0.06536048650741577, -0.2488449066877365, 0.1209765374660492, 0.10673496127128601, 0.2506132125854492, -0.2316971868276596, 0.03699216991662979, -0.24286626279354095, 0.12647584080696106, 0.04194210469722748, 0.3761383593082428, -0.17228630185127258, 0.04983808100223541, -0.31448453664779663, 0.2754914164543152, -0.08615157753229141, 0.19715330004692078, -0.23800821602344513, 0.11324745416641235, -0.33719220757484436, 0.1824909895658493, -0.08889428526163101, -0.15615947544574738, 0.3007867932319641, -0.13908523321151733, -0.41013264656066895, 0.045991163700819016, -0.02625291422009468, -0.3310326933860779, 0.06597400456666946, -0.07474330812692642, -0.2680661976337433, 0.0887317880988121, -0.06123276427388191, 0.18252119421958923, -0.360935240983963, 0.12826275825500488, 0.17771311104297638, -0.20495568215847015, -0.09871740639209747, -0.09608844667673111, 0.23922497034072876, -0.028294824063777924, -0.09718741476535797, 0.048975929617881775, 0.015848863869905472, 0.07297412306070328, -0.1047540158033371, 0.07634507864713669, 0.01395051833242178, -0.005196664948016405, -0.0943443775177002, -0.17521989345550537, 0.01975659839808941, 0.05106557533144951, 0.1185714602470398, -0.2097649723291397, 0.030204396694898605, -0.07477326691150665, 0.06832683831453323, 0.20710688829421997, 0.07972138375043869, -0.0022379474248737097, -0.01798252761363983, -0.08736123144626617, 0.002104524290189147, 0.09737445414066315, 0.15887193381786346, -0.14910559356212616, -0.02226758562028408, 0.1198372095823288, 0.050771564245224, 0.06366090476512909, -0.07656776905059814, -0.224831685423851, 0.14078740775585175, 0.031236466020345688, -0.16828471422195435, 0.13696837425231934, 0.1013379618525505, 0.020883984863758087, 0.11475259065628052, 0.021346472203731537, 0.006347427144646645, -0.07257617264986038, 0.19906283915042877, 0.03895240277051926, 0.004991296213120222, -0.1839369684457779, 0.1707753688097, 0.19326172769069672, 0.1872365027666092, -0.15596920251846313, 0.0016774340765550733, -0.04169569909572601, 0.10289052873849869, -0.0018018829869106412, -0.004278181120753288, 0.042884111404418945, -0.11905527859926224, -0.12299193441867828, 0.028051190078258514, 0.04751534387469292, -0.04819435998797417, 0.07923963665962219, -0.12135138362646103, -0.007686598226428032, 0.15938220918178558, 0.1252134144306183, 0.06979568302631378, 0.08003668487071991, -0.04091484472155571, -0.13034220039844513, 0.16538193821907043, 0.09604698419570923, -0.07894925773143768, -0.0767270177602768, -0.03654557093977928, 0.1919681280851364, -0.056487590074539185, -0.07514414936304092, 0.04948253184556961, 0.05655715987086296, 0.0949988141655922, 0.10476095229387283, -0.021189190447330475, 0.11270342767238617, 0.025258904322981834, -0.092669777572155, -0.15221646428108215, -0.1527927666902542, 0.14923004806041718, -0.255023330450058, 0.4849673807621002, 0.13199561834335327, 0.13388559222221375, -0.5606752038002014, 0.03211791068315506, -0.20240896940231323, 0.5746089220046997, -0.014708456583321095, -0.15188850462436676, 0.5349171161651611, 0.04394785314798355, -0.006276113912463188, 0.3617171049118042, -0.01959838904440403, 0.06437723338603973, -0.4327661991119385, 0.043042220175266266, -0.20573341846466064, 0.5219807624816895, 0.048852577805519104, 0.08314718306064606, -0.3487379550933838, -0.21425016224384308, -0.13844875991344452, 0.5904351472854614, 0.05444968119263649, 0.23671598732471466, -0.4921029508113861, 0.024877235293388367, -0.26655113697052, 0.4443312883377075, 0.07059849053621292, -0.0874703973531723, 0.5177000164985657, 0.20683276653289795, -0.13621315360069275, 0.45139002799987793, 0.20291933417320251, -0.15874773263931274, 0.58388751745224, 0.006612434983253479, -0.14221815764904022, 0.45331674814224243, 0.16598106920719147, 0.34097251296043396, -0.4112456142902374, -0.11029419302940369, 0.25658050179481506, 0.03757403790950775, -0.0841129720211029, -0.26852285861968994, 0.1081804484128952, 0.28650954365730286, 0.1888885498046875, -0.15081407129764557, -0.04767588898539543, 0.06970120221376419, 0.020956875756382942, -0.12547464668750763, 0.11648514121770859, 0.04237263649702072, -0.2718416452407837, -0.14487245678901672, -0.0764194056391716, 0.13243132829666138, 0.20832756161689758, 0.1122286319732666, -0.22067342698574066, -0.08301226049661636, -0.004288889467716217, 0.07940473407506943, 0.06471744924783707, -0.1597995162010193, -0.01720939576625824, -0.21890878677368164, 0.012720742262899876, 0.179067000746727, 0.28097814321517944, 0.10517656058073044, -0.035882618278265, 0.08438117057085037, -0.021753665059804916, -0.22159454226493835, 0.09377507120370865, 0.020773708820343018, -0.011670264415442944, 0.06424923986196518, 0.07503257691860199, -0.2219298779964447, 0.15776897966861725, 0.10679450631141663, -0.1749497652053833, -0.12691061198711395, -0.07591183483600616, 0.19454258680343628, 0.18528206646442413, 0.05871117487549782, -0.26073893904685974, -0.21782930195331573, -0.214397132396698, 0.3664894998073578, 0.21291257441043854, 0.054429855197668076, -0.29059749841690063, 0.2303079515695572, 0.1914236694574356, -0.4295502007007599, 0.10422659665346146, 0.05684942379593849, -0.46868011355400085, -0.11352474987506866, -0.0010109998984262347, 0.46912240982055664, 0.1609480381011963, 0.16701844334602356, -0.37607404589653015, 0.007248260546475649, -0.15396791696548462, 0.2520362138748169, 0.13232143223285675, 0.2223207652568817, -0.4768020510673523, 0.00768159469589591, -0.060557905584573746, 0.23049259185791016, 0.07646691799163818, 0.22930745780467987, -0.4658966064453125, 0.10095365345478058, 0.16268403828144073, -0.46338146924972534, 0.18309535086154938, 0.16932199895381927, -0.26440665125846863, 0.015607745386660099, 0.24141550064086914, -0.4402230978012085, 0.2632610499858856, -0.03565126657485962, -0.48251771926879883, -0.1400647759437561, -0.24351711571216583, 0.2760889530181885, -0.009029831737279892, 0.007006925996392965, -0.25316405296325684, -0.009034845978021622, -0.006418145261704922, -0.026713738217949867, -0.08424005657434464, 0.015322800725698471, 0.041694872081279755, 0.0011015081545338035, -0.24886450171470642, -0.002327811671420932, -0.014593291096389294, 0.12218792736530304, 0.01253747008740902, -0.056378863751888275, 0.491384357213974, -0.28420090675354004, 0.700527548789978, -0.29792913794517517, -0.12957274913787842, 1.0009939670562744, 0.8048062324523926, -0.4407009184360504, 0.16281884908676147, 0.08004095405340195, -0.616451621055603, -0.2568998634815216, 0.303392231464386, -0.8040552139282227, 0.31427001953125, 0.7945477962493896, -0.11757699400186539, -0.15618896484375, 0.15583491325378418, 0.23567287623882294, 0.23760093748569489, -0.017396481707692146, 0.15166780352592468, -0.18747669458389282, 0.23053397238254547, -0.06292009353637695, 0.16304399073123932, -0.061069414019584656, 0.024436920881271362, -0.017952535301446915, 0.2779345214366913, -0.1314697563648224, -0.03289379924535751, -0.10980574041604996, -0.1363769769668579, 0.08996213972568512, 0.05089684948325157, -0.15269692242145538, -0.11272252351045609, -0.005447879433631897, -0.03689952939748764, 0.15420317649841309, -0.022863630205392838, -0.12419001013040543, 0.04218936711549759, 0.002919000107795, 0.13789962232112885, 0.3237466812133789, -0.0009290500893257558, -0.17955578863620758, -0.007609067019075155, 0.2757088840007782, -0.1591985672712326, -0.12977005541324615, 0.046441324055194855, -0.18933041393756866, 0.17265519499778748, -0.1763574481010437, 0.15312494337558746, -0.20223727822303772, 0.09126896411180496, 0.21954050660133362, 0.0802597627043724, -0.21841034293174744, 0.20852705836296082, -0.06414292752742767, -0.11279325187206268, -0.11049342155456543, -0.062131643295288086, 0.07838775217533112, 0.02304108440876007, -0.0016977584455162287, -0.1733633130788803, 0.006036355160176754, -0.1807948648929596, 0.055798206478357315, 0.10668286681175232, 0.13747094571590424, -0.043199747800827026, -0.17803402245044708, -0.11144208163022995, -0.06565278023481369, -0.3058311641216278, 0.2853719890117645, 0.09243948757648468, 0.02681826613843441, 0.036086030304431915, -0.08259590715169907, 0.10290320217609406, 0.1465476006269455, -0.24999508261680603, 0.1290108859539032, -0.0795508325099945, 0.05326622724533081, 0.03425654396414757, -0.06640443950891495, -0.22301489114761353, 0.08449997752904892, 0.14795145392417908, 0.22777754068374634, 0.3313215970993042, 0.09991851449012756, 0.3992231488227844, 0.19897757470607758, -0.014888083562254906, 0.09813545644283295, -0.11724302172660828, -0.1501152664422989, -0.13936904072761536, 0.03373390808701515, -0.08385024964809418, 0.3007420301437378, 0.11990994215011597, 0.11908476799726486, 0.06271574646234512, 0.12877674400806427, -0.36457914113998413, -0.13618184626102448, -0.24403010308742523, 0.02484886907041073, 0.043471112847328186, -0.3230338990688324, -0.36515000462532043, 0.0735345110297203, 0.1681540310382843, -0.22102031111717224, 0.29499199986457825, -0.18363381922245026, 0.10312628000974655, 0.16832050681114197, 0.31804078817367554, -0.2658414840698242, -0.15456750988960266, 0.06264568120241165, 0.2981604039669037, 0.005921455100178719, 0.09937271475791931, -0.20243799686431885, 0.22114989161491394, -0.17450417578220367, 0.04018424451351166, -0.16463203728199005, -0.2613118290901184, 0.2230207920074463, -0.23899485170841217, -0.17572611570358276, -0.16274957358837128, -0.37302321195602417, 0.010790662840008736, -0.17732198536396027, -0.4295594096183777, -0.2690901756286621, -0.19428056478500366, -0.35825616121292114, 0.16237542033195496, 0.06720155477523804, 0.04563333839178085, -0.2204991728067398, -0.011866802349686623, -0.04161280766129494, -0.1462593674659729, 0.19623760879039764, 0.18092569708824158, -0.27140599489212036, -0.39552420377731323, -0.11512608826160431, 0.05014679953455925, -0.2882084548473358, -0.048961542546749115, -0.04340684786438942, 0.01054350845515728, 0.1525060087442398, 0.19810907542705536, 0.2795623242855072, -0.05074870586395264, -0.0976821556687355, 0.07255011051893234, 0.19516336917877197, -0.2947107255458832, 0.1606011539697647, -0.032210823148489, -0.20413799583911896, 0.043328966945409775, 0.06589001417160034, -0.00960749201476574, -0.05980736389756203, -0.1688878834247589, -0.07805097103118896, -0.08740978688001633, 0.16357846558094025, -0.03251871466636658, -0.09785191714763641, -0.1540403515100479, -0.2365403026342392, 0.13629958033561707, 0.21430006623268127, 0.20565225183963776, 0.02094194106757641, 0.19505006074905396, 0.1489914357662201, 0.1510019600391388, 0.002453459892421961, 0.06762740015983582, -0.2807126045227051, -0.30133897066116333, 0.17096813023090363, -0.39829227328300476, -0.352479487657547, -0.1301291137933731, -0.2135349065065384, 0.17572687566280365, 0.17123083770275116, -0.004564615897834301, -0.14620636403560638, -0.15486380457878113, -0.04507674649357796, 0.36564719676971436, -0.1514730155467987, -0.10709192603826523, 0.0033981536980718374, 0.021727556362748146, -0.2593016028404236, 0.01621377281844616, 0.10184556990861893, -0.007233335170894861, -0.3217018246650696, -0.11976787447929382, 0.023668726906180382, -0.23517388105392456, 0.16956709325313568, -0.0944470688700676, -0.05614949017763138, 0.024792315438389778, -0.23276932537555695, -0.04122215509414673, 0.041600633412599564, -0.06440207362174988, -0.23998311161994934, -0.008929381147027016, 0.08850546926259995, 0.022040151059627533, 0.19889596104621887, -0.2866373062133789, -0.08123097568750381, 0.12347874045372009, 0.004933616146445274, 0.281208872795105, 0.14542114734649658, -0.2719530463218689, 0.19053520262241364, -0.1574845165014267, 0.008585098199546337, 0.16356174647808075, 0.21127527952194214, -0.18901120126247406, -0.20731675624847412, 0.05151832848787308, -0.0761665403842926, 0.4527091979980469, -0.0922219529747963, -0.16587084531784058, 0.10858084261417389, -0.09696394950151443, 0.12591014802455902, -0.018158214166760445, -0.26957300305366516, 0.1172465980052948, -0.3371061086654663, -0.05847499147057533, 0.25064751505851746, 0.23917697370052338, 0.1580187976360321, 0.28122544288635254, -0.16665039956569672, 0.17143061757087708, -0.27356043457984924, -0.08559589087963104, 0.018972521647810936, 0.08394916355609894, 0.17641499638557434, -0.05303722247481346, -0.15290232002735138, -0.12031912058591843, 0.018195711076259613, 0.03990287333726883, 0.03128068149089813, 0.07102516293525696, -0.12044782936573029, 0.01771734282374382, -0.07634183764457703, 0.14506737887859344, 0.030855191871523857, -0.029690047726035118, -0.0719793438911438, -0.12487444281578064, -0.06966261565685272, 0.32599565386772156, -0.18822075426578522, -0.03908974677324295, 0.12537339329719543, -0.17691978812217712, -0.13518312573432922, 0.2670968174934387, 0.1803162693977356, -0.1338392198085785, -0.18367218971252441, -0.26849132776260376, -0.06580601632595062, 0.28310102224349976, 0.10525237023830414, -0.03613961488008499, -0.42714086174964905, 0.04833922162652016, 0.10993882268667221, -0.16201339662075043, -0.09603336453437805, 0.02947036549448967, -0.19336247444152832, -0.1782798171043396, -0.05203690379858017, 0.2976624667644501, -0.1934579461812973, -0.3264350891113281, 0.44384491443634033, -0.25606146454811096, -0.09951227158308029, 0.2055547535419464, -0.2598796486854553, 0.018377456814050674, 0.061474304646253586, 0.06689056009054184, 0.12368667870759964, 0.43344077467918396, 0.11631175875663757, 0.02603774145245552, -0.4014749228954315, 0.10027609020471573, 0.10016760230064392, 0.26684653759002686, -0.08004672080278397, -0.10949905216693878, 0.010813066735863686, -0.2084883600473404, -0.1399625837802887, 0.1513969749212265, -0.44819313287734985, -0.09907788783311844, -0.2004292756319046, -0.05886414647102356, -0.15571923553943634, 0.06834455579519272, -0.03321702405810356, 0.05436619371175766, -0.15846814215183258, 0.29261109232902527, -0.14603744447231293, 0.07939831167459488, 0.393176794052124, 0.13202551007270813, 0.06487663835287094, -0.07308009266853333, -0.040282975882291794, 0.09319808334112167, -0.05916610360145569, -0.07160954922437668, -0.2489568442106247, -0.12297824025154114, -0.05753417685627937, 0.011590095236897469, -0.5877560377120972, -0.11411228775978088, 0.04700925573706627, 0.018757963553071022, -0.12274259328842163, 0.037120550870895386, 0.1471027284860611, 0.04827652871608734, -0.0028277025558054447, -0.31979528069496155, 0.1491278111934662, 0.020318759605288506, 0.15739938616752625, 0.007134598679840565, -0.02756407856941223, -0.02559524215757847, -0.07590530812740326, -0.034712739288806915, 0.2976453900337219, 0.030371660366654396, -0.11896790564060211, -0.08337998390197754, 0.036235176026821136, 0.049560435116291046, 0.03690198063850403, -9.961990144802257e-05, -0.09568531066179276, 0.13275134563446045, 0.011840666644275188, 0.10434277355670929, -0.020928066223859787, 0.2025202512741089, 0.09379621595144272, 0.25018560886383057, -0.32401716709136963, -0.10534217953681946, -0.001841820776462555, -0.05699330195784569, 0.13418211042881012, 0.042013827711343765, -0.2077920138835907, 0.025598781183362007, -0.10372922569513321, 0.05998797342181206, -0.1278165727853775, -0.13402245938777924, -0.1388135850429535, 0.12302625179290771, -0.2754220962524414, 0.17713791131973267, 0.03001520223915577, 0.10795938223600388, -0.06670594215393066, -0.09444853663444519, 0.024320870637893677, -0.09102952480316162, 0.038383111357688904, -0.4046887159347534, 0.38225477933883667, 0.16086797416210175, 0.06648430973291397, -0.1229943037033081, 0.09396787732839584, -0.2054586261510849, -0.21796390414237976, -0.20960500836372375, 0.08818300813436508, 0.26908019185066223, 0.06898166239261627, 0.26757755875587463, -0.13933241367340088, -0.48373278975486755, 0.2725473642349243, 0.14209115505218506, -0.19263285398483276, 0.2097351998090744, -0.0008289259276352823, -0.21048279106616974, -0.263247549533844, 0.15008437633514404, 0.30310097336769104, 0.38310033082962036, 0.11706218123435974, -0.3266048729419708, -0.44105204939842224, -0.015583637170493603, 0.34250903129577637, -0.0313381589949131, -0.2619723975658417, 0.0024105727206915617, 0.09846743196249008, -0.09586576372385025, 0.19219912588596344, 0.4033646583557129, -0.03719118982553482, -0.25830626487731934, 0.06491588056087494, 0.0162187572568655, -0.09867335110902786, 0.3108394742012024, 0.11714907735586166, -0.4127938747406006, 0.3221214711666107, -0.1945377141237259, -0.3836343586444855, 0.022054430097341537, -0.0796835795044899, 0.13676677644252777, 0.033225785940885544, 0.12457839399576187, 0.12246906757354736, -0.1336718052625656, -0.059967901557683945, -0.05178986117243767, 0.34496670961380005, 0.07008341699838638, -0.03286750242114067, -0.24444180727005005, -0.003107599215582013, -0.01613313890993595, -0.09665820747613907, 0.11019265651702881, 0.19489648938179016, -0.012415544129908085, -0.03778070583939552, -0.05498555675148964, 0.1480690985918045, -0.04253342002630234, -0.17811565101146698, 0.0518067292869091, -0.3127269744873047, -0.10155801475048065, 0.06354155391454697, 0.14891566336154938, 0.04555165395140648, -0.2089475393295288, 0.26106494665145874, -0.05632097274065018, -0.0752238854765892, -0.14243854582309723, 0.10562654584646225, 0.09574338048696518, -0.18296052515506744, 0.05638204142451286, -0.36205294728279114, 0.23330886662006378, 0.16255468130111694, -0.3390342593193054, 0.020770758390426636, 0.00782281719148159, -0.14506936073303223, 0.13338127732276917, -0.10471809655427933, -0.11296125501394272, -0.10465773940086365, -0.0947258397936821, 0.3055356442928314, -0.10297204554080963, -0.014644555747509003, -0.09614639729261398, -0.1089191660284996, -0.004940230865031481, -0.41453826427459717, 0.298898309469223, -0.06990440934896469, 0.04674723744392395, 0.05119859427213669, -0.079432412981987, -0.02533470094203949, 0.09868673980236053, 0.006254545878618956, -0.21372579038143158, 0.08331223577260971, -0.09104207903146744, -0.34169986844062805, -0.08837900310754776, 0.031110446900129318, 0.21061286330223083, 0.08365239202976227, -0.30466920137405396, 0.09651211649179459, -0.220036119222641, 0.26045405864715576, 0.8226785659790039, 0.08875475823879242, -0.05718646198511124, 0.21047942340373993, -0.006019334774464369, 0.06868422031402588, 0.05587143078446388, 0.22695425152778625, -0.037998974323272705, 0.17222316563129425, -0.2766948342323303, 0.14827680587768555, 0.21562375128269196, 0.054355330765247345, -0.15546242892742157, 0.11793573200702667, -0.13436447083950043, -0.06583283096551895, -0.14632728695869446, 0.01404125988483429, -0.10273454338312149, -0.007013300433754921, 0.2498023808002472, 0.04862327128648758, -0.0651557445526123, 0.010798783041536808, 0.023127280175685883, 0.31657564640045166, 0.10932812839746475, 0.10500872880220413, -0.15483137965202332, -0.17765723168849945, 0.22527357935905457, 0.14427118003368378, 0.004293381702154875, 0.040134966373443604, -0.021325072273612022, 0.09201092272996902, 0.10307449102401733, 0.38702988624572754, 0.11184631288051605, -0.027092445641756058, 0.13401444256305695, -0.1738130897283554, 0.28356286883354187, 0.027783727273344994, 0.18226370215415955, -0.15334323048591614, -0.20494313538074493, -0.03607433661818504, -0.029347743839025497, 0.17355763912200928, 0.11375956237316132, 0.03535391762852669, 0.009618710726499557, -0.240844264626503, 0.14419463276863098, -0.2896615266799927, 0.07012450695037842, -0.09182329475879669, 0.11252417415380478, 0.18148981034755707, 0.3570367991924286, -0.1027054414153099, 0.03669686242938042, -0.08124746382236481, -0.27037402987480164, -0.04720477759838104, -0.2701348066329956, -0.005316396709531546, -0.09308629482984543, 0.219819575548172, -0.2132546752691269, -0.10532158613204956, 0.10322385281324387, -0.022157661616802216, 0.039580218493938446, -0.2368747889995575, -0.2960987389087677, -0.21261364221572876, 0.2691716253757477, 0.026053737848997116, -0.14974866807460785, 0.10751038044691086, -0.13565531373023987, -0.3283322751522064, -0.015888774767518044, 0.20717833936214447, -0.2565634548664093, -0.2627391219139099, -0.3575673997402191, -0.03716865926980972, 0.06370454281568527, 0.23178218305110931, 0.1779182106256485, -0.20125028491020203, 0.07988377660512924, 0.425291508436203, 0.14925144612789154, 0.29546722769737244, 0.22195328772068024, 0.00692733796313405, -0.07228532433509827, -0.4039630889892578, 0.16090472042560577, -0.07362207770347595, -0.4696110785007477, 0.27613353729248047, -0.36827290058135986, -0.09931531548500061, 0.0919937863945961, -0.4373742938041687, 0.07419700175523758, -0.06335215270519257, 0.2667052447795868, -0.25312820076942444, 0.3315920829772949, -0.053235799074172974, 0.2385539710521698, -0.06287802010774612, 0.012224217876791954, 0.26322951912879944, -0.0035437550395727158, -0.10965420305728912, -0.39681476354599, -0.19414372742176056, 0.22847218811511993, 0.09150998294353485, 0.13372717797756195, 0.24830219149589539, -0.08453455567359924, -0.12356101721525192, 0.24535052478313446, -0.024461539462208748, 0.08091440796852112, -0.10579220950603485, -0.027829190716147423, 0.026826104149222374, 0.08878286927938461, -0.14826084673404694, 0.06630995124578476, -0.3092862367630005, 0.006972503382712603, 0.12241195887327194, -0.29184094071388245, -0.11663644015789032, 0.012479460798203945, 0.017054451629519463, 0.22897052764892578, -0.1332026571035385, 0.17929857969284058, -0.20228058099746704, -0.11952608078718185, 0.05966687947511673, 0.16248272359371185, 0.16837430000305176, -0.01624581404030323, 0.005461968947201967, 0.08629383891820908, 0.02520064078271389, -0.2133225053548813, -0.045296959578990936, 0.289328008890152, -0.24122706055641174, -0.009953093715012074, -0.1347244679927826, 0.08081182092428207, -0.26857662200927734, 0.20401258766651154, 0.128972128033638, 0.035622913390398026, -0.11081909388303757, 0.05924509838223457, 0.17605526745319366, -0.12439528107643127, -0.1058872640132904, 0.04932531714439392, -0.08255184441804886, -0.014267580583691597, -0.028884269297122955, 0.08582009375095367, -0.19166207313537598, 0.03184976801276207, 0.11056818068027496, -0.1197914406657219, 0.10908439010381699, -0.11880995333194733, 0.010273895226418972, 0.2563851475715637, -0.09806592762470245, 0.1920126974582672, 0.0804295614361763, -0.44927534461021423, 0.47608470916748047, -0.15089140832424164, -0.19986651837825775, -0.10537504404783249, -0.05988520756363869, -0.09420998394489288, -0.13717339932918549, 0.1578943282365799, 0.314611554145813, -0.17294488847255707, 0.007111174054443836, -0.18921977281570435, -0.14028920233249664, 0.018178902566432953, -0.23912127315998077, 0.08070041239261627, 0.15997013449668884, 0.14049777388572693, -0.40708044171333313, 0.05086676403880119, -0.20895235240459442, 0.1523556262254715, -0.1485080122947693, 0.25115323066711426, 0.34543439745903015, 0.1234300285577774, -0.2678155303001404, -0.05742651969194412, -0.1916913390159607, -0.09240511059761047, 0.019030630588531494, 0.060904912650585175, -0.6821932792663574, -0.5177926421165466, -0.38375046849250793, -0.23997899889945984, -0.07007445394992828, -0.3351563811302185, 0.22044821083545685, 0.10357483476400375, 0.13802273571491241, -0.0998716801404953, 0.13466143608093262, 0.13575546443462372, 0.25052499771118164, 0.23795972764492035, 0.2718164026737213, 0.09212169796228409, 0.13191606104373932, 0.022444067522883415, -0.27771157026290894, -0.3880082368850708, -0.28816062211990356, -0.06823690235614777, -0.11578356474637985, -0.11241211742162704, 0.03779500722885132, 0.08978886157274246, -0.21036949753761292, -0.1221667006611824, 0.02054513432085514, -0.12896165251731873, -0.022667471319437027, 0.02354511432349682, -0.03582291677594185, 0.013082127086818218, 0.21160532534122467, 0.12704485654830933, -0.020720046013593674, -0.370817631483078, 0.0021139781456440687, 0.12122827023267746, 0.011044107377529144, -0.0730903372168541, -0.028025636449456215, 0.021749941632151604, -0.2328384965658188, -0.1259876787662506, 0.19491708278656006, 0.07117631286382675, -0.060163408517837524, 0.11866751313209534, -0.019180720672011375, -0.0071279145777225494, 0.18160176277160645, -0.17868858575820923, 0.05161900445818901, 0.17542637884616852, -0.06195922568440437, -0.1097179651260376, -0.05987169221043587, 0.04148130863904953, 0.19628851115703583, -0.008815167471766472, 0.11503981798887253, 0.20025977492332458, -0.43629926443099976, 0.2228878140449524, -0.1818709671497345, 0.040826551616191864, -0.05967401713132858, -0.16769695281982422, 0.19176141917705536, -0.11925123631954193, -0.09028366953134537, 0.137131467461586, 0.09003889560699463, 0.05681145563721657, 0.019352685660123825, 0.1734437197446823, 0.09402671456336975, -0.031157562509179115, -0.1520015448331833, -0.07151442766189575, 0.20580951869487762, -0.1309615522623062, 0.049389101564884186, 0.00590903777629137, 0.1815408617258072, -0.07700954377651215, 0.1719232052564621, -0.10359939932823181, 0.09260652214288712, -0.14065781235694885, -0.26615849137306213, 0.14659373462200165, 0.1754179745912552, -0.134867325425148, -0.0050538149662315845, 0.00895417109131813, -0.0914471223950386, 0.1700611710548401, -0.03944091871380806, -0.17423512041568756, -0.05742315948009491, -0.285554438829422, 0.21392689645290375, 0.04041266441345215, -0.12306458503007889, -0.20435091853141785, -0.16937614977359772, -0.09775674343109131, 0.20353963971138, -0.17532427608966827, 0.11195015162229538, -0.005959818139672279, -0.11037899553775787, 0.025785066187381744, -0.022141266614198685, 0.202449232339859, 0.18295136094093323, -0.06284564733505249, 0.029899321496486664, 0.06227082386612892, 0.10090579092502594, 0.042796287685632706, -0.039031289517879486, -0.07180028408765793, 0.05016687139868736, -0.07643581926822662, -0.24965143203735352, 0.21956199407577515, -0.06034800037741661, 0.14709718525409698, 0.037967365235090256, 0.09568186104297638, -0.177754208445549, 0.5736010670661926, 0.39730536937713623, 0.32276612520217896, -0.6301279067993164, -0.30704182386398315, -0.13499099016189575, 0.4313552677631378, -0.06965622305870056, -0.07358340919017792, -0.24052152037620544, -0.23431096971035004, -0.22967319190502167, 0.04181910678744316, -0.13326674699783325, -0.03698085620999336, -0.3124585747718811, -0.2229531854391098, 0.060165803879499435, 0.1520976424217224, 0.4293109178543091, 0.0061712306924164295, -0.05326339229941368, 0.16994275152683258, 0.2181689590215683, 0.25006139278411865, 0.21111679077148438, 0.13267919421195984, -0.647062361240387, -0.15864962339401245, -0.09668765217065811, 0.2004808485507965, 0.0532732754945755, -0.15148191154003143, 0.5786291360855103, -0.09540974348783493, -0.23508022725582123, 0.17294108867645264, -0.24286676943302155, -0.3978100121021271, 0.49225661158561707, 0.0745711401104927, -0.2717703878879547, 0.8631508946418762, 0.2728259563446045, 0.21131396293640137, -1.2953908443450928, -0.14417265355587006, -0.14840205013751984, -0.06508102267980576, 0.04474162682890892, -0.013484046794474125, -0.07945717871189117, 0.18138544261455536, -0.024156052619218826, -0.1685853749513626, 0.08577994257211685, 0.13285519182682037, -0.22382427752017975, -0.04181232675909996, 0.05317945033311844, -0.13289323449134827, 0.13471415638923645, 0.09622112661600113, 0.21889345347881317, 0.01908549852669239, -0.23249031603336334, -0.0862932875752449, 0.055404625833034515, 0.1706189066171646, 0.15647737681865692, -0.036634448915719986, -0.19608335196971893, 0.04910258203744888, -0.14942415058612823, -0.015344110317528248, -0.06510191410779953, -0.11224058270454407, 0.10287836939096451, -0.1688598394393921, 0.14025485515594482, 0.2099873125553131, 0.21753741800785065, 0.05067920312285423, 0.025691282004117966, -0.03917041793465614, 0.034564606845378876, 0.17267169058322906, -0.06346452236175537, 0.01171245239675045, 0.04465881735086441, -0.3490476608276367, 0.06029120087623596, -0.17027445137500763, 0.1603631228208542, -0.03853972256183624, 0.09488027542829514, -0.17986778914928436, 0.17739471793174744, -0.06377053260803223, 0.12456738203763962, -0.0352761410176754, -0.04966020584106445, 0.03826829046010971, 0.12108153104782104, -0.026531735435128212, 0.008537234738469124, 0.11283967643976212, -0.16505476832389832, -0.030905108898878098, 0.09078558534383774, -0.03430653363466263, -0.1718447357416153, -0.10786239057779312, 0.044151902198791504, 0.17651328444480896, 0.0038587208837270737, -0.39954888820648193, 0.024147262796759605, -0.2346557080745697, 0.013529363088309765, 0.171570286154747, -0.35390591621398926, -0.03514714911580086, -0.14974020421504974, 0.15253010392189026, 0.2365638017654419, 0.01849888637661934, 0.2030028998851776, -0.23920327425003052, -0.25066283345222473, 0.24575982987880707, 0.1412789523601532, 0.021685928106307983, -0.14218875765800476, -0.07389400899410248, 0.1384991556406021, -0.05709371343255043, -0.23130950331687927, -0.13407926261425018, 0.015711557120084763, 0.05974793806672096, 0.11712618172168732, 0.12528760731220245, 0.023264970630407333, 0.21507719159126282, 0.25922033190727234, 0.02035844326019287, 0.0035354893188923597, -0.1672987937927246, 0.0651174932718277, 0.1123143881559372, 0.12521836161613464, -0.07180819660425186, -0.02121448516845703, 0.3199746012687683, 0.06323551386594772, 0.09810266643762589, 0.525056004524231, 0.1469830870628357, -0.06778192520141602, -0.760746419429779, 0.4162331521511078, 0.3644387125968933, -0.2783556580543518, 0.12749941647052765, -0.6796371936798096, -0.3192599415779114, -0.5903698205947876, 0.7367371320724487, -0.8985770344734192, -0.16824176907539368, -1.0562083721160889, 0.229172945022583, -0.5681077241897583, 0.3184317350387573, -0.6856443285942078, -0.49253347516059875, -0.19285699725151062, -0.0015280054649338126, 0.6298442482948303, 0.1400974988937378, -0.03863312304019928, -0.15252690017223358, -0.19236618280410767, -0.003838359611108899, 0.07717898488044739, 0.027408720925450325, 0.050099123269319534, 0.19116558134555817, 0.07480953633785248, -0.06391137838363647, -0.0978073999285698, 0.09804730117321014, -0.1922200322151184, -0.2361660897731781, -0.0541950948536396, -0.28840360045433044, 0.19296301901340485, -0.08634597063064575, -0.16601592302322388, 0.4242149293422699, 0.11967430263757706, -0.12107817828655243, 0.10890673100948334, 0.25380828976631165, 0.3217463493347168, -0.009559729136526585, 0.26466286182403564, -0.1352667361497879, -0.21508942544460297, -0.19241151213645935, 0.17687426507472992, -0.019712485373020172, 0.18909280002117157, -0.0506090372800827, 0.1223020926117897, 0.2262774556875229, 0.15278959274291992, -0.39373019337654114, -0.3111101984977722, 0.17570552229881287, 0.28467291593551636, -0.006222640164196491, 0.05934101343154907, 0.15887129306793213, 0.1924966722726822, 0.09497355669736862, -0.2462041676044464, -0.09365765005350113, -0.051110461354255676, 0.014515383169054985, -0.043051768094301224, -0.1307189166545868, -0.3548303246498108, 0.22094671428203583, 0.3181840479373932, 0.15242238342761993, -0.18268172442913055, 0.07509259879589081, 0.13824500143527985, 0.2711612284183502, 0.040756113827228546, -0.09390641003847122, -0.32729265093803406, 0.1781153678894043, -0.017594723030924797, -0.038115475326776505, 0.3942057192325592, 0.16095776855945587, 0.06348278373479843, -0.01657719910144806, 0.09432690590620041, -0.12398044764995575, -0.1323823630809784, -0.27400296926498413, -0.16204258799552917, -0.11331521719694138, -0.24469704926013947, -0.3114423453807831, -0.13357029855251312, 0.07528676837682724, -0.09261737763881683, -0.09464416652917862, -0.06094752997159958, -0.17763301730155945, 0.6592751145362854, -0.10194509476423264, 0.13834436237812042, -0.23945352435112, -0.014880009926855564, 0.4137125611305237, -0.20478539168834686, 0.1869375854730606, -0.05309663340449333, 0.13366426527500153, -0.15154778957366943, 0.15567585825920105, 0.3280022442340851, -0.20219260454177856, -0.20506268739700317, 0.13077732920646667, -0.14731311798095703, -0.15469959378242493, 0.0977492406964302, 0.0384875163435936, 0.020838724449276924, -0.21008077263832092, 0.275455117225647, -0.012655800208449364, -0.03424893692135811, -0.08150462806224823, 0.17618021368980408, 0.04928560182452202, 0.16540320217609406, -0.08945241570472717, 0.04993370175361633, -0.05592448264360428, 0.2617351710796356, -0.30384933948516846, -0.0005753696896135807, -0.15331944823265076, -0.03180419281125069, 0.10198211669921875, 0.02069348655641079, -0.2067524492740631, -0.03207482025027275, -0.1362803876399994, 0.1859009861946106, -0.28762945532798767, -0.018352465704083443, -0.06878947466611862, -0.40126916766166687, 0.32158342003822327, -0.16563688218593597, 0.07271288335323334, -0.21994885802268982, 0.06042974069714546, 0.34536901116371155, -0.2725086510181427, 0.35652509331703186, 0.10273072123527527, -0.05502999573945999, -0.02193792536854744, 0.057913199067115784, 0.13591457903385162, -0.2070275992155075, 0.18676145374774933, -0.08046358823776245, -0.024829888716340065, 0.2509028911590576, 0.27437782287597656, 0.1468716710805893, 0.05997403711080551, -0.04731423780322075, 0.11748392879962921, -0.13480982184410095, 0.23482145369052887, -0.06789131462574005, -0.1551925539970398, -0.1758890002965927, -0.005139462184160948, -0.11184795200824738, 0.039905890822410583, 0.10802892595529556, 0.17124943435192108, 0.3582165539264679, -0.16851425170898438, 0.14988428354263306, 0.00822159182280302, 0.15718168020248413, 0.00044590429752133787, 0.07359829545021057, 0.18379832804203033, 0.2304619997739792, -0.025221126154065132, -0.09637170284986496, -0.03680122643709183, -0.14090175926685333, 0.26625144481658936, 0.2433951497077942, -0.30521830916404724, 0.04336686059832573, 0.26743462681770325, -0.2487555891275406, -0.0890854001045227, -0.3148048520088196, 0.037906892597675323, -0.06626562029123306, -0.09063124656677246, -0.20419292151927948, -0.29610002040863037, 0.19505919516086578, -0.12908585369586945, 0.06756335496902466, -0.2915462553501129, 0.21474961936473846, 0.12634655833244324, 0.09073038399219513, -0.3123839795589447, -0.21613405644893646, 0.3935907185077667, 0.015829645097255707, -0.2149062305688858, -0.056514132767915726, 0.09663019329309464, 0.07381601631641388, -0.20592419803142548, 0.2933703660964966, -0.23869790136814117, 0.11139150708913803, 0.023503441363573074, -0.07281869649887085, 0.23421044647693634, -0.04191967472434044, 0.13535107672214508, -0.1343153566122055, 0.24550282955169678, 0.12634053826332092, -0.09162576496601105, 0.07325001806020737, 0.1091839000582695, 0.24520477652549744, 0.17897957563400269, -0.20643620193004608, 0.04288280010223389, -0.21159109473228455, 0.40914058685302734, 0.1513325721025467, -0.22506605088710785, 0.03372357785701752, -0.09584016352891922, 0.13129694759845734, -0.30374136567115784, -0.08300399035215378, 0.3376551568508148, 0.10743451863527298, -0.08918061852455139, -0.349222868680954, -0.20111915469169617, 0.3290198743343353, -0.3748961091041565, -0.12846845388412476, -0.1014523059129715, 0.19555270671844482, 0.5295998454093933, 0.21598120033740997, 0.24470825493335724, -0.22153297066688538, -0.052878618240356445, 0.4713389575481415, -0.48516300320625305, -0.2051226794719696, 0.13609722256660461, -0.17399853467941284, 0.06821811944246292, -0.0850696861743927, -0.08900333195924759, 0.14534130692481995, 0.043913792818784714, 0.28770971298217773, -0.05372639372944832, -0.048396673053503036, -0.10365119576454163, -0.10290130972862244, 0.18293657898902893, -0.39522072672843933, -0.09098499268293381, -0.14225254952907562, -0.3990732729434967, -0.044108256697654724, -0.2177562713623047, 0.02877342887222767, -0.23822517693042755, -0.10855474323034286, 0.15673397481441498, -0.001307451049797237, 0.0012592662824317813, 0.36386245489120483, -0.16300524771213531, -0.0841260701417923, 0.4582008719444275, 0.1573125123977661, 0.03426751121878624, -0.15746165812015533, 0.03801172971725464, -0.1307007074356079, -0.011396409012377262, -0.12301348894834518, 0.029720839112997055, -0.10056883096694946, 0.08208298683166504, -0.0039043861906975508, -0.04150110483169556, 0.01608610525727272, 0.02233991026878357, -0.03860936686396599, 0.12716421484947205, 0.025963634252548218, -0.04721909388899803, -0.0938083827495575, -0.15392173826694489, -0.024281807243824005, 0.08101284503936768, 0.0919191762804985, 0.36640822887420654, -0.01666070893406868, 0.05451689660549164, 0.12022406607866287, 0.09397505223751068, -0.10649208724498749, -0.07457274198532104, 0.10740089416503906, -0.015493418090045452, 0.3673119843006134, -0.028965644538402557, 0.05788794904947281, 0.0012912232195958495, -0.01842493750154972, -0.23409175872802734, -0.12973718345165253, 0.2441161870956421, -0.18803344666957855, 0.11244668811559677, 0.23927506804466248, 0.08418026566505432, -0.031760700047016144, 0.00047031743451952934, -0.019718680530786514, 0.13650940358638763, -0.06863608211278915, 0.16596969962120056, -0.021160464733839035, 0.06732992082834244, 0.03051421046257019, 0.07428513467311859, -0.02899850159883499, 0.06808508187532425, -0.028506740927696228, -0.12079208344221115, 0.009515158832073212, 0.0015857606194913387, 0.04731343686580658, -0.34809911251068115, 0.25978532433509827, 0.09328010678291321, 0.10498928278684616, 0.12659667432308197, 0.1576569825410843, -0.01887531206011772, -0.032202769070863724, -0.23354443907737732, -0.002108972053974867, -0.10184857249259949, 0.18356160819530487, -0.0929868295788765, -0.12585638463497162, 0.03586623817682266, -0.28210684657096863, 0.14533650875091553, 0.11026383191347122, 0.40750351548194885, -0.014973565004765987, 0.005940554663538933, -0.13908660411834717, 0.2142009437084198, -0.08975023776292801, 0.23954446613788605, 0.11516108363866806, -0.15817715227603912, -0.18329237401485443, 0.21166203916072845, -0.014159111306071281, 0.17555806040763855, -0.06818830221891403, -0.03453769162297249, 0.21479634940624237, -0.11272277683019638, 0.005528296809643507, 0.01804032362997532, 0.072014220058918, 0.16312362253665924, -0.024922339245676994, 0.02583274431526661, 0.0825638547539711, -0.05655504763126373, -0.02781231887638569, 0.1381179392337799, -0.06781555712223053, -0.037951450794935226, -0.1975153684616089, 0.030947040766477585, 0.0034216735512018204, 0.106348417699337, 0.007886923849582672, -0.18539121747016907, 0.00294504570774734, -0.030097736045718193, -0.067271888256073, 0.11191423237323761, 0.24811190366744995, 0.12834760546684265, -0.05485435202717781, 0.021009843796491623, -0.06432976573705673, -0.14534153044223785, 0.09135794639587402, 0.06458888947963715, -0.01619087904691696, 0.16709265112876892, -0.22057990729808807, -0.11900552362203598, 0.1281123161315918, -0.23652642965316772, -0.34852299094200134, 0.03059857152402401, 0.009464115835726261, 0.32106223702430725, -0.014480922371149063, 0.19782961905002594, 0.1088586300611496, -0.209410160779953, 0.16450969874858856, 0.20727895200252533, -0.17988033592700958, 0.0016556496266275644, -0.17519348859786987, -0.18456469476222992, -0.13927540183067322, 0.2072996348142624, 0.18113483488559723, 0.3660759925842285, 0.20899613201618195, -0.12233268469572067, 0.026283027604222298, 0.03133884444832802, 0.2440652698278427, 0.16741611063480377, 0.2052774280309677, 0.046072594821453094, -0.24319812655448914, -0.26851993799209595, 0.022242868319153786, 0.13979341089725494, 0.058096855878829956, -0.10935647040605545, 0.02863220125436783, -0.21551668643951416, -0.12369954586029053, 0.023568766191601753, -0.19165077805519104, -0.11287275701761246, 0.1304975152015686, -0.09808573871850967, -0.07996824383735657, 0.06187950819730759, -0.014340654015541077, 0.053405869752168655, -0.06836894899606705, -0.0678957849740982, 0.22426623106002808, 0.10199249535799026, -0.6545916199684143, 0.0239556971937418, -0.27437692880630493, -0.14629903435707092, 0.35649868845939636, -0.1743154227733612, -0.024248840287327766, 0.21214039623737335, -0.3558235466480255, 0.4913135766983032, 0.13892821967601776, -0.20077727735042572, 0.39589425921440125, 0.14738304913043976, 0.30452826619148254, 0.02769917994737625, -0.10871059447526932, -0.3456684648990631, -0.0779784694314003, 0.4066714942455292, 0.2538178265094757, -0.1305246204137802, -0.17187002301216125, -0.1258161962032318, -0.4620365798473358, 0.2573345899581909, 0.09139162302017212, 0.11410834640264511, -0.1583472490310669, -0.2335299700498581, 0.08834625780582428, 0.36411285400390625, 0.22780202329158783, 0.492802232503891, -0.39821764826774597, -0.26404452323913574, -0.22378325462341309, 0.30141541361808777, -0.2093823254108429, -0.22779212892055511, 0.4230841100215912, 0.0308140367269516, 0.6336591243743896, -0.07533662021160126, 0.06887491792440414, -0.34611567854881287, -0.03500378876924515, 0.23521170020103455, -0.024211416020989418, 0.033424053341150284, 0.15498068928718567, -0.18183131515979767, -0.15602414309978485, -0.016185637563467026, -0.3325064778327942, -0.1755370944738388, 0.12166446447372437, -0.13364608585834503, 0.25937211513519287, -0.13838954269886017, -0.16227687895298004, -0.17122668027877808, -0.4000644385814667, -0.1394234299659729, -0.4349369406700134, -0.027729492634534836, 0.024990055710077286, -0.028521159663796425, -0.13033133745193481, -0.014905012212693691, 0.1388150155544281, 0.21557387709617615, -0.07650738954544067, -0.05840134248137474, -0.1602112054824829, 0.06206690892577171, 0.025823311880230904, 0.025081276893615723, -0.18990202248096466, -0.14271196722984314, -0.09629420191049576, 0.13069306313991547, 0.27438661456108093, 0.23454920947551727, -0.22668209671974182, -0.23013867437839508, 0.16406001150608063, -0.018421677872538567, 0.056665096431970596, -0.30282649397850037, -0.20640909671783447, 0.08910740166902542, 0.32941263914108276, -0.05083826929330826, 0.0004309766518417746, -0.34913894534111023, 0.0629090666770935, 0.10288284718990326, 0.11207487434148788, -0.051414646208286285, -0.13149823248386383, 0.2104342132806778, -0.014878053218126297, -0.058209583163261414, 0.04735860601067543, -0.047920044511556625, -0.1288544088602066, 0.12490206211805344, 0.01151756476610899, 0.12126703560352325, -0.2151411473751068, 0.11996117979288101, -0.142126202583313, 0.0230812169611454, -0.01105504296720028, -0.09696832299232483, 0.14867307245731354, 0.2470492422580719, 0.10370742529630661, -0.07222092151641846, -0.01955340802669525, 0.09771154820919037, 0.030234230682253838, 0.19574791193008423, 0.08647624403238297, -0.060814887285232544, -0.015499304980039597, -0.12051277607679367, -0.07321251183748245, -0.14586986601352692, -0.128415048122406, 0.015215849503874779, 0.1023346409201622, 0.22747930884361267, -0.01346732210367918, -0.14618541300296783, -0.14135651290416718, -0.19949649274349213, -0.30536508560180664, 0.014805474318563938, 0.2953338325023651, -0.11979018896818161, -0.02492706850171089, -0.2905714809894562, -0.22849726676940918, -0.03462344408035278, 0.23811376094818115, 0.10772682726383209, 0.11145810782909393, 0.0770694836974144, 0.08626386523246765, 0.010946408845484257, -0.01431493554264307, 0.07671350240707397, 0.12157480418682098, 0.0935172513127327, 0.10561056435108185, -0.07071235030889511, -0.06268441677093506, 0.18997295200824738, 0.30272001028060913, 0.01605149358510971, -0.03481403738260269, -0.02727239765226841, -0.1599171906709671, 0.07028790563344955, 0.05556708946824074, 0.09804273396730423, 0.051055192947387695, -0.1069960966706276, -0.3087087869644165, 0.1999901682138443, -0.006126457825303078, 0.20390723645687103, -0.15949849784374237, -0.006069434341043234, -0.12191717326641083, 0.142266646027565, -0.12699516117572784, 0.2205750197172165, -0.050438981503248215, 0.13698934018611908, -0.05585331842303276, -0.13435839116573334, -0.09737128764390945, -0.0750596672296524, -0.004437820985913277, 0.1753452867269516, 0.10516293346881866, -0.16267086565494537, -0.02991368994116783, -0.21307170391082764, -0.033119942992925644, 0.31158435344696045, -0.012833762913942337, -0.14895415306091309, 0.06326163560152054, -0.04650627821683884, 0.08010967820882797, 0.1106586903333664, -0.21362292766571045, -0.14287644624710083, -0.04013334587216377, -0.28115591406822205, -0.1758994609117508, -0.18353517353534698, -0.00720875384286046, -0.21876326203346252, 0.09873814880847931, 0.03174878656864166, -0.06358301639556885, 0.11300636827945709, 0.17060507833957672, 0.09745699167251587, -0.06391102075576782, 0.02842545323073864, -0.02889532968401909, 0.07725619524717331, 0.11986662447452545, 0.04845147952437401, -0.24712568521499634, -0.04592254385352135, -0.07938629388809204, -0.00617963308468461, 0.09234616160392761, 0.034858234226703644, -0.1417955905199051, -0.23332053422927856, 0.10240937024354935, 0.10131078958511353, -0.06869431585073471, -0.15310873091220856, 0.17660681903362274, 0.18758977949619293, -0.03861764073371887, 0.01299955602735281, 0.0871751457452774, -0.011165497824549675, -0.14262549579143524, -0.5558209419250488, -0.7025904059410095, -0.07695311307907104, -0.1893424689769745, 0.04828343167901039, 0.26152199506759644, -0.2154034525156021, 0.00749307731166482, 0.25205549597740173, -0.2404320389032364, 0.19247066974639893, -0.004404145758599043, 0.13584449887275696, 0.4566667675971985, 0.16473868489265442, 0.29895636439323425, 0.03838084265589714, -0.23271092772483826, -0.36706289649009705, 0.05779925361275673, 0.0041587515734136105, 0.2771431803703308, -0.2497437447309494, -0.2655809223651886, -0.32749271392822266, -0.35405343770980835, 0.1859925091266632, 0.1988198608160019, -0.06000054255127907, -0.09301823377609253, -0.07871407270431519, 0.2349102795124054, 0.14544539153575897, 0.2815473675727844, 0.37926188111305237, -0.29817357659339905, -0.27894705533981323, -0.09717382490634918, 0.11444976925849915, -0.2788904011249542, -0.09644469618797302, 0.2805834710597992, 0.40833258628845215, 0.5434150695800781, -0.3609919548034668, -0.008985716849565506, 0.0017337895696982741, 0.0728299468755722, 0.13159798085689545, 0.04047267511487007, -0.008065056055784225, -0.0381229929625988, 0.09606616944074631, 0.005314704030752182, 0.050866689532995224, -0.04778436943888664, -0.00936104729771614, 0.012699094600975513, 0.09054505079984665, -0.0301440991461277, 0.1897059977054596, -0.029245417565107346, 0.21044521033763885, -0.17233839631080627, -0.16963355243206024, -0.21172137558460236, 0.1593940109014511, 0.041705422103405, -0.24274878203868866, 0.027867278084158897, 0.03448617085814476, 0.08048804104328156, 0.06509625911712646, 0.14509867131710052, -0.008745396509766579, -0.07195201516151428, -0.05250398442149162, 0.27750256657600403, -0.09376141428947449, -0.15254224836826324, -0.10169818252325058, -0.04039723053574562, -0.009484732523560524, 0.239622563123703, 0.256694495677948, 0.07093691825866699, 0.007676518056541681, 0.2714790105819702, -0.09869929403066635, -0.1180473193526268, -0.43144479393959045, -0.12170257419347763, -0.3083176910877228, -0.049586642533540726, -0.09631196409463882, 0.0567251592874527, -0.03297249972820282, -0.26219961047172546, 0.12694476544857025, 0.034619029611349106, 0.053515851497650146, 0.12030971795320511, -0.09555230289697647, -0.019734954461455345, 0.16982556879520416, -0.12815099954605103, 0.007366112899035215, 0.04680561646819115, -0.14315593242645264, 0.05428861826658249, 0.03932468965649605, 0.15211035311222076, -0.028043601661920547, -0.22606275975704193, -0.14745979011058807, 0.08642131835222244, 0.16549314558506012, 0.20688563585281372, -0.08544014394283295, -0.24949006736278534, -0.22186876833438873, 0.08454938977956772, -0.05023497715592384, 0.04340933635830879, -0.12474985420703888, -0.16487348079681396, -0.2365608662366867, -0.0759023055434227, -0.006420313846319914, 0.11633871495723724, -0.16782501339912415, 0.013870551250874996, -0.22491545975208282, 0.051867395639419556, -0.02800808660686016, -0.14815399050712585, -0.04846629872918129, 0.2944198548793793, -0.13760346174240112, -0.28042542934417725, -0.04388425871729851, 0.0014691791730001569, -0.013051435351371765, -0.07293179631233215, -0.3444851338863373, -0.29930397868156433, -0.11457430571317673, 0.09182058274745941, 0.028673620894551277, -0.14155034720897675, 0.028087910264730453, -0.13967595994472504, -0.06168263405561447, 0.07831040024757385, 0.12197931855916977, -0.03069540485739708, 0.37982237339019775, 0.015554863959550858, -0.0428972989320755, -0.10102212429046631, -0.05239749327301979, 0.2265627086162567, -0.045290835201740265, 0.26992350816726685, -0.1078510731458664, -0.050385743379592896, -0.11226291209459305, 0.1900005340576172, 0.1136598289012909, -0.10633347928524017, -0.0021853474900126457, -0.06459573656320572, 0.17706666886806488, 0.10914968699216843, 0.2867950201034546, 0.1906203031539917, -0.04759892821311951, 0.15856091678142548, 0.07222665846347809, 0.1848163902759552, -0.07459016889333725, -0.2398616522550583, -0.3191651701927185, 0.1899641752243042, 0.14217731356620789, -0.011391837149858475, 0.215293288230896, 0.3570265769958496, 0.041103705763816833, 0.26432695984840393, 0.021332692354917526, 0.14063045382499695, 0.2311091125011444, -0.16485747694969177, -0.03919670358300209, 0.24129806458950043, -0.21172717213630676, -0.1577635407447815, 0.3009456694126129, 0.01176541205495596, -0.061778247356414795, -0.2059594690799713, -0.1676708608865738, 0.018635015934705734, -0.1354052871465683, 0.25646430253982544, 0.16923516988754272, -0.17775064706802368, -0.09121665358543396, -0.034560445696115494, 0.184107705950737, -0.10090707242488861, -0.0624108649790287, -0.017422037199139595, 0.127338245511055, 0.006238277535885572, 0.15165197849273682, -0.12493924051523209, -0.0073113711550831795, -0.15220502018928528, -0.26734983921051025, 0.16550062596797943, 0.07555131614208221, -0.07610846310853958, -0.10641182959079742, -0.3578605651855469, 0.16824014484882355, 0.16877974569797516, 0.1323094516992569, -0.0029516976792365313, -0.004519314505159855, 0.24277356266975403, -0.05918370187282562, -0.1812678724527359, -0.44788554310798645, 0.26992878317832947, 0.22003667056560516, 0.18378999829292297, -0.05565127730369568, 0.16390734910964966, 0.017759865149855614, 0.015206093899905682, 0.2295365035533905, 0.09724988043308258, -0.037813615053892136, 0.0018545974744483829, 0.1499149650335312, 0.016701195389032364, 0.16119754314422607, -0.2724366784095764, -0.3130682706832886, 0.02698434889316559, -0.08254353702068329, -0.04778608679771423, -0.272619366645813, 0.6219194531440735, 0.18289333581924438, -0.5100193023681641, -0.12006629258394241, 0.04806084185838699, -0.05347495898604393, 0.06244819238781929, 0.16324786841869354, -0.01128025259822607, -0.05044113099575043, -0.18884475529193878, 0.19229358434677124, 0.10301448404788971, -0.12209299206733704, -0.03381282091140747, 0.045172613114118576, 0.008926213718950748, 0.0817597359418869, -0.1394091248512268, 0.00950686726719141, -0.18057198822498322, 0.0014074884820729494, -0.04044578596949577, -0.0703931450843811, -0.05972379073500633, -0.23829667270183563, 0.20480071008205414, -0.10932023823261261, -0.14524519443511963, 0.09143532812595367, 0.03289793059229851, 0.0016205374849960208, 0.021516971290111542, -0.14452171325683594, 0.054650839418172836, 0.00824036542326212, -0.2896445095539093, -0.059966329485177994, 0.28632399439811707, -0.28521010279655457, 0.13739453256130219, 0.2559293806552887, -0.2941109538078308, 0.10627363622188568, 0.2775031328201294, 0.10460619628429413, 0.28358912467956543, 0.32050421833992004, 0.22557109594345093, -0.16567903757095337, -0.20889931917190552, -0.15909051895141602, 0.043370626866817474, 0.2632612884044647, 0.20154497027397156, -0.015733802691102028, -0.1362999826669693, -0.2566274106502533, -0.11361239850521088, -0.003737280610948801, 0.04966264218091965, 0.15585792064666748, -0.2051173448562622, -0.17464801669120789, -0.030548548325896263, 0.2794291079044342, 0.23291561007499695, 0.22347742319107056, 0.007510636933147907, -0.27318301796913147, 0.1550440490245819, 0.10989528149366379, -0.27214717864990234, 0.0771317109465599, 0.10387303680181503, 0.4266414940357208, 0.1283620446920395, -0.08662206679582596, -0.29734015464782715, -0.0895463302731514, 0.1227889135479927, 0.04481561854481697, -0.00416593998670578, -0.027971547096967697, 0.11530423909425735, 0.09647812694311142, -0.061330534517765045, -0.009891734458506107, -0.11761346459388733, 0.17452481389045715, 0.008653486147522926, -0.0661725178360939, -0.03399498760700226, -0.11950722336769104, 0.005799868609756231, -0.007637550123035908, 0.019299013540148735, -0.3244195878505707, -0.5540767312049866, 0.5475698709487915, 0.5988779664039612, -0.49787452816963196, 0.10689976066350937, -0.14283525943756104, -0.18116594851016998, 0.4056367874145508, -0.8282251954078674, 0.8856649994850159, 0.7867769002914429, 0.1965722292661667, -0.5118182897567749, 0.10948684066534042, -0.9712420701980591, 0.5173661708831787, -0.1474820226430893, 0.09992536157369614, -0.22680217027664185, 0.4025875926017761, 0.2732881009578705, 0.29770395159721375, 0.12368698418140411, 0.20154164731502533, 0.14826710522174835, 0.2801956236362457, 0.08946448564529419, -0.295780211687088, 0.1254892349243164, 0.08464425057172775, -0.1850724220275879, 0.3448725640773773, 0.07078750431537628, 0.15085336565971375, 0.21089030802249908, 0.11612948775291443, 0.19731129705905914, 0.08260973542928696, -0.060795530676841736, -0.192108616232872, -0.05829912796616554, 0.05171060189604759, -0.2512969970703125, 0.2620815336704254, 0.3800390660762787, 0.07653665542602539, -0.17849959433078766, -0.3043842613697052, 0.14609645307064056, 0.06812982261180878, -0.34115225076675415, 0.5064846277236938, -0.10868412256240845, -0.016517281532287598, -0.22389258444309235, -0.02849917858839035, 0.07333988696336746, -0.08219027519226074, 0.1063230037689209, -0.09488501399755478, -0.41579771041870117, -0.09365881979465485, 0.09899108856916428, 0.0002824385592248291, -0.025746259838342667, 0.22817610204219818, -0.1133115142583847, -0.3908402621746063, 0.08512549102306366, -0.2519882321357727, -0.07605130970478058, 0.2877788841724396, -0.04789135232567787, 0.005339662078768015, 0.24051257967948914, -0.03563940152525902, 0.07904937118291855, -0.04753666743636131, -0.05892651900649071, -0.08050327748060226, -0.13659830391407013, 0.3173816502094269, -0.1669086068868637, -0.06726512312889099, -0.03400373086333275, -0.1517152041196823, -0.25161340832710266, 0.31507980823516846, -0.032308921217918396, -0.2248205542564392, 0.37625381350517273, -0.1684512495994568, -0.22294124960899353, 0.0860685184597969, 0.051370423287153244, -0.26237040758132935, 0.041601669043302536, 0.14238375425338745, -0.15638454258441925, -0.2331056445837021, -0.09428355097770691, 0.2018418312072754, -0.011859893798828125, 0.03058941476047039, -0.16659414768218994, -0.04079645872116089, 0.19197408854961395, -0.1154557392001152, 0.12561215460300446, 0.4189241826534271, 0.16222068667411804, 0.08651010692119598, 0.11381440609693527, 0.023466210812330246, 0.007912078872323036, 0.11482333391904831, -0.0303418580442667, -0.03022388368844986, 0.027036895975470543, -0.3835194706916809, 0.021672606468200684, 0.2479144036769867, -0.28159189224243164, -0.002611040137708187, -0.011226796545088291, 0.014887850731611252, 0.04817558825016022, 0.03603176400065422, 0.1848178207874298, -0.03824545815587044, -0.1520467847585678, 0.24229834973812103, -0.08188588172197342, -0.13664840161800385, -0.18302428722381592, 0.13222931325435638, 0.07403980195522308, -0.035748712718486786, 0.19698332250118256, -0.12526190280914307, 0.06531796604394913, -0.07855378836393356, 0.021967465057969093, -0.4993101954460144, 0.21630553901195526, 0.10643476247787476, 0.41550397872924805, 0.32461249828338623, -0.12112301588058472, -0.11131852865219116, -0.04824316129088402, -0.06849732249975204, 0.15821729600429535, -0.15682360529899597, 0.10595142841339111, -0.3610835671424866, 0.0721149891614914, 0.0034585671965032816, 0.10013771057128906, 0.1809525191783905, -0.22277025878429413, -0.11675586551427841, 0.18755124509334564, 0.05900207906961441, 0.07597912847995758, -0.19069577753543854, -0.2507399916648865, -0.10195338726043701, 0.016410963609814644, 0.009429125115275383, -0.1782362163066864, 0.19805264472961426, 0.14902940392494202, 0.007609745021909475, -0.1505367010831833, 0.6041100025177002, -0.1799241006374359, 0.02106834389269352, -0.2727240324020386, 0.185553640127182, -0.09888038039207458, 0.20420262217521667, 0.1877920925617218, 0.1400429755449295, 0.03325031325221062, -0.03065350092947483, -0.08137544989585876, 0.27325788140296936, 0.05928146094083786, 0.22909951210021973, 0.1975322812795639, 0.1729068011045456, 0.23382437229156494, -0.08931609988212585, 0.0872688740491867, -0.10563629120588303, -0.0636904239654541, 0.3110327124595642, 0.16233377158641815, -0.16972066462039948, -0.054292503744363785, -0.08018620312213898, 0.16145268082618713, -0.37354376912117004, -0.22118018567562103, -0.014108319766819477, 0.1823112666606903, 0.025280125439167023, -0.052942369133234024, 0.04104570671916008, -0.14077986776828766, 0.21984176337718964, 0.2422606348991394, -0.19671982526779175, 0.022869573906064034, 0.06613893061876297, -0.040327753871679306, -0.17954517900943756, -0.02204648219048977, 0.04855380579829216, 0.17006728053092957, 0.05412804335355759, -0.036635622382164, -0.13344033062458038, 0.026570558547973633, -0.115562304854393, 0.0443415604531765, -0.12123987078666687, -0.07662960886955261, 0.1305076628923416, -0.04606751725077629, -0.09648839384317398, 0.03386615589261055, 0.055500783026218414, -0.24545468389987946, -0.027215177193284035, 0.02964852750301361, -0.15145719051361084, -0.005006973631680012, -0.11430387198925018, 0.05179344117641449, -0.06544223427772522, -0.13011832535266876, -0.364504337310791, -0.05308352783322334, -0.03872044011950493, -0.2750590145587921, 0.14062950015068054, 0.11859218031167984, 0.20170143246650696, 0.1994391679763794, -0.24689824879169464, -0.0053674946539103985, -0.04793080687522888, -0.11064892262220383, -0.24004383385181427, -0.06282337754964828, -0.03707811236381531, -0.3789260685443878, 0.3768867254257202, -0.10784518718719482, -0.2613958418369293, -0.35495322942733765, 0.08118420839309692, 0.4702264964580536, 0.05729007348418236, 0.30006086826324463, -0.15169073641300201, -0.21950463950634003, -0.08639024198055267, 0.08238677680492401, 0.1264888495206833, 0.024274101480841637, 0.19928954541683197, 0.0639004036784172, -0.09501426666975021, 0.18396896123886108, 0.004719334654510021, 0.1170826107263565, -0.2247627228498459, -0.2358696609735489, 0.031027276068925858, 0.1570599377155304, 0.2289142608642578, 0.013548431918025017, 0.13309501111507416, 0.11000686138868332, -0.29117175936698914, -0.18990078568458557, 0.023526400327682495, -0.02395583502948284, -0.10862825810909271, 0.15746961534023285, 0.11083418130874634, -0.3116219639778137, -0.03286203742027283, -0.028594838455319405, 0.22987885773181915, 0.29584452509880066, -0.06532438844442368, -0.13586612045764923, -0.17887060344219208, 0.049719709903001785, 0.23646396398544312, 0.09056554734706879, 0.22420214116573334, -0.1447123885154724, -0.014934353530406952, -0.26436811685562134, 0.017380567267537117, -0.02357517182826996, 0.12948216497898102, -0.36099421977996826, -0.063428595662117, -0.11391746252775192, 0.16580712795257568, 0.05662122741341591, -0.12034578621387482, -0.40496936440467834, 0.2238764613866806, 0.022624580189585686, -0.10623621195554733, -0.3385741114616394, -0.2612974941730499, -0.08479089289903641, -0.0659361407160759, 0.1917041838169098, -0.05832824110984802, -0.08557165414094925, -0.11052535474300385, 0.1183338537812233, -0.08118170499801636, -0.23049016296863556, -0.6269387006759644, -0.03437846153974533, -0.1570853292942047, 0.17241357266902924, -0.22778883576393127, 0.0012110656825825572, -0.1383505016565323, 0.0621786043047905, 0.04723607748746872, -0.11836189031600952, 0.04744739830493927, -0.3702923059463501, -0.3220505714416504, -0.022453075274825096, 0.08162088692188263, -0.04783125966787338, -0.09816114604473114, -0.08146645128726959, 0.020402919501066208, 0.02701447531580925, -0.10187654942274094, 0.04118122532963753, 0.03907845914363861, 0.24274186789989471, 0.106702521443367, -0.2096966654062271, -0.13303375244140625, -0.03241872042417526, 0.012675845064222813, 0.023816607892513275, -0.009952371940016747, -0.3089141249656677, -0.0728602334856987, 0.13812938332557678, -0.04389813169836998, -0.1659623235464096, 0.1631471812725067, -0.18445567786693573, -0.19606131315231323, -0.21331964433193207, -0.08436212688684464, -0.3756262958049774, -0.10461433976888657, -0.07521962374448776, -0.03807074949145317, 0.19343921542167664, -0.28046688437461853, -0.04427133500576019, 0.19026988744735718, -0.21343141794204712, -0.2214098423719406, -0.18984298408031464, 0.15581278502941132, 0.15179382264614105, 0.0913238674402237, -0.29206180572509766, -0.17782123386859894, 0.02889997512102127, -0.1099352091550827, 0.06515233218669891, 0.006771743297576904, -0.3722723126411438, 0.08346068859100342, -0.08958818763494492, -0.12137356400489807, -0.09492173045873642, -0.26797348260879517, -0.06572551280260086, 0.03937140852212906, 0.17338350415229797, -0.1976810097694397, -0.018510928377509117, -0.11964944750070572, 0.24405375123023987, 0.050987161695957184, 0.15168356895446777, 0.06167010962963104, 0.07989891618490219, 0.01661841757595539, 0.16827988624572754, -0.15501020848751068, 0.07834064215421677, -0.35427209734916687, -0.5794541239738464, -0.2511563301086426, -0.2055339813232422, -0.14448624849319458, 0.08662253618240356, -0.2867029905319214, -0.04770691692829132, 0.11778224259614944, -0.07256915420293808, -0.07167792320251465, -0.1820066273212433, -0.23543328046798706, -0.11805402487516403, -0.07350151985883713, 0.003555207047611475, -0.12406159192323685, 0.12843197584152222, -0.10944776982069016, 0.0995783731341362, -0.11567065119743347, -0.12043988704681396, 0.14304645359516144, 0.13483168184757233, 0.008782225660979748, 0.07706581801176071, 0.03240474686026573, 0.025572383776307106, -0.214628204703331, 0.16426832973957062, -0.05050785094499588, -0.14205124974250793, -0.2526558041572571, 0.20310118794441223, 0.207188218832016, 0.009129592217504978, -0.09713132679462433, -0.01674540713429451, 0.15131732821464539, 0.2110941857099533, 0.13500851392745972, -0.28058725595474243, -0.17794069647789001, -0.17291021347045898, 0.14455221593379974, 0.2437281459569931, -0.001963058253750205, 0.20660358667373657, 0.07614399492740631, -0.024594470858573914, 0.03280387446284294, 0.06669449806213379, -0.0070699299685657024, 0.19131115078926086, -0.21759779751300812, 0.17728255689144135, -0.05631506070494652, -0.23319454491138458, -0.19695569574832916, 0.06760283559560776, 0.06413033604621887, -0.17984037101268768, 0.22701385617256165, 0.10618812590837479, 0.2656721770763397, -0.020318584516644478, -0.09116538614034653, 0.11824826151132584, 0.2366655319929123, 0.10447487980127335, -0.05940306931734085, 0.3043140172958374, 0.05255310982465744, 0.046675197780132294, 0.005717924330383539, -0.02104119211435318, 0.08775593340396881, -0.12528692185878754, -0.09763970971107483, 0.057423997670412064, 0.2634350657463074, 0.1589125692844391, -0.11429444700479507, 0.023743370547890663, 0.06816194206476212, 0.09555786848068237, -0.11077787727117538, -0.020768623799085617, -0.14664609730243683, 0.2805558741092682, -0.010713910683989525, -0.3249060809612274, -0.14544257521629333, -0.05118139460682869, 0.09021992981433868, 0.32084089517593384, -0.03749385103583336, 0.13547630608081818, -0.24964959919452667, 0.009163089096546173, -0.07776494324207306, 0.2674506604671478, 0.15250061452388763, -0.23801377415657043, 0.06151339039206505, -0.0039980122819542885, -0.06824550032615662, -0.13200058043003082, 0.033875882625579834, 0.13823683559894562, 0.02169196493923664, 0.016792405396699905, 0.1955719292163849, -0.012305188924074173, -0.009566892869770527, -0.1303524523973465, 0.05916101112961769, -0.11892077326774597, 0.0010215643560513854, 0.45705756545066833, 0.1803162395954132, -0.02490382455289364, -0.22120793163776398, -0.11508473753929138, 0.17772582173347473, -0.17029380798339844, -0.10949970036745071, -0.07252205163240433, -0.27657604217529297, 0.05539789795875549, -0.07236527651548386, 0.16035275161266327, 0.015519270673394203, 0.10703899711370468, 0.0030221848282963037, -0.042808618396520615, -0.22276367247104645, 0.30832403898239136, -0.03527037054300308, -0.06239470839500427, -0.0772380530834198, -0.1595935821533203, -0.09317849576473236, 0.1494291126728058, -0.13134151697158813, -0.038734447211027145, -0.12572209537029266, 0.08005305379629135, 0.06472620368003845, 0.12994132936000824, -0.1011309027671814, -0.16067427396774292, 0.02051025815308094, -0.04269125685095787, -0.03432604297995567, -0.10873691737651825, -0.02739734947681427, 0.13104768097400665, 0.6698166131973267, 0.13173288106918335, -0.12847694754600525, -0.024153634905815125, 0.23486164212226868, 0.05869583040475845, -0.23604576289653778, -0.0300564207136631, 0.27818772196769714, 0.2520279288291931, 0.09902943670749664, 0.20930428802967072, -0.10959488153457642, -0.12152217328548431, -0.12373749911785126, -0.00106552813667804, -0.014347102493047714, -0.1615469604730606, -0.042476486414670944, 0.13581015169620514, 0.09780628234148026, -0.01196584478020668, -0.10093985497951508, -0.0970536395907402, -0.039221785962581635, 0.07217524945735931, 0.1194743886590004, 0.14008399844169617, -0.020749490708112717, -0.3253406584262848, -0.2773072421550751, -0.027622217312455177, 0.6602596044540405, 0.026521002873778343, 0.1506473571062088, 0.16252116858959198, -0.0597078874707222, 0.04745001718401909, 0.14510929584503174, -0.20074006915092468, 0.020961955189704895, 0.13564378023147583, 0.12680450081825256, -0.09929272532463074, 0.15568827092647552, 0.3164122998714447, 0.2100502997636795, 0.05793039873242378, -0.14562393724918365, -0.146689772605896, 0.0014381828950718045, 0.07122059166431427, -0.19983644783496857, 0.05363968759775162, -0.2561199963092804, 0.21623684465885162, -0.049567557871341705, -0.2888585329055786, 0.01735365018248558, -0.28262758255004883, -0.33674129843711853, -0.05873320624232292, -0.06937390565872192, 0.10432614386081696, -0.0012441123835742474, -0.18401171267032623, -0.05491375923156738, -0.17240206897258759, 0.10666356980800629, -0.19810612499713898, 0.0848139151930809, -0.0768730565905571, 0.1099637895822525, -0.231744185090065, -0.0010371728567406535, -0.16722248494625092, -0.03201176971197128, -0.09240569174289703, 0.05406888946890831, 0.08744607120752335, -0.1342795193195343, -0.23402617871761322, -0.12075429409742355, 0.1323426365852356, 0.18548940122127533, -0.008141487836837769, 0.04152556508779526, -0.21151217818260193, 0.08439172059297562, 0.08718515932559967, -0.31670206785202026, -0.0007473527221009135, -0.10777688771486282, -0.025681257247924805, -0.22696100175380707, -0.11904199421405792, -0.2709480822086334, -0.17820006608963013, -0.24607813358306885, 0.26642587780952454, -0.02411181479692459, 0.09026555716991425, 0.08145385980606079, 0.2318052351474762, -0.08043397963047028, -0.3330031633377075, -0.027257423847913742, -0.03956839442253113, -0.015600726939737797, 0.3235114812850952, -0.1959056556224823, -0.012215331196784973, -0.1823078691959381, -0.07123836129903793, 0.026591241359710693, -0.14356815814971924, -0.086978018283844, -0.11655709147453308, 0.044688060879707336, -0.021622249856591225, -0.06669755280017853, -0.24859531223773956, -0.015226385556161404, -0.24046209454536438, 0.01757320947945118, 0.14226499199867249, 0.49889135360717773, 0.08274872601032257, -0.2794114947319031, -0.2828699052333832, -0.15604670345783234, -0.002698570257052779, 0.18139921128749847, -0.1975221335887909, 0.08410270512104034, 0.0349452830851078, -0.1403990238904953, -0.09442858397960663, -0.07391101866960526, 0.09931159019470215, 0.060625895857810974, 0.2524097263813019, -0.044332921504974365, -0.09932804107666016, -0.10490740090608597, 0.04704030975699425, -0.3286954462528229, 0.20987951755523682, 0.11058273166418076, 0.18977324664592743, -0.270741730928421, -0.11206208914518356, 0.23872394859790802, 0.02816147357225418, -0.07234182953834534, 0.009952068328857422, -0.09410581737756729, 0.2057696133852005, -0.08702213317155838, 0.024652397260069847, 0.0950540155172348, -0.19426321983337402, -0.08959295600652695, -0.018092118203639984, 0.13663800060749054, -0.05734333023428917, 0.007999281398952007, -0.17134621739387512, 0.09501505643129349, 0.11568944901227951, 0.2262285351753235, -0.0034716189838945866, -0.024379901587963104, -0.18839514255523682, 0.010871728882193565, 0.17369090020656586, 0.1117137148976326, 0.059792276471853256, -0.09918546676635742, -0.04072156175971031, -0.21616904437541962, -0.09970063716173172, -0.015154963359236717, -0.2032504826784134, -0.14343683421611786, 0.06374198943376541, 0.03555988147854805, -0.16537442803382874, 0.054576095193624496, 0.10078553855419159, -0.06024627760052681, -0.0749121829867363, -0.31482523679733276, 0.10395421087741852, -0.17134028673171997, -0.02950574830174446, 0.19338029623031616, 0.18546859920024872, 0.06362542510032654, -0.018282093107700348, -0.08727532625198364, -0.06723841279745102, -0.15627415478229523, 0.14649571478366852, 0.23066222667694092, -0.22965653240680695, -0.6001437902450562, -0.566389262676239, -0.3773523271083832, -0.009435415267944336, 0.07505999505519867, 0.2993360459804535, 0.284114271402359, 0.15189161896705627, -0.29825499653816223, -0.24931544065475464, 0.12059538066387177, 0.3688616156578064, 0.2725001573562622, 0.16819724440574646, -0.13934150338172913, -0.2871815860271454, 0.09472458809614182, 0.24486903846263885, 0.013617207296192646, 0.0012294851476326585, -0.24374501407146454, 0.19880211353302002, 0.23506835103034973, -0.07470810413360596, 0.2329770028591156, 0.12392561137676239, -0.04774004966020584, 0.46106672286987305, 0.009164388291537762, -0.14040784537792206, 0.27112865447998047, 0.2642347514629364, 0.4234442710876465, 0.07908020168542862, 0.1913996785879135, 0.28009477257728577, -0.3222636282444, -0.04807540401816368, -0.08563718944787979, 0.20118920505046844, 0.13225297629833221, -0.26772692799568176, 0.20849159359931946, -0.0700373575091362, 0.0519682876765728, 0.11701410263776779, 0.010258125141263008, -0.3188994228839874, -0.08551311492919922, -0.17174139618873596, -0.02136608213186264, 0.10978921502828598, -0.04296506568789482, -0.03915257006883621, 0.11444159597158432, 0.028554212301969528, -0.18576259911060333, -0.007116302382200956, 0.033258356153964996, 0.4305356442928314, -0.03108055703341961, -0.23080861568450928, -0.18790169060230255, -0.15444158017635345, 0.012198325246572495, 0.32893750071525574, 0.5020568370819092, -0.12790721654891968, 0.12303696572780609, 0.01517480704933405, 0.018708977848291397, 0.11771579831838608, 0.34747564792633057, 0.14333343505859375, -0.1735169142484665, 0.17638443410396576, -0.0260819923132658, -0.08107653260231018, -0.11987598985433578, -0.044929664582014084, -0.08936195075511932, -0.10768480598926544, -0.37994930148124695, 0.2682349979877472, 0.18059450387954712, 0.008818680420517921, -0.18262572586536407, -0.08652646839618683, 0.0025390530936419964, -0.08155840635299683, 0.11710824817419052, 0.04863910377025604, 0.03314455598592758, -0.15630397200584412, 0.007179512642323971, -0.1058201938867569, 0.07271023094654083, 0.20862849056720734, 0.07388418912887573, 0.08928380906581879, -0.1142793744802475, -0.0852356031537056, -0.1988770067691803, 0.10583852231502533, -0.04830840975046158, 0.12290369719266891, -0.03147861734032631, 0.05422740429639816, -0.21485386788845062, 0.17504248023033142, -0.1663331240415573, -0.19602353870868683, 0.055654894560575485, -0.15353669226169586, -0.07813283056020737, 0.0717032253742218, -0.050563450902700424, -0.09244000166654587, -0.10149906575679779, 0.06008359417319298, 0.02243882790207863, 0.15165475010871887, 0.0018493812531232834, 0.05448807403445244, 0.17800189554691315, 0.15165190398693085, -0.08242060244083405, -0.03132682293653488, 0.060997650027275085, 0.11778916418552399, 0.1507638841867447, -0.01699737086892128, 0.23335613310337067, -0.07299714535474777, 0.1845875382423401, -0.2222667634487152, 0.1328798532485962, 0.06924048811197281, -0.25601068139076233, -0.05832688510417938, 0.10577826201915741, -0.13357986509799957, 0.2912670969963074, 0.031905896961688995, 0.29223954677581787, 0.14007017016410828, 0.29194241762161255, 0.10783997923135757, -0.019075220450758934, -0.07504293322563171, -0.31732049584388733, 0.12377260625362396, 0.20701833069324493, 0.06271328777074814, -0.05837434530258179, -0.07885775715112686, -0.21426647901535034, 0.19164302945137024, 0.20877355337142944, 0.006579143460839987, -0.20247045159339905, 0.09838329255580902, -0.10648012906312943, -0.03856871277093887, 0.14292731881141663, 0.10057917982339859, -0.2405375838279724, -0.19065254926681519, -0.015422796830534935, 0.06635452806949615, 0.16492998600006104, -0.1544247418642044, 0.03249958157539368, 0.14337065815925598, -0.0321531817317009, -0.24080543220043182, -0.22722484171390533, 0.1675052046775818, 0.1655234694480896, 0.11927630752325058, 0.1804770529270172, -0.014332699589431286, 0.0038024429231882095, -0.13611474633216858, 0.026046697050333023, 0.10910110920667648, -0.03811469301581383, -0.03146642819046974, -0.03163616359233856, -0.05816541239619255, 0.049180228263139725, 0.2204202264547348, 0.0522112213075161, -0.11124054342508316, -0.11194709688425064, 0.18730978667736053, -0.1221662238240242, -0.19162648916244507, -0.015759600326418877, -0.15228721499443054, 0.12556242942810059, 0.1331159770488739, -0.007167502772063017, -0.02474644035100937, -0.10915204137563705, -0.007340670563280582, 0.03293002024292946, 0.030527900904417038, 0.1279984712600708, -0.04965114966034889, 0.040935125201940536, -0.06727304309606552, 0.003070903243497014, 0.1669580489397049, 0.19835975766181946, 0.01136288233101368, -0.1598759889602661, -0.006623917259275913, -0.11622192710638046, -0.28052154183387756, 0.21929064393043518, 0.10808510333299637, -0.18485909700393677, 0.09061198681592941, -0.1330411285161972, 0.23769906163215637, 0.07827352732419968, -0.14627191424369812, 0.2922183573246002, -0.034871697425842285, -0.07817082852125168, -0.20859839022159576, 0.2744825780391693, 0.1393475979566574, -0.04805908352136612, -0.15002793073654175, -0.14411820471286774, -0.28142476081848145, 0.07609130442142487, 0.01570623368024826, 0.016752740368247032, 0.06629118323326111, 0.10884904116392136, -0.03937801718711853, 0.11030014604330063, -0.045268572866916656, 0.0529339425265789, -0.07505366206169128, 0.051280297338962555, 0.051174063235521317, -0.17721661925315857, -0.11791997402906418, 0.03673654794692993, 0.15581516921520233, -0.021827491000294685, -0.07749871909618378, -0.009770904667675495, 0.09306112676858902, -0.1879986822605133, 0.04690238833427429, -0.017958929762244225, 0.30776333808898926, 0.060996342450380325, 0.06572924554347992, 0.054375987499952316, -0.21458563208580017, 0.06663651019334793, -0.1839832365512848, 0.2521216869354248, 0.10736721754074097, -0.09338762611150742, -0.11535661667585373, 0.2038145661354065, 0.02297990210354328, -0.011338651180267334, 0.16943685710430145, 0.08739908039569855, -0.03250957652926445, 0.038664527237415314, -0.03499189764261246, 0.1810484081506729, 0.09922781586647034, 0.019122235476970673, -0.28666433691978455, 0.15401774644851685, 0.17526184022426605, 0.3939363360404968, -0.007999441586434841, 0.01084462832659483, -0.12259519100189209, -0.04931056499481201, 0.0015337757067754865, 0.39389243721961975, 0.7409264445304871, 0.8738768696784973, -1.0600026845932007, -0.49794328212738037, 0.19525016844272614, -0.152280792593956, -0.19070462882518768, 0.28407853841781616, 0.15289634466171265, -0.6083929538726807, 0.6795848608016968, -0.026832103729248047, -0.731513261795044, 0.2580167353153229, -0.13876767456531525, -0.06179938092827797, -0.37737035751342773, 0.284536749124527, 0.2817441523075104, 0.17669570446014404, 0.36746349930763245, 0.057476192712783813, -0.41337910294532776, -0.2399825155735016, 0.024983089417219162, -0.1457425057888031, 0.15857630968093872, 0.2270209789276123, -0.09105028212070465, 0.08090207725763321, 0.14802595973014832, -0.09935988485813141, -0.10092544555664062, 0.1872531622648239, -0.20850859582424164, 0.1912185400724411, 0.11530079692602158, 0.02968297339975834, -0.29829052090644836, -0.14688250422477722, -0.11634181439876556, -0.3774257004261017, 0.08787716180086136, 0.07100381702184677, -0.09372534602880478, 0.138691708445549, 0.1066470816731453, 0.0636768564581871, 0.12995989620685577, -0.11023350805044174, -0.022919800132513046, -0.06681030243635178, -0.1410709172487259, -0.12578478455543518, 0.13438746333122253, 0.2779727876186371, -0.001158184022642672, -0.12583956122398376, -0.31944409012794495, 0.01660424843430519, 0.026162799447774887, -0.22217124700546265, 0.18511611223220825, -0.2357274293899536, 0.06556297093629837, 0.08631440252065659, -0.016349177807569504, 0.055382974445819855, 0.07842720299959183, 0.21586443483829498, -0.028013167902827263, -0.22129006683826447, 0.10794706642627716, 0.1945272535085678, -0.10832325369119644, 0.07467008382081985, 0.17084075510501862, -0.09903404116630554, -0.2629750370979309, 0.4215255081653595, -0.11752606183290482, -0.01762063056230545, 0.40183576941490173, -0.26387760043144226, -0.31184858083724976, 0.07850246876478195, 0.1372501701116562, 0.22410765290260315, 0.28024348616600037, 0.24327082931995392, 0.03178749978542328, -0.5482183694839478, -0.3035680949687958, -0.27395233511924744, -0.08772140741348267, -0.17043396830558777, 0.23721981048583984, 0.02155616320669651, -0.26579272747039795, -0.021712955087423325, 0.2008979469537735, -0.09774835407733917, 0.07777553796768188, 0.10576201230287552, 0.09172521531581879, -0.4210216701030731, 0.00820715818554163, -0.1688181608915329, -0.040897224098443985, 0.007756530307233334, 0.13080354034900665, -0.3465721309185028, -0.0800628662109375, -0.19483262300491333, 0.23113621771335602, -0.2055247724056244, -0.1257268637418747, 0.30637282133102417, 0.10450947284698486, -0.41569098830223083, 0.31090041995048523, 0.17962098121643066, 0.07207627594470978, 0.05356157571077347, 0.07479703426361084, -0.03154503181576729, -0.19422930479049683, -0.0037310754414647818, 0.18268834054470062, -0.17300283908843994, -0.12119119614362717, 0.04704748094081879, -0.13636237382888794, -0.09308928996324539, 0.341594934463501, 0.2571811378002167, -0.21067063510417938, -0.09908382594585419, 0.043687064200639725, -0.1634606420993805, -0.13391558825969696, 0.1679145246744156, -0.08820636570453644, 0.03676771745085716, -0.045428551733493805, -0.25835683941841125, -0.06155884265899658, -0.17360341548919678, -0.0793539360165596, -0.07608691602945328, -0.09734634310007095, 0.2199639528989792, -0.010103576816618443, -0.21652880311012268, -0.09557076543569565, -0.0454966276884079, 0.284751296043396, -0.1006850004196167, 0.3598555624485016, -0.16295650601387024, 0.2815553545951843, 0.028267361223697662, -0.08253580331802368, 0.025586865842342377, 0.34894460439682007, -0.10303877294063568, 0.09505107998847961, -0.15395241975784302, -0.13000641763210297, 0.04696093127131462, -0.3891252279281616, 0.08056836575269699, -0.12513990700244904, 0.38588955998420715, 0.18962998688220978, 0.05283381789922714, 0.4792807102203369, -0.4221370220184326, -0.2512678802013397, -0.06400138139724731, 0.011296273209154606, -0.3898420035839081, -0.5638536214828491, 0.31054216623306274, -0.22359801828861237, -0.40466538071632385, -0.11350911110639572, 0.19432249665260315, 0.0019453340210020542, 0.13598206639289856, -0.06107263267040253, 0.13425761461257935, 0.3092094361782074, 0.19502075016498566, -0.2522805333137512, -0.060746632516384125, -0.2543972432613373, -0.11245742440223694, 0.08213156461715698, -0.37862250208854675, -0.11892067641019821, 0.27940627932548523, -0.011606032028794289, -0.1183641105890274, 0.38443630933761597, -0.08703301846981049, 0.16098976135253906, -0.04903041198849678, 0.27810004353523254, 0.1596442610025406, 0.5600600242614746, -0.21822132170200348, 0.06438757479190826, -0.1832452118396759, 0.23842857778072357, 0.10884898900985718, 0.09210620820522308, -0.2980421483516693, -0.0755949541926384, -0.1511697769165039, -0.02594355121254921, 0.04584858566522598, -0.08220458775758743, -0.01453531626611948, 0.10339830070734024, -0.07823873311281204, 0.303691565990448, -0.08303124457597733, -0.02857646346092224, -0.2665351331233978, 0.08713638782501221, -0.0033811996690928936, 0.3633938133716583, 0.19237883388996124, -0.1401686817407608, -0.2936183512210846, -0.12491124123334885, -0.19372467696666718, 0.16502079367637634, 0.2861005961894989, -0.05770111829042435, 0.24349471926689148, -0.032512832432985306, -0.18465818464756012, -0.27752143144607544, 0.12851153314113617, 0.26031607389450073, -0.23542699217796326, 0.2163211852312088, -0.11784083396196365, -0.16335691511631012, -0.057811662554740906, -0.012407551519572735, 0.06577956676483154, -0.2803613543510437, 0.09325257688760757, 0.08228442817926407, -0.1861765831708908, 0.008067702874541283, -0.43191036581993103, -0.4671448767185211, 0.17431488633155823, 0.15739129483699799, -0.2511630356311798, 0.08323761820793152, 0.01376713253557682, 0.05438797548413277, -0.01213100180029869, -0.10264728963375092, 0.19429723918437958, 0.12196332216262817, -0.16184177994728088, 0.08907154202461243, 0.20712126791477203, -0.06945514678955078, 0.03631387650966644, 0.07015828043222427, -0.08136877417564392, 0.18505626916885376, 0.03968097269535065, 0.11845122277736664, 0.056528232991695404, 0.11444727331399918, 0.20190753042697906, -0.2527022957801819, 0.15923304855823517, 0.04768093675374985, 0.09810233116149902, 0.2305229753255844, -0.04302863031625748, -0.16426128149032593, 0.1697833389043808, -0.0731421709060669, -0.06587027758359909, 0.05516356974840164, -0.13464529812335968, -0.10983783006668091, 0.16416917741298676, 0.05204608291387558, -0.05482476204633713, 0.19687503576278687, 0.03532687947154045, 0.22096648812294006, 0.006827103439718485, -0.024688253179192543, -0.036880943924188614, -0.049331389367580414, 0.2617592513561249, 0.1798863261938095, -0.001971341436728835, -0.2851104438304901, 0.005127907730638981, -0.022829663008451462, -0.05701228603720665, 0.11091434210538864, 0.44953396916389465, -0.2091497927904129, 0.015011332929134369, 0.05468601733446121, -0.056060291826725006, 0.09462126344442368, -0.25349363684654236, -0.11617402732372284, 0.0038577341474592686, 0.1836221069097519, 0.057284992188215256, -0.016656070947647095, 0.21823261678218842, 0.07772431522607803, 0.11515740305185318, -0.08348079025745392, 0.1027102991938591, -0.003127574920654297, 0.5145198702812195, 0.055812448263168335, 0.21595384180545807, -0.33908239006996155, 0.14787492156028748, -0.06755222380161285, 0.021606169641017914, 0.2861771881580353, -0.021525561809539795, 0.014187609776854515, -0.03771958872675896, -0.2407786250114441, 0.004682888742536306, 0.14628902077674866, 0.09151435643434525, 0.08606739342212677, -0.25959309935569763, 0.15881463885307312, 0.1282564401626587, -0.05838026478886604, -0.348395973443985, -0.011301622726023197, 0.10551202297210693, 0.07384847104549408, 0.06877220422029495, -0.18693816661834717, 0.07439203560352325, 0.13545195758342743, 0.40696752071380615, 0.16031914949417114, 0.0459810234606266, 0.26594701409339905, 0.16181570291519165, 0.09403876215219498, 0.04135896638035774, -0.13166773319244385, -0.022210685536265373, -0.26161882281303406, -0.04230677708983421, 0.19429907202720642, -0.17065884172916412, -0.1970384567975998, -0.18263177573680878, -0.009355207905173302, -0.01688876561820507, 0.03085698001086712, -0.43806013464927673, -0.0697246640920639, -0.18484465777873993, -0.6304538249969482, 0.01657218672335148, -0.1978602558374405, 0.34435999393463135, -0.12844254076480865, 0.10887894034385681, 0.38233718276023865, -0.11937746405601501, 0.09155880659818649, 0.05969924479722977, -0.21244382858276367, -0.030271250754594803, 0.23984061181545258, -0.09044744819402695, -0.09937763959169388, -0.5174779295921326, 0.20369616150856018, 0.21957360208034515, 0.03038766421377659, -0.19994880259037018, -0.14255866408348083, 0.11583374440670013, 0.07205764949321747, 0.0857212096452713, -0.26123830676078796, 0.07168468832969666, -0.10857406258583069, 0.13284364342689514, 0.18132877349853516, -0.1471969336271286, 0.1381922960281372, 0.23647938668727875, 0.29609131813049316, 0.13088177144527435, 0.06726067513227463, 0.09480975568294525, -0.1715126931667328, 0.12062373757362366, 0.4522168040275574, -0.0844627171754837, -0.19081315398216248, 0.027883077040314674, 0.16369062662124634, 0.22162200510501862, 0.17171470820903778, -0.1852346956729889, 0.10237883776426315, -0.07807210087776184, -0.6114816665649414, 0.13231034576892853, 0.03771744295954704, 0.27124613523483276, -0.247713103890419, -0.06383676826953888, -0.1840835064649582, 0.059718091040849686, -0.05150773376226425, -0.08467848598957062, -0.1318831890821457, -0.1571478396654129, 0.00646847253665328, -0.09770449250936508, 0.08414925634860992, 0.0973656103014946, 0.11433413624763489, 0.39959585666656494, -0.004181604832410812, 0.056850336492061615, -0.16302993893623352, 0.1360478699207306, 0.15882569551467896, -0.04066293314099312, -0.20412638783454895, -0.17246514558792114, -0.08343692123889923, 0.0280045997351408, -0.053107358515262604, 0.20249788463115692, -0.15436285734176636, 0.0683385580778122, -0.06631395220756531, 0.062316134572029114, 0.16268274188041687, -0.13743732869625092, 0.08522067964076996, 0.3774097263813019, 0.0195067897439003, -0.14390335977077484, -0.19648410379886627, 0.26513487100601196, 0.06023019924759865, 0.13922236859798431, 0.16545677185058594, -0.1607973277568817, -0.023022964596748352, -0.07419008761644363, -0.04022678732872009, -0.009274530224502087, -0.018253909423947334, 0.17731888592243195, 0.15099278092384338, 0.1004491001367569, -0.08892454206943512, 0.031184200197458267, 0.1618146449327469, 0.15165768563747406, -0.2582547664642334, -0.04780621826648712, 0.22273613512516022, 0.17609946429729462, -0.03703827038407326, 0.04109586402773857, -0.04054960235953331, -0.024870436638593674, -0.0403740368783474, 0.07495222985744476, -0.045683667063713074, -0.15484045445919037, -0.038966234773397446, 0.11280928552150726, -0.023864051327109337, 0.13601578772068024, 0.07283806800842285, 0.1859384924173355, -0.19158004224300385, -0.1601513922214508, 0.2518675625324249, 0.039214394986629486, 0.12767155468463898, -0.0303434357047081, -0.04574185237288475, -0.08787831664085388, -0.07503794133663177, -0.021369460970163345, 0.1278281807899475, -0.06877613812685013, 0.09823248535394669, 0.06462861597537994, -0.18102723360061646, 0.009503827430307865, 0.030298879370093346, 0.1296541690826416, -0.3544733226299286, -0.15466007590293884, 0.14537924528121948, -0.16644097864627838, 0.28684887290000916, -0.1839369833469391, 0.028088143095374107, 0.043660882860422134, 0.03098268061876297, 0.12971141934394836, 0.26047414541244507, 0.13638639450073242, 0.14727826416492462, 0.05478670075535774, -0.061383601278066635, -0.12276774644851685, -0.06110181659460068, -0.0690537691116333, -0.21704842150211334, -0.3051774799823761, 0.25515320897102356, 0.17391428351402283, -0.03291817381978035, -0.1455887407064438, -0.12389058619737625, -0.02052820287644863, 0.10322126001119614, 0.010707169771194458, -0.09716159105300903, -0.027980705723166466, -0.06597390025854111, -0.025022998452186584, -0.05966740474104881, 0.17274554073810577, 0.26402193307876587, 0.011159326881170273, -0.16187192499637604, 0.4047428071498871, 0.07798386365175247, -0.04246876388788223, -0.21929766237735748, 0.08385443687438965, 0.06606393307447433, -0.2723647356033325, -0.36102065443992615, -0.012868513353168964, 0.12499355524778366, 0.12462755292654037, 0.026611272245645523, -0.027338700369000435, -0.028112713247537613, -0.07992369681596756, 0.20591464638710022, 0.15364108979701996, 0.1523900330066681, -0.09062805771827698, 0.024232277646660805, 0.11187461018562317, -0.1913706511259079, 0.08353009074926376, -0.05085110291838646, 0.12185411155223846, 0.07452978938817978, 0.031951479613780975, 0.2243417352437973, -0.32936665415763855, -0.10284747183322906, 0.11626872420310974, 0.0838802233338356, 0.16282591223716736, 0.15149526298046112, -0.04844317212700844, -0.2574523091316223, -0.14561687409877777, 0.010908717289566994, 0.1307288110256195, -0.08692924678325653, 0.15090729296207428, 0.024916872382164, 0.06582246720790863, 0.2848026752471924, 