{"version": "0.5.3", "metadata": {"date": {"year": 2024, "month": 10, "day": 1, "hour": 16, "minute": 47, "second": 56}, "loudness": -14.422774314880371, "gain": 0.6767590862112934, "training": {"settings": {"fit_cab": false, "ignore_checks": false}, "data": {"latency": {"manual": null, "calibration": {"algorithm_version": 1, "delays": [161, 157], "safety_factor": 4, "recommended": 153, "warnings": {"matches_lookahead": false, "disagreement_too_high": false}}}, "checks": {"version": 3, "passed": true}}, "validation_esr": 0.0025963530639327532}}, "architecture": "WaveNet", "config": {"layers": [{"input_size": 1, "condition_size": 1, "head_size": 8, "channels": 16, "kernel_size": 3, "dilations": [1, 2, 4, 8, 16, 32, 64, 128, 256, 512], "activation": "Tanh", "gated": false, "head_bias": false}, {"input_size": 16, "condition_size": 1, "head_size": 1, "channels": 8, "kernel_size": 3, "dilations": [1, 2, 4, 8, 16, 32, 64, 128, 256, 512], "activation": "Tanh", "gated": false, "head_bias": true}], "head": null, "head_scale": 0.02}, "weights": [-0.09994450956583023, 0.797760009765625, -0.6797603368759155, -1.0730366706848145, -0.5149847865104675, 0.6074490547180176, -0.08091244846582413, 0.882835328578949, -0.10447501391172409, 0.22226063907146454, -0.36534440517425537, -0.3981008231639862, -1.1600028276443481, -0.7874200940132141, -0.5014899373054504, 0.04326235130429268, -0.2675502598285675, 0.1446853131055832, 0.03377002477645874, 0.32627588510513306, 0.1152278333902359, -0.007200397085398436, -0.40365463495254517, 0.03544757142663002, 0.10025735944509506, -0.37990909814834595, 0.06507410109043121, -0.009510067291557789, -0.4667185842990875, -0.09334757179021835, 0.07923061400651932, 0.5203831791877747, -0.037443857640028, -0.21125903725624084, -0.4526163637638092, -0.16466405987739563, 0.13166208565235138, 0.5040969848632812, 0.13485528528690338, -0.05815311521291733, -0.3312654495239258, -0.1101936623454094, 0.21347248554229736, 0.21834062039852142, -0.04845685139298439, -0.2181129902601242, -0.28128743171691895, 0.025768375024199486, 0.07324004918336868, -0.40315675735473633, 0.04038619622588158, 0.2857023775577545, -0.32880571484565735, -0.04840068891644478, 0.22356097400188446, -0.4666741192340851, -0.03992214426398277, 0.015493427403271198, -0.4747156500816345, -0.13754266500473022, 0.2027575969696045, 0.46260011196136475, -0.14862415194511414, -0.19110767543315887, -0.010409711860120296, 0.15314514935016632, -0.13725632429122925, 0.056102775037288666, -0.13456669449806213, 0.23604664206504822, -0.12834571301937103, 0.16286519169807434, -0.03198498114943504, 0.0970240905880928, 0.3518138527870178, 0.030198905616998672, 0.004658774007111788, 0.09114842116832733, -0.08465098589658737, -0.05859977751970291, -0.36009228229522705, 0.2385491281747818, 0.057310622185468674, 0.05451221019029617, -0.11593034118413925, -0.00555857690051198, -0.24213647842407227, 0.02663109079003334, 0.023735065013170242, 0.1147669181227684, -0.06588037312030792, 0.0963393822312355, -0.09958801418542862, 0.15188300609588623, -0.16755160689353943, 0.11750811338424683, -0.029276208952069283, -0.0046867202036082745, 0.1095535159111023, -0.19388729333877563, 0.11659422516822815, 0.3190949261188507, -0.15657632052898407, -0.05569721385836601, 0.08264206349849701, -0.09590359032154083, -0.13289892673492432, 0.10378484427928925, -0.10826295614242554, 0.07777472585439682, -0.3131435215473175, 0.24703474342823029, 0.1004939153790474, -0.2044104039669037, 0.2400418370962143, -0.19349761307239532, 0.3518578112125397, -0.10209443420171738, 0.08320485800504684, -0.3386325240135193, 0.15851983428001404, 0.07828103005886078, -0.4625076949596405, 0.17395545542240143, -0.062176164239645004, -0.4602060317993164, 0.07890716195106506, -0.15331894159317017, 0.3432220220565796, -0.24272093176841736, 0.08018148690462112, -0.3198348581790924, 0.09131168574094772, -0.07261157780885696, 0.4803319573402405, -0.12235461920499802, 0.10317513346672058, -0.345356285572052, 0.19695204496383667, 0.01202024333178997, 0.48388803005218506, -0.034990426152944565, 0.2126055210828781, -0.3771646022796631, -0.009346523322165012, 0.019447777420282364, -0.2924243211746216, 0.1212170198559761, -0.005939563270658255, -0.4936038553714752, -0.028630316257476807, -0.05376344546675682, -0.4082198143005371, 0.1874687224626541, 0.15062585473060608, -0.5127226114273071, 0.20685867965221405, -0.28223317861557007, 0.3488852083683014, -0.2793961763381958, -0.087447389960289, 0.22831785678863525, -0.2521675229072571, -0.14797042310237885, -0.34286150336265564, 0.08049457520246506, -0.03797249123454094, 0.3639083206653595, -0.20032724738121033, 0.01573195308446884, 0.451163649559021, -0.13480718433856964, 0.1476418823003769, 0.36128219962120056, -0.21404628455638885, 0.07807443290948868, -0.3409070372581482, 0.028605196624994278, 0.08893147110939026, 0.1657373607158661, -0.1351970136165619, -0.05633239075541496, -0.2103199064731598, 0.11549150943756104, 0.06290394067764282, 0.32600414752960205, -0.1632104218006134, -0.04138736054301262, -0.40617066621780396, 0.17133469879627228, 0.13202248513698578, 0.40163299441337585, -0.1903071105480194, 0.013856031000614166, 0.21920108795166016, -0.17200778424739838, -0.05706615746021271, 0.36720407009124756, -0.1609961986541748, 0.021844573318958282, 0.3206384479999542, 0.01644088141620159, -0.08941292017698288, 0.20970162749290466, -0.16893042623996735, 0.14211462438106537, -0.35907483100891113, 0.3142906129360199, 0.2389993965625763, 0.0563594326376915, -0.14266319572925568, -0.3159007430076599, -0.1388009786605835, 0.07997839152812958, 0.27748915553092957, 0.17754407227039337, -0.22102077305316925, 0.2160167545080185, 0.2764047682285309, -0.22766290605068207, 0.2664058804512024, 0.29277846217155457, -0.06581447273492813, -0.2868508994579315, -0.28281310200691223, 0.19440080225467682, 0.15390628576278687, 0.09363063424825668, -0.22105556726455688, -0.30395787954330444, -0.15754486620426178, 0.2309660017490387, 0.2645474374294281, 0.25582873821258545, -0.07439377903938293, -0.3486691415309906, -0.07423967868089676, 0.02613617666065693, 0.2118585854768753, 0.18926146626472473, -0.07520675659179688, 0.39661815762519836, 0.10746918618679047, -0.12015235424041748, 0.3607941269874573, 0.019208958372473717, -0.007119522430002689, 0.16356264054775238, 0.1590288281440735, -0.13694830238819122, 0.20155411958694458, 0.1728658825159073, -0.0006874870741739869, -0.3093646168708801, -0.1589459776878357, 0.16496732831001282, 0.08128808438777924, 0.01688241772353649, -0.19722022116184235, -0.23974990844726562, 0.049176037311553955, 0.2234582155942917, 0.2094813734292984, -0.023952195420861244, -0.08364874124526978, 0.09418850392103195, -0.17492349445819855, -0.10278058797121048, 0.2654038369655609, -0.08651605993509293, -0.20018957555294037, -0.22854042053222656, -0.008896781131625175, 0.16617541015148163, 0.1138400211930275, -0.23248770833015442, 0.05160300061106682, -0.23144279420375824, 0.11724167317152023, 0.1765747219324112, 0.17283570766448975, -0.20244473218917847, -0.19230712950229645, -0.03131629154086113, 0.1404837816953659, 0.230165496468544, 0.0964326485991478, -0.0814281776547432, -0.1558140516281128, 0.16159482300281525, -0.20797400176525116, -0.09093063324689865, 0.18349727988243103, -0.13767662644386292, -0.172318696975708, 0.0502764992415905, -0.03248528391122818, -0.24353143572807312, 0.20336787402629852, -0.17745442688465118, -0.196169912815094, -0.20479680597782135, -0.012802201323211193, 0.10232188552618027, 0.02758783847093582, 0.042386285960674286, 0.11176612973213196, 0.1052253395318985, -0.03424244374036789, -0.0812995508313179, -0.16078977286815643, 0.05885649472475052, 0.10534009337425232, -0.09867121279239655, 0.14610299468040466, 0.15762454271316528, -0.11399810761213303, 0.09247700124979019, 0.12528449296951294, 0.04904647916555405, -0.0854896530508995, -0.05955612659454346, -0.12834683060646057, 0.09368492662906647, 0.21769006550312042, 0.1730654239654541, 5.828629218740389e-05, -0.039439812302589417, 0.05645688250660896, 0.02177482470870018, -0.0124220484867692, -0.09671681374311447, 0.055808473378419876, 0.018590770661830902, -0.13662566244602203, 0.14609186351299286, 0.1776624321937561, 0.10694508999586105, 0.22315223515033722, 0.18821313977241516, -0.07812666147947311, 0.03689062222838402, 0.17797724902629852, 0.03778224065899849, 0.0001391671394230798, 0.1899760365486145, 0.03169113025069237, 0.16650420427322388, -0.02345030941069126, 0.018991321325302124, -0.18469955027103424, -0.13084767758846283, -0.05259501934051514, -0.006417935248464346, 0.11216237396001816, 0.14208702743053436, 0.050277721136808395, 0.009371851570904255, -0.1802516132593155, -0.062330253422260284, -0.03853798285126686, -0.2263588160276413, -0.21844343841075897, 0.17231041193008423, 0.00036720093339681625, 0.04019860178232193, 0.1792995035648346, -0.04417470470070839, 0.0049833860248327255, -0.08544297516345978, -0.15888933837413788, 0.023128235712647438, -0.017743900418281555, 0.011988352984189987, -0.041338641196489334, -0.14141501486301422, 0.05873756855726242, 0.04454917460680008, 0.18599213659763336, 0.18439242243766785, 0.21561303734779358, -0.10271043330430984, -0.01393197663128376, 0.03485666960477829, 0.11141983419656754, 0.05081017687916756, -0.03638656437397003, 0.14720170199871063, -0.13241156935691833, -0.029241198673844337, 0.0771077424287796, -0.11588604003190994, -0.17950069904327393, -0.020815880969166756, -0.19082431495189667, 0.0006862735608592629, 0.16357675194740295, 0.01139859203249216, -0.02546999789774418, 0.0077602253295481205, 0.21503479778766632, -0.21720294654369354, 0.07501094043254852, 0.04220569506287575, 0.30887308716773987, -0.20495566725730896, 0.2208966314792633, -0.1278483122587204, 0.03085850551724434, 0.1727951318025589, -0.332025945186615, 0.07501419633626938, 0.21227829158306122, -0.23635688424110413, -0.00832594744861126, -0.15193986892700195, 0.21257330477237701, -0.14004917442798615, 0.12763583660125732, -0.10607072710990906, 0.13211266696453094, -0.17610874772071838, 0.24786494672298431, -0.019499944522976875, 0.17328998446464539, -0.35931938886642456, 0.08206679672002792, -0.19544388353824615, 0.16423478722572327, -0.038466550409793854, -0.011669893749058247, -0.18300490081310272, 0.21738553047180176, 0.11096396297216415, -0.344889372587204, 0.0613333061337471, 0.11904136836528778, -0.3548988699913025, 0.1624581515789032, -0.04338311776518822, -0.38126513361930847, -0.0495862178504467, 0.06339188665151596, -0.14181621372699738, -0.04109169542789459, -0.002289583906531334, 0.20932400226593018, -0.1424333155155182, 0.2805575132369995, -0.4425451457500458, 0.08596017211675644, -0.10878785699605942, 0.4864056706428528, 0.14311186969280243, 0.07375910878181458, -0.2046724408864975, -0.0644422397017479, 0.2560100555419922, -0.46214261651039124, -0.11473016440868378, 0.04369671642780304, -0.3874806761741638, -0.036659516394138336, -0.32335931062698364, 0.39288610219955444, 0.14315910637378693, 0.26949435472488403, -0.39566004276275635, -0.1351555436849594, -0.22007687389850616, 0.3931523859500885, 0.21317750215530396, 0.2905478775501251, -0.310666024684906, 0.02432413026690483, -0.32131341099739075, 0.17952193319797516, 0.12075942754745483, 0.1019841805100441, -0.25177472829818726, -0.16023866832256317, 0.14778199791908264, -0.4598018527030945, 0.005032580811530352, 0.16331307590007782, -0.22591641545295715, 0.01684982143342495, 0.25789427757263184, -0.32843032479286194, -0.11468787491321564, 0.15126396715641022, -0.30970102548599243, 0.00799288135021925, -0.4189918339252472, 0.499617338180542, -0.02841605618596077, -0.22099700570106506, -0.21354272961616516, 0.1295156478881836, 0.31051796674728394, 0.10441600531339645, 0.12196102738380432, -0.10381223261356354, -0.15492144227027893, 0.09658271074295044, -0.25957658886909485, -0.19517244398593903, 0.035724855959415436, -0.2127843201160431, -0.1837891936302185, -0.05704370141029358, 0.26322510838508606, 0.2003236711025238, -0.04201774671673775, -0.08835020661354065, -0.16262613236904144, -0.030205659568309784, 0.1885620802640915, 0.32342350482940674, 0.006014441605657339, -0.08805979043245316, -0.24314232170581818, 0.07962847501039505, 0.050218429416418076, 0.13540659844875336, -0.06930965185165405, -0.032387875020504, -0.2653485834598541, -0.008289734832942486, -0.2409323751926422, -0.09096769243478775, 0.12538978457450867, -0.28793981671333313, -0.3568404018878937, -0.13084353506565094, -0.17669892311096191, -0.27440184354782104, -0.11403753608465195, -0.22169874608516693, -0.20826150476932526, -0.08828314393758774, 0.1458536982536316, 0.1083129271864891, -0.1512633115053177, 0.19399690628051758, -0.1077815443277359, -0.14310957491397858, -0.18216876685619354, 0.10547243058681488, 0.1949668973684311, 0.0475773848593235, -0.27534380555152893, 0.09527212381362915, 0.10116638988256454, -0.13069342076778412, -0.06362773478031158, 0.152129665017128, -0.18650083243846893, 0.034402769058942795, -0.18579508364200592, 0.020017577335238457, -0.021274959668517113, 0.12775518000125885, -0.05344932898879051, -0.19315646588802338, -0.05008058622479439, 0.1112406849861145, 0.026021504774689674, 0.27339187264442444, -0.06501615792512894, 0.03540172427892685, -0.08954457938671112, 0.09409079700708389, -0.03564223647117615, 0.17122240364551544, -0.028992624953389168, -0.10585475713014603, 0.06415002793073654, -0.09848406165838242, 0.07842501252889633, 0.14729192852973938, -0.2699148654937744, -0.18294711410999298, 0.2215903252363205, -0.16116951406002045, -0.12634511291980743, 0.21226316690444946, -0.09167344868183136, 0.05842864140868187, -0.01627797819674015, 0.27724385261535645, 0.02145959995687008, -0.10998376458883286, 0.32290542125701904, 0.0829218327999115, 0.1141524612903595, -0.22993315756320953, 0.14334739744663239, 0.08026282489299774, 0.21723946928977966, -0.13794952630996704, -0.1074916198849678, 0.005511379335075617, 0.1242903396487236, -0.11043412238359451, 0.03594366833567619, 0.06749977171421051, -0.022312073037028313, -0.18420812487602234, -0.010020674206316471, -0.04156402871012688, -0.011066051200032234, 0.14996066689491272, -0.010083344765007496, -0.042745769023895264, 0.13726718723773956, 0.03475526347756386, 0.11702361702919006, 0.14433486759662628, 0.06512158364057541, -0.15879371762275696, 0.13743123412132263, -0.014607403427362442, -0.041847843676805496, -0.04556255042552948, -0.138346329331398, 0.2396227866411209, -0.0304061621427536, -0.18579332530498505, 0.08859749883413315, 0.07791494578123093, -0.014953374862670898, 0.14322592318058014, 0.002684003207832575, 0.00218671141192317, 0.061452995985746384, -0.0641794428229332, -0.14163535833358765, -0.29744473099708557, -0.07073268294334412, -0.12927314639091492, 0.12149438261985779, 0.0665275901556015, 0.09306414425373077, -0.1768517643213272, 0.10246232151985168, -0.16569668054580688, 0.19727042317390442, -0.08123505115509033, -0.11999932676553726, 0.1608184278011322, -0.02463458850979805, 0.03913763165473938, -0.01724540814757347, -0.08560996502637863, 0.028200607746839523, -0.05972343310713768, 0.09691087901592255, -0.16744063794612885, 0.14597566425800323, 0.02205108106136322, 0.052689410746097565, 0.026079388335347176, -0.14748020470142365, -0.06359262019395828, 0.22790291905403137, 0.032727424055337906, 0.18874439597129822, -0.12783648073673248, 0.07638304680585861, -0.2200612723827362, 0.062175020575523376, 0.012253457680344582, -0.05188016593456268, 0.13776743412017822, 0.1448889672756195, -0.10434763133525848, 0.07645169645547867, 0.13523244857788086, -0.12140507996082306, 0.20810170471668243, -0.0602777935564518, -0.10033571720123291, 0.07254593819379807, 0.09963027387857437, 0.17499420046806335, -0.14625875651836395, -0.18189379572868347, -0.024490471929311752, 0.23210525512695312, -0.051663972437381744, 0.012857100926339626, -0.04458393156528473, 0.2392360121011734, -0.08889628201723099, -0.016272328794002533, 0.0016470743576064706, -0.21216294169425964, 0.16939443349838257, -0.08539408445358276, -0.16479788720607758, 0.1859632134437561, -0.22536754608154297, 0.1337544471025467, -0.2387067675590515, 0.08599020540714264, -0.06981195509433746, 0.26263856887817383, -0.1480855643749237, 0.19186434149742126, -0.14408054947853088, 0.03006168082356453, -0.2085488736629486, 0.005026133731007576, 0.07083790749311447, 0.053915269672870636, -0.11842857301235199, 0.12406950443983078, 0.0011797933839261532, 0.2544134259223938, 0.023151980713009834, -0.20610535144805908, 0.12656542658805847, -0.18872028589248657, -0.18478330969810486, 0.1635093092918396, 0.03359294682741165, -0.21427273750305176, 0.2183312177658081, -0.1729927659034729, -0.12593702971935272, 0.24493063986301422, -0.12795540690422058, 0.08008044213056564, -0.3591899871826172, 0.1810605376958847, 0.16239623725414276, -0.04235359653830528, -0.22791583836078644, -0.26828092336654663, -0.11879908293485641, 0.341289758682251, 0.275523841381073, -0.04235364869236946, -0.2598724067211151, 0.2887606620788574, 0.09835190325975418, -0.41209328174591064, 0.15327328443527222, -0.038368016481399536, -0.4427843391895294, -0.1852349191904068, 0.0979762002825737, 0.45549291372299194, 0.25119924545288086, 0.06281533092260361, -0.3710537254810333, -0.05685218423604965, -0.06146206706762314, 0.22988899052143097, 0.21906818449497223, 0.09915865957736969, -0.43402230739593506, -0.04077117517590523, 0.04312477633357048, 0.21049648523330688, 0.13724227249622345, 0.13170774281024933, -0.4322860836982727, 0.15237416326999664, 0.07049883902072906, -0.4572269022464752, 0.24135223031044006, 0.07498582452535629, -0.24463826417922974, 0.07187917083501816, 0.1464337855577469, -0.41516125202178955, 0.31378740072250366, -0.13521723449230194, -0.4532991349697113, -0.03998197615146637, 0.005782855674624443, 0.3054496645927429, -0.24519604444503784, -0.11993285268545151, -0.29214802384376526, -0.14532335102558136, 0.1375962644815445, -0.21768246591091156, 0.032741207629442215, -0.04579222574830055, -0.03202084079384804, 0.0258500874042511, -0.1387428492307663, -0.01633751392364502, -0.0060281092301011086, 0.02361213229596615, -0.024636128917336464, -0.1766459345817566, 0.3281766176223755, -0.3421231210231781, 0.7013440728187561, -0.6373037099838257, 0.1055106520652771, 1.0433385372161865, 0.9446535110473633, -0.6364237666130066, 0.09576237946748734, 0.19620995223522186, -0.43982237577438354, -0.30001214146614075, 0.2891864478588104, -0.7293062210083008, 0.2684042453765869, 0.7675899863243103, -0.01077372394502163, 0.28230181336402893, 0.2705283463001251, 0.12210244685411453, 0.11205524951219559, 0.06925000250339508, 0.010985261760652065, -0.14536096155643463, -0.026411214843392372, 0.032645609229803085, 0.13159725069999695, 0.14170992374420166, -0.1758790910243988, -0.060967881232500076, -0.30583083629608154, -0.003034853609278798, -0.06243986636400223, -0.09289268404245377, -0.24511440098285675, 0.12956321239471436, 0.2094726711511612, -0.06190819665789604, -0.06697763502597809, -0.22798629105091095, 0.005085689481347799, 0.12133017182350159, -0.13134318590164185, 0.14831848442554474, 0.04636625945568085, -0.14383134245872498, 0.08512014895677567, 0.444677472114563, 0.14944875240325928, 0.09458255022764206, -0.04069044068455696, 0.2410757690668106, -0.1276792287826538, -0.13362640142440796, 0.19501665234565735, -0.33516809344291687, -0.15909600257873535, -0.17528532445430756, 0.2556658685207367, -0.24815712869167328, 0.4498804211616516, 0.2624633312225342, 0.2939620912075043, -0.025287844240665436, 0.3294984698295593, -0.13323619961738586, 0.06268913298845291, -0.18913987278938293, -0.20196928083896637, 0.030266450718045235, 0.05468453839421272, -0.0021511707454919815, -0.28543272614479065, 0.14802078902721405, 0.08434692025184631, 0.002652230905368924, 0.09440694004297256, 0.3537779450416565, -0.27340617775917053, -0.058654434978961945, -0.09190928936004639, -0.314797967672348, -0.22006651759147644, 0.10527939349412918, 0.0747407004237175, 0.15005458891391754, 0.021036092191934586, -0.09916617721319199, 0.015482312068343163, 0.2307576686143875, -0.07663063704967499, 0.055801719427108765, 0.006704868283122778, 0.08165214955806732, -0.09555856883525848, -0.005447832867503166, -0.1340540647506714, -0.0336541123688221, 0.10922569036483765, 0.0896148830652237, 0.1747129261493683, 0.20529384911060333, 0.2780454158782959, 0.08242127299308777, 0.08230285346508026, -0.07514291256666183, -0.20951499044895172, -0.24091801047325134, 0.24190965294837952, 0.04883314296603203, 0.2841942310333252, 0.25193244218826294, -0.007035888731479645, 0.023050399497151375, 0.08995583653450012, 0.11012839525938034, -0.1585758477449417, -0.21122752130031586, -0.003043171251192689, 0.11182761192321777, 0.25777116417884827, -0.29364150762557983, -0.1475856751203537, 0.2833027243614197, 0.08556975424289703, -0.2763330638408661, 0.21836820244789124, -0.4728264808654785, 0.31785348057746887, 0.16097967326641083, 0.2675784230232239, -0.12159974128007889, -0.30288875102996826, 0.11569411307573318, 0.18313181400299072, 0.10029523819684982, -0.057078756392002106, -0.2803715169429779, 0.15273693203926086, -0.17003944516181946, 0.04998385161161423, 0.03679177537560463, -0.08693865686655045, 0.16844351589679718, -0.35690000653266907, -0.02846875786781311, -0.5263798832893372, -0.19867102801799774, 0.41598862409591675, -0.111880823969841, -0.045864976942539215, -0.17731565237045288, -0.17431874573230743, -0.2832104563713074, -0.06245303526520729, -0.04727225750684738, 0.10034188628196716, -0.22846390306949615, 0.06628469377756119, 0.012975932098925114, -0.22555358707904816, 0.0018897990230470896, 0.37495025992393494, -0.4043879508972168, -0.31299859285354614, 0.0811247006058693, 0.03894348442554474, -0.05266818404197693, 0.0234803669154644, 0.36621230840682983, 0.07453587651252747, 0.1081400141119957, 0.04589841514825821, 0.09036275744438171, -0.3104587197303772, 0.18838021159172058, 0.022179951891303062, 0.26030582189559937, -0.4252133369445801, 0.22284983098506927, 0.0698818638920784, -0.32781803607940674, 0.0032132554333657026, -0.11900707334280014, 0.02120228484272957, -0.27110037207603455, -0.2384033203125, 0.03194643184542656, -0.12141843140125275, 0.13269972801208496, -0.05467889457941055, -0.02552970126271248, 0.22684191167354584, -0.07481570541858673, 0.044184595346450806, 0.07567746937274933, -0.1356695294380188, -0.08649592101573944, 0.007018504664301872, 0.18315868079662323, -0.12258413434028625, -0.2597808837890625, 0.1854245811700821, -0.18193884193897247, -0.003513942938297987, 0.22266289591789246, -0.020013561472296715, -0.5909801125526428, -0.09225427359342575, -0.15222693979740143, 0.23587435483932495, -0.12350792437791824, 0.05270843580365181, -0.15619681775569916, 0.06062557175755501, 0.3636174499988556, 0.34266939759254456, 0.06253685802221298, -0.02764154225587845, 0.04041128233075142, -0.013875089585781097, -0.15689226984977722, -0.38127195835113525, -0.08335478603839874, -0.08731412142515182, -0.25223082304000854, -0.0979677215218544, 0.023934554308652878, -0.10384994745254517, 0.1773618906736374, 0.14281433820724487, 0.019067959859967232, 0.08083903789520264, -0.03776972368359566, 0.07023431360721588, 0.046200670301914215, -0.23838120698928833, -0.177032470703125, -0.3945334553718567, 0.024989940226078033, -0.2805529236793518, 0.25163891911506653, -0.18047815561294556, -0.1309819221496582, 0.25868871808052063, -0.0008602385059930384, 0.17011968791484833, 0.002249909332022071, -0.1916741281747818, 0.08111646771430969, -0.1359647810459137, -0.11834386736154556, 0.21753282845020294, 0.06620146334171295, -0.28095781803131104, -0.12112865597009659, 0.3758765757083893, 0.1934635490179062, 0.1336214691400528, 0.14696595072746277, -0.2166128307580948, 0.15928825736045837, 0.11738260090351105, 0.2649173140525818, -0.3645448684692383, -0.2627577781677246, 0.002388095948845148, -0.22184820473194122, 0.07232517004013062, 0.4165622889995575, 0.3773035407066345, 0.055116984993219376, 0.1266046017408371, -0.11012029647827148, 0.18274252116680145, -0.07428468763828278, -0.18642690777778625, 0.03297606483101845, 0.10657750815153122, 0.1222202405333519, 0.049394093453884125, -0.191920205950737, -0.02358245849609375, -0.07357270270586014, -0.008660761639475822, 0.13961197435855865, -0.03998497128486633, 0.1150636151432991, -0.015593580901622772, -0.188631072640419, -0.29820677638053894, 0.10742425173521042, 0.03945678099989891, 0.24674977362155914, -0.17455394566059113, -0.35293900966644287, 0.14793477952480316, -0.08496292680501938, 0.06572090834379196, -0.14898069202899933, -0.11966132372617722, -0.12311553210020065, 0.10473105311393738, 0.08316301554441452, 0.10442734509706497, 0.00853804312646389, -0.0628674328327179, -0.2911145091056824, 0.34883809089660645, 0.017630524933338165, 0.12683998048305511, -0.2764339745044708, -0.07743825018405914, -0.10205138474702835, 0.00998916570097208, -0.14294683933258057, 0.20539307594299316, -0.33324944972991943, -0.06926055997610092, -0.1924901008605957, 0.26410165429115295, 0.0029090754687786102, -0.42991918325424194, 0.30769774317741394, -0.02863992191851139, -0.01943342015147209, -0.15864047408103943, -0.10473854839801788, 0.017510369420051575, -0.2490365356206894, -0.19789095222949982, -0.1114828810095787, 0.09446083009243011, 0.1032358780503273, -0.035256706178188324, -0.05883576720952988, 0.16544970870018005, -0.017912225797772408, -0.030892599374055862, -0.0952487364411354, -0.01100149005651474, 0.10379365086555481, 0.10866338014602661, 0.0013805843191221356, 0.17435647547245026, -0.278901070356369, 0.05615438148379326, -0.15611201524734497, 0.14796090126037598, -0.1485113948583603, -0.0017892199102789164, -0.1928638517856598, -0.12010141462087631, 0.03379713371396065, 0.24333204329013824, -0.16452786326408386, -0.05696575343608856, -0.0849328562617302, -0.038373857736587524, 0.07056690752506256, 0.11311660706996918, -0.023631462827324867, -0.06602004915475845, -0.08844790607690811, 0.050513722002506256, -0.142216295003891, 0.23338542878627777, 0.014496717602014542, -0.046043407171964645, -0.14760097861289978, -0.31640559434890747, 0.18120332062244415, 0.15900519490242004, -0.03181006386876106, -0.13546957075595856, 0.2715941071510315, 0.1455499678850174, 0.022049395367503166, 0.17267729341983795, -0.07161275297403336, -0.03769777715206146, -0.3334503769874573, 0.06995964050292969, -0.09256540983915329, -0.1439317911863327, -0.15281620621681213, 0.08657272160053253, 0.019299890846014023, 0.310146301984787, 0.06555826216936111, -0.15642079710960388, 0.07784070819616318, 0.060841694474220276, 0.1482718139886856, -0.1188882365822792, -0.21663744747638702, 0.08504191040992737, 0.043092403560876846, 0.14475283026695251, -0.1132202222943306, 0.3278976082801819, 0.18817970156669617, 0.1545105129480362, -0.13207517564296722, -0.035614706575870514, -0.006758916657418013, -0.11080550402402878, 0.09014786034822464, -0.06503735482692719, -0.032351184636354446, 0.039916232228279114, 0.001801493694074452, 0.016129804775118828, -0.1815771460533142, -0.1960652619600296, -0.07602614909410477, 0.16407252848148346, 0.2648724913597107, -0.1592300832271576, 0.023886945098638535, 0.15095938742160797, -0.10713164508342743, 0.046493083238601685, 0.005647176411002874, -0.10819381475448608, 0.13014240562915802, -0.17796562612056732, 0.08009225130081177, 0.09856860339641571, -0.10824856162071228, 0.11413639783859253, -0.0005501354462467134, -0.14403851330280304, -0.059365466237068176, 0.11253423243761063, 0.010045092552900314, 0.2028122991323471, -0.009547230787575245, 0.10193309932947159, 0.11287758499383926, -0.14864951372146606, 0.1952078938484192, 0.008370529860258102, 0.022464854642748833, -0.029954515397548676, 0.0732603594660759, -0.03148338198661804, -0.17229919135570526, -0.047633443027734756, 0.022677037864923477, -0.09842869639396667, 0.22581912577152252, -0.16601353883743286, -0.07464256137609482, -0.14692312479019165, 0.10844496637582779, -0.02540777251124382, 0.023399053141474724, -0.030529113486409187, 0.2627214789390564, -0.3292965292930603, 0.15065714716911316, -0.03284812346100807, 0.09419773519039154, -0.0986996740102768, 0.0034691067412495613, 0.23679211735725403, 0.02115856669843197, -0.07896580547094345, 0.07263616472482681, -0.09519229084253311, 0.006786155514419079, -0.10474862158298492, -0.09355613589286804, -0.14005914330482483, 0.0728280320763588, 0.019027747213840485, 0.1555517315864563, 0.030373094603419304, 0.1625964343547821, -0.2220107913017273, -0.012623923830688, 0.01674306020140648, 0.073274627327919, 0.3519619107246399, -0.12887036800384521, -0.09264060854911804, 0.1698448657989502, -0.15381449460983276, -0.19916845858097076, -0.07677262276411057, 0.1937723308801651, 0.027633756399154663, 0.09058175981044769, -0.1517893224954605, -0.11445697396993637, 0.09341542422771454, -0.14614129066467285, 0.13045036792755127, -0.020573554560542107, -0.16488930583000183, -0.060838501900434494, -0.023332806304097176, 0.2646592855453491, 0.16019800305366516, 0.1781589388847351, -0.25514742732048035, -0.09083904325962067, -0.2477044016122818, 0.24534688889980316, 0.1628752499818802, 0.10141453891992569, -0.2203340381383896, -0.12806032598018646, -0.10696294903755188, 0.1396288126707077, -0.1387985795736313, -0.19493065774440765, 0.12719523906707764, 0.04180333763360977, -0.06090136989951134, 0.038977086544036865, 0.037757765501737595, -0.030114075168967247, -0.24796564877033234, -0.0035914136096835136, -0.09964712709188461, 0.03816849738359451, -0.15256555378437042, -0.007210251409560442, 0.22960743308067322, -0.13578835129737854, 0.2820720076560974, 0.17984838783740997, -0.19114747643470764, -0.15323837101459503, 0.04123393073678017, 0.1513717919588089, 0.1389181911945343, 0.029102005064487457, -0.13971050083637238, 0.10182522982358932, 0.1025707870721817, 0.38354089856147766, 0.17214010655879974, 0.01517215371131897, -0.07584540545940399, -0.3104638457298279, 0.01792166195809841, 0.2973354458808899, -0.0414322130382061, 0.030411677435040474, -0.0457858182489872, 0.08557581901550293, 0.04119260981678963, 0.261990487575531, 0.006787066347897053, -0.12226241827011108, -0.0887557864189148, -0.00557238794863224, 0.2015538364648819, 0.06094737350940704, -0.24257072806358337, 0.16205117106437683, -0.10199349373579025, 0.06336954981088638, 0.08339813351631165, -0.21237321197986603, -0.11831855028867722, 0.08381493389606476, -0.276844322681427, 0.029091136530041695, -0.11533479392528534, 0.17169806361198425, -0.025305191054940224, -0.0886426791548729, -0.10079792141914368, 0.14221394062042236, 0.10190992057323456, 0.16234458982944489, 0.08015215396881104, 0.28053364157676697, -0.08308817446231842, -0.42766866087913513, 0.11847042292356491, 0.06490003317594528, 0.08630022406578064, -0.30592411756515503, -0.12841784954071045, -0.038297079503536224, 0.03220858424901962, 0.2032405585050583, 0.2108214646577835, 0.1921287477016449, 0.13477380573749542, -0.19965949654579163, 0.21439111232757568, -0.03731381148099899, 0.30685409903526306, -0.18327151238918304, 0.025621462613344193, -0.3003361225128174, 0.08726759999990463, 0.02233068272471428, 0.33353641629219055, -0.15493857860565186, 0.1119990274310112, -0.36397749185562134, 0.2520662546157837, 0.08100858330726624, -0.11927375197410583, -0.1212020292878151, -0.06266055256128311, 0.18172961473464966, 0.16161686182022095, -0.024450592696666718, 0.07487041503190994, -0.12712961435317993, -0.16387014091014862, -0.20903357863426208, 0.041736919432878494, -0.04583364352583885, -0.0823899582028389, -0.27302488684654236, -0.3521914482116699, 0.025457274168729782, 0.1060568168759346, 0.08020951598882675, 0.15788355469703674, 0.1907966583967209, -0.08256150782108307, -0.12166491150856018, 0.18625085055828094, -0.02319631353020668, -0.14084242284297943, -0.2583659291267395, -0.08471324294805527, -0.22641544044017792, -0.11079490929841995, 0.061770305037498474, 0.09460671246051788, -0.05640241131186485, -0.034747522324323654, -0.27013859152793884, 0.10947788506746292, 0.10745516419410706, 0.08656881749629974, -0.11387389898300171, 0.0013815413694828749, -0.17993882298469543, 0.28594622015953064, 0.07311136275529861, 0.1896229237318039, -0.20665879547595978, 0.10160069912672043, -0.27695557475090027, 0.12437254190444946, 0.010067776776850224, -0.3296627104282379, 0.029762588441371918, -0.1807403266429901, -0.2572364807128906, -0.10241420567035675, -0.10928171873092651, -0.13351358473300934, -0.11301594227552414, -0.016421547159552574, -0.07478911429643631, 0.17448852956295013, 0.06851302087306976, 0.027967719361186028, -0.051553964614868164, 0.27876248955726624, 0.32403963804244995, 0.21514950692653656, -0.22683961689472198, -0.5830612182617188, -0.027468213811516762, 0.05753408372402191, 0.01821317709982395, 0.00403559161350131, 0.09732038527727127, 0.06744888424873352, -0.21006913483142853, 0.05487014725804329, -0.06218991428613663, 0.01689816266298294, -0.09995659440755844, -0.21285687386989594, 0.21703210473060608, 0.06848910450935364, 0.13511262834072113, 0.033916279673576355, -0.10148190706968307, -0.08186426013708115, 0.0277224350720644, -0.041216544806957245, -0.1625697761774063, 0.22994273900985718, -0.000517072738148272, 0.1358075737953186, -0.15236259996891022, -0.003689720993861556, -0.11540553718805313, -0.052787069231271744, -0.13834306597709656, 0.46876707673072815, -0.26777759194374084, -0.015729809179902077, 0.2492923140525818, 0.13944120705127716, 0.020368268713355064, -0.0008021011599339545, -0.03156345710158348, -0.044234734028577805, -0.11893141269683838, 0.03823274001479149, 0.005811946466565132, -0.023534467443823814, -0.28871750831604004, 0.15532617270946503, 0.07002368569374084, -0.04792724549770355, -0.04454018920660019, 0.12626954913139343, 0.13236916065216064, 0.05832286179065704, 0.10053808987140656, -0.02256794460117817, -0.018397921696305275, 0.18787895143032074, -0.007039726711809635, 0.16651123762130737, -0.039434511214494705, -0.009251154959201813, -0.17944689095020294, -0.006654209922999144, 0.02033284492790699, 0.09948909282684326, -0.09275950491428375, 0.07914998382329941, -0.15425440669059753, 0.09817040711641312, 0.14529766142368317, 0.018305160105228424, 0.11584621667861938, -0.044522397220134735, -0.19338974356651306, -0.10257871448993683, 0.0497087761759758, 0.014324958436191082, 0.03618849441409111, 0.1212102398276329, 0.03783531114459038, -0.1477823704481125, 0.11834973841905594, -0.010147297754883766, -0.21140484511852264, -0.28023213148117065, -0.09277617186307907, 0.01819394715130329, -0.09996499121189117, -0.02169414609670639, -0.17933517694473267, 0.029608026146888733, -0.029024487361311913, 0.09434156864881516, -0.07516074925661087, 0.05138924717903137, 0.06028519198298454, -0.1171879693865776, 0.018011506646871567, 0.3970147669315338, -0.2215351015329361, 0.11384093761444092, 0.14274762570858002, 0.07095693051815033, -0.2701584994792938, -0.12916876375675201, 0.09781043976545334, 0.022323934361338615, 0.018474560230970383, -0.2318257987499237, 0.047906868159770966, 0.27726492285728455, -0.004969173111021519, 0.0009513366967439651, 0.07760201394557953, 0.0059328689239919186, -0.14230597019195557, 0.12720902264118195, 0.2533826231956482, 0.11395540833473206, 0.026396505534648895, -0.005118738394230604, -0.13459017872810364, -0.19576677680015564, 0.14125224947929382, 0.21579499542713165, -0.019463252276182175, -0.2782573699951172, 0.05736621841788292, -0.27724552154541016, -0.22177861630916595, 0.11663538962602615, -0.174553781747818, -0.013716159388422966, 0.1436018943786621, -0.14109079539775848, 0.0396663062274456, 0.16650010645389557, 0.03439726307988167, -0.15353088080883026, -0.12022364884614944, -0.03388082608580589, 0.16881917417049408, 0.13543416559696198, 0.032526224851608276, -0.19496938586235046, -0.09036346524953842, -0.004207526799291372, 0.17743928730487823, -0.09396281838417053, -0.14770039916038513, 0.10476952791213989, 0.06130784749984741, 0.15705063939094543, -0.11602061986923218, 0.16940774023532867, 0.06017119437456131, -0.008816312067210674, -0.288867324590683, 0.07002414017915726, 0.0520697645843029, -0.010384875349700451, -0.185109943151474, 0.0996662899851799, 0.0002823998511303216, 0.23881031572818756, 0.017379485070705414, 0.1369228959083557, -0.34326401352882385, -0.07270907610654831, -0.12324680387973785, 0.3832260072231293, -0.02444082871079445, 0.02252926491200924, -0.11601274460554123, 0.00980581808835268, 0.0687105655670166, -0.14747829735279083, -0.0619187131524086, 0.10731014609336853, -0.02162861078977585, -0.06503098458051682, 0.1773470789194107, -0.1243092492222786, -0.2529635429382324, 0.18431027233600616, -0.11487356573343277, -0.1483115702867508, -0.1677798181772232, 0.06472355872392654, 0.11475802958011627, 0.047118548303842545, -0.10475974529981613, -0.2079019546508789, 0.058552391827106476, 0.23412443697452545, -0.0634864941239357, 0.14010736346244812, 0.17986789345741272, -0.09233760088682175, 0.027713045477867126, 0.03520706295967102, 0.060292527079582214, 0.18594175577163696, 0.016576340422034264, -0.13592027127742767, -0.16910701990127563, -0.048100776970386505, 0.18467244505882263, -0.04725054278969765, -0.12828797101974487, -0.1237221211194992, -0.17343780398368835, -0.11394138634204865, 0.1518649011850357, -0.09931524842977524, 0.10233325511217117, -0.01566968485713005, -0.011723549105226994, 0.00863706599920988, 0.022060181945562363, 0.17158153653144836, 0.21650129556655884, -0.050325293093919754, 0.37677890062332153, -0.32928600907325745, 0.030959809198975563, 0.15811674296855927, -0.13646714389324188, 0.032367806881666183, -0.016797764226794243, -0.07676616311073303, -0.17156772315502167, 0.12902773916721344, -0.047423895448446274, -0.0806378647685051, -0.012893114238977432, 0.131010502576828, 0.12461906671524048, 0.03744496777653694, -0.03204825147986412, 0.14897878468036652, -0.19498787820339203, -0.0899723470211029, 0.08209122717380524, 0.0878649652004242, -0.1999698132276535, 0.1078764870762825, -0.04476606473326683, -0.03336068242788315, -0.11988990753889084, -0.08215842396020889, 0.005847589578479528, 0.14274799823760986, -0.2206297516822815, -0.09989511966705322, -0.01269801240414381, 0.06819069385528564, 0.15988369286060333, 0.1525941789150238, 0.12209877371788025, 0.011600743047893047, -0.13848374783992767, 0.024636343121528625, -0.007070776540786028, 0.29987674951553345, 0.0755012109875679, -0.10059831291437149, 0.0043400865979492664, -0.025627855211496353, -0.018291138112545013, 0.05969802662730217, -0.002483138581737876, 0.17327767610549927, -0.3126778304576874, -0.06143183633685112, 0.14024654030799866, 0.020911449566483498, 0.1935621052980423, 0.3461501896381378, 0.02608748897910118, -0.0405021533370018, -0.011533310636878014, 0.010406019166111946, -0.07931600511074066, -0.22917740046977997, -0.11543070524930954, -0.2956426739692688, -0.1469811201095581, -0.043355848640203476, -0.02467987686395645, -0.20732027292251587, 0.00731812184676528, -0.21769919991493225, 0.07465799897909164, -0.12129350006580353, 0.09721393138170242, 0.05157027021050453, -0.05136049911379814, -0.03149869665503502, 0.11000803112983704, 0.13099735975265503, 0.02851201593875885, -0.4763067066669464, -0.0035315968561917543, -0.12014774233102798, 0.19025097787380219, 0.11396650224924088, 0.17971739172935486, -0.1297326534986496, -0.2354050874710083, -0.10821547359228134, -0.09234034270048141, 0.04921933636069298, 0.05314439907670021, -0.12660066783428192, 0.07309728860855103, -0.19806113839149475, 0.162842258810997, 0.19225406646728516, 0.15373799204826355, 0.7558684945106506, -0.2456320822238922, -0.10269083827733994, 0.12696585059165955, 0.11133572459220886, -0.1273527592420578, 0.006371753755956888, 0.007675588130950928, -0.2807372510433197, 0.019324781373143196, -0.07894875854253769, 0.1705687940120697, -0.08537814766168594, -0.21813470125198364, -0.0015519146108999848, 0.10464342683553696, -0.013438615947961807, -0.18157902359962463, -0.29342079162597656, -0.024333516135811806, -0.0545482411980629, 0.23532527685165405, 0.0213900338858366, 0.2161339372396469, 0.19419613480567932, -0.08902298659086227, -0.16360799968242645, -0.04863329976797104, 0.041420403867959976, -0.17298443615436554, -0.7467139959335327, 0.07242029160261154, -0.034808576107025146, 0.26943492889404297, -0.19046644866466522, 0.2327367514371872, -0.23959428071975708, -0.20482692122459412, -0.2817796468734741, 0.004333146847784519, 0.09941545128822327, 0.01043168269097805, 0.024703335016965866, 0.10228817164897919, -0.16650034487247467, 0.20981326699256897, -0.03603040426969528, 0.05659801885485649, 0.6418202519416809, -0.15290673077106476, -0.1576053649187088, 0.050823234021663666, 0.07268940657377243, -0.012752118520438671, 0.2748088240623474, -0.06394688785076141, -0.10840757936239243, -0.0024084344040602446, 0.10761100798845291, 0.14920254051685333, 0.11691435426473618, -0.020721817389130592, 0.04769706726074219, 0.1992771029472351, -0.045063987374305725, 0.11774817854166031, -0.06191270798444748, 0.026622433215379715, 0.11515633761882782, 0.11311057955026627, 0.020419083535671234, -0.08480542153120041, 0.12767630815505981, -0.08031504601240158, 0.010862459428608418, 0.1754261702299118, 0.08357907831668854, -0.03916895017027855, -0.34986260533332825, 0.36485862731933594, 0.35070642828941345, -0.6569942831993103, 0.1888638734817505, -0.7857462763786316, -0.19196724891662598, -0.30270516872406006, 0.9450482130050659, -0.8889641165733337, -0.449908971786499, -0.8791869282722473, 0.2083057463169098, -0.7924724817276001, 0.2979336380958557, -0.8089762330055237, -0.37260711193084717, -0.17619821429252625, -0.04286529868841171, 0.19242969155311584, 0.3768523335456848, -0.07325825095176697, -0.3667672872543335, -0.22108134627342224, -0.03029819391667843, -0.09769871085882187, 0.18244829773902893, 0.07641781121492386, 0.22790801525115967, 0.09594954550266266, -0.019287338480353355, -0.05653984099626541, -0.1487220972776413, -0.07989699393510818, -0.11777259409427643, -0.04435255378484726, -0.3245112895965576, 0.027254914864897728, -0.15188084542751312, -0.20927879214286804, 0.2751978039741516, -0.17203499376773834, -0.10568731278181076, 0.25164899230003357, -0.04743874445557594, 0.07374859601259232, 0.0471472442150116, 0.26528897881507874, 0.1123693436384201, -0.1900000125169754, -0.08659764379262924, 0.2530829608440399, -0.19083845615386963, 0.27558955550193787, -0.04495035856962204, 0.2439696341753006, -0.017642956227064133, -0.002377098659053445, -0.4342830181121826, -0.11295022815465927, -0.12131580710411072, 0.15679790079593658, 0.13547265529632568, 0.04650425538420677, -0.12386132776737213, 0.08950275927782059, -0.28363877534866333, -0.21909169852733612, -0.06899237632751465, -0.05250438302755356, -0.10111398994922638, -0.1299068033695221, -0.026743756607174873, 0.028039978817105293, 0.11897668987512589, 0.22374863922595978, 0.16565266251564026, -0.07746855914592743, 0.052364107221364975, -0.002104723360389471, 0.25905629992485046, 0.1884232759475708, 0.10401179641485214, -0.06744974851608276, -0.1860177367925644, -0.13663089275360107, 0.2151898890733719, 0.24135124683380127, 0.41728514432907104, -0.1340806633234024, -0.05536312237381935, 0.20009596645832062, -0.04184698686003685, 0.2534981071949005, -0.2824374735355377, -0.19800692796707153, -0.04672723636031151, -0.0019918002653867006, -0.18710583448410034, -0.2586584985256195, 0.03275521099567413, -0.26294758915901184, 0.03350406885147095, 0.0877402201294899, -0.019078874960541725, 0.2995806634426117, -0.032151270657777786, -0.034407567232847214, -0.17690975964069366, -0.19506902992725372, 0.013061841018497944, 0.2040725201368332, 0.1331789344549179, -0.14640328288078308, 0.1322295069694519, -0.16718724370002747, 0.1331164538860321, 0.25558438897132874, -0.2926068603992462, -0.2680211365222931, -0.018813475966453552, 0.08596551418304443, -0.04468577355146408, 0.1859586089849472, 0.08849774301052094, -0.03682839497923851, -0.1775420606136322, 0.1550406664609909, 0.1370488554239273, 0.023223167285323143, 0.012246736325323582, 0.2610289752483368, 0.09223727881908417, -0.04860176146030426, -0.08148355036973953, 0.1356385350227356, -0.1219048798084259, 0.3454797863960266, -0.2600623071193695, 0.020496755838394165, -0.10987695306539536, 0.04755166918039322, 0.15012440085411072, 0.06973686814308167, 0.2796502411365509, 0.330642968416214, -0.21761277318000793, -0.39630430936813354, -0.46708357334136963, -0.14871369302272797, -0.29218024015426636, -0.16434603929519653, 0.16524524986743927, 0.02374129183590412, 0.11847233027219772, -0.29015207290649414, 0.015979573130607605, 0.25244757533073425, -0.1072068139910698, 0.352538138628006, -0.24486979842185974, 0.03326703608036041, -0.0842171311378479, 0.14325177669525146, 0.2569260597229004, -0.1881716251373291, 0.027932584285736084, -0.09861498326063156, 0.026611391454935074, 0.0066251023672521114, 0.1220419853925705, 0.06553709506988525, 0.15048690140247345, 0.11218038201332092, 0.21007123589515686, -0.05795476585626602, -0.07394937425851822, -0.12482869625091553, -0.04398488998413086, -0.03395005315542221, -0.06750722974538803, -0.040469929575920105, 0.07190540432929993, 0.06372614204883575, 0.08969321846961975, 0.15534168481826782, -0.26644209027290344, 0.2883303165435791, 0.004108880180865526, 0.029231246560811996, -0.05770733952522278, 0.09620365500450134, 0.1432289332151413, 0.2932327389717102, -0.19526012241840363, -0.18311220407485962, -0.06196029111742973, -0.17243480682373047, 0.23341642320156097, 0.1998203545808792, -0.08425088971853256, 0.28966206312179565, 0.4492151737213135, 0.05267481878399849, 0.11401568353176117, -0.15373411774635315, -0.16085530817508698, -0.36605238914489746, -0.1367708146572113, -0.2347407341003418, -0.22236143052577972, 0.3119526207447052, 0.05558543652296066, -0.10190025717020035, -0.5865827798843384, 0.027245016768574715, -0.19228297472000122, -0.011823900043964386, -0.1738075613975525, -0.3889560401439667, 0.3110012710094452, -0.10286376625299454, 0.05334388092160225, 0.03495640307664871, 0.1826658993959427, 0.02869858406484127, 0.000315919634886086, 0.22590580582618713, -0.183587446808815, 0.0238312017172575, -0.08319903910160065, -0.06333108246326447, 0.05802415683865547, 0.1766815483570099, 0.10830449312925339, -0.0518718920648098, 0.2300911843776703, 0.14745381474494934, 0.09652136266231537, -0.05023106560111046, 0.026762308552861214, 0.23441660404205322, 0.10234156250953674, 0.05367560684680939, -0.24007944762706757, -0.08870452642440796, 0.07054047286510468, 0.03453485295176506, -0.1555509865283966, 0.1369592696428299, -0.2278219610452652, 0.018198780715465546, -0.11442355066537857, 0.1878480464220047, 0.2355828732252121, 0.17930090427398682, 0.17199653387069702, -0.2909422516822815, -0.12504972517490387, 0.07092134654521942, -0.23630106449127197, 0.2431570589542389, 0.07072602212429047, 0.17070372402668, 0.15540283918380737, -0.1615612953901291, 0.16698022186756134, 0.16282403469085693, -0.2671031057834625, 0.14486703276634216, -0.14433903992176056, -0.14682506024837494, -0.04892238602042198, 0.002074512653052807, 0.05816221237182617, 0.023049384355545044, -0.22156912088394165, 0.0037689150776714087, 0.10399895161390305, 0.17579178512096405, 0.22547049820423126, -0.051947735249996185, 0.006012762431055307, -0.2151181548833847, 0.004935162607580423, -0.19868850708007812, -0.20632775127887726, 0.1296989619731903, 0.08893516659736633, 0.17048457264900208, -0.27108362317085266, -0.05849478021264076, -0.11224459856748581, -0.18938417732715607, 0.21902376413345337, -0.14913751184940338, -0.0776168555021286, -0.03834328055381775, 0.17994093894958496, -0.10837357491254807, -0.016419775784015656, -0.08034760504961014, 0.267959862947464, -0.6789987683296204, -0.13424928486347198, -0.3388766050338745, -0.22503447532653809, -0.1446317583322525, -0.009292553178966045, -0.00041390288970433176, 0.05784562975168228, -0.17197507619857788, -0.09221024066209793, 0.20146745443344116, 0.10567419230937958, -0.0049303327687084675, 0.09455083310604095, -0.06767618656158447, -0.10526467859745026, 0.0351133868098259, -0.030736735090613365, -0.1782425194978714, -0.07829002290964127, 0.14509138464927673, -0.06427735090255737, -0.06284037232398987, 0.017281383275985718, -0.09764210879802704, 0.15448568761348724, -0.01265661045908928, 0.0300314761698246, -0.02865125983953476, -0.14983561635017395, 0.40378159284591675, -0.17097049951553345, 0.02477673999965191, -0.13104110956192017, -0.12045057117938995, -0.02046816796064377, -0.023333551362156868, 0.25118812918663025, -0.09200730174779892, 0.3043673038482666, 0.5380299687385559, 0.16622458398342133, -0.11879908293485641, -0.20762218534946442, -0.06668800115585327, -0.015171527862548828, -0.3673538565635681, 0.12753362953662872, -0.15071387588977814, -0.20999278128147125, -0.36092251539230347, 0.14726771414279938, 0.02413083426654339, -0.0061313072219491005, -0.08354988694190979, -0.1172923818230629, 0.016624411568045616, 0.010647674091160297, 0.06805624812841415, -0.21858297288417816, 0.08374757319688797, 0.031691744923591614, 0.13464118540287018, 0.15170882642269135, 0.11425352841615677, -0.09755212813615799, -0.31312426924705505, -0.46786198019981384, -0.27143093943595886, -0.04566563293337822, 0.3197382986545563, -0.18560278415679932, -0.05370841920375824, 0.08223093301057816, -0.1940898448228836, 0.04710882902145386, 0.25152063369750977, 0.02048800140619278, 0.2522832155227661, -0.1831946223974228, 0.11388678103685379, 0.19114376604557037, -0.13896754384040833, -0.35097208619117737, -0.042387835681438446, 0.16880016028881073, -0.122853122651577, 0.05449685826897621, -0.07556552439928055, 0.2672381103038788, -0.22225485742092133, 0.008022773079574108, -0.01996588706970215, 0.13140781223773956, -0.15780818462371826, 0.12951873242855072, 0.23328270018100739, 0.23458531498908997, -0.2414652407169342, 0.04806307703256607, 0.0678824856877327, -0.061071135103702545, -0.2558109760284424, 0.06902850419282913, 0.16479626297950745, 0.24922332167625427, -0.008700735867023468, -0.09411519020795822, -0.12721337378025055, 0.0975489690899849, -0.00860638078302145, 0.022911977022886276, 0.0030697910115122795, -0.21134653687477112, 0.38231733441352844, 0.18880173563957214, -0.128708153963089, 0.22240427136421204, -0.04606010019779205, -0.07333120703697205, 0.10602359473705292, -0.023337537422776222, -0.06698887050151825, 0.23736536502838135, -0.18169081211090088, -0.173458531498909, -0.3086976110935211, -0.006513738539069891, 0.30963775515556335, -0.10686740279197693, 0.11203025281429291, 0.034524716436862946, -0.016056500375270844, -0.08262800425291061, 0.06942375004291534, 0.2960101068019867, 0.18921124935150146, 0.1438789665699005, 0.038532108068466187, -0.008181941695511341, -0.07629439979791641, -0.010579057037830353, -0.24603958427906036, -0.30120041966438293, -0.33929207921028137, -0.20458032190799713, 0.07640809565782547, 0.2982325851917267, 0.02769579365849495, -0.07286670804023743, -0.09658993035554886, 0.03215009719133377, 0.22102537751197815, 0.09722281992435455, 0.01523461751639843, -0.06882505863904953, -0.23704761266708374, -0.07189508527517319, -0.06995841860771179, 0.15552076697349548, 0.018153198063373566, -0.05241883546113968, 0.08775381743907928, 0.007447247393429279, -0.4902966320514679, 0.1105903685092926, 0.009043659083545208, -0.06686335802078247, 0.19709642231464386, -0.03474312648177147, 0.0024017172399908304, 0.18534746766090393, -0.06447795033454895, 0.0696127861738205, -0.08937139064073563, -0.01044839434325695, 0.18174408376216888, -0.13507673144340515, -0.1875775009393692, 0.10298988223075867, -0.02345614694058895, 0.17050698399543762, 0.09668968617916107, 0.09798641502857208, -0.08242007344961166, -0.00041445778333581984, 0.09619898349046707, 0.18654599785804749, -0.16552004218101501, -0.20973674952983856, 0.04629329591989517, -0.07023116946220398, -0.15218794345855713, 0.29338201880455017, -0.018246417865157127, -0.2070392221212387, -0.14547838270664215, 0.21519982814788818, 0.12010812014341354, -0.006869599223136902, -0.07578670978546143, -0.12484344094991684, -0.20470669865608215, 0.2495919018983841, 0.16364768147468567, 0.17058472335338593, -0.05761363357305527, -0.16878321766853333, -0.08737113326787949, 0.20726431906223297, -0.1761583685874939, -0.02814549393951893, -0.1838982254266739, -0.16214913129806519, -0.06933038681745529, 0.20641839504241943, -0.1556202471256256, -0.16031724214553833, 0.2959292232990265, -0.11973164975643158, -0.17757844924926758, 0.3559287190437317, 0.2495080977678299, 0.018420737236738205, -0.3283706307411194, 0.28244948387145996, 0.2036268562078476, -0.2724831998348236, -0.028032148256897926, -0.08440349251031876, -0.3196199834346771, -0.14131788909435272, -0.19478654861450195, -0.12930665910243988, -0.06736087054014206, -0.17829816043376923, 0.14513178169727325, 0.02293502911925316, -0.11978200078010559, 0.08064640313386917, 0.07334083318710327, 0.045847028493881226, -0.0001026751779136248, -0.03707297146320343, 0.11016955226659775, 0.0012890576617792249, -0.26102447509765625, -0.13893282413482666, 0.21534623205661774, 0.16981545090675354, -0.02802959270775318, -0.3140185475349426, -0.16246569156646729, 0.027925394475460052, 0.1074414849281311, 0.151005357503891, -0.010820386931300163, -0.17774422466754913, 0.29111814498901367, 0.25962331891059875, 0.5304851531982422, 0.20463590323925018, -0.006900874897837639, -0.3111879825592041, 0.08268842101097107, 0.04930535703897476, -0.1748235523700714, 0.12470459192991257, -0.15103860199451447, -0.3652389943599701, -0.053431931883096695, -0.13899807631969452, 0.28312423825263977, -0.059440698474645615, -0.14113400876522064, -0.05939066410064697, 0.086837038397789, -0.062115851789712906, 0.05982021242380142, 0.028446391224861145, -0.25196465849876404, -0.23650257289409637, -0.0007937169866636395, 0.28708210587501526, 0.04149917513132095, 0.06068005785346031, 0.1272432804107666, 0.36507752537727356, -0.12309903651475906, 0.19041812419891357, -0.023471875116229057, -0.053794004023075104, -0.016318971291184425, -0.0738258883357048, 0.22137804329395294, 0.09303735941648483, -0.21269743144512177, -0.22998598217964172, -0.05011803284287453, 0.21502827107906342, 0.0025650495663285255, 0.15803849697113037, -0.18367598950862885, -0.2253769338130951, 0.0605827234685421, 0.01954249106347561, -0.13275912404060364, 0.0120572904124856, 0.13672082126140594, -0.16309724748134613, -0.1469316929578781, 0.1497657299041748, -0.0792100727558136, -0.0730028823018074, 0.12963972985744476, -0.24023352563381195, 0.051280900835990906, 0.18564388155937195, 0.23415903747081757, -0.12080664187669754, -0.17679807543754578, 0.05693637579679489, 0.0752464234828949, -0.3357987105846405, -0.022551480680704117, 0.019115179777145386, 0.14933422207832336, -0.12709712982177734, 0.35016167163848877, 0.21024365723133087, -0.10576142370700836, -0.1842016875743866, 0.1254381239414215, -0.029695900157094002, -0.09761393070220947, 0.010935989208519459, 0.2044641524553299, 0.15847055613994598, -0.24384331703186035, 0.024726590141654015, 0.06202103942632675, 0.004736856557428837, -0.13394975662231445, 0.10201826691627502, -0.015111487358808517, 0.033577993512153625, 0.09342510253190994, -0.18197420239448547, -0.16042982041835785, -0.010265962220728397, -0.08760257810354233, 0.16721241176128387, -0.10990861803293228, -0.060140661895275116, 0.11057492345571518, 0.02356366068124771, -0.2591857314109802, -0.005231963004916906, 0.14898572862148285, 0.07723130285739899, -0.14748410880565643, -0.11262231320142746, -0.05851593613624573, 0.041853949427604675, -0.06669341027736664, -0.13919292390346527, -0.23937278985977173, -0.13250939548015594, 0.09110993891954422, 0.17939698696136475, -0.3748779594898224, 0.26889997720718384, 0.17216357588768005, 0.27045267820358276, -0.164841428399086, 0.05679985135793686, 0.6657010912895203, -0.5562842488288879, -0.021509502083063126, -0.07393067330121994, 0.3610852062702179, 0.029580555856227875, 0.01742902584373951, -0.05057821422815323, -0.1463177651166916, -0.3060232698917389, -0.003836175426840782, 0.17869095504283905, 0.1896306574344635, -0.2484433948993683, -0.1084379106760025, -0.26900583505630493, 0.18766330182552338, 0.1592060774564743, 0.10431290417909622, -0.1585818976163864, -0.09751652181148529, -0.14694911241531372, 0.4060443043708801, 0.1662319004535675, 0.21217939257621765, -0.38473671674728394, 0.0744708776473999, -0.15300661325454712, -0.3157801628112793, -0.046259600669145584, 0.32115212082862854, -0.16189326345920563, 0.09428369253873825, 0.10216204077005386, -0.1077885776758194, 0.2015562355518341, 0.3580877482891083, -0.38934022188186646, -0.011246394366025925, -0.07234878838062286, 0.07761207967996597, -0.1885800063610077, -0.13521814346313477, 0.07917969673871994, 0.0558432936668396, 0.12184232473373413, 0.14124928414821625, 0.0029312202241271734, -0.0014869413571432233, -0.09475364536046982, 0.01637108623981476, 0.060229215770959854, -0.2060820758342743, -0.14554361999034882, -0.018191693350672722, 0.08340680599212646, -0.08862902969121933, 0.11135532706975937, 0.054318867623806, -0.11512517184019089, 0.06620548665523529, -0.10003914684057236, 0.21607178449630737, -0.10292136669158936, -0.21228238940238953, -0.21940378844738007, -0.2112768441438675, 0.1921832412481308, 0.2320287972688675, -0.03930538520216942, -0.024035949259996414, -0.07638715207576752, 0.04396946355700493, 0.07300867140293121, -0.25614628195762634, 0.13254696130752563, -0.09311128407716751, -0.10017428547143936, -0.027048220857977867, 0.12396750599145889, -0.17582093179225922, -0.153647780418396, 0.13836954534053802, -0.18894565105438232, 0.13766096532344818, 0.06256570667028427, 0.31108370423316956, 0.07069045305252075, -0.2975461184978485, 0.1816226691007614, 0.05840279161930084, 0.3862094581127167, 0.08965025097131729, -0.05371434986591339, 0.1376057267189026, 0.05308946594595909, 0.20018905401229858, -0.40097594261169434, -0.033503856509923935, 0.04997776076197624, 0.26234883069992065, 0.17601130902767181, 0.009532734751701355, -0.11022408306598663, 0.1735372543334961, -0.06795163452625275, 0.05280771479010582, 0.17140574753284454, 0.23980683088302612, -0.2905260920524597, -0.11930709332227707, -0.04948417842388153, 0.13010360300540924, 0.08586207032203674, 0.1627277433872223, -0.16646328568458557, -0.12833145260810852, -0.0546659417450428, 0.36496874690055847, 0.1946956366300583, 0.08588004857301712, -0.21652157604694366, 0.19714593887329102, 0.11320159584283829, -0.3456757068634033, 0.19896583259105682, 0.18605491518974304, -0.05422505363821983, 0.22184254229068756, -0.017352193593978882, -0.19690658152103424, 0.062241919338703156, 0.2569560110569, -0.4084836542606354, -0.12026787549257278, -0.268143892288208, 0.015127420425415039, -0.041751034557819366, -0.09398806095123291, 0.07020634412765503, 0.14319345355033875, 0.1978956013917923, 0.19538289308547974, 0.12713314592838287, -0.17723529040813446, -0.00368331465870142, -0.07389633357524872, 0.1872791200876236, 0.02766365371644497, 0.03184639662504196, 0.07622138410806656, 0.0202714204788208, -0.29600274562835693, -0.00012305336713325232, 0.14691215753555298, -0.12028708308935165, 0.05418562516570091, 0.1294420212507248, 0.17840476334095, -0.04748857766389847, -0.18137061595916748, -0.255303293466568, 0.046232789754867554, -0.06599745154380798, -0.03559590503573418, -0.03949457034468651, -0.13520699739456177, -0.13483203947544098, -0.07211531698703766, -0.011908234097063541, -0.09327419847249985, 0.005079225171357393, 0.31281861662864685, 0.006290018558502197, -0.05851234123110771, 0.06464654952287674, -0.13195811212062836, -0.08448370546102524, 0.21570985019207, -0.16320818662643433, -0.19647587835788727, 0.17284293472766876, 0.1839509755373001, -0.11440414935350418, -0.22896207869052887, -0.13035646080970764, -0.17754508554935455, 0.1428266316652298, -0.01902533881366253, 0.22733254730701447, -0.06501234322786331, -0.050286464393138885, 0.0735955759882927, 0.17050375044345856, 0.20841747522354126, -0.013598457910120487, -0.08952892571687698, 0.1204906702041626, 0.15388068556785583, 0.009033909067511559, 0.024305740371346474, -0.04226205497980118, 0.4164251983165741, 0.21227306127548218, 0.24052350223064423, 0.006623368244618177, 0.1013418659567833, -0.05652541294693947, 0.17861823737621307, 0.095864437520504, -0.1765146255493164, -0.03836195170879364, -0.055946510285139084, -0.01736186444759369, 0.058787159621715546, 0.0650261715054512, 0.13392373919487, -0.04416200518608093, -0.015633953735232353, -0.3754138946533203, -0.3977254629135132, 0.12919652462005615, 0.035197097808122635, -0.10553249716758728, 0.1021922379732132, 0.005731490906327963, -0.1149742528796196, 0.10747583210468292, 0.16151997447013855, -0.161040797829628, -0.1291731297969818, 0.022241976112127304, 0.08467984199523926, -0.06055029109120369, -0.0005834574112668633, 0.3359356224536896, -0.014686578884720802, -0.19133469462394714, -0.23997730016708374, 0.07787089794874191, 0.15697288513183594, -0.2988260090351105, -0.3375234007835388, -0.39628681540489197, 0.21078938245773315, -0.1347815990447998, 0.15364602208137512, -0.007146288640797138, 0.26802971959114075, -0.14488506317138672, 0.2898695468902588, 0.05631979927420616, 0.0997077152132988, -0.010607484728097916, 0.1150762215256691, -0.03234214335680008, -0.007957162335515022, -0.032970260828733444, 0.013470418751239777, -0.06589270383119583, 0.010444317944347858, -0.12727849185466766, 0.2624436914920807, -0.05233893170952797, 0.00740618584677577, -0.26049715280532837, 0.00927733350545168, 0.015517535619437695, -0.17367660999298096, -0.11191492527723312, 0.13798588514328003, 0.10109434276819229, -0.044918131083250046, 0.09360729157924652, -0.12802737951278687, -0.10499311238527298, 0.03938800096511841, -0.11157134920358658, -0.10455197840929031, -0.043175920844078064, -0.12965665757656097, -0.24564896523952484, 0.04858620464801788, 0.0056741381995379925, -0.15165571868419647, -0.11898983269929886, 0.030933033674955368, 0.2268103063106537, -0.10880912095308304, -0.060772430151700974, -0.5310869216918945, -0.31642794609069824, -0.1659458428621292, -0.3159303665161133, -0.2655283808708191, -0.2854609191417694, -0.0066948276944458485, 0.25513774156570435, -0.05231104791164398, -0.10342276096343994, -0.06480079144239426, -0.08621614426374435, 0.11389053612947464, 0.07898206263780594, 0.07487441599369049, 0.13282527029514313, -0.02327255718410015, 0.21345362067222595, -0.05413956567645073, -0.01819666475057602, 0.004376692231744528, -0.11410596966743469, -0.1151769608259201, -0.07296061515808105, 0.04364967346191406, -0.008361438289284706, -0.26931095123291016, -0.2893150746822357, -0.23506970703601837, -0.1774652749300003, -0.21976220607757568, -0.24699372053146362, -0.02297912910580635, -0.1082509309053421, -0.23409271240234375, -0.045742813497781754, 0.16530418395996094, 0.19190683960914612, -0.15977415442466736, -0.022352183237671852, -0.16574430465698242, 0.05842919275164604, -0.007295212242752314, 0.1446656733751297, 0.22903189063072205, -0.13780812919139862, 0.05789462849497795, 0.18487179279327393, 0.06303247809410095, 0.1829347014427185, 0.5334687829017639, 0.23691408336162567, 0.15418046712875366, 0.06215441972017288, -0.4109204113483429, 0.2033013552427292, -0.5571823716163635, 0.17852862179279327, -0.003058177651837468, 0.1169641762971878, -0.021463599056005478, 0.17861387133598328, 0.13885794579982758, -0.007844370789825916, -0.0627961978316307, -0.11681938916444778, -0.05554759129881859, -0.011293225921690464, 0.07953814417123795, 0.05268583446741104, -0.11327183246612549, 0.028315508738160133, -0.15668870508670807, 0.07060407102108002, 0.19942724704742432, -0.09194206446409225, 0.06300698965787888, -0.16369442641735077, 0.02487090229988098, 0.02574860490858555, -0.13210050761699677, 0.24153852462768555, -0.05779732018709183, -0.02199709042906761, -0.1671607941389084, -0.15992039442062378, 0.2041146606206894, 0.2983466386795044, 0.05318985506892204, 0.09338674694299698, -0.12369469553232193, 0.06118037551641464, -0.07148084789514542, -0.09102486819028854, -0.07694189250469208, 0.14008575677871704, -0.051641836762428284, -0.016710050404071808, -0.0037909706588834524, -0.15672987699508667, -0.02918960340321064, 0.19433559477329254, 0.005903604440391064, -0.19184602797031403, -0.5690122842788696, 0.8611202836036682, 0.28156861662864685, -0.4527122378349304, 0.19977693259716034, -0.19038452208042145, -0.1731579452753067, 0.6324098110198975, -0.776749312877655, 0.9813395142555237, 0.7672541737556458, 0.018609287217259407, -0.4438627064228058, 0.6044487953186035, -0.7428247928619385, 0.3170163929462433, -0.024724621325731277, 0.04093616455793381, -0.26792076230049133, 0.09661467373371124, 0.18539594113826752, 0.33477434515953064, 0.033976174890995026, 0.011031042784452438, 0.09340880066156387, 0.0869644284248352, 0.24553640186786652, -0.3266429603099823, -0.031072091311216354, -0.05373462662100792, -0.22475576400756836, 0.18997791409492493, -0.05979228764772415, -0.059905923902988434, 0.19842571020126343, 0.3782442808151245, -0.012240909039974213, 0.10436032712459564, -0.12768995761871338, -0.289063036441803, 0.06558367609977722, 0.14289811253547668, -0.06756453216075897, 0.13544444739818573, 0.23910531401634216, 0.12265665084123611, -0.016223229467868805, 0.07508417218923569, -0.3188626766204834, -0.12260206043720245, -0.29349783062934875, 0.5221222639083862, -0.46147653460502625, 0.31186819076538086, -0.31315040588378906, -0.31977584958076477, 0.2570434510707855, -0.47566524147987366, 0.29743286967277527, 0.13327476382255554, -0.10354755818843842, 0.11031001061201096, -0.0077655622735619545, 0.2276684045791626, 0.02395295724272728, 0.08168572187423706, -0.05414802208542824, -0.27944013476371765, 0.31072720885276794, -0.21402741968631744, -0.0035866263788193464, 0.2221059948205948, -0.17378270626068115, 0.21757270395755768, 0.3269427716732025, 0.011312582530081272, 0.10843010246753693, 0.16247928142547607, -0.16272002458572388, 0.19596196711063385, -0.28099358081817627, 0.27664244174957275, -0.03962539881467819, 0.04070929437875748, -0.19458895921707153, 0.07028022408485413, -0.2743959128856659, 0.20016174018383026, -0.05277859419584274, 0.13189996778964996, 0.12638060748577118, -0.21362651884555817, -0.4304516315460205, 0.06931165605783463, -0.1387033313512802, -0.0262761227786541, -0.12394759058952332, -0.02961902692914009, -0.04924686998128891, 0.007912203669548035, -0.1153426319360733, 0.30573225021362305, 0.27384281158447266, -0.10742411017417908, -0.14911538362503052, 0.12053555995225906, 0.036980707198381424, -0.09334901720285416, 0.05143562704324722, 0.2473120540380478, 0.0538145937025547, -0.20852313935756683, 0.1934051811695099, -0.18146204948425293, 0.21313588321208954, 0.18061946332454681, -0.0672530084848404, 0.12423542141914368, 0.15097947418689728, -0.36112701892852783, 0.2672145962715149, 0.05711632966995239, -0.20759981870651245, 0.22356684505939484, 0.1394094079732895, 0.05613904446363449, -0.06932930648326874, 0.16970717906951904, 0.5481675863265991, -0.06294546276330948, 0.006502431817352772, 0.03005051426589489, 0.1660011112689972, 0.03582100570201874, -0.1970115303993225, 0.11218367516994476, -0.09148215502500534, 0.029168086126446724, 0.2288985699415207, -0.022260555997490883, 0.13899724185466766, 0.19452732801437378, 0.09132664650678635, 0.17633983492851257, 0.22439949214458466, -0.11611556261777878, 0.27117207646369934, 0.3133818805217743, -0.17470651865005493, -0.04247134551405907, 0.16170573234558105, -0.14244090020656586, 0.2994196116924286, -0.18701952695846558, 0.3182013928890228, -0.20692573487758636, -0.15948645770549774, -0.02595633454620838, 0.08327079564332962, 0.1343393474817276, 0.03447428718209267, -0.18613497912883759, 0.18946775794029236, -0.0109369195997715, 0.26780086755752563, -0.25900840759277344, -0.15274475514888763, -0.0025381098967045546, -0.06934269517660141, 0.2535875737667084, -0.1833408921957016, -0.12418285012245178, -0.06572854518890381, 0.254738986492157, -0.03905608505010605, 0.12773461639881134, -0.08684470504522324, 0.029695484787225723, -0.15132726728916168, 0.23910875618457794, -0.15531699359416962, 0.06649243086576462, 0.16090716421604156, 0.08319710195064545, 0.12235808372497559, -0.41031232476234436, -0.0020293474663048983, 0.04350254684686661, -0.2134217768907547, 0.09719797968864441, 0.06467659026384354, -0.01204434409737587, 0.254732221364975, -0.07291315495967865, -0.01928381435573101, -0.07071980834007263, 0.3111896216869354, 0.03789892420172691, 0.33410993218421936, -0.25765717029571533, -0.34108445048332214, -0.4124816060066223, 0.2068524956703186, 0.015922894701361656, -0.2723011374473572, 0.1780335158109665, 0.3647248148918152, -0.010582651011645794, -0.19937914609909058, -0.038876451551914215, -0.04328076168894768, 0.07950535416603088, 0.38873639702796936, -0.22425319254398346, -0.13377995789051056, 0.14397747814655304, -0.0013471905840560794, 0.045910198241472244, 0.033133365213871, -0.3769463896751404, 0.32974743843078613, 0.2562723159790039, -0.22258499264717102, -0.43422731757164, 0.2051977664232254, -0.2696545720100403, 0.2321282923221588, -0.025227004662156105, -0.09800554811954498, 0.0617525689303875, 0.002257921267300844, -0.08441396802663803, 0.3425513207912445, 0.15611697733402252, -0.48906564712524414, 0.15776225924491882, 0.15784823894500732, 0.11566745489835739, 0.05667610839009285, 0.14712806046009064, 0.10011918842792511, -0.1380341351032257, -0.20096854865550995, -0.1270967274904251, -0.10460837930440903, 0.04661082848906517, -0.3217334449291229, 0.11458808928728104, 0.18413279950618744, 0.027180243283510208, 0.16781830787658691, 0.0328330434858799, 0.12266989052295685, 0.10806668549776077, -0.1899207979440689, -0.06806980818510056, 0.07983271032571793, -0.22219328582286835, -0.2371644675731659, -0.02443508990108967, -0.09249787777662277, 0.16339872777462006, -0.3259474039077759, -0.12079375982284546, 0.08234318345785141, -0.043057702481746674, 0.2933156490325928, -0.14951491355895996, -0.04644990339875221, -0.29675087332725525, -0.20912259817123413, 0.12047956138849258, 0.04237079992890358, 0.11110559105873108, 0.16306763887405396, -0.23340509831905365, 0.1199130043387413, 0.1222744956612587, -0.01604604534804821, -0.08904118090867996, -0.2990201413631439, 0.04796542227268219, 0.013829558156430721, 0.03005059063434601, 0.16360709071159363, -0.046443741768598557, 0.04975740239024162, 0.11738324165344238, -0.020456980913877487, 0.06910663843154907, -0.3171004056930542, 0.05097873508930206, 0.07705362141132355, -0.07290038466453552, -0.15819288790225983, 0.11811435222625732, -0.018480194732546806, 0.21041202545166016, 0.19836273789405823, 0.1321122646331787, -0.0898619145154953, -0.19874508678913116, -0.19816617667675018, 0.23780988156795502, 0.08551942557096481, 0.00847656186670065, 0.01026124693453312, -0.08804937452077866, -0.1996711939573288, 0.045020122081041336, 0.16495142877101898, 0.10652562975883484, 0.027719290927052498, -0.07731354236602783, -0.2131725400686264, -0.027572251856327057, -0.13780339062213898, 0.018701735883951187, -0.03368981555104256, 0.27671873569488525, -0.12207717448472977, -0.05551566556096077, -0.12538985908031464, -0.14336782693862915, -0.18501166999340057, 0.14944331347942352, 0.10385365784168243, 0.01960137113928795, -0.11613378673791885, -0.09568293392658234, -0.12802882492542267, -0.10365308821201324, -0.1435011327266693, -0.17644399404525757, 0.04462869465351105, -0.12564623355865479, 0.043968718498945236, -0.12888219952583313, -0.11910318583250046, -0.09714171290397644, -0.10291793197393417, -0.12123246490955353, -0.1583205759525299, -0.08916043490171432, 0.038192689418792725, 0.1833665370941162, 0.3974675238132477, -0.07066059857606888, 0.05225716903805733, 0.510591447353363, -0.163900688290596, -0.1251547634601593, 0.07167243957519531, -0.12421867251396179, 0.050516560673713684, -0.29513391852378845, -0.1237444281578064, -0.11704715341329575, 0.11138885468244553, 0.12033212184906006, 0.17614048719406128, -0.2850898206233978, -0.18171584606170654, 0.05099952965974808, 0.22851015627384186, 0.027194077149033546, 0.13421370089054108, -0.15812507271766663, -0.09421442449092865, -0.10878343880176544, 0.3354039192199707, -0.0631110817193985, -0.10372009873390198, -0.5066990852355957, -0.061979394406080246, 0.0591176301240921, -0.4801614582538605, 0.15014111995697021, 0.14533951878547668, -0.20135900378227234, -0.19659753143787384, 0.0993429496884346, 0.17840082943439484, -0.03889162093400955, -0.18083103001117706, 0.1152733862400055, -0.25918176770210266, -0.14467959105968475, -0.6185145378112793, -0.15739339590072632, -0.20783856511116028, -0.023296857252717018, -0.11767560988664627, 0.036261316388845444, 0.3054836392402649, -0.20069165527820587, -0.3900124728679657, -0.6608873009681702, -0.3403807282447815, -0.04062880203127861, -0.1835739016532898, 0.17352625727653503, 0.18138891458511353, 0.08140577375888824, -0.17590577900409698, -0.02532275766134262, 0.2349707931280136, 0.12996390461921692, 0.2303556650876999, -0.102657251060009, -0.1356275975704193, -0.13871701061725616, 0.09754082560539246, 0.08160559833049774, 0.04684050753712654, -0.24822886288166046, -0.10296843200922012, -0.15973028540611267, 0.09194459766149521, 0.08313947916030884, -0.4667375087738037, -0.047912660986185074, 0.009285206906497478, 0.1644015908241272, -0.06441961228847504, 0.13989034295082092, -0.04146206006407738, -0.23000696301460266, -0.21362356841564178, 0.026456262916326523, 0.07036790251731873, 0.28103575110435486, 0.035645440220832825, -0.272068053483963, 0.018385332077741623, 0.020115692168474197, 0.1906147599220276, -0.06042369827628136, -0.10949918627738953, -0.16110658645629883, 0.12649928033351898, 0.04554826393723488, 0.3122958242893219, 0.21156780421733856, -0.1826322376728058, -0.12270461767911911, -0.2894699275493622, -0.32553330063819885, -0.0984540656208992, 0.15768535435199738, 0.12359152734279633, -0.0087527921423316, -0.07295237481594086, -0.06546781957149506, 0.2662687599658966, 0.15037021040916443, -0.02264104224741459, -0.32217511534690857, -0.29831963777542114, -0.0926194116473198, 0.17165692150592804, 0.12410910427570343, 0.2723742723464966, -0.11378295719623566, 0.09322763234376907, 0.03577595576643944, 0.6091189384460449, 0.2684677839279175, 0.09323106706142426, -0.41598814725875854, 0.13597822189331055, 0.29400643706321716, -0.2589570879936218, 0.11026730388402939, 0.22398795187473297, -0.2111835777759552, -0.1804099678993225, -0.03065272979438305, 0.09998999536037445, -0.3585771322250366, -0.35815876722335815, -0.23741057515144348, 0.2562764286994934, -0.1628173589706421, 0.09909883886575699, -0.2586015462875366, 0.04791494086384773, -0.0699572041630745, 0.257785439491272, -0.14959171414375305, -0.042353637516498566, 0.13360710442066193, -0.17212718725204468, -0.007703653536736965, -0.19816571474075317, -0.14344999194145203, 0.027451975271105766, 0.009496239945292473, -0.09250681102275848, 0.017424488440155983, -0.3087596595287323, -0.007143642287701368, -0.18086275458335876, -0.29895973205566406, -0.03786046430468559, -0.051282498985528946, -0.10817322134971619, -0.036056242883205414, -0.0081806480884552, -0.2731597125530243, -0.059449806809425354, -0.14944805204868317, 0.1488313227891922, -0.14705969393253326, 0.0971301943063736, -0.4211236536502838, -0.01810772530734539, 0.01900295354425907, -0.20355507731437683, -0.01776946894824505, -0.07299964129924774, -0.3030146360397339, -0.21216028928756714, 0.18658307194709778, 0.026214400306344032, -0.0234003234654665, -0.09155924618244171, 0.162737637758255, 0.04990564286708832, 0.007464960217475891, -0.02259552851319313, -0.03551628068089485, 0.02827320247888565, -0.043816857039928436, 0.015014627948403358, 0.12769781053066254, 0.0694556012749672, 0.07057904452085495, -0.11366795003414154, 0.12268739193677902, 0.18074724078178406, -0.13525168597698212, -0.03181570768356323, -0.20844119787216187, -0.09540492296218872, -0.17350143194198608, -0.18501003086566925, 0.13234567642211914, 0.1331528276205063, -0.11029915511608124, 0.021415861323475838, -0.15786471962928772, 0.05949912965297699, -0.055806536227464676, -0.013766534626483917, 0.06986915320158005, 0.035126782953739166, -0.20581862330436707, -0.11177588254213333, -0.3010115921497345, -0.09719957411289215, -0.10645749419927597, -0.04854150861501694, 0.021838994696736336, 0.03994116559624672, -0.22155135869979858, -0.18861797451972961, -0.17149867117404938, -0.10213913768529892, 0.031680453568696976, 0.19663512706756592, 0.05754994973540306, 0.11943919211626053, 0.16694292426109314, 0.11566375195980072, 0.41421255469322205, -0.04481463134288788, -0.05735136941075325, 0.2576397955417633, 0.5246748328208923, -0.22737739980220795, 0.2024906724691391, 0.8035159707069397, -0.06204229220747948, 0.2416476458311081, -0.6008658409118652, -0.13999922573566437, 0.18641555309295654, 0.3404728174209595, -0.21777628362178802, 0.21846945583820343, -0.041605692356824875, 0.4806414544582367, -0.31008392572402954, 0.264043390750885, -0.15594743192195892, 0.4518151879310608, -0.03722582384943962, -0.07138170301914215, -0.14115141332149506, 0.38146334886550903, 0.11556004732847214, 0.0591699443757534, -0.29183048009872437, -0.15962301194667816, 0.049946971237659454, 0.5032453536987305, 0.00924833957105875, -0.019137917086482048, -0.32138073444366455, 0.06040112301707268, 0.28640010952949524, -0.4271705150604248, 0.12126631289720535, -0.28740638494491577, 0.020350554957985878, -0.010952080599963665, 0.1935761272907257, 0.3001840114593506, -0.1437474489212036, 0.4929044246673584, 0.14176276326179504, -0.22395524382591248, -0.4654678404331207, -0.06619122624397278, 0.18483799695968628, -0.24704264104366302, -0.25385555624961853, 0.26525139808654785, -0.2440623641014099, -0.10819122940301895, 0.09029924869537354, -0.0036371794994920492, 0.16688799858093262, 0.24023431539535522, -0.25209593772888184, 0.10322973132133484, 0.08954194188117981, -0.2755066156387329, 0.05366608873009682, 0.20013527572155, 0.11768301576375961, 0.037046290934085846, -0.046472374349832535, -0.0703597366809845, 0.19208408892154694, 0.05787310749292374, 0.17029456794261932, 0.17072848975658417, 0.08085624873638153, -0.38200893998146057, -0.22507184743881226, 0.006002180743962526, -0.06555386632680893, 0.0034642068203538656, -0.12047870457172394, -0.22936023771762848, -0.2442140132188797, 0.12269715964794159, -0.14486847817897797, 0.05553674325346947, 0.08726869523525238, 0.17482486367225647, -0.017235148698091507, -0.09448488056659698, -0.16319532692432404, 0.009373038075864315, 0.020295921713113785, -0.35594624280929565, -0.19087320566177368, -0.05417124554514885, -0.3108441233634949, 0.14050881564617157, -0.23546099662780762, 0.0322081558406353, 0.11842647939920425, 0.07176221162080765, -0.22526459395885468, -0.7842034697532654, 0.10587256401777267, -0.16410216689109802, 0.1998366117477417, 0.03468194231390953, -0.16142283380031586, 0.35609447956085205, -0.18006367981433868, -0.050157297402620316, 0.094057098031044, -0.029120197519659996, -0.04088062793016434, -0.35723933577537537, 0.01929202675819397, -0.1589863896369934, -0.07418610900640488, -0.17362646758556366, -0.00564571563154459, -0.0921199843287468, -0.1754416525363922, 0.06138975918292999, 0.2738379240036011, -0.06698869168758392, 0.0008229465456679463, -0.5148119926452637, 0.00013852865959051996, -0.08431381732225418, -0.8331969380378723, -0.014031470753252506, -0.1426224261522293, -0.450853168964386, 0.11071968823671341, -0.06792376190423965, 0.1326519250869751, 0.037931233644485474, -0.023031027987599373, 0.08505744487047195, -0.1788204461336136, -0.09530292451381683, -0.20429497957229614, 0.10311891883611679, 0.47993266582489014, 0.3997876048088074, -0.0233127661049366, 0.4387553632259369, 0.07750491052865982, -0.030106812715530396, 0.052863962948322296, 0.33065900206565857, 0.14415434002876282, 0.2740156352519989, 0.021229999139904976, -0.01233699731528759, 0.2645360231399536, 0.3369051516056061, -0.13211482763290405, -0.02263503149151802, -0.29603439569473267, -0.10638833045959473, -0.052180662751197815, -0.18030402064323425, -0.05427519604563713, -0.052245236933231354, 0.010839753784239292, 0.14786936342716217, 0.09469466656446457, 0.08892504125833511, 0.06235016882419586, -0.10325946658849716, 0.07889252156019211, -0.0996834933757782, -0.1221991553902626, 0.11029992997646332, -0.019745346158742905, 0.1085144653916359, 0.006648445501923561, -0.15995873510837555, 0.015842003747820854, 0.5334143042564392, 0.08148857206106186, -0.2853604257106781, -0.10606196522712708, -0.15950244665145874, 0.1321023404598236, 0.07766817510128021, -0.15038174390792847, 0.2024785727262497, -0.05357174202799797, 0.11933205276727676, -0.207715705037117, -0.32484033703804016, 0.09926917403936386, -0.018885210156440735, -0.10018101334571838, 0.08781065791845322, -0.141541987657547, -0.00825980119407177, 0.21266339719295502, 0.10511676967144012, 0.0513870008289814, -0.06884507834911346, -0.29533183574676514, -0.048259250819683075, 0.06021121144294739, 0.06027372181415558, -0.22000940144062042, 0.24642010033130646, 0.2785559296607971, 0.1487012803554535, -0.33909106254577637, -0.17068572342395782, 0.20527741312980652, 0.30710870027542114, 0.054363369941711426, 0.13541853427886963, -0.0130245266482234, -0.1555684208869934, 0.061037324368953705, 0.11663265526294708, 0.15748330950737, 0.07712293416261673, -0.12019322067499161, 0.02331371419131756, -0.03894384205341339, -0.09189078211784363, -0.13802747428417206, 0.01865021511912346, 0.25257211923599243, 0.2851428687572479, 0.08863609284162521, -0.11964482069015503, -0.010182423517107964, 0.17118003964424133, 0.06997805833816528, -0.08115101605653763, 0.009707472287118435, 0.29276785254478455, -0.17728978395462036, 0.051840297877788544, 0.1577899008989334, 0.12800951302051544, 0.12307349592447281, -0.11540934443473816, -0.14659349620342255, -0.3452877700328827, 0.017952103167772293, -0.20761515200138092, 0.03328568860888481, -0.008757561445236206, -0.13819175958633423, -0.16164499521255493, 0.05272648483514786, 0.06012299656867981, -0.14036975800991058, -0.399051696062088, -0.0278928279876709, -0.14075219631195068, -0.02918406017124653, -0.1024184599518776, -0.042203135788440704, 0.059961579740047455, -0.10126481205224991, -0.16332939267158508, -0.0002606790221761912, -0.06667633354663849, 0.35060563683509827, 0.0977821871638298, 0.06104565039277077, -0.5046892166137695, 0.060534436255693436, 0.08157427608966827, 0.0066702901385724545, -0.04221858084201813, 0.09408482164144516, 0.0010892532300204039, -0.15543006360530853, 0.08793152868747711, -0.09072904288768768, 0.11481812596321106, -0.22632059454917908, -0.25593119859695435, 0.019880261272192, -0.03229481354355812, -0.09053617715835571, 0.0910896360874176, 0.3318198025226593, 0.39103031158447266, 0.06486822664737701, -0.03637400269508362, -0.25026950240135193, -0.014484305866062641, 0.06242281571030617, -0.09577587246894836, -0.01755838468670845, -0.07741675525903702, -0.1478511244058609, -0.24046312272548676, 0.23455050587654114, 0.16429279744625092, 0.1867005079984665, 0.04203979671001434, -0.10464269667863846, 0.08444029837846756, -0.07574097812175751, 0.028211893513798714, -0.13409672677516937, 0.24350041151046753, -0.04576091095805168, 0.0607001967728138, -0.16762490570545197, 0.20219899713993073, -0.0746058002114296, -0.06663008779287338, -0.08020255714654922, -0.021803252398967743, -0.08600196242332458, 0.0584709495306015, -0.08318612724542618, 0.07129832357168198, -0.20049889385700226, 0.1109919622540474, -0.11511076241731644, 0.1840106099843979, 0.023168588057160378, 0.06507942825555801, 0.10996340960264206, -0.03516459837555885, 6.327257142402232e-05, 0.18850287795066833, 0.021300334483385086, 0.25061702728271484, 0.0750165581703186, -0.0340687595307827, -0.0449928380548954, 0.09362228214740753, -0.2105778604745865, 0.08007526397705078, 0.16375114023685455, 0.49165913462638855, -0.029787570238113403, 0.17239028215408325, 0.5774068832397461, -0.01588490419089794, 0.06802321970462799, -0.6747188568115234, 0.011864040046930313, 0.07947833836078644, 0.3915785253047943, 0.09300525486469269, 0.07687631994485855, 0.24360841512680054, -0.0828324556350708, -0.05448541417717934, 0.27520519495010376, 0.07876768708229065, 0.06877727061510086, -0.205193430185318, -0.13325057923793793, -0.11231246590614319, 0.24412213265895844, 0.1166197806596756, -0.016157574951648712, -0.014241604134440422, 0.04125777631998062, -0.10766464471817017, 0.41887950897216797, -0.07723446935415268, -0.01489873044192791, -0.31186947226524353, -0.17988453805446625, 0.12078965455293655, -0.39862820506095886, -0.023347018286585808, -0.2341531366109848, 0.17991600930690765, -0.12857334315776825, -0.13029426336288452, 0.2535039782524109, 0.14316168427467346, 0.1698070466518402, 0.1552954912185669, -0.015409853309392929, 0.12119131535291672, 0.11480487883090973, -1.4757503271102905, -0.1048450693488121, -0.24350610375404358, -0.7850400805473328, -0.037596892565488815, 0.05772273615002632, 0.9695016145706177, 0.04377906769514084, 0.2515577971935272, 0.34411707520484924, -0.03381248190999031, -0.05202510952949524, 0.04475042596459389, 0.10431002825498581, 0.18377625942230225, -0.6583365201950073, -0.08049666881561279, 0.20601335167884827, -0.2869207561016083, 0.009890603832900524, 0.058446843177080154, -0.19274620711803436, 0.22501102089881897, 0.17214035987854004, -0.03608928248286247, -0.06559796631336212, -0.12707236409187317, -0.37129244208335876, -0.05156654492020607, 0.069565549492836, 0.48078688979148865, -0.05085881054401398, -0.08871978521347046, 0.1553039848804474, 0.01088600791990757, -0.03780533745884895, -0.4178851246833801, 0.10350724309682846, -0.09271395951509476, -0.45310425758361816, -0.016242405399680138, -0.24421945214271545, -0.27330607175827026, 0.06428114324808121, 0.020802127197384834, -0.18272587656974792, 0.41302093863487244, 0.0803612619638443, -0.3113393187522888, -0.3250201642513275, -0.002739055547863245, -0.24364911019802094, -0.8184035420417786, 0.0214524045586586, -0.18214906752109528, 0.4808610677719116, -0.09708570688962936, -0.16254833340644836, 0.07978638261556625, -0.06779506057500839, -0.017764344811439514, -0.12512646615505219, -0.16850607097148895, 0.01078916434198618, -0.22483821213245392, -0.06833484023809433, -0.2954596281051636, 0.061583537608385086, -0.15702320635318756, 0.13012270629405975, -0.33833903074264526, -0.0844004675745964, -0.24449320137500763, 0.29363977909088135, -0.011265013366937637, -0.08065270632505417, -0.6296140551567078, -0.07922052592039108, -0.22123926877975464, -0.5171591639518738, -0.10678339749574661, -0.2244245707988739, 0.3034519851207733, -0.08542194217443466, -0.08645883202552795, -0.06526275724172592, -0.049528297036886215, -0.06138173118233681, -0.18040241301059723, -0.04719585180282593, -0.2120724767446518, -0.10127030313014984, 0.24585559964179993, 0.2778233289718628, 0.0215682964771986, 0.25016677379608154, -0.14548499882221222, 0.08827517181634903, 0.06927812099456787, 0.10084600001573563, 0.07552183419466019, 0.10233509540557861, 0.3025418221950531, 0.05134128779172897, -0.12822937965393066, 0.10680684447288513, -0.04971490055322647, 0.13176007568836212, 0.06658006459474564, 0.6020306348800659, 0.5041767358779907, 0.41027703881263733, -1.057965874671936, -0.5607925653457642, 0.0585431233048439, 0.5383323431015015, -0.027931611984968185, 0.2140960395336151, 0.5469338893890381, -0.7124943137168884, 0.25447866320610046, 0.021191149950027466, -0.6413680911064148, 0.18646065890789032, -0.13458189368247986, 0.08555655926465988, -0.3698066473007202, 0.3561820685863495, -0.07293890416622162, 0.08297977596521378, 0.13789844512939453, -0.11942692846059799, -0.29089421033859253, -0.16063812375068665, 0.26975226402282715, -0.1284572035074234, 0.007009691093116999, 0.1342577040195465, -0.19910791516304016, -0.009872055612504482, 0.0003343257412780076, -0.07303791493177414, -0.2401767075061798, 0.10411330312490463, -0.15805047750473022, -0.21185149252414703, 0.03400278836488724, 0.23192055523395538, -0.2114276885986328, -0.07588347792625427, 0.032520562410354614, -0.18498936295509338, 0.05638682469725609, -0.23724870383739471, 0.0028020695317536592, 0.027208954095840454, -0.07566212862730026, -0.049275051802396774, -0.1085200160741806, -0.12043499946594238, -0.3080013692378998, -0.2967882454395294, -0.18579120934009552, -0.19768059253692627, 0.03563367947936058, 0.22184859216213226, -0.17130686342716217, -0.22781121730804443, -0.17128026485443115, 0.040568992495536804, 0.16446805000305176, 0.016977624967694283, 0.10518285632133484, -0.09070385247468948, 0.34674882888793945, -0.1977992206811905, 0.4254588186740875, 0.1366286724805832, 0.17511750757694244, 0.20265550911426544, -0.0736640989780426, -0.22217389941215515, 0.04564443603157997, 0.03452315926551819, -0.21389813721179962, 0.0280595850199461, 0.004184579011052847, -0.054440662264823914, -0.28380292654037476, 0.32084330916404724, 0.03589383140206337, -0.11481374502182007, 0.07053510844707489, 0.0844811201095581, -0.019943147897720337, 0.09117989987134933, -0.22939839959144592, 0.1811370998620987, 0.33827829360961914, 0.06265285611152649, 0.0760265365242958, -0.6164464354515076, -0.02593100257217884, -0.13707609474658966, -0.10193604975938797, -0.12496519833803177, 0.05574297904968262, 0.0710148811340332, 0.10802142322063446, 0.11086577922105789, 0.1615951657295227, -0.22323556244373322, -0.10379352420568466, 0.19698557257652283, 0.0030286943074315786, -0.14387641847133636, 0.2952401638031006, -0.20218856632709503, 0.008597336709499359, -0.3151225745677948, 0.2038244903087616, -0.1746150553226471, 0.04922278970479965, -0.019517043605446815, -0.0815233662724495, -0.21191726624965668, -0.37635037302970886, -0.029355309903621674, 0.2971677780151367, -0.358975887298584, 0.1548597365617752, 0.2970016300678253, -0.23763501644134521, 0.14655712246894836, 0.12416611611843109, -0.22563044726848602, -0.18021081387996674, 0.010194485075771809, 0.22146089375019073, 0.006778673734515905, 0.03763964772224426, 0.2490355372428894, -0.13244600594043732, -0.17261843383312225, 0.40698158740997314, 0.2339230179786682, 0.20658335089683533, -0.2405470311641693, -0.007784146349877119, -0.07748295366764069, -0.08561613410711288, 0.20459453761577606, 0.1507505625486374, -0.27235865592956543, -0.13829565048217773, -0.04490579292178154, -0.07935981452465057, 0.31323763728141785, 0.09702536463737488, -0.385184109210968, -0.10619714856147766, 0.03033716417849064, -0.017747508361935616, 0.08497349172830582, -0.05612628534436226, 0.12908382713794708, 0.19342979788780212, -0.08917156606912613, 0.1477186530828476, -0.03555222228169441, 0.2599816918373108, 0.007212238386273384, 0.02063920348882675, -0.28497326374053955, 0.08583486825227737, -0.20060506463050842, -0.04474255070090294, -0.0701410323381424, -0.044561851769685745, 0.04145696386694908, -0.18675321340560913, 0.22370605170726776, -0.2577894926071167, 0.12125425040721893, 0.21272426843643188, -0.06347241252660751, 0.26593300700187683, -0.21914684772491455, -0.12413423508405685, -0.011191974394023418, 0.15891140699386597, -0.06088346242904663, -0.29601365327835083, 0.26924261450767517, -0.007253632880747318, -0.17329810559749603, -0.07229796797037125, -0.10403967648744583, -0.09395023435354233, 0.14223729074001312, -0.07183977961540222, 0.045840442180633545, -0.0369151271879673, 0.13078062236309052, -0.1743442565202713, -0.16126149892807007, 0.0065598138608038425, -0.061933498829603195, 0.05978304147720337, -0.06266532093286514, 0.22157466411590576, 0.2574196457862854, 0.10496631264686584, -0.020845379680395126, 0.02221277356147766, 0.04645061120390892, -0.12303527444601059, -0.11084231734275818, 0.0260153878480196, 0.2784458100795746, 0.27049872279167175, -0.14621758460998535, 0.12319426238536835, -0.1513252556324005, -0.03464778512716293, 0.22383517026901245, -0.2126268744468689, -0.3747003674507141, 0.24331235885620117, -0.10935322195291519, 0.27796414494514465, -0.022287854924798012, -0.12567801773548126, -0.12482286244630814, 0.1893135905265808, 0.027149774134159088, 0.2882440686225891, -0.09165389835834503, 0.17040860652923584, -0.08139573782682419, -0.04270914942026138, 0.0344955250620842, 0.23742865025997162, 0.3705955445766449, -0.15389634668827057, 0.0024429180193692446, -0.08794768154621124, -0.09647414088249207, 0.09468622505664825, 0.32079365849494934, 0.16057273745536804, 0.23476341366767883, 0.15418735146522522, -0.40118375420570374, 0.27998679876327515, -0.0007801108295097947, 0.21686026453971863, -0.004031185060739517, 0.0075869206339120865, -0.5085266828536987, 0.07764080911874771, 0.14500291645526886, -0.023985249921679497, 0.06965851783752441, 0.03659069538116455, 0.013739916495978832, 0.37028950452804565, -0.18754206597805023, -0.10770439356565475, -0.2573988139629364, -0.41667768359184265, -0.06719191372394562, -0.11735178530216217, -0.16305787861347198, -0.21177226305007935, -0.3223687410354614, -0.03703483194112778, 0.40039801597595215, -0.2845851182937622, -0.09823571145534515, 0.011946354061365128, -0.036372631788253784, 0.06476446986198425, 0.08794251829385757, -0.03205623850226402, 0.030882252380251884, 0.11836975067853928, 0.00360204023309052, -0.00893446896225214, -0.17325694859027863, 0.12863507866859436, 0.08268798142671585, -0.015832914039492607, -0.09683362394571304, -0.07180136442184448, -0.21017885208129883, 0.15229827165603638, -0.04289216548204422, -0.3517606258392334, -0.1939796358346939, 0.11518369615077972, 0.0580095611512661, -0.019683251157402992, 0.12522774934768677, -0.03624184802174568, -0.005239789839833975, -0.015174660831689835, 0.14900249242782593, -0.21113239228725433, 0.23848624527454376, 0.17564018070697784, -0.0905454158782959, 0.07648687064647675, 0.07094964385032654, 0.01674416847527027, -0.151609405875206, 0.014889529906213284, 0.2799677550792694, 0.2200787216424942, 0.30980610847473145, -0.041425056755542755, -0.0652957335114479, -0.07192064821720123, 0.013840158469974995, 0.19622226059436798, 0.041957683861255646, 0.060816917568445206, 0.09653426706790924, 0.0700637623667717, -0.2628263533115387, 0.059113919734954834, -0.11438341438770294, 0.18124359846115112, 0.10170307755470276, 0.30382221937179565, 0.3077424466609955, -0.14763736724853516, 0.13104359805583954, 0.07142280787229538, 0.17099857330322266, 0.09297122061252594, 0.2518744468688965, -0.0503692664206028, 0.13247671723365784, 0.339728981256485, 0.09287149459123611, 0.09767778217792511, 0.03723806515336037, 0.17074845731258392, -0.031718239188194275, 0.05286461114883423, -0.12493804097175598, -0.16779863834381104, -0.06273166090250015, 0.1505914181470871, 0.3642522394657135, 0.03763251379132271, 0.047665756195783615, -0.1192374974489212, 0.0593106746673584, 0.1797279417514801, -0.07512858510017395, 0.027356242761015892, -0.02883097715675831, 0.4009176790714264, -0.005075380671769381, -0.2599066197872162, 0.017006443813443184, -0.030512601137161255, -0.12297885864973068, 0.34571555256843567, -0.012257189489901066, -0.09533267468214035, 0.11076919734477997, -0.07777804136276245, 0.20627331733703613, -0.05166497081518173, 0.08048028498888016, -0.0737280547618866, 0.007415830623358488, 0.04092888906598091, 0.07251553982496262, -0.28024736046791077, 0.19514213502407074, -0.020013967528939247, 0.1767348200082779, 0.03893439099192619, -0.09766347706317902, -0.1082007959485054, 0.0004170603060629219, 0.21323899924755096, -0.05421919375658035, -0.02029767632484436, -0.30480724573135376, 0.3034544885158539, -0.06766243278980255, -0.08049816638231277, -0.4303987920284271, 0.05671732872724533, -0.1410505622625351, -0.5091789364814758, -0.004598130937665701, -0.14151860773563385, 0.42781174182891846, 0.09842517226934433, -0.2167104035615921, -0.4568045139312744, -0.11380458623170853, -0.06619536131620407, 0.13007321953773499, 0.17058999836444855, 0.0821065828204155, -0.13693559169769287, -0.010243025608360767, -0.12197902798652649, 0.10155272483825684, -0.14401966333389282, 0.21193189918994904, -0.45844656229019165, 0.011905909515917301, -0.04547911882400513, 0.3871239721775055, -0.014132614247500896, -0.03379644453525543, -0.30604177713394165, -0.004777297843247652, 0.03641245886683464, 0.008088648319244385, -0.007384902331978083, -0.059786371886730194, 0.6229819655418396, 0.021522583439946175, 0.028675096109509468, 0.16663368046283722, 0.03591999411582947, 0.07212943583726883, 0.008144664578139782, -0.011846671812236309, -0.053955644369125366, -0.16297921538352966, 0.06325425952672958, -0.21584686636924744, 0.015306083485484123, 0.10355016589164734, -0.06700434535741806, -0.030290622264146805, -0.12269820272922516, -0.07889953255653381, 0.167874276638031, 0.031032562255859375, -0.020507341250777245, -0.3166095018386841, 0.1197349801659584, 0.13266907632350922, -0.08792156726121902, -0.06796467304229736, -0.08232918381690979, 0.004040763713419437, 0.10670705884695053, 0.12931010127067566, -0.2112942785024643, 0.09732233732938766, 0.13434888422489166, 0.1596396416425705, -0.09594150632619858, -0.04453149437904358, -0.22021150588989258, 0.03110007382929325, -0.18259921669960022, -0.1015816479921341, -0.012651468627154827, -0.1790609359741211, 0.060504548251628876, 0.05830039456486702, -0.30096951127052307, -0.2088279128074646, -0.09664835780858994, 0.06456412374973297, 0.28655216097831726, 0.026368586346507072, 0.0021158400923013687, -0.2594146132469177, -0.2675279974937439, 0.2577793300151825, -0.11973179131746292, -0.050508685410022736, 0.011769450269639492, 0.043903425335884094, -0.07826317846775055, -0.16067489981651306, 0.04923081770539284, 0.15552173554897308, -0.03829057514667511, 0.06976595520973206, 0.11834771186113358, -0.03973250836133957, -0.03569241240620613, 0.07809776812791824, -0.09324648231267929, 0.12039827555418015, 0.10479167103767395, 0.27945461869239807, 0.2760213613510132, 0.24993643164634705, 0.04264380782842636, -0.030732713639736176, -0.11942160874605179, 0.04603154584765434, -0.11595859378576279, -0.008512473665177822, -0.03527088835835457, -0.06308417022228241, -0.05839208513498306, 0.0248865969479084, 0.08583497256040573, 0.1815788894891739, 0.14104877412319183, 0.06157452240586281, 0.07123410701751709, -0.057278674095869064, -0.10844188183546066, -0.2763492166996002, 0.10635963827371597, 0.16383002698421478, -0.1248079165816307, -0.046759527176618576, -0.05593595281243324, -0.033831529319286346, -0.0838659331202507, -0.0137833496555686, 0.011285603977739811, 0.15821237862110138, 0.11717022955417633, 0.09652499854564667, -0.3577871024608612, -0.31546804308891296, 0.24746206402778625, -0.29077258706092834, -0.08112554997205734, -0.07663074880838394, -0.17514586448669434, -0.5843024849891663, -0.022353634238243103, -0.07828190922737122, -0.4109475612640381, 0.09369908273220062, -0.17483897507190704, 0.28025466203689575, -0.04633096233010292, -0.1603502482175827, -0.04393118992447853, -0.08546824753284454, -0.1866394281387329, -0.10677382349967957, -0.22752627730369568, 0.15700934827327728, -0.22637708485126495, -0.09359017759561539, -0.13776923716068268, 0.06738430261611938, -0.016123881563544273, 0.11105728894472122, -0.45769065618515015, 0.0036008318420499563, -0.0698229968547821, 0.4563138782978058, 0.07250909507274628, -0.15134036540985107, -0.18599402904510498, -0.0847354307770729, 0.0017494333442300558, 0.29153260588645935, 0.07028063386678696, 0.046022847294807434, -0.05334138870239258, -0.011906796135008335, -0.043138910084962845, -0.059788137674331665, -0.010666154325008392, 0.13047057390213013, 0.014238233678042889, 0.14585325121879578, -0.10375580191612244, 0.3666916787624359, -0.02595873735845089, 0.28508710861206055, -0.08431922644376755, -0.38390254974365234, 0.15594075620174408, -0.018866604194045067, -0.2125144898891449, -0.027599111199378967, -0.09342342615127563, -0.048449717462062836, -0.06761995702981949, 0.01961325667798519, 0.11616524308919907, 0.048260245472192764, -0.059772003442049026, -0.06565672904253006, 0.16011302173137665, 0.32618242502212524, 0.1400092989206314, 0.044212426990270615, 0.13101443648338318, -0.07897775620222092, 0.09952604025602341, -0.16378064453601837, -0.18793317675590515, -0.11507131159305573, 0.09040394425392151, 