{"version": "0.5.3", "metadata": {"date": {"year": 2024, "month": 10, "day": 1, "hour": 18, "minute": 29, "second": 9}, "loudness": -14.424195289611816, "gain": 0.79150664619972, "training": {"settings": {"fit_cab": false, "ignore_checks": false}, "data": {"latency": {"manual": null, "calibration": {"algorithm_version": 1, "delays": [141, 141], "safety_factor": 4, "recommended": 137, "warnings": {"matches_lookahead": false, "disagreement_too_high": false}}}, "checks": {"version": 3, "passed": true}}, "validation_esr": 0.005403686987910432}}, "architecture": "WaveNet", "config": {"layers": [{"input_size": 1, "condition_size": 1, "head_size": 8, "channels": 16, "kernel_size": 3, "dilations": [1, 2, 4, 8, 16, 32, 64, 128, 256, 512], "activation": "Tanh", "gated": false, "head_bias": false}, {"input_size": 16, "condition_size": 1, "head_size": 1, "channels": 8, "kernel_size": 3, "dilations": [1, 2, 4, 8, 16, 32, 64, 128, 256, 512], "activation": "Tanh", "gated": false, "head_bias": true}], "head": null, "head_scale": 0.02}, "weights": [-0.2874568998813629, 0.8664529919624329, -0.712517499923706, -0.8825313448905945, -0.5223870277404785, 0.3218311071395874, 0.06873244792222977, 0.7448321580886841, -0.17360453307628632, 0.23230136930942535, -0.2724533975124359, -0.3499424159526825, -1.0926361083984375, -0.7627450227737427, -0.5189052224159241, 0.2166682481765747, -0.03886519372463226, 0.07613278180360794, -0.2766594886779785, -0.047840606421232224, -0.06270462274551392, 0.1731324940919876, -0.042238034307956696, 0.22773174941539764, -0.05890531837940216, -0.0012292158789932728, 0.2470599263906479, -0.17264258861541748, -0.10429925471544266, 0.08530835807323456, -0.09981486946344376, 0.13638611137866974, -0.21373289823532104, -0.029817141592502594, -0.19371874630451202, -0.09176518768072128, -0.01876981556415558, 0.1356217861175537, -0.061409156769514084, 0.09837547689676285, -0.0026490630116313696, 0.06047149375081062, 0.013498619198799133, -0.13273732364177704, -0.24076588451862335, -0.06753511726856232, 0.08750040829181671, 0.22310718894004822, -0.07609886676073074, -0.025623641908168793, 0.19922031462192535, 0.0879899337887764, 0.04321122542023659, 0.1381756216287613, 0.058119580149650574, -0.09521640837192535, 0.15068064630031586, -0.14651049673557281, -0.10130015015602112, 0.06152927875518799, 0.04980725049972534, 0.05591714009642601, -0.2289070188999176, 0.05482616648077965, 0.22250017523765564, -0.21999430656433105, -0.1419418901205063, -0.15633608400821686, 0.19015973806381226, 0.20274768769741058, 0.06420386582612991, -0.13656237721443176, -0.01262021716684103, 0.2932755649089813, 0.042192839086055756, 0.05255140736699104, 0.21301443874835968, -0.22322271764278412, -0.05368689447641373, -0.26276442408561707, -0.04608270898461342, 0.202964186668396, 0.14425383508205414, -0.17547237873077393, -0.0445982851088047, -0.19671016931533813, 0.056646402925252914, 0.0069447788409888744, 0.21261006593704224, -0.1793203502893448, -0.04225064814090729, -0.08929090201854706, 0.17332878708839417, 0.1312795877456665, 0.028411533683538437, -0.18212075531482697, 0.005892951972782612, 0.20956161618232727, -0.20929837226867676, -0.15667563676834106, 0.31394392251968384, 0.010486534796655178, -0.13274924457073212, 0.1454066038131714, -0.22243835031986237, -0.06801912188529968, 0.07225924730300903, -0.20817974209785461, -0.06730019301176071, -0.16781392693519592, 0.055677905678749084, 0.1498250663280487, -0.1273825764656067, -0.20211105048656464, 0.40419697761535645, 0.0005604734760709107, 0.27170437574386597, -0.15449470281600952, -0.09964360296726227, -0.26618853211402893, 0.20908577740192413, -0.11137011647224426, -0.37493860721588135, 0.22841721773147583, -0.2520124316215515, -0.3863590955734253, 0.13381783664226532, 0.03732673078775406, 0.24574105441570282, -0.2983390986919403, -0.020795220509171486, -0.12798596918582916, 0.146335169672966, 0.11073634028434753, 0.4017851650714874, -0.172934889793396, -0.08681982010602951, -0.3026629090309143, 0.2557397782802582, 0.19073832035064697, 0.41373130679130554, -0.0770476683974266, 0.031209368258714676, -0.29451292753219604, 0.03833760321140289, -0.1805131733417511, -0.2076069563627243, 0.1804443895816803, -0.19273073971271515, -0.41410282254219055, 0.02119489200413227, -0.24214711785316467, -0.3312031626701355, 0.23809458315372467, -0.0368305929005146, -0.43219342827796936, 0.24582034349441528, -0.01741177774965763, 0.25788429379463196, -0.2991597056388855, 0.13097164034843445, 0.2598811089992523, -0.3379533588886261, -0.3002653121948242, -0.2995724081993103, 0.1196274533867836, 0.10627225786447525, 0.32974451780319214, -0.2408658266067505, 0.16512319445610046, 0.40776029229164124, -0.17524826526641846, 0.297129362821579, 0.3227774202823639, -0.25672855973243713, -0.07360879331827164, -0.28673064708709717, 0.0684288963675499, 0.18592549860477448, -0.026800058782100677, -0.17434848845005035, -0.199350968003273, -0.17167428135871887, 0.1569942682981491, 0.22457152605056763, 0.31636282801628113, -0.20608027279376984, -0.1796649694442749, -0.375647634267807, 0.20494793355464935, 0.2669540345668793, 0.3548910319805145, -0.22984085977077484, 0.17893482744693756, 0.1729421764612198, -0.21337385475635529, 0.08979816734790802, 0.3275146484375, -0.19959749281406403, 0.1684262901544571, 0.28117746114730835, -0.024488650262355804, 0.051871009171009064, 0.16557815670967102, -0.1990702897310257, -0.05276252701878548, -0.30073082447052, 0.30711114406585693, 0.12284597754478455, 0.005820002406835556, 0.1479090452194214, -0.07966379821300507, -0.012391068041324615, -0.18157531321048737, 0.05154719203710556, 0.04954741522669792, 0.03544292598962784, -0.01760280877351761, 0.149427592754364, 0.03607382997870445, 0.042942095547914505, 0.1712620109319687, 0.20086975395679474, -0.05998311564326286, -0.16008245944976807, -0.08920594304800034, 0.06265956163406372, 0.013141590170562267, 0.11454503238201141, -0.07554353028535843, -0.02957320399582386, -0.03231539949774742, 0.08326493948698044, 0.1628834754228592, 0.2575530409812927, -0.14096911251544952, 0.03890658915042877, -0.24663357436656952, -0.011721300892531872, 0.07315022498369217, 0.19539400935173035, 0.17558325827121735, -0.011073039844632149, 0.16071537137031555, 0.1283750683069229, -0.10855773836374283, 0.2537861466407776, -0.0647440031170845, 0.03456113860011101, 0.1265263557434082, -0.03270901367068291, 0.04929311200976372, 0.26092129945755005, -0.10584200918674469, -0.12327278405427933, -0.2180006504058838, 0.21778038144111633, -0.10848512500524521, -0.11903052031993866, -0.3282850682735443, 0.11286161094903946, 0.17353902757167816, 0.2924574613571167, -0.08615489304065704, -0.03608725219964981, 0.17176173627376556, -0.23776447772979736, -0.04643237590789795, 0.352805495262146, -0.15373682975769043, -0.15305598080158234, -0.30135732889175415, 0.051760394126176834, 0.10406756401062012, -0.011914364993572235, -0.22641819715499878, 0.1507522165775299, -0.31053128838539124, 0.17988403141498566, 0.12608006596565247, 0.2561720907688141, -0.2781197428703308, -0.1720859408378601, -0.11079967021942139, 0.20728802680969238, 0.19734419882297516, 0.1819039285182953, -0.14503227174282074, -0.10563024878501892, 0.22984004020690918, -0.27581384778022766, -0.03087569586932659, 0.26703569293022156, -0.2001953125, -0.12169235944747925, 0.13279633224010468, -0.0979587510228157, -0.19444982707500458, 0.29543337225914, -0.2445663958787918, -0.1537168174982071, -0.24366864562034607, 0.09820755571126938, 0.08118566125631332, 0.3219039738178253, -0.4151810109615326, 0.02756344899535179, -0.09631919115781784, 0.41779667139053345, 0.0224823709577322, 0.027503103017807007, -0.37718263268470764, 0.010300157591700554, 0.09740184247493744, -0.2995719611644745, 0.05594342574477196, 0.08593110740184784, -0.3535955250263214, 0.024074984714388847, -0.15183879435062408, 0.3573010265827179, 0.0415399931371212, 0.008803797885775566, -0.11368518322706223, 0.07433586567640305, -0.016787607222795486, 0.4379497468471527, 0.05542709678411484, 0.24610289931297302, -0.4035041630268097, -0.1288803517818451, -0.282168984413147, 0.4768434166908264, 0.11923637241125107, 0.055541764944791794, -0.29260170459747314, 0.082535021007061, 0.3106558918952942, -0.2202950119972229, 0.08115341514348984, 0.11697481572628021, -0.40742039680480957, 0.07833878695964813, 0.23037655651569366, -0.44443368911743164, 0.09161168336868286, 0.22607135772705078, -0.28461748361587524, -0.1257069855928421, -0.14865392446517944, 0.2838680148124695, 0.10950718820095062, 0.059332769364118576, -0.23409946262836456, 0.19707703590393066, 0.06588343530893326, 0.25604310631752014, 0.012600726447999477, -0.11160515993833542, -0.2661367356777191, -0.04403344541788101, -0.15530450642108917, -0.42199060320854187, 0.16726791858673096, 0.07878127694129944, -0.16385404765605927, 0.17889456450939178, -0.12383146584033966, 0.20124493539333344, -0.09052595496177673, -0.09484437108039856, -0.10638444870710373, -0.10952592641115189, -0.05778767168521881, 0.16117806732654572, -0.1354072540998459, 0.12600816786289215, -0.1778074949979782, 0.19471096992492676, 0.11329922080039978, 0.41105544567108154, -0.10357324033975601, 0.06323886662721634, -0.15610313415527344, 0.11593141406774521, 0.14154788851737976, -0.231772318482399, 0.15440508723258972, -0.061469294130802155, -0.23425161838531494, 0.0702860951423645, -0.04352124035358429, -0.3821719288825989, -0.02412494830787182, -0.11279454082250595, -0.19433189928531647, 0.1679188758134842, -0.03680301085114479, 0.20079560577869415, -0.00045044641592539847, -0.05313742160797119, -0.23344559967517853, 0.06718786060810089, 0.31667470932006836, 0.31710320711135864, -0.20017892122268677, -0.032360564917325974, -0.14277254045009613, 0.03776923194527626, -0.08901412039995193, -0.3372771143913269, 0.07050984352827072, -0.05194402486085892, -0.24653580784797668, -0.007011027075350285, 0.1120172068476677, 0.20803683996200562, -0.13074080646038055, -0.07879775762557983, 0.039951033890247345, 0.013698730617761612, 0.0776422917842865, 0.2596321403980255, -0.024463267996907234, -0.07147353142499924, -0.3685738146305084, 0.09746653586626053, 0.040768418461084366, 0.1804957240819931, -0.046403370797634125, -0.2600637972354889, -0.18949858844280243, 0.2196081131696701, -0.1611170470714569, -0.34726375341415405, 0.0472189299762249, -0.14181676506996155, -0.3656318783760071, 0.16280750930309296, -0.30516335368156433, -0.39459916949272156, -0.049348507076501846, -0.19540002942085266, -0.15288174152374268, -0.040147677063941956, 0.28625333309173584, 0.18563109636306763, -0.07302949577569962, -0.20011495053768158, -0.43015792965888977, 0.06118791550397873, 0.3853834271430969, 0.4829291105270386, 0.20132380723953247, -0.3860956132411957, -0.20642799139022827, -0.11713110655546188, -0.2228046953678131, -0.4449547529220581, -0.1658226102590561, -0.44297489523887634, -0.3962038457393646, -0.09901818633079529, 0.1754951924085617, 0.379749596118927, 0.20027847588062286, -0.10741014033555984, -0.35786283016204834, -0.17478413879871368, 0.2424098700284958, 0.3902876675128937, 0.26728111505508423, -0.19202587008476257, -0.35081782937049866, -0.07138137519359589, 0.1333594024181366, 0.1987067461013794, 0.1965257227420807, -0.36281338334083557, -0.2575017213821411, -0.23127438127994537, -0.36810776591300964, -0.45532041788101196, -0.044682323932647705, -0.30945274233818054, -0.2195032685995102, -0.03723539784550667, -0.21640165150165558, -0.32790398597717285, -0.17155562341213226, -0.3254561126232147, -0.31636929512023926, -0.06759672611951828, 0.19587671756744385, 0.46580496430397034, 0.11133883893489838, -0.5863166451454163, -0.027884598821401596, 0.22174538671970367, 0.6017770171165466, -0.13319483399391174, 0.07974159717559814, -0.3777002990245819, 0.07245562225580215, 0.14199769496917725, -0.5276162624359131, 0.031224843114614487, 0.0831773430109024, -0.4998503029346466, 0.050359275192022324, -0.011443994008004665, 0.5287138223648071, -0.03739721328020096, -0.09188982099294662, -0.21869371831417084, 0.13255631923675537, 0.09974393248558044, 0.4553113579750061, 0.09685446321964264, -0.04007422551512718, -0.3784375488758087, -0.03078886680305004, 0.11592062562704086, 0.30412349104881287, -0.0797448381781578, -0.1071358472108841, -0.29568737745285034, -0.0363791324198246, 0.0318819098174572, -0.5271226763725281, 0.14540204405784607, 0.17906399071216583, -0.5622459053993225, -0.12801821529865265, -0.08767522126436234, -0.45264413952827454, -0.04422744736075401, -0.06926430761814117, -0.4975399672985077, 0.029302803799510002, -0.05624106153845787, 0.47934871912002563, -0.07171240448951721, -0.14799553155899048, -0.17436031997203827, 0.44535139203071594, -0.026740694418549538, 0.1368602216243744, -0.36737579107284546, 0.04760283604264259, -0.24913173913955688, 0.16690899431705475, 0.23823480308055878, -0.20491954684257507, 0.3357000946998596, 0.08561769127845764, -0.16135410964488983, 0.27774927020072937, 0.18082468211650848, 0.12864042818546295, -0.44117265939712524, -0.17023435235023499, -0.17013274133205414, 0.18104404211044312, -0.06413714587688446, 0.24707616865634918, -0.33619382977485657, -0.11918074637651443, -0.008446291089057922, 0.3761211037635803, 0.19893428683280945, 0.19604617357254028, -0.3301633894443512, -0.18372808396816254, -0.12848339974880219, 0.4161384701728821, 0.03532688692212105, -0.2615165412425995, 0.3694843053817749, 0.23120978474617004, -0.15783387422561646, 0.18826141953468323, -0.03460535407066345, -0.08426077663898468, 0.2934693396091461, 0.018256228417158127, -0.0914473906159401, 0.35807138681411743, 0.2061653435230255, 0.26665663719177246, -0.31553542613983154, -0.1799660623073578, 0.15772458910942078, -0.03619275987148285, 0.11111067235469818, -0.14246515929698944, 0.05060189962387085, 0.12408202886581421, 0.322721391916275, -0.03943537175655365, -0.11425076425075531, 0.13363562524318695, -0.2700878381729126, 0.14468024671077728, 0.1397913545370102, -0.24010635912418365, 0.08578646928071976, -0.25956201553344727, 0.09713476896286011, -0.03064090572297573, -0.004927561618387699, -0.2866418659687042, 0.14577150344848633, -0.2478991150856018, 0.21973885595798492, 0.11672191321849823, 0.2614247798919678, -0.15062275528907776, 0.14685720205307007, -0.16298161447048187, 0.08900783956050873, 0.12011756747961044, 0.2212328165769577, -0.3064211308956146, -0.025870177894830704, 0.10455331951379776, -0.0459037646651268, -0.0075042094103991985, 0.05992656201124191, -0.17964738607406616, 0.09954048693180084, 0.23221012949943542, -0.12158244103193283, 0.026713231578469276, 0.24953842163085938, -0.2048366665840149, -0.04223921149969101, -0.36142978072166443, 0.04594603180885315, 0.013021055608987808, -0.01566278003156185, 0.21327905356884003, -0.07615495473146439, -0.06647256016731262, -0.2848985195159912, 0.233486607670784, -0.010685324668884277, 0.30089354515075684, -0.2050701081752777, 0.04026230797171593, 0.26393982768058777, -0.14947520196437836, 0.1924559772014618, 0.08616366237401962, -0.2188601940870285, -0.13436518609523773, -0.1566440612077713, 0.2322235107421875, -0.030009185895323753, 0.1755841225385666, -0.044529035687446594, -0.10579290986061096, -0.07803845405578613, -0.02427666075527668, 0.07522124797105789, 0.31034210324287415, -0.12827126681804657, 0.04675605893135071, -0.21761088073253632, 0.2080402821302414, -0.07092723995447159, 0.15861457586288452, -0.11741091310977936, 0.11675950139760971, 0.2374870628118515, 0.00733773922547698, 0.053923800587654114, 0.18076454102993011, 0.008610643446445465, 0.036874935030937195, 0.31356340646743774, -0.18627789616584778, 0.05537698417901993, 0.17861922085285187, -0.03194950893521309, 0.03592107817530632, -0.2026745080947876, -0.006109187379479408, -0.1127885952591896, 0.04732947051525116, 0.14857545495033264, 0.024629343301057816, 0.053938936442136765, 0.016621364280581474, -0.09303353726863861, -0.11253473907709122, 0.2132205367088318, -0.21355006098747253, 0.05619177222251892, 0.13733123242855072, -0.17304283380508423, 0.09028717130422592, -0.0047612059861421585, 0.12884290516376495, -0.1208152025938034, -0.13841533660888672, 0.07150252163410187, 0.19075961410999298, 0.05310940742492676, 0.19540773332118988, -0.03817494958639145, -0.18385270237922668, -0.2125854343175888, -0.10509728640317917, 0.27690619230270386, 0.05215906351804733, -0.004345575347542763, -0.07236465066671371, 0.007184906397014856, 0.14380890130996704, 0.2282329946756363, -0.21300795674324036, 0.018856050446629524, 0.04301079735159874, -0.18970000743865967, 0.059306174516677856, 0.25019755959510803, -0.22049574553966522, 0.11506617069244385, 0.0421050563454628, -0.12039346992969513, 0.14008937776088715, 0.07548128813505173, 0.1028684601187706, -0.16392990946769714, -0.024537695571780205, 0.21511876583099365, -0.056943897157907486, -0.3961600959300995, -0.2587733566761017, -0.10361640155315399, 0.40687277913093567, 0.2529261112213135, -0.05891091376543045, -0.31283313035964966, 0.2660454511642456, 0.0814155861735344, -0.46231403946876526, 0.13913820683956146, -0.057855892926454544, -0.5072872042655945, -0.1482815444469452, 0.1165195107460022, 0.49532848596572876, 0.20369450747966766, 0.01821397803723812, -0.2812718152999878, -0.027206584811210632, -0.039876557886600494, 0.2758001387119293, 0.16777147352695465, 0.07362070679664612, -0.5019819140434265, -0.006076466757804155, 0.06780412048101425, 0.25642308592796326, 0.10238751024007797, 0.09471303969621658, -0.4793146550655365, 0.1199638694524765, 0.051560088992118835, -0.515302300453186, 0.22126027941703796, 0.05800050124526024, -0.29853302240371704, 0.0525006465613842, 0.12874683737754822, -0.4679761826992035, 0.28654545545578003, -0.16806389391422272, -0.5081416964530945, -0.08728539943695068, 0.010135526768863201, 0.38437995314598083, -0.23838478326797485, -0.12674957513809204, -0.12253350764513016, -0.09775804728269577, -0.021461211144924164, 0.04906008020043373, -0.11715566366910934, -0.0874333307147026, 0.28811171650886536, 0.2641330063343048, -0.1597653329372406, 0.1699102222919464, -0.11295269429683685, -0.1791342943906784, 0.03719934821128845, -0.22862710058689117, 0.48797842860221863, -0.3580504059791565, 0.651938259601593, -0.5969327688217163, -0.1474103033542633, 0.9924479722976685, 1.0390006303787231, -0.6235824227333069, 0.09140396863222122, 0.24184289574623108, -0.48385506868362427, -0.4452715218067169, 0.2666952610015869, -0.6112107634544373, 0.051994986832141876, 0.8195275068283081, -0.1606133133172989, 0.17932738363742828, 0.10207466781139374, 0.07429523766040802, 0.346187561750412, -0.14113229513168335, 0.2681640088558197, -0.09633658826351166, -0.10859888792037964, 0.24428769946098328, 0.04366361349821091, -0.08923763036727905, 0.027769362553954124, 0.18859131634235382, 0.31836387515068054, -0.2380255162715912, -0.07217726111412048, -0.07984820008277893, -0.28831759095191956, 0.2802499830722809, 0.013261856511235237, -0.00317020365037024, -0.09440358728170395, 0.20245583355426788, -0.17159245908260345, -0.001074457191862166, -0.28296637535095215, -0.017797600477933884, 0.12361840158700943, -0.1270337849855423, -0.11915463209152222, 0.3440926671028137, 0.10062546283006668, 0.13659575581550598, 0.015094422735273838, 0.2636553943157196, -0.274505078792572, -0.11167015135288239, 0.0817609429359436, -0.11680867522954941, -0.04002038761973381, 0.005005341488867998, -0.049316782504320145, -0.19034355878829956, 0.18475085496902466, 0.21901696920394897, -0.24637621641159058, 0.13781307637691498, 0.19088198244571686, -0.03724082186818123, -0.069657102227211, -0.03700168430805206, -0.23498766124248505, 0.05797262117266655, 0.14530876278877258, 0.11234546452760696, -0.26454246044158936, 0.06713976711034775, -0.16470341384410858, -0.09469490498304367, 0.10399078577756882, 0.2466748207807541, -0.27271905541419983, 0.1491800844669342, 0.008336188271641731, -0.22357405722141266, -0.2390596568584442, 0.18676084280014038, 0.16206909716129303, 0.22763849794864655, 0.17355091869831085, -0.32929784059524536, 0.05045077204704285, 0.4369434714317322, -0.23147796094417572, 0.2382739931344986, 0.0046373400837183, 0.20126868784427643, -0.1402515470981598, -0.005236195866018534, -0.28685539960861206, 0.03770327568054199, 0.17122851312160492, 0.06250397861003876, 0.36487236618995667, 0.3235650062561035, 0.3268013298511505, 0.00027739405049942434, 0.15089762210845947, -0.2140657752752304, -0.08610060065984726, -0.2444789558649063, 0.027738360688090324, -0.18982625007629395, -0.04232916608452797, 0.33150526881217957, 0.19719205796718597, 0.37832769751548767, 0.06384515762329102, 0.23834975063800812, -0.4959835112094879, -0.17091615498065948, -0.0021469828207045794, 0.09065604954957962, 0.07697179168462753, -0.33470991253852844, -0.6614692211151123, 0.17630888521671295, 0.3215583860874176, -0.13589133322238922, -0.00482998788356781, -0.17890708148479462, 0.27800220251083374, 0.08990349620580673, 0.3822472393512726, -0.23444150388240814, -0.01142684742808342, 0.12173698097467422, 0.23852571845054626, 0.025825612246990204, 0.029959652572870255, -0.3117315173149109, 0.38637930154800415, -0.22926120460033417, 0.03293359652161598, 0.024101244285702705, -0.05043315887451172, 0.14062897861003876, -0.12592671811580658, 0.16474482417106628, -0.20323652029037476, -0.1379111260175705, -0.08299344778060913, -0.09594576060771942, -0.1315455138683319, 0.19608312845230103, -0.3006507158279419, -0.2501240074634552, -0.29512661695480347, 0.054992761462926865, 0.2524067759513855, -0.2205510437488556, -0.10283474624156952, -0.04031889885663986, -0.15710994601249695, -0.13122451305389404, 0.2111189067363739, -0.24042774736881256, 0.0020738893654197454, -0.006891538854688406, 0.18267546594142914, -0.282781183719635, 0.006290570367127657, 0.20531415939331055, 0.18543687462806702, 0.1589825600385666, 0.11924673616886139, 0.3057444393634796, 0.012525159865617752, -0.01060983445495367, 0.08437265455722809, 0.19257991015911102, -0.28510716557502747, 0.2229422628879547, -0.11721425503492355, -0.3399154543876648, -0.07235606759786606, -0.004630351439118385, -0.08256597071886063, -0.02871154062449932, -0.32932499051094055, 0.10347548127174377, -0.10671093314886093, 0.18837255239486694, 0.0592929981648922, 0.0013464291114360094, 0.29884976148605347, 0.0039326101541519165, 0.09004116803407669, 0.07274970412254333, -0.25273722410202026, -0.08240960538387299, -0.08345034718513489, -0.06302671134471893, -0.029354173690080643, -0.11373239755630493, -0.1618262380361557, -0.049520932137966156, -0.026132075116038322, 0.3995823860168457, -0.09739809483289719, -0.20849493145942688, 0.13650360703468323, 0.0008516970556229353, 0.14093177020549774, 0.21115438640117645, -0.04947744309902191, -0.10756072402000427, 0.17247775197029114, -0.2760407328605652, -0.028452198952436447, -0.02452913485467434, -0.04056338593363762, -0.0053887739777565, 0.04808832332491875, 0.1885671466588974, -0.1209799274802208, 0.578004002571106, 0.10455339401960373, -0.33147794008255005, -0.08772817254066467, 0.05790157988667488, -0.26198679208755493, 0.13244763016700745, 0.0961541160941124, 0.13021810352802277, 0.003969617187976837, 0.0175876934081316, -0.09897950291633606, 0.10354126244783401, -0.2529166340827942, -0.04518118128180504, -0.10918501019477844, 0.02728213183581829, -0.3520607650279999, 0.40399545431137085, -0.007990988902747631, -0.05967080593109131, 0.26851746439933777, 0.10263869166374207, 0.30505403876304626, -0.04699750244617462, -0.3113555610179901, 0.08410169929265976, -0.08278226852416992, -0.4058443605899811, 0.24849756062030792, 0.10499555617570877, -0.42729097604751587, 0.3346775770187378, 0.2945343852043152, -0.09610722959041595, 0.42881202697753906, -0.12337344884872437, -0.0798257365822792, 0.15853777527809143, 0.13570573925971985, 0.22485414147377014, -0.17178939282894135, -0.27795183658599854, 0.27462807297706604, -0.2835986912250519, 0.04416666924953461, 0.19448110461235046, 0.153763547539711, 0.19513386487960815, 0.22275356948375702, -0.13415685296058655, 0.1352064609527588, -0.2553107738494873, -0.15513841807842255, 0.078702911734581, -0.1794433742761612, 0.029072683304548264, -0.10366185754537582, 0.12346061319112778, -0.010967036709189415, -0.1841593086719513, 0.18657267093658447, 0.15709620714187622, 0.15481036901474, -0.01248567271977663, 0.07307776808738708, 0.12360575050115585, -0.0367753691971302, -0.04231845587491989, -0.490793913602829, 0.23664185404777527, -0.11668714135885239, -0.09510868042707443, 0.1422453224658966, -0.27318862080574036, -0.2260076403617859, -0.08089318871498108, -0.06951920688152313, 0.01617191918194294, 0.17610301077365875, 0.25825169682502747, 0.02992349863052368, -0.0076273782178759575, -0.13780540227890015, -0.19080260396003723, 0.23020736873149872, 0.07463870942592621, 0.006928689312189817, -0.2707134187221527, -0.14467254281044006, -0.03949592262506485, -0.016217730939388275, -0.09549017250537872, 0.12289787083864212, -0.20685593783855438, -0.16288281977176666, -0.16795457899570465, 0.12850408256053925, -0.39768117666244507, -0.37467971444129944, -0.04791249707341194, -0.04632081836462021, -0.2027229219675064, 0.01566254161298275, -0.009705289267003536, 0.07759666442871094, 0.017436398193240166, 0.02488735131919384, 0.09044425189495087, -0.055766135454177856, 0.11792730540037155, -0.08564198762178421, -0.2764420211315155, -0.20607039332389832, -0.05728452280163765, 0.22644218802452087, 0.044742461293935776, -0.04482373967766762, -0.06854996085166931, 0.05468794330954552, -0.06402160227298737, 0.05486121028661728, -0.03597572445869446, 0.12454834580421448, -0.07435888797044754, 0.347764790058136, -0.10436780005693436, 0.022368155419826508, -0.10922235250473022, -0.27887439727783203, 0.07689321041107178, 0.15557211637496948, -0.04879491403698921, -0.12846699357032776, 0.016993245109915733, -0.1492147147655487, 0.11051064729690552, -0.07155802845954895, 0.027237869799137115, -0.12330082803964615, 0.03887723758816719, 0.031233621761202812, -0.10642006248235703, 0.1594625562429428, 0.08101191371679306, -0.11487825214862823, -0.1206454262137413, 0.08203577995300293, 0.12091739475727081, 0.08386848121881485, -0.10179769992828369, 0.09427925944328308, 0.0329878143966198, 0.006603150628507137, -0.11201036721467972, 0.1702360361814499, -0.3170444369316101, 0.05199335142970085, -0.15480773150920868, 0.0471433661878109, -0.025233741849660873, 0.020497417077422142, -0.3661096394062042, -0.01626880094408989, 0.19620750844478607, 0.5986255407333374, -0.3578043580055237, 0.11319071799516678, 0.18811540305614471, -0.10907818377017975, 0.35534483194351196, 0.24159283936023712, -0.045140672475099564, 0.31736329197883606, 0.005944890435785055, 0.12119506299495697, -0.16427737474441528, 0.16408918797969818, 0.19161252677440643, 0.2608715891838074, -0.07463033497333527, -0.3195396065711975, -0.18635179102420807, -0.058706317096948624, 0.33477452397346497, 0.14038154482841492, -0.030811471864581108, -0.22107535600662231, -0.18594184517860413, 0.0022958547342568636, 0.11713366955518723, 0.008249488659203053, -0.03600398078560829, -0.15312457084655762, 0.32346221804618835, -0.036048583686351776, 0.15040741860866547, 0.26532846689224243, 0.3417503833770752, 0.14534705877304077, 0.002312751254066825, -0.042739689350128174, -0.10547766834497452, 0.007345075253397226, 0.24429871141910553, -0.1829843670129776, -0.17126138508319855, 0.16902150213718414, 0.3397395610809326, -0.017136361449956894, -0.23992159962654114, -0.26249977946281433, -0.15207235515117645, 0.27055275440216064, 0.29281070828437805, 0.13061173260211945, -0.16217069327831268, -0.08580905944108963, 0.2592470943927765, 0.19809609651565552, 0.05700208619236946, -0.42814648151397705, -0.5281258225440979, -0.2494860291481018, -0.1418384313583374, 0.41316965222358704, -0.11820667237043381, 0.2031734138727188, 0.07392614334821701, 0.08186857402324677, -0.1394854485988617, 0.31299448013305664, 0.15154434740543365, 0.24270647764205933, -0.19710704684257507, 0.1314723789691925, 0.07715830951929092, -0.07433749735355377, 0.068144291639328, 0.18421754240989685, -0.1759146749973297, 0.04659504070878029, 0.26375868916511536, -0.11931893229484558, 0.28550654649734497, 0.12333753705024719, 0.11286919564008713, 0.037952862679958344, -0.01565452851355076, -0.37786221504211426, -0.26409292221069336, -0.1892637461423874, 0.6603220701217651, -0.31637099385261536, 0.15126481652259827, 0.4371306598186493, 0.28001290559768677, -0.2825380563735962, -0.06262925267219543, -0.07858295738697052, 0.2562675476074219, 0.009968769736588001, 0.026145806536078453, 0.032032549381256104, -0.024217698723077774, 0.07536140084266663, -0.005437200888991356, -0.007295997813344002, 0.17781472206115723, -0.13401174545288086, -0.23911599814891815, -0.23724490404129028, -0.144440695643425, 0.3327118754386902, -0.11968513578176498, 0.20390331745147705, -0.3195852041244507, 0.048199836164712906, 0.018412262201309204, 0.3498958647251129, 0.14873644709587097, 0.1610686182975769, -0.12311364710330963, 0.023049507290124893, -0.18522337079048157, 0.0018361377296969295, -0.02298072911798954, 0.20576211810112, -0.21583953499794006, 0.01910032331943512, 0.01399597991257906, -0.14295126497745514, 0.18206588923931122, -0.027303097769618034, -0.10847210884094238, 0.18632350862026215, 0.04545975476503372, -0.04333823546767235, 0.12676040828227997, -0.027946043759584427, 0.22740338742733002, -0.04967159032821655, 0.15466974675655365, 0.2701217532157898, 0.02508355677127838, 0.06450381129980087, 0.301384299993515, 0.10592333972454071, -0.15350961685180664, -0.31113049387931824, 0.211900532245636, -0.039675138890743256, -0.1714039146900177, 0.1652403473854065, -0.15033026039600372, -0.08612006902694702, 0.014854666776955128, 0.1333281695842743, 0.11437338590621948, 0.6151392459869385, 0.18358711898326874, 0.04456140473484993, -0.10342112928628922, -0.028684206306934357, -0.31625989079475403, 0.04004187509417534, 0.10639725625514984, -0.10518354922533035, -0.20244082808494568, 0.03561582416296005, 0.005069502163678408, 0.02247501350939274, 0.19800542294979095, 0.04773859307169914, -0.17497025430202484, 0.07012376934289932, -0.1403190642595291, 0.32129743695259094, -0.014323137700557709, -0.23426464200019836, -0.01338523905724287, 0.28594517707824707, -0.12590506672859192, 0.16168268024921417, 0.060127079486846924, -0.1101822778582573, 0.2540794312953949, 0.13338080048561096, 0.6862369775772095, 0.03549966216087341, -0.11635171622037888, -0.06811051815748215, -0.3672448694705963, 0.21575668454170227, 0.3969317674636841, 0.30627164244651794, -0.08683136850595474, -0.23876649141311646, -0.3524426221847534, 0.12978382408618927, -0.14341460168361664, 0.17351999878883362, 0.10951326042413712, -0.11092313379049301, -0.004587940406054258, -0.032161008566617966, 0.2645263075828552, -0.0009195804013870656, -0.13886845111846924, 0.018408235162496567, 0.20508480072021484, 0.12236258387565613, -0.1642310917377472, -0.02416257932782173, -0.22316709160804749, 0.004689337685704231, 0.045190341770648956, 0.12999220192432404, -0.13772611320018768, -0.183696448802948, 0.02812895178794861, 0.13765297830104828, -0.000829477037768811, 0.20140358805656433, -0.13144336640834808, -0.058866411447525024, 0.06272336840629578, 0.10562733560800552, -0.0697225034236908, 0.20416074991226196, 0.1604098528623581, 0.10730768740177155, 0.16632035374641418, 0.08793145418167114, -0.18877044320106506, -0.2501336932182312, 0.19087600708007812, 0.19986842572689056, -0.2851472795009613, -0.05761333554983139, 0.034940607845783234, 0.029223164543509483, 0.10630492120981216, -0.061990078538656235, -0.07644356042146683, -0.1061701700091362, 0.00450711278244853, 0.0426509752869606, 0.1718243658542633, 0.2740464210510254, -0.010255545377731323, -0.0682310089468956, -0.026055436581373215, 0.017754416912794113, -0.09571798145771027, -0.33793631196022034, 0.11000189930200577, -0.02210790477693081, -0.0743035301566124, -0.0277020912617445, -0.22473549842834473, 0.12652070820331573, 0.03265930339694023, 0.023519733920693398, -0.0428895577788353, -0.016285035759210587, -0.23009969294071198, 0.21100766956806183, 0.15037444233894348, 0.18860004842281342, -0.06037380173802376, 0.09901668131351471, -0.13694244623184204, 0.05652044340968132, 0.023858191445469856, -0.11383291333913803, 0.11663893610239029, 0.1650884449481964, 0.10843685269355774, 0.03799295052886009, -0.08849650621414185, 0.05182025581598282, -0.033590368926525116, 0.06945894658565521, 0.23736169934272766, 0.13382670283317566, -0.009548550471663475, 0.059107519686222076, -0.00767356064170599, 0.02318926341831684, 0.11576998233795166, -0.09524064511060715, 0.26592037081718445, -0.1404183954000473, -0.16504579782485962, 0.42826080322265625, 0.025415048003196716, -0.0935959592461586, 0.19383424520492554, 0.009284206666052341, -0.16940100491046906, 0.005151775665581226, -0.06241703778505325, -0.040809597820043564, -0.34997233748435974, 0.26286780834198, 0.15616142749786377, 0.37711575627326965, -0.020859038457274437, -0.21531200408935547, -0.3481650650501251, -0.03719723969697952, 0.2877689599990845, 0.2797456979751587, -0.1857767403125763, -0.1188846081495285, -0.34994614124298096, 0.11127211153507233, 0.05919762700796127, 0.3887764513492584, -0.08464247733354568, -0.27337270975112915, 0.304415225982666, -0.11251646280288696, -0.056108418852090836, 0.3411597013473511, 0.2536189556121826, -0.06487122923135757, 0.09422151744365692, -0.10513931512832642, -0.2214673012495041, -0.14892220497131348, 0.39054909348487854, 0.15504565834999084, -0.16812793910503387, 0.07463270425796509, 0.12157251685857773, 0.0014707061927765608, 0.0020117841195315123, -0.027793435379862785, 0.04024912044405937, 0.16076995432376862, 0.2231927365064621, -0.11773723363876343, -0.038391370326280594, -0.09995612502098083, 0.032837674021720886, 0.21927902102470398, 0.07385800033807755, 0.15942168235778809, -0.00757531588897109, 0.05054245516657829, -0.030739296227693558, -0.20941303670406342, 0.19810380041599274, 0.01676064543426037, 0.10106082260608673, 0.049918897449970245, -0.09627889841794968, -0.06085710600018501, 0.259901762008667, -0.0086135845631361, 0.25310349464416504, -0.09672839939594269, -0.13148526847362518, -0.15088827908039093, 0.055007003247737885, -0.06232922151684761, 0.07533938437700272, 0.025764504447579384, -0.03360868617892265, 0.14648450911045074, -0.037898194044828415, -0.04928160831332207, -0.36298877000808716, -0.12978942692279816, -0.18775475025177002, -0.1642942726612091, -0.16274936497211456, 0.2521362006664276, -0.19126157462596893, 0.22316686809062958, -0.03141455352306366, -0.04376021772623062, 0.04496021941304207, -0.14719776809215546, 0.006194265093654394, -0.20684760808944702, -0.017838947474956512, 0.10211363434791565, -0.00399977108463645, 0.06182747706770897, -0.09877694398164749, 0.13754047453403473, -0.09856405109167099, -0.09621892124414444, 0.029056822881102562, -0.08347278833389282, -0.029120342805981636, -0.15638890862464905, 0.10595633834600449, 0.3253655433654785, -0.03981633111834526, 0.03620490804314613, -0.008355711586773396, 0.19976834952831268, -0.036730751395225525, 0.2882840931415558, 0.04360491409897804, 0.0387578159570694, -0.12249559909105301, 0.21568219363689423, -0.12926919758319855, -0.09801416844129562, -0.07656517624855042, 0.1640520691871643, -0.1520475298166275, -0.05150417983531952, 0.07596533745527267, -0.21461136639118195, -0.083391472697258, 0.11781296879053116, -0.07105502486228943, -0.07601802051067352, 0.03579853102564812, -0.11461810022592545, 0.008664097636938095, 0.1249057725071907, 0.30776429176330566, 0.0024017200339585543, -0.0014861440286040306, 0.031690847128629684, -0.009752348065376282, 0.18535999953746796, 0.13333842158317566, -0.1492844969034195, -0.03395502641797066, -0.17704571783542633, -0.0293292086571455, 0.010699828155338764, 0.13633690774440765, 0.23952263593673706, 0.11282320320606232, -0.005646910518407822, 0.008780327625572681, 0.1050301268696785, 0.20621035993099213, 0.1733957678079605, -0.07537049055099487, 0.2709404528141022, -0.08203744143247604, 0.06599690765142441, -0.23820847272872925, 0.1614225059747696, 0.06918615102767944, 0.2716066837310791, -0.060048434883356094, 0.16806428134441376, -0.27384400367736816, -0.03251061588525772, -0.21812571585178375, 0.20230169594287872, -0.04791301488876343, -0.0010348662035539746, -0.10763567686080933, 0.041879910975694656, 0.02453906275331974, -0.09096204489469528, 0.019319601356983185, 0.0685807541012764, 0.12073159962892532, 0.0781843289732933, 0.13723216950893402, 0.009760458953678608, -0.024593763053417206, 0.2298254817724228, 0.25858986377716064, -0.05983023717999458, -0.13671773672103882, 0.13780929148197174, -0.009876950643956661, -0.22736892104148865, 0.10119803994894028, -0.05307813361287117, 0.21124039590358734, 0.002058224054053426, 0.18358591198921204, 0.08169220387935638, -0.14831601083278656, -0.08150381594896317, -0.02848665975034237, -0.0404030904173851, -0.057570651173591614, 0.1491485834121704, -0.06977622956037521, 0.29206395149230957, -0.13645315170288086, 0.028401218354701996, 0.08051121234893799, 0.04046233743429184, -0.09402815997600555, 0.01573784276843071, -0.1838093400001526, -0.023659976199269295, 0.007188452873378992, 0.06532926112413406, 0.062202148139476776, 0.16210545599460602, -0.09689287096261978, 0.0256548710167408, -0.19766554236412048, 0.2039933055639267, -0.036820780485868454, 0.0938335582613945, 0.07821867614984512, -0.29854902625083923, -0.01259192917495966, -0.0848592072725296, -0.5017494559288025, 0.0662369355559349, -0.0714946836233139, -0.31270214915275574, -0.19076009094715118, -0.08353349566459656, 0.14129596948623657, -0.16328021883964539, -0.0823558047413826, 0.17853181064128876, -0.06700343638658524, 0.11871273815631866, -0.07123482972383499, 0.1276191771030426, -0.024343077093362808, 0.3624914884567261, 0.018116403371095657, 0.05854039639234543, -0.00016287741891574115, 0.03330113738775253, -0.07067069411277771, 0.040898311883211136, 0.020124034956097603, -0.07538874447345734, 0.11625617742538452, 0.025027522817254066, -0.10755482316017151, -0.08036348223686218, 0.028710417449474335, -0.09551901370286942, 0.1811794936656952, -0.0075453417375683784, 0.1590505689382553, -0.041753269731998444, 0.07086122781038284, -0.0840710923075676, -0.010090566240251064, -0.01089603640139103, 0.1452857106924057, -0.20002196729183197, 0.17994514107704163, -0.0709090307354927, 0.19208477437496185, -0.09491927176713943, 0.04758793115615845, 0.11129151284694672, -0.15656878054141998, -0.40785089135169983, -0.15390442311763763, -0.22187210619449615, 0.022726591676473618, 0.15420614182949066, -0.13192342221736908, -0.08368624001741409, -0.23950396478176117, 0.24716836214065552, 0.03261241689324379, -0.16779741644859314, 0.17050614953041077, 0.0017029823502525687, -0.11144667863845825, -0.021215403452515602, -0.1619911640882492, 0.35232847929000854, -0.09261254966259003, -0.10420604050159454, 0.24922870099544525, -0.032677192240953445, -0.08855687081813812, 0.04986276850104332, -0.04234118387103081, -0.22825634479522705, 0.11066671460866928, 0.06945516914129257, 0.16265545785427094, -0.1417251080274582, 0.020652392879128456, -0.040804579854011536, 0.2791242003440857, -0.06230444833636284, 0.04126257821917534, -0.19198863208293915, 0.02257891744375229, 0.0763067975640297, 0.08494216203689575, -0.1789981871843338, -0.0882485881447792, -0.34575411677360535, 0.10428169369697571, -0.0628647580742836, 0.327048122882843, 0.04844095930457115, 0.0569438710808754, 0.1652047336101532, -0.06722680479288101, -0.031903814524412155, 0.34736889600753784, 0.2546272277832031, -0.09712763875722885, 0.04720522463321686, -0.02204836532473564, -0.020964665338397026, -0.030998531728982925, -0.3699037730693817, 0.12247195839881897, -0.17008166015148163, 0.04134635627269745, 0.03967675566673279, 0.14582951366901398, 0.0037575974129140377, 0.017131933942437172, 0.08286108821630478, 0.0007369326194748282, 0.04551868513226509, 0.2018613964319229, 0.015901979058980942, 0.05364486575126648, 0.20920857787132263, -0.12242583185434341, 0.14197784662246704, 0.15538327395915985, 0.14444226026535034, -0.029816199094057083, -0.24081113934516907, -0.016987543553113937, -0.0389588288962841, 0.21310830116271973, -0.3270209729671478, 0.03643326088786125, -0.3347787857055664, -0.08441910147666931, -0.1397208422422409, 0.06160185858607292, -0.14039672911167145, -0.07623513787984848, 0.04651268571615219, 0.24803322553634644, -0.00026673852698877454, 0.22997915744781494, -0.13747884333133698, -0.10048655420541763, 0.1234905868768692, -0.02590428665280342, -0.007974146865308285, 0.08046218007802963, 0.10327387601137161, 0.08057667315006256, 0.16936945915222168, -0.13612674176692963, 0.2862246334552765, 0.05525829643011093, -0.0119067607447505, -0.018648425117135048, 0.009298478253185749, 0.12138799577951431, 0.24785493314266205, -0.0017882417887449265, -0.14561043679714203, -0.1043066531419754, -0.06868477910757065, 0.2687302827835083, 0.23554688692092896, 0.19421625137329102, -0.04794364050030708, -0.22179219126701355, 0.08231520652770996, 0.12653692066669464, 0.055004559457302094, 0.025519033893942833, 0.04511532559990883, -0.09270025044679642, -0.37700939178466797, 0.2129257172346115, 0.2994215786457062, -0.40480461716651917, 0.04618078097701073, -0.7171810865402222, -0.40108025074005127, -0.4167904555797577, 1.153099536895752, -0.726863443851471, -0.5627370476722717, -0.9146587252616882, 0.31965962052345276, -0.7168152928352356, 0.3860841989517212, -0.6088489890098572, -0.10458166897296906, -0.07095994055271149, 0.029328806325793266, 0.3988827168941498, 0.34694576263427734, 0.13169723749160767, -0.15605171024799347, 0.05863472819328308, 0.033562228083610535, -0.15876801311969757, 0.22877967357635498, 0.42955365777015686, 0.16951477527618408, -0.2740860879421234, -0.2434270828962326, -0.11208547651767731, 0.09965787827968597, -0.08559250086545944, 0.07403794676065445, 0.14654359221458435, -0.0812148004770279, -0.019762355834245682, 0.1498410701751709, -0.07414518296718597, 0.2023891657590866, -0.22083421051502228, 0.1924617886543274, 0.32912108302116394, 0.05379171669483185, -0.08498518913984299, 0.04059363901615143, -0.03722203150391579, 0.014615182764828205, -0.04719246178865433, -0.20519617199897766, -0.021380316466093063, -0.08555828779935837, 0.27207279205322266, -0.09062433242797852, -0.02719258889555931, -0.026290778070688248, 0.12157340347766876, -0.28723087906837463, -0.4091232419013977, 0.10512922704219818, 0.10035672038793564, 0.13797211647033691, 0.12773112952709198, 0.3106507360935211, 0.08900362998247147, -0.2783137857913971, -0.08760470151901245, -0.17635653913021088, -0.09311621636152267, -0.1657826453447342, -0.05303734168410301, -0.050759103149175644, 0.07680803537368774, 0.038623034954071045, 0.2669164836406708, 0.18178768455982208, -0.21010485291481018, 0.04040531814098358, -0.005875483155250549, 0.33310773968696594, -0.1807413101196289, -0.2930281162261963, -0.010208056308329105, 0.412133127450943, -0.03311999514698982, -0.48454904556274414, 0.3605796694755554, 0.19975575804710388, -0.16256877779960632, -0.02802850306034088, 0.32741275429725647, -0.2924584448337555, -0.15800058841705322, -0.3558565378189087, -0.21884624660015106, -0.25348713994026184, 0.1054454818367958, -0.1347614973783493, -0.2520747482776642, -0.003890946740284562, -0.22118839621543884, 0.11431916803121567, -0.13199478387832642, 0.3322785198688507, 0.22723466157913208, -0.11753542721271515, -0.21709266304969788, 0.024398405104875565, -0.19661545753479004, -0.0013583668041974306, 0.11334887892007828, 0.08970127254724503, -0.14059039950370789, 0.08213202655315399, -0.39496737718582153, 0.1127692461013794, 0.4408620297908783, -0.025581179186701775, -0.23734484612941742, 0.26855984330177307, 0.04685015231370926, -0.06486430764198303, 0.05184205621480942, 0.2813757061958313, -0.2863822281360626, -0.02992330677807331, 0.24045661091804504, 0.08595439791679382, 0.0657249242067337, -0.073798269033432, -0.1405225545167923, 0.004170160740613937, -0.07233653962612152, -0.276837021112442, 0.06484594196081161, -0.11628244817256927, 0.2524363398551941, -0.3497339189052582, -0.06351915746927261, -0.22312617301940918, 0.16644540429115295, -0.07075592875480652, 0.0693298876285553, -0.031798310577869415, 0.25221869349479675, -0.17808356881141663, -0.3891816735267639, -0.3809061050415039, -0.22608381509780884, 0.05469155311584473, -0.1401248276233673, 0.035501495003700256, 0.27618059515953064, 0.06325900554656982, -0.260326087474823, -0.002483972581103444, 0.10352260619401932, 0.053998325020074844, 0.39594289660453796, -0.08962485194206238, 0.012753988616168499, -0.05096369609236717, 0.26026397943496704, 0.18338342010974884, -0.008383683860301971, 0.135841965675354, 0.049986351281404495, 0.07859252393245697, -0.10963050276041031, 0.11733698844909668, 0.27334535121917725, 0.17580443620681763, -0.03660726174712181, -0.054024193435907364, -0.257118284702301, -0.11608444154262543, -0.13909244537353516, -0.1775786280632019, 0.08046944439411163, 0.09705324470996857, 0.020944558084011078, -0.008009558543562889, 0.1188475638628006, 0.07815983146429062, 0.21487170457839966, -0.177397683262825, 0.20373380184173584, 0.053854286670684814, -0.015149177052080631, -0.1133517324924469, 0.1441507339477539, 0.27757692337036133, 0.06970260292291641, -0.45945602655410767, 0.030041661113500595, -0.04094555601477623, 0.017098186537623405, -0.05914393812417984, 0.28598153591156006, -0.2636711895465851, 0.0023296186700463295, 0.43181532621383667, 0.06358153373003006, -0.16710370779037476, 0.029850948601961136, -0.10336045175790787, -0.2929621934890747, -0.04832276701927185, -0.17052783071994781, -0.4208475649356842, 0.051113709807395935, -0.08042514324188232, -0.005795104894787073, -0.6114649176597595, 0.2751652002334595, -0.271371990442276, -0.021731264889240265, -0.30868276953697205, -0.2472618967294693, -0.2151973694562912, 0.09007009118795395, 0.009515843354165554, -0.07985801249742508, 0.15646998584270477, -0.14087240397930145, -0.18405982851982117, 0.3191863000392914, -0.08692605048418045, -0.005890128668397665, 0.09251070767641068, 0.004017178900539875, 0.24427185952663422, 0.13235636055469513, 0.16444264352321625, -0.15487632155418396, 0.15367358922958374, 0.11155062168836594, 0.12251988798379898, -0.08132613450288773, -0.07589364051818848, 0.14489507675170898, 0.1051635891199112, -0.17941047251224518, -0.2978995442390442, -0.24187351763248444, 0.02824343368411064, -0.03782890364527702, -0.0037118534091860056, 0.16594034433364868, -0.3046256899833679, -0.13653182983398438, -0.09766282141208649, -0.04845645651221275, 0.3414173126220703, 0.25167417526245117, 0.1340913027524948, -0.11874750256538391, -0.1341695934534073, -0.053071439266204834, -0.3582451641559601, 0.15692009031772614, -0.4027164578437805, -0.01510682050138712, 0.16812393069267273, -0.22322767972946167, -0.05917951464653015, -0.13868054747581482, -0.15193387866020203, 0.24646060168743134, 0.0336199626326561, 0.017927953973412514, 0.07328411936759949, 0.057819586247205734, -0.16837452352046967, -0.13884849846363068, -0.08509127050638199, 0.06059163063764572, -0.17443357408046722, 0.15272702276706696, -0.0669579803943634, 0.31630122661590576, -0.09523557871580124, -0.2487877607345581, 0.12573911249637604, -0.19933408498764038, -0.15469884872436523, -0.05491051450371742, 0.05458395183086395, -0.02469499036669731, -0.14822015166282654, 0.05503048002719879, -0.09710691124200821, -0.1202419251203537, 0.03941958025097847, -0.13020502030849457, -0.017161887139081955, 0.15850383043289185, -0.3015759587287903, -0.12399987131357193, 0.19529952108860016, 0.013339615426957607, -0.015136555768549442, 0.086588054895401, 0.2216194123029709, 0.0990397110581398, -0.04711982607841492, -0.05199698731303215, 0.039621055126190186, -0.06502359360456467, 0.0801650807261467, -0.17662662267684937, -0.034224674105644226, 0.08086098730564117, 0.04028487205505371, 0.0783819854259491, 0.21984027326107025, 0.020080726593732834, -0.07750604301691055, 9.926943312166259e-05, -0.03708706423640251, 0.20969538390636444, -0.45890164375305176, -0.41831573843955994, 0.6531744003295898, -0.045332372188568115, 0.32273969054222107, -0.02279943972826004, 0.08167584985494614, 0.0404917411506176, 0.16015060245990753, 0.05713929980993271, 0.017315108329057693, 0.17032524943351746, -0.23755088448524475, -0.03177781030535698, -0.025449732318520546, -0.07090425491333008, -0.002766379388049245, -0.0542491190135479, 0.1927940845489502, -0.37751102447509766, 0.2614170014858246, 0.040974847972393036, 0.18923071026802063, -0.004075982607901096, -0.008158919401466846, 0.005272076930850744, 0.21262122690677643, 0.01258852519094944, 0.044706787914037704, 0.06865004450082779, -0.12285619974136353, 0.0858660340309143, 0.2174823135137558, -0.10812023282051086, 0.0458032488822937, -0.1196446567773819, -0.13759839534759521, 0.07068704813718796, -0.01794995367527008, -0.15989801287651062, -0.17044958472251892, 0.030347857624292374, 0.07230714708566666, -0.025506649166345596, 0.22770756483078003, -0.05830948427319527, -0.05223614349961281, -0.24026629328727722, -0.05438706651329994, -0.0647282600402832, -0.05204935371875763, 0.04929027706384659, 0.0018991372780874372, 0.06538423150777817, -0.2278381884098053, -0.16316592693328857, 0.01224035955965519, 0.015277257189154625, 0.32748180627822876, 0.10975331813097, 0.10313242673873901, 0.060516782104969025, -0.05228482559323311, -0.09706910699605942, -0.11495818942785263, 0.2747168242931366, -0.031630270183086395, -0.39310020208358765, 0.16047994792461395, -0.01693025603890419, 0.10855221003293991, -0.04667283967137337, -0.018433455377817154, 0.30827704071998596, -0.05634109675884247, -0.03201579675078392, 0.2338317185640335, 0.08875240385532379, 0.3155834674835205, -0.16500434279441833, 0.10502037405967712, 0.04346063360571861, -0.12211792171001434, -0.14825138449668884, 0.16914920508861542, 0.1432730108499527, 0.13958346843719482, -0.05509641394019127, -0.004444695543497801, -0.028191441670060158, 0.14967010915279388, -0.1265440434217453, -0.03234157711267471, -0.0027548496145755053, -0.13904021680355072, -0.05625930801033974, -0.14884188771247864, 0.47965261340141296, -0.4131440222263336, -0.1366272270679474, 0.615106463432312, 0.06491398811340332, -0.07513126730918884, -0.1547497808933258, 0.18446774780750275, 0.026864707469940186, -0.07993169873952866, -0.2386137992143631, -0.08742629736661911, 0.27775120735168457, -0.1038806140422821, -0.11562488228082657, 0.338538259267807, -0.11111777275800705, -0.030775440856814384, 0.13240975141525269, 0.11714943498373032, 0.172872394323349, -0.1469697207212448, 0.09055992215871811, 0.07500652223825455, -0.12095721065998077, -0.013079368509352207, -0.07542745023965836, 0.05584759637713432, -0.1355271339416504, -0.1251344531774521, 0.26581528782844543, 0.08667901903390884, -0.031070422381162643, -0.2509337365627289, -0.0029691983945667744, 0.025979286059737206, 0.171455517411232, 0.005760299973189831, 0.06781493872404099, -0.06389081478118896, -0.16559961438179016, -0.21582186222076416, -0.12448058277368546, 0.08568815141916275, 0.044663261622190475, -0.01960933208465576, 0.060712847858667374, 0.08682683855295181, -0.2396671175956726, -0.026896055787801743, 0.1885097324848175, -0.07634738832712173, 0.08876801282167435, -0.08598718792200089, 0.06825127452611923, 0.026824403554201126, -0.005022295285016298, 0.0994177758693695, -0.07938571274280548, 0.05098821967840195, 0.11230114847421646, 0.09005321562290192, -0.022393835708498955, -0.16930121183395386, 0.06588436663150787, 0.1620916724205017, 0.10363456606864929, -0.038997478783130646, -0.04447704926133156, 0.017451254650950432, -0.008907456882297993, -0.07045114785432816, -0.028998732566833496, -0.026721704751253128, 0.06024511903524399, -0.1034388616681099, 0.32702189683914185, 0.22837015986442566, -0.05191986262798309, -0.18870949745178223, -0.10709454864263535, 0.2386777400970459, 0.017822032794356346, -0.06868432462215424, -0.07797970622777939, -0.07201726734638214, -0.21478937566280365, 0.241030752658844, 0.17764246463775635, 0.28107190132141113, -0.05270107463002205, -0.14167816936969757, -0.11156290024518967, 0.15935161709785461, -0.23513375222682953, -0.2173035591840744, -0.028372662141919136, -0.04395405948162079, -0.44714367389678955, 0.013513687066733837, -0.15060341358184814, -0.08948144316673279, 0.18362262845039368, -0.04597349092364311, -0.2602309584617615, 0.2254297286272049, 0.1310136765241623, -0.1413351446390152, -0.22626106441020966, 0.08405759185552597, -0.041412610560655594, -0.02470441162586212, 0.21333637833595276, -0.09975114464759827, -0.020409533753991127, 0.050595007836818695, -0.06456069648265839, -0.01796085573732853, -0.02457714080810547, -0.17058585584163666, 0.11417914181947708, -0.08062298595905304, -0.09328164160251617, 0.12696245312690735, -0.28005483746528625, -0.09120574593544006, -0.14699327945709229, -0.0606120303273201, 0.10604015737771988, -0.021294377744197845, -0.21544498205184937, -0.11677630245685577, 0.06362651288509369, 0.1801774799823761, 0.019060511142015457, -0.14410938322544098, -0.1510738730430603, 0.005092568229883909, -0.017568666487932205, 0.15337839722633362, 0.015963515266776085, 0.019771654158830643, 0.07438270002603531, 0.16518408060073853, 0.062129952013492584, -0.21489691734313965, 0.010673070326447487, 0.29455646872520447, 0.049365587532520294, -0.04141303151845932, 0.010777197778224945, 0.041847143322229385, -0.04325135797262192, -0.1345101147890091, 0.11563201248645782, -0.09355239570140839, 0.0935775563120842, -0.07496161013841629, -0.18555854260921478, -0.036211494356393814, 0.23615017533302307, -0.28867635130882263, -0.13266846537590027, 0.02495720051229, -0.007377848029136658, -0.12723585963249207, 0.0003813283983618021, 0.24022428691387177, 0.11544553935527802, -0.10414475202560425, -0.05574521794915199, 0.07296133786439896, 0.08841723948717117, 0.10577412694692612, -0.09203366935253143, -0.12247643619775772, -0.007250589784234762, -0.12377274036407471, 0.12453426420688629, 0.1195351853966713, -0.09561371058225632, -0.15179824829101562, 0.11250057071447372, 0.1436842530965805, 0.03638828173279762, 0.009644841775298119, -0.019922049716114998, -0.22632579505443573, 0.07286299765110016, -0.18067419528961182, -0.13605907559394836, -0.02722812443971634, 0.03528435155749321, -0.2994074821472168, 0.14766323566436768, 0.154788538813591, 0.1213434711098671, -0.03131255507469177, -0.12336853891611099, -0.17378824949264526, 0.035228848457336426, -0.19723570346832275, 0.09484707564115524, -0.0012442636070773005, 0.010121135041117668, -0.02388749085366726, 0.11538787931203842, -0.04914658144116402, 0.28350773453712463, 0.037343546748161316, -0.11452822387218475, 0.057827241718769073, 0.11413606256246567, -0.08305193483829498, 0.04011977091431618, -0.012266764417290688, 0.017273392528295517, -0.1317642480134964, 0.07533150166273117, 0.02141336165368557, -0.10410614311695099, 0.10988693684339523, -0.09189198911190033, -0.020332537591457367, -0.005601165816187859, -0.07360297441482544, -0.20265235006809235, 0.05317479744553566, 0.03136756271123886, 0.11391878128051758, 0.11275830864906311, -0.12042086571455002, -0.22204279899597168, 0.04007894545793533, -0.14508172869682312, 0.2462736815214157, -0.12990258634090424, -0.053844183683395386, 0.12671159207820892, 0.015583641827106476, -0.04467074200510979, 0.04417219012975693, 0.05456768348813057, 0.3891485929489136, 0.0015601494815200567, -0.14644992351531982, -0.08944198489189148, 0.09309066832065582, 0.02644263580441475, -0.05723191052675247, -0.15764981508255005, -0.1676769256591797, 0.06745494157075882, -0.12247457355260849, -0.06747967004776001, -0.11387155205011368, -0.030043985694646835, 0.03103562444448471, 0.21899884939193726, -0.1040862575173378, -0.044148627668619156, -0.07803770154714584, 0.007956525310873985, 0.08748791366815567, 0.26200586557388306, -0.05750417336821556, 0.08198834955692291, -0.025016825646162033, 0.11015585064888, 0.03719397634267807, 0.020229946821928024, 0.05402589961886406, -0.12881748378276825, 0.06614923477172852, 0.18517574667930603, 0.003151330864056945, 0.020130734890699387, -0.013294371776282787, -0.20673628151416779, 0.059869177639484406, 0.10273239016532898, 0.19992168247699738, 0.10266552120447159, -0.15757949650287628, -0.08033528923988342, -0.12839172780513763, 0.1414971500635147, -0.011019453406333923, 0.037988439202308655, 0.018940692767500877, -0.10040158033370972, -0.17638202011585236, 0.09402316063642502, -0.02649296261370182, 0.24131399393081665, -0.0691855400800705, -0.22810205817222595, -0.11110237240791321, 0.16995030641555786, 0.1647593379020691, -0.010026012547314167, 0.03451129421591759, -0.010568888857960701, -0.3171411156654358, -0.09929423034191132, -0.0550677590072155, 0.07448656857013702, -0.14756210148334503, -0.01730945333838463, 0.262014776468277, -0.11013772338628769, -0.03935884311795235, -0.07501406222581863, 0.1413533091545105, -0.0017877044156193733, -0.08999340236186981, 0.010897405445575714, -0.3328830301761627, -0.1440020650625229, -0.2671877443790436, 0.020518271252512932, 0.02491040900349617, 0.22562675178050995, -0.17634610831737518, -0.2080845981836319, -0.1996280997991562, -0.12138351798057556, 0.25629451870918274, 0.29648256301879883, -0.07782762497663498, -0.11297152936458588, -0.1490122377872467, 0.013449478894472122, 0.10469043254852295, 0.061911314725875854, 0.48318803310394287, -0.011015089228749275, 0.32891395688056946, 0.1881096363067627, 0.15734843909740448, -0.2535424530506134, -0.0886034220457077, 0.19125059247016907, -0.22489400207996368, -0.08649975061416626, 0.04770006239414215, 0.27319765090942383, 0.043478161096572876, -0.28845104575157166, -0.08400611579418182, -0.07565262913703918, 0.05612148717045784, -0.021938463672995567, -0.028298571705818176, -0.02462712489068508, 0.1534986048936844, 0.09022577852010727, 0.07544846832752228, 0.14248143136501312, 0.12476115673780441, 0.06364380568265915, 0.051086217164993286, -0.19709885120391846, 0.0938563346862793, 0.05372897535562515, -0.005323410499840975, -0.1323777437210083, 0.1518862396478653, 0.13550053536891937, -0.20745138823986053, -0.008562150411307812, 0.08414582163095474, 0.07769053429365158, 0.07668599486351013, 0.14349129796028137, -0.06537700444459915, -0.06393691897392273, -0.05290988087654114, 0.093352772295475, 0.11268250644207001, -0.05056975036859512, -0.052208103239536285, 0.13151349127292633, 0.0911610871553421, 0.11896470189094543, -0.18569470942020416, 0.31809812784194946, 0.2099398523569107, 0.11883214116096497, -0.23078882694244385, -0.23850704729557037, 0.0466332845389843, 0.1516069620847702, -0.15742649137973785, -0.10601363331079483, -0.09247808903455734, 0.07341907918453217, 0.08450115472078323, -0.033446092158555984, -0.0779745951294899, -0.10367115586996078, -0.20431023836135864, 0.04716979339718819, -0.0790991485118866, -0.04942069947719574, 0.24454768002033234, -0.08436111360788345, 0.12815874814987183, 0.30031582713127136, 0.15697747468948364, 0.01660250499844551, -0.06375980377197266, 0.06393155455589294, -0.19173642992973328, -0.07719449698925018, -0.0800836831331253, 0.10710496455430984, 0.2897491157054901, 0.27600833773612976, -0.005596835631877184, -0.20788612961769104, -0.25136882066726685, 0.014351277612149715, 0.011885987594723701, -0.007764716632664204, -0.006275123916566372, -0.26902562379837036, -0.26984646916389465, -0.1784837394952774, 0.020241521298885345, 0.24680128693580627, 0.25842761993408203, 0.49103257060050964, 0.20243099331855774, -0.0035830680280923843, 0.2829922139644623, -0.225454643368721, -0.13898396492004395, 0.244889035820961, -0.19421929121017456, -0.2753451466560364, 0.23000246286392212, 0.16570553183555603, -0.02105618268251419, -0.22851136326789856, 0.049724578857421875, 0.05700225755572319, 0.32845553755760193, -0.10890413075685501, -0.09404364973306656, -0.34212416410446167, -0.1069042906165123, -0.2846374809741974, -0.10208478569984436, 7.745782932033762e-05, -0.12031421065330505, -0.23881129920482635, 0.2263292670249939, 0.11487878113985062, 0.18339850008487701, -0.08375377953052521, 0.062376540154218674, 0.046319812536239624, -0.12896013259887695, 0.12290921807289124, -0.2641134262084961, 0.15920907258987427, -0.07429634779691696, 0.3041551113128662, 0.06728444993495941, -0.05387679859995842, -0.05177035555243492, 0.005198077764362097, 0.0680621936917305, 0.09132897108793259, 0.12344014644622803, 0.10649284720420837, -0.14082413911819458, -0.14542536437511444, -0.12795010209083557, -0.008448352105915546, -0.24950149655342102, -0.047454848885536194, -0.08670305460691452, -0.0631796196103096, 0.1164836511015892, -0.10384643822908401, 0.08242232352495193, 0.2814178168773651, -0.07885836064815521, 0.10447799414396286, 0.07231054455041885, 0.354032427072525, -0.05568620562553406, -0.10604598373174667, -0.028859183192253113, -0.05498369783163071, -0.2424287497997284, -0.06738164275884628, 0.1926039606332779, 0.06402246654033661, -0.12656287848949432, -0.17113900184631348, -0.090567946434021, 0.07102786004543304, -0.19049490988254547, 0.032038506120443344, 0.16389401257038116, -0.259573757648468, -0.13743820786476135, -0.017486799508333206, 0.112324558198452, 0.004034730140119791, -0.08872388303279877, -0.06699340790510178, 0.03131066635251045, 0.051178593188524246, 0.114102803170681, 0.07693105190992355, -0.06284789741039276, -0.03319031000137329, -0.10089810937643051, 0.1658688336610794, 0.11886530369520187, -0.026420816779136658, -0.19658012688159943, 0.013517845422029495, 0.16689157485961914, -0.15157561004161835, -0.3639219403266907, 0.11366386711597443, 0.4465723931789398, 0.06780243664979935, 0.005235475488007069, -0.21302537620067596, -0.0565282478928566, 0.0059933895245194435, -0.021501556038856506, -0.23887141048908234, -0.05089477449655533, 0.0855715200304985, 0.04705271124839783, 0.4296063780784607, 0.06804238259792328, 0.10510478168725967, 0.05795135721564293, -0.05087648332118988, 0.024437062442302704, -0.18878449499607086, 0.26468196511268616, -0.14335115253925323, -0.13469141721725464, 0.13607710599899292, -0.11270486563444138, 0.1232648491859436, -0.2520906925201416, 0.11397744715213776, -0.4351344108581543, -0.1308051496744156, 0.06708727031946182, -0.07822640240192413, -0.007747729774564505, -0.11710481345653534, -0.11250095069408417, -0.008944588713347912, 0.04910997301340103, -0.34702926874160767, 0.09493357688188553, -0.04372889921069145, 0.17193394899368286, -0.08705762773752213, -0.001972565893083811, 0.02968687005341053, 0.12449497729539871, -0.23789037764072418, 0.4142932891845703, 0.08123760670423508, -0.2515060305595398, -0.3112451434135437, 0.20714448392391205, 0.09821344912052155, -0.14812424778938293, 0.19125843048095703, 0.040233224630355835, -0.777661919593811, 0.036506183445453644, -0.008109242655336857, 0.20001854002475739, -0.06634549796581268, 0.018165161833167076, -0.039314448833465576, -0.3110482394695282, 0.18251283466815948, -0.0273975171148777, 0.2849251627922058, -0.18378296494483948, -0.06435610353946686, 0.05146581307053566, -0.12923498451709747, -0.1521264612674713, -0.005848452914506197, 0.046674150973558426, 0.127727672457695, -0.001421807100996375, 0.41296106576919556, -0.09841770678758621, -0.17178156971931458, 0.005343923345208168, 0.023027610033750534, 0.1812354475259781, 0.15156972408294678, 0.09760265797376633, 0.03683876991271973, -0.04432237893342972, 0.035521287471055984, 0.2291630208492279, 0.07630207389593124, 0.07029055058956146, -0.09027044475078583, -0.15801945328712463, -0.2811010777950287, -0.0556853748857975, -0.36606356501579285, 0.024358050897717476, 0.10016585886478424, -0.19542798399925232, 0.04162018001079559, -0.0838286429643631, -0.11833629757165909, 0.09669554233551025, 0.02572326734662056, 0.176781564950943, -0.12378953397274017, 0.05151059478521347, -0.013503296300768852, -0.054579783231019974, 0.08135244995355606, 0.11599534749984741, 0.03695394843816757, 0.028869222849607468, -0.28691643476486206, 0.23359906673431396, 0.0005522547871805727, -0.10864634066820145, -0.06662686914205551, 0.11898326873779297, 0.15787571668624878, -0.018724847584962845, 0.06322439014911652, -0.19264595210552216, 0.17010457813739777, -0.020132729783654213, 0.26203757524490356, -0.2767656147480011, -0.4633330702781677, 0.772186279296875, 0.3411330282688141, -0.5776008367538452, -0.002795167500153184, -0.0662989616394043, -0.14976046979427338, 0.6391355395317078, -0.8633974194526672, 0.9477428793907166, 0.6542662978172302, 0.40824654698371887, -0.3561165928840637, 0.20283110439777374, -0.6655473709106445, 0.27176713943481445, 0.033786509186029434, -0.005725374910980463, -0.1814989149570465, 0.046330031007528305, 0.25306835770606995, 0.20942959189414978, 0.02011374570429325, 0.08484885841608047, 0.05816131457686424, 0.19925463199615479, 0.10482191294431686, -0.19085517525672913, 0.019332969561219215, -0.1952374428510666, -0.3141266405582428, 0.2697193920612335, 0.16977640986442566, 0.09037647396326065, 0.19680607318878174, 0.19273041188716888, 0.34546512365341187, -0.05724549666047096, -0.14812235534191132, -0.2834204137325287, 0.01944517157971859, 0.030123911798000336, -0.07225056737661362, 0.26146817207336426, 0.3348807394504547, 0.2334708869457245, -0.24085794389247894, 0.09012496471405029, -0.3750777542591095, -0.05258697271347046, -0.23686304688453674, 0.19955946505069733, -0.1559535264968872, 0.04130721837282181, -0.2229010909795761, -0.16841785609722137, 0.07875562459230423, -0.011707816272974014, 0.25127583742141724, 0.19347666203975677, -0.5686029195785522, -0.20660315454006195, 0.22198016941547394, 0.18827052414417267, 0.36988183856010437, 0.23704123497009277, -0.06270752102136612, -0.053623929619789124, 0.11949419230222702, -0.21536648273468018, 0.19096243381500244, 0.26035404205322266, -0.11628838628530502, 0.19398532807826996, 0.21261273324489594, 0.07587786018848419, 0.07133463025093079, 0.18422150611877441, -0.003289702581241727, 0.043948981910943985, -0.055437974631786346, 0.19916336238384247, -0.1563585251569748, 0.06491000205278397, -0.281185120344162, 0.12161885201931, -0.03451501578092575, 0.26389041543006897, -0.12196201831102371, -0.09964583069086075, 0.12736818194389343, -0.15825343132019043, -0.3968217670917511, 0.29812708497047424, -0.1098337396979332, -0.09882529824972153, -0.1596240997314453, 0.0921538919210434, -0.02783527597784996, -0.0788189247250557, 0.07248383015394211, 0.16786588728427887, 0.2283318042755127, -0.21836590766906738, -0.08310991525650024, -0.07502512633800507, 0.14149954915046692, 0.07636874914169312, 0.12288257479667664, 0.28383293747901917, 0.05157158523797989, -0.08970985561609268, -0.034852080047130585, -0.08263272792100906, 0.19211046397686005, 0.1139778271317482, 0.029116638004779816, -0.027570588514208794, 0.09359652549028397, -0.22883401811122894, 0.07806044816970825, 0.3056182563304901, -0.24033385515213013, -0.0932093933224678, 0.21320487558841705, 0.09288720786571503, -0.0019275007070973516, 0.3031924068927765, 0.19107083976268768, -0.11691084504127502, 0.010859005153179169, 0.04928989335894585, -0.17950236797332764, 0.09608438611030579, -0.00031268951715901494, -0.026064729318022728, 0.057456325739622116, 0.015466148965060711, 0.10755370557308197, -0.059751883149147034, -0.0418296754360199, 0.16876676678657532, -0.04827607795596123, 0.08897840976715088, 0.1081799790263176, -0.12799236178398132, 0.118607297539711, 0.2819186747074127, 0.027449889108538628, -0.17060042917728424, 0.037274207919836044, -0.12675391137599945, 0.16050583124160767, -0.030446557328104973, 0.37924066185951233, -0.1900312602519989, -0.16668954491615295, 0.004877772182226181, 0.10589181631803513, 0.153150737285614, 0.004406742285937071, -0.019928421825170517, 0.2593827247619629, -0.18616700172424316, 0.2355775535106659, -0.15255458652973175, -0.10221797972917557, -0.09646386653184891, -0.11119218915700912, 0.05571770295500755, -0.31472542881965637, -0.07418511807918549, 0.08262663334608078, 0.21590149402618408, -0.11617086082696915, 0.21708421409130096, -0.1836908608675003, -0.29068005084991455, -0.24763020873069763, 0.20339210331439972, -0.19617673754692078, 0.17674300074577332, -0.13020898401737213, 0.22760507464408875, 0.17052800953388214, -0.06330558657646179, 0.14315402507781982, 0.08911135047674179, -0.30705344676971436, -0.03440010920166969, 0.2205968201160431, 0.18794992566108704, 0.0057718162424862385, -0.002710652071982622, 0.017457816749811172, -0.20375573635101318, 0.17377029359340668, 0.2072177678346634, 0.014552613720297813, -0.006291802506893873, -0.38924187421798706, 0.1323050856590271, 0.11772551387548447, -0.15454867482185364, -0.17960010468959808, -0.008975151926279068, 0.025380050763487816, -0.37672579288482666, -0.3003785312175751, -0.021241825073957443, 0.07157817482948303, 0.07253209501504898, 0.06211439520120621, -0.2259186953306198, -0.14767301082611084, 0.0707639530301094, -0.00928578618913889, -0.341343492269516, -0.051052629947662354, 0.0618685744702816, -0.046543776988983154, 0.23581527173519135, -0.25986021757125854, -0.2329799383878708, 0.0416102297604084, -0.08149944245815277, 0.03984962776303291, -0.10709487646818161, -0.08022821694612503, 0.14531174302101135, -0.12731292843818665, 0.0913374051451683, -0.08371217548847198, 0.04590794816613197, -0.27577146887779236, -0.13032665848731995, 0.31046900153160095, -0.0061089759692549706, -0.12069826573133469, 0.06336501985788345, 0.016944557428359985, -0.10331997275352478, -0.0274336114525795, 0.004180737771093845, -0.1517133116722107, 0.09029734134674072, -0.25877735018730164, 0.16391712427139282, 0.20320487022399902, 0.053167764097452164, 0.2677168548107147, -0.15137805044651031, -0.10819265246391296, 0.11197804659605026, -0.1867210417985916, -0.24916817247867584, -0.04513420909643173, -0.13046252727508545, -0.07849803566932678, -0.12638014554977417, -0.352800577878952, 0.04046418145298958, -0.29923662543296814, 0.016460305079817772, 0.23844999074935913, 0.10035031288862228, 0.17304155230522156, -0.23837187886238098, -0.22812989354133606, -0.2754538059234619, 0.07017705589532852, 0.04774937033653259, 0.11259040981531143, -0.02919796109199524, -0.003334674285724759, -0.10954196006059647, 0.16769497096538544, 0.01718304306268692, 0.04087672382593155, -0.18268202245235443, -0.04135354608297348, -0.03340468928217888, 0.041021961718797684, 0.1651628315448761, 0.09666182845830917, 0.04733995348215103, -0.05499860644340515, -0.028279349207878113, -0.15225784480571747, 0.10183468461036682, 0.011846748180687428, -0.08430004864931107, -0.038989122956991196, 0.0982624813914299, 0.10681873559951782, 0.10944672673940659, 0.0603998526930809, -0.06048303842544556, 0.49467265605926514, -0.04251523315906525, -0.17007124423980713, -0.030421024188399315, 0.24010945856571198, 0.10957086086273193, 0.01788458414375782, 0.18092583119869232, -0.062429279088974, -0.16606126725673676, -0.24853986501693726, 0.07977727800607681, 0.1397070586681366, 0.10885883867740631, -0.11467327177524567, -0.12693816423416138, -0.055749256163835526, 0.08368568867444992, 0.004206405486911535, -0.025955142453312874, -0.195403590798378, 0.30008089542388916, 0.08257727324962616, -0.2442232221364975, 0.024661345407366753, -0.2541814148426056, -0.2604556679725647, -0.08925942331552505, 0.07743558287620544, -0.025142421945929527, -0.2377772033214569, -0.16429591178894043, 0.27385812997817993, -0.09353209286928177, 0.001410618657246232, -0.0038772413972765207, 0.16256083548069, -0.05673113837838173, 0.02144886925816536, -0.0008934865472838283, 0.15953560173511505, -0.011793702840805054, 0.2532242238521576, 0.16393333673477173, -0.164834126830101, 0.10726194083690643, -0.243519589304924, 0.23397554457187653, 0.3155685365200043, -0.08245252072811127, 0.16729705035686493, 0.027321895584464073, 0.032663438469171524, -0.0335199311375618, -0.17830312252044678, -0.05982078239321709, 0.020402109250426292, 0.15870551764965057, 0.11441748589277267, 0.06725537776947021, -0.2329748570919037, -0.03638557344675064, -0.02197452262043953, -0.07493098080158234, 0.008344622328877449, 0.19730252027511597, 0.02171548269689083, -0.22730928659439087, 0.03455379605293274, -0.04798060655593872, 0.30810123682022095, -0.25750285387039185, -0.22483482956886292, 0.03494763374328613, 0.07270585000514984, -0.2995000183582306, -0.3621385991573334, -0.07407952845096588, -0.22207790613174438, 0.06024076044559479, 0.03902341425418854, -0.11133798211812973, 0.09058143198490143, 0.2143736630678177, -0.06873609125614166, -0.22887730598449707, -0.05944451317191124, 0.19997887313365936, 0.1589852273464203, 0.10952304303646088, -0.19571533799171448, -0.11942410469055176, -0.020137786865234375, -0.09334035962820053, -0.038147762417793274, -0.1615743488073349, -0.25889620184898376, -0.01200450211763382, -0.13603630661964417, 0.0695006474852562, 0.04309861361980438, 0.16301432251930237, 0.08142197132110596, 0.14126932621002197, 0.14633405208587646, -0.27160972356796265, -0.09569653123617172, -0.08941297233104706, 0.19418616592884064, 0.06766258180141449, 0.10022006183862686, -0.13655737042427063, -0.05355462804436684, -0.09536536037921906, 0.18009860813617706, -0.042164985090494156, -0.08353637158870697, -0.23792771995067596, -0.055380355566740036, 0.05219676345586777, -0.13620026409626007, 0.015904346480965614, -0.06530735641717911, 0.08307237178087234, 0.004139025695621967, 0.03681965172290802, -0.20830924808979034, -0.04781696945428848, -0.16653196513652802, -0.412873238325119, -0.19809071719646454, -0.03393907472491264, 0.17294132709503174, 0.1122366189956665, 0.22247937321662903, 0.10346671938896179, 0.05841800197958946, -0.09995917230844498, 0.1746271401643753, 0.14240917563438416, 0.016133787110447884, 0.11552790552377701, -0.040875792503356934, 0.006816075649112463, -0.21156585216522217, -0.05115777999162674, 0.1847294718027115, -0.08759479969739914, -0.13726742565631866, 0.1664264053106308, 0.25749263167381287, 0.19673778116703033, -0.056604959070682526, 0.12033038586378098, -0.07955555617809296, 0.0546095073223114, 0.1584423929452896, 0.2222921997308731, -0.1381651610136032, -0.0015376087976619601, -0.23817522823810577, -0.0439266599714756, 0.08505626767873764, 0.2982200086116791, 0.0648798942565918, 0.18861769139766693, 0.103202223777771, -0.20250119268894196, 0.17333754897117615, 0.07252881675958633, 0.3664186894893646, -0.10624654591083527, 0.10842710733413696, 0.1507733017206192, -0.20632866024971008, -0.3245079219341278, 0.10946918278932571, -0.20982572436332703, -0.28055450320243835, 0.16695520281791687, -0.15420880913734436, 0.10450675338506699, 0.08548746258020401, -0.04130106419324875, 0.042974088340997696, 0.06473138928413391, -0.07284870743751526, -0.10735742002725601, 0.45201465487480164, 0.04378918558359146, 0.04176855832338333, 0.3370051085948944, -0.08799029886722565, 0.16203179955482483, -0.17674168944358826, -0.06875164806842804, -0.1744695007801056, 0.10429647564888, 0.06938665360212326, -0.07237738370895386, 0.09187985956668854, 0.03890890255570412, 0.14139249920845032, -0.0750255137681961, -0.05642591416835785, -0.18457770347595215, 0.25446072220802307, -0.08157362788915634, -0.11722896993160248, -0.35878825187683105, -0.02337842434644699, 0.13301046192646027, 0.6438310742378235, 0.09126674383878708, -0.2206234633922577, 0.2675497829914093, -0.06218968331813812, -0.22490085661411285, -0.017192617058753967, -0.1648460328578949, -0.13135798275470734, 0.03464379534125328, -0.059470754116773605, 0.20581279695034027, 0.09441759437322617, -0.002254967810586095, 0.10642290860414505, -0.022639494389295578, -0.041291236877441406, 0.04869594797492027, -0.11642101407051086, -0.07681834697723389, -0.0817183181643486, 0.12366636097431183, -0.1868307739496231, -0.0006064569461159408, 0.2793736159801483, 0.1275966763496399, -0.21295654773712158, 0.11207768321037292, -0.07083196192979813, 0.19382910430431366, -0.21399198472499847, -0.10887660086154938, 0.03895295411348343, 0.07157720625400543, -0.02931428886950016, -0.06376025825738907, 0.14204883575439453, -0.04916602000594139, 0.0966411605477333, -0.09574032574892044, -0.045322589576244354, -0.19710437953472137, 0.1319243460893631, -0.10232752561569214, 0.002186127007007599, -0.07169472426176071, -0.10542059689760208, -0.053910233080387115, -0.014439703896641731, -0.19178253412246704, 0.03827299922704697, 0.117400161921978, 0.12300638109445572, 0.05536146089434624, -0.057271819561719894, -0.12169471383094788, -0.02187611162662506, -0.02649429440498352, -0.18250273168087006, 0.10813765227794647, 0.14241456985473633, -0.021905241534113884, 0.17990650236606598, 0.1445755958557129, 0.03298954665660858, 0.1955072283744812, 0.0669110119342804, -0.28018108010292053, -0.15442945063114166, 0.008981166407465935, -0.16722407937049866, -0.009033609181642532, 0.21460095047950745, -0.14238964021205902, -0.20825009047985077, 0.40013763308525085, 0.039325885474681854, 0.01261392142623663, 0.04573947563767433, 0.09312886744737625, -0.45828089118003845, -0.13306425511837006, -0.09246508032083511, -0.13009141385555267, 0.09068131446838379, -0.068574458360672, 0.1895619034767151, -0.22333380579948425, -0.12212790548801422, -0.05272836610674858, 0.2052258551120758, -0.012781744822859764, 0.10827652364969254, -0.10455193370580673, 0.04118521884083748, 0.26801225543022156, 0.31229570508003235, -0.028421051800251007, 0.21959902346134186, 0.14679287374019623, 0.039443377405405045, 0.3301028609275818, -0.01902245171368122, -0.06054484471678734, -0.0561179555952549, 0.3214557468891144, -0.002464110031723976, 0.34016621112823486, 0.22896184027194977, 0.005756450816988945, -0.04857025668025017, -0.05697966739535332, -0.24013744294643402, -0.11493182182312012, 0.03355437517166138, 0.16460487246513367, 0.058500371873378754, 0.037749484181404114, 0.32594671845436096, -0.08347117900848389, -0.07734718173742294, 0.17060066759586334, -0.1306580901145935, 0.019342264160513878, -0.0063603902235627174, -0.20369337499141693, 0.21347059309482574, 0.17447549104690552, 0.05169709399342537, -0.029564356431365013, 0.19159017503261566, 0.11265923082828522, -0.16491983830928802, -0.009997234679758549, -0.16843798756599426, 0.04333898797631264, -0.03130251541733742, 0.19376198947429657, 0.05899488553404808, 0.06659089773893356, -0.1580483764410019, -0.17635664343833923, 0.10335811972618103, -0.02033327706158161, -0.043250542134046555, 0.006057058926671743, 0.25720351934432983, -0.3998885452747345, -0.01520018931478262, 0.020809583365917206, 0.14856372773647308, 0.05952904745936394, 0.1342700570821762, -0.10359658300876617, -0.11660725623369217, -0.14371412992477417, 0.08281995356082916, 0.15198864042758942, -0.21590805053710938, 0.05140936002135277, -0.011694282293319702, -0.15071018040180206, 0.1489713191986084, -0.06991104781627655, 0.2265395224094391, -0.12765531241893768, 0.2763642966747284, -0.09978605061769485, -0.41529381275177, 0.04337453097105026, 0.26252731680870056, -0.15591421723365784, 0.1555548459291458, -0.1786055713891983, 0.07806229591369629, -0.22352197766304016, 0.02682340517640114, 0.16603147983551025, -0.05332741513848305, 0.0403340645134449, -0.2514774203300476, 0.060346364974975586, -0.08010838180780411, 0.17632243037223816, -0.16513791680335999, -0.05844078212976456, -0.18007713556289673, 0.027919044718146324, 0.04819908365607262, 0.32354965806007385, -0.10886278003454208, -0.0461687371134758, -0.4488615393638611, -0.1770627349615097, 0.01989598199725151, -0.16034017503261566, 0.047980207949876785, 0.17274925112724304, -0.060842618346214294, -0.162200927734375, 0.0064329723827540874, -0.0764857679605484, -0.01976124569773674, -0.09867272526025772, 0.009351823478937149, -0.12831184267997742, -0.002061152830719948, -0.10848084092140198, -0.08025700598955154, -0.13231122493743896, 0.054107971489429474, -0.08224405348300934, 0.2432398498058319, -0.15547864139080048, -0.0890248566865921, 0.3274374306201935, 0.051814816892147064, 0.014020250178873539, 0.3101997971534729, 0.29187360405921936, 0.11527865380048752, -0.08738414198160172, 0.06600767374038696, 0.18570773303508759, -0.7239250540733337, 0.001229260116815567, 0.1551898568868637, 0.08654382824897766, -0.09797899425029755, 0.01421075128018856, -0.15439894795417786, 0.01961122453212738, 0.21467313170433044, 0.2158762812614441, 0.0095446752384305, -0.10728170722723007, -0.1756955087184906, 0.018167026340961456, 0.09078791737556458, 0.2053745985031128, 0.1109243780374527, -0.05333678796887398, -0.07375653833150864, -0.24091613292694092, -0.25237295031547546, -0.06933343410491943, -0.1888790875673294, -0.0513332262635231, 0.013580531813204288, 0.08647629618644714, -0.16705438494682312, 0.05170575901865959, 0.0845048651099205, -0.10113740712404251, -0.031782396137714386, -0.009442317299544811, 0.2600919008255005, -0.0739281177520752, -0.03318246081471443, 0.26315411925315857, 0.0985051691532135, 0.0123637355864048, 0.09601137042045593, -0.2456589937210083, 0.04300396889448166, 0.2586923837661743, 0.15350165963172913, -0.14005209505558014, -0.2584587335586548, -0.09136653691530228, -0.16319598257541656, 0.14680439233779907, 0.06996322423219681, -0.005278842058032751, -0.0019072114955633879, 0.1378377377986908, 0.12786553800106049, -0.19757552444934845, -0.12483837455511093, -0.041660718619823456, 0.13584434986114502, 0.03722137585282326, 0.10166862607002258, 0.03374890238046646, -0.1072302833199501, 0.0113639235496521, 0.026654444634914398, -0.04652635380625725, 0.10517250001430511, 0.12723343074321747, -0.15675538778305054, 0.21366067230701447, -0.15780413150787354, 0.0027450229972600937, -0.16053885221481323, 0.1437585949897766, 0.09967226535081863, 0.04842238128185272, -0.09725453704595566, 0.0017505452269688249, 0.166795551776886, 0.13138502836227417, 0.06295035779476166, 0.1425984501838684, 0.2398153841495514, -0.3130805492401123, -0.03874476999044418, -0.0428914837539196, 0.2127446085214615, 0.0774276852607727, -0.16240061819553375, -0.19600409269332886, -0.005911771673709154, 0.1720597743988037, 0.2407553493976593, -0.05482475087046623, 0.5318549275398254, -0.2915683686733246, -0.17535756528377533, 0.23437292873859406, 0.023391492664813995, -0.36400771141052246, -0.13238058984279633, 0.1737365424633026, -0.019518794491887093, -0.23761726915836334, -0.10741069912910461, -0.09195305407047272, 0.21473759412765503, 0.056730546057224274, -0.052480895072221756, -0.13253198564052582, -0.1538885235786438, 0.12724469602108002, 0.16810928285121918, -0.07805819064378738, -0.30013757944107056, 0.1328834444284439, 0.021112173795700073, -0.021685119718313217, 0.024474753066897392, -0.07796522229909897, -0.23355911672115326, -0.074471615254879, 0.3081752061843872, -0.01426801085472107, -0.09736818075180054, -0.15960237383842468, -0.045364007353782654, -0.20896390080451965, -0.0490342453122139, -0.07922028750181198, 0.21762998402118683, 0.016793230548501015, -0.005414885934442282, -0.059162549674510956, 0.01507625076919794, 0.0026856735348701477, 0.057541169226169586, -0.11567765474319458, -0.06892348825931549, -0.1660373955965042, -0.041925642639398575, -0.05449642986059189, -0.16202996671199799, 0.07912057638168335, 0.0458708181977272, -0.1309109628200531, 0.09867703169584274, 0.20914970338344574, 0.014003336429595947, -0.130179762840271, 0.12305348366498947, -0.055560968816280365, 0.06758836656808853, 0.006602750159800053, 0.015238478779792786, -0.1745433509349823, 0.13420571386814117, -0.1250959187746048, -0.10828524827957153, -0.03536815196275711, -0.119735948741436, -0.22984369099140167, -0.009521122090518475, -0.143362358212471, -0.08747449517250061, 0.0012842967407777905, 0.06914698332548141, 0.1445116251707077, 0.04678497090935707, 0.06323232501745224, 0.1048310250043869, -0.001714276964776218, 0.20930595695972443, -0.14299941062927246, 0.017265349626541138, 0.23597364127635956, 0.13304436206817627, 0.09266616404056549, -0.06438937783241272, -0.009737752377986908, -0.06968328356742859, 0.09389328956604004, -0.07701942324638367, 0.07259280234575272, 0.1213337853550911, 0.0841449722647667, -0.06776009500026703, 0.26586318016052246, -0.19861933588981628, 0.08110538125038147, 0.1348288357257843, 0.21285654604434967, 0.010935408994555473, 0.0910230502486229, 0.15511630475521088, 0.06986676901578903, -0.009830604307353497, -0.23206409811973572, 0.016143254935741425, 0.2535657286643982, 0.10600708425045013, 0.09004281461238861, -0.1807531714439392, -0.15984229743480682, -0.046117786318063736, 0.2074747383594513, 0.04772745817899704, 0.010495243594050407, 0.03518259525299072, -0.024401290342211723, -0.101111501455307, 0.30498847365379333, 0.1753646284341812, -0.18260017037391663, 0.160247802734375, -0.1312386393547058, -0.0018228042172268033, -0.07151716202497482, -0.23161901533603668, -0.1381424218416214, 0.21935027837753296, 0.00585938710719347, -0.22387807071208954, 0.1823723018169403, 0.20046372711658478, 0.17163081467151642, 0.005899386014789343, 0.029071807861328125, 0.18485236167907715, 0.02944563515484333, -0.043017104268074036, 0.092844158411026, 0.1318848580121994, 0.01134603563696146, -0.10947993397712708, -0.10199937969446182, -0.1894926130771637, -0.337350457906723, 0.06846953183412552, 0.07806114107370377, -0.09995327889919281, -0.10169258713722229, 0.43933549523353577, -0.011678710579872131, -0.046864189207553864, 0.0036004786379635334, -0.11973826587200165, 0.1562943160533905, 0.06088664382696152, 0.09541873633861542, -0.05310333892703056, -0.12846603989601135, 0.028641752898693085, 0.15503256022930145, -0.07799503207206726, 0.18319453299045563, -0.021136736497282982, -0.06922794878482819, -0.2558824419975281, -0.08632168173789978, 0.1264904886484146, -0.19834794104099274, -0.08364485949277878, -0.09695888310670853, -0.24238139390945435, -0.013787391595542431, -0.1816045492887497, 0.06544575840234756, 0.07333369553089142, -0.025943947955965996, 0.07263138890266418, 0.021624332293868065, 0.19492386281490326, 0.1084759458899498, -0.07558637857437134, -0.09554066509008408, 0.31273335218429565, 0.23001304268836975, -0.03815611079335213, 0.10397601872682571, -0.24143916368484497, -0.07792520523071289, -0.2513169050216675, -0.024330392479896545, 0.423417866230011, 0.8583847880363464, -0.4443546235561371, -0.07304836809635162, 0.12475541979074478, 0.010081160813570023, 0.038902245461940765, 0.28540465235710144, -0.16468513011932373, 0.11262580752372742, -0.00433253962546587, -0.17504356801509857, -0.17290398478507996, -0.022702835500240326, 0.0183554794639349, 0.09686020761728287, -0.08509739488363266, -0.1434534639120102, -0.011738650500774384, 0.03797444701194763, 0.1287211924791336, -0.059261076152324677, 0.19696687161922455, 0.017241688445210457, 0.06133532524108887, 0.20781418681144714, -0.08118036389350891, -0.12039031833410263, -0.06636316329240799, 0.15046189725399017, -0.00022389195510186255, 0.12393448501825333, -0.024591047316789627, 0.020231181755661964, -0.15998142957687378, 0.14722049236297607, -0.17309033870697021, -0.10525363683700562, 0.32985928654670715, -0.08130697906017303, -0.045526664704084396, 0.15691228210926056, -0.021696770563721657, 0.13573631644248962, 0.051886070519685745, -0.11480262875556946, -0.04866642877459526, 0.15752850472927094, 0.03404513746500015, 0.0421161912381649, -0.15775573253631592, 0.06111181899905205, -0.07530627399682999, -0.05072842910885811, 0.017050158232450485, 0.7406187653541565, 0.18822219967842102, 0.6696246266365051, -0.825026273727417, -0.5478823184967041, 0.10822012275457382, 0.388702392578125, -0.05842704325914383, 0.20717079937458038, 0.49931591749191284, -0.8209190964698792, 0.4186682403087616, -0.1583382934331894, -0.765640139579773, -0.03239930048584938, -0.21772052347660065, -0.15791773796081543, -0.2923326790332794, 0.34948790073394775, -0.3229633867740631, 0.16242057085037231, 0.32347625494003296, -0.02807929553091526, -0.22026914358139038, -0.39786845445632935, -0.08602406829595566, -0.07932250201702118, -0.0323164202272892, 0.22783386707305908, -0.13328486680984497, 0.15443235635757446, 0.0011778115294873714, -0.21328160166740417, -0.024533720687031746, 0.14330331981182098, -0.2460872381925583, 0.28761526942253113, 0.09191375970840454, 0.5235514640808105, -0.23715846240520477, -0.4186178147792816, 0.08025511354207993, -0.35772034525871277, 0.006925635971128941, -0.012644043192267418, -0.02476336620748043, -0.23351258039474487, 0.246513232588768, -0.019965218380093575, 0.2114335000514984, -0.2535065710544586, -0.19291962683200836, -0.053971581161022186, -0.027915583923459053, -0.1952938288450241, 0.05526145547628403, 0.26895076036453247, -0.2097582072019577, -0.24471886456012726, -0.06573034822940826, 0.1267087757587433, 0.21894703805446625, 0.2141522318124771, 0.20474795997142792, -0.010443663224577904, 0.0007283102604560554, -0.19214706122875214, 0.21659760177135468, 0.2849072813987732, 0.2833622992038727, 0.23132000863552094, 0.09453660994768143, -0.22403287887573242, 0.016852250322699547, 0.020339662209153175, -0.22085902094841003, 0.13822945952415466, 0.0938028022646904, 0.16989172995090485, -0.37538638710975647, 0.2514954209327698, -0.00468490133062005, 0.06477640569210052, 0.02452886663377285, 0.021301571279764175, -0.0968259871006012, 0.03350481763482094, -0.1650896817445755, 0.3144080936908722, 0.14193686842918396, 0.07010132819414139, 0.1535038948059082, 0.030335087329149246, -0.25891125202178955, -0.1979813277721405, -0.05176014453172684, -0.18915799260139465, 0.13749055564403534, 0.055929578840732574, 0.29114729166030884, -0.1377812623977661, 0.07925844192504883, -0.013874078169465065, 0.0019065829692408442, 0.15478810667991638, 0.11844689399003983, -0.37846145033836365, 0.14657801389694214, 0.03833276033401489, 0.01716914400458336, -0.41376131772994995, 0.019093789160251617, -0.0030199040193110704, -0.06334306299686432, 0.019752472639083862, 0.04858877509832382, -0.2185210883617401, -0.2690987288951874, 0.047361791133880615, 0.305453896522522, -0.1990891993045807, -0.1832226663827896, 0.39203402400016785, 0.09476889669895172, -0.0022971632424741983, -0.11100927740335464, -0.08865568786859512, -0.13114391267299652, -0.01741507463157177, -0.005497063510119915, -0.04846833646297455, -0.011162237264215946, 0.22975300252437592, -0.26286762952804565, -0.09850692003965378, 0.32243770360946655, 0.017774589359760284, 0.023463871330022812, -0.0217636376619339, 0.09268029779195786, -0.06121445447206497, -0.042570896446704865, 0.21258015930652618, 0.005118441767990589, -0.20176005363464355, 0.1572980284690857, -0.15286852419376373, -0.17591512203216553, 0.16434623301029205, 0.062251653522253036, -0.20405390858650208, -0.07071174681186676, 0.05555485561490059, -0.05647622421383858, -0.05356461927294731, -0.18915297091007233, 0.2063688039779663, 0.15005996823310852, 0.0328579843044281, 0.011903942562639713, 0.2157820463180542, 0.27695101499557495, 0.29354992508888245, -0.07600721716880798, -0.10611413419246674, 0.1956314742565155, -0.08521571010351181, 0.09251786023378372, -0.36420002579689026, -0.19805316627025604, 0.11939161270856857, -0.09431648999452591, 0.32052257657051086, -0.2230389416217804, 0.19881366193294525, 0.045307714492082596, -0.20492199063301086, 0.1726149469614029, -0.4436454176902771, -0.2740807831287384, -0.03261639550328255, 0.22427920997142792, -0.009946126490831375, -0.30349215865135193, 0.3746373951435089, -0.08382225781679153, -0.26743510365486145, -0.14065979421138763, -0.1530417501926422, 0.38958266377449036, 0.12694969773292542, -0.09285502135753632, 0.06124016270041466, 0.16768167912960052, -0.02370167337357998, -0.017296072095632553, -0.03044605627655983, -0.1756550371646881, -0.055951979011297226, 0.0414409413933754, -0.18756705522537231, 0.2815364599227905, 0.4485062062740326, 0.29736199975013733, -0.17446191608905792, 0.04326220601797104, -0.07634098827838898, 0.07247575372457504, 0.11833332479000092, 0.28275981545448303, 0.10267584770917892, 0.3943227231502533, -0.1045336201786995, 0.07035655528306961, -0.165556862950325, 0.09411375224590302, 0.2573324143886566, 0.20630833506584167, -0.5056412220001221, -0.19485901296138763, -0.2948934733867645, 0.18146608769893646, 0.10928233712911606, -0.18005412817001343, 0.014863147400319576, 0.05884237214922905, 0.14591319859027863, 0.25895801186561584, -0.051492784172296524, 0.03849223256111145, -0.24445603787899017, 0.24112579226493835, 0.1040503978729248, -0.21805977821350098, 0.4011975824832916, -0.07371210306882858, -0.1561993658542633, -0.3343742787837982, -0.036649346351623535, 0.20574386417865753, 0.1808997541666031, -0.17736248672008514, -0.006486814469099045, 0.2968567907810211, -0.13026711344718933, -0.10438250750303268, -0.10091759264469147, 0.08702445030212402, -0.04771272465586662, 0.16327059268951416, -0.1974492073059082, -0.07074993848800659, -0.13587099313735962, 0.022299066185951233, -0.048657942563295364, 0.10773644596338272, -0.15136292576789856, -0.05005284398794174, -0.22204816341400146, 0.07149231433868408, -0.12661370635032654, -0.17567378282546997, 0.2668810188770294, -0.03122660145163536, -0.18324223160743713, 0.10671480000019073, -0.38122496008872986, -0.18437892198562622, 0.16133823990821838, -0.08602092415094376, 0.10298021137714386, 0.04402483254671097, -0.1493239849805832, 0.0301213301718235, 0.08110709488391876, -0.11299841105937958, 0.06020909547805786, 0.06904619187116623, -0.030178407207131386, 0.07133971154689789, -0.1387016624212265, 0.15751531720161438, 0.02874121628701687, 0.028197258710861206, 0.10001576691865921, -0.20496222376823425, -0.08765916526317596, -0.005734433885663748, 0.2358156144618988, -0.11632755398750305, 0.027470162138342857, -0.03407159820199013, 0.11683248728513718, 0.059673912823200226, -0.03746326267719269, 0.052737537771463394, -0.35108304023742676, -0.06955541670322418, 0.007199870888143778, -0.08598905056715012, 0.06999976187944412, 0.06430719792842865, -0.36126279830932617, 0.19201408326625824, 0.02565838024020195, -0.09059121459722519, -0.0830012708902359, -0.02131248079240322, 0.2705634832382202, 0.2641581892967224, 0.2215796709060669, -0.2929759919643402, -0.12000513821840286, -0.16032585501670837, 0.2165050208568573, 0.17689742147922516, -0.0932028517127037, 0.05529708042740822, 0.14726877212524414, 0.004043730441480875, -0.30631792545318604, -0.10906769335269928, -0.21688657999038696, -0.11815889179706573, 0.1147637665271759, 0.08956827223300934, -0.04916024208068848, -0.2888050377368927, -0.07556688785552979, 0.13621166348457336, 0.06414134055376053, -0.05617291107773781, -0.1774969846010208, 0.1561017632484436, 0.11849349737167358, -0.21231050789356232, 0.1572716385126114, 0.22336117923259735, 0.3204939365386963, 0.109280526638031, 0.3591161072254181, -0.23693135380744934, 0.08729381859302521, -0.25198423862457275, -0.07388009130954742, 0.2349642664194107, 0.5438559651374817, -0.08737822622060776, 0.12961025536060333, -0.35230934619903564, 0.12530288100242615, 0.09973415732383728, -0.11206188797950745, -0.0013935372699052095, -0.2936199903488159, 0.21205706894397736, 0.09104801714420319, -0.10370494425296783, -0.15260927379131317, 0.02465367689728737, 0.08842865377664566, 0.45625588297843933, 0.17162422835826874, -0.12236366420984268, 0.10399707406759262, 0.0967712253332138, 0.6424432992935181, 0.003750814124941826, -0.020832741633057594, -0.10184435546398163, -0.6098886132240295, -0.10762286931276321, 0.27717146277427673, -0.18879839777946472, 0.11292749643325806, -0.2454385906457901, 0.07614529877901077, 0.15215010941028595, -0.5447380542755127, -0.46333640813827515, 0.11414074897766113, 0.21613848209381104, 0.04685748741030693, 0.07314838469028473, 0.13386251032352448, -0.02722390554845333, 0.33514779806137085, -0.05534670501947403, 0.09571778774261475, 0.9589411020278931, 0.007640643045306206, 0.008305279538035393, -0.11842034757137299, -0.063139408826828, 0.1568017303943634, 0.39574041962623596, 0.06260358542203903, -0.10207874327898026, -0.4966764748096466, 0.15435181558132172, 0.1513272523880005, -0.17707684636116028, -0.2674417197704315, -0.12713149189949036, 0.12561877071857452, 0.09925512224435806, -0.03867702558636665, -0.3295515179634094, -0.08062579482793808, -0.13425783812999725, 0.2806486189365387, 0.1644018441438675, -0.10600941628217697, 0.02414928749203682, 0.2805730998516083, 0.22224581241607666, 0.06599719822406769, -0.11541365832090378, -0.019950542598962784, 0.10701509565114975, 0.21564599871635437, 0.06262372434139252, -0.3969031274318695, -0.23418809473514557, -0.0022368456702679396, 0.19450460374355316, -0.18503329157829285, -0.12340850383043289, -0.27935105562210083, 0.2777695655822754, 0.012221758253872395, -0.13253170251846313, 0.10849717259407043, -0.1136295348405838, -0.05725051835179329, -0.13329245150089264, -0.058627307415008545, -0.07391303777694702, -0.06615553051233292, 0.043297216296195984, -0.010459363460540771, -0.06904899328947067, -0.16895891726016998, 0.13088160753250122, 0.12458746880292892, 0.12499221414327621, -0.08745976537466049, -0.020818941295146942, 0.08079426735639572, 0.10532305389642715, 0.02553217113018036, -0.14153730869293213, 0.2703748941421509, 0.27066850662231445, 0.11195243895053864, -0.22830462455749512, -0.10336757451295853, -0.13095586001873016, 0.2696320116519928, 0.015491733327507973, 0.06792739033699036, -0.1059243381023407, -0.0844699963927269, -0.15875618159770966, -0.00940571166574955, -0.07342460006475449, -0.06346546113491058, 0.09408969432115555, 0.01920408196747303, 0.13869325816631317, -0.05215054750442505, -0.09660834074020386, 0.0283452607691288, 0.009118271991610527, -0.1559535413980484, 0.11377819627523422, 0.16358688473701477, 0.2513276934623718, 0.08717409521341324, -0.15428100526332855, -0.0711679607629776, 0.03679068014025688, 0.01732362061738968, 0.13972042500972748, 0.13867837190628052, -0.014309336431324482, 0.10640712827444077, 0.09186194092035294, 0.061326488852500916, -0.05650854855775833, 0.04961659014225006, 0.1212567463517189, 0.10980764776468277, -0.09672795981168747, 0.12012007087469101, 0.12290585786104202, -0.02823931910097599, -0.27888309955596924, 0.21683369576931, 0.001566288061439991, -0.06535845249891281, 0.003892488544806838, 0.02300739288330078, -0.014023744501173496, -0.04732098430395126, 0.0767507329583168, 0.09667805582284927, 0.049164820462465286, 0.030376840382814407, 0.24915368854999542, -0.304193377494812, 0.029657185077667236, 0.0010303002782166004, 0.3000807762145996, -0.006467370316386223, -0.1667557954788208, -0.20651990175247192, 0.1811959594488144, 0.06126374006271362, 0.04220511019229889, 0.07483159005641937, -0.209876149892807, -0.06394317746162415, -0.08585765957832336, 0.03438420593738556, -0.25239792466163635, -0.031619489192962646, 0.07479186356067657, -0.3041086792945862, 0.20726017653942108, -0.03532478213310242, -0.00561559060588479, -0.0035632282961159945, 0.1840580850839615, -0.08540122956037521, -0.2776651382446289, 0.1221575140953064, 0.03426731005311012, 0.000922561448533088, 0.07892907410860062, -0.18499022722244263, -0.03877265751361847, 0.008464884012937546, -0.179809108376503, 0.10207121819257736, 0.036813098937273026, 0.27845242619514465, -0.11206591129302979, -0.1587623953819275, -0.12894777953624725, 0.16707691550254822, 0.03699935972690582, 0.02274872548878193, -0.27548694610595703, 0.06319223344326019, -0.09611724317073822, 0.2773010730743408, -0.07328405976295471, -0.3398279547691345, -0.21886074542999268, 0.054039254784584045, 0.04484381899237633, -0.18735918402671814, 0.026244474574923515, -0.1153278797864914, -0.11249703168869019, -0.20666936039924622, 0.061138350516557693, -0.13293638825416565, -0.20882917940616608, 0.1492210477590561, 0.5843533277511597, -0.01232413575053215, -0.13246192038059235, 0.2629792094230652, 0.061553552746772766, -0.24446354806423187, 0.049430083483457565, 0.06120295822620392, -0.0281838309019804, -0.19559220969676971, 0.05215681716799736, -0.0018426015740260482, -0.3969816267490387, 0.1957489401102066, -0.06244579702615738, -0.4264172911643982, 0.2107076644897461, -0.05706678330898285, 0.26605910062789917, -0.06882704794406891, -0.06953418999910355, 0.4466172754764557, 0.14500895142555237, 0.1848406195640564, -0.040993284434080124, -0.08572863042354584, -0.15119211375713348, 0.02242744341492653, 0.13528010249137878, 0.07763297110795975, -0.39045101404190063, 0.05938219279050827, 