{"version": "0.5.3", "metadata": {"date": {"year": 2024, "month": 10, "day": 1, "hour": 18, "minute": 7, "second": 55}, "loudness": -14.043723106384277, "gain": 0.8007745279904086, "training": {"settings": {"fit_cab": false, "ignore_checks": false}, "data": {"latency": {"manual": null, "calibration": {"algorithm_version": 1, "delays": [141, 141], "safety_factor": 4, "recommended": 137, "warnings": {"matches_lookahead": false, "disagreement_too_high": false}}}, "checks": {"version": 3, "passed": true}}, "validation_esr": 0.004373339216760824}}, "architecture": "WaveNet", "config": {"layers": [{"input_size": 1, "condition_size": 1, "head_size": 8, "channels": 16, "kernel_size": 3, "dilations": [1, 2, 4, 8, 16, 32, 64, 128, 256, 512], "activation": "Tanh", "gated": false, "head_bias": false}, {"input_size": 16, "condition_size": 1, "head_size": 1, "channels": 8, "kernel_size": 3, "dilations": [1, 2, 4, 8, 16, 32, 64, 128, 256, 512], "activation": "Tanh", "gated": false, "head_bias": true}], "head": null, "head_scale": 0.02}, "weights": [-0.27379003167152405, 0.7876034379005432, -0.7514399886131287, -0.9602245688438416, -0.6243956089019775, 0.304034948348999, -0.10685527324676514, 0.7891936898231506, -0.1625567525625229, 0.1501387357711792, -0.354227215051651, -0.20645493268966675, -1.1592694520950317, -0.7525501847267151, -0.5586012005805969, 0.20590247213840485, -0.1324569433927536, 0.31254884600639343, -0.3198501169681549, 0.09284547716379166, -0.19337394833564758, 0.23930507898330688, -0.18711452186107635, 0.3400481343269348, -0.13161270320415497, -0.14563892781734467, 0.3697233498096466, -0.24744060635566711, -0.2502010464668274, 0.21008428931236267, -0.1752610057592392, 0.2761732041835785, -0.3285885453224182, 0.025365518406033516, -0.2604159712791443, 0.12204807251691818, -0.15495462715625763, 0.2766135334968567, -0.17313291132450104, 0.16667433083057404, -0.15129995346069336, 0.17150402069091797, -0.061063509434461594, 0.012515893206000328, -0.3271377682685852, -0.0018785472493618727, -0.06776827573776245, 0.31820133328437805, -0.1634187251329422, -0.16695666313171387, 0.324336439371109, 0.028261421248316765, -0.1001240536570549, 0.2576269209384918, -0.014518256299197674, -0.24031777679920197, 0.26840800046920776, -0.22033995389938354, -0.25216057896614075, 0.1670190840959549, -0.02834121324121952, 0.20562317967414856, -0.3480946719646454, 0.11411916464567184, 0.16006705164909363, 0.05273856222629547, -0.1295127123594284, -0.11721969395875931, -0.03987604379653931, 0.17889909446239471, 0.03717762604355812, 0.07735327631235123, 0.017637575045228004, 0.26922979950904846, 0.25642019510269165, 0.0858631283044815, 0.17609895765781403, -0.00024619096075184643, -0.031247049570083618, -0.2325320690870285, -0.261119544506073, 0.1744007170200348, 0.24338732659816742, -0.029523011296987534, -0.03680025413632393, -0.1731785237789154, -0.15443924069404602, -0.02735457383096218, 0.18435674905776978, 0.026762839406728745, -0.02133910357952118, -0.058877211064100266, -0.01462120283395052, 0.10064525157213211, -0.007159933913499117, 0.02033255249261856, 0.02245541475713253, 0.170505553483963, 0.012302487157285213, -0.1332535296678543, 0.2854861617088318, 0.22763702273368835, -0.10174145549535751, 0.11497849971055984, -0.006190383806824684, -0.04198411479592323, 0.038192424923181534, 0.01421781349927187, -0.04802921414375305, -0.12605848908424377, -0.1803220510482788, 0.1384935975074768, 0.04463125392794609, -0.10503977537155151, 0.38539478182792664, -0.18285848200321198, 0.20761904120445251, -0.18527425825595856, 0.07355418056249619, -0.2157551795244217, 0.24528908729553223, 0.0642639547586441, -0.3214484751224518, 0.26458266377449036, -0.06928396224975586, -0.3271242678165436, 0.16501353681087494, -0.13193894922733307, 0.1851278841495514, -0.32958054542541504, 0.05394819751381874, -0.20614901185035706, 0.15648654103279114, -0.06221090257167816, 0.3508372902870178, -0.20740994811058044, 0.08210401982069016, -0.24140767753124237, 0.28585246205329895, 0.02153576724231243, 0.3571365773677826, -0.11318238824605942, 0.21116311848163605, -0.2430504858493805, 0.07119473814964294, -0.009163044393062592, -0.14438742399215698, 0.20204594731330872, -0.01571037247776985, -0.3595064580440521, 0.05574529245495796, -0.06686842441558838, -0.27870267629623413, 0.27304840087890625, 0.1372353583574295, -0.38369959592819214, 0.28406330943107605, -0.18625429272651672, 0.20385338366031647, -0.307314932346344, 0.146701842546463, 0.10260337591171265, -0.37338531017303467, -0.3211592733860016, -0.14767365157604218, 0.1678730547428131, 0.13233639299869537, 0.1902778446674347, -0.29222074151039124, 0.19013354182243347, 0.26363736391067505, -0.22830936312675476, 0.32041141390800476, 0.17215551435947418, -0.30671975016593933, -0.10001485049724579, -0.14489993453025818, 0.11792770028114319, 0.28488272428512573, -0.0008607510826550424, -0.21857842803001404, -0.22527484595775604, -0.03054250404238701, 0.20749516785144806, 0.25378963351249695, 0.17845143377780914, -0.25874072313308716, -0.20052388310432434, -0.23230649530887604, 0.2595326900482178, 0.2910849153995514, 0.21182303130626678, -0.2812918424606323, 0.1994922161102295, 0.028520118445158005, -0.2569577991962433, 0.1141429916024208, 0.1831158697605133, -0.25041574239730835, 0.19444794952869415, 0.13898096978664398, -0.07533930987119675, 0.08616325259208679, 0.03004344180226326, -0.253822386264801, -0.08793408423662186, -0.1665484756231308, 0.34522685408592224, 0.01663176342844963, -0.3109380304813385, -0.02158171497285366, -0.02174820750951767, 0.24030649662017822, -0.05547390133142471, -0.006843282841145992, -0.19999201595783234, -0.0874522477388382, -0.08002852648496628, -0.10451467335224152, -0.09028875827789307, -0.011125591583549976, -0.0744856745004654, 0.08058701455593109, -0.0020917111542075872, 0.08760219812393188, 0.036720164120197296, -0.07949251681566238, -0.24111969769001007, 0.008823243901133537, -0.014114761725068092, 0.2212173193693161, 0.09435535967350006, 0.034273162484169006, -0.0827261283993721, 0.13932913541793823, -0.0960598886013031, 0.2701335847377777, -0.13460879027843475, -0.056506697088479996, -0.16300489008426666, 0.08246268332004547, 0.10685589909553528, -0.26829054951667786, 0.02705473080277443, 0.06841122359037399, -0.3603741228580475, 0.12845370173454285, -0.12420064955949783, -0.2148587852716446, 0.003921193070709705, -0.0806976705789566, -0.2004661113023758, 0.1432207226753235, -0.05411563441157341, 0.12146114557981491, -0.10069213062524796, 0.15166811645030975, -0.18182000517845154, -0.15937058627605438, -0.27431538701057434, 0.19692344963550568, 0.20028188824653625, 0.23954135179519653, -0.17332959175109863, -0.06353429704904556, 0.12297135591506958, -0.32617637515068054, -0.07197252660989761, 0.3051488995552063, -0.24010954797267914, -0.17894378304481506, -0.2442844957113266, 0.12812155485153198, 0.13239941000938416, 0.13120383024215698, -0.3902684152126312, 0.05690871924161911, -0.2589351534843445, 0.26441246271133423, 0.1530022770166397, 0.20437180995941162, -0.35449886322021484, -0.1920197457075119, -0.057450078427791595, 0.2740209102630615, 0.21642416715621948, 0.1339765191078186, -0.22665178775787354, -0.13557547330856323, 0.1718350648880005, -0.35833197832107544, -0.05866895616054535, 0.21514014899730682, -0.2871514558792114, -0.14996397495269775, 0.07912089675664902, -0.1850140243768692, -0.2198137640953064, 0.23157678544521332, -0.32599207758903503, -0.18310967087745667, -0.17722956836223602, 0.1860642433166504, 0.10940392315387726, 0.3495105803012848, -0.34073173999786377, 0.027848748490214348, -0.14874593913555145, 0.3770091235637665, -0.0068977163173258305, 0.08075845241546631, -0.3425249755382538, 0.040969494730234146, 0.15183383226394653, -0.2675551474094391, 0.08574226498603821, 0.1420401632785797, -0.32241302728652954, 0.050771284848451614, -0.1991274505853653, 0.3103381097316742, 0.014086557552218437, 0.12382685393095016, -0.3014838695526123, 0.11257875710725784, -0.07106156647205353, 0.4035283029079437, 0.02526714839041233, 0.29688867926597595, -0.36043500900268555, -0.101658895611763, -0.3346763253211975, 0.43137887120246887, 0.08360294997692108, 0.1152031272649765, -0.2629415988922119, 0.10604432225227356, 0.35262346267700195, -0.17887663841247559, 0.10431227087974548, 0.16998006403446198, -0.3728223145008087, 0.10704750567674637, 0.28249549865722656, -0.4109017252922058, 0.12154446542263031, 0.27641311287879944, -0.24213898181915283, -0.09696179628372192, -0.19205926358699799, 0.25689056515693665, 0.09312227368354797, -0.040325410664081573, -0.17212776839733124, 0.1895279735326767, 0.16184304654598236, 0.1942170113325119, 0.01717032492160797, -0.20273838937282562, -0.21305161714553833, -0.046869173645973206, -0.2441195845603943, -0.36512771248817444, 0.16921643912792206, -0.015013284981250763, -0.10172498226165771, 0.18014879524707794, -0.035160914063453674, 0.14386534690856934, -0.08883621543645859, -0.16617663204669952, -0.1270417869091034, 0.0021902834996581078, 0.031247587874531746, 0.10641331225633621, -0.13347655534744263, 0.04389706254005432, -0.11617804318666458, 0.20952361822128296, 0.19193731248378754, 0.3504738211631775, -0.10700039565563202, -0.020393814891576767, -0.09452838450670242, 0.11886116117238998, 0.04671535640954971, -0.17445974051952362, 0.1464705467224121, -0.1524079591035843, -0.17760717868804932, 0.06802412867546082, -0.13752755522727966, -0.32775959372520447, -0.027964694425463676, -0.21097387373447418, -0.14673013985157013, 0.1571105420589447, 0.07653144001960754, 0.1535869985818863, 0.015007146634161472, 0.0547129325568676, -0.35884878039360046, -0.2641425132751465, 0.2007295787334442, 0.42009085416793823, 0.08742071688175201, 0.0754706934094429, -0.2413349747657776, -0.23877672851085663, 0.016399666666984558, -0.4398932158946991, -0.21265217661857605, 0.06094634160399437, -0.35339516401290894, -0.2951565086841583, 0.004779828246682882, 0.30115360021591187, 0.14989538490772247, -0.030106008052825928, -0.21234554052352905, -0.16558128595352173, -0.02906814031302929, 0.3564335107803345, 0.2533610165119171, 0.033506326377391815, -0.4670354425907135, -0.18689735233783722, -0.06303775310516357, 0.2605808973312378, 0.22072604298591614, -0.15403707325458527, -0.2892974019050598, -0.05984077975153923, -0.043381061404943466, -0.43786898255348206, -0.22951607406139374, -0.033782023936510086, -0.4665620028972626, -0.12024923413991928, -0.1971329301595688, -0.49634072184562683, -0.32986804842948914, -0.08246153593063354, -0.24392041563987732, -0.3183162808418274, 0.16540668904781342, 0.28186678886413574, 0.21286508440971375, -0.041015323251485825, -0.2582949101924896, 0.26685380935668945, 0.22344432771205902, 0.3082827627658844, -0.0025765481404960155, -0.24138855934143066, -0.05217011645436287, 0.07950462400913239, -0.07817424088716507, -0.28884533047676086, 0.03404645249247551, -0.28243139386177063, -0.2212599813938141, 0.10938757658004761, 0.020691262558102608, 0.21007448434829712, -0.005176201928406954, -0.09232460707426071, -0.25878483057022095, -0.011450001038610935, 0.0991724357008934, 0.23580771684646606, 0.07002407312393188, -0.037321362644433975, -0.1778651922941208, 0.1564885675907135, -0.021229369565844536, 0.033741820603609085, -0.00866901595145464, -0.2087908685207367, -0.08838687092065811, -0.0225755013525486, -0.20579272508621216, -0.28018978238105774, 0.16077379882335663, -0.1618303656578064, -0.06060856208205223, 0.1613568663597107, -0.06727563589811325, -0.16731654107570648, 0.030408203601837158, -0.17366023361682892, -0.1483391672372818, 0.14400310814380646, 0.03178369998931885, 0.28370654582977295, -0.11165962368249893, -0.5870510935783386, -0.006917869206517935, 0.25485703349113464, 0.6311944127082825, -0.16443485021591187, 0.03480478748679161, -0.4213152825832367, 0.09185975044965744, 0.18581770360469818, -0.5760998725891113, 0.05883215740323067, 0.12642697989940643, -0.5389268398284912, 0.083176389336586, 0.030820246785879135, 0.5617262125015259, -0.0538538359105587, -0.13398678600788116, -0.42431890964508057, 0.10313127189874649, 0.047976069152355194, 0.49856051802635193, 0.0732102021574974, -0.0839889645576477, -0.4235400855541229, -0.012714745476841927, 0.15561869740486145, 0.34315890073776245, -0.0922519713640213, -0.15078090131282806, -0.34304922819137573, -0.009786554612219334, 0.07570694386959076, -0.5551213026046753, 0.1573038250207901, 0.21161119639873505, -0.6049405932426453, -0.10164706408977509, -0.043313782662153244, -0.4935486912727356, -0.018548274412751198, -0.024660496041178703, -0.5465772747993469, 0.0523209273815155, -0.0010239428374916315, 0.5192452073097229, -0.09056859463453293, -0.1827642172574997, -0.13973022997379303, 0.35551005601882935, 0.006093678530305624, 0.1306096464395523, -0.27201375365257263, 0.05385040491819382, -0.24366530776023865, 0.08686467260122299, 0.2296455353498459, -0.2055140882730484, 0.2533365488052368, 0.07495571672916412, -0.16261683404445648, 0.1848520040512085, 0.175798699259758, 0.1223045140504837, -0.35730257630348206, -0.160869762301445, -0.2058221995830536, 0.2793220579624176, -0.039899397641420364, 0.24571649730205536, -0.2554897367954254, -0.10915611684322357, -0.012312745675444603, 0.29221686720848083, 0.18664845824241638, 0.1883053481578827, -0.25941556692123413, -0.17042045295238495, -0.1359390765428543, 0.33722251653671265, 0.031185384839773178, -0.23871874809265137, 0.28840047121047974, 0.2330130934715271, -0.15570586919784546, 0.10452214628458023, -0.04365581274032593, -0.08122685551643372, 0.20827481150627136, 0.009537680074572563, -0.0899604856967926, 0.27870580554008484, 0.19804033637046814, 0.2674824297428131, -0.2257147580385208, -0.18318714201450348, -0.2590990960597992, 0.0297920610755682, 0.2334873229265213, 0.23375485837459564, 0.01942623406648636, -0.014614411629736423, -0.034257207065820694, -0.018733838573098183, 0.019189776852726936, -0.2276403158903122, -0.2493981271982193, 0.2806941568851471, -0.23092539608478546, -0.21106000244617462, 0.22714723646640778, 0.09065451472997665, 0.06312023103237152, -0.16747687757015228, -0.15369226038455963, -0.23750628530979156, 0.31313005089759827, 0.10250276327133179, 0.19651275873184204, -0.02052433416247368, -0.08108340948820114, -0.11103961616754532, 0.2953428626060486, 0.1601151078939438, 0.05674438551068306, -0.01891486905515194, -0.11997529119253159, -0.27804192900657654, 0.11545029282569885, -0.2682707905769348, -0.02043301612138748, 0.11504089832305908, -0.3023783564567566, -0.15721049904823303, 0.23467454314231873, -0.13286331295967102, -0.10029999166727066, 0.16132700443267822, -0.11381390690803528, -0.18480263650417328, 0.09274449199438095, 0.022325659170746803, 0.02425730973482132, -0.12608037889003754, -0.16600856184959412, 0.08365418016910553, -0.13743405044078827, 0.050929415971040726, -0.18463069200515747, 0.2683360278606415, -0.125837042927742, 0.20498785376548767, -0.24101431667804718, -0.07762940227985382, 0.16677641868591309, -0.18933182954788208, 0.07507267594337463, -0.013300031423568726, -0.2597211003303528, -0.018264705315232277, -0.05963761359453201, 0.26022469997406006, -0.11329144984483719, 0.144923597574234, -0.17307153344154358, 0.008464042097330093, 0.017056599259376526, 0.011007324792444706, -0.04614122211933136, 0.21053025126457214, -0.16795271635055542, 0.162846639752388, -0.11922387033700943, 0.2397393435239792, -0.18718700110912323, 0.05946767330169678, -0.16000603139400482, -0.010135490447282791, 0.13099971413612366, -0.03180689364671707, -0.06310559064149857, 0.08271551132202148, -0.028532367199659348, -0.07776268571615219, 0.21777962148189545, -0.22212839126586914, -0.05646621435880661, 0.08009805530309677, -0.06345875561237335, 0.13868138194084167, -0.11567030102014542, 0.01636979728937149, -0.08320558071136475, -0.12654252350330353, 0.09154073894023895, 0.0077491141855716705, 0.18908660113811493, 0.07140543311834335, -0.08204684406518936, -0.23312610387802124, 0.16390478610992432, -0.20190556347370148, -0.06439261883497238, 0.08819039165973663, -0.1570093035697937, -0.039342962205410004, -0.05583156645298004, 0.11905514448881149, 0.002362265484407544, -0.08527890592813492, -0.05993221327662468, 0.03469028323888779, 0.019837941974401474, 0.1855708360671997, 0.07937654107809067, -0.1318167746067047, -0.1993156373500824, -0.21611911058425903, 0.23403766751289368, 0.04219600930809975, 0.09663178026676178, -0.027240203693509102, 0.020553365349769592, 0.04020353779196739, 0.19230026006698608, -0.19394813477993011, -0.11487188935279846, -0.01218570489436388, -0.1755654364824295, -0.061728786677122116, 0.20152822136878967, -0.2085220217704773, -0.006938355043530464, -0.006718398537486792, -0.11629168689250946, 0.02087152935564518, 0.034278105944395065, 0.09635835886001587, -0.0147994514554739, 0.03853558748960495, 0.06911450624465942, -0.24502567946910858, -0.4357324242591858, -0.13929340243339539, 0.04870108142495155, 0.4254687428474426, 0.15224458277225494, -0.19676128029823303, -0.3300091326236725, 0.16197019815444946, -0.06528563052415848, -0.48570510745048523, 0.0229507964104414, -0.20890921354293823, -0.5305679440498352, -0.048253659158945084, 0.253031849861145, 0.5117684006690979, 0.07654663920402527, -0.10886191576719284, -0.44245466589927673, 0.06743334233760834, 0.09306133538484573, 0.2908763885498047, 0.07769814878702164, -0.06019243597984314, -0.5264080762863159, 0.08394461870193481, 0.19138258695602417, 0.2650336027145386, 0.006053643301129341, -0.03126877546310425, -0.49976328015327454, 0.002697903895750642, -0.10540162026882172, -0.5342726111412048, 0.11578387767076492, -0.08391505479812622, -0.31692683696746826, -0.054528262466192245, -0.01646810583770275, -0.48886406421661377, 0.19037100672721863, -0.2814720869064331, -0.513900876045227, 0.020843127742409706, 0.1436985731124878, 0.38247251510620117, -0.22622190415859222, -0.18008677661418915, -0.10057856142520905, -0.21994321048259735, 0.074029840528965, -0.1351403445005417, -0.17927727103233337, -0.0008084960281848907, 0.5462629199028015, 0.15192003548145294, -0.1878860592842102, 0.10782856494188309, -0.05264238640666008, -0.15004009008407593, 0.10680209845304489, -0.003164589172229171, 0.5569011569023132, -0.39470401406288147, 0.6168030500411987, -0.547234296798706, -0.017697328701615334, 1.0203903913497925, 1.008270025253296, -0.6200105547904968, 0.37025466561317444, 0.05075301602482796, -0.5292838215827942, -0.4346168339252472, 0.13296541571617126, -0.5744360089302063, 0.10632477700710297, 0.8346309065818787, -0.16609728336334229, 0.16188952326774597, -0.011043106205761433, 0.05214479938149452, 0.2206585556268692, -0.04063038527965546, 0.17779375612735748, -0.06292931735515594, 0.14412374794483185, 0.03135908767580986, 0.18798404932022095, -0.09098802506923676, 0.09791486710309982, -0.005112023092806339, 0.20411600172519684, 0.008539021015167236, -0.13870887458324432, 0.02416144497692585, -0.25846242904663086, 0.24348144233226776, 0.019482525065541267, -0.13208353519439697, -0.1417190134525299, 0.08488892018795013, -0.29161420464515686, -0.007030382752418518, -0.19371800124645233, 0.0748988538980484, 0.043636493384838104, -0.14495620131492615, 0.1049511507153511, 0.12779341638088226, 0.0027548556681722403, 0.09941331297159195, -0.05503623187541962, 0.28224390745162964, -0.1777767390012741, -0.22315146028995514, 0.0063276044093072414, -0.2415238320827484, -0.16503261029720306, -0.21621781587600708, -0.06461450457572937, -0.12562023103237152, 0.13944163918495178, 0.12845464050769806, 0.020347928628325462, -0.08975668996572495, 0.31710362434387207, -0.14796021580696106, -0.030666973441839218, -0.2013583779335022, 0.02559015527367592, -0.04021523892879486, -0.013560982421040535, 0.277725487947464, -0.3953881859779358, 0.04347774013876915, 0.04465450346469879, 0.010383992455899715, 0.2473490834236145, 0.3204074501991272, 0.16014273464679718, -0.09621432423591614, -0.3005213737487793, -0.24734540283679962, -0.23375453054904938, 0.20408807694911957, 0.10568353533744812, 0.22506102919578552, 0.1497093141078949, -0.30474087595939636, 0.1644390970468521, 0.2575039863586426, -0.13890783488750458, 0.17872430384159088, -0.05792193487286568, 0.05074917897582054, -0.16300193965435028, 0.09422685950994492, -0.2037353813648224, -0.006218315102159977, 0.1801721304655075, 0.06920241564512253, 0.2394125759601593, 0.3951708972454071, 0.4185132682323456, 0.09416672587394714, 0.08376947790384293, -0.018982529640197754, -0.057919155806303024, -0.1884082853794098, -0.08262032270431519, -0.3444412350654602, 0.12479741126298904, 0.014208178967237473, -0.1687878966331482, 0.08644407242536545, 0.19067975878715515, 0.06373722851276398, -0.22461681067943573, -0.3963310420513153, -0.120635487139225, 0.15986649692058563, 0.11114874482154846, -0.28335511684417725, -0.5573987364768982, 0.28646987676620483, 0.10223502665758133, -0.07800396531820297, 0.2744544744491577, -0.48951539397239685, 0.35552021861076355, 0.1702842116355896, 0.2943548560142517, -0.17928951978683472, -0.29475000500679016, 0.13851416110992432, 0.21986442804336548, 0.034429341554641724, -0.0741831362247467, -0.2848935127258301, 0.3473220467567444, -0.1072077602148056, 0.023606475442647934, -0.2190094143152237, -0.07576470077037811, 0.04009190574288368, -0.17855216562747955, 0.03886018320918083, -0.3512890636920929, -0.13072262704372406, 0.015821829438209534, -0.21221162378787994, -0.3330342173576355, -0.14927825331687927, -0.19176249206066132, -0.28998711705207825, -0.2371281236410141, 0.256687194108963, -0.05141487717628479, -0.05323098972439766, -0.03226494789123535, -0.06813988089561462, -0.16097353398799896, 0.07630855590105057, 0.32136398553848267, -0.3049933612346649, -0.21582557260990143, 0.05391354113817215, 0.2371639907360077, -0.16647478938102722, 0.00956141296774149, 0.221388578414917, 0.17842872440814972, 0.09170255810022354, 0.17676885426044464, 0.09369345009326935, -0.0475187711417675, -0.04535575211048126, -0.02446437068283558, 0.3770591616630554, -0.3688315451145172, 0.2799883782863617, -0.28687769174575806, -0.31453004479408264, -0.09684266895055771, -0.24816307425498962, 0.05761855095624924, -0.2937082052230835, -0.38524970412254333, 0.08393573760986328, -0.15128371119499207, 0.2197979986667633, -0.05760280787944794, 0.3639121353626251, 0.24022363126277924, -0.14444167912006378, 0.2755844295024872, -0.0724521353840828, 0.1083279475569725, -0.10353348404169083, 0.00358837703242898, 0.15095829963684082, -0.08801887929439545, -0.12301365286111832, -0.07136473804712296, -0.26140379905700684, 0.019711680710315704, 0.2482851892709732, -0.1223134845495224, -0.11913583427667618, -0.09150554984807968, 0.11228474974632263, 0.036147743463516235, 0.16882948577404022, -0.09613697975873947, -0.0902508869767189, 0.024996047839522362, -0.0854843407869339, 0.253557413816452, -0.14904813468456268, -0.1547330915927887, 0.0769323855638504, 0.14670564234256744, -0.022617923095822334, -0.1680222898721695, 0.39939457178115845, 0.004443076439201832, -0.09072522073984146, -0.17288963496685028, 0.22219319641590118, -0.1240789070725441, 0.185835599899292, 0.15306083858013153, -0.020994242280721664, 0.06661322712898254, -0.1695723831653595, -0.24711409211158752, -0.020717907696962357, -0.24030518531799316, 0.04740488529205322, -0.34554651379585266, 0.21235114336013794, -0.45579472184181213, 0.18654242157936096, 0.12021780014038086, -0.224367156624794, 0.26914066076278687, 0.13092952966690063, 0.2856479287147522, 0.29452821612358093, -0.3235588073730469, 0.20947681367397308, -0.07274466753005981, -0.2282738834619522, 0.22670619189739227, -0.13464106619358063, -0.01873893477022648, -0.06927188485860825, 0.5769371390342712, 0.11587759107351303, 0.17287378013134003, -0.04150985926389694, -0.14455735683441162, 0.2598555088043213, 0.1726851463317871, 0.15633603930473328, -0.17456082999706268, -0.189185231924057, 0.18345868587493896, -0.24287675321102142, 0.18386927247047424, 0.1947803646326065, 0.00881419237703085, 0.07802236080169678, 0.2688203454017639, -0.07930633425712585, 0.1616371124982834, -0.26819729804992676, -0.12638475000858307, 0.23128542304039001, -0.08537235856056213, 0.21971142292022705, -0.09186718612909317, -0.037247493863105774, -0.042922038584947586, -0.33406540751457214, -0.027111783623695374, -0.044548582285642624, 0.04787277430295944, -0.08209895342588425, 0.09238044917583466, 0.0022218681406229734, -0.22456221282482147, 0.01895291358232498, -0.1255679726600647, 0.3278317451477051, -0.1866362988948822, -0.11331059783697128, 0.205316960811615, -0.172136589884758, -0.05511307343840599, 0.11973302811384201, -0.135186105966568, -0.11841491609811783, -0.1606835424900055, 0.20327378809452057, -0.0100327730178833, -0.1534961760044098, -0.1596520096063614, -0.08459610491991043, 0.33463054895401, 0.17332260310649872, 0.007123306393623352, -0.307640939950943, -0.14051692187786102, 0.028409626334905624, 0.13114826381206512, -0.024089043959975243, 0.09616238623857498, -0.27964314818382263, -0.3032485544681549, -0.19808034598827362, 0.1496850848197937, -0.2938869893550873, -0.2759184241294861, 0.0744485855102539, -0.6337864995002747, -0.3016469478607178, -0.031019149348139763, -0.28367549180984497, -0.11688650399446487, -0.0036629398819059134, -0.43398717045783997, 0.2492908090353012, -0.6734840273857117, 0.1570432484149933, -0.10998605191707611, -0.32644742727279663, 0.002687726402655244, 0.015056333504617214, 0.11652985215187073, -0.1549944132566452, 0.09259229898452759, 0.12761300802230835, -0.10099032521247864, -0.07166209816932678, 0.08422549813985825, 0.052935607731342316, -0.045870840549468994, 0.0006259284564293921, -0.2041461318731308, 0.01775752194225788, 0.05428345128893852, -0.2424200177192688, -0.06345540285110474, -0.11984597146511078, 0.15440766513347626, -0.11864999681711197, -0.01376882754266262, 0.10154880583286285, -0.057820919901132584, -0.052071306854486465, -0.15163910388946533, -0.02975858561694622, -0.011419059708714485, 0.15641680359840393, 0.036426838487386703, -0.13068796694278717, -0.11358635127544403, 0.07902169972658157, -0.016646606847643852, 0.16434124112129211, -0.0009109355742111802, 0.2149009108543396, -0.8262755274772644, -0.3241472840309143, 0.2585311233997345, -0.19230617582798004, -0.03183792158961296, -0.08493503928184509, -0.34579744935035706, -0.32155174016952515, -0.30260902643203735, 0.03323579207062721, 0.08662085980176926, -0.15276165306568146, -0.03173382580280304, -0.24315907061100006, 0.12521857023239136, 0.09178929775953293, 0.309528112411499, -0.22845526039600372, 0.04532036557793617, 0.24662473797798157, -0.04082018509507179, 0.1969887912273407, 0.13883082568645477, -0.14127200841903687, -0.041275620460510254, -0.3209478259086609, 0.024541115388274193, -0.09581384807825089, -0.08117453753948212, 0.3438974618911743, 0.21833519637584686, -0.02606867626309395, -0.24457722902297974, -0.15442408621311188, -0.11853503435850143, 0.3518281579017639, 0.070838563144207, 0.05151837691664696, -0.19937698543071747, -0.10768699645996094, -0.06479361653327942, 0.0013905970845371485, -0.14143666625022888, -0.004802823532372713, -0.14257413148880005, 0.2802172303199768, 0.1016584113240242, 0.1309426724910736, -0.26400837302207947, -0.18367135524749756, -0.6116941571235657, -0.08333349227905273, 0.08192570507526398, -0.07168912887573242, 0.26031365990638733, -0.08430273085832596, 0.4150923490524292, -0.1264224499464035, 0.16373048722743988, 0.33471885323524475, -0.11445632576942444, -0.07177693396806717, -0.09483789652585983, -0.03115200251340866, -0.0020878578070551157, 0.19406138360500336, 0.0907992422580719, -0.2717183232307434, -0.11993051320314407, 0.09927373379468918, 0.16812090575695038, -0.07748250663280487, 0.06641373038291931, -0.06853381544351578, -0.1539158672094345, -0.09865179657936096, 0.1829392910003662, 0.003544168546795845, 0.0675325021147728, 0.05540979653596878, 0.010853616520762444, -0.15256322920322418, 0.130076602101326, 0.18831078708171844, 0.14310112595558167, -0.2318272739648819, 0.07516376674175262, 0.11349426209926605, -0.043698348104953766, 0.03437500074505806, 0.18217286467552185, -0.3323618471622467, 0.04932492598891258, 0.20596888661384583, 0.09315330535173416, 0.15892274677753448, 0.38993459939956665, 0.07816285640001297, -0.25488653779029846, 0.10388430207967758, -0.2637726962566376, -0.15330985188484192, -0.18602709472179413, 0.28096118569374084, 0.11288641393184662, 0.11207874119281769, 0.29967769980430603, 0.2615950405597687, -0.12870986759662628, -0.1640562266111374, 0.22985875606536865, 0.11380515247583389, 0.27151885628700256, -0.3415587246417999, 0.07615889608860016, 0.22957314550876617, -0.19966770708560944, 0.01354772038757801, 0.025937670841813087, 0.12826769053936005, -0.02733534947037697, 0.09543601423501968, 0.11920654028654099, -0.22814370691776276, 0.09189364314079285, 0.1383911520242691, 0.22562167048454285, -0.09045515954494476, -0.25440746545791626, -0.15575957298278809, 0.06243355944752693, 0.2632816433906555, 0.22089169919490814, 0.13388879597187042, -0.2912406921386719, -0.19708037376403809, -0.20224711298942566, 0.18914742767810822, 0.25197380781173706, 0.15159113705158234, -0.24576692283153534, 0.14939270913600922, -0.06594020128250122, 0.13456591963768005, 0.24995183944702148, 0.18010349571704865, 0.43179741501808167, 0.12319827079772949, 0.16377435624599457, -0.0740056186914444, 0.15234854817390442, -0.04519326984882355, 0.18714886903762817, 0.03160342574119568, 0.0067979018203914165, 0.16654269397258759, -0.06973692774772644, 0.37839066982269287, 0.005670946557074785, -0.09662631899118423, -0.28616562485694885, 0.04383257403969765, -0.04845000430941582, -0.2922099530696869, 0.2281724214553833, -0.12703953683376312, -0.45475664734840393, 0.0055058421567082405, -0.159719318151474, 0.7365001440048218, 0.0025972493458539248, 0.1637500375509262, 0.3659546971321106, -0.33699244260787964, 0.058573197573423386, -0.32750457525253296, 0.30273008346557617, 0.16545435786247253, -0.005101723596453667, -0.2466972917318344, 0.09539615362882614, -0.12864883244037628, 0.19048748910427094, 0.11869915574789047, 0.052653718739748, -0.18879863619804382, 0.06312357634305954, -0.14942669868469238, 0.33580848574638367, -0.3697807788848877, -0.4696526825428009, -0.12013626843690872, -0.009690430946648121, -0.3203563094139099, 0.20385441184043884, 0.04671263322234154, -0.18120871484279633, 0.12537947297096252, 0.2332688570022583, 0.03894517198204994, -0.6273307204246521, -0.08135906606912613, -0.15208567678928375, -0.46783602237701416, 0.04939506947994232, 0.08485672622919083, 0.17145119607448578, -0.0018631707644090056, 0.12059490382671356, -0.26119759678840637, 0.06690547615289688, 0.0061894613318145275, 0.049729038029909134, -0.012645270675420761, 0.02519795298576355, -0.12906266748905182, -0.031655967235565186, -0.07198221981525421, 0.1861582100391388, 0.13707928359508514, 0.005102936178445816, 0.21466435492038727, 0.24699260294437408, -0.010634399019181728, -0.07237564027309418, -0.1941833198070526, 0.0012752605834975839, 0.04845987632870674, 0.10088679939508438, -0.02157062105834484, -0.23864448070526123, -0.032549068331718445, -0.07323984801769257, -0.01984470896422863, 0.1953841894865036, -0.03425167500972748, -0.021918559446930885, -0.19537952542304993, 0.03326403349637985, 0.005583642981946468, -0.03369142860174179, -0.12329969555139542, 0.20135505497455597, 0.03556494042277336, 0.05126115679740906, -0.13791321218013763, -0.037555646151304245, 0.01309394370764494, -0.15522687137126923, -0.31625691056251526, -0.12378785014152527, -0.026717044413089752, -0.10035073757171631, 0.053291190415620804, -0.01612943969666958, 0.03669923171401024, -0.11216461658477783, -0.010958518832921982, -0.17707550525665283, -0.0447932668030262, 0.13426758348941803, -0.039850808680057526, -0.10244458168745041, -0.1348324865102768, 0.02367490902543068, -0.04732871800661087, -0.07035664469003677, 0.16017109155654907, 0.015383286401629448, -0.01168886199593544, -0.049826424568891525, -0.10959113389253616, 0.07533522695302963, 0.12960581481456757, 0.018923267722129822, -0.00597563199698925, -0.04076782241463661, -0.16763392090797424, 0.17767980694770813, 0.16187895834445953, 0.13204456865787506, -0.059053514152765274, 0.016466239467263222, -0.17506568133831024, 0.047459229826927185, -0.11505261808633804, -0.1394791603088379, -0.07143281400203705, -0.01043917890638113, 0.16156506538391113, 0.13428115844726562, -0.146927610039711, 0.050376471132040024, -0.0002591332304291427, -0.2628333568572998, 0.08093202859163284, -0.07735443860292435, -0.007167939096689224, 0.026081502437591553, -0.061998993158340454, -0.02692599408328533, 0.20076565444469452, -0.04537834972143173, -0.0005316728493198752, -0.268419474363327, -0.1689036339521408, 0.28142547607421875, -0.03424346446990967, 0.05605274438858032, 0.03032742440700531, 0.041523534804582596, -0.06048857048153877, 0.15612070262432098, 0.13306736946105957, -0.025290025398135185, -0.22095976769924164, 0.14138206839561462, -0.02341432310640812, 0.19702082872390747, 0.05318782851099968, -0.027763456106185913, -0.287676602602005, -0.19566062092781067, 0.12192840874195099, 0.09971833974123001, -0.18020758032798767, 0.020358355715870857, -0.14936785399913788, 0.11272943764925003, -0.10078686475753784, 0.29252490401268005, -0.12131381779909134, -0.14819931983947754, 0.059468019753694534, 0.19415056705474854, 0.20485372841358185, -0.09777609258890152, 0.0756043940782547, -0.15635688602924347, 0.07989475876092911, -0.22369438409805298, -0.3153277635574341, -0.3072967827320099, 0.4235421121120453, -0.33844366669654846, -0.11126100271940231, -0.021382037550210953, 0.002932291477918625, 0.13754864037036896, 0.15896344184875488, 0.07619132846593857, -0.11128298938274384, 0.08210297673940659, 0.010439599864184856, -0.13046446442604065, -0.03150719776749611, -0.04212255775928497, -0.08507062494754791, 0.06364104896783829, -0.04351514205336571, 0.0997118130326271, 0.06587783247232437, 0.007424387615174055, -0.10624891519546509, -0.0959649458527565, 0.1007203683257103, 0.03540017083287239, 0.0020980872213840485, 0.10586889833211899, -0.1524813175201416, -0.1344243735074997, 0.07319166511297226, -0.040353965014219284, 0.16025349497795105, -0.029141295701265335, -0.10807894170284271, -0.15039293467998505, 0.0028515378944575787, -0.09667173027992249, 0.05068732798099518, 0.07635144144296646, -0.04565311223268509, -0.015248030424118042, -0.1485946774482727, 0.20504097640514374, 0.2812933325767517, 0.367113322019577, -0.17278440296649933, 0.010535954497754574, -0.08312071114778519, -0.29202166199684143, -0.2699604630470276, 0.11312223970890045, -0.1465650498867035, -0.16445741057395935, -0.1883409470319748, 0.0005974940722808242, 0.24997387826442719, -0.19684118032455444, -0.16477973759174347, -0.08283140510320663, -0.008829373866319656, -0.17799387872219086, -0.21995516121387482, 0.20027945935726166, -0.2154998481273651, -0.20068825781345367, 0.13429082930088043, 0.012540102005004883, 0.22856542468070984, -0.2794143259525299, 0.185963973402977, 0.3391544222831726, -0.21807657182216644, -0.12411616742610931, -0.020044278353452682, 0.30937767028808594, 0.12309751659631729, 0.27269527316093445, -0.059791963547468185, -0.1258879154920578, -0.1615152806043625, 0.3230591416358948, 0.06693733483552933, 0.010540028102695942, -0.10975706577301025, -0.05911041051149368, -0.2718353569507599, -0.009207907132804394, -0.14655107259750366, -0.28854790329933167, 0.02235003374516964, -0.07635784894227982, 0.05282285436987877, 0.29736655950546265, -0.048526063561439514, -0.13506801426410675, 0.07585293054580688, -0.16381871700286865, 0.5462469458580017, -0.3349475562572479, 0.023550257086753845, -0.09462907165288925, -0.13998617231845856, -0.010216830298304558, 0.06783302873373032, -0.09040375798940659, 0.04113178327679634, -0.14571325480937958, -0.1703869104385376, -0.01661275513470173, -0.038697920739650726, 0.11324680596590042, -0.07718418538570404, -0.16243526339530945, -0.0829172134399414, 0.2057359218597412, 0.2533629834651947, -0.04713601619005203, -0.0801834687590599, 0.42794251441955566, 0.02800576388835907, 0.06169074773788452, -0.2355164736509323, 0.10550499707460403, 0.007701934315264225, 0.3329034149646759, 0.06251733005046844, 0.22285667061805725, -0.3147832751274109, -0.10177991539239883, -0.281650573015213, 0.17921411991119385, -0.017525633797049522, 0.16803862154483795, -0.09043960273265839, -0.07248537987470627, -0.2248493880033493, -0.29724663496017456, 0.05167517811059952, 0.6597203016281128, 0.16788439452648163, 0.36165934801101685, 0.4134599566459656, 0.1270293891429901, 0.03221467509865761, -0.47381195425987244, 0.31458625197410583, -0.03627645596861839, -0.2272450178861618, 0.13181334733963013, 0.09475602209568024, -0.21563678979873657, 0.12136203050613403, -0.09440979361534119, 0.2510432302951813, 0.04340043291449547, 0.03829966485500336, 0.1647106558084488, -0.03483490273356438, -0.11340537667274475, -0.0005689751706086099, 0.023563344031572342, -0.026956556364893913, 0.12754130363464355, 0.02737489715218544, -0.05878196656703949, -0.1024065911769867, -0.006171501707285643, 0.1552458256483078, 0.009599858894944191, -0.16930630803108215, -0.040930960327386856, -0.14310021698474884, -0.05556783080101013, 0.03693286329507828, -0.013192905113101006, -0.0112344054505229, 0.07857871055603027, -0.049132224172353745, 0.10167160630226135, -0.12100931257009506, 0.2469479739665985, 0.03630215302109718, 0.02908703312277794, 0.10239388048648834, -0.06112540140748024, 0.06647128611803055, 0.10896361619234085, -0.1610698401927948, 0.10502273589372635, -0.016887780278921127, -0.17798319458961487, -0.17639470100402832, 0.11569315195083618, 0.30736294388771057, 0.172167107462883, -0.0036984931211918592, 0.1418997347354889, 0.02400580607354641, -0.1441039890050888, -0.022523846477270126, 0.07229729741811752, 0.2176501303911209, 0.174637570977211, 0.15125083923339844, 0.15501677989959717, -0.23433470726013184, -0.07613086700439453, 0.06477193534374237, 0.010328314267098904, -0.05285452678799629, -0.22455032169818878, 0.0012415683595463634, 0.16880300641059875, -0.14960315823554993, 0.10488379001617432, 0.027091607451438904, 0.012718446552753448, 0.07218259572982788, 0.004347032867372036, 0.11325836181640625, -0.0010212522465735674, -0.020919963717460632, 0.06513283401727676, -0.10843177884817123, 0.024081991985440254, 0.03881349787116051, -0.12065484374761581, 0.08930543810129166, -0.00966896302998066, -0.09958676248788834, -0.08231961727142334, 0.03630269691348076, 0.1684383749961853, -0.19450975954532623, -0.20275215804576874, -0.26802265644073486, -0.14164897799491882, 0.07826289534568787, -0.032134123146533966, -0.22536638379096985, 0.2101723551750183, 0.5087637901306152, 0.055886708199977875, -0.017409685999155045, -0.08828776329755783, 0.05488098785281181, 0.027024129405617714, -0.03709373250603676, 0.004013612400740385, -0.1683129072189331, 0.2282964587211609, -0.15002386271953583, -0.05786959081888199, 0.2353479415178299, -0.03715270385146141, -0.09151475131511688, -0.09475570917129517, 0.016255361959338188, 0.020909110084176064, 0.00281297299079597, -0.009492150507867336, 0.16696040332317352, -0.20132578909397125, -0.01584397442638874, -0.0008535400265827775, 0.17918962240219116, 0.02775418944656849, -0.05757678672671318, -0.1567041575908661, -0.09002646803855896, 0.02377087064087391, 0.003284693229943514, -0.14569886028766632, -0.08038533478975296, -0.20678584277629852, 0.10138017684221268, -0.07468096166849136, 0.24659010767936707, -0.008196167647838593, 0.0632721558213234, 0.10930454730987549, -0.014519396238029003, 0.02759961411356926, -0.16875870525836945, -0.14799942076206207, -0.0745144784450531, 0.007654124870896339, -0.10214240103960037, 0.05074361339211464, -0.17141401767730713, -0.24662907421588898, 0.024073472246527672, -0.22338391840457916, -0.009414996020495892, -0.26180580258369446, -0.015221321024000645, -0.5137338638305664, 0.11524774879217148, 0.10461858659982681, 0.4475642740726471, 0.08329419791698456, 0.07495789974927902, 0.10852672159671783, 0.25470131635665894, 0.2545887529850006, 0.057706013321876526, 0.278546005487442, 0.2249467968940735, 0.16053521633148193, -0.07835986465215683, -0.23716023564338684, -0.114552803337574, 0.012607542797923088, 0.1075618639588356, -0.1767023354768753, 0.056307364255189896, -0.288466215133667, -0.16735798120498657, -0.10537503659725189, 0.012732656672596931, 0.06378909945487976, -0.014125814661383629, 0.23082473874092102, 0.12920495867729187, 0.11455991119146347, 0.17193973064422607, 0.18709562718868256, 0.15522092580795288, 0.4439550042152405, 0.14409567415714264, 0.3993838429450989, 0.21254581212997437, 0.19478954374790192, 0.1291750818490982, 0.01739330030977726, 0.0011985988821834326, 0.01649167574942112, 0.0396333746612072, -0.21683651208877563, 0.15034542977809906, 0.17829248309135437, 0.21873939037322998, 0.2047409564256668, 0.007680121343582869, -0.022794874384999275, 0.025193925946950912, -0.14999152719974518, 0.34107962250709534, 0.24079102277755737, 0.1576356440782547, -0.13879017531871796, -0.027840711176395416, 0.1261569708585739, 0.1123817041516304, 0.024539439007639885, 0.029889211058616638, 0.17203441262245178, -0.36779776215553284, -0.42041778564453125, 0.3364882469177246, 0.40528127551078796, -0.4224933385848999, -0.07366111874580383, -0.8585656881332397, -0.3410570025444031, -0.32443803548812866, 0.8804419636726379, -1.0214415788650513, -0.7239322066307068, -0.9737991690635681, 0.26988357305526733, -0.46555089950561523, 0.2673214375972748, -0.5962139964103699, -0.2249884009361267, -0.23034492135047913, 0.12410634011030197, 0.18535958230495453, 0.2579558193683624, 0.0016247506719082594, -0.13167987763881683, -0.15249250829219818, -0.09099765866994858, -0.0661977007985115, 0.07997161895036697, 0.10157348960638046, 0.08354891836643219, -0.20415043830871582, 0.024834929034113884, 0.06472604721784592, 0.07139839231967926, -0.207511305809021, 0.07894857972860336, 0.15978841483592987, -0.23287415504455566, 0.002646314213052392, 0.16376501321792603, -0.13993002474308014, 0.18818402290344238, -0.1524069756269455, 0.16759376227855682, 0.36563944816589355, -0.00923024583607912, -0.11898266524076462, 0.07695112377405167, 0.11733996868133545, 0.006748298183083534, 0.01020926982164383, -0.17600086331367493, 0.06694458425045013, -0.09474248439073563, 0.24698899686336517, -0.2426980584859848, 0.10684377700090408, -0.07030714303255081, 0.09366034716367722, -0.16210828721523285, -0.27192771434783936, -0.03428301215171814, 0.2878343462944031, 0.1050778403878212, 0.1440487504005432, 0.29357948899269104, -0.010377644561231136, -0.3115715980529785, -0.023500589653849602, -0.3520975708961487, -0.0194732453674078, -0.07911369204521179, -0.014572645537555218, 0.001092017162591219, -0.06098540127277374, 0.39932602643966675, 0.393864244222641, 0.3319433033466339, 0.07705993950366974, -0.030734336003661156, 0.14390888810157776, 0.2632299065589905, 0.11799870431423187, -0.07475795596837997, -0.22589127719402313, 0.1687464863061905, 0.061890363693237305, -0.28928226232528687, 0.15021896362304688, 0.07795056700706482, -0.041906822472810745, -0.12121184915304184, -0.06858319789171219, -0.21376152336597443, -0.19845034182071686, -0.22522030770778656, 0.021605875343084335, -0.29165372252464294, -0.07169129699468613, -0.18520939350128174, -0.0546313151717186, 0.15866898000240326, -0.303891122341156, 0.04839650169014931, -0.13929125666618347, 0.160480335354805, 0.17917093634605408, -0.14650888741016388, -0.17031662166118622, 0.01894848793745041, 0.14730361104011536, 0.04892898350954056, 0.11687692254781723, 0.004145950544625521, -0.10007930546998978, -0.09543374180793762, -0.46527236700057983, 0.07791247963905334, 0.49937596917152405, -0.16514264047145844, -0.28685128688812256, 0.2947406470775604, 0.07979840040206909, -0.2671392858028412, -0.03300569951534271, 0.19286632537841797, 0.08732691407203674, 0.2691617012023926, 0.11566182225942612, 0.18389828503131866, 0.18862596154212952, -0.04123729467391968, 0.0720251202583313, 0.029655128717422485, -0.11930455267429352, -0.16939577460289001, 0.16027763485908508, -0.07583736628293991, 0.17358841001987457, -0.16810543835163116, -0.03153349086642265, -0.1516730934381485, 0.2042188048362732, 0.023091038689017296, 0.03294632211327553, -0.04129942134022713, 0.12045887112617493, -0.25887006521224976, -0.2052067518234253, -0.287868469953537, -0.002261317567899823, -0.05116677284240723, -0.08573758602142334, 0.10401840507984161, 0.012947279959917068, 0.1132352203130722, -0.19050107896327972, -0.08444152027368546, 0.054197005927562714, 0.04857899248600006, 0.13397863507270813, -0.14537566900253296, 0.10175801813602448, 0.03955794870853424, 0.20865093171596527, 0.13881947100162506, -0.1877681016921997, 0.22799153625965118, -0.048630230128765106, 0.014692510478198528, 0.010306854732334614, 0.11656249314546585, 0.20410479605197906, 0.19447709619998932, 0.09515278786420822, 0.04823080822825432, -0.28162911534309387, -0.1255614012479782, 0.0735098123550415, -0.1422554850578308, 0.07743806391954422, 0.031754955649375916, 0.014826467260718346, -0.04524452984333038, 0.034690119326114655, 0.169695183634758, 0.18867217004299164, -0.10485779494047165, 0.2234509140253067, 0.04908659681677818, -0.09307942539453506, -0.04134216532111168, 0.10653486847877502, 0.1990094780921936, 0.18854840099811554, -0.2611778676509857, -0.07185479253530502, -0.3149454891681671, -0.01097963098436594, -0.00936230830848217, 0.16784977912902832, -0.19763775169849396, 0.15535978972911835, 0.3988279104232788, -0.031012652441859245, -0.06293843686580658, -0.012488764710724354, 0.020935213193297386, -0.07030706107616425, 0.006308607291430235, -0.006482416298240423, -0.2375812530517578, -0.04151523485779762, -0.18673674762248993, 0.09230251610279083, -0.5630947947502136, 0.3017982840538025, -0.37938234210014343, -0.020928815007209778, -0.2316334992647171, -0.3162399232387543, -0.22390039265155792, 0.003561238758265972, -0.03529425337910652, 0.0662134438753128, -0.0025936977472156286, 0.07847079634666443, -0.2552795708179474, 0.11498039215803146, -0.16119714081287384, 0.0886775553226471, 0.08339358121156693, -0.07297079265117645, 0.2604336738586426, 0.26171255111694336, -0.05697456747293472, -0.14044135808944702, 0.19648370146751404, 0.05703696608543396, 0.12321565300226212, -0.1651788055896759, 0.04486778378486633, 0.26773467659950256, -0.08802562206983566, -0.1350700408220291, -0.20714561641216278, -0.15690334141254425, -0.08392015844583511, -0.013333683833479881, -0.13236819207668304, 0.1193837970495224, -0.13610497117042542, -0.08193282037973404, -0.16216214001178741, -0.22060450911521912, 0.36414673924446106, 0.33217620849609375, 0.2553776800632477, -0.05597391352057457, -0.03227575495839119, -0.013732854276895523, -0.28874218463897705, 0.10042188316583633, -0.31546807289123535, 0.08748156577348709, 0.24101124703884125, -0.14096632599830627, 0.24344402551651, 0.03754796087741852, -0.1073799803853035, 0.022276511415839195, -0.2667507529258728, -0.14929410815238953, 0.0825548842549324, 0.09706702828407288, 0.04321829974651337, -0.1553362011909485, -0.03848285228013992, 0.09345580637454987, -0.06903595477342606, 0.2447466254234314, -0.09197968989610672, 0.1981917768716812, -0.06230302155017853, -0.34198567271232605, 0.05629800260066986, -0.4028668999671936, -0.10816723853349686, -0.098785400390625, 0.1719646006822586, 0.03844403848052025, -0.08237452059984207, -0.027431108057498932, -0.15758520364761353, -0.05282650887966156, -0.044188350439071655, -0.07443784922361374, 0.005765779875218868, 0.12447403371334076, 0.10669315606355667, -0.18875667452812195, 0.11209090799093246, 0.01123635284602642, -0.16892287135124207, 0.10932384431362152, 0.3277948200702667, 0.12556888163089752, -0.12700113654136658, -0.0635877177119255, 0.09843853116035461, 0.034090954810380936, 0.1170901209115982, -0.16681881248950958, -0.09378839284181595, 0.06448700278997421, 0.0724448636174202, 0.037645626813173294, 0.13606207072734833, -0.11611194163560867, -0.053851932287216187, 0.01751093566417694, 0.020478079095482826, 0.10043718665838242, -0.07998750358819962, -0.10810688138008118, 0.11911819875240326, -0.010722192004323006, 0.101923368871212, -0.04431197792291641, 0.1411568522453308, 0.006409922614693642, 0.12074106931686401, 0.11262975633144379, 0.07331011444330215, 0.21202397346496582, -0.12690487504005432, -0.03787168860435486, -0.004692859016358852, -0.05794239416718483, 0.1508374959230423, 0.16355422139167786, -0.001536209019832313, -0.12012152373790741, 0.18040119111537933, 0.1344422698020935, 0.08032099157571793, -0.026097474619746208, -0.0672593042254448, -0.07739951461553574, 0.23136155307292938, 0.1355028599500656, 0.12114939093589783, -0.024377815425395966, -0.13829196989536285, -0.08326905965805054, 0.11458805203437805, -0.1350298970937729, -0.0066946703009307384, -0.10844425857067108, -0.08734139800071716, 0.032260581851005554, -0.02806420624256134, -0.028239382430911064, -0.22777871787548065, 0.1555977761745453, 0.05044317618012428, 0.1303785741329193, 0.23292644321918488, 0.036970313638448715, -0.06795671582221985, -0.4601287543773651, 0.18713971972465515, 0.08986866474151611, -0.18064938485622406, 0.273178368806839, -0.07800803333520889, -0.003930750302970409, -0.10836977511644363, -0.21426557004451752, -0.21198149025440216, 0.020655646920204163, -0.08844531327486038, -0.035851143300533295, 0.054627370089292526, 0.10094945132732391, -0.10271155834197998, -0.07857997715473175, -0.005317340139299631, 0.2967036962509155, 0.05755158141255379, -0.10996446013450623, 0.2798617482185364, 0.024989767000079155, 0.010275446809828281, 0.022594476118683815, 0.10047072917222977, 0.582478404045105, -0.08532515913248062, -0.04566358029842377, 0.23235690593719482, 0.0026588072068989277, 0.18359683454036713, -0.4174279272556305, 0.15650062263011932, 0.060247089713811874, -0.17159733176231384, -0.22168277204036713, 0.11311760544776917, 0.13134163618087769, 0.174372136592865, -0.04554547742009163, -0.08883433789014816, -0.06718757003545761, 0.11821617186069489, -0.03579171001911163, 0.022857321426272392, 0.03333383426070213, -0.1855199635028839, -0.07150246202945709, -0.053965967148542404, 0.47750887274742126, -0.28449001908302307, -0.09691490978002548, 0.30592548847198486, 0.08909889310598373, -0.03603348135948181, -0.12725341320037842, 0.09274675697088242, -0.06302351504564285, -0.11250253021717072, -0.26459577679634094, -0.056379422545433044, 0.31108835339546204, -0.1292257308959961, -0.11601785570383072, 0.24098898470401764, -0.05332762002944946, 0.02089170552790165, -0.080439992249012, 0.1466989368200302, 0.18589214980602264, -0.145003542304039, 0.27869096398353577, 0.3408709168434143, -0.07160472869873047, 0.010783209465444088, 0.023171445354819298, 0.04118457809090614, -0.0889991819858551, -0.2293839305639267, 0.04521284997463226, 0.16038107872009277, -0.028470395132899284, -0.24373368918895721, -0.0725100040435791, 0.01157593447715044, 0.16502314805984497, 0.027894198894500732, 0.08470695465803146, -0.030854718759655952, -0.14082998037338257, -0.20607855916023254, -0.12672416865825653, 0.08984800428152084, 0.04867392033338547, -0.04171343892812729, 0.06415525078773499, 0.5511187314987183, 0.15586741268634796, -0.28937771916389465, 0.42463845014572144, 0.14355416595935822, 0.1402059644460678, -0.07743922621011734, -0.008925655856728554, 0.04891585931181908, 0.06410392373800278, 0.037585582584142685, -0.13412606716156006, 0.05089868977665901, 0.14351744949817657, 0.1781250536441803, -0.10729968547821045, -0.18508625030517578, -0.08032932132482529, 0.11430025100708008, 0.21550767123699188, -0.1357097327709198, -0.020776694640517235, 0.06670354306697845, 0.047517333179712296, 0.32608434557914734, 0.15562951564788818, 0.015548452734947205, 0.03248296305537224, -0.1372537910938263, -0.06664054840803146, 0.014971604570746422, -0.21575456857681274, -0.280623197555542, -0.13304322957992554, 0.26607275009155273, 0.07972726970911026, -0.03464913368225098, -0.07797365635633469, -0.1286657452583313, -0.19788548350334167, 0.28122004866600037, 0.19684885442256927, 0.21326206624507904, -0.14493711292743683, -0.19243808090686798, -0.10686591267585754, 0.20990757644176483, 0.12379541993141174, 0.10204208642244339, 0.022085057571530342, -0.08930337429046631, -0.11199425160884857, 0.10531722754240036, -0.14438636600971222, -0.10361132025718689, 0.2979298532009125, -0.1983671933412552, -0.2711944580078125, 0.3318319320678711, 0.22346153855323792, -0.06582293659448624, -0.22658103704452515, 0.04040156677365303, -0.04797491431236267, -0.025199739262461662, 0.12885235249996185, 0.21564412117004395, -0.014689823612570763, 0.051442187279462814, -0.0698397234082222, -0.10755463689565659, 0.031584929674863815, 0.17337751388549805, -0.15974734723567963, -0.04145710542798042, -0.05354950204491615, 0.06953782588243484, -0.2826237678527832, -0.05034267157316208, 0.11684882640838623, -0.026767173781991005, 0.05672740563750267, -0.07885926961898804, -0.22415022552013397, -0.12816600501537323, 0.14121226966381073, 0.18158772587776184, -0.011878039687871933, -0.20376278460025787, -0.20323386788368225, 0.009073940105736256, -0.013377816416323185, 0.15866050124168396, 0.07468828558921814, -0.04832547903060913, 0.28341570496559143, 0.08346809446811676, 0.3169732391834259, -0.07466242462396622, -0.3256237506866455, 0.16446037590503693, 0.012172888033092022, 0.04801382124423981, -0.07461711019277573, 0.1411905437707901, -0.12542428076267242, 0.0005979773122817278, 0.09427917003631592, 0.02430950477719307, 0.12901538610458374, -0.06551462411880493, -0.08791607618331909, 0.09589116275310516, -0.12673915922641754, 0.16271473467350006, -0.024096060544252396, -0.057283833622932434, -0.18697434663772583, -0.12014155089855194, 0.21390685439109802, 0.333274245262146, 0.12112060189247131, -0.22092512249946594, -0.03024432063102722, -0.1291201412677765, 0.06629921495914459, 0.2622971534729004, -0.041666969656944275, 0.18969152867794037, 0.02585519105195999, -0.1610339879989624, -0.1581696718931198, -0.10177221149206161, -0.07173627614974976, -0.0827060341835022, 0.04706959426403046, 0.11311528831720352, 0.09388233721256256, 0.22506895661354065, -0.06760169565677643, -0.25837522745132446, 0.15753847360610962, -0.04350394755601883, 0.03556212782859802, -0.01118331216275692, -0.2610776424407959, -0.2757039964199066, -0.3088882267475128, 0.37182167172431946, 0.012349900789558887, 0.16868232190608978, -0.051529411226511, -0.2806389331817627, -0.0013339223805814981, -0.05151787027716637, -0.04780919849872589, 0.010346871800720692, -0.0207982137799263, 0.02099519781768322, 0.058715637773275375, -0.0426732674241066, 0.09492362290620804, 0.10134884715080261, 0.020044434815645218, 0.06698526442050934, 0.19334560632705688, -0.059500452131032944, -0.01894965209066868, 0.11002998054027557, 0.12274195998907089, -0.15624602138996124, 0.0677151009440422, 0.14481130242347717, -0.01605319231748581, 0.08037722110748291, -0.0646781250834465, 0.0028666977304965258, -0.006350604351609945, -0.07439050078392029, -0.2556844651699066, 0.020956525579094887, 0.029899276793003082, 0.0721580907702446, 0.11182646453380585, -0.1470736414194107, -0.16865451633930206, 0.040356047451496124, -0.12843507528305054, 0.19658510386943817, -0.10340021550655365, -0.026591412723064423, 0.08831043541431427, 0.06775887310504913, 0.2967219650745392, -0.15748940408229828, 0.16532203555107117, 0.3751503527164459, -0.03920133411884308, -0.08410456031560898, -0.04868122190237045, 0.17438849806785583, 0.02174898236989975, -0.09110525995492935, -0.24330095946788788, -0.09873883426189423, 0.0948888510465622, -0.09289107471704483, -0.131987065076828, -0.11348209530115128, -0.10215757042169571, 0.035461340099573135, 0.1376626342535019, -0.12281589955091476, 0.0018740276573225856, -0.07776428014039993, -0.07086100429296494, 0.2234625369310379, 0.18199238181114197, -0.13593359291553497, 0.002147720195353031, -0.19798588752746582, 0.02369706518948078, -0.11965353786945343, -0.04534841701388359, -0.007112299092113972, -0.09806179255247116, 0.07124877721071243, 0.28049683570861816, -0.017406318336725235, -0.007120690308511257, 0.004771077074110508, -0.12222463637590408, 0.084503673017025, 0.05468437820672989, 0.15575942397117615, 0.1215382069349289, -0.11898854374885559, 0.02070251666009426, -0.09143687039613724, 0.06712479144334793, 0.026764605194330215, -0.23304034769535065, 0.08540214598178864, -0.08914553374052048, -0.24175679683685303, -0.07805326581001282, 0.027762355282902718, 0.233629509806633, 0.05990850180387497, -0.042149994522333145, 0.04775787144899368, 0.2391183227300644, 0.1791301667690277, -0.07847250252962112, 0.02481233887374401, -0.03742357715964317, -0.31973975896835327, 0.014784662052989006, 0.11966325342655182, 0.16424447298049927, -0.17306680977344513, -0.011888314038515091, 0.2539389431476593, -0.09169062227010727, -0.16232238709926605, -0.5378782153129578, 0.098942331969738, -0.04795961454510689, -0.12958818674087524, -0.08744103461503983, -0.07756834477186203, 0.07422217726707458, -0.28758469223976135, 0.036461081355810165, 0.045321617275476456, 0.21460643410682678, -0.15830740332603455, -0.1880163848400116, -0.1817246824502945, -0.1284930557012558, 0.253975510597229, 0.26112306118011475, -0.0900638997554779, -0.11098168045282364, -0.11194466799497604, 0.03569987416267395, 0.11987555772066116, -0.0015364224091172218, 0.26552698016166687, -0.4404655396938324, 0.17238788306713104, 0.03331346437335014, -0.1376550793647766, -0.16001711785793304, -0.08821816742420197, 0.20722371339797974, -0.20764993131160736, 0.07131440937519073, 0.0687035396695137, 0.26809775829315186, -0.002683819504454732, -0.31722110509872437, -0.08870568871498108, -0.03259290009737015, 0.1432625949382782, 0.030956165865063667, 0.09311885386705399, -0.01758122257888317, 0.14399446547031403, 0.10611841082572937, 0.016185780987143517, -0.018407834693789482, -0.1178831085562706, -0.2816179096698761, 0.018612707033753395, -0.10819680988788605, 0.15837280452251434, 0.04255381599068642, -0.008164473809301853, 0.15949156880378723, 0.18977238237857819, 0.15820838510990143, -0.2211344838142395, -0.024384992197155952, 0.07381398975849152, 0.11457336694002151, 0.06219657510519028, 0.13884983956813812, -0.12241698801517487, -0.0800296813249588, -0.07152296602725983, 0.14006397128105164, 0.10755905508995056, -0.00018433945660945028, -0.0767904594540596, -0.1436520516872406, -0.08718886226415634, -0.016337059438228607, -0.11700159311294556, 0.10566098242998123, 0.1299293339252472, 0.11472996324300766, -0.16649386286735535, -0.21887804567813873, -0.031632814556360245, 0.13312272727489471, -0.20253978669643402, -0.13114897906780243, -0.12501652538776398, 0.07182732224464417, 0.06900191307067871, -0.0757732018828392, -0.08056502044200897, -0.09951342642307281, -0.03337617218494415, 0.191974937915802, -0.11190232634544373, -0.08442919701337814, 0.21896089613437653, -0.16495001316070557, 0.08305686712265015, 0.3992048501968384, 0.06400465220212936, -0.0028798903804272413, -0.1520850658416748, -0.10366404056549072, -0.14471213519573212, -0.15102553367614746, -0.10647108405828476, 0.11118961125612259, 0.29613351821899414, 0.2773566246032715, -0.005410630255937576, -0.22524471580982208, -0.23076476156711578, 0.01860998012125492, 0.02729804813861847, 0.005837500095367432, 0.0230511836707592, -0.22302810847759247, -0.28844448924064636, -0.1805429607629776, -0.012298891320824623, 0.313902348279953, -0.07802491635084152, 0.0873432382941246, 0.08802712708711624, -0.21409007906913757, -0.06997396051883698, -0.22695600986480713, -0.1045123040676117, 0.2565349042415619, -0.19895926117897034, -0.3165360689163208, 0.22836381196975708, 0.1641698181629181, -0.04250799119472504, -0.23871789872646332, -0.08427126705646515, -0.1324402093887329, 0.25673606991767883, 0.08455517143011093, -0.393248587846756, -0.45103713870048523, -0.017195917665958405, -0.11279343068599701, 0.04085064306855202, -0.009740613400936127, -0.043681927025318146, -0.3799619674682617, 0.061731789261102676, 0.05678579583764076, 0.4173503518104553, -0.104951411485672, 0.013711199164390564, 0.1400114893913269, -0.0755099505186081, 0.19033923745155334, -0.16905994713306427, 0.0726124495267868, 0.0017429378349334002, 0.28344759345054626, 0.06967029720544815, -0.06630820035934448, -0.0020581854041665792, 0.007999016903340816, 0.0053037493489682674, -0.0004887523828074336, 0.05370146408677101, -0.04303302243351936, -0.026838338002562523, 0.011292736977338791, 0.13639713823795319, 0.0149866146966815, -0.2511882483959198, 0.3370759189128876, 0.09512554109096527, 0.03807133063673973, -0.0918603241443634, -0.028474103659391403, -0.082099549472332, 0.23547279834747314, -0.33071932196617126, 0.0758722573518753, -0.07933960109949112, 0.20385293662548065, -0.09948280453681946, -0.06032735854387283, 0.0786004364490509, 0.1734621673822403, -0.08437580615282059, -0.1735774725675583, 0.22287188470363617, 0.08218567073345184, -0.18636590242385864, -0.07110221683979034, -0.05757199600338936, 0.06177587807178497, -0.24226093292236328, 0.057153623551130295, 0.19816307723522186, -0.02956772968173027, -0.029357239603996277, -0.09156966209411621, 0.14995692670345306, 0.011526723392307758, -0.11991578340530396, -0.09856044501066208, 0.012909521348774433, 0.04116556793451309, 0.10143319517374039, 0.0680035725235939, -0.12163993716239929, -0.058490000665187836, -0.12316275388002396, 0.2147778570652008, 0.1030563935637474, 0.009828095324337482, -0.23083430528640747, -0.177705317735672, 0.060294490307569504, 0.12084376811981201, -0.2788302004337311, 0.267945796251297, 0.13646027445793152, 0.10601654648780823, 0.0912976935505867, -0.24008917808532715, 0.04164672642946243, 0.08589263260364532, -0.07909500598907471, -0.22783097624778748, -0.06108643487095833, 0.08879512548446655, 0.11529731005430222, 0.32320329546928406, 0.11431683599948883, -0.20052427053451538, -0.22794505953788757, -0.15053051710128784, 0.12042807042598724, -0.034954968839883804, 0.1828182488679886, -0.43331632018089294, -0.5546022653579712, -0.0022492853458970785, -0.027702461928129196, -0.2852706015110016, -0.36955854296684265, 0.09642913937568665, -0.008453148417174816, -0.21963158249855042, -0.12115136533975601, 0.035354260355234146, -0.0020825040992349386, 0.06608130782842636, -0.06640999019145966, -0.14847257733345032, 0.03960927575826645, -0.23709270358085632, 0.12707506120204926, -0.031470391899347305, 0.09989361464977264, 0.008999080397188663, -0.020979760214686394, -0.033173345029354095, 0.01609448529779911, -0.03460533544421196, -0.1810270994901657, -0.047690704464912415, 0.3185928463935852, -0.300149530172348, -0.009523369371891022, -0.01772281713783741, -0.14978936314582825, 0.10136231034994125, -0.005853594746440649, -0.41217687726020813, 0.09211206436157227, 0.03835033252835274, -0.009853393770754337, -0.2139158993959427, 0.07006879150867462, 0.18341472744941711, -0.09350381046533585, 0.11586356163024902, 0.12212474644184113, 0.3364292085170746, -0.19775697588920593, -0.07392524182796478, 0.15256202220916748, -0.1898343414068222, -0.16603167355060577, 0.05469179525971413, -0.0009896144038066268, 0.030985798686742783, 0.1344965398311615, -0.10252860933542252, -0.047943685203790665, -0.3088642656803131, 0.002956878859549761, -0.039635930210351944, 0.20134566724300385, 0.07760927081108093, 0.08819988369941711, -0.017263920977711678, -0.07613055408000946, -0.17527110874652863, 0.12353447824716568, 0.019145827740430832, 0.2815263569355011, -0.15623264014720917, -0.08067966997623444, -0.19916142523288727, 0.1563706398010254, -0.09310794621706009, -0.10547605156898499, 0.2201567143201828, -0.20165276527404785, -0.3784966766834259, -0.03653070330619812, -0.08776339143514633, 0.019098592922091484, 0.10350654274225235, -0.04112875089049339, -0.5422673225402832, 0.05351685732603073, -0.024607935920357704, -0.06530453264713287, 0.05712248757481575, -0.10695604979991913, 0.10008953511714935, 0.016722185537219048, -0.12281368672847748, 0.16171252727508545, -0.04753755033016205, -0.10366110503673553, -0.12199779599905014, 0.08083195984363556, 0.20001517236232758, 0.16447483003139496, 0.08316722512245178, -0.0908878967165947, 0.11702892184257507, 0.00333107216283679, 0.39522066712379456, -0.24210813641548157, -0.46553701162338257, 0.817496120929718, 0.27699077129364014, -0.5245555639266968, 0.15295541286468506, -0.1857765167951584, -0.16789470613002777, 0.6351900696754456, -0.7983872890472412, 0.9819086790084839, 0.6890870332717896, 0.19258631765842438, -0.42026495933532715, -0.2099556177854538, -0.7480444312095642, 0.19731904566287994, -0.028507132083177567, 0.10033687949180603, -0.0977012887597084, 0.12358279526233673, 0.27494746446609497, 0.29287561774253845, 0.039242129772901535, 0.013655838556587696, 0.11365410685539246, 0.32247301936149597, 0.20564298331737518, -0.12751902639865875, 0.20546135306358337, -0.2447739988565445, -0.13373056054115295, 0.11177679151296616, 0.004243016708642244, 0.21717803180217743, 0.20962563157081604, 0.022921966388821602, 0.3305380940437317, 0.19736570119857788, -0.08661884069442749, -0.19271749258041382, -0.03119990974664688, 0.004904638975858688, -0.28931647539138794, 0.19639495015144348, 0.25865909457206726, 0.14840230345726013, -0.13917912542819977, 0.2576240599155426, -0.13095830380916595, -0.18169549107551575, -0.29528185725212097, 0.4855879843235016, -0.22524528205394745, -0.06689730286598206, -0.16042013466358185, -0.16226349771022797, 0.15932777523994446, -0.3396998345851898, 0.2046925127506256, 0.24700213968753815, -0.5113478302955627, 0.03673398122191429, 0.1852588951587677, 0.21161462366580963, 0.02840895764529705, 0.008887347765266895, 0.0337991863489151, -0.05263900384306908, 0.36890795826911926, -0.19134491682052612, 0.28982096910476685, 0.13943104445934296, 0.025966806337237358, -0.015637768432497978, 0.06279813498258591, 0.15323986113071442, 0.026505116373300552, -0.0035763743799179792, 0.09934893250465393, 0.20603495836257935, -0.12855538725852966, 0.16087698936462402, -0.21208851039409637, 0.09810817986726761, 0.21982190012931824, 0.13430188596248627, -0.3023255467414856, 0.19554086029529572, -0.04204564541578293, -0.08238066732883453, 0.12577150762081146, -0.17549140751361847, -0.33359450101852417, 0.308327853679657, -0.10551410913467407, -0.029695525765419006, -0.18021203577518463, 0.12134553492069244, -0.155199334025383, -0.08859140425920486, 0.010572632774710655, 0.46421509981155396, 0.028805533424019814, -0.04949155077338219, -0.1962738037109375, -0.1526143103837967, 0.1392679065465927, -0.015696542337536812, 0.12205968052148819, 0.35143017768859863, -0.012977455742657185, -0.06379862129688263, 0.06165115907788277, -0.042986806482076645, 0.07973495870828629, 0.06719120591878891, 0.15715916454792023, 0.0817280262708664, 0.12986613810062408, -0.10708799213171005, 0.018155673518776894, 0.08504380285739899, -0.24418793618679047, 0.06946651637554169, -0.017850754782557487, 0.22939004004001617, -0.07243745774030685, 0.1862482726573944, 0.1933545023202896, -0.14100508391857147, -0.06949356943368912, 0.042447030544281006, -0.1315419226884842, 0.14779385924339294, -0.15810884535312653, 0.1131574884057045, 0.08119197934865952, 0.05162007361650467, 0.14706265926361084, 0.004641727078706026, 0.03709772974252701, 0.05215228348970413, -0.0699908435344696, 0.009024134837090969, 0.1292097568511963, -0.22445711493492126, 0.01771307922899723, 0.28361526131629944, 0.07796889543533325, -0.09147115051746368, 0.028890108689665794, -0.09461038559675217, 0.14861081540584564, -0.25632819533348083, 0.29117608070373535, -0.23297491669654846, -0.24426355957984924, 0.0741756483912468, 0.10889700800180435, 0.10327214002609253, -0.0009646521066315472, -0.01818837970495224, 0.2564055621623993, -0.2489783763885498, 0.0012037967098876834, -0.2563023865222931, -0.17023496329784393, -0.039936613291502, -0.15581585466861725, 0.20762817561626434, -0.299366295337677, -0.023273462429642677, 0.17531543970108032, 0.188107430934906, -0.08387205004692078, 0.2264551818370819, -0.029737764969468117, -0.1745271384716034, -0.21806330978870392, 0.3823399841785431, -0.07996589690446854, 0.07653317600488663, -0.09968037158250809, 0.22487936913967133, 0.061047062277793884, -0.2291785329580307, -0.03215472772717476, 0.06842225044965744, -0.32783862948417664, -0.02634759433567524, 0.2451864629983902, -0.03497777134180069, 0.08086617290973663, 0.10310840606689453, 0.039518505334854126, 0.05115868151187897, 0.408653199672699, 0.1671510636806488, 0.14853903651237488, -0.01885247603058815, -0.2963310480117798, -0.09679437428712845, 0.3194431662559509, -0.1767754852771759, -0.18452920019626617, -0.06277922540903091, 0.16594193875789642, -0.24711979925632477, -0.09500069916248322, -0.03708800673484802, -0.073567695915699, 0.30268755555152893, -0.029931649565696716, -0.24379637837409973, -0.1757507622241974, 0.09013716131448746, 0.08926692605018616, -0.11843765527009964, 0.1568983942270279, -0.016701558604836464, -0.05141202732920647, 0.17766937613487244, -0.10489239543676376, -0.35382404923439026, 0.17072397470474243, 0.002006791066378355, -0.007652966771274805, -0.07571129500865936, 0.06937837600708008, 0.11511733382940292, -0.07819567620754242, 0.1444273442029953, -0.037931960076093674, 0.10176478326320648, -0.27379003167152405, -0.0005460756947286427, 0.09411226212978363, -0.21747764945030212, -0.00444450881332159, -0.006229300517588854, 0.3124028444290161, -0.2136291265487671, -0.0572577603161335, 0.05895479395985603, -0.1454574316740036, 0.16915711760520935, -0.24537579715251923, 0.14886300265789032, 0.32812631130218506, 0.05937172845005989, 0.17069455981254578, -0.049872420728206635, -0.10187745839357376, 0.0033899510744959116, -0.10920092463493347, -0.1830470860004425, -0.018259985372424126, -0.12850329279899597, 0.0871354416012764, -0.05715176835656166, 0.2423175722360611, -0.11924437433481216, -0.2623172700405121, 0.0036725858226418495, 0.19738921523094177, 0.25950440764427185, 0.32078856229782104, -0.21091896295547485, -0.04480743780732155, -0.30730146169662476, -0.0055831242352724075, -0.0032503940165042877, 0.15561679005622864, 0.027856862172484398, 0.06762905418872833, -0.11092913150787354, 0.30938172340393066, -0.05083948373794556, 0.009521027095615864, -0.20009376108646393, -0.036016251891851425, 0.015462759882211685, -0.13756133615970612, 0.08672341704368591, 0.06722258031368256, 0.07890256494283676, -0.07091574370861053, 0.13673625886440277, 0.055666565895080566, 0.14458627998828888, -0.031206591054797173, -0.04973744973540306, -0.06898009032011032, -0.012182408012449741, -0.17377766966819763, -0.012423028238117695, -0.2929004430770874, -0.3206994831562042, -0.06571073830127716, -0.07902390509843826, -0.19243772327899933, -0.12284959107637405, 0.1412661224603653, -0.011886358261108398, -0.07113853842020035, 0.185388445854187, -0.09746787697076797, -0.13683468103408813, -0.21377328038215637, 0.11098719388246536, 0.15270936489105225, 0.10336312651634216, -0.21002936363220215, -0.1072448268532753, -0.09341838955879211, 0.19276288151741028, -0.007298867683857679, -0.16991092264652252, -0.1787610501050949, 0.24253852665424347, 0.2772753834724426, -0.4031032621860504, -0.07906455546617508, -0.20846599340438843, -0.09149405360221863, -0.052112944424152374, 0.12752431631088257, -0.00909350998699665, -0.144900381565094, -0.0014905285788699985, -0.02969842404127121, 0.3674151599407196, -0.0025807644706219435, 0.019030943512916565, 0.17009323835372925, -0.08760637044906616, 0.2599155306816101, -0.23682095110416412, -0.07035122811794281, -0.025218160822987556, 0.23326264321804047, 0.05386442318558693, -0.18291722238063812, 0.06476708501577377, -0.17417491972446442, -0.2395620495080948, 0.17438627779483795, 0.06336543709039688, 0.07751739025115967, -0.12565897405147552, 0.07381165772676468, -0.0017567239701747894, -0.09183850884437561, -0.16660958528518677, 0.00956583209335804, 0.14960040152072906, 0.1841261088848114, 0.04748884215950966, -0.2149963676929474, -0.11939168721437454, -0.05697747692465782, -0.011375600472092628, 0.17745473980903625, 0.22455991804599762, 0.0880594328045845, -0.04655703529715538, 0.08052424341440201, -0.10212371498346329, 0.11315443366765976, -0.23343925178050995, -0.28078702092170715, 0.01378642674535513, -0.004419352859258652, -0.0772445946931839, -0.2692711055278778, 0.1547165811061859, 0.1245127022266388, 0.18483662605285645, -0.0053227972239255905, 0.019518908113241196, -0.03603748977184296, 0.06214568763971329, -0.20556747913360596, -0.20394045114517212, -0.25690436363220215, 0.27037879824638367, 0.28090792894363403, 0.019098835065960884, -0.24575112760066986, -0.09898100793361664, -0.03414225950837135, -0.2920474708080292, -0.17517820000648499, 0.1604657769203186, -0.0853663831949234, 0.0017835457110777497, -0.12787482142448425, 0.05634713172912598, -0.02155241183936596, -0.05999517813324928, 0.28678131103515625, 0.19542619585990906, 0.17725281417369843, -0.2790653705596924, -0.14883968234062195, -0.1384938657283783, 0.16367417573928833, 0.07368966937065125, 0.09604012966156006, -0.17439177632331848, -0.027173420414328575, -0.03147986903786659, 0.22330394387245178, 0.05911274999380112, 0.02808557078242302, -0.3865356147289276, -0.03330479934811592, -0.11200396716594696, -0.17189034819602966, -0.15345381200313568, -0.07214079052209854, -0.0014106356538832188, 0.12098861485719681, 0.09197313338518143, -0.16024263203144073, 0.0178175400942564, -0.18694625794887543, -0.0753018856048584, -0.28332188725471497, -0.12194749712944031, 0.0761762335896492, 0.0011463473783805966, 0.19073477387428284, 0.10858828574419022, 0.1092449277639389, -0.019435811787843704, 0.22777794301509857, 0.2831506133079529, 0.07137087732553482, 0.1264246255159378, 0.08715073019266129, -0.07916634529829025, -0.11897781491279602, 0.0496334582567215, 0.11009394377470016, -0.11412680149078369, -0.1376461535692215, 0.00027008081087842584, 0.15458297729492188, 0.24229992926120758, 0.016489164903759956, 0.03886742517352104, 0.005400810856372118, 0.12515099346637726, 0.2904365062713623, 0.07777925580739975, -0.12789437174797058, -0.0497790165245533, -0.20999743044376373, -0.015690462663769722, 0.03226307034492493, 0.2790376842021942, 0.09973730891942978, 0.15476496517658234, 0.07685916870832443, 0.24674756824970245, 0.022289985790848732, -0.13259531557559967, 0.06224244460463524, -0.1728384643793106, 0.10079963505268097, 0.06853268295526505, -0.34497126936912537, -0.3031386435031891, 0.23333080112934113, -0.06594336777925491, -0.1606687754392624, 0.033884111791849136, 0.0894804447889328, 0.24108768999576569, -0.11711306869983673, -0.1593826711177826, -0.027568701654672623, -0.12180517613887787, -0.02706090174615383, -0.0037812197115272284, 0.22027984261512756, -0.1445402204990387, 0.1842399537563324, -0.3625028729438782, -0.22248241305351257, 0.15563711524009705, -0.12383031100034714, -0.07622353732585907, -0.14962556958198547, 0.06875947117805481, 0.21824075281620026, -0.11075901985168457, 0.02658780664205551, 0.07085592299699783, 0.18396565318107605, 0.02121720090508461, -0.044015269726514816, -0.1937236785888672, 0.2092696577310562, -0.10917562246322632, -0.10406956821680069, -0.19231127202510834, 0.010235619731247425, 0.07747942954301834, 0.06066110357642174, -0.205299973487854, -0.07526562362909317, -0.030344145372509956, 0.02885902114212513, -0.11296887695789337, 0.12195027619600296, -0.05826372280716896, -0.22956624627113342, 0.020427443087100983, 0.0021261449437588453, -0.01737634278833866, -0.04876130074262619, -0.14237111806869507, 0.23275652527809143, -0.12952612340450287, -0.07419382780790329, 0.15436847507953644, -0.1486562341451645, -0.0012884908355772495, -0.03390265256166458, -0.13123203814029694, -0.09973490238189697, 0.0671662762761116, 0.31296825408935547, 0.1957464963197708, -0.04438028112053871, 0.4825805723667145, -0.2638421654701233, 0.16596750915050507, -0.051904983818531036, 0.026662224903702736, -0.37031057476997375, -0.25470829010009766, 0.1454271823167801, -0.02272769995033741, 0.19769005477428436, -0.027850287035107613, 0.06328277289867401, -0.1719074249267578, -0.10556202381849289, -0.23496975004673004, 0.27276498079299927, -0.16353440284729004, -0.03964080289006233, -0.13856932520866394, -0.12180455774068832, 0.05064038187265396, -0.0012298633810132742, 0.07793150097131729, -0.20353083312511444, 0.3449472188949585, 0.06858545541763306, 0.10973414033651352, 0.12310761213302612, -0.02145818993449211, -0.02796216867864132, -0.015390433371067047, -0.05721433833241463, 0.21172940731048584, 0.24590125679969788, -0.1005202904343605, 0.17138627171516418, 0.07211965322494507, -0.004864836111664772, 0.2304438352584839, -0.07574185729026794, -0.30392032861709595, -0.03248043730854988, -0.24176517128944397, -0.16408702731132507, 0.255388468503952, 0.529227614402771, -0.07308810204267502, 0.13676898181438446, -0.7208330631256104, -0.25331053137779236, -0.01924819126725197, -0.058065205812454224, 0.16804400086402893, -0.28919145464897156, -0.15932565927505493, 0.26290813088417053, -0.1079937294125557, 0.14845170080661774, -0.06331384927034378, 0.21830281615257263, -0.00235116109251976, -0.026547716930508614, -0.062247809022665024, 0.3415689766407013, 0.0014179199934005737, -0.08106586337089539, -0.15066364407539368, -0.027201728895306587, 0.31910115480422974, 0.23079262673854828, -0.17531487345695496, 0.06022750213742256, -0.6220797896385193, 0.18178007006645203, 0.2269643396139145, 0.009695356711745262, 0.024533892050385475, -0.22804787755012512, 0.2878111004829407, -0.08550488948822021, -0.050447978079319, 0.5758000612258911, 0.04720451682806015, 0.15587125718593597, -0.06521458923816681, -0.21472139656543732, -0.10961197316646576, -0.18942931294441223, 0.005318911746144295, 0.07347029447555542, -0.12641802430152893, 0.2371576875448227, -0.12879842519760132, -0.03181353583931923, 0.11741942912340164, 0.04552818834781647, -0.10433435440063477, 0.03527940809726715, -0.32341012358665466, 0.16927088797092438, 0.01746978983283043, 0.09196217358112335, -0.12952068448066711, 0.058054301887750626, 0.1207730770111084, -0.09343744814395905, -0.06073874980211258, -0.15467582643032074, 0.10321737080812454, 0.0663214772939682, 0.21202479302883148, 0.07001648098230362, 0.013219824060797691, -0.13202887773513794, -0.11356962472200394, 0.14573098719120026, -0.1492997705936432, -0.0035471897572278976, -0.0903392806649208, -0.042893096804618835, -0.25500723719596863, -0.09436529129743576, -0.04451356828212738, 0.01809217408299446, -0.0011775449384003878, 0.16501733660697937, -0.13679485023021698, -0.17662374675273895, 0.05370349436998367, 0.08581403642892838, -0.011472165584564209, -0.3247334063053131, -0.17749105393886566, 0.12109243124723434, -0.24646437168121338, 0.12041448056697845, 0.024580344557762146, 0.10842456668615341, 0.060238104313611984, 0.3017447590827942, -0.08755335211753845, -0.34936800599098206, 0.07530659437179565, -0.400849848985672, -0.18679456412792206, 0.23550409078598022, -0.21316060423851013, -0.02868766337633133, -0.1131853461265564, -0.008696110919117928, 0.1627170294523239, -0.10899804532527924, 0.018243996426463127, -0.18683505058288574, 0.03587551414966583, -0.04962011054158211, -0.06629742681980133, -0.2520180344581604, 0.014247787185013294, -0.18049822747707367, -0.02615644969046116, 0.12409941107034683, 0.21655195951461792, -0.07143726199865341, -0.07499483227729797, -0.2681940793991089, -0.056179117411375046, 0.21905551850795746, 0.004435557406395674, 0.02705235593020916, 0.13195829093456268, -0.03038528934121132, -0.12650549411773682, -0.032893743366003036, 0.0416426882147789, 0.0623348206281662, 6.193577428348362e-05, -0.002478910144418478, -0.23564784228801727, -0.04649880528450012, -0.11962559074163437, -0.029076114296913147, -0.10034871101379395, -0.003639495000243187, 0.028751114383339882, 0.23117069900035858, -0.07713427394628525, -0.06648628413677216, 0.1509760022163391, 0.1636413037776947, -0.09937643259763718, 0.3411172032356262, 0.06190342828631401, -0.07176248729228973, -0.024301733821630478, 0.041225556284189224, 0.1903771162033081, -0.23387178778648376, -0.24924060702323914, -0.08948802947998047, 0.07876595109701157, -0.10910878330469131, 0.007830985821783543, -0.1926465928554535, -0.018579689785838127, 0.08848147839307785, 0.17999137938022614, 0.04280024766921997, -0.14104066789150238, -0.006685995496809483, 0.07291778177022934, 0.26626133918762207, 0.16665548086166382, 0.43815505504608154, -0.07459954172372818, -0.0992705225944519, -0.22062063217163086, -0.15747761726379395, -0.07804948836565018, -0.14975638687610626, -0.15296179056167603, 0.04162312671542168, 0.11476430296897888, -0.1307855099439621, 0.0011673640692606568, 0.17025865614414215, -0.1823139786720276, -0.003193840617313981, 0.013426653109490871, 0.23008042573928833, 0.020345747470855713, -0.1338880956172943, 0.14337967336177826, 0.046873804181814194, -0.10018286854028702, -0.03267393261194229, -0.14244166016578674, -0.028573274612426758, 0.16171075403690338, 0.13227054476737976, 0.0018071717349812388, -0.2215646356344223, -0.17969205975532532, -0.08916670829057693, 0.18053342401981354, 0.07943562418222427, 0.0529271699488163, 0.11972573399543762, 0.20387613773345947, 0.10682789236307144, -0.21529485285282135, -0.20275452733039856, 0.029704809188842773, 0.19166330993175507, 0.16451574862003326, 0.08967604488134384, 0.03503336384892464, -0.15163207054138184, 0.1045624390244484, 0.07805151492357254, -0.038786254823207855, 0.07871837913990021, 0.03791453689336777, -0.1076575294137001, -0.011592929251492023, -0.18160678446292877, 0.08590611815452576, -0.08003367483615875, 0.13763299584388733, 0.0785522609949112, -0.0017596393590793014, -0.15163563191890717, 0.007814248092472553, 0.10116046667098999, 0.05330725386738777, -0.07750292122364044, 0.14151084423065186, 0.25397202372550964, -0.08830540627241135, 0.16780143976211548, 0.1426418125629425, 0.3186122477054596, 0.12104242295026779, -0.16676293313503265, -0.008574391715228558, -0.0889514908194542, 0.2690238654613495, 0.09925748407840729, -0.24094712734222412, 0.22055783867835999, -0.2723099887371063, -0.14078538119792938, 0.2449326366186142, -0.1066405400633812, -0.13568000495433807, 0.002001459477469325, 0.1606024205684662, -0.052376486361026764, -0.23914191126823425, -0.1378149390220642, -0.05189159885048866, 0.20869354903697968, 0.05469190329313278, -0.07486371695995331, -0.035966869443655014, -0.14129316806793213, 0.14771509170532227, -0.012559184804558754, 0.2282012701034546, -0.10982115566730499, 0.28278571367263794, 0.23587727546691895, -0.12469734996557236, 0.6201902627944946, -0.05825945734977722, 0.09438084810972214, 0.11305482685565948, 0.33417269587516785, -0.027020595967769623, -0.0811881348490715, -0.3040493428707123, 0.05797869339585304, 0.11264799535274506, -0.0354236476123333, -0.017995981499552727, 0.3003079295158386, -0.04659910500049591, -0.17667092382907867, -0.2878524661064148, 0.014492354355752468, -0.0787440836429596, -0.2595670819282532, -0.003953330684453249, -0.1303713321685791, -0.11497832834720612, -0.050434794276952744, -0.04271204397082329, -0.46374279260635376, -0.03319576382637024, 0.15330417454242706, -0.004731503780931234, 0.16242358088493347, 0.05947848781943321, -0.13135090470314026, -0.13914136588573456, 0.15158282220363617, -0.051583074033260345, -0.016896480694413185, -0.1420285850763321, -0.10153596103191376, -0.18492142856121063, 0.15926450490951538, -0.09954259544610977, -0.096525177359581, 0.05209168791770935, -0.10876929759979248, -0.29925835132598877, -0.12700362503528595, -0.1071530357003212, -0.1667138934135437, 0.23489391803741455, 0.3919350206851959, 0.06825122982263565, 0.09148436039686203, 0.002673625946044922, 0.27287229895591736, 0.15595507621765137, 0.295700341463089, 0.04835868999361992, -0.057228632271289825, 0.1458282470703125, 0.06578042358160019, -0.01570996269583702, -0.012437340803444386, 0.17180435359477997, 0.13113071024417877, 0.00875927321612835, -0.060203999280929565, 0.1026519164443016, 0.05140591785311699, -0.2416619062423706, -0.1200275793671608, 0.13620495796203613, 0.02427271567285061, -0.05269674211740494, 0.21976500749588013, 0.1947856992483139, 0.02681221440434456, 0.05696191266179085, 0.07061918824911118, 0.1306638866662979, -0.21434441208839417, -0.2434176653623581, 0.02303173579275608, 0.2624366581439972, 0.062129151076078415, 0.07888515293598175, -0.15557441115379333, -0.16659830510616302, 0.002060557948425412, 0.25766104459762573, 0.03671317547559738, -0.11706371605396271, -0.027379224076867104, -0.07930301874876022, -0.25896233320236206, 0.12033301591873169, 0.17301417887210846, 0.028757713735103607, 0.11379344016313553, 0.013672911562025547, 0.03629227727651596, -0.1465263068675995, -0.17970101535320282, -0.11235599964857101, 0.18833152949810028, -0.01598144881427288, -0.13356804847717285, -0.00541990902274847, 0.21226860582828522, 0.19862815737724304, 0.06904206424951553, 0.019569160416722298, 0.040713950991630554, -0.14151498675346375, -0.2351774275302887, -0.23996402323246002, -0.020648224279284477, -0.15314708650112152, 0.06669050455093384, -0.004216441884636879, 0.019746975973248482, 0.18749569356441498, -0.09491964429616928, -0.2035001516342163, -0.17438212037086487, -0.12128865718841553, 0.24574193358421326, -0.2896425724029541, -0.1470765471458435, -0.11149366199970245, -0.07786878943443298, 0.1337175816297531, 0.07205171138048172, 0.10164982825517654, -0.06691371649503708, -0.22567301988601685, 0.06909603625535965, 0.09994262456893921, -0.09042824059724808, 0.028483979403972626, -0.08051973581314087, -0.31811952590942383, -0.23193150758743286, -0.15421324968338013, 0.06090223416686058, -0.23600368201732635, -0.08749192208051682, -0.02886855974793434, 0.20516842603683472, 0.02695166878402233, -0.13352477550506592, -0.0892178937792778, 0.09931772947311401, 0.12199217826128006, 0.05933842435479164, -0.09968056529760361, 0.007017906755208969, 0.17729264497756958, -0.0675223171710968, -0.1370094120502472, 0.0031724912114441395, 0.17359445989131927, 0.017109880223870277, 0.16424302756786346, 0.08928284049034119, -0.13767695426940918, -0.1538935750722885, -0.37091973423957825, -0.08128868788480759, 0.12366237491369247, 0.8907386660575867, -0.14372451603412628, 0.05085037648677826, 0.11992252618074417, 0.00792441051453352, 0.061735957860946655, 0.07917187362909317, 0.1547328382730484, 0.06350426375865936, -0.26032552123069763, -0.16883347928524017, 0.0219749566167593, -0.0826738029718399, 0.1836596131324768, -0.015520024113357067, -0.15387332439422607, -0.15770506858825684, 0.03915833681821823, 0.22886380553245544, -0.28464752435684204, 0.018607880920171738, -0.31344980001449585, 0.07652916759252548, -0.23880837857723236, 0.6709797978401184, -0.19924435019493103, -0.2137027382850647, -0.09153532981872559, -0.05301446467638016, 0.0491313673555851, -0.10080168396234512, 0.1560567021369934, 0.004453984554857016, -0.287705659866333, -0.08765126019716263, -0.1317596286535263, 0.30895572900772095, 0.03605879098176956, -0.021717753261327744, 0.1654462218284607, 0.033056486397981644, 0.16966542601585388, 0.12670892477035522, -0.05439615249633789, -0.09091415256261826, 0.13973413407802582, -0.21663521230220795, 0.08944286406040192, -0.11971399933099747, 0.0014014452463015914, 0.010335967876017094, 0.04769155755639076, 0.03984038904309273, 0.7501227259635925, 0.2538451552391052, 0.551283597946167, -0.8173099756240845, -0.48847904801368713, 0.10440050810575485, 0.22791512310504913, -0.03504500538110733, 0.31266042590141296, 0.43157410621643066, -0.8674594759941101, 0.41035833954811096, -0.018350448459386826, -0.7612593173980713, 0.06797236949205399, -0.19193051755428314, -0.14059549570083618, -0.09249529242515564, 0.36818036437034607, -0.31740954518318176, 0.22639937698841095, 0.36934757232666016, 0.10527395457029343, -0.21931494772434235, -0.23267152905464172, -0.03200773894786835, -0.2926483750343323, 0.004588216543197632, 0.2793731391429901, -0.18095576763153076, 0.18596838414669037, 0.11710570007562637, -0.055050257593393326, 0.07206206023693085, 0.08452415466308594, -0.21696317195892334, 0.22752104699611664, 0.14376398921012878, 0.3456580936908722, -0.33665478229522705, -0.19213224947452545, 0.05644134059548378, -0.251623272895813, -0.09919478744268417, -0.058933138847351074, 0.12127956748008728, -0.05207931995391846, 0.07492189854383469, -0.056761857122182846, 0.35942962765693665, -0.2728950083255768, -0.29398855566978455, -0.08016491681337357, -0.17086388170719147, -0.1643480509519577, 0.11267946660518646, 0.24644815921783447, -0.15849319100379944, -0.23412346839904785, -0.22089965641498566, 0.0015948760556057096, 0.1039302796125412, -0.02959151566028595, 0.06808978319168091, -0.21229568123817444, 0.024486538022756577, -0.2839641571044922, 0.19003355503082275, 0.017497796565294266, 0.2565367519855499, 0.22712606191635132, 0.029116805642843246, -0.18968571722507477, -0.2025822550058365, 0.10754560679197311, -0.2585771381855011, 0.33004114031791687, 0.12562914192676544, 0.09197904914617538, -0.4501596987247467, 0.22324031591415405, -0.09876849502325058, 0.030265452340245247, -0.11239621043205261, -0.033173974603414536, -0.1111181229352951, -0.13601469993591309, -0.23775701224803925, 0.32132741808891296, 0.08412718772888184, -0.05223265662789345, 0.13875548541545868, -0.1053304374217987, -0.31872713565826416, -0.09596353769302368, -0.007657060399651527, -0.3100534677505493, 0.18045660853385925, 0.1132759302854538, 0.07963894307613373, -0.06546131521463394, 0.11482755839824677, 0.044831935316324234, -0.10117320716381073, 0.045146599411964417, 0.2436426430940628, -0.3350512981414795, 0.15460465848445892, 0.03214951232075691, 0.09145957231521606, -0.2967715263366699, 0.021823566406965256, -0.014360190369188786, -0.41202178597450256, -0.03191465511918068, -0.08319145441055298, -0.2319553643465042, -0.2775035500526428, 0.0832868367433548, 0.3363780677318573, -0.17599709331989288, -0.1444634199142456, 0.6188469529151917, 0.12405727803707123, 0.3452490270137787, -0.1023685410618782, 0.24855561554431915, -0.10510643571615219, 0.06806686520576477, 0.11880946159362793, -0.1511601060628891, -0.31003299355506897, 0.09358617663383484, -0.3450215756893158, -0.14798593521118164, 0.22270351648330688, 0.08688774704933167, 0.048885416239500046, -0.11324653774499893, 0.1475178599357605, 0.20623672008514404, -0.02156544104218483, 0.2404828816652298, -0.020960653200745583, -0.1739051789045334, -0.02826717495918274, -0.17708101868629456, -0.011030569672584534, 0.19209294021129608, 0.08838923275470734, -0.13583388924598694, -0.07952366769313812, -0.03541529178619385, -0.22264623641967773, -0.009603687562048435, -0.30904027819633484, 0.42283815145492554, 0.20084981620311737, 0.1472868174314499, 0.04127957671880722, 0.07024675607681274, 0.2359449714422226, 0.2730455696582794, -0.1938399225473404, -0.1616555154323578, 0.03688648343086243, -0.017400123178958893, 0.07301599532365799, -0.17078641057014465, -0.053955644369125366, 0.056799646466970444, -0.05831462889909744, 0.2443792074918747, -0.20258265733718872, 0.23934319615364075, 0.15361236035823822, -0.19722279906272888, 0.3139542043209076, -0.6056144833564758, -0.1285025179386139, -0.009929112158715725, 0.08424166589975357, 0.1356954574584961, -0.3182699680328369, 0.18861402571201324, -0.03451310470700264, -0.3661021292209625, -0.1973826289176941, -0.04665715619921684, 0.30851462483406067, 0.11542318761348724, -0.25548022985458374, 0.0675339549779892, 0.22113172709941864, -0.12868435680866241, -0.11860447376966476, 0.045651908963918686, -0.07178080826997757, 0.12723137438297272, 0.10790224373340607, 0.023326199501752853, -0.056169357150793076, 0.3689037263393402, -0.07760612666606903, -0.15795210003852844, 0.22599537670612335, 0.01990886963903904, -0.32001978158950806, 0.1696450263261795, 0.23835964500904083, 0.1057942658662796, 0.36118829250335693, -0.05756309628486633, 0.07337933778762817, -0.10205328464508057, -0.15496651828289032, 0.16919849812984467, 0.3364802598953247, -0.36355775594711304, -0.03486522287130356, -0.16956184804439545, 0.24812079966068268, -0.16934503614902496, -0.05213802307844162, 0.019899677485227585, -0.014770682901144028, 0.030825641006231308, 0.18877099454402924, 0.07618332654237747, -0.019754227250814438, -0.03742855787277222, 0.013623220846056938, 0.10780493915081024, 0.16766119003295898, 0.133258655667305, -0.1110609844326973, -0.11684191972017288, -0.2353794425725937, -0.03894883766770363, 0.07976671308279037, 0.16283836960792542, -0.03230089694261551, 0.03372780978679657, 0.33797016739845276, 0.048280879855155945, -0.183857724070549, 0.05456353724002838, -0.04947761073708534, -0.09593810141086578, 0.08334217965602875, -0.3088587522506714, -0.28653764724731445, -0.2021278291940689, 0.013125903904438019, -0.1359443962574005, 0.11758649349212646, -0.063003309071064, 0.06510329246520996, -0.17915605008602142, 0.17222024500370026, -0.10057936608791351, -0.19173753261566162, 0.08467796444892883, -0.2521417438983917, -0.2528156042098999, -0.002224397612735629, -0.4986054599285126, -0.020457185804843903, -0.17229093611240387, 0.019111083820462227, 0.08514527231454849, -0.09634359925985336, -0.22608546912670135, 0.04473107308149338, 0.09336277097463608, -0.17375177145004272, 0.09724170714616776, 0.048287227749824524, -0.10134941339492798, 0.1416221708059311, -0.14256012439727783, 0.17618203163146973, 0.02840328775346279, -0.10274533182382584, -0.03309238702058792, -0.0655503198504448, -0.020092889666557312, -0.019436432048678398, 0.25649431347846985, -0.07633136212825775, -0.026906948536634445, -0.04575735703110695, 0.1400948017835617, 0.05338432639837265, -0.0359874852001667, 0.04808418080210686, -0.41595953702926636, -0.04662695899605751, 0.07257764786481857, 0.11676418781280518, 0.015060718171298504, 0.04915939271450043, -0.28310489654541016, 0.2508181035518646, 0.02125333622097969, 0.3561675548553467, -0.06835701316595078, 0.018494362011551857, 0.25780588388442993, 0.3144910931587219, 0.18350499868392944, -0.23734815418720245, -0.06666584312915802, -0.0931256040930748, 0.27457523345947266, 0.19347602128982544, -0.08793336898088455, 0.06128837168216705, 0.15211422741413116, -0.052374597638845444, -0.23393529653549194, 0.061268728226423264, 0.25844138860702515, 0.010978070087730885, 0.0972532257437706, -0.031260497868061066, -0.034811630845069885, -0.2274467796087265, -0.14734578132629395, 0.10137893259525299, 0.18889492750167847, 0.08417601138353348, -0.35476717352867126, 0.2144320011138916, 0.1340591460466385, -0.13473713397979736, 0.03258951008319855, 0.08357521146535873, 0.04376355558633804, 0.13204260170459747, 0.339126318693161, 0.015914956107735634, 0.1160414069890976, -0.04000895842909813, -0.1271701157093048, 0.0827082023024559, 0.28860920667648315, -0.003307842882350087, 0.1362595409154892, -0.41069796681404114, 0.06948484480381012, 0.15875907242298126, -0.18774135410785675, -0.16254740953445435, -0.32746660709381104, 0.19771559536457062, 0.05203063413500786, 0.09741704910993576, -0.10454743355512619, 0.0908392146229744, -0.051271114498376846, 0.3290463984012604, 0.08254364132881165, 0.09801356494426727, 0.15805578231811523, 0.11089906096458435, 0.33008021116256714, 0.15957748889923096, 0.12369491159915924, 0.05832983925938606, -0.3946245610713959, 0.02382933720946312, 0.06965295970439911, -0.4063171446323395, 0.14519774913787842, -0.22454829514026642, 0.09667567908763885, 0.18080393970012665, 0.1234414279460907, -0.010672936215996742, -0.058350756764411926, 0.05921540781855583, -0.08655887097120285, -0.0034420716110616922, 0.09308449178934097, 0.0936250388622284, 0.48771175742149353, -0.0030040466226637363, 0.15301218628883362, 0.3788374066352844, -0.016267113387584686, 0.0019230713369324803, -0.1582721769809723, -0.15369468927383423, 0.007801337167620659, 0.36449551582336426, -0.018250856548547745, 0.026157591491937637, -0.30495041608810425, 0.14463567733764648, 0.006703394465148449, 0.09771578758955002, -0.1763019859790802, -0.16527320444583893, 0.06893785297870636, 0.0732872262597084, -0.02593918889760971, -0.36999082565307617, 0.04760231077671051, -0.15108586847782135, 0.20503650605678558, 0.1101604551076889, -0.0836866945028305, -0.058540526777505875, 0.06664732843637466, 0.042926106601953506, 0.17792144417762756, 0.11528502404689789, 0.12956544756889343, -0.11182323098182678, 0.004688546061515808, 0.06839907914400101, 0.029716426506638527, -0.022158537060022354, 0.04624336212873459, 0.24103854596614838, 0.17005184292793274, 0.08063995093107224, -0.19760428369045258, 0.29523658752441406, 0.010343029163777828, -0.10090520232915878, 0.085108183324337, 0.11391489952802658, 0.002453866880387068, -0.06287521123886108, 0.07562581449747086, -0.06356129050254822, -0.1367192417383194, 0.2274085432291031, -0.040108103305101395, -0.04258900135755539, -0.1323731243610382, 0.1396385133266449, 0.07992060482501984, 0.06382515281438828, -0.028350789099931717, 0.06723356992006302, -0.26293498277664185, 0.09481489658355713, 0.07103708386421204, -0.08826004713773727, 0.23826861381530762, 0.29865363240242004, 0.03422742336988449, -0.2206246554851532, -0.07376459985971451, -0.030410416424274445, 0.23204566538333893, -0.015456589870154858, 0.08698499202728271, -0.059550438076257706, 0.10476860404014587, -0.11214254051446915, -0.029472045600414276, 0.02254798449575901, 0.04657924175262451, 0.17671941220760345, 0.06549803167581558, -0.13095229864120483, -0.008120688609778881, -0.029029592871665955, 0.09776879847049713, 0.018701424822211266, -0.1586417853832245, 0.049948424100875854, -0.07442852854728699, 0.3334729075431824, 0.060008447617292404, -0.1495048999786377, -0.248717799782753, 0.022841179743409157, 0.15219704806804657, 0.05924683436751366, -0.05203218013048172, 0.024158762767910957, 0.0857500210404396, -0.009755290113389492, 0.1934177130460739, 0.0631943792104721, 0.24148441851139069, 0.10587828606367111, -0.13453277945518494, -0.09771069884300232, 0.07920636236667633, 0.20875711739063263, -0.023400668054819107, -0.06908393651247025, 0.1441766768693924, 0.14803172647953033, -0.10853243619203568, -0.14182592928409576, 0.03152010217308998, 0.07818379998207092, 0.05434190109372139, 0.17124633491039276, 0.11955059319734573, -0.033715322613716125, 0.011942660436034203, -0.012177787721157074, -0.17732210457324982, -0.011326844803988934, 0.041463349014520645, 0.12593793869018555, -0.1237567588686943, -0.22343429923057556, -0.2318536341190338, -0.16393771767616272, -0.12329183518886566, -0.028838999569416046, 0.03108590841293335, -0.09073736518621445, 0.06280779093503952, 0.237446591258049, 0.284565269947052, -0.008217867463827133, -0.05181494727730751, 0.3943144977092743, -0.18827947974205017, 0.23584899306297302, -0.05864705890417099, -0.03469965234398842, -0.11696881800889969, 0.08906352519989014, -0.06642383337020874, -0.36001092195510864, 0.006843597628176212, 0.0012177831958979368, -0.06535770744085312, 0.036766886711120605, -0.1771475374698639, 0.04247696325182915, -0.015360119752585888, -0.2335381805896759, -0.003898777300491929, 0.04964851588010788, 0.28831374645233154, -0.17879986763000488, -0.10620250552892685, -0.20874065160751343, 0.11234024167060852, -0.07587876170873642, 0.05082813650369644, -0.4122146964073181, 0.06740701198577881, -0.13626646995544434, 0.3975938856601715, -0.16292957961559296, -0.2924233376979828, -0.5835663080215454, -0.02090444415807724, 0.017174260690808296, 0.0980972945690155, -0.1066446527838707, -0.05717548355460167, -0.05713214352726936, -0.11943592131137848, 0.023240093141794205, -0.16884934902191162, -0.10913664847612381, 0.10920152813196182, -0.17993958294391632, 0.1840381920337677, -0.1426379233598709, 0.19761493802070618, 0.04143555462360382, -0.21680009365081787, 0.11520558595657349, 0.0721389502286911, 0.05040496215224266, 0.014241999015212059, 0.05294034257531166, 0.08424996584653854, -0.4121764004230499, 0.03525439277291298, -0.029536815360188484, -0.23852096498012543, 0.12330932170152664, 0.05112774297595024, 0.22577981650829315, -0.10799543559551239, -0.041919536888599396, 0.4392012655735016, 0.08662637323141098, 0.17156240344047546, -0.013347003608942032, -0.07023336738348007, -0.23390571773052216, -0.05541297048330307, 