{"version": "0.5.3", "metadata": {"date": {"year": 2024, "month": 10, "day": 1, "hour": 18, "minute": 56, "second": 48}, "loudness": -14.856775283813477, "gain": 0.8179496600712043, "training": {"settings": {"fit_cab": false, "ignore_checks": false}, "data": {"latency": {"manual": null, "calibration": {"algorithm_version": 1, "delays": [141, 141], "safety_factor": 4, "recommended": 137, "warnings": {"matches_lookahead": false, "disagreement_too_high": false}}}, "checks": {"version": 3, "passed": true}}, "validation_esr": 0.005261076164016953}}, "architecture": "WaveNet", "config": {"layers": [{"input_size": 1, "condition_size": 1, "head_size": 8, "channels": 16, "kernel_size": 3, "dilations": [1, 2, 4, 8, 16, 32, 64, 128, 256, 512], "activation": "Tanh", "gated": false, "head_bias": false}, {"input_size": 16, "condition_size": 1, "head_size": 1, "channels": 8, "kernel_size": 3, "dilations": [1, 2, 4, 8, 16, 32, 64, 128, 256, 512], "activation": "Tanh", "gated": false, "head_bias": true}], "head": null, "head_scale": 0.02}, "weights": [-0.17896096408367157, 0.7840449810028076, -0.7821709513664246, -0.8322137594223022, -0.5991423726081848, 0.2470705509185791, 0.11778321862220764, 0.818689227104187, -0.15252278745174408, 0.24450096487998962, -0.4920080006122589, -0.1384403258562088, -0.9964226484298706, -0.7523429989814758, -0.5435963869094849, 0.043345969170331955, -0.11301422864198685, 0.0970236137509346, -0.03528224304318428, 0.0008062898414209485, -0.07385746389627457, -0.033292025327682495, -0.09171190857887268, 0.236655130982399, 0.1304057091474533, -0.051632095128297806, 0.26042917370796204, 0.021736105903983116, -0.16228988766670227, 0.08500465005636215, 0.09351922571659088, 0.21003630757331848, -0.21047723293304443, -0.21296057105064392, -0.04411716014146805, 0.07816188037395477, 0.1158595085144043, 0.1901143491268158, -0.06578748673200607, -0.0869680717587471, -0.08615843951702118, 0.044296227395534515, 0.17443040013313293, -0.057029467076063156, -0.22806192934513092, -0.2284492403268814, 0.01819724030792713, 0.20470671355724335, 0.08560270071029663, -0.08087357133626938, 0.21327482163906097, 0.28695935010910034, -0.0077287363819777966, 0.14837025105953217, 0.25210902094841003, -0.14687198400497437, 0.15928053855895996, 0.045779742300510406, -0.16670815646648407, 0.04911898449063301, 0.21768906712532043, 0.09230408072471619, -0.2577202618122101, -0.15412455797195435, -0.04602351784706116, 0.020581906661391258, -0.021730467677116394, 0.08804776519536972, -0.05828750506043434, 0.0820942148566246, -0.15934081375598907, 0.09445032477378845, 0.11195550113916397, 0.07009892165660858, 0.2717612683773041, 0.17947423458099365, -0.029824117198586464, 0.016685020178556442, 0.06366297602653503, -0.03389645367860794, -0.2589733302593231, 0.1010492742061615, 0.10583633929491043, 0.001198863610625267, -0.008415879681706429, 0.02394941821694374, -0.16910652816295624, -0.11854442954063416, -0.010023539885878563, 0.03873198851943016, 0.06856493651866913, 0.12670990824699402, -0.02884584479033947, 0.01633831299841404, -0.20422016084194183, 0.0456136055290699, 0.1202227920293808, -0.03056834265589714, 0.01915595307946205, -0.051158200949430466, 0.08674825727939606, 0.24376188218593597, -0.00859166495501995, -0.08411261439323425, 0.01108508836477995, 0.052952636033296585, -0.16434955596923828, 0.02999741956591606, 0.04278458654880524, 0.03474171459674835, -0.2075234204530716, 0.04887009039521217, 0.0212471392005682, -0.11805688589811325, 0.2829707860946655, -0.1332196444272995, 0.31150710582733154, -0.1233108788728714, 0.026141760870814323, -0.31162282824516296, 0.18139328062534332, 0.017847778275609016, -0.413699746131897, 0.20142291486263275, -0.11767261475324631, -0.4268968105316162, 0.10335380584001541, -0.0947231575846672, 0.2612663805484772, -0.26792165637016296, -0.03561998903751373, -0.11663764715194702, 0.15982171893119812, -0.016812613233923912, 0.4454171359539032, -0.14389048516750336, 0.04490148648619652, -0.3316752314567566, 0.23208582401275635, 0.06795897334814072, 0.45734116435050964, -0.054391324520111084, 0.1579243689775467, -0.3572203516960144, 0.009398638270795345, -0.04367583617568016, -0.2158278524875641, 0.15677745640277863, -0.06346459686756134, -0.4542282521724701, -0.007345118559896946, -0.11357000470161438, -0.37351852655410767, 0.21051402390003204, 0.09267708659172058, -0.48490577936172485, 0.21961821615695953, -0.13809776306152344, 0.217902272939682, -0.28991448879241943, 0.17506548762321472, 0.13357694447040558, -0.43376171588897705, -0.4044557511806488, -0.22890962660312653, 0.2653058171272278, 0.21373839676380157, 0.26520276069641113, -0.3853566646575928, 0.26848629117012024, 0.33943116664886475, -0.3191000819206238, 0.40032052993774414, 0.2521767318248749, -0.40288832783699036, -0.16784511506557465, -0.21114853024482727, 0.2062690109014511, 0.1807631403207779, -0.0605178028345108, -0.09444613009691238, -0.30514365434646606, -0.10657453536987305, 0.29958072304725647, 0.324598103761673, 0.2437959611415863, -0.3482828736305237, -0.2859577536582947, -0.31056347489356995, 0.3511386215686798, 0.3838743269443512, 0.30010801553726196, -0.3733524978160858, 0.26310986280441284, 0.08855132758617401, -0.3542631268501282, 0.1938769370317459, 0.25976645946502686, -0.34358906745910645, 0.2747237980365753, 0.21577303111553192, -0.16929900646209717, 0.16272491216659546, 0.10197935253381729, -0.3497300148010254, -0.11338429152965546, -0.17561373114585876, 0.4681631326675415, 0.2071695774793625, -0.1030007153749466, 0.024581240490078926, -0.18576642870903015, 0.1288873553276062, -0.07972899079322815, 0.1495165079832077, -0.09154356271028519, -0.06531885266304016, 0.07745728641748428, 0.00577982421964407, -0.06743279099464417, 0.15365256369113922, 0.035952381789684296, 0.10387905687093735, -0.1598092019557953, -0.03281990811228752, 0.0054345144890248775, -0.009509457275271416, -0.1532445251941681, 0.043454673141241074, -0.17378924787044525, 0.1107575073838234, 0.0700925663113594, 0.18882229924201965, 0.027224531397223473, 0.15992096066474915, -0.24540171027183533, 0.1687965840101242, -0.15502223372459412, 0.10632867366075516, -0.060442421585321426, 0.10323276370763779, 0.2635858356952667, -0.15058556199073792, 0.05742323398590088, 0.227376788854599, -0.24902670085430145, 0.15290246903896332, 0.03533153980970383, -0.10688406229019165, 0.025951866060495377, 0.08220947533845901, -0.0865660086274147, 0.1690429002046585, -0.1385517567396164, 0.040900032967329025, -0.08109251409769058, 0.07466792315244675, 0.06342006474733353, -0.25943639874458313, -0.19946472346782684, -0.026038849726319313, 0.2838342487812042, 0.17000265419483185, 0.045097626745700836, -0.14402031898498535, 0.05022325739264488, -0.10504051297903061, -0.1519363820552826, 0.2302139401435852, -0.014017253182828426, -0.26219508051872253, -0.17927971482276917, -0.09055653214454651, 0.2022790163755417, -0.035357363522052765, -0.1596648395061493, 0.22572948038578033, -0.1917605847120285, 0.04800213873386383, 0.2352723926305771, 0.1419466882944107, -0.1376284807920456, -0.26287025213241577, 0.0027780260425060987, 0.07321960479021072, 0.2935042977333069, 0.06534893065690994, -0.011642522178590298, -0.22403380274772644, 0.10616973787546158, -0.13305822014808655, -0.11750266700983047, 0.1428682655096054, -0.06662905961275101, -0.2294887900352478, 0.007842366583645344, 0.03512858971953392, -0.3024941682815552, 0.16484524309635162, -0.10511048883199692, -0.2626783847808838, -0.08082237094640732, -0.05315777659416199, 0.1036464124917984, 0.1367158591747284, -0.40964895486831665, -0.033380985260009766, 0.07133089751005173, 0.4190419316291809, 0.006296483334153891, -0.13295875489711761, -0.3811085820198059, 0.02395007014274597, -0.0614376924932003, -0.30345138907432556, 0.07028599828481674, -0.07752979546785355, -0.35870158672332764, 0.03906659781932831, 0.004087092820554972, 0.3528936803340912, 0.03606542944908142, -0.05721546337008476, 0.0067676338367164135, 0.2559424936771393, 0.1392165720462799, 0.44314274191856384, 0.044986724853515625, 0.09568347036838531, -0.4109019637107849, -0.11624407768249512, -0.13036970794200897, 0.4870719909667969, 0.10697691887617111, -0.10094757378101349, -0.30358827114105225, 0.09223102033138275, 0.14884702861309052, -0.20676292479038239, 0.10027068853378296, -0.04380009323358536, -0.4095192849636078, 0.09195831418037415, 0.06835028529167175, -0.4478952884674072, 0.1036723330616951, 0.061624594032764435, -0.28274545073509216, -0.11070092767477036, 0.036558639258146286, 0.23446494340896606, 0.09126409143209457, -0.164637953042984, 0.1153615415096283, 0.14601896703243256, 0.3051369786262512, 0.01582581363618374, 0.022359060123562813, -0.3422459363937378, -0.03820295259356499, -0.05345598980784416, -0.38452649116516113, -0.1882849782705307, 0.1578652262687683, -0.15739057958126068, 0.07792205363512039, 0.1735755056142807, 0.09905175864696503, -0.04264884069561958, -0.08166476339101791, -0.13444632291793823, -0.0024507849011570215, -0.06738810986280441, 0.1708524525165558, -0.06722932308912277, -0.12568795680999756, -0.09492777287960052, 0.07183562219142914, 0.19403626024723053, 0.3374347984790802, 0.18785718083381653, -0.09373491257429123, -0.17252342402935028, 0.06807427108287811, 0.10619403421878815, -0.07685629278421402, 0.014983924105763435, 0.1467236876487732, -0.29340875148773193, -0.001754201017320156, 0.059542980045080185, -0.27756237983703613, -0.15291714668273926, -0.03619450330734253, -0.34895676374435425, 0.03402337804436684, 0.1559552699327469, 0.14849108457565308, -0.06074034050107002, -0.006455922499299049, 0.10366414487361908, -0.05463740974664688, -0.0992642194032669, 0.17967794835567474, 0.15899311006069183, -0.06980728358030319, 0.08741950988769531, 0.006243216805160046, -0.09176275134086609, 0.03286181390285492, -0.18570372462272644, -0.059701550751924515, 0.08393123000860214, -0.0884447693824768, -0.1336783766746521, -0.015768639743328094, 0.04959972947835922, -0.010196839459240437, -0.11252255737781525, -0.047608766704797745, -0.029142871499061584, -0.041751790791749954, 0.11040008068084717, 0.10608649998903275, 0.04865686967968941, -0.21574459969997406, -0.022952081635594368, -0.07213445007801056, 0.03068879432976246, 0.07449262589216232, -0.14232251048088074, -0.04238075017929077, 0.09004699438810349, -0.024438932538032532, -0.1826525330543518, -0.06713449954986572, -0.017537659034132957, -0.21356450021266937, 0.03212728351354599, -0.18078771233558655, -0.24316802620887756, -0.1790723353624344, -0.07019078731536865, 0.0029704729095101357, -0.16778133809566498, 0.16994431614875793, 0.03179158642888069, 0.036542221903800964, 0.2109319120645523, -0.3492153286933899, 0.07267280668020248, 0.02953832782804966, 0.44256359338760376, 0.12465616315603256, -0.056892845779657364, -0.18030737340450287, -0.045385152101516724, 0.11137335747480392, -0.41929787397384644, -0.09606591612100601, -0.088100865483284, -0.35364827513694763, -0.018638240173459053, -0.17080703377723694, 0.32636183500289917, 0.11720675230026245, 0.09654498100280762, -0.07100611180067062, 0.07421020418405533, -0.08737796545028687, 0.3636589050292969, 0.19630298018455505, 0.15796057879924774, -0.30107447504997253, 0.028323156759142876, -0.19660261273384094, 0.16091527044773102, 0.11111098527908325, -0.027275539934635162, -0.22362513840198517, -0.14639738202095032, -0.012616950087249279, -0.40012791752815247, 0.040450017899274826, 0.026982547715306282, -0.190426766872406, 0.03427940607070923, 0.1218690574169159, -0.2970508337020874, -0.09667127579450607, 0.01548376027494669, -0.27385807037353516, 0.023711776360869408, -0.14697624742984772, 0.3695466220378876, -0.021141987293958664, -0.13688808679580688, -0.4392246901988983, 0.1965842843055725, 0.2119484692811966, 0.3410475552082062, 0.015016572549939156, -0.014753682538866997, -0.38392528891563416, 0.20530612766742706, -0.16145870089530945, -0.42175865173339844, 0.14398260414600372, -0.11520843207836151, -0.42077404260635376, 0.05152091383934021, 0.1581302136182785, 0.39044493436813354, -0.14749504625797272, 0.06470248848199844, -0.10005121678113937, 0.08804736286401749, 0.09510671347379684, 0.5469220280647278, -0.10064670443534851, -0.021497441455721855, -0.4836874306201935, 0.17819486558437347, -0.03372091054916382, 0.35532402992248535, -0.17131580412387848, 0.059558648616075516, -0.5139228701591492, 0.09700440615415573, -0.1377183049917221, -0.2953069806098938, 0.23903988301753998, -0.19195249676704407, -0.5836581587791443, -0.025249095633625984, -0.08130842447280884, -0.5014517307281494, -0.005723648238927126, -0.13064691424369812, -0.443060040473938, 0.020195849239826202, 0.09093119204044342, 0.3121354877948761, -0.24115605652332306, 0.019125383347272873, 0.15228807926177979, -0.07701072096824646, -0.04891259968280792, -0.1138516291975975, 0.13824959099292755, -0.07650086283683777, -0.06966489553451538, 0.15064813196659088, -0.03331628814339638, 0.09789802134037018, -0.003720598528161645, 0.017517581582069397, 0.027091529220342636, 0.09209761023521423, -0.03923717513680458, -0.20870785415172577, -0.09476761519908905, 0.030256884172558784, 0.19500206410884857, -0.157992884516716, 0.07984138280153275, -0.1018061488866806, -0.034813180565834045, 0.14950966835021973, 0.13813456892967224, 0.11133169382810593, 0.036450035870075226, -0.11197737604379654, -0.10233329236507416, 0.03947153314948082, 0.182900533080101, -0.04770587757229805, -0.08005325496196747, 0.1263749897480011, 0.14519986510276794, 0.015590758994221687, -0.05235542356967926, -0.1230858862400055, 0.09084010124206543, 0.05467536300420761, -0.06847047805786133, 0.08087044954299927, 0.11625389009714127, 0.11637706309556961, 0.09323800355195999, -0.054364897310733795, -0.08670195937156677, 0.1155671700835228, 0.09244690090417862, 0.047701187431812286, -0.1435563713312149, -0.008431912399828434, 0.174169659614563, 0.3283776640892029, 0.011536398902535439, -0.16335129737854004, 0.1392543613910675, -0.21562394499778748, 0.098479725420475, 0.14637845754623413, -0.1812741756439209, 0.0372319296002388, -0.2590509355068207, 0.028887668624520302, 0.009215771220624447, -0.014968066476285458, -0.1977817267179489, 0.1862151324748993, -0.2589159309864044, 0.16562797129154205, 0.16215099394321442, 0.2710748612880707, -0.09362490475177765, 0.10200284421443939, -0.17531538009643555, 0.0394466370344162, 0.16356875002384186, 0.24548035860061646, -0.25799310207366943, -0.07987042516469955, 0.09531688690185547, 0.02062167227268219, -0.05010716989636421, 0.06404825299978256, -0.12479179352521896, 0.05176924541592598, 0.23735065758228302, -0.06646817922592163, -0.020664507523179054, 0.25891444087028503, -0.15413302183151245, -0.09741353243589401, -0.282163143157959, -0.015746837481856346, 0.05915605276823044, -0.06355605274438858, 0.03030865266919136, 0.04517809674143791, -0.03810059279203415, -0.13463395833969116, 0.1294398009777069, -0.03485355153679848, 0.16252978146076202, -0.1063210591673851, 0.012231969274580479, 0.12221185863018036, -0.05225569009780884, 0.16105349361896515, -0.06604805588722229, -0.12184196710586548, -0.09632213413715363, -0.0055942777544260025, 0.1463514268398285, 0.01785900816321373, 0.2092563360929489, 0.03324609994888306, -0.07885380834341049, 0.06171102821826935, -0.11945735663175583, 0.037750136107206345, 0.15702952444553375, -0.04704258590936661, 0.07572149485349655, -0.07957468926906586, 0.12132861465215683, -0.09771963208913803, 0.014070844277739525, -0.02404423989355564, 0.07429465651512146, 0.08257155120372772, 0.09510976076126099, 0.026976246386766434, 0.038467250764369965, 0.1077817976474762, 0.010461277328431606, 0.17168563604354858, -0.08679723739624023, 0.02789640985429287, 0.02793891169130802, 0.06633738428354263, 0.05228530615568161, -0.07556501775979996, -0.11579306423664093, -0.10567785054445267, -0.03897413611412048, 0.002349026035517454, 0.033134736120700836, 0.07912014424800873, 0.13433317840099335, -0.1113424301147461, -0.13078555464744568, 0.10429587960243225, -0.23294728994369507, 0.031768228858709335, 0.024313386529684067, -0.18568329513072968, 0.06766998767852783, -0.12166617065668106, 0.15206624567508698, -0.08816798031330109, -0.032000716775655746, 0.010134778916835785, 0.08323076367378235, -0.04986045882105827, 0.2180447280406952, -0.01904919184744358, -0.07265385240316391, -0.24408242106437683, -0.1213209256529808, 0.17098769545555115, 0.08731300383806229, 0.007833756506443024, 0.028702760115265846, -0.02302238717675209, 0.14289040863513947, 0.12172292917966843, -0.21367183327674866, -0.01726725324988365, -0.06756992638111115, -0.20755240321159363, 0.036467768251895905, 0.1382136344909668, -0.23585879802703857, 0.09459076076745987, -0.06691257655620575, -0.14723627269268036, 0.13868041336536407, -0.02346324361860752, 0.07611248642206192, -0.1299339234828949, 0.045099176466464996, 0.07161053270101547, 0.033335063606500626, -0.23820306360721588, -0.15311415493488312, -0.1917773187160492, 0.34189921617507935, 0.15794286131858826, 0.027775153517723083, -0.2575528025627136, 0.16983067989349365, 0.16397646069526672, -0.402360200881958, 0.03944755718111992, 0.03215719386935234, -0.44618144631385803, -0.061182424426078796, 0.027559200301766396, 0.41328737139701843, 0.16752812266349792, 0.1756289154291153, -0.1317632496356964, 0.06074376404285431, -0.1269761472940445, 0.22217974066734314, 0.09759726375341415, 0.1747410148382187, -0.4258381128311157, 0.06740862876176834, -0.023022355511784554, 0.20013847947120667, 0.024991167709231377, 0.197804793715477, -0.44549494981765747, 0.01910276524722576, 0.1358274221420288, -0.426035612821579, 0.12429114431142807, 0.14288266003131866, -0.23859302699565887, -0.04599188640713692, 0.2144019901752472, -0.4105226695537567, 0.19941803812980652, -0.06529411673545837, -0.45307019352912903, 0.015197073109447956, -0.0969882383942604, 0.197123721241951, -0.16980014741420746, -0.04648587480187416, -0.09992720186710358, -0.06695310026407242, 0.033401768654584885, -0.10657880455255508, 0.043225616216659546, -0.04559309780597687, 0.33831048011779785, -0.08161114901304245, -0.03154267370700836, 0.021554116159677505, -0.06129864230751991, -0.22233664989471436, 0.045270442962646484, -0.153547465801239, 0.28683286905288696, -0.4898737668991089, 0.6788905262947083, -0.4521085321903229, -0.04157157987356186, 1.103759765625, 1.0240839719772339, -0.6148387789726257, 0.22482949495315552, 0.1768798828125, -0.547713577747345, -0.35469111800193787, 0.3132638931274414, -0.7123864889144897, 0.166177898645401, 0.7664400339126587, -0.17293408513069153, 0.09809723496437073, 0.15081505477428436, 0.11523527652025223, 0.41571465134620667, 0.09003539383411407, 0.25216904282569885, -0.2775789797306061, -0.011619724333286285, 0.0855582058429718, 0.16725505888462067, -0.02601594105362892, 0.2818167209625244, -0.04793303459882736, -0.039430372416973114, 0.05875884369015694, -0.045747462660074234, -0.10328590869903564, -0.3729648292064667, 0.2481452375650406, -0.15845751762390137, -0.06051937863230705, -0.18172861635684967, 0.05253181234002113, -0.08893811702728271, 0.0455637201666832, -0.2919655442237854, -0.02615172415971756, 0.060906048864126205, -0.12886542081832886, 0.15250101685523987, 0.3197649419307709, -0.014726872555911541, -0.008497393690049648, -0.013288174755871296, 0.346566379070282, 0.043497517704963684, -0.09625794738531113, 0.09442964941263199, -0.3140128254890442, -0.029610583558678627, -0.12781724333763123, 0.09758196771144867, -0.22096604108810425, 0.22577127814292908, 0.22653833031654358, 0.0014076411025598645, 0.016612034291028976, 0.13976319134235382, -0.1061004176735878, 0.05125510320067406, -0.013283641077578068, 0.14996054768562317, 0.006067301146686077, 0.06270893663167953, 0.004237507004290819, -0.33637508749961853, 0.03281277418136597, 0.09962312877178192, -0.018460765480995178, 0.2966630458831787, 0.24994215369224548, -0.15081186592578888, -0.05202024430036545, -0.05318247526884079, -0.2212829440832138, -0.13103272020816803, 0.20711705088615417, 0.3650221824645996, 0.2171560823917389, 0.1850140541791916, -0.4995521605014801, 0.020276818424463272, 0.25787729024887085, -0.10500098764896393, 0.3950424790382385, -0.1878257840871811, 0.15467645227909088, -0.3507848083972931, -0.05282560735940933, -0.15692871809005737, 0.001793437171727419, 0.1289387047290802, 0.08512625098228455, 0.24099688231945038, 0.27647775411605835, 0.2004726231098175, 0.0030638256575912237, 0.16399438679218292, -0.04062497615814209, -0.12085278332233429, 0.010664890520274639, 0.02904694899916649, -0.0925416350364685, -0.05870506539940834, 0.2176312506198883, -0.03906933590769768, 0.009153521619737148, 0.09560662508010864, 0.17414724826812744, -0.1965184211730957, -0.27128279209136963, 0.08942662924528122, 0.0085036251693964, 0.23490627110004425, -0.2553635835647583, -0.40593138337135315, 0.08089566230773926, 0.1710025519132614, -0.27239441871643066, 0.0736931636929512, -0.43380337953567505, 0.33265170454978943, 0.15241669118404388, 0.3180807828903198, -0.29017141461372375, -0.2062375247478485, 0.15509900450706482, 0.14553897082805634, 0.08262807875871658, 0.1283717155456543, -0.23840542137622833, 0.3244616389274597, -0.06604459136724472, 0.03536263108253479, -0.06095227599143982, -0.13249100744724274, 0.13534678518772125, -0.094939686357975, -0.018088867887854576, -0.3661526143550873, -0.10710220783948898, 0.0042496430687606335, -0.2511567771434784, -0.18769316375255585, -0.08130177855491638, -0.18802295625209808, -0.24113976955413818, -0.0816364735364914, -0.012554952874779701, -0.022400900721549988, -0.12096793949604034, 0.14017970860004425, -0.26093000173568726, -0.02789612114429474, 0.12895838916301727, 0.15780624747276306, -0.2216523438692093, -0.08741820603609085, 0.07632612437009811, 0.1457217037677765, -0.41618701815605164, -0.0013435949804261327, 0.12427522242069244, 0.08401283621788025, 0.29365015029907227, 0.2732316255569458, 0.28612804412841797, -0.37560492753982544, 0.14349444210529327, 0.23453325033187866, 0.355135440826416, -0.3639622628688812, 0.23273761570453644, -0.139029860496521, -0.43092024326324463, -0.028913579881191254, -0.12327982485294342, -0.061558984220027924, -0.2902454137802124, -0.27818167209625244, 0.05446525290608406, -0.21337191760540009, 0.27646154165267944, -0.0335502028465271, -0.16913767158985138, -0.048545099794864655, -0.17642506957054138, 0.10648564249277115, 0.11119166016578674, -0.006876958534121513, -0.0634494349360466, 0.026444459334015846, -0.026000935584306717, 0.012051916681230068, -0.14211393892765045, -0.044265035539865494, -0.2520453631877899, 0.12775634229183197, 0.13246026635169983, -0.07497481256723404, -0.23391413688659668, -0.019368018954992294, -0.11115150153636932, 0.12299362570047379, 0.10001518577337265, 0.18474912643432617, -0.0755067989230156, 0.060348208993673325, -0.003172104712575674, 0.17404113709926605, 0.01289286557585001, -0.0673755630850792, -0.01454239897429943, 0.1691480427980423, -0.15942411124706268, -0.045452043414115906, 0.16870935261249542, 0.013490372337400913, -0.18358571827411652, -0.1156664565205574, 0.12744140625, 0.040692560374736786, 0.11770647764205933, 0.24341650307178497, -0.029937442392110825, 0.0005737176979891956, -0.07105069607496262, 0.04404226318001747, 0.02038532868027687, -0.16429270803928375, -0.01963300071656704, -0.2508125901222229, 0.00794509518891573, -0.12900152802467346, 0.22483254969120026, 0.003883546683937311, -0.1977747082710266, 0.31115391850471497, -0.005610528402030468, 0.18839715421199799, 0.217147558927536, -0.22443775832653046, 0.14561186730861664, 0.08330962806940079, -0.09295940399169922, 0.16487082839012146, 0.17884691059589386, -0.10051155090332031, -0.16714425384998322, 0.3137078285217285, 0.14551879465579987, 0.2437366098165512, -0.13471147418022156, -0.17628329992294312, 0.18762728571891785, 0.07255145907402039, 0.2573259174823761, -0.18051151931285858, -0.19903399050235748, 0.053808797150850296, -0.13322390615940094, 0.10571766644716263, 0.2385110706090927, 0.08317948877811432, 0.09903255105018616, 0.20248566567897797, -0.04727024585008621, 0.18703104555606842, -0.38642293214797974, -0.0623452253639698, 0.06470023840665817, 0.05685170367360115, 0.06534624844789505, -0.09168245643377304, -0.1291765719652176, 0.007265840657055378, -0.42050549387931824, 0.10514876246452332, 0.018567757681012154, 0.06707281619310379, -0.06045696511864662, -0.06493736058473587, 0.17612040042877197, -0.3257427215576172, 0.29140785336494446, -0.4441491663455963, 0.4126730263233185, -0.16984766721725464, -0.11259941756725311, 0.14829663932323456, -0.26887068152427673, -0.0960581973195076, 0.030326133593916893, -0.2854395806789398, 0.08535190671682358, 0.02974824793636799, 0.26853448152542114, 0.11833176761865616, -0.07698117196559906, -0.10447636991739273, -0.13966450095176697, 0.3172231614589691, 0.13220402598381042, 0.07066775113344193, -0.3238702714443207, -0.0950232595205307, -0.06486281007528305, 0.14360715448856354, -0.12133420258760452, 0.11000371724367142, -0.316780686378479, -0.18691417574882507, -0.2372041493654251, 0.19783000648021698, -0.33478885889053345, -0.1808454990386963, 0.10925230383872986, -0.22343851625919342, 0.04588932916522026, 0.02971835806965828, -0.11732705682516098, 0.032614193856716156, 0.01218691561371088, -0.5077560544013977, 0.8083930015563965, -0.2281825840473175, 0.10445427149534225, -0.12672482430934906, -0.32019418478012085, -0.003175038844347, 0.018874308094382286, 0.16775524616241455, -0.1388201117515564, -0.19030356407165527, -0.1260213404893875, 0.08838879317045212, 0.12655633687973022, 0.14653390645980835, -0.14107659459114075, 0.05658065527677536, -0.17090554535388947, 0.009740939363837242, -0.1937335878610611, 0.24476920068264008, -0.16160769760608673, -0.1873723715543747, -0.04415731877088547, 0.18540118634700775, -0.056420329958200455, -0.06825212389230728, 0.06352689862251282, -0.15483610332012177, -0.0003053290129173547, -0.05893196910619736, 0.0519084706902504, -0.05148598924279213, 0.04062558710575104, -0.05515680089592934, -0.22175273299217224, 0.10897263139486313, 0.11880990862846375, 0.0008503388380631804, -0.07133805006742477, 0.022143341600894928, 0.0776214525103569, 0.018051795661449432, 0.11111125349998474, 0.05761946365237236, 0.1409318596124649, 0.1938863843679428, 0.07433009892702103, -0.04549882560968399, 0.26111680269241333, 0.09732909500598907, -0.14037011563777924, -0.002858765423297882, -0.1567154973745346, -0.006985327694565058, -0.12300275266170502, 0.09865006059408188, 0.2259346842765808, 0.22132328152656555, -0.2778404653072357, 0.07364760339260101, 0.10824833065271378, -0.039345983415842056, 0.16723687946796417, 0.05798479914665222, -0.11380840837955475, 0.25838619470596313, -0.22552064061164856, 0.017486799508333206, -0.15043489634990692, -0.005017347168177366, 0.24131086468696594, 0.2529173791408539, -0.09990478307008743, -0.22160394489765167, -0.17702749371528625, -0.08741455525159836, 0.29139745235443115, 0.11812461912631989, -0.018917329609394073, -0.15493445098400116, -0.1828361600637436, 0.0270598903298378, -0.022561531513929367, -0.03467946499586105, -0.09915246814489365, -0.0828603208065033, 0.24502447247505188, -0.008255107328295708, -0.014116384088993073, 0.15331558883190155, -0.013400822877883911, -0.05646819621324539, -0.03201715275645256, -0.07639859616756439, -0.06872918456792831, -0.28207531571388245, -0.08486779034137726, 0.2581981122493744, -0.21681112051010132, 0.14629313349723816, 0.2915658950805664, -0.004996473900973797, -0.14384473860263824, 0.030019711703062057, -0.13262058794498444, 0.1947227418422699, 0.09279824793338776, 0.09010657668113708, -0.21698600053787231, -0.2253558337688446, 0.17037253081798553, 0.12298040091991425, -0.09563161432743073, -0.04720311984419823, -0.17928561568260193, -0.1943681538105011, -0.04463887959718704, 0.13549448549747467, 0.051658112555742264, 0.07869204878807068, 0.13394209742546082, -0.006903911009430885, -0.15094462037086487, 0.12737737596035004, 0.16300684213638306, 0.11687661707401276, -0.11174328625202179, 0.05296279117465019, 0.18496763706207275, -0.09118613600730896, 0.1264449805021286, 0.057677384465932846, -0.1505730152130127, -0.07433383166790009, 0.2029656022787094, 0.0715247169137001, 0.13245618343353271, 0.11790810525417328, -0.08594005554914474, -0.2114764302968979, 0.013450227677822113, -0.32033708691596985, -0.31204551458358765, -0.036245521157979965, -0.40836387872695923, 0.12154843658208847, 0.07516816258430481, 0.19525665044784546, 0.2907261550426483, -0.019462140277028084, 0.1106303334236145, 0.06821320205926895, -0.21290281414985657, -0.07827920466661453, -0.38833221793174744, 0.03580645099282265, 0.23473744094371796, 0.06615380197763443, -0.12124661356210709, 0.10849344730377197, 0.10551253706216812, 0.06264479458332062, 0.0025330870412290096, -0.15521961450576782, -0.1587686836719513, 0.11972779035568237, -0.06967242807149887, 0.14457015693187714, -0.17530374228954315, -0.015257093124091625, -0.01661527156829834, 0.12876398861408234, 0.15586070716381073, 0.13574543595314026, -0.013972293585538864, -0.06139935553073883, -0.1148410513997078, -0.07156769931316376, 0.012597743421792984, 0.15645058453083038, -0.112092524766922, -0.06360786408185959, -0.08018893748521805, 0.01423143781721592, 0.10045468807220459, -0.1439882069826126, -0.0009987448574975133, 0.23631592094898224, 0.1333896964788437, 0.14486254751682281, 0.21424099802970886, 0.3361709713935852, 0.19122594594955444, 0.41236624121665955, 0.08444720506668091, 0.022692199796438217, -0.004909875337034464, -0.13351519405841827, 0.022839630022644997, -0.07863572239875793, -0.1250467747449875, 0.04395926743745804, 0.191696897149086, -0.12744595110416412, -0.08157350867986679, 0.16271677613258362, -0.0016185524873435497, 0.10174314677715302, 0.17259429395198822, -0.06280192732810974, 0.33284345269203186, 0.164335697889328, 0.12443948537111282, -0.020637856796383858, -0.1253255307674408, 0.005935625173151493, -0.223236083984375, 0.04266263544559479, 0.15990294516086578, -0.12488086521625519, -0.05296708270907402, 0.09495150297880173, 0.08294568210840225, 0.07096370309591293, 0.19292955100536346, 0.046597469598054886, -0.07760502398014069, 0.06232476979494095, 0.014341423287987709, 0.26519444584846497, 0.11751580238342285, -0.03381723538041115, 0.25730153918266296, -0.048172663897275925, 0.07305735349655151, 0.11971624195575714, -0.06816266477108002, -0.13308806717395782, 0.18801678717136383, 0.15258759260177612, 0.2973763048648834, -0.20323091745376587, 0.06468226760625839, -0.038251012563705444, -0.11322858184576035, 0.14576296508312225, 0.041538625955581665, 0.1316041499376297, 0.09413917362689972, -0.02117127552628517, -0.11412276327610016, 0.16713187098503113, -0.0037885447964072227, 0.18023239076137543, 0.16094103455543518, -0.002268669195473194, -0.09423049539327621, 0.18027031421661377, -0.016623107716441154, 0.14681872725486755, 0.10163606703281403, 0.0036341529339551926, 0.1972796618938446, 0.21473722159862518, -0.06573724746704102, -0.013548150658607483, -0.19341859221458435, 0.06885763257741928, -0.003634541528299451, 0.08702997863292694, -0.053755808621644974, -0.20047754049301147, -0.015666771680116653, -0.03486902266740799, 0.041201911866664886, 0.19076044857501984, -0.014221628196537495, 0.03883730620145798, -0.021791450679302216, 0.04593125730752945, -0.10751453042030334, 0.3073921203613281, 0.1881866753101349, 0.2646518647670746, 0.16127987205982208, 0.08608294278383255, -0.06582040339708328, -0.24283885955810547, 0.20923222601413727, -0.06207926943898201, -0.26101693511009216, -0.061709653586149216, -0.015099799260497093, -0.09843352437019348, 0.08066844195127487, -0.037670429795980453, -0.15420234203338623, 0.11427002400159836, -0.023571042343974113, -0.24703441560268402, -0.030969960615038872, 0.11724967509508133, -0.11967656761407852, -0.08133316785097122, -0.03410935029387474, -0.24776345491409302, 0.13559947907924652, -0.15732957422733307, 0.27519068121910095, 0.04073275625705719, -0.03613749518990517, -0.09322711825370789, -0.11579755693674088, 0.09413129836320877, 0.2207697182893753, -0.018843449652194977, -0.038783516734838486, -0.10585986077785492, -0.16919638216495514, 0.21118803322315216, 0.21100272238254547, 0.15698152780532837, -0.08995220810174942, -0.0754079520702362, -0.21341052651405334, -0.006680047605186701, -0.13250531256198883, -0.09577641636133194, 0.11397135257720947, -0.1078529953956604, 0.031260453164577484, -0.010788318701088428, -0.1804829090833664, 0.013888588175177574, -0.07419338077306747, 0.3033635914325714, -0.10529619455337524, 0.1326184868812561, 0.002401285106316209, -0.03381115198135376, -0.08052884042263031, 0.06631376594305038, 0.06944625824689865, 0.06598849594593048, -0.020991945639252663, -0.4105929136276245, -0.3003828227519989, 0.2829574644565582, 0.003343278542160988, 0.1106237918138504, 0.2407732754945755, 0.05628165230154991, -0.05070555955171585, 0.40297240018844604, 0.0067418827675282955, 0.11806036531925201, -0.2428211271762848, 0.0007249682676047087, 0.06366810947656631, 0.12287269532680511, -0.04549757391214371, -0.19026461243629456, -0.2719151973724365, -0.04613693803548813, 0.1860974133014679, 0.08084017783403397, -0.13598427176475525, -0.048606760799884796, -0.06591691821813583, 0.1373080313205719, 0.07495526224374771, 0.19299761950969696, -0.047667138278484344, -0.18227960169315338, 0.1890002340078354, 0.014585472643375397, 0.09795024991035461, 0.08434294909238815, 0.09330854564905167, 0.045597486197948456, 0.06672634929418564, -0.14365017414093018, -0.17059823870658875, -0.22167827188968658, 0.11142280697822571, 0.1789025515317917, -0.036518942564725876, 0.07585545629262924, 0.11333776265382767, 0.004968203604221344, -0.014419108629226685, 0.14414498209953308, -0.13096429407596588, 0.0909130647778511, -0.13662265241146088, -0.13754457235336304, 0.08182015269994736, -0.08111929148435593, -0.11890692263841629, 0.08729882538318634, -0.13813672959804535, -0.05560736358165741, -0.019160354509949684, -0.027912065386772156, -0.11051713675260544, -0.16212137043476105, 0.13330237567424774, 0.07660625874996185, 0.16116632521152496, 0.0564843975007534, -0.0850815623998642, -0.0895143672823906, 0.21838095784187317, 0.0008548520272597671, 0.26876387000083923, -0.13157182931900024, -0.1749199777841568, -0.24703054130077362, 0.03947420418262482, -0.08120690286159515, 0.2138155847787857, 0.013669362291693687, -0.05046077072620392, -0.05977017804980278, -0.11979972571134567, -0.07754094898700714, -0.01891951821744442, -0.059720758348703384, -0.11777254194021225, 0.14154188334941864, 0.006222323514521122, -0.032988667488098145, -0.2252832055091858, 0.1298608034849167, -0.08308646827936172, -0.15887801349163055, -0.14060701429843903, 0.12204056978225708, 0.48289233446121216, -0.21147166192531586, 0.08733301609754562, 0.12636494636535645, -0.1191381961107254, -0.11132771521806717, -0.1993255615234375, 0.18737807869911194, -0.35344624519348145, -0.3249044418334961, -0.1006338819861412, 0.010042875073850155, 0.21352806687355042, -0.449587345123291, 0.2775133550167084, 0.4328360855579376, -0.12855921685695648, -0.04915950819849968, 0.049352508038282394, 0.3820711374282837, 0.07947037369012833, 0.2779991030693054, -0.06553465127944946, -0.10933497548103333, -0.2020638883113861, 0.3746722340583801, -0.007611513137817383, -0.03934219852089882, -0.23357586562633514, -0.016796188428997993, -0.33524104952812195, 0.07476644963026047, -0.22303874790668488, -0.29201021790504456, -0.10418004542589188, -0.008364441804587841, -0.042428623884916306, 0.21008244156837463, 0.08467378467321396, -0.12739981710910797, 0.13202957808971405, -0.3560406565666199, -0.23595857620239258, 0.06510081887245178, -0.07776407897472382, -0.20968636870384216, -0.2182813137769699, 0.005388945806771517, 0.13856540620326996, -0.18482308089733124, -0.03272319585084915, -0.03700051084160805, 0.14329852163791656, -0.130265474319458, 0.035328153520822525, 0.07297094166278839, 0.06918944418430328, 0.03635261952877045, 0.006517050787806511, -0.07059530913829803, 0.20876803994178772, -0.07818010449409485, -0.009416242130100727, 0.3428729176521301, 0.04010937735438347, 0.013810909353196621, -0.19591408967971802, 0.1548808217048645, 0.13573473691940308, 0.29602527618408203, -0.001170722651295364, 0.15724733471870422, -0.2878308892250061, -0.03848681226372719, -0.1542825549840927, 0.25294604897499084, -0.0012487992644309998, -0.054349783807992935, -0.1757037490606308, -0.0644594058394432, -0.07956007122993469, -0.05046742036938667, -0.00496996846050024, -0.08968865871429443, -0.02286786399781704, 0.13356293737888336, 0.1370307356119156, 0.002356218872591853, -0.04001834988594055, 0.08666583150625229, -0.08411280065774918, -0.38438576459884644, -0.12983202934265137, 0.10826027393341064, 0.03116263635456562, -0.03619509935379028, 0.21317894756793976, -0.04341750219464302, 0.02371072582900524, 0.0043525719083845615, -0.1945536732673645, 0.20140555500984192, -0.03076300583779812, -0.037520114332437515, 0.013635827228426933, -0.09878335148096085, -0.08765224367380142, 0.0909297987818718, 0.05304112285375595, -0.25002187490463257, -0.08027506619691849, 0.05201559513807297, 0.1310553401708603, 0.028680333867669106, -0.14176495373249054, 0.004609812516719103, -0.14063458144664764, 0.02635079436004162, 0.09223740547895432, -0.015926651656627655, -0.024324804544448853, 0.10819785296916962, -0.04733973741531372, 0.16203032433986664, -0.13451901078224182, 0.14881788194179535, 0.01480981707572937, 0.05552880838513374, 0.1878177672624588, -0.27051547169685364, -0.013430382125079632, 0.13509982824325562, -0.25857168436050415, -0.006975024938583374, 0.09980534017086029, -0.0904587060213089, -0.14261873066425323, 0.17218995094299316, -0.1717003881931305, 0.11237366497516632, -0.07956548780202866, 0.02372465841472149, 0.03520387411117554, -0.23619438707828522, -0.3264380693435669, 0.14240172505378723, 0.4832899272441864, 0.20889809727668762, -0.07277534902095795, -0.031251996755599976, -0.24371956288814545, -0.009958796203136444, -0.12932036817073822, -0.07620493322610855, -0.05153292417526245, -0.2323661595582962, -0.1703229546546936, 0.22128652036190033, -0.004832900129258633, -0.08348440378904343, -0.059379592537879944, -0.014199376106262207, 0.2132846564054489, 0.03368011489510536, 0.13719213008880615, 0.018249543383717537, 0.01464297715574503, -0.004339277278631926, 0.026905395090579987, -0.006997880060225725, 0.07071647047996521, -0.24289798736572266, 0.1503259390592575, -0.042843494564294815, 0.10733799636363983, -0.11556246131658554, -0.10417430102825165, 0.01831304468214512, -0.08141027390956879, -0.267856240272522, -0.22572699189186096, -0.09667165577411652, -0.0701604038476944, -0.03888678923249245, -0.23633025586605072, -0.6218171715736389, -0.064107246696949, 0.14483889937400818, -0.03706441819667816, -0.12408632040023804, 0.037372443825006485, 0.005584165453910828, -0.10945163667201996, -0.01569477654993534, -0.024112898856401443, 0.0667874738574028, -0.3269721567630768, 0.009041450917720795, 0.17649699747562408, -0.028398431837558746, -0.04975646734237671, -0.03794415295124054, -0.0577104352414608, 0.12679919600486755, -0.07095790654420853, 0.026884719729423523, 0.13335871696472168, -0.23765380680561066, -0.0051272413693368435, -0.021188994869589806, 0.1350935697555542, -0.028306499123573303, -0.03192461282014847, -0.0921986848115921, 0.013264683075249195, 0.03254669904708862, -0.0011526686139404774, -0.17449095845222473, -0.0969889685511589, -0.23100894689559937, 0.12497177720069885, -0.015477214939892292, 0.24915598332881927, 0.044967684894800186, 0.0998092070221901, 0.14993147552013397, -0.08474137634038925, 0.11159747838973999, -0.007928338833153248, -0.0706283301115036, 0.010652189143002033, -0.005111783277243376, -0.07696067541837692, -0.2551041841506958, 0.06957757472991943, -0.025514597073197365, 0.05537651479244232, -0.06140788272023201, 0.11898240447044373, -0.26292258501052856, -0.23878909647464752, -0.19342827796936035, 0.056403499096632004, 0.3062709867954254, 0.5948148369789124, 0.02291593700647354, -0.06385713070631027, 0.06911946833133698, 0.3028202950954437, 0.2894420623779297, 0.10691613703966141, 0.022913137450814247, 0.11116169393062592, 0.21395550668239594, -0.10967196524143219, -0.17340585589408875, -0.017139604315161705, -0.07062215358018875, 0.021917348727583885, -0.16249002516269684, 0.045042600482702255, -0.21488332748413086, -0.24333222210407257, -0.10464148223400116, -0.023832812905311584, 0.026530250906944275, -0.016448361799120903, 0.21393033862113953, 0.1652037501335144, 0.027995670214295387, 0.15914317965507507, 0.08694179356098175, 0.125517800450325, 0.2262388914823532, 0.18109756708145142, -0.12594544887542725, -0.32321521639823914, -0.029334615916013718, -0.05777681618928909, -0.03842851147055626, -0.2102784812450409, 0.03507223725318909, -0.19954954087734222, -0.3929756283760071, 0.1946699172258377, 0.22938905656337738, 0.21318049728870392, 0.1529681235551834, 0.17940658330917358, -0.03068731166422367, 0.024196600541472435, -0.0019988941494375467, 0.07114417850971222, 0.2100256234407425, 0.1284310221672058, -0.09777573496103287, 0.005689600016921759, 0.17569966614246368, 0.05320621281862259, 0.14189442992210388, 0.05393189564347267, 0.12024485319852829, -0.3100568652153015, -0.45825356245040894, 0.09734136611223221, 0.45405155420303345, -0.4038795232772827, -0.1122259646654129, -0.8201411366462708, -0.37969666719436646, -0.4051174819469452, 0.726868748664856, -0.9579006433486938, -0.652107834815979, -0.9357259273529053, 0.20343400537967682, -0.6715893745422363, 0.3452651798725128, -0.5613012313842773, -0.20886698365211487, -0.13734765350818634, 0.10057785362005234, 0.2539421021938324, 0.07299230247735977, -0.01610601879656315, -0.2973320484161377, -0.13978105783462524, -0.048828307539224625, -0.05874939635396004, -0.06273279339075089, 0.054666779935359955, 0.062415678054094315, 0.16954873502254486, -0.04913340136408806, -0.20939649641513824, 0.17170612514019012, -0.09739214181900024, -0.029343413189053535, 0.08116267621517181, 0.09009533375501633, 0.0037902765907347202, 0.11690228432416916, -0.18738874793052673, 0.1561356633901596, -0.21154919266700745, 0.20098210871219635, 0.36961108446121216, 0.06646750122308731, -0.10574404150247574, 0.1408461332321167, 0.1741214245557785, -0.02767065353691578, -0.058999303728342056, -0.02598109282553196, 0.06117397919297218, -0.1284109205007553, 0.19694142043590546, -0.09106483310461044, 0.040721505880355835, -0.03433723375201225, 0.1443207710981369, -0.1099821999669075, -0.23368561267852783, 0.03216063231229782, 0.20567716658115387, 0.2571803331375122, 0.08717801421880722, 0.24254319071769714, -0.013313759118318558, -0.22140657901763916, -0.05457884073257446, -0.10334648191928864, -0.04218994826078415, -0.190799742937088, -0.03879852220416069, -0.17324958741664886, 0.10496556013822556, 0.13504019379615784, 0.27564114332199097, 0.03796623274683952, 0.017169274389743805, 0.06535670906305313, 0.047368116676807404, 0.20742137730121613, -0.062030158936977386, -0.11006386578083038, -0.18165111541748047, 0.14413465559482574, 0.035737160593271255, 0.041207730770111084, 0.2928014099597931, 0.2935290038585663, -0.016199087724089622, -0.11699008196592331, 0.21104562282562256, 0.08627111464738846, -0.28755444288253784, 0.0031812936067581177, -0.09681569784879684, -0.29335466027259827, -0.11008334904909134, -0.26276084780693054, -0.11293411999940872, -0.08781301230192184, -0.19635076820850372, -0.0033000505063682795, -0.13753126561641693, 0.07789195328950882, 0.25540679693222046, -0.29779183864593506, -0.1963796764612198, -0.1639447808265686, 0.07966230064630508, 0.07889553159475327, 0.043182648718357086, -0.0429784432053566, 0.3448041081428528, -0.04392217472195625, -0.35543277859687805, 0.3220585882663727, 0.268270343542099, 0.17829254269599915, -0.3555126488208771, 0.3034279942512512, 0.19732695817947388, -0.04894092679023743, 0.02136438898742199, 0.3214150369167328, -0.23326732218265533, 0.13389462232589722, 0.14750146865844727, 0.08326038718223572, 0.024918021634221077, -0.025170641019940376, -0.017276514321565628, -0.07782517373561859, -0.04085739329457283, -0.16462776064872742, 0.04120874032378197, -0.10849004983901978, 0.23055268824100494, -0.24992981553077698, 0.013627718202769756, -0.20712357759475708, 0.15983009338378906, 0.08228756487369537, -0.018860291689634323, -0.04818850755691528, 0.2456054538488388, -0.2328466922044754, -0.20991244912147522, -0.12195833027362823, -0.1923687607049942, 0.05317995324730873, -0.09757339209318161, 0.06570515036582947, 0.2581765055656433, 0.18000522255897522, -0.16135644912719727, -0.02882516011595726, 0.06961628794670105, 0.08015269786119461, 0.4346048831939697, -0.09790680557489395, 0.05778804421424866, -0.0015776930376887321, 0.01292346604168415, 0.15221042931079865, -0.25735533237457275, 0.24728405475616455, 0.006569712422788143, 0.038110729306936264, -0.0811677798628807, 0.04660726338624954, 0.25953564047813416, 0.09014999866485596, -0.18205180764198303, 0.1544572412967682, -0.24558459222316742, -0.12390492111444473, -0.1671392321586609, -0.16507519781589508, 0.06288556009531021, 0.29036998748779297, -0.09854204952716827, -0.04865613579750061, 0.06714737415313721, 0.18136842548847198, 0.2616673707962036, -0.04769003391265869, 0.19019171595573425, 0.07545208185911179, -0.08597486466169357, -0.04704373702406883, 0.13193771243095398, 0.25876277685165405, 0.1926438957452774, -0.46444085240364075, -0.15694037079811096, -0.2193191945552826, -0.04653116688132286, -0.07624606043100357, 0.22074465453624725, -0.3241421580314636, 0.21116936206817627, 0.46821483969688416, -0.110649473965168, -0.24531470239162445, 0.08884289115667343, 0.0006075027049519122, -0.04722621291875839, 0.04254530742764473, -0.2671307623386383, -0.5205755829811096, -0.028092127293348312, -0.22011153399944305, 0.08595672994852066, -0.5905727744102478, 0.20634408295154572, -0.16810625791549683, -0.014120056293904781, -0.18833598494529724, -0.2677311897277832, 0.14055916666984558, 0.12227122485637665, -0.08179210126399994, -0.027712354436516762, -0.06173308938741684, 0.16395029425621033, -0.07715713977813721, 0.2062986195087433, 0.0739811435341835, -0.04643983393907547, 0.18589769303798676, -0.0791076272726059, 0.23000845313072205, 0.3051142692565918, 0.06040042266249657, -0.08810920268297195, 0.28104206919670105, -0.0068779257126152515, 0.19525976479053497, -0.04545221105217934, -0.049837298691272736, 0.2751668095588684, 0.018877891823649406, -0.16400745511054993, -0.17102186381816864, -0.034732382744550705, 0.020906690508127213, 0.02241050824522972, -0.04029945656657219, 0.09694332629442215, -0.054770853370428085, 0.012519631534814835, -0.08177053183317184, -0.14727860689163208, 0.15663935244083405, 0.22998298704624176, 0.34838277101516724, -0.2184603065252304, -0.12304262816905975, -0.0805947482585907, -0.11627215147018433, 0.14412786066532135, -0.33207976818084717, 0.16684764623641968, 0.10449286550283432, -0.1513960063457489, 0.3344888389110565, 0.0637623593211174, -0.2209545522928238, 0.17935501039028168, -0.24200691282749176, -0.2517758905887604, 0.022427115589380264, 0.09774192422628403, 0.014178276062011719, -0.20029371976852417, -0.06734797358512878, 0.06464305520057678, 0.13420100510120392, 0.10594961792230606, -0.09469839185476303, 0.07883592694997787, -0.06346558034420013, -0.5228186845779419, 0.24235285818576813, -0.30639326572418213, -0.10782840102910995, -0.13765178620815277, 0.1225651353597641, -0.0058634327724576, -0.10730051249265671, 0.030659133568406105, -0.030513523146510124, -0.13219639658927917, -0.05612565949559212, -0.1272149682044983, -0.020919194445014, 0.12347333878278732, -0.22741003334522247, -0.0528392568230629, 0.07540600746870041, 0.04555998742580414, -0.07808113098144531, 0.01173417642712593, 0.12260322272777557, 0.012780632823705673, -0.11828260868787766, -0.07238370180130005, 0.07403664290904999, 0.001487071393057704, 0.11712110787630081, -0.16006255149841309, -0.11741330474615097, 0.026987465098500252, 0.04512566328048706, 0.06095873937010765, 0.17097888886928558, -0.05403095483779907, -0.0856415331363678, 0.0009790415642783046, -0.011502675712108612, 0.084213025867939, -0.4453117251396179, -0.03430734574794769, 0.49577781558036804, -0.38283801078796387, 0.24957510828971863, -0.051244691014289856, 0.12554606795310974, 0.018472088500857353, 0.08885312080383301, 0.10799369215965271, -0.035155002027750015, 0.2316708266735077, -0.1272331327199936, -0.037923663854599, -0.23923419415950775, -0.11787679046392441, 0.11225956678390503, -0.07933460175991058, -0.018682559952139854, -0.3274083733558655, 0.17815104126930237, 0.10165499895811081, 0.13228903710842133, -0.04973079264163971, -0.057604752480983734, -0.10547342896461487, 0.3610226809978485, -0.16445991396903992, 0.23289349675178528, 0.009657898917794228, -0.19694161415100098, -0.12541836500167847, 0.1389920711517334, -0.1630677580833435, 0.03431247919797897, -0.1436874270439148, -0.06787870824337006, 0.02550702914595604, 0.1975463628768921, 0.022501057013869286, -0.18240992724895477, 0.10709211975336075, 0.07690548896789551, 0.08240187168121338, 0.20619557797908783, 0.1200183853507042, 0.05086386203765869, 0.039641123265028, 0.11922842264175415, 0.0765741616487503, -0.05090712383389473, 0.10875913500785828, 0.08181312680244446, 0.07910751551389694, -0.030622027814388275, -0.19560478627681732, 0.045537542551755905, -0.07072940468788147, -0.07923222333192825, -0.07729677855968475, 0.07390911132097244, 0.09445317089557648, 0.003360615810379386, -0.08936938643455505, -0.06762809306383133, 0.08795379847288132, 0.2088266909122467, -0.3942521810531616, 0.13191060721874237, -0.12896119058132172, 0.05820246413350105, -0.26563265919685364, -0.2235652208328247, 0.018469903618097305, -0.42603543400764465, -0.0014953473582863808, 0.21159011125564575, 0.21188898384571075, 0.19626131653785706, 0.054502472281455994, 0.11777652055025101, 0.05863967537879944, -0.065974660217762, -0.06363219767808914, 0.17841802537441254, 0.13208788633346558, 0.11781084537506104, -0.07593940943479538, 0.012426935136318207, 0.023304473608732224, 0.24022896587848663, -0.023064784705638885, -0.10996364057064056, 0.013303478248417377, -0.05670757219195366, -0.2404523342847824, -0.371977299451828, 0.10493545979261398, -0.14534129202365875, -0.37925100326538086, 0.24533966183662415, 0.13389533758163452, 0.05585931986570358, 0.1000429019331932, 0.22087478637695312, -0.04876269772648811, -0.0016642054542899132, -0.31094294786453247, -0.08590850234031677, 0.15513837337493896, -0.05810100585222244, -0.06830797344446182, 0.27379876375198364, -0.07639950513839722, -0.15714159607887268, -0.19470180571079254, 0.09611930698156357, 0.2032705545425415, -0.1377863734960556, 0.20294888317584991, 0.15662690997123718, -0.11433946341276169, 0.03496274724602699, -0.005788620561361313, 0.08849309384822845, -0.03748226910829544, -0.0031780521385371685, 0.3658929467201233, 0.09893088787794113, -0.055219005793333054, -0.27317652106285095, -0.05326300859451294, 0.009292831644415855, 0.1631658971309662, 0.007260339800268412, 0.05475415289402008, -0.060301631689071655, -0.16943012177944183, -0.20590174198150635, -0.09913352131843567, 0.04446560516953468, 0.07825540006160736, -0.012988422065973282, 0.2933175563812256, 0.23948845267295837, -0.23988895118236542, -0.13138636946678162, 0.13673245906829834, -0.36128300428390503, 0.08314348012208939, -0.08212344348430634, 0.046381235122680664, 0.08545813709497452, -0.004068688489496708, 0.12068339437246323, -0.07780645042657852, 0.058276690542697906, 0.10108546912670135, 0.16352102160453796, -0.08260124921798706, -0.07584483176469803, -0.07345680147409439, 0.20721718668937683, -0.05537395924329758, -0.05677986890077591, 0.03463910520076752, 0.023063557222485542, -0.019251830875873566, 0.015791505575180054, -0.03067423403263092, 0.042763177305459976, -0.005274774041026831, -0.12419203668832779, -0.015743937343358994, 0.26271483302116394, -0.16091570258140564, -0.23016545176506042, -0.11576532572507858, 0.23208145797252655, 0.002708964515477419, -0.06964676827192307, -0.08278100192546844, -0.08650530874729156, -0.18323643505573273, 0.2108253687620163, 0.12806548178195953, 0.17028369009494781, -0.06756551563739777, -0.09212145209312439, -0.028600463643670082, 0.228628009557724, -0.09658978134393692, -0.5992485284805298, -0.17831379175186157, 0.18773497641086578, -0.14740388095378876, -0.022927524521946907, -0.1110362708568573, -0.08559667319059372, 0.25318604707717896, -0.060379814356565475, -0.13929806649684906, 0.25455331802368164, 0.16521801054477692, -0.11166000366210938, -0.2177436351776123, -0.01793602854013443, -0.1283302754163742, -0.0923515036702156, -0.03809108957648277, -0.10761621594429016, -0.08075308799743652, -0.12094369530677795, -0.15197968482971191, -0.027208266779780388, -0.08181624114513397, -0.23591770231723785, -0.027375753968954086, -0.40460583567619324, 0.4159965515136719, 0.1184375137090683, -0.5035556554794312, -0.19706188142299652, -0.009615661576390266, 0.06396591663360596, 0.17241227626800537, -0.0004764620680361986, -0.17100751399993896, -0.07219139486551285, 0.13562782108783722, 0.3487532138824463, 0.0004332935204729438, -0.08979243785142899, -0.10562917590141296, 0.11157773435115814, 0.0018933831015601754, 0.19822943210601807, -0.06634115427732468, 0.036148861050605774, 0.20407137274742126, 0.05816206708550453, -0.056389547884464264, 0.05256914719939232, 0.027484018355607986, 0.11295812577009201, 0.09942170977592468, 0.08618181943893433, 0.10790404677391052, -0.03445978835225105, -0.014327919110655785, -0.08169085532426834, 0.16463080048561096, -0.07109194248914719, 0.05557917058467865, 0.01160462573170662, -0.010851608589291573, 0.15352517366409302, -0.40503185987472534, -0.34568530321121216, -0.016914179548621178, 0.30177560448646545, 0.016048584133386612, -0.10183656215667725, -0.123158760368824, 0.19732141494750977, 0.008327669464051723, 0.11892193555831909, -0.11766886711120605, 0.3824472427368164, 0.379186749458313, 0.11203175038099289, -0.05145561322569847, 0.13596589863300323, 0.01260816678404808, -0.19048841297626495, 0.18898724019527435, 0.2556815445423126, 0.019875746220350266, -0.06419862806797028, -0.01760871149599552, -0.0024653554428368807, -0.016645625233650208, 0.10113894194364548, -0.0005295015289448202, -0.23083676397800446, -0.0736231654882431, -0.19960016012191772, -0.6628128290176392, 0.20463038980960846, -0.05170433223247528, -0.6210540533065796, 0.16809765994548798, 0.23436325788497925, 0.18113575875759125, -0.21523500978946686, -0.2707972526550293, -0.10434373468160629, -0.12903720140457153, -0.1666492521762848, -0.4338282644748688, -0.10127173364162445, 0.16881246864795685, -0.022398145869374275, 0.06905540078878403, -0.013456184417009354, 0.13809198141098022, 0.2947832942008972, -0.05132386460900307, 0.052419908344745636, 0.0801921933889389, -0.010918098501861095, -0.031911399215459824, -0.008747859857976437, 0.05024055019021034, -0.12706583738327026, 0.2847467362880707, 0.07523271441459656, -0.08951518684625626, -0.1367110162973404, -0.03332060948014259, -0.04223295673727989, -0.08018473535776138, -0.06481799483299255, -0.16816143691539764, 0.017788119614124298, 0.049335870891809464, 0.13674718141555786, 0.059907905757427216, -0.12622301280498505, -0.23535862565040588, 0.09287901967763901, -0.16039982438087463, 0.2642783224582672, -0.04885095730423927, 0.11091623455286026, 0.24571646749973297, -0.07646161317825317, -0.22717992961406708, 0.17738701403141022, 0.06591446697711945, 0.31596410274505615, -0.031176794320344925, -0.16520573198795319, 0.03737761080265045, -0.046890243887901306, 0.022931402549147606, 0.030612081289291382, -0.16707132756710052, 0.025132808834314346, 0.02399473823606968, -0.13590490818023682, -0.1633143126964569, -0.10191644728183746, 0.12393950670957565, 0.17415863275527954, 0.16190290451049805, -0.1347108781337738, -0.012975260615348816, -0.1343022733926773, -0.029527397826313972, 0.15971708297729492, 0.10732358694076538, -0.08012884855270386, 0.18690839409828186, -0.14545835554599762, -0.1620520055294037, -0.16868165135383606, -0.15566594898700714, 0.029904015362262726, -0.05566416308283806, 0.057351116091012955, 0.15102222561836243, -0.06486346572637558, -0.0018717169295996428, 0.01675308495759964, -0.09892190992832184, 0.08004633337259293, 0.11256705969572067, 0.1487668752670288, 0.15779398381710052, -0.026370741426944733, -0.039512842893600464, -0.22643129527568817, 0.036396075040102005, 0.21897156536579132, 0.14370599389076233, -0.05669333040714264, 0.12376108020544052, -0.22693653404712677, -0.09272832423448563, -0.09953425079584122, 0.1422971785068512, 0.058230072259902954, -0.1797843873500824, -0.14476896822452545, 0.2838907837867737, 0.1280389130115509, -0.061824068427085876, 0.09201604127883911, -0.00018029251077678055, -0.26360082626342773, -0.3454638421535492, -0.28183504939079285, -0.07390966266393661, -0.13622994720935822, -0.00896801520138979, 0.27854207158088684, -0.2619633078575134, -0.062181856483221054, -0.14291588962078094, 0.3289305865764618, 0.11872120946645737, -0.14318421483039856, 0.18016138672828674, -0.058425843715667725, 0.10307864099740982, -0.23929119110107422, 0.052941225469112396, 0.06226317211985588, 0.20587660372257233, -0.14584623277187347, -0.2092314213514328, -0.1865200698375702, -0.14281755685806274, 0.2531554102897644, 0.3099128305912018, -0.06580564379692078, -0.13102596998214722, -0.11019313335418701, 0.038544997572898865, 0.03319230675697327, -0.19374218583106995, 0.3431148827075958, 0.03643268719315529, 0.130442276597023, 0.2866048812866211, 0.13785327970981598, -0.14575594663619995, -0.09212698042392731, 0.1432102620601654, -0.13115806877613068, 0.0035976185463368893, 0.002255064668133855, 0.20360231399536133, 0.024132326245307922, -0.27681949734687805, -0.07765273004770279, -0.03458331152796745, 0.08722920715808868, 0.07629423588514328, 0.09632471948862076, -0.01641351357102394, 0.17332565784454346, 0.1387825608253479, 0.07876542955636978, 0.08087519556283951, 0.11785995960235596, 0.0021267766132950783, 0.0967399924993515, -0.106324203312397, 0.12964282929897308, 0.1706739366054535, 0.21267662942409515, 0.20942753553390503, 0.178202286362648, 0.17449679970741272, -0.18994861841201782, 0.00026225351030007005, 0.08243020623922348, 0.1068544015288353, 0.07954653352499008, 0.15749932825565338, -0.06729815900325775, -0.13267913460731506, -0.07193289697170258, 0.11924653500318527, 0.15538913011550903, 0.009432480670511723, -0.01971091330051422, -0.12840954959392548, -0.006272429134696722, -0.20166189968585968, 0.00544206565245986, 0.1780386120080948, -0.12286171317100525, 0.1254747062921524, -0.16406339406967163, -0.17091955244541168, 0.011587925255298615, 0.14846304059028625, -0.14863809943199158, -0.10465893149375916, -0.1662246435880661, 0.04835515096783638, 0.09602726995944977, -0.08833479881286621, -0.07520309835672379, -0.008106579072773457, -0.13895417749881744, 0.08276350796222687, -0.10529763996601105, -0.08681986480951309, 0.19285370409488678, -0.19149015843868256, -0.009615723043680191, 0.0902843028306961, 0.10600823909044266, 0.03714814782142639, -0.0759330689907074, -0.2671370506286621, -0.24929384887218475, -0.057644203305244446, -0.0907830148935318, 0.15383581817150116, 0.3008615970611572, 0.25324729084968567, -0.05090304836630821, -0.22146975994110107, -0.22904358804225922, 0.04955824837088585, 0.015348123386502266, -0.015397853218019009, 0.003717738436535001, -0.18892088532447815, -0.21635054051876068, -0.14917516708374023, -0.015949511900544167, 0.3860110938549042, -0.05320242419838905, 0.21650096774101257, 0.6108818650245667, -0.1167345941066742, -0.23462949693202972, -0.24653387069702148, -0.08993809670209885, 0.3083188235759735, -0.26313528418540955, -0.21216824650764465, 0.2347334325313568, 0.23348747193813324, -0.0495179109275341, -0.26368528604507446, -0.10166940838098526, 0.03096313402056694, 0.30861547589302063, -0.2854978144168854, -0.049330420792102814, -0.1511799395084381, 0.04048094525933266, -0.15924103558063507, 0.059176091104745865, 0.10161875933408737, 0.01749577932059765, -0.023327194154262543, 0.09091322869062424, 0.2933819890022278, 0.21432839334011078, -0.11397669464349747, 0.026516404002904892, 0.23027712106704712, -0.10747640579938889, -0.009908941574394703, -0.2159832864999771, -0.03873581066727638, -0.02907814271748066, 0.13207539916038513, 0.28505054116249084, -0.1955595314502716, 0.018990347161889076, -0.12499319761991501, -0.009708424098789692, -0.07555031776428223, 0.5354225635528564, 0.3540111482143402, 0.15664730966091156, 0.09224145859479904, -0.19294193387031555, -0.029802780598402023, -0.2811274826526642, 0.13766653835773468, 0.17923326790332794, 0.3766585886478424, -0.02183639071881771, -0.08212966471910477, 0.4114713668823242, 0.12207115441560745, -0.08491915464401245, -0.00457761250436306, 0.09403375536203384, 0.3562798798084259, -0.13082239031791687, -0.06724169105291367, 0.026313405483961105, 0.19601483643054962, -0.19358035922050476, -0.245835542678833, 0.1889796406030655, 0.06806211918592453, -0.13059818744659424, -0.11231543123722076, -0.06410382688045502, 0.07400157302618027, -0.20344920456409454, -0.01628991775214672, 0.27397575974464417, -0.03366975113749504, -0.025601429864764214, -0.025750774890184402, 0.13775919377803802, 9.639398194849491e-05, -0.0945599228143692, -0.029924709349870682, 0.06683459877967834, 0.03214690089225769, 0.12975738942623138, 0.059343576431274414, -0.06929825991392136, -0.046406909823417664, -0.08141859620809555, 0.18762479722499847, 0.07075913995504379, -0.02958831936120987, -0.1619669795036316, 0.1276039332151413, 0.3514356315135956, 0.12016427516937256, -0.09352301061153412, 0.23107007145881653, 0.2771858274936676, 0.12902960181236267, 0.11155639588832855, -0.18862545490264893, -0.07398104667663574, -0.08749182522296906, -0.1202307716012001, -0.21196791529655457, -0.04255048930644989, 0.09275226294994354, -0.08428744971752167, 0.1365211308002472, 0.06200362741947174, 0.16899019479751587, 0.13105790317058563, 0.10353893041610718, 0.036407697945833206, 0.06491535902023315, -0.03694743663072586, -0.04629271849989891, 0.01623518019914627, 0.15104588866233826, -0.17127662897109985, 0.30240464210510254, 0.1287609189748764, -0.04086162522435188, -0.010184540413320065, -0.2888716757297516, -0.06820644438266754, 0.052707791328430176, -0.08701122552156448, -0.12323644757270813, -0.17303121089935303, -0.06536271423101425, 0.026511959731578827, -0.07410310208797455, 0.07086379081010818, 0.12151584029197693, -0.02823246270418167, 0.07581668347120285, -0.1776217520236969, 0.041830938309431076, -0.013802915811538696, -0.05000152438879013, 0.21783053874969482, 0.12579850852489471, -0.3717377185821533, -0.1690022051334381, -0.1563534438610077, 0.14007963240146637, -0.0239699836820364, 0.09476316720247269, -0.011166675947606564, -0.15679596364498138, -0.06932578235864639, -0.04655608907341957, 0.0028358581475913525, -0.10339580476284027, -0.007192729506641626, 0.09025085717439651, -0.05500943586230278, -0.04026828333735466, 0.3395088016986847, 0.19118711352348328, -0.17711274325847626, -0.07458793371915817, 0.12252138555049896, -0.35164135694503784, -0.47064676880836487, 0.08517760038375854, -0.043222133070230484, 0.08956729620695114, 0.12723858654499054, 0.05097394064068794, 0.02944355458021164, -0.4593166410923004, 0.017265554517507553, -0.049145977944135666, 0.2068929523229599, 0.07044374942779541, 0.13323445618152618, -0.02146889641880989, -0.026088356971740723, -0.15483130514621735, 0.16523584723472595, 0.004822026006877422, 0.23376736044883728, -0.08631183952093124, -0.04062068834900856, -0.21698501706123352, 0.1440577208995819, -0.27717116475105286, -0.5393947958946228, 0.5851057171821594, -0.027334751561284065, -0.17937466502189636, 0.07230864465236664, -0.012207221239805222, 0.11634694039821625, 0.09372621774673462, 0.09260984510183334, -0.20492851734161377, -0.08262408524751663, -0.06929448246955872, -0.08815327286720276, 0.07351444661617279, 0.030180716887116432, 0.12176688760519028, 0.05554390698671341, -0.26254594326019287, 0.10250183939933777, 0.16932044923305511, -0.0640564113855362, -0.08610288053750992, 0.1224786639213562, 0.20660172402858734, 0.08844847232103348, 0.08508487045764923, -0.222747340798378, 0.18286573886871338, -0.04859406128525734, 0.274903804063797, -0.34032025933265686, -0.48243677616119385, 0.7137367725372314, 0.3790220618247986, -0.689750611782074, 0.023432236164808273, -0.04274187609553337, -0.15191136300563812, 0.5093873143196106, -0.8947288990020752, 1.0606670379638672, 0.6127806901931763, 0.22542889416217804, -0.3668266832828522, 0.07816377282142639, -0.9546220302581787, 0.11766044050455093, -0.09648904949426651, 0.09843429923057556, -0.0809725895524025, 0.04747774451971054, 0.30132412910461426, 0.13092006742954254, 0.217220276594162, 0.07779428362846375, 0.07096970081329346, 0.3609406054019928, 0.199616476893425, 0.16074727475643158, -0.1117551401257515, -0.42736002802848816, -0.15836887061595917, 0.25461074709892273, -0.050496906042099, 0.053158003836870193, 0.2360040247440338, 0.07741054147481918, 0.534514307975769, -0.036258991807699203, -0.07825709134340286, -0.2757485806941986, -0.023206587880849838, 0.10490439087152481, -0.08509747684001923, 0.4397430419921875, 0.26811131834983826, -0.27768847346305847, -0.07159006595611572, 0.18394599854946136, -0.17071698606014252, 0.04947715997695923, -0.25671321153640747, 0.18831296265125275, -0.1819647252559662, -0.07688742130994797, -0.2817220985889435, -0.053047508001327515, 0.045912016183137894, -0.3510855436325073, 0.2464374601840973, 0.22050118446350098, -0.4387231469154358, -0.10185474902391434, 0.21984921395778656, 0.22435404360294342, 0.022846292704343796, 0.2441965639591217, -0.0960979163646698, -0.023616859689354897, 0.19677896797657013, -0.19676516950130463, 0.16520418226718903, 0.2371564358472824, 0.00327495695091784, -0.008115180768072605, 0.3856640160083771, 0.22468532621860504, 0.0697721540927887, 0.1333957314491272, 0.13888832926750183, 0.06082797795534134, -0.30819353461265564, 0.2868608236312866, -0.17220963537693024, 0.037222228944301605, -0.2087264060974121, -0.02882283367216587, -0.07021515816450119, 0.14990456402301788, -0.11625385284423828, -0.10325175523757935, 0.08177218586206436, -0.15580657124519348, -0.4379690885543823, 0.021701885387301445, -0.04100874438881874, 0.16319477558135986, 0.08326677978038788, 0.14509914815425873, -0.1680302768945694, 0.09344784170389175, -0.0584796741604805, 0.4011096656322479, 0.2698509991168976, -0.09969417750835419, -0.36259499192237854, -0.049622491002082825, -0.25719407200813293, 0.07786271721124649, 0.22487576305866241, -0.031235769391059875, 0.12011952698230743, 0.005656698253005743, 0.16936245560646057, -0.1882576197385788, 0.2456725537776947, 0.16671572625637054, -0.09361763298511505, -0.03534999489784241, 0.0747370719909668, -0.31175312399864197, 0.050767164677381516, 0.2482548952102661, -0.37642329931259155, -0.101927749812603, 0.3424103856086731, 0.14311285316944122, -0.1080951988697052, 0.0850260779261589, -0.0632534772157669, -0.17742137610912323, -0.0582222044467926, 0.025652138516306877, -0.2943095862865448, -0.18239495158195496, -0.33328455686569214, 0.07030230015516281, 0.1267446130514145, -0.05589161440730095, 0.20576171576976776, -0.13455839455127716, -0.08751966804265976, 0.05052761361002922, -0.13719987869262695, -0.054490458220243454, 0.2152961641550064, 0.007906602695584297, 0.12272627651691437, 0.17328853905200958, -0.11842121928930283, -0.12304618209600449, -0.058821406215429306, -0.032376889139413834, 0.03097771853208542, -0.20561817288398743, 0.1401609629392624, -0.2048782855272293, -0.09706547856330872, -0.11136121302843094, 0.20070651173591614, 0.12080014497041702, -0.06043069437146187, -0.09534148871898651, 0.2560102641582489, -0.003509329631924629, 0.25207120180130005, -0.17004959285259247, -0.016681145876646042, -0.07941452413797379, -0.08192737400531769, 0.21907909214496613, -0.17127475142478943, -0.03320722654461861, 0.12349104881286621, 0.17376428842544556, -0.19659210741519928, 0.18881584703922272, -0.14852525293827057, -0.1471765637397766, -0.1703844517469406, 0.14047010242938995, -0.18809784948825836, 0.12550784647464752, -0.18278758227825165, 0.30883949995040894, 0.19511999189853668, -0.34153687953948975, -0.11540558934211731, -0.011181492358446121, -0.27383944392204285, 0.003976310137659311, 0.37264499068260193, 0.07753672450780869, -0.01579040288925171, -0.03922176733613014, -0.002972549293190241, -0.14209313690662384, 0.24533778429031372, 0.09460919350385666, 0.08533008396625519, -0.2074407935142517, -0.2380131185054779, -0.045148108154535294, 0.13503065705299377, -0.2859017550945282, -0.05848413705825806, 0.295131653547287, 0.20425117015838623, -0.26872488856315613, -0.3315925896167755, -0.23901483416557312, -0.028728710487484932, 0.24878863990306854, -0.21310526132583618, -0.10676368325948715, -0.32762521505355835, 0.027156896889209747, 0.01763923466205597, -0.09093796461820602, -0.10452619940042496, -0.19709262251853943, -0.04780861735343933, 0.16765747964382172, -0.18733806908130646, -0.3396517336368561, 0.007308946922421455, -0.2023475170135498, 0.1081090122461319, -0.09801635891199112, -0.1723054051399231, 0.2133387178182602, -0.171346977353096, 0.12540070712566376, 0.0035086260177195072, 0.1363203078508377, -0.36019155383110046, -0.10106630623340607, 0.34666261076927185, -0.053106147795915604, -0.11681322753429413, -0.027470730245113373, 0.1866767257452011, -0.0750754326581955, 0.001315824338234961, -0.2537252902984619, -0.2740814685821533, 0.10943888872861862, -0.2124692052602768, 0.205524280667305, 0.1853760927915573, 0.022687261924147606, 0.08559465408325195, -0.13285088539123535, 0.05845825746655464, 0.28368204832077026, -0.21619558334350586, 0.08748774230480194, 0.05922406539320946, 0.0006834223750047386, -0.09730838984251022, -0.18375952541828156, -0.11762435734272003, -0.10122176259756088, -0.23578524589538574, 0.049693237990140915, 0.08384571224451065, 0.09450511634349823, 0.11758841574192047, -0.1861295849084854, -0.17916211485862732, -0.13259539008140564, -0.03913270682096481, 0.11322645843029022, 0.0769549012184143, 0.00332057336345315, -0.012026144191622734, -0.02985522896051407, 0.2699444591999054, 0.11868168413639069, 0.03401435539126396, -0.28356051445007324, -0.026161035522818565, -0.040447648614645004, -0.2092714160680771, 0.18731975555419922, 0.16627289354801178, 0.0674794614315033, -0.07295838743448257, -0.024712925776839256, -0.01060148049145937, 0.027255553752183914, 0.10614985227584839, 0.08751645684242249, 0.06920035928487778, -0.01674257218837738, -0.32770511507987976, -0.06647814810276031, 0.04667806252837181, -0.050960056483745575, 0.17670920491218567, -0.09492530673742294, -0.18033090233802795, -0.08438512682914734, 0.0544835589826107, 0.19882817566394806, -0.07041565328836441, 0.18830177187919617, -0.10550255328416824, -0.14290086925029755, -0.2535450756549835, 0.05889270082116127, 0.11157026141881943, 0.0792681872844696, -0.22464413940906525, -0.09814496338367462, -0.033777303993701935, 0.2673339545726776, 0.06327814608812332, -0.2770448327064514, -0.6182438731193542, 0.14639535546302795, 0.058008480817079544, -0.3478788733482361, -0.0741884782910347, -0.2674481272697449, -0.15721586346626282, -0.019026635214686394, 0.10760077834129333, -0.07519976049661636, -0.18955767154693604, -0.06810185313224792, -0.3395896553993225, 0.0470288023352623, -0.09708590805530548, -0.053459856659173965, 0.1010989248752594, -0.12924131751060486, 0.15020325779914856, -0.1391192078590393, 0.12685567140579224, -0.31412386894226074, 0.006560891401022673, -0.14949700236320496, -0.15187622606754303, -0.026704901829361916, -0.2533622682094574, 0.12091600149869919, 0.12698082625865936, -0.020854564383625984, 0.1299850046634674, 0.008519798517227173, 0.07685218006372452, -0.1084594801068306, -0.008031599223613739, -0.0873308777809143, -0.020984629169106483, 0.12708793580532074, 0.05270342901349068, -0.046178072690963745, -0.204255610704422, -0.04996617138385773, 0.0026346396189182997, -0.06778150796890259, 0.057616688311100006, 0.14802496135234833, 0.06154466047883034, -0.17104856669902802, 0.07753841578960419, -0.12265633046627045, 0.4153399169445038, -0.014246184378862381, -0.2320820838212967, -0.10058873891830444, -0.033609867095947266, 0.032878339290618896, -0.09634159505367279, -0.09058047831058502, 0.15878626704216003, 0.28923100233078003, 0.12204050272703171, 0.08927049487829208, 0.20023994147777557, 0.14967098832130432, -0.04838743060827255, -0.142981618642807, -0.09438423067331314, 0.14448384940624237, 0.2256505787372589, 0.030771831050515175, -0.2276456356048584, -0.02871830016374588, 0.012629452161490917, -0.23949968814849854, 0.006806284189224243, -0.06986359506845474, -0.25810113549232483, -0.00236500077880919, -0.07348204404115677, 0.06809157878160477, 0.12686364352703094, 0.030880622565746307, 0.2797587811946869, 0.16870757937431335, 0.1676265150308609, -0.24961167573928833, -0.1179952621459961, -0.0638028234243393, 0.18971297144889832, 0.08360462635755539, 0.11693266034126282, -0.10406330227851868, -0.0313967764377594, -0.11184141039848328, 0.23097288608551025, 0.01319584809243679, 0.024872448295354843, -0.4553106427192688, -0.02486741542816162, -0.1497313231229782, -0.08631031215190887, -0.08151905983686447, 0.019433744251728058, -0.005699120461940765, 0.029769575223326683, 0.09250109642744064, -0.12336038798093796, -0.00486069917678833, -0.034696247428655624, -0.1390191912651062, -0.23001039028167725, -0.014071056619286537, 0.09895344078540802, -0.12449472397565842, 0.22394821047782898, -0.09373679757118225, 0.04086992144584656, 0.026502083986997604, 0.041881002485752106, 0.1527322381734848, 0.13624872267246246, 0.048818666487932205, 0.09168604016304016, -0.1759868711233139, -0.1494273841381073, 0.06898429989814758, 0.10102368891239166, -0.08932904899120331, -0.0365920290350914, -0.2563178241252899, 0.02625448815524578, 0.26115721464157104, -0.03161729499697685, 0.012661547400057316, -0.08537141233682632, 0.1438368409872055, 0.21125894784927368, 0.12503987550735474, -0.17714668810367584, -0.10519597679376602, -0.08844448626041412, 0.04208531603217125, 0.153482124209404, 0.11719836294651031, -0.009758386760950089, 0.06969937682151794, 0.14221277832984924, -0.2818695306777954, 0.28274309635162354, 0.059284329414367676, 0.26306775212287903, 0.00022536548203788698, 0.3536663353443146, 0.013598384335637093, -0.18598580360412598, -0.2726152837276459, 0.2658175826072693, -0.345575213432312, -0.33081531524658203, 0.11870691180229187, -0.028912458568811417, 0.19891119003295898, -0.17610853910446167, -0.09345775842666626, 0.043300945311784744, 0.10044100880622864, 0.03671487793326378, 0.14104114472866058, 0.06551156938076019, -0.04271235316991806, 0.045108627527952194, 0.16492798924446106, 0.18694396317005157, 0.14214454591274261, -0.14291080832481384, -0.07104789465665817, -0.011892273090779781, 0.020572783425450325, 0.06317875534296036, -0.10960527509450912, 0.00754251703619957, 0.012010973878204823, 0.11174541711807251, -0.11160866916179657, -0.06247028335928917, -0.12604868412017822, 0.22289708256721497, -0.05908879265189171, -0.19554497301578522, -0.17863765358924866, 0.05346352607011795, 0.13815273344516754, 0.30467689037323, -0.06250912696123123, -0.310832679271698, 0.17387787997722626, -0.12592212855815887, -0.09496715664863586, 0.009931536391377449, -0.07596991211175919, -0.16637663543224335, 0.09166896343231201, -0.0493721142411232, 0.22486799955368042, -0.21493647992610931, 0.08360234647989273, 0.13107049465179443, -0.1385149508714676, -0.025801395997405052, 0.09293121099472046, -0.20231759548187256, -0.042306214570999146, -0.15319189429283142, -0.051558349281549454, -0.069901242852211, -0.004198272712528706, 0.39880287647247314, 0.078452467918396, -0.1539899706840515, 0.2764255106449127, -0.05361440032720566, 0.22034722566604614, -0.1379673033952713, -0.1443455070257187, -0.10266029089689255, -0.3631165027618408, -0.13072054088115692, -0.11550261080265045, 0.11547771096229553, 0.017642341554164886, 0.09681341797113419, -0.07369782775640488, -0.09665365517139435, -0.2330876737833023, 0.18744632601737976, -0.07405600696802139, 0.06971654295921326, -0.13490840792655945, -0.09170776605606079, -0.12147637456655502, 0.3303859829902649, -0.2179470807313919, 0.0940433144569397, 0.22396273910999298, 0.1510041058063507, -0.01663948968052864, 0.04517088830471039, -0.20509979128837585, -0.13252472877502441, 0.016974620521068573, -0.058121781796216965, -0.1933230310678482, 0.21967490017414093, -0.03341405466198921, 0.16062597930431366, 0.1296485811471939, -0.005151747725903988, 0.1569398194551468, -0.09392113238573074, -0.0745440423488617, -0.09456776082515717, -0.022147053852677345, 0.020626163110136986, 0.08450750261545181, 0.291892945766449, -0.08917678147554398, -0.05793796479701996, 0.11511874198913574, 0.040700849145650864, 0.018579857423901558, 0.016404930502176285, 0.025378329679369926, -0.29119130969047546, -0.1988888829946518, 0.13846950232982635, -0.1593852937221527, 0.005048572085797787, -0.10760470479726791, 0.20203229784965515, -0.09437953680753708, -0.04319492727518082, -0.06518039852380753, 0.293696790933609, -0.012282959185540676, 0.10593906044960022, -0.05938762426376343, 0.0745130404829979, 0.310322105884552, 0.37473395466804504, -0.018037378787994385, 0.05978192016482353, 0.0464029461145401, 0.13171568512916565, 0.18097759783267975, -0.051257435232400894, -0.06319613754749298, -0.15172584354877472, 0.1812538206577301, -0.10222771763801575, 0.056010957807302475, 0.1982661783695221, 0.0006660930812358856, 0.09544041752815247, -0.06865838915109634, -0.16739219427108765, -0.12242500483989716, -0.08588510006666183, 0.05500206723809242, 0.09542690962553024, 0.037088800221681595, 0.2213604897260666, -0.06616367399692535, -0.10014801472425461, 0.21371735632419586, -0.17340196669101715, -0.11654795706272125, -0.1818215698003769, -0.16196666657924652, 0.08659440279006958, 0.02098342962563038, 0.03907950595021248, -0.023728128522634506, 0.0968107134103775, 0.04923044890165329, -0.16216036677360535, -0.03875024989247322, -0.1785970777273178, -0.01894640363752842, -0.00011332171561662108, 0.17918314039707184, -0.008687790483236313, 0.03767750412225723, -0.10289499908685684, -0.1423684060573578, 0.10581426322460175, -0.056625060737133026, -0.10085618495941162, -0.11281377077102661, 0.020450610667467117, -0.2838671803474426, -0.21435455977916718, 0.08600375801324844, 0.08271033316850662, 0.17737548053264618, 0.2049732208251953, -0.11559887230396271, -0.18415988981723785, -0.2121664136648178, -0.18134936690330505, -0.21826112270355225, -0.163945272564888, -0.04790878668427467, -0.04254072159528732, -0.10490810871124268, 0.26053503155708313, -0.07970789819955826, 0.1836710125207901, -0.0343785285949707, 0.12707526981830597, -0.08289869129657745, -0.33421409130096436, 0.07259047776460648, -0.1096295490860939, -0.18699266016483307, 0.014533624984323978, -0.23480698466300964, 0.011096862144768238, -0.17018814384937286, 0.07743906229734421, 0.2544904351234436, -0.14007125794887543, 0.07278334349393845, -0.18129083514213562, 0.08430280536413193, -0.02453378587961197, -0.006607433781027794, -0.17543551325798035, -0.036572396755218506, -0.28017598390579224, -0.01601460762321949, 0.09156524389982224, 0.2912175953388214, -0.10586055368185043, -0.02030228078365326, -0.3778304159641266, -0.05803187936544418, 0.05073762312531471, -0.06876201182603836, -0.0916753038764, 0.09229933470487595, -0.03879170119762421, -0.1481223702430725, -0.039611343294382095, -0.03196469321846962, 0.091621533036232, -0.020645778626203537, -0.15900446474552155, -0.09111568331718445, -0.013926624320447445, -0.04575513303279877, 0.04169555380940437, -0.20050185918807983, 0.03389805182814598, -0.08910106867551804, 0.25686678290367126, -0.10119118541479111, -0.05030389502644539, 0.10242959856987, 0.1395607739686966, -0.0932672917842865, 0.28970199823379517, -0.0702286958694458, -0.07335012406110764, -0.0484345518052578, 0.09142869710922241, 0.13571296632289886, -0.36340761184692383, -0.11764256656169891, -0.08358806371688843, 0.08215343952178955, -0.11588333547115326, 0.005088077392429113, -0.1402883678674698, 0.05934055522084236, 0.12568311393260956, 0.17724844813346863, -0.011577378027141094, -0.1426452398300171, -0.09450260549783707, 0.11861935257911682, 0.041860636323690414, 0.1930684596300125, 0.23184524476528168, -0.08325288444757462, -0.101883664727211, -0.5615131855010986, -0.218772292137146, -0.05849623680114746, -0.10626903176307678, -0.06037770211696625, 0.02507384866476059, 0.08182893693447113, -0.14270028471946716, -0.08598416298627853, 0.16838784515857697, -0.1540253907442093, -0.04239531606435776, -0.03254075348377228, 0.27185583114624023, 0.009926463477313519, -0.12867103517055511, 0.15919509530067444, 0.064459428191185, -0.07262592017650604, -0.005927402060478926, -0.19558846950531006, 0.006718392483890057, 0.19947881996631622, 0.22969362139701843, -0.03497887775301933, -0.19295771420001984, -0.12536121904850006, -0.12054187804460526, 0.07905810326337814, 0.08596708625555038, 0.10402975976467133, 0.06202796474099159, 0.11261813342571259, 0.14381365478038788, -0.188209667801857, -0.15133434534072876, -0.05220653861761093, 0.16032342612743378, 0.11088784784078598, 0.09701911360025406, 0.06618689745664597, -0.0862000435590744, -4.553937469609082e-05, 0.03699003532528877, -0.0534379668533802, 0.1057390570640564, 0.028119118884205818, 0.06361085176467896, 0.11013758182525635, -0.27402499318122864, 0.09987356513738632, 0.0338074266910553, 0.252807080745697, 0.061327435076236725, 0.023651080206036568, -0.14503882825374603, -0.01983489841222763, 0.12478723376989365, 0.14393992722034454, -0.020467596128582954, 0.06555766612291336, 0.16988109052181244, -0.16689036786556244, 0.08360392600297928, 0.10765063762664795, 0.22426210343837738, 0.11837317049503326, -0.1363847851753235, -0.11002986133098602, -0.07116653025150299, 0.266497403383255, 0.1362845003604889, -0.01902439445257187, 0.015842081978917122, -0.27041104435920715, -0.10144917666912079, 0.18054722249507904, -0.004573046695441008, -0.11315729469060898, -0.22267355024814606, 0.12159717828035355, -0.08832621574401855, -0.2341826856136322, -0.10312454402446747, -0.041982728987932205, 0.2123301923274994, 0.03158923238515854, -0.103823222219944, -0.0688140019774437, -0.16500799357891083, 0.10843472182750702, 0.1601364016532898, 0.07446490228176117, -0.14833496510982513, 0.16717594861984253, 0.24831567704677582, -0.17244412004947662, 0.03317762538790703, -0.11137958616018295, 0.10009012371301651, 0.008974935859441757, 0.28008994460105896, -0.1295182704925537, -0.10876630246639252, -0.16196505725383759, -0.15093818306922913, -0.251682847738266, -0.03307377174496651, -0.028840994462370872, 0.23749521374702454, 0.09046470373868942, -0.038766227662563324, -0.040555741637945175, -0.01578456535935402, 0.04572989419102669, -0.04294517636299133, -0.10938335210084915, -0.1192958801984787, -0.014682533219456673, -0.01637161895632744, 0.12289676815271378, 0.03794931247830391, 0.00251007080078125, 0.07839102298021317, -0.05617107078433037, 0.09873050451278687, 0.0028088069520890713, -0.021918924525380135, -0.18908078968524933, 0.11714591085910797, -0.08776827156543732, 0.07105766981840134, -0.07552196830511093, 0.035581450909376144, -0.1840185821056366, 0.16967901587486267, -0.10542423278093338, -0.0972890704870224, 0.025606008246541023, -0.12074761837720871, -0.29013800621032715, 0.10440922528505325, -0.02204052545130253, 0.08551055938005447, 0.22209742665290833, 0.2882678806781769, -0.09049545973539352, 0.0037773768417537212, -0.029604611918330193, 0.11364452540874481, 0.14901193976402283, 0.12712715566158295, 0.05100433528423309, -0.08652538061141968, 0.09790174663066864, 0.1705630123615265, -0.017137352377176285, -0.07579107582569122, 0.20018775761127472, -0.01941622607409954, 0.043678782880306244, -0.0787615105509758, 0.08211103081703186, 0.05250120162963867, -0.28796568512916565, -0.06526612490415573, -0.08488829433917999, -0.11619262397289276, 0.032282061874866486, 0.09166885912418365, 0.24195292592048645, -0.03627971559762955, 0.05622069537639618, 0.07391005009412766, -0.06797304004430771, -0.20474161207675934, -0.2544974088668823, 0.016357265412807465, 0.22104021906852722, 0.08371643722057343, 0.08253897726535797, -0.14283627271652222, -0.1983165144920349, -0.012812021188437939, 0.16389386355876923, 0.14217202365398407, -0.10783283412456512, 0.10108529031276703, -0.15759025514125824, -0.18549226224422455, 0.12204287201166153, 0.018941039219498634, 0.0019739896524697542, 0.13934355974197388, 0.054883766919374466, -0.024522725492715836, -0.10313385725021362, -0.18549050390720367, -0.146635040640831, 0.21977883577346802, 0.0007494238088838756, -0.43582889437675476, 0.17233213782310486, 0.16261303424835205, 0.138905331492424, 0.03423624485731125, 0.011115371249616146, 0.07760324329137802, 0.2544105052947998, -0.13751281797885895, 0.16857503354549408, 0.18416127562522888, -0.13436251878738403, 0.04017214849591255, 0.161586195230484, -0.3645683228969574, -0.25918349623680115, 0.3079696595668793, 0.0076541961170732975, -0.10264512896537781, -0.10398101061582565, 0.2919955551624298, 0.12789390981197357, -0.14954736828804016, -0.03472902625799179, 0.007670811843127012, 0.12864983081817627, 0.0615035779774189, 0.08813502639532089, 0.05875736102461815, -0.27609172463417053, 0.0820004865527153, 0.14621345698833466, -0.13400284945964813, 0.19255025684833527, -0.05671115964651108, -0.23198634386062622, -0.4036937952041626, -0.07292027026414871, 0.04672897607088089, -0.04383132979273796, -0.12947286665439606, -0.10859302431344986, 0.2710227072238922, -0.12062624841928482, -0.11368950456380844, 0.1034291610121727, -0.23819145560264587, 0.0015092259272933006, -0.012642604298889637, -0.2297002673149109, 0.08800908178091049, -0.06400898844003677, -0.21896858513355255, 0.0830468013882637, -0.025212900713086128, -0.03379911556839943, -0.23811745643615723, 0.06155351549386978, 0.03516098111867905, 0.1282608062028885, -0.3639400601387024, -0.18449071049690247, -0.225450336933136, -0.22417579591274261, 0.1361127495765686, -0.05325239896774292, -0.07189801335334778, -0.010763416066765785, 0.21071304380893707, 0.03307943791151047, 0.253144234418869, -0.07307962328195572, 0.2010403573513031, -0.04134795814752579, 0.11924666166305542, 0.004381462465971708, -0.18204347789287567, -0.0063657998107373714, 0.11304154247045517, 0.07485044747591019, -0.259970486164093, 0.14735034108161926, -0.12950016558170319, -0.03158847242593765, 0.058055803179740906, -0.003258325392380357, -0.3960675299167633, -0.36775338649749756, 0.014473224058747292, 0.24436980485916138, 0.14095838367938995, 0.2284710705280304, -0.38033342361450195, 0.4739078879356384, 0.1448725461959839, -0.04888841509819031, 0.32338574528694153, 0.025090746581554413, 0.1164344772696495, -0.24832339584827423, 0.1534741073846817, -0.04585791006684303, -0.022900745272636414, 0.14129476249217987, 0.0226299911737442, 0.04005477577447891, 0.08780191838741302, -0.09691046923398972, -0.18001322448253632, 0.13940903544425964, -0.011949373409152031, -0.00016007968224585056, -0.13949072360992432, 0.04910718649625778, 0.036854393780231476, -0.0046917046420276165, 0.02405530959367752, 0.817294180393219, 0.18206864595413208, 0.6768881678581238, -0.7428635954856873, -0.6064274311065674, 0.03495566546916962, 0.15134689211845398, 0.02860540710389614, 0.30791908502578735, 0.4751312732696533, -0.8219491839408875, 0.44457849860191345, -0.21179509162902832, -0.8675812482833862, 0.0031658268999308348, -0.2219880223274231, -0.23854851722717285, -0.1879880577325821, 0.3247910737991333, -0.2810789942741394, 0.15749779343605042, 0.3467639982700348, 0.146877259016037, -0.24801473319530487, -0.29001176357269287, 0.22377115488052368, -0.1978619545698166, -0.01196551788598299, 0.16640065610408783, -0.07288575917482376, 0.22509698569774628, 0.35908034443855286, -0.17105700075626373, 0.022111179307103157, 0.1256907731294632, -0.3417969048023224, 0.3261754810810089, 0.22671163082122803, 0.35785147547721863, -0.20597006380558014, -0.20404581725597382, 0.07032014429569244, -0.27397775650024414, 0.023150473833084106, 0.036147281527519226, 0.11720651388168335, -0.16521596908569336, 0.23687231540679932, -0.01765500381588936, 0.26245182752609253, -0.3026321828365326, -0.3779642879962921, -0.09823224693536758, -0.12885057926177979, -0.21228136122226715, 0.033740002661943436, 0.25771409273147583, -0.07465126365423203, -0.17681370675563812, -0.13558363914489746, 0.12913957238197327, 0.11647775769233704, -0.08752095699310303, 0.22690227627754211, -0.17676423490047455, 0.04517539218068123, -0.20342350006103516, 0.15787625312805176, 0.2782999575138092, 0.29742297530174255, 0.1076958104968071, 0.10053718090057373, -0.1706932634115219, -0.04044298082590103, 0.03686550632119179, -0.16044753789901733, 0.18012794852256775, 0.17494988441467285, -0.05385834723711014, -0.13374000787734985, 0.24239782989025116, -0.06799103319644928, 0.06322656571865082, 0.08176655322313309, -0.0810638815164566, -0.14213205873966217, -0.17114129662513733, -0.21271643042564392, 0.2972087264060974, 0.28368133306503296, 0.07129814475774765, 0.28450027108192444, -0.12641336023807526, -0.2929912507534027, -0.3679105341434479, -0.2864888608455658, -0.18280890583992004, 0.15206420421600342, 0.12812002003192902, 0.2703310549259186, -0.11937706917524338, 0.10026933997869492, 0.11011780798435211, -0.056805770844221115, 0.10517499595880508, 0.20540878176689148, -0.3131491541862488, 0.11993328481912613, -0.07021325081586838, 0.2087470293045044, -0.12264842540025711, 0.1469723880290985, -0.07243933528661728, -0.33325818181037903, -0.05878259614109993, 0.30729880928993225, -0.19161203503608704, -0.24875563383102417, 0.11982911825180054, 0.31129634380340576, -0.3034972846508026, -0.1645505130290985, 0.4263796806335449, 0.007448469288647175, -0.11294642090797424, -0.13239528238773346, 0.17146728932857513, -0.3444824516773224, 0.015464209951460361, 0.12508384883403778, -0.051519010215997696, 0.02457578480243683, 0.10423612594604492, -0.27366214990615845, -0.30121445655822754, 0.19775334000587463, 0.017409661784768105, -0.08851922303438187, 0.07550308853387833, 0.19341829419136047, 0.13626213371753693, 0.034599557518959045, -0.2134970873594284, -0.2590208649635315, -0.12485887855291367, 0.009050041437149048, -0.04953254014253616, -0.0648886114358902, 0.07404036819934845, 0.030804330483078957, -0.2727717459201813, -0.09676367044448853, 0.16203425824642181, -0.03451539948582649, -0.009419419802725315, -0.032595910131931305, 0.3107869327068329, 0.1282724291086197, 0.23822133243083954, 0.045499421656131744, 0.07682150602340698, 0.23590558767318726, 0.2654533386230469, -0.09073624014854431, 0.08048412203788757, -0.006056982092559338, -0.023116938769817352, 0.049822576344013214, -0.22132202982902527, -0.1468193233013153, 0.1874607652425766, -0.04750323295593262, 0.183115154504776, -0.25899314880371094, 0.14928029477596283, -0.06857555359601974, -0.21927127242088318, 0.12935757637023926, -0.673489511013031, -0.1898774355649948, -0.09105411171913147, -0.014109990559518337, 0.0509910024702549, -0.22326865792274475, 0.2778235077857971, -0.055763278156518936, -0.27226805686950684, -0.16509413719177246, -0.10801704227924347, 0.35675859451293945, -0.1175164207816124, 0.12426064908504486, 0.09447962045669556, 0.11722414195537567, -0.09064392000436783, -0.09303948283195496, -0.025977343320846558, -0.15659888088703156, -0.016493557021021843, 0.2102000117301941, -0.21566247940063477, 0.1279025673866272, 0.4435499906539917, 0.27036967873573303, -0.19691649079322815, -0.03699593245983124, -0.2679288983345032, -0.21314474940299988, -0.0381869375705719, -0.12134674936532974, 0.21467256546020508, 0.4328693449497223, -0.19721196591854095, 0.1209641620516777, -0.1304134726524353, 0.020093832165002823, 0.21933521330356598, 0.0551726333796978, -0.38842540979385376, -0.25581762194633484, -0.3647952675819397, 0.10633596777915955, 0.032737039029598236, -0.18106049299240112, 0.05743056908249855, 0.12009129673242569, 0.06756014376878738, 0.24683687090873718, -0.12563848495483398, -0.048514265567064285, -0.11810796707868576, 0.03255113214254379, 0.11037527769804001, 0.08962757885456085, 0.22754058241844177, -0.09920156002044678, -0.09741083532571793, -0.28852421045303345, 0.07535451650619507, 0.18611310422420502, 0.28998512029647827, -0.18229807913303375, 0.06189502403140068, 0.26655811071395874, -0.3158625364303589, -0.32036298513412476, 0.10963118821382523, 0.14259585738182068, -0.026631105691194534, 0.05650296062231064, -0.20866835117340088, 0.11758944392204285, -0.07890335470438004, -0.04096780717372894, 0.1546681523323059, 0.12456786632537842, -0.16949240863323212, 0.07294691354036331, -0.21509099006652832, 0.0274481400847435, -0.1837000846862793, -0.18510788679122925, 0.26361533999443054, -0.0982687771320343, -0.21419529616832733, -0.024842942133545876, -0.366679310798645, -0.10184631496667862, 0.04653668403625488, 0.012989087030291557, 0.28019705414772034, -0.18046680092811584, -0.17919540405273438, 0.0028218883089721203, 0.06206032261252403, -0.18128901720046997, 0.07589488476514816, 0.03711424395442009, 0.17579783499240875, 0.16960196197032928, -0.19840896129608154, 0.13925600051879883, 0.04261128231883049, 0.0337698720395565, 0.04521237313747406, -0.07309263199567795, -0.06816242635250092, -0.003835089271888137, 0.2099309265613556, -0.1301378309726715, -0.029130244627594948, -0.1831257939338684, -0.13760550320148468, 0.09502632170915604, -0.263062059879303, 0.09657132625579834, -0.31138545274734497, -0.07007133960723877, 0.047880303114652634, 0.3141063153743744, 0.08615080267190933, 0.13841736316680908, -0.32031765580177307, 0.19604012370109558, 0.045902758836746216, -0.023250069469213486, -0.07707789540290833, -0.05898604542016983, 0.2514711618423462, 0.28955405950546265, 0.2618876099586487, -0.2620948255062103, -0.174293652176857, -0.16995538771152496, 0.29023727774620056, 0.18332798779010773, -0.0703364685177803, -0.04528788477182388, 0.030749041587114334, 0.0019224085845053196, -0.17847368121147156, 0.12753522396087646, 0.18077965080738068, -0.10128359496593475, 0.09750746190547943, 0.1898644119501114, -0.021431606262922287, -0.2832950949668884, -0.20085744559764862, 0.060787003487348557, 0.05790504440665245, -0.09954661130905151, -0.34572169184684753, 0.11168711632490158, 0.14096198976039886, -0.14659295976161957, 0.11199235916137695, 0.27188676595687866, 0.08685808628797531, 0.39672407507896423, 0.6769912838935852, -0.041763048619031906, 0.3521575331687927, -0.020323844626545906, -0.02346852980554104, -0.027767563238739967, 0.39256763458251953, -0.015721287578344345, 0.24754832684993744, -0.28938835859298706, 0.17690953612327576, 0.08825128525495529, -0.05811028555035591, -0.2435605525970459, -0.2878645360469818, 0.1678776741027832, 0.016531700268387794, -0.1287107765674591, -0.26033923029899597, 0.00980682484805584, -0.019064394757151604, 0.38753095269203186, 0.10148677229881287, -0.18017466366291046, -0.013654743321239948, 0.03818570822477341, 0.605119526386261, 0.05592288821935654, 0.07237508147954941, -0.2573823630809784, -0.5052435398101807, -0.09891081601381302, 0.07239019870758057, -0.1711227297782898, 0.06182451918721199, -0.17091906070709229, 0.05478861555457115, 0.0337732695043087, -0.30038270354270935, -0.3684961497783661, -0.18747489154338837, 0.1813139021396637, -0.07183989137411118, -0.025947250425815582, 0.16926850378513336, 0.026506654918193817, 0.10019900649785995, -0.0005508309695869684, 0.057852182537317276, 0.46694937348365784, -0.014232730492949486, 0.12044133245944977, -0.15037432312965393, -0.14197328686714172, 0.14673097431659698, 0.24786092340946198, -0.0065320576541125774, -0.12566909193992615, -0.35633987188339233, 0.22500383853912354, 0.10695687681436539, 0.01874905824661255, -0.18496324121952057, -0.1015254482626915, 0.11412680149078369, 0.07913948595523834, -0.004852598067373037, -0.32617488503456116, -0.055382661521434784, -0.08841414004564285, 0.1313435435295105, 0.13466525077819824, -0.0896955206990242, 0.046845659613609314, 0.2582792341709137, 0.3802278935909271, 0.05235312134027481, -0.1741379350423813, -0.04223961383104324, 0.1213279590010643, 0.04302136227488518, 0.22917364537715912, -0.24744445085525513, -0.11128396540880203, -0.0007383517804555595, 0.23581430315971375, 0.0421292744576931, -0.021016372367739677, -0.4811321794986725, 0.2185814082622528, -0.01417718455195427, -0.183033287525177, 0.18715499341487885, -0.009339620359241962, -0.08663198351860046, -0.07943125814199448, -0.11799775063991547, -0.029356254264712334, -0.06304492056369781, 0.0021630367264151573, -0.05672464519739151, -0.09266272932291031, -0.1130182072520256, 0.210275799036026, 0.13531266152858734, 0.09582008421421051, -0.10451316833496094, 0.10166944563388824, 0.09085796773433685, -0.007120983209460974, -0.0020305770449340343, -0.12831825017929077, 0.3248254954814911, 0.3155381679534912, 0.08952423930168152, -0.2599726915359497, -0.12820859253406525, -0.11533878743648529, 0.29074209928512573, 0.14989404380321503, 0.07646454125642776, -0.06190003082156181, -0.08431173861026764, -0.09825419634580612, -0.06266342103481293, -0.2693397104740143, -0.0011971929343417287, 0.1132853701710701, 0.09656982868909836, 0.1072293072938919, 0.014536070637404919, -0.16992223262786865, 0.010188608430325985, 0.04710180684924126, 0.17021821439266205, -0.03220192715525627, -0.051602184772491455, 0.24741986393928528, 0.059457141906023026, -0.200725257396698, -0.02944456972181797, -0.05539193004369736, 0.32709136605262756, 0.09662087261676788, -0.06784775108098984, 0.08755786716938019, 0.10172481834888458, 0.4066397547721863, 0.15964215993881226, 0.04094509780406952, 0.25203737616539, 0.18384642899036407, -0.0022588283754885197, 0.007086829282343388, 0.12477850168943405, 0.06457957625389099, -0.16176921129226685, -0.07874951511621475, 0.23767094314098358, 0.02533555217087269, -0.15693816542625427, -0.07406841218471527, 0.06045471876859665, 0.09525705128908157, 0.12769189476966858, 0.22636717557907104, 0.15008902549743652, -0.0296249371021986, 0.018137509003281593, 0.17115481197834015, -0.05452666059136391, 0.36722180247306824, 0.05231865122914314, 0.18467824161052704, 0.0270156841725111, -0.30740639567375183, -0.21304990351200104, 0.05876729637384415, -0.00259391195140779, 0.05168694257736206, -0.0747254341840744, -0.19310100376605988, -0.16966475546360016, 0.1973871886730194, -0.0945877656340599, -0.1966453492641449, -0.016564292833209038, 0.22620247304439545, -0.3329971730709076, 0.192819744348526, -0.10420142859220505, -0.009605105966329575, -0.035232141613960266, 0.07035018503665924, -0.16210316121578217, -0.3658541738986969, 0.09802094101905823, 0.086611308157444, -0.16015784442424774, -0.11665071547031403, -0.19963549077510834, 0.05256232991814613, 0.05285370722413063, -0.18942764401435852, 0.025904182344675064, 0.10430630296468735, 0.28548428416252136, -0.12779510021209717, -0.1747327595949173, -0.22963431477546692, 0.11621536314487457, 0.013686487451195717, 0.05705302581191063, -0.3721892833709717, 0.13107970356941223, -0.16364996135234833, 0.39036694169044495, -0.0010641032131388783, -0.18657460808753967, -0.38820314407348633, 0.07586700469255447, 0.18445758521556854, -0.03307518735527992, -0.1553029865026474, 0.021894512698054314, -0.08979400992393494, -0.10017504543066025, 0.0447290875017643, -0.037561140954494476, -0.13748110830783844, 0.033415988087654114, 0.19339098036289215, 0.21735431253910065, -0.1160445585846901, 0.17757537961006165, 0.08159134536981583, -0.23425115644931793, -0.00745594035834074, 0.10743275284767151, 0.037436600774526596, 0.03296056389808655, -0.07635542005300522, -0.08425313979387283, -0.3078670799732208, 0.11869678646326065, 0.06401903182268143, -0.2911681830883026, -0.0505966953933239, -0.00955995637923479, 0.18615436553955078, 0.05697906017303467, -0.17348603904247284, 0.034024789929389954, -0.07085399329662323, 0.2137536108493805, 0.03763764724135399, -0.02555886283516884, 