{"version": "0.5.3", "metadata": {"date": {"year": 2024, "month": 10, "day": 1, "hour": 18, "minute": 33, "second": 54}, "loudness": -14.63139533996582, "gain": 0.7908994860975456, "training": {"settings": {"fit_cab": false, "ignore_checks": false}, "data": {"latency": {"manual": null, "calibration": {"algorithm_version": 1, "delays": [140, 141], "safety_factor": 4, "recommended": 136, "warnings": {"matches_lookahead": false, "disagreement_too_high": false}}}, "checks": {"version": 3, "passed": true}}, "validation_esr": 0.0060529304268567745}}, "architecture": "WaveNet", "config": {"layers": [{"input_size": 1, "condition_size": 1, "head_size": 8, "channels": 16, "kernel_size": 3, "dilations": [1, 2, 4, 8, 16, 32, 64, 128, 256, 512], "activation": "Tanh", "gated": false, "head_bias": false}, {"input_size": 16, "condition_size": 1, "head_size": 1, "channels": 8, "kernel_size": 3, "dilations": [1, 2, 4, 8, 16, 32, 64, 128, 256, 512], "activation": "Tanh", "gated": false, "head_bias": true}], "head": null, "head_scale": 0.02}, "weights": [-0.30836328864097595, 0.7221395373344421, -0.8054890632629395, -0.8844843506813049, -0.5502992868423462, 0.50196772813797, 0.08914365619421005, 0.845544159412384, -0.13988402485847473, 0.27584654092788696, -0.3365679085254669, -0.4650346040725708, -1.1207882165908813, -0.7192971706390381, -0.548165500164032, 0.3468666076660156, -0.006579890381544828, 0.36695098876953125, 0.12617464363574982, -0.09889213740825653, -0.30553585290908813, -0.1656273752450943, 0.007536295801401138, 0.4590056538581848, 0.251097708940506, 0.051807038486003876, 0.48468339443206787, 0.14417533576488495, -0.058592960238456726, 0.31832730770111084, 0.2247665673494339, 0.09567204862833023, -0.45689547061920166, -0.33967530727386475, -0.09854137152433395, -0.09226249158382416, 0.048806093633174896, 0.08617956191301346, -0.2928234934806824, -0.2054208368062973, 0.025228995829820633, 0.2665644884109497, 0.28512170910835266, -0.16514533758163452, -0.4531349837779999, -0.34253063797950745, 0.12141276895999908, 0.435753732919693, 0.2020270973443985, 0.023776311427354813, 0.449846088886261, 0.4267950654029846, 0.0948861613869667, 0.37549805641174316, 0.3764447271823883, -0.04599679633975029, 0.3839614689350128, 0.16645178198814392, -0.062371157109737396, 0.286802738904953, 0.3465859293937683, 0.03168836236000061, -0.45904332399368286, -0.23978379368782043, -0.06530243903398514, -0.1065995991230011, -0.14903782308101654, 0.07640551030635834, 0.08189664036035538, 0.20646809041500092, -0.1468183845281601, -0.04131026938557625, -0.00924584362655878, 0.0816892609000206, 0.13560010492801666, 0.05742683634161949, -0.015084014274179935, -0.11852549016475677, -0.0569089911878109, -0.03905712068080902, -0.1357225924730301, 0.20233598351478577, 0.12128985673189163, -0.1446007937192917, -0.07590489089488983, 0.013049819506704807, -0.034969985485076904, 0.0019051654962822795, 0.005003618076443672, -0.0910806879401207, -0.04201515391469002, 0.11444523930549622, 0.09758706390857697, 0.12918683886528015, -0.18733292818069458, -0.08879870921373367, -0.0009743315167725086, -0.017981676384806633, -0.10941272974014282, -0.1563904583454132, 0.09674880653619766, 0.10738223046064377, -0.130540668964386, -0.0727325901389122, -0.12555351853370667, -0.0685563012957573, -0.15231145918369293, -0.10538049042224884, -0.07601933926343918, 0.08498604595661163, -0.05144290626049042, 0.1602393090724945, 0.03893106058239937, -0.18659096956253052, 0.2559720277786255, -0.13554055988788605, 0.3208991587162018, -0.10063246637582779, 0.026944732293486595, -0.3136270344257355, 0.1621057689189911, 0.016878308728337288, -0.4223237633705139, 0.18196788430213928, -0.11906494945287704, -0.43362969160079956, 0.08400198072195053, -0.09072593599557877, 0.3067328929901123, -0.24351754784584045, 0.008168105036020279, 0.01169311162084341, 0.05912123993039131, -0.01469221618026495, 0.45289939641952515, -0.1267392933368683, 0.040936313569545746, -0.32435688376426697, 0.21143485605716705, 0.07398153841495514, 0.46556907892227173, -0.0366436243057251, 0.15398110449314117, -0.3490060269832611, -0.006074793171137571, -0.04622204601764679, -0.25620853900909424, 0.1228872537612915, -0.06361092627048492, -0.46509426832199097, -0.026192571967840195, -0.11260955035686493, -0.3775283694267273, 0.19152118265628815, 0.09056024253368378, -0.4855066239833832, 0.1985560655593872, -0.14960478246212006, 0.31468603014945984, -0.23004168272018433, 0.05301620438694954, 0.21723133325576782, -0.28048473596572876, -0.2770129442214966, -0.3047814965248108, 0.11769941449165344, 0.0853835865855217, 0.335324764251709, -0.2434956133365631, 0.14320677518844604, 0.4114568531513214, -0.17844735085964203, 0.2752920389175415, 0.3259882926940918, -0.2584884762763977, -0.0563819445669651, -0.29303619265556335, 0.0712418258190155, 0.1870000958442688, -0.13111460208892822, -0.07642090320587158, -0.1810237467288971, -0.17781256139278412, 0.1601007729768753, 0.19745689630508423, 0.3041442036628723, -0.20950736105442047, -0.16701439023017883, -0.3825749158859253, 0.21228763461112976, 0.25458383560180664, 0.365291953086853, -0.23428606986999512, 0.15310247242450714, 0.17506684362888336, -0.21109259128570557, 0.06987093389034271, 0.3329557180404663, -0.20246176421642303, 0.1467057168483734, 0.28500649333000183, -0.027484746649861336, 0.03829008340835571, 0.17465662956237793, -0.20245729386806488, -0.04013855382800102, -0.29568979144096375, 0.30325546860694885, 0.018767649307847023, -0.004367070738226175, -0.029831403866410255, -0.02822759374976158, -0.005078969057649374, -0.04467698931694031, -5.14420862600673e-05, 0.04559376463294029, -0.0939459279179573, -0.07081469893455505, 0.1453951746225357, -0.09447725862264633, -0.007696219254285097, 0.16774402558803558, 0.06759186089038849, -0.0074592032469809055, -0.15393008291721344, 0.04608272761106491, 0.057910334318876266, -0.02076573856174946, 0.09765513986349106, -0.024392683058977127, -0.024947939440608025, 0.09747999161481857, 0.03574709966778755, 0.16977743804454803, 0.13454650342464447, -0.09639881551265717, 0.03560027480125427, -0.12741953134536743, -0.05285334587097168, 0.07143817842006683, 0.07340512424707413, 0.11649654805660248, -0.017897453159093857, 0.020297391340136528, 0.07723168283700943, -0.11300337314605713, 0.1231873407959938, -0.11592613160610199, 0.02934441715478897, -0.0037812774535268545, -0.07997293770313263, 0.04125388711690903, 0.13220073282718658, -0.05522545799612999, -0.12382730096578598, -0.08266180008649826, 0.049288906157016754, 0.20143061876296997, -0.24304212629795074, -0.1816742867231369, -0.14323188364505768, 0.2756086587905884, 0.15163357555866241, 0.15648609399795532, -0.12873922288417816, 0.0304997768253088, 0.006982454098761082, -0.13946731388568878, 0.20802439749240875, 0.10248563438653946, -0.2500482201576233, -0.15728111565113068, -0.20295140147209167, 0.2047133892774582, -0.09732216596603394, -0.1997576504945755, 0.19256295263767242, -0.17069260776042938, -0.06322731077671051, 0.2187177836894989, 0.1040547639131546, -0.025390425696969032, -0.24218343198299408, 0.030469795688986778, -0.03085876815021038, 0.27965885400772095, 0.036152470856904984, 0.09866692125797272, -0.19836539030075073, 0.08882419019937515, -0.017234953120350838, -0.13090695440769196, 0.1250094324350357, 0.04783640429377556, -0.21791993081569672, -0.010880421847105026, 0.1495749056339264, -0.28629210591316223, 0.14032310247421265, 0.01001817174255848, -0.2502298951148987, -0.0807165652513504, -0.1858040988445282, 0.18914248049259186, 0.33420807123184204, -0.3263782858848572, -0.136532261967659, -0.1418359875679016, 0.3165378272533417, 0.12172393500804901, 0.07160463184118271, -0.276168555021286, -0.08108654618263245, 0.1405051052570343, -0.19982390105724335, -0.034815266728401184, 0.13166742026805878, -0.2509007751941681, -0.07104939967393875, -0.20013684034347534, 0.273319274187088, 0.13826821744441986, -0.1629447638988495, -0.0457671694457531, 0.17306648194789886, -0.06144896149635315, 0.3409281075000763, 0.146863654255867, 0.2800057530403137, -0.2875789403915405, -0.20129474997520447, -0.320509135723114, 0.38330623507499695, 0.20533321797847748, 0.09991579502820969, -0.19077633321285248, -0.007835467346012592, 0.3587294816970825, -0.1252427101135254, -0.016181858256459236, 0.16196712851524353, -0.30785641074180603, -0.015295058488845825, 0.273433119058609, -0.3419567048549652, 0.00020781988860107958, 0.26747822761535645, -0.17871946096420288, -0.22222667932510376, -0.19408448040485382, 0.1915694922208786, 0.20774638652801514, -0.0073656076565384865, 0.021330328658223152, 0.09199795871973038, 0.16679784655570984, 0.08577047288417816, 0.08969689905643463, -0.20528636872768402, -0.1008625328540802, -0.115821473300457, -0.2479267120361328, -0.2537889778614044, 0.096653051674366, -0.02039983868598938, 0.007704942487180233, 0.10646945238113403, -0.026485158130526543, 0.03079141490161419, -0.017616786062717438, -0.16901251673698425, -0.05905752629041672, -0.11627988517284393, 0.035642821341753006, -0.003947854973375797, -0.06541872769594193, 0.04390856623649597, 0.008756186813116074, 0.13096071779727936, 0.20359782874584198, 0.24998356401920319, -0.03457234427332878, -0.03334968537092209, 0.005279448349028826, 0.043946489691734314, 0.04303973168134689, -0.057988490909338, 0.0773271694779396, -0.15839087963104248, -0.06814219802618027, -0.0030596947763115168, -0.13883422315120697, -0.21501541137695312, -0.09635746479034424, -0.21295353770256042, -0.02887447364628315, 0.0884757712483406, 0.07719849050045013, 0.015703095123171806, 0.0820029228925705, 0.16819030046463013, -0.0914454385638237, -0.061024852097034454, 0.14439494907855988, 0.18893861770629883, -0.0976061299443245, 0.1265212893486023, -0.016318002715706825, -0.05954411253333092, 0.06842177361249924, -0.21038828790187836, -0.028498005121946335, 0.1161811575293541, -0.11857381463050842, -0.10590369999408722, -0.041614606976509094, 0.08821950107812881, -0.027445722371339798, -0.1675550937652588, 0.00020416936604306102, 0.02958083711564541, -0.07619418948888779, 0.13604389131069183, 0.07514232397079468, 0.08223870396614075, -0.23701345920562744, 0.008023731410503387, -0.10407199710607529, 0.056198474019765854, 0.04580146446824074, -0.10996952652931213, -0.06870122998952866, 0.12335583567619324, 0.0026261971797794104, -0.22299085557460785, -0.0560421347618103, 0.01691409945487976, -0.24023056030273438, 0.06178172305226326, -0.14382138848304749, -0.2672829329967499, -0.14747893810272217, -0.03652447089552879, -0.027062304317951202, -0.14210443198680878, 0.12363874912261963, 0.06124771758913994, 0.03185321390628815, 0.2904020845890045, -0.19388993084430695, -0.15318191051483154, -0.09046043455600739, 0.2905118763446808, 0.3577944040298462, 0.06143225356936455, -0.029931290075182915, -0.2631303369998932, 0.2281123399734497, -0.26387736201286316, -0.31464436650276184, 0.02683466300368309, -0.20330661535263062, -0.24949795007705688, -0.2840748727321625, 0.20097269117832184, 0.3522292971611023, -0.08966545015573502, -0.09064901620149612, -0.04274161905050278, -0.202623650431633, 0.21682244539260864, 0.412108451128006, 0.24942605197429657, -0.14344969391822815, -0.18926210701465607, -0.30017176270484924, 0.02180994488298893, 0.32589828968048096, 0.08082034438848495, -0.08003005385398865, -0.3629538416862488, 0.10493404418230057, -0.2592962980270386, -0.20356406271457672, 0.146670401096344, -0.03923104330897331, -0.18738259375095367, 0.23839358985424042, -0.14570698142051697, -0.31656432151794434, 0.12993080914020538, -0.1358325481414795, -0.20753894746303558, -0.2860994040966034, 0.2617206573486328, 0.2668441832065582, -0.3890334367752075, -0.2949615716934204, 0.3555496633052826, 0.46706050634384155, 0.13674981892108917, -0.11167550832033157, -0.26057544350624084, -0.18319359421730042, 0.33401525020599365, -0.40988993644714355, -0.22536955773830414, 0.2738385796546936, -0.3710041642189026, -0.21518446505069733, 0.18105024099349976, 0.4271319508552551, 0.2319590449333191, -0.2820172607898712, 0.1695173978805542, 0.07410245388746262, -0.09161828458309174, 0.3451463580131531, 0.35277923941612244, -0.23119817674160004, -0.25751397013664246, -0.27536657452583313, 0.3017934560775757, 0.2126583307981491, 0.17041973769664764, -0.2956145107746124, -0.19010435044765472, -0.29839789867401123, 0.2234734445810318, -0.3998650312423706, -0.12142491340637207, 0.36666029691696167, -0.444525808095932, -0.3883916139602661, 0.10440725088119507, -0.33056512475013733, -0.30137643218040466, 0.12393098324537277, -0.3870548605918884, -0.23532183468341827, 0.14487917721271515, 0.3720475733280182, 0.21140849590301514, -0.33734339475631714, -0.15270650386810303, 0.35146141052246094, 0.05956989526748657, 0.14809484779834747, -0.28872591257095337, 0.008560878224670887, -0.2660157084465027, 0.09277623146772385, 0.26971712708473206, -0.22200250625610352, 0.26312679052352905, 0.11665450036525726, -0.17502276599407196, 0.19790996611118317, 0.21788664162158966, 0.15332671999931335, -0.37825125455856323, -0.20485305786132812, -0.010713601484894753, 0.19871939718723297, -0.10089635848999023, 0.26690852642059326, -0.2644682228565216, -0.15033365786075592, -0.021557023748755455, 0.2898901700973511, 0.22012631595134735, 0.2131759226322174, -0.2664119601249695, -0.21345281600952148, -0.14839164912700653, 0.3453121781349182, 0.06827182322740555, -0.27924013137817383, 0.2952372133731842, 0.26838845014572144, -0.17560401558876038, 0.1152125671505928, -0.001887089223600924, -0.09887997806072235, 0.2181088775396347, 0.050467558205127716, -0.10677525401115417, 0.28490254282951355, 0.239298015832901, 0.28062599897384644, -0.24038438498973846, -0.2213001400232315, 0.0963101014494896, 0.01260269246995449, 0.1297215223312378, -0.11865726858377457, 0.018143517896533012, 0.07615233957767487, 0.31053030490875244, -0.010160894133150578, -0.06584761291742325, 0.11956432461738586, -0.24279211461544037, 0.19234369695186615, 0.11874005943536758, -0.20764103531837463, 0.13438042998313904, -0.24845105409622192, 0.0737689882516861, -0.07645963132381439, -0.18603479862213135, -0.2520174980163574, 0.07899219542741776, -0.23682597279548645, 0.19361723959445953, 0.06831838190555573, 0.24052554368972778, -0.11644217371940613, 0.18532133102416992, -0.1500113606452942, 0.06924956291913986, 0.07725753635168076, 0.20939940214157104, -0.2770945131778717, 0.020827703177928925, 0.08268685638904572, -0.02033013105392456, 0.03294257074594498, 0.044621411710977554, -0.15211619436740875, 0.1471499502658844, 0.21379724144935608, -0.09307549893856049, 0.07347102463245392, 0.23085470497608185, -0.17498750984668732, 0.002798444125801325, -0.33558928966522217, 0.014018679037690163, -0.028417835012078285, -0.10894573479890823, 0.10154605656862259, 0.022160833701491356, -0.010829819366335869, -0.18661391735076904, 0.1401291936635971, -0.060175225138664246, 0.21348053216934204, -0.11653006076812744, -0.01062826532870531, 0.1746673583984375, -0.06146824359893799, 0.136557474732399, -0.011490832082927227, -0.1302413046360016, -0.08203597366809845, -0.06553646177053452, 0.14057734608650208, -0.015847155824303627, 0.13021962344646454, -0.061535000801086426, -0.05652860552072525, 0.00914188101887703, -0.11090047657489777, 0.0205819234251976, 0.2186633050441742, -0.04665911942720413, 0.09506844729185104, -0.13502740859985352, 0.12657968699932098, -0.12023760378360748, 0.06920333206653595, -0.03252537176012993, 0.06109123304486275, 0.14419536292552948, 0.10133159905672073, 0.0034792267251759768, 0.09041345119476318, 0.09889471530914307, -0.014662593603134155, 0.22257322072982788, -0.09771952778100967, 0.0021282369270920753, 0.08227657526731491, 0.05970558524131775, 0.09286551922559738, -0.09899899363517761, -0.10475605726242065, -0.007834553718566895, -0.0035292310640215874, -0.0032464773394167423, -0.03028760850429535, 0.08771654218435287, 0.16181689500808716, -0.05169988423585892, -0.14064930379390717, 0.07790940254926682, -0.1717626452445984, 0.027035340666770935, -0.002533601364120841, -0.12331424653530121, 0.05556701123714447, -0.14929379522800446, 0.09221410751342773, -0.09067441523075104, 0.008867650292813778, -0.024950740858912468, 0.040122244507074356, -0.07582186162471771, 0.15641286969184875, -0.01008523628115654, -0.04569966346025467, -0.18766620755195618, -0.15252812206745148, 0.12952254712581635, 0.02725357376039028, 0.022235199809074402, 0.05790956690907478, 0.035163797438144684, 0.11287286877632141, 0.09367354214191437, -0.15982191264629364, -0.013708879239857197, -0.10574737936258316, -0.1452753096818924, 0.03204497694969177, 0.1103505790233612, -0.17652229964733124, 0.08578555285930634, -0.0932500958442688, -0.08418500423431396, 0.1174086332321167, -0.05192200839519501, 0.05327204614877701, -0.12807920575141907, 0.13398656249046326, -0.08909650146961212, 0.14796067774295807, -0.2503534257411957, -0.0017688135849311948, -0.35545700788497925, 0.2716614603996277, 0.004966918844729662, 0.185836523771286, -0.18382129073143005, 0.017655160278081894, 0.3245260417461395, -0.33267736434936523, -0.11774176359176636, 0.19171534478664398, -0.37516507506370544, 0.11077667772769928, -0.1251009702682495, 0.37437471747398376, 0.20951955020427704, 0.0067282384261488914, -0.1193864569067955, 0.2194448709487915, -0.2833385169506073, 0.1504320204257965, -0.07807885855436325, 0.30987903475761414, -0.35445162653923035, 0.23849795758724213, -0.16275173425674438, 0.13944970071315765, -0.1431928426027298, 0.3428407311439514, -0.35873445868492126, -0.1362334042787552, 0.30024853348731995, -0.3772396743297577, -0.027452608570456505, 0.30685392022132874, -0.16902387142181396, -0.20018094778060913, 0.3720703125, -0.3382408618927002, 0.03491712734103203, 0.0935797467827797, -0.37840214371681213, 0.19993682205677032, -0.23549966514110565, 0.2577882409095764, -0.2731705904006958, -0.12454065680503845, -0.17494083940982819, -0.18470224738121033, 0.19419042766094208, -0.12971679866313934, -0.2136688530445099, -0.04803219810128212, 0.1974603533744812, -0.052810996770858765, -0.10272114723920822, 0.18997453153133392, -0.07908936589956284, -0.10910950601100922, -0.034429989755153656, -0.12116818130016327, 0.16593702137470245, -0.36311912536621094, 0.6970090866088867, -0.5935260653495789, -0.01541228499263525, 1.088735580444336, 1.131767988204956, -0.5530810952186584, 0.19199517369270325, 0.39390385150909424, -0.6770482659339905, -0.47659555077552795, 0.21619169414043427, -0.7005513310432434, 0.19177159667015076, 0.6912375092506409, -0.08105749636888504, -0.008188926614820957, 0.2148551642894745, 0.15646454691886902, 0.4593295454978943, -0.20224589109420776, 0.29985567927360535, -0.19959232211112976, -0.11945582926273346, -0.06690580397844315, 0.09566109627485275, -0.20356939733028412, 0.06874874979257584, 0.07226910442113876, -0.12562523782253265, -0.22476477921009064, 0.14554567635059357, -0.038632117211818695, -0.39466336369514465, 0.2266802191734314, 0.007373386062681675, -0.09728479385375977, -0.24314123392105103, -0.0256661269813776, -0.1229620948433876, 0.06961458921432495, -0.22682708501815796, 0.17502208054065704, 0.03297794982790947, -0.015450446866452694, -0.028668610379099846, 0.12507300078868866, 0.07013252377510071, 0.06512745469808578, -0.034716539084911346, 0.2480320930480957, -0.20059087872505188, -0.17286986112594604, 0.06631851941347122, -0.19665232300758362, -0.03713449463248253, -0.16300228238105774, 0.08226903527975082, -0.1604546755552292, 0.16768987476825714, 0.22309204936027527, 0.03803635388612747, -0.005638238973915577, 0.10408807545900345, 0.07208193838596344, -0.08293106406927109, -0.19570036232471466, -0.2631957530975342, -0.006589236669242382, -0.03394756093621254, 0.20205058157444, -0.1849973499774933, 0.017638564109802246, 0.05115050822496414, 0.08396338671445847, 0.21771347522735596, 0.17272751033306122, -0.12124475091695786, -0.07053613662719727, -0.21731926500797272, -0.322885125875473, -0.021196406334638596, 0.228672593832016, 0.35830122232437134, 0.2386045753955841, 0.3636702001094818, -0.3233805000782013, -0.07550958544015884, 0.3760087490081787, -0.0391613207757473, 0.10711674392223358, -0.06375455856323242, 0.2717422842979431, -0.17692704498767853, 0.11129235476255417, -0.0719941183924675, 0.04243328422307968, 0.17917680740356445, 0.10460715740919113, 0.12169262021780014, 0.26587775349617004, 0.2103358656167984, 0.07246646285057068, 0.0658433735370636, -0.09975707530975342, -0.07722306251525879, -0.08523320406675339, -0.11087621003389359, -0.06681358069181442, 0.12568284571170807, 0.27967363595962524, -0.006436739582568407, 0.3108578324317932, -0.04582976549863815, 0.0838206484913826, -0.5008653402328491, -0.2842863202095032, 0.0009366187732666731, 0.15879979729652405, 0.23273000121116638, -0.24490566551685333, -0.4410843253135681, 0.15206517279148102, 0.4023006558418274, -0.27843210101127625, 0.24599112570285797, -0.3003227710723877, 0.25107476115226746, 0.07584869861602783, 0.38855674862861633, -0.2434663623571396, -0.11332061141729355, 0.21223397552967072, 0.27219048142433167, 0.05480600520968437, 0.03374795988202095, -0.20692506432533264, 0.3633712828159332, -0.22978878021240234, -0.04576773941516876, 0.02604631334543228, -0.10621199756860733, 0.20483087003231049, 0.015332278795540333, 0.06574258208274841, -0.32991233468055725, -0.18217721581459045, -0.09160774946212769, -0.2085181027650833, -0.2621419429779053, -0.047061193734407425, -0.16561013460159302, -0.2793823480606079, -0.04339629039168358, 0.23421938717365265, 0.2286406308412552, -0.16458535194396973, 0.018539533019065857, -0.22819070518016815, -0.2735770642757416, -0.13945528864860535, 0.2878386676311493, -0.3206727206707001, 0.008390216156840324, -0.015186347998678684, 0.2682883143424988, -0.24052031338214874, 0.07890485227108002, 0.2214718461036682, 0.14376886188983917, 0.017013557255268097, 0.20082218945026398, 0.1564245969057083, -0.21669434010982513, -0.023427965119481087, 0.10349346697330475, 0.2683601379394531, -0.3877272605895996, 0.18206049501895905, -0.21351951360702515, -0.19745710492134094, -0.022254865616559982, -0.031507860869169235, 0.009498094208538532, -0.16785545647144318, -0.24702708423137665, 0.09480541944503784, -0.06163773313164711, 0.15237312018871307, 0.0979396402835846, 0.15669508278369904, -0.15887634456157684, -0.05204635486006737, 0.15539595484733582, -0.12171322107315063, -0.00020207403576932847, -0.28302082419395447, 0.09587572515010834, 0.06202816590666771, 0.15019774436950684, -0.11820179224014282, -0.03673868998885155, -0.30948883295059204, 0.24140918254852295, 0.09116043895483017, -0.2515847384929657, -0.5393397212028503, -0.14548170566558838, 0.04269959032535553, -0.06730394065380096, 0.001638435060158372, 0.02701319381594658, -0.16313321888446808, 0.0019074996234849095, 0.06807848811149597, 0.15791352093219757, 0.052534621208906174, -0.023600535467267036, 0.14545464515686035, 0.10477045178413391, 0.0730186328291893, -0.018181756138801575, 0.12064864486455917, -0.03818047419190407, -0.13768473267555237, -0.11452902853488922, 0.1020803228020668, -0.18854650855064392, 0.16443735361099243, 0.2156691998243332, 0.05245416983962059, 0.06813812255859375, -0.02642342448234558, -0.10749175399541855, -0.024348316714167595, -0.09371025115251541, -0.1374588906764984, -0.11725746840238571, 0.1016891822218895, -0.2281336933374405, 0.1289701610803604, -0.06107039004564285, -0.0981239378452301, 0.17634598910808563, 0.004959946032613516, 0.12419500946998596, 0.049075499176979065, -0.24235926568508148, 0.1020766943693161, -0.11769602447748184, -0.0746031180024147, -0.031528767198324203, 0.16691680252552032, -0.12075731158256531, -0.00990663655102253, 0.2570200562477112, 0.07118730992078781, 0.3166169822216034, -0.09558894485235214, -0.17125824093818665, 0.3555136024951935, 0.14059874415397644, 0.2152813971042633, -0.15216827392578125, -0.13969844579696655, 0.12941591441631317, -0.28691625595092773, 0.134785994887352, 0.17083218693733215, 0.11741100251674652, 0.3249184489250183, 0.28981494903564453, -0.1901489645242691, 0.20634488761425018, -0.4055216610431671, -0.07960814237594604, 0.005917796865105629, -0.13314776122570038, 0.10582422465085983, -0.11019991338253021, 0.0898936465382576, -0.09828987717628479, -0.17031973600387573, -0.10650675743818283, 0.1795220971107483, 0.15822534263134003, -0.040639929473400116, -0.026717370375990868, 0.24155376851558685, -0.0350659042596817, 0.04198877513408661, -0.19085201621055603, 0.07149505615234375, -0.10311788320541382, -0.15609130263328552, 0.13819469511508942, -0.29814666509628296, -0.334520548582077, -0.02933584153652191, -0.5616004467010498, -0.20319563150405884, -0.906399667263031, 0.16929268836975098, 0.17787154018878937, -0.13030745089054108, -0.04212325066328049, -0.19245509803295135, 0.34696438908576965, 0.10237599164247513, 0.14845231175422668, -0.2333054542541504, -0.0660969614982605, -0.11856359243392944, 0.11839066445827484, -0.09473926573991776, 0.17633956670761108, -0.2509390413761139, -0.20663577318191528, -0.2768439054489136, 0.08144006133079529, -0.10439477115869522, -0.37129437923431396, 0.20636285841464996, -0.2757434546947479, -0.4152723252773285, 0.08993340283632278, -0.012747019529342651, 0.07388976216316223, -0.0675060823559761, -0.21895185112953186, 0.2891123592853546, -0.033966124057769775, 0.09658633917570114, 0.04225078970193863, -0.24403315782546997, 0.051820456981658936, -0.18278682231903076, 0.24611108005046844, -0.14953608810901642, 0.21675601601600647, -0.15305224061012268, 0.1441483348608017, 0.12120144814252853, 0.11416006833314896, 0.021915866062045097, 0.16444288194179535, -0.04399121552705765, 0.1951441913843155, 0.06976782530546188, 0.07645893841981888, -0.19654303789138794, -0.1488262265920639, -0.02294679544866085, 0.22116927802562714, -0.14577023684978485, -0.10504794865846634, -0.013688613660633564, -0.16634032130241394, 0.10486671328544617, -0.045045189559459686, 0.11985962092876434, -0.10673996061086655, 0.0020561174023896456, -0.19102594256401062, -0.08877066522836685, 0.16030766069889069, 0.23835863173007965, -0.0706796795129776, 0.16596169769763947, -0.30268630385398865, 0.28097647428512573, 0.04348646104335785, -0.19777964055538177, 0.05702320858836174, 0.0203951857984066, 0.03585303947329521, -0.1872008591890335, 0.02659306488931179, -0.3921871781349182, -0.15748366713523865, -0.06850852817296982, 0.0912296250462532, -0.026392554864287376, -0.021325010806322098, -0.1847452074289322, 0.09960803389549255, 0.16530191898345947, 0.18684609234333038, -0.21177798509597778, 0.07892756164073944, 0.17733757197856903, 0.09131664782762527, 0.24020425975322723, 0.173800528049469, -0.03106093965470791, 0.10722926259040833, -0.10198505222797394, 0.05173592269420624, -0.13903221487998962, -0.07462114840745926, 0.20506882667541504, 0.1913149505853653, -0.16889353096485138, -0.17476174235343933, -0.13524854183197021, -0.08705627173185349, 0.2352944016456604, 0.10284338146448135, 0.022441819310188293, -0.10586420446634293, -0.15040649473667145, -0.016223734244704247, -0.03362446278333664, -0.047008104622364044, -0.05619893968105316, -0.04559420794248581, 0.2016061544418335, 0.0418531559407711, 0.17766904830932617, 0.3086249530315399, 0.22585053741931915, 0.1246412843465805, -0.04498398303985596, -0.04842112585902214, -0.024679075926542282, -0.11012297123670578, -0.10594821721315384, 0.18566586077213287, -0.13843819499015808, 0.14324061572551727, 0.2620004117488861, -0.22236686944961548, -0.39608559012413025, -0.07642005383968353, 0.04491211473941803, 0.4332391023635864, -0.045246049761772156, 0.07735086232423782, -0.11963511258363724, -0.30233442783355713, 0.24247479438781738, 0.21971343457698822, -0.023008545860648155, -0.0812387466430664, -0.04670959338545799, -0.22054935991764069, -0.08547630906105042, 0.05826544016599655, 0.13381414115428925, 0.14821088314056396, 0.09045853465795517, 0.026193460449576378, -0.12717288732528687, 0.12453030049800873, 0.33694666624069214, 0.14541691541671753, -0.011337843723595142, -0.06464143097400665, 0.10524491965770721, -0.2680250108242035, 0.22224193811416626, 0.1599976271390915, 0.0030191366095095873, -0.18777930736541748, 0.14973770081996918, -0.2311733216047287, 0.2873677611351013, 0.1141720563173294, -0.17229437828063965, -0.05415001139044762, -0.06271371990442276, -0.36203253269195557, -0.31472116708755493, -0.29466474056243896, -0.44227537512779236, 0.036640532314777374, 0.13808444142341614, 0.24068687856197357, 0.4973605275154114, 0.028325511142611504, 0.06481288373470306, -0.31448304653167725, 0.046363070607185364, 0.10785112529993057, 0.1868768334388733, -0.0806015357375145, -0.03185191750526428, -0.17052893340587616, -0.07821603119373322, 0.053673792630434036, 0.14753910899162292, 0.03262150660157204, -0.05418895557522774, -0.20468848943710327, -0.11448562890291214, 0.2556461989879608, -0.06303338706493378, 0.14851506054401398, -0.19688785076141357, 0.035210683941841125, 0.052109576761722565, 0.31313470005989075, 0.13346917927265167, 0.0453428253531456, -0.1327153891324997, -0.010958053171634674, -0.048849813640117645, 0.011544414795935154, 0.00441641453653574, 0.09959305077791214, -0.20400835573673248, -0.03152349963784218, 0.10262397676706314, -0.028512582182884216, 0.1254626363515854, -0.06316022574901581, -0.4188600182533264, 0.04642896726727486, -0.05716458335518837, -0.2468012124300003, -0.005140565801411867, 0.08513160049915314, -0.15908467769622803, -0.19531047344207764, 0.1572457104921341, 0.22895392775535583, 0.022247642278671265, -0.15098385512828827, -0.06287325173616409, -0.10947757959365845, -0.24913787841796875, -0.030051665380597115, 0.25732776522636414, -0.271781325340271, -0.1254660189151764, 0.018170924857258797, -0.11276844143867493, 0.04671289026737213, 0.07864092290401459, -0.0571899451315403, 0.1482256054878235, 0.17151117324829102, 0.2866271138191223, -0.018824730068445206, -0.07368867844343185, -0.09141945093870163, -0.17930449545383453, -0.03504595533013344, 0.23824839293956757, -0.19327464699745178, 0.00762065639719367, -0.02205272950232029, 0.09677986055612564, 0.06003439053893089, 0.2544165253639221, -0.015522407367825508, -0.16562388837337494, -0.06894124299287796, 0.03913150355219841, 0.28343719244003296, 0.041752059012651443, 0.007216411642730236, 0.008316806517541409, -0.06441767513751984, 0.08544065058231354, -0.16109994053840637, -0.12966269254684448, -0.15323330461978912, 0.049797821789979935, -0.07526230067014694, 0.26132312417030334, -0.25276580452919006, 0.0696493461728096, -0.07090180367231369, -0.11651726067066193, 0.1317262500524521, 0.1173541247844696, 0.0835934579372406, 0.21323326230049133, 0.11420490592718124, -0.20604944229125977, 0.21991083025932312, -0.07065511494874954, -0.012195521965622902, 0.2477540224790573, 0.027991464361548424, -0.09918023645877838, 0.22055067121982574, -0.10755057632923126, 0.15674827992916107, 0.02916576899588108, 0.11175509542226791, 0.31633496284484863, 0.3642304539680481, -0.11261925846338272, -0.14167217910289764, -0.2775477468967438, 0.12171497941017151, 0.1534595489501953, 0.14568141102790833, -0.12100779265165329, -0.3203652799129486, -0.12897838652133942, 0.017799973487854004, 0.12186890840530396, 0.3113746643066406, -0.03404713049530983, -0.07573914527893066, 0.10287568718194962, 0.020964419469237328, -0.2661379873752594, 0.10160502791404724, 0.07056845724582672, 0.06559791415929794, 0.0672391951084137, -0.0020586694590747356, -0.2269437313079834, 4.0030146919889376e-05, -0.07045751065015793, -0.007139992900192738, -0.20581573247909546, 0.051899246871471405, 0.18230445683002472, 0.1712004393339157, 0.3020923137664795, 0.4684184193611145, -0.12812229990959167, -0.13869012892246246, -0.4344903528690338, -0.016970084980130196, 0.10928990691900253, 0.08791765570640564, -0.3018723726272583, -0.37193676829338074, -0.3837829530239105, -0.2100609987974167, -0.2539147436618805, -0.3559454381465912, 0.06114750728011131, -0.012371168471872807, 0.08277513086795807, 0.02129034698009491, -0.008536113426089287, -0.052308112382888794, 0.10816691070795059, 0.04845837876200676, 0.13307732343673706, 0.022284945473074913, -0.1371685415506363, 0.02295324206352234, 0.10116398334503174, 0.08242252469062805, 0.09923847764730453, 0.010366350412368774, -0.19814997911453247, -0.23719830811023712, -0.04540708661079407, -0.18777674436569214, -0.024867704138159752, 0.006908082403242588, -0.22161729633808136, -0.2298399657011032, 0.03811367601156235, 0.15776707231998444, -0.035426609218120575, 0.07556124031543732, 0.03383216634392738, 0.2955564260482788, -0.13604481518268585, -0.11356694996356964, 0.023336544632911682, 0.21323485672473907, 0.24096913635730743, -0.07842017710208893, -0.05294433608651161, -0.2756280303001404, 0.03996944800019264, 0.09472879767417908, 0.0061877029947936535, 0.09714915603399277, 0.08758318424224854, 0.015940889716148376, -0.12075983732938766, -0.09005580842494965, -0.5122300386428833, 0.018246304243803024, -0.09575821459293365, 0.009728999808430672, 0.05319615453481674, 0.24695086479187012, 0.1926657259464264, 0.0368306040763855, -0.15907588601112366, -0.052357017993927, 0.13999837636947632, -0.01937522366642952, -0.11071176081895828, 0.0703437477350235, -0.07864511758089066, 0.10331264138221741, -0.20522211492061615, 0.06406019628047943, -0.07708456367254257, -0.043922580778598785, 0.15671415627002716, 0.44275838136672974, -0.037378836423158646, -0.11895376443862915, 0.28248780965805054, -0.09823565185070038, -0.05052921175956726, -0.17722542583942413, -0.14305031299591064, 0.03936498239636421, -0.13441148400306702, -0.021006988361477852, -0.011024846695363522, -0.004451162647455931, 0.0027975987177342176, 0.21293073892593384, 0.01591651514172554, -0.018807431682944298, -0.18218687176704407, 0.14486217498779297, 0.12742561101913452, -0.14934344589710236, -0.07592403888702393, -0.053603049367666245, -0.09451635926961899, 0.09380672872066498, -0.05073266103863716, -0.09060145914554596, -0.14672698080539703, -0.24907304346561432, -0.0025546406395733356, -0.10257472097873688, 0.07199573516845703, 0.036123067140579224, 0.0547877661883831, 0.12664476037025452, 0.007517162244766951, 0.017278974875807762, 0.20052708685398102, -0.09287594258785248, 0.16446521878242493, 0.0058053843677043915, -0.05074223503470421, -0.1311948150396347, 0.007373507600277662, -0.16948609054088593, 0.04850083962082863, 0.1072184145450592, 0.2900918126106262, -0.09187233448028564, 0.0673220232129097, -0.019030876457691193, -0.15957526862621307, -0.1112285628914833, -0.19516776502132416, -0.019063763320446014, -0.06290218234062195, -0.017706122249364853, -0.25480279326438904, -0.07494433224201202, 0.005987359210848808, -0.04100419953465462, -0.10256647318601608, 0.049042269587516785, 0.027981361374258995, -0.0921076163649559, -0.028561552986502647, 0.14465905725955963, -0.22294923663139343, 0.07675899565219879, -0.02392306923866272, 0.13898244500160217, -0.1355058252811432, -0.09638463705778122, 0.026727404445409775, 0.3033338785171509, 0.24831488728523254, -0.2187078893184662, 0.08401110023260117, 0.2267184853553772, -0.03860403969883919, 0.03756863623857498, -0.07727798074483871, 0.18313053250312805, -0.09331513941287994, 0.18226401507854462, 0.07368931919336319, -0.0296219140291214, -0.08848581463098526, 0.17290958762168884, -0.027587687596678734, -0.12429691106081009, 0.010458680801093578, 0.13483083248138428, -0.08567464351654053, -0.10730192065238953, 0.16940303146839142, -0.5513245463371277, -0.0008415731135755777, -0.0216940026730299, -0.2435179352760315, 0.3224709630012512, 0.10540353506803513, -0.017100313678383827, 0.08041354268789291, 0.15228058397769928, 0.10478240251541138, 0.05874411389231682, -0.09265946596860886, -0.03496142104268074, 0.02477528527379036, 0.207651749253273, 0.1537076085805893, -0.008244074881076813, -0.04547230154275894, -0.2557421922683716, -0.26949796080589294, 0.03907426446676254, 0.18575671315193176, 0.20530635118484497, 0.03876759856939316, 0.005425394047051668, 0.00931868702173233, 0.2555858790874481, 0.10036984086036682, -0.030982110649347305, -0.03504575788974762, 0.18318027257919312, -0.004589941818267107, -0.0633673146367073, -0.2129535675048828, 0.11327157914638519, 0.06630826741456985, 0.2226797193288803, -0.01627330295741558, 0.10681109130382538, -0.2015867829322815, -0.08561660349369049, -0.14873774349689484, 0.21070075035095215, 0.03555388003587723, -0.05525483936071396, -0.11520011723041534, -0.08685920387506485, -0.03176385536789894, 0.049282848834991455, 0.08354048430919647, 0.027799786999821663, 0.05309893935918808, 0.23554666340351105, 0.24697615206241608, 0.07886263728141785, 0.058845922350883484, 0.21143470704555511, 0.24520482122898102, 0.19444726407527924, -0.16348308324813843, 0.10417552292346954, 0.07611477375030518, -0.06594613194465637, 0.099650539457798, -0.04875151067972183, 0.30108916759490967, 0.031102359294891357, 0.09958154708147049, 0.115579754114151, -0.0494212806224823, -0.10846441239118576, -0.03158986195921898, -0.06804914027452469, -0.08546087145805359, 0.14920355379581451, -0.13004538416862488, -0.06865809112787247, -0.07457583397626877, -0.0599827766418457, 0.13782592117786407, 0.009228250943124294, -0.04987065866589546, 0.014493505470454693, -0.21765080094337463, -0.06037606671452522, 0.03252871334552765, 0.061946477741003036, 0.09212304651737213, 0.12995822727680206, -0.11838329583406448, 0.08046136796474457, -0.16846612095832825, 0.19411033391952515, 0.01756921410560608, 0.07580599933862686, 0.10652647912502289, -0.0819513127207756, -0.05725114420056343, 0.06282411515712738, -0.07834579795598984, 0.09025168418884277, -0.06994134187698364, -0.1610652506351471, -0.15567553043365479, 0.029819831252098083, -0.08632970601320267, -0.12684932351112366, -0.1323142647743225, 0.0687338262796402, -0.04853721335530281, 0.09128684550523758, -0.10613714158535004, 0.18698520958423615, -0.06220036372542381, 0.11233332753181458, 0.07140413671731949, -0.038330066949129105, -0.09219078719615936, 0.054200295358896255, -0.1980770230293274, 0.007540791295468807, -0.04100935161113739, 0.11820080131292343, -0.2659686803817749, 0.017406294122338295, 0.056707993149757385, -0.1795959323644638, -0.0674256905913353, -0.12410110235214233, 0.24768173694610596, -0.01088606659322977, 0.26445698738098145, -0.023059068247675896, 0.10772544145584106, -0.15906576812267303, 0.0580524243414402, 0.03979940339922905, 0.1780286431312561, -0.19467946887016296, 0.11548048257827759, -0.12289353460073471, 0.11533200740814209, -0.07571342587471008, -0.35362064838409424, 0.25263991951942444, -0.06689092516899109, -0.32242316007614136, 0.15012988448143005, -0.2448272407054901, 0.08347874134778976, 0.11129950731992722, -0.13497567176818848, 0.13755279779434204, -0.1795213669538498, -0.08945944905281067, 0.08226939290761948, -0.19208011031150818, 0.11008889228105545, 0.14021435379981995, -0.22686618566513062, 0.0004398089076858014, -0.19564852118492126, 0.27050575613975525, -0.032844655215740204, -0.10306809097528458, 0.17202405631542206, -0.03383541479706764, -0.08737440407276154, 0.022567151114344597, -0.0328548438847065, -0.1799744963645935, -0.1035153716802597, -0.013298053294420242, 0.18973322212696075, -0.22590981423854828, 0.049388375133275986, -0.02822253666818142, 0.14381149411201477, -0.007555359974503517, 0.11898424476385117, -0.12843622267246246, 0.028234515339136124, -0.045230619609355927, 0.03547678515315056, -0.1410834789276123, -0.018858887255191803, -0.2915688753128052, 0.08078327775001526, -0.08974277973175049, 0.29261064529418945, 0.056187573820352554, 0.28447476029396057, -0.14395512640476227, -0.10299284756183624, 0.0234881229698658, 0.05767534300684929, -0.11180641502141953, -0.15399546921253204, -0.016072047874331474, -0.10895738750696182, -0.0706489309668541, -0.2543351948261261, -0.2489027976989746, 0.19075417518615723, -0.16111727058887482, 0.015523615293204784, 0.0028891912661492825, 0.04887211695313454, 0.2321161925792694, 0.004114590119570494, 0.06768804788589478, -0.03598775342106819, 0.003059842623770237, 0.18626391887664795, 0.11518888175487518, -0.009761718101799488, 0.1507859081029892, -0.116800956428051, 0.018689820542931557, -0.06495483964681625, 0.19902747869491577, 0.05255638062953949, -0.38947880268096924, -0.05157078430056572, -0.1176552027463913, 0.20630623400211334, -0.195245623588562, 0.11150043457746506, -0.3960736393928528, -0.16605521738529205, -0.20879249274730682, 0.19068533182144165, -0.02503744140267372, -0.05817447230219841, -0.030076710507273674, 0.16163089871406555, -0.058901458978652954, 0.2949478328227997, -0.05179167166352272, -0.15357699990272522, 0.19280435144901276, 0.2557557225227356, -0.16672758758068085, 0.24963131546974182, 0.14685000479221344, 0.05907939001917839, 0.22735361754894257, -0.0792822390794754, 0.1410570740699768, -0.09649673849344254, 0.14947915077209473, 0.042950961738824844, -0.09532509744167328, 0.022132448852062225, 0.2863953709602356, 0.003783701453357935, -0.08464834839105606, -0.09601705521345139, -0.19227516651153564, 0.10094569623470306, 0.0932200625538826, 0.4838709235191345, -0.04039134085178375, -0.07311594486236572, 0.0601259209215641, 0.1264246553182602, 0.11402833461761475, 0.08976005017757416, 0.06146739795804024, -0.025699449703097343, -0.6077433824539185, 0.19328255951404572, 0.2506260573863983, -0.4675314724445343, 0.2023739218711853, -0.539527177810669, -0.16856838762760162, -0.31015223264694214, 1.095015287399292, -0.7216923832893372, -0.8537359833717346, -1.2186888456344604, 0.35169029235839844, -0.3970378339290619, 0.5450843572616577, -0.6162891387939453, -0.1696939319372177, -0.0823761373758316, 0.10118983685970306, 0.29280492663383484, 0.2394452840089798, -0.004861133173108101, -0.17364954948425293, -0.10106969624757767, -0.13831393420696259, -0.09359098970890045, 0.24196356534957886, 0.27865493297576904, 0.10893562436103821, 0.03901387378573418, -0.01709846220910549, -0.04448159411549568, 0.05111069977283478, -0.09837578237056732, 0.02575531415641308, -0.01801254414021969, -0.3154570460319519, -0.006553358398377895, 0.09451660513877869, -0.1381351202726364, 0.2638566493988037, -0.1841505616903305, 0.05031537264585495, 0.32177165150642395, -0.06052592769265175, 0.14806267619132996, -0.19915887713432312, -0.008111015893518925, -0.049874089658260345, -0.21468664705753326, -0.2173188328742981, -0.031782060861587524, 0.05033976584672928, 0.27189183235168457, -0.277835875749588, -0.12864704430103302, -0.0731125995516777, 0.020289622247219086, -0.12975339591503143, -0.16748562455177307, -0.14303618669509888, -0.03443997725844383, 0.11401191353797913, 0.03436862304806709, 0.3389849066734314, 0.15096548199653625, -0.2264118641614914, -0.007718163076788187, -0.16574594378471375, -0.08393126726150513, -0.18750812113285065, -0.04313778504729271, -0.2039354294538498, -0.07787969708442688, 0.31397944688796997, 0.2689090669155121, 0.0022644884884357452, -0.14675313234329224, -0.13481704890727997, -0.148454949259758, 0.2895619571208954, -0.13075965642929077, -0.010104297660291195, 0.0903896689414978, 0.3327428102493286, -0.1268339604139328, -0.12249904125928879, 0.2528092861175537, 0.0768057182431221, 0.014920954592525959, -0.08086629956960678, 0.24907061457633972, -0.17194980382919312, -0.022236328572034836, -0.049137797206640244, -0.1286609172821045, -0.24666212499141693, -0.05908777192234993, -0.25223830342292786, -0.22570739686489105, -0.011834011413156986, -0.0651157796382904, 0.008645455352962017, -0.1204347088932991, 0.05710672587156296, 0.15804196894168854, -0.16595447063446045, -0.3680049479007721, -0.0897550880908966, 0.1353226602077484, 0.2548915445804596, 0.158447727560997, 0.04753614962100983, 0.1778171807527542, 0.0521753765642643, -0.4505593180656433, -0.18225057423114777, 0.3708752989768982, -0.11542205512523651, -0.15898552536964417, 0.03483100235462189, -0.0483560748398304, -0.14735522866249084, -0.09958100318908691, 0.3093799948692322, -0.33674681186676025, -0.19880640506744385, 0.25170260667800903, 0.033570632338523865, -0.013306253589689732, 0.10171430557966232, 0.002028520219027996, 0.07045938819646835, -0.018625570461153984, -0.061771221458911896, 0.1867583692073822, -0.30451658368110657, 0.17017510533332825, -0.20240360498428345, -0.03094523958861828, -0.19373197853565216, 0.14453642070293427, 0.19993804395198822, 0.05838765576481819, -0.13008730113506317, 0.23068591952323914, -0.2986808717250824, -0.35571515560150146, -0.3514610230922699, -0.04808030650019646, 0.012315775267779827, -0.32399705052375793, -0.01599637232720852, 0.1861867904663086, 0.08923254162073135, -0.32828590273857117, -0.08031339943408966, 0.20650212466716766, 0.11116214096546173, 0.3058091998100281, -0.1320967674255371, 0.015427098609507084, 0.10686422884464264, 0.16867952048778534, 0.07990311086177826, -0.14382046461105347, 0.21423189342021942, 0.17957161366939545, 0.0825129896402359, -0.060812365263700485, 0.14910559356212616, 0.32504862546920776, 0.18327932059764862, -0.05581502616405487, 0.08787217736244202, -0.08916348963975906, -0.027991222217679024, -0.21069805324077606, -0.15708915889263153, 0.07340145856142044, 0.17330461740493774, -0.18008019030094147, 0.04509729519486427, -0.1173660010099411, 0.024114806205034256, 0.11529208719730377, -0.10143046826124191, 0.22165414690971375, 0.0006549062090925872, -0.04585370048880577, -0.30172014236450195, -0.020309073850512505, 0.2115141749382019, 0.28615063428878784, 0.0030144506599754095, 0.04911061003804207, -0.09287703782320023, -0.27048736810684204, 0.09205727279186249, 0.3336580991744995, -0.12419631332159042, 0.09764917939901352, 0.207921102643013, -0.12219768017530441, -0.11014926433563232, -0.14502272009849548, 0.024216774851083755, -0.23808132112026215, -0.016437437385320663, -0.25238385796546936, -0.3142890930175781, 0.04822562634944916, -0.048867207020521164, 0.2101062387228012, -0.508617639541626, 0.15102307498455048, -0.1701478511095047, 0.04454923793673515, -0.3081211745738983, -0.27401840686798096, -0.17545974254608154, 0.2418781816959381, 0.1467473953962326, -0.047972578555345535, -0.008327051997184753, 0.14226411283016205, -0.18408337235450745, 0.14812831580638885, -0.3306826055049896, 0.009933545254170895, 0.09781286120414734, -0.1382739096879959, 0.4139249920845032, 0.14040572941303253, -0.012342785485088825, -0.13815909624099731, 0.1663309782743454, 0.16033737361431122, 0.07903869450092316, 0.01959911733865738, -0.20440274477005005, 0.18957149982452393, -0.08596309274435043, -0.11455132812261581, -0.14285999536514282, -0.05771737918257713, 0.03167826682329178, -0.2771759331226349, -0.196620374917984, 0.11887620389461517, -0.07726502418518066, -0.073874332010746, -0.12628799676895142, 0.07080164551734924, 0.3482978343963623, 0.3107132315635681, 0.22773122787475586, -0.18848900496959686, -0.062174927443265915, -0.051896411925554276, -0.19176897406578064, 0.13378383219242096, -0.327833890914917, 0.11296774446964264, 0.14251530170440674, -0.16558101773262024, 0.10705798864364624, -0.11841142922639847, -0.12345349788665771, 0.3400304615497589, 0.11894866079092026, -0.09409776329994202, 0.03990888223052025, 0.05390588566660881, 0.019482122734189034, -0.19289033114910126, -0.04054892435669899, 0.003933578729629517, -0.09773371368646622, 0.22107656300067902, -0.050200168043375015, 0.22794371843338013, -0.08883548527956009, -0.28970083594322205, -0.05066652595996857, -0.19630639255046844, -0.10908525437116623, -0.0763707086443901, -0.030475106090307236, -0.06634256988763809, -0.16314204037189484, -0.05865000933408737, -0.3352809250354767, -0.07948882132768631, 0.003183660563081503, -0.14733503758907318, -0.03669549897313118, 0.14340844750404358, -0.09579362720251083, -0.038540057837963104, 0.14697770774364471, -0.01919638365507126, 0.05762940272688866, 0.07329559326171875, 0.08908617496490479, 0.05507541447877884, -0.07548152655363083, -0.19338229298591614, 0.050288792699575424, 0.029149165377020836, 0.18320396542549133, -0.1408640742301941, -0.08970805257558823, 0.008706859312951565, -0.017939509823918343, 0.03482784330844879, 0.16358424723148346, -0.02258155681192875, -0.08919018507003784, -0.023741161450743675, -0.09405220299959183, 0.21404929459095, 0.026696471497416496, 0.128423273563385, 0.267653226852417, -0.01760975457727909, 0.30782070755958557, -0.11528639495372772, 0.04646745324134827, 0.0583513006567955, 0.12241359055042267, 0.06825504451990128, -0.06759097427129745, 0.18760009109973907, -0.15150746703147888, 0.11922179162502289, 0.30317509174346924, -0.03227235749363899, 0.11524184793233871, -0.13511599600315094, 0.013779358007013798, 0.0011554101947695017, 0.1659553498029709, 0.03216058760881424, 0.16017639636993408, -0.1978207379579544, -0.14637403190135956, -0.20997445285320282, 0.11827418953180313, -0.38383328914642334, -0.022142212837934494, 0.05453634262084961, -0.024793630465865135, 0.013257571496069431, -0.06200173497200012, -0.13181768357753754, 0.192199245095253, 0.07646922022104263, -0.09278319031000137, 0.0320747010409832, -0.07595702260732651, 0.0981740728020668, -0.15474191308021545, 0.15803830325603485, 0.1130678802728653, 0.040792956948280334, 0.135747492313385, 0.0466608852148056, 0.019523724913597107, -0.48323190212249756, 0.13393911719322205, -0.028842363506555557, -0.11523639410734177, 0.027315206825733185, 0.0894879624247551, -0.03289010375738144, 0.08932293206453323, 0.052893344312906265, 0.04288846626877785, 0.18465235829353333, 0.09555289149284363, 0.14570046961307526, -0.168981671333313, 0.024662630632519722, -0.07258369773626328, -0.007783492095768452, 0.020225681364536285, 0.17468973994255066, -0.1156168282032013, -0.26425930857658386, 0.04224749282002449, 0.07474794238805771, 0.152561217546463, -0.1806037425994873, -0.04576150327920914, 0.12127872556447983, -0.03974893316626549, -0.010028699412941933, 0.10364215821027756, 0.0035404330119490623, 0.08020942658185959, -0.06082139536738396, 0.09920487552881241, 0.06778517365455627, -0.033255476504564285, -0.1291206181049347, 0.1366463154554367, 0.10150010138750076, 0.09790799766778946, -0.06117749586701393, 0.006275998894125223, 0.03655475005507469, 0.07564320415258408, -0.10271371901035309, -0.0462585985660553, 0.10171812027692795, -0.06459681689739227, 0.1071392148733139, -0.17987379431724548, 0.1881704032421112, -0.16078200936317444, 0.11815408617258072, 0.2196379452943802, 0.07850781083106995, -0.017082996666431427, 0.17058435082435608, 0.18634620308876038, -0.10538739711046219, 0.019750941544771194, -0.22635617852210999, -0.021749990060925484, 0.19207513332366943, -0.023825233802199364, -0.15491493046283722, 0.21462036669254303, -0.15959112346172333, 0.07621494680643082, -0.06235285475850105, 0.05857933312654495, 0.19495579600334167, -0.11123321205377579, 0.08868353068828583, 0.10122011601924896, -0.18307921290397644, 0.037533920258283615, -0.059585876762866974, 0.04000706970691681, -0.05516672879457474, -0.03754143416881561, 0.2532586455345154, 0.08829856663942337, 0.030691316351294518, -0.21817849576473236, -0.028058262541890144, -4.474249362829141e-05, 0.184190034866333, 0.01895301416516304, 0.149240642786026, 0.011878187768161297, -0.09277649968862534, -0.2291484773159027, -0.16624519228935242, 0.03269638493657112, 0.03807346150279045, -0.05698543041944504, 0.09004459530115128, 0.15455065667629242, -0.04988892376422882, -0.14475321769714355, 0.07997318357229233, 0.1043892353773117, 0.15607379376888275, -0.08743693679571152, 0.03900891914963722, 0.11512449383735657, -0.0006566441734321415, 0.09913737326860428, -0.12533147633075714, 0.027819588780403137, 0.1245158463716507, 0.09364014118909836, -0.1050177812576294, -0.15279610455036163, -0.04041791334748268, 0.03924833983182907, 0.23897236585617065, -0.03787633776664734, -0.12242231518030167, 0.005077096167951822, -0.0797223150730133, -0.03494569659233093, 0.016395743936300278, -0.06683290749788284, 0.0854889526963234, -0.10723655670881271, 0.019015563651919365, 0.08005645126104355, -0.2335631549358368, -0.18065482378005981, -0.1801503449678421, 0.23617848753929138, -0.011033077724277973, -0.023452186957001686, -0.09315360337495804, -0.04077552631497383, -0.24605686962604523, 0.2298731505870819, 0.14519385993480682, 0.2853550612926483, -0.08405427634716034, -0.09708461165428162, -0.0910353809595108, 0.23733532428741455, -0.14664553105831146, 0.03627907484769821, -0.14944815635681152, -0.11107739061117172, -0.2282537966966629, -0.005051373038440943, -0.04145088419318199, -0.15806147456169128, 0.24898242950439453, -0.10752247273921967, -0.3014548122882843, 0.0761600136756897, 0.10692852735519409, -0.11877824366092682, -0.2162771224975586, 0.053773872554302216, -0.03969905152916908, -0.02821378782391548, 0.10450255125761032, -0.08765976876020432, -0.09516182541847229, -0.03024694323539734, -0.037565555423498154, 0.061691343784332275, -0.01447143405675888, -0.17232024669647217, 0.08849731832742691, -0.019440269097685814, -0.09290089458227158, 0.0892365500330925, -0.2537013590335846, 0.00280679645948112, -0.026075059548020363, -0.0531512051820755, 0.09820935130119324, 0.002645910484716296, -0.1695256531238556, -0.0639919564127922, 0.1050269678235054, 0.19136197865009308, 0.05342136323451996, -0.08522403240203857, -0.12837742269039154, -0.012856019660830498, -0.05935046821832657, 0.0902528390288353, -0.042148180305957794, -0.035357579588890076, 0.14712975919246674, -0.09357019513845444, 0.0038428818807005882, -0.2937219440937042, 0.2171013206243515, 0.37111368775367737, 0.043452490121126175, 0.029993899166584015, 0.04899540916085243, 0.10885325074195862, 0.0442189984023571, -0.036334991455078125, 0.04762355983257294, -0.05805350840091705, 0.08718487620353699, -0.35303834080696106, -0.19907796382904053, -0.11793581396341324, 0.16392093896865845, -0.021595900878310204, -0.1246342733502388, 0.07807181030511856, -0.18597781658172607, 0.036085113883018494, 0.08794312924146652, 0.21628108620643616, 0.13718581199645996, -0.007893753238022327, 0.023570122197270393, -0.014242846518754959, -0.011689386330544949, 0.1897670179605484, 0.2568722069263458, 0.1681266725063324, -0.011230451986193657, -0.003417468862608075, -0.024681108072400093, 0.1343161016702652, -0.07990925759077072, 0.01543345581740141, -0.08721808344125748, 0.1812341958284378, -0.18410594761371613, 0.16389469802379608, -0.1800655722618103, -0.2674967050552368, -0.15624767541885376, -0.1342545747756958, 0.16993223130702972, -0.2632583975791931, -0.6907689571380615, -0.1639690399169922, -0.2757279574871063, 0.2987654507160187, 0.08503785729408264, 0.00146046606823802, -0.11098279803991318, -0.009861230850219727, -0.00628160173073411, 0.092780701816082, 0.09691007435321808, 0.05938705801963806, 0.22067220509052277, -0.01521600503474474, 0.12456446886062622, -0.029074128717184067, 0.1577482372522354, 0.05779987573623657, -0.025131868198513985, -0.0005803812528029084, 0.111910380423069, -0.06509476155042648, -0.04412345588207245, 0.06799105554819107, 0.037045691162347794, -0.10548827052116394, 0.2051929533481598, 0.08581973612308502, 0.0022205414716154337, 0.0038386464584618807, 0.03532053530216217, 0.00578282168135047, -0.019119270145893097, -0.03811129555106163, -0.2163439393043518, 0.020611416548490524, 0.02389254979789257, 0.13324475288391113, 0.06489930301904678, -0.1314997673034668, -0.21178367733955383, 0.03311685100197792, -0.13790544867515564, 0.2108052372932434, -0.06488308310508728, -0.11478298902511597, 0.1924320012331009, 0.03404767066240311, 0.1329091489315033, 0.09330534934997559, 0.26027625799179077, 0.4062577188014984, 0.12980295717716217, -0.21418361365795135, 0.09326130151748657, 0.27942556142807007, -0.10224352031946182, 0.022683948278427124, -0.1942969113588333, -0.08702899515628815, 0.10353078693151474, -0.14447888731956482, -0.11905956268310547, -0.23914062976837158, 0.09279056638479233, -0.10643389821052551, 0.1301562786102295, -0.1743244230747223, -0.20878304541110992, -0.06009649485349655, -0.19316595792770386, -0.21557192504405975, 0.10469001531600952, -0.2256471812725067, 0.03404820337891579, -0.0843726173043251, 0.03317715600132942, -0.09096723049879074, -0.13114413619041443, 0.11124183982610703, -0.11330889165401459, 0.1359018236398697, 0.09493640065193176, 0.01606438308954239, -0.044098809361457825, 0.06636543571949005, -0.19529810547828674, 0.13014774024486542, 0.1121549904346466, 0.3050152063369751, -0.003423278219997883, -0.12721042335033417, -0.17395302653312683, -0.0684477910399437, 0.12305055558681488, 0.09586784243583679, -0.18257783353328705, -0.5187878012657166, -0.4614485204219818, 0.23983633518218994, 0.0025494496803730726, -0.13844630122184753, 0.16172917187213898, -0.017911305651068687, -0.21751539409160614, -0.18752078711986542, 0.06413532048463821, 0.09192930907011032, -0.05029440298676491, 0.040585193783044815, -0.11085466295480728, -0.305698424577713, -0.06964463740587234, 0.2122514694929123, 0.2137807011604309, -0.13575156033039093, -0.047376178205013275, 0.33920252323150635, -0.16620662808418274, -0.01310709584504366, -0.05057300627231598, 0.1523360162973404, 0.08198894560337067, -0.13419628143310547, 0.06154903769493103, -0.14068792760372162, 0.009604870341718197, -0.2819887697696686, 0.049192313104867935, 0.054298285394907, 0.2515479326248169, -0.18167510628700256, -0.19037681818008423, -0.22219130396842957, -0.16462558507919312, 0.2707436978816986, 0.2767409384250641, -0.10471829771995544, -0.18275363743305206, -0.15267759561538696, 0.121553935110569, 0.12168627232313156, 0.006677589379251003, 0.3677613139152527, -0.25895556807518005, 0.2614644765853882, 0.22921565175056458, 0.18415310978889465, -0.1807672679424286, -0.07962854951620102, 0.24280491471290588, -0.2989053726196289, -0.14496341347694397, 0.10174299776554108, 0.38360151648521423, 0.06274169683456421, -0.25059130787849426, 0.0038648757617920637, -0.02832763083279133, 0.017246101051568985, -0.017025280743837357, 0.08644143491983414, 0.07518445700407028, 0.0885162502527237, 0.16036786139011383, 0.13402053713798523, 0.03208019956946373, 0.15102361142635345, 0.03448640927672386, 0.08954143524169922, -0.16231170296669006, 0.1072969064116478, 0.18110956251621246, 0.12210426479578018, 0.12306110560894012, 0.09938060492277145, 0.19792915880680084, -0.16082227230072021, 0.08359058201313019, 0.10693172365427017, 0.10272364318370819, 0.03905591368675232, 0.1848086565732956, -0.03806206211447716, -0.030928710475564003, -0.09833682328462601, 0.05946939066052437, 0.006792651955038309, -0.058286912739276886, -0.047107722610235214, -0.00196083914488554, 0.00028646504506468773, -0.020939720794558525, -0.3028714656829834, 0.4754734933376312, 0.3069166839122772, 0.06497017294168472, -0.2369682788848877, -0.230540931224823, 0.07712375372648239, 0.1605280041694641, -0.13842645287513733, -0.03390676900744438, -0.08329449594020844, 0.09549560397863388, 0.06581064313650131, -0.062133319675922394, -0.07896780222654343, -0.06789041310548782, -0.10119644552469254, 0.16647642850875854, -0.03523169085383415, -0.10889393836259842, 0.22969694435596466, -0.18577076494693756, -0.002886430826038122, 0.20171622931957245, 0.13532079756259918, 0.010797722265124321, -0.10857615619897842, -0.050129394978284836, -0.20164088904857635, -0.11256172508001328, -0.054511282593011856, 0.10950570553541183, 0.2851259410381317, 0.24109792709350586, -0.03560033068060875, -0.22170400619506836, -0.23911042511463165, -0.015367464162409306, -0.004454238340258598, -0.05136994272470474, 0.019880620762705803, -0.2455543875694275, -0.20288445055484772, -0.14316676557064056, 0.026597214862704277, -0.05917643383145332, -0.0195432398468256, 0.1766047477722168, 0.3463408350944519, -0.22255127131938934, 0.1855512112379074, -0.21557140350341797, -0.1386951059103012, 0.2640950679779053, -0.3109448254108429, -0.34976446628570557, 0.18479904532432556, 0.1708086133003235, -0.07117385417222977, -0.24637815356254578, -0.23544083535671234, -0.2809552252292633, -0.042303360998630524, 0.010276289656758308, 0.14588585495948792, -0.027359187602996826, -0.1906522959470749, -0.12868589162826538, -0.03020676039159298, -0.18558244407176971, 0.043733976781368256, -0.019756393507122993, 0.057263411581516266, 0.32133913040161133, 0.23570652306079865, -0.07345318049192429, -0.06335269659757614, 0.08007343113422394, -0.18240392208099365, 0.140765979886055, -0.08707043528556824, 0.03710811957716942, -0.20262430608272552, -0.035615622997283936, 0.037960682064294815, -0.03760145604610443, 0.1704285591840744, -0.04311201721429825, -0.19315215945243835, -0.14323103427886963, 0.020596135407686234, 0.1926090121269226, -0.04690074920654297, 0.3594008982181549, 0.14017832279205322, 0.2946198284626007, -0.5183915495872498, 0.21866612136363983, 0.10166114568710327, 0.061510566622018814, 0.023349396884441376, -0.03497271612286568, 0.029581397771835327, -0.11065730452537537, -0.16649450361728668, -0.028260009363293648, 0.04867114871740341, 0.13380040228366852, -0.09971924126148224, -0.07472608983516693, 0.00412082951515913, 0.17222999036312103, -0.03045579232275486, -0.08982670307159424, 0.17497944831848145, 0.059154726564884186, -0.08311525732278824, -0.1492951512336731, -0.08792073279619217, -0.022192608565092087, -0.12681818008422852, 0.10406210273504257, 0.1784777194261551, -0.11922871321439743, -0.1406891644001007, -0.028689619153738022, 0.10017815232276917, 0.02878398634493351, -0.04342789202928543, -0.019158923998475075, 0.053557854145765305, 0.034377358853816986, 0.12559306621551514, 0.09846639633178711, -0.021018123254179955, -0.016688374802470207, -0.07996053248643875, 0.16023005545139313, 0.041661739349365234, -0.05111921206116676, -0.21265816688537598, -0.08440204709768295, 0.14620965719223022, -0.21639998257160187, -0.2783883512020111, 0.248864084482193, 0.23662975430488586, 0.11984103173017502, 0.0879245400428772, -0.1459723562002182, 0.030476676300168037, -0.05933505296707153, -0.006787471938878298, -0.18521827459335327, -0.02980693057179451, 0.08871908485889435, -0.21816810965538025, 0.24646149575710297, 0.08471136540174484, 0.157510444521904, 0.048690199851989746, 0.012980653904378414, 0.11582070589065552, -0.1413837969303131, 0.0923425629734993, 0.15912145376205444, 0.00019170818268321455, 0.04285841062664986, 0.06083417311310768, 0.23314225673675537, -0.14046575129032135, -0.14788977801799774, -0.21030312776565552, -0.14957289397716522, 0.11141293495893478, -0.004019072744995356, -0.13431358337402344, -0.24389418959617615, -0.05809437111020088, -0.08157365024089813, 0.1386343240737915, -0.3454727530479431, -0.05675768852233887, -0.13841719925403595, 0.10432426631450653, 0.0522271990776062, 0.13559015095233917, 0.021956145763397217, 0.13946689665317535, 0.20041844248771667, 0.19045327603816986, -0.6577103734016418, 0.1545410454273224, -0.02153860218822956, -0.16545438766479492, -0.03512652590870857, -0.08960355073213577, 0.02199571020901203, -0.12127329409122467, -0.3702690005302429, -0.003751648822799325, 0.01555969100445509, 0.28383520245552063, -0.054064154624938965, 0.12823820114135742, -0.11681044101715088, -0.44653427600860596, -0.06387853622436523, 0.020792299881577492, 0.3728845417499542, -0.0052041783928871155, -0.05408845469355583, 0.03259607404470444, -0.0573694184422493, -0.20775890350341797, 0.19614200294017792, 0.053655046969652176, 0.12289036065340042, 0.10451868921518326, -0.14909052848815918, -0.20562219619750977, -0.49573880434036255, 0.010487689636647701, -0.021567100659012794, 0.23256035149097443, 0.10682296752929688, 0.0779307559132576, -0.03674165904521942, 0.02566612884402275, -0.004764970857650042, 0.2368946224451065, -0.06082683056592941, 0.07254339009523392, -0.2389470934867859, -0.02142868936061859, -0.20946714282035828, 0.049219079315662384, -0.3776175379753113, -0.28420719504356384, 0.23750028014183044, 0.13094335794448853, -0.05270827189087868, 0.06904046982526779, -0.11131636053323746, 0.006617452017962933, -0.02251635119318962, 0.048534076660871506, -0.11269282549619675, -0.2296103686094284, -0.018564555794000626, -0.17258377373218536, 0.09193219989538193, 0.0039030658081173897, 0.0858573168516159, 0.009814003482460976, -0.05761714652180672, 0.17292045056819916, 0.038064535707235336, -0.13643889129161835, -0.09746472537517548, 0.22812505066394806, 0.09047161042690277, 0.06528722494840622, 0.049930356442928314, -0.0757543295621872, 0.21283671259880066, -0.114191435277462, 0.2554607391357422, -0.3251224160194397, -0.45613235235214233, 0.6930080056190491, 0.3397587537765503, -0.5797146558761597, -0.05398355796933174, -0.05383710935711861, -0.12449367344379425, 0.5163871049880981, -0.8046513199806213, 1.0269819498062134, 0.6098219156265259, 0.15844881534576416, -0.43996742367744446, 0.12032782286405563, -0.9968586564064026, 0.12277920544147491, 0.056748781353235245, 0.10999173671007156, -0.16868682205677032, 0.07360712438821793, 0.21273894608020782, 0.18126682937145233, 0.049410343170166016, -0.07924733310937881, 0.013263016007840633, 0.13570135831832886, 0.11778821051120758, -0.34034979343414307, 0.07189543545246124, 0.14874321222305298, -0.12440495938062668, 0.14678417146205902, -0.06846573948860168, 0.16313470900058746, 0.23783770203590393, -0.005277382675558329, 0.3671259582042694, 0.03243914619088173, -0.14421598613262177, -0.22446388006210327, -0.08085985481739044, -0.013201389461755753, -0.2065034955739975, -0.4236867129802704, 0.4594545066356659, 0.23153218626976013, -0.2781254053115845, 0.1434442549943924, 0.23902787268161774, -0.08262205868959427, -0.20536598563194275, 0.2620547413825989, -0.14098194241523743, -0.14031070470809937, -0.14644454419612885, -0.1257600486278534, 0.08613619208335876, -0.07292391359806061, 0.19983386993408203, -0.012569667771458626, -0.5803877711296082, -0.1734096109867096, 0.11105358600616455, 0.2342126965522766, -0.09091803431510925, 0.26998069882392883, -0.13238480687141418, 0.09368537366390228, 0.1529974788427353, -0.223503977060318, 0.28364408016204834, 0.28896164894104004, -0.029651060700416565, -0.10389649122953415, 0.2539365887641907, 0.039720915257930756, 0.09668499231338501, 0.15068858861923218, 0.004036630969494581, 0.005399707704782486, 0.007703679148107767, 0.21230722963809967, -0.1262538880109787, 0.1466762125492096, -0.10326562821865082, -0.05560460686683655, -0.15696905553340912, 0.16651727259159088, -0.10708220303058624, -0.18117354810237885, 0.16895374655723572, -0.11892945319414139, -0.3369123041629791, -0.09017931669950485, -0.1632666289806366, -0.3252444267272949, -0.2402094453573227, 0.12311693280935287, 0.027967272326350212, -0.03739449381828308, -0.01028766855597496, 0.2095126509666443, 0.21930621564388275, 0.06747135519981384, -0.0018838150426745415, -0.23884716629981995, 0.21713991463184357, 0.03957799822092056, 0.16267526149749756, 0.3449770212173462, -0.06040013208985329, -0.11539152264595032, -0.056002214550971985, -0.11729085445404053, 0.2194119393825531, 0.10526280105113983, 0.110374316573143, 0.04019397869706154, 0.055177148431539536, -0.19903403520584106, 0.1697169691324234, 0.2746807932853699, -0.23150180280208588, 0.26239606738090515, 0.22127610445022583, 0.028071941807866096, 0.03978325426578522, 0.2146976888179779, 0.03279969096183777, -0.15446075797080994, 0.011927329935133457, 0.07588930428028107, -0.12204280495643616, 0.15632453560829163, -0.08213553577661514, -0.09995736926794052, 0.07094448804855347, 0.059503234922885895, 0.15721771121025085, 0.13967444002628326, 0.07522079348564148, 0.04671860486268997, -0.0455571785569191, -0.09067849069833755, 0.298045814037323, -0.09846465289592743, 0.1146969273686409, 0.29485058784484863, 0.03292948380112648, -0.17596331238746643, 0.012661167420446873, -0.0313827283680439, 0.1724119633436203, -0.1824268251657486, 0.358588308095932, -0.36540311574935913, -0.16865356266498566, 0.04405900835990906, 0.04727494344115257, 0.11830630153417587, 0.036493975669145584, -0.10187128186225891, 0.2111043930053711, -0.15409043431282043, 0.2329884171485901, -0.03587576374411583, -0.08484320342540741, -0.14108259975910187, -0.18440982699394226, 0.09855581074953079, -0.3120954632759094, -0.07409782707691193, 0.10583239048719406, 0.2239145040512085, -0.08035033941268921, 0.24470798671245575, -0.34598687291145325, -0.09394574910402298, -0.19975915551185608, 0.3225800395011902, -0.10705874115228653, 0.022699793800711632, 0.04796760901808739, 0.2424723505973816, 0.11448986828327179, -0.12280026823282242, 0.09376892447471619, 0.1973724216222763, -0.24706755578517914, 0.004782460164278746, 0.26692408323287964, 0.2567586302757263, 0.029446916654706, 7.404566713375971e-05, -0.1598881632089615, -0.14977994561195374, 0.37690404057502747, 0.3134370744228363, 0.1276949793100357, -0.04521908611059189, -0.3157580494880676, 0.0013777685817331076, 0.2491314709186554, -0.2112201601266861, 0.07268183678388596, 0.02565060928463936, 0.05021420121192932, -0.32672786712646484, -0.30786755681037903, -0.25886818766593933, 0.15998509526252747, 0.06911543756723404, 0.0283304825425148, -0.13778728246688843, -0.41778069734573364, -0.13595864176750183, 0.018947571516036987, -0.1512177288532257, -0.053272925317287445, 0.3792816400527954, 0.04876050353050232, 0.2122589647769928, -0.2538619637489319, -0.07714083790779114, -0.18423785269260406, -0.09478138387203217, 0.04341529309749603, -0.12456410378217697, -0.06841617077589035, 0.09545466303825378, -0.09594104439020157, 0.06036099046468735, -0.07191725820302963, 0.19972848892211914, -0.31590020656585693, -0.20958095788955688, 0.13257932662963867, 0.05634861811995506, -0.16300897300243378, 0.08758194744586945, 0.10654117166996002, -0.12889216840267181, -0.016099663451313972, -0.01103668101131916, -0.18924438953399658, 0.1428590714931488, -0.26501962542533875, 0.17791618406772614, 0.3024602234363556, 0.18929632008075714, 0.2512145936489105, -0.06658103317022324, -0.1489362120628357, 0.05280791595578194, -0.17891214787960052, -0.21277841925621033, -0.10950478166341782, -0.13816890120506287, -0.13367551565170288, -0.11967890709638596, -0.17581138014793396, 0.020334025844931602, -0.174531489610672, -0.08005392551422119, 0.08752308785915375, 0.18049658834934235, 0.20071642100811005, -0.27049314975738525, -0.19278034567832947, 0.015290037728846073, 0.10539773851633072, 0.14249467849731445, 0.16932770609855652, 0.016152018681168556, -0.03412630409002304, -0.07520247995853424, 0.16521194577217102, 0.03663871809840202, 0.030740993097424507, -0.2002294659614563, -0.06354036182165146, -0.0846218466758728, 0.038632430136203766, 0.08634600043296814, 0.15276408195495605, 0.05799112096428871, -0.06127125769853592, -0.05827493593096733, -0.16620472073554993, 0.1478838473558426, 0.04089650511741638, -0.05704173445701599, -0.027946732938289642, 0.07596682757139206, -0.033030733466148376, 0.2561122477054596, 0.1430567353963852, 0.07871858030557632, 0.8369198441505432, -0.04279192164540291, -0.15208345651626587, 0.011442236602306366, 0.27154386043548584, -0.010724400170147419, 0.021954528987407684, 0.1877443641424179, -0.057369980961084366, -0.17047643661499023, -0.24711908400058746, 0.05407549813389778, 0.1314419060945511, 0.10448679327964783, -0.14282843470573425, -0.12863756716251373, -0.0964922085404396, 0.07609207183122635, -0.0691041573882103, -0.05452985689043999, -0.16501499712467194, 0.6392869353294373, 0.08700554072856903, -0.27102500200271606, 0.1236206442117691, -0.1612362116575241, -0.06144319102168083, -0.007802359759807587, 0.07331976294517517, -0.038678769022226334, -0.33221694827079773, -0.1635461002588272, 0.049685969948768616, -0.20254862308502197, -0.05411694943904877, -0.025646377354860306, 0.16713875532150269, 0.026108188554644585, 0.04988930746912956, -0.15737709403038025, -0.09857456386089325, -0.11628080904483795, -0.17442946135997772, 0.09401776641607285, -0.16926726698875427, -0.01767687313258648, -0.10474777966737747, 0.11936865746974945, 0.28308331966400146, -0.0011667459039017558, 0.010586336255073547, 0.14508305490016937, -0.09995314478874207, 0.25946810841560364, -0.07112240046262741, -0.17366942763328552, 0.14753863215446472, 0.13657380640506744, 0.21927186846733093, -0.05389991030097008, -0.05612385645508766, -0.038699761033058167, 0.19206832349300385, -0.007169671356678009, 0.08586245775222778, 0.07561106979846954, 0.04668538644909859, -0.46645885705947876, -0.13015994429588318, -0.2711086869239807, 0.15240693092346191, 0.31031590700149536, -0.12659551203250885, 0.18512490391731262, 0.25900498032569885, -0.12944167852401733, -0.20072777569293976, -0.015851790085434914, -0.22016267478466034, 0.04798627272248268, -0.18632377684116364, 0.11470083147287369, 0.09911490231752396, 0.19738420844078064, 0.19647909700870514, -0.17051301896572113, -0.19818474352359772, 0.19581611454486847, 0.2598716616630554, 0.034074705094099045, -0.22906483709812164, -0.17131060361862183, 0.001120898174121976, -0.06219075992703438, 0.19344183802604675, -0.07462408393621445, -0.15349365770816803, -0.011051448062062263, -0.11454655975103378, 0.06730423122644424, -0.01606791652739048, -0.32943153381347656, -0.016453560441732407, 0.17144028842449188, 0.16081170737743378, -0.22466802597045898, -0.08661401271820068, -0.06559772044420242, 0.20816338062286377, 0.06740853935480118, 0.11715684831142426, -0.09285639971494675, -0.028437145054340363, -0.10917328298091888, 0.16337528824806213, -0.045871760696172714, -0.10243075340986252, -0.2418462187051773, -0.023177869617938995, 0.037326887249946594, -0.023203475400805473, 0.07965099066495895, 0.023758618161082268, 0.04973144084215164, 0.016589798033237457, 0.11130104213953018, -0.16965720057487488, -0.009692713618278503, 0.023136109113693237, -0.15226878225803375, -0.26738524436950684, -0.033069200813770294, 0.14779800176620483, -0.08193742483854294, 0.08883768320083618, 0.04608684778213501, 0.06490326672792435, -0.07858090102672577, 0.1685544103384018, 0.1454755663871765, 0.16406793892383575, 0.15016445517539978, 0.11889159679412842, -0.027275944128632545, -0.2301320880651474, -0.11239583045244217, 0.08530539274215698, -0.1002875491976738, 0.05386994779109955, 0.18319065868854523, 0.20740047097206116, 0.1793052852153778, -0.03810291364789009, -0.0018391927005723119, -0.06312078982591629, 0.10101636499166489, 0.16272437572479248, 0.12560920417308807, -0.21386072039604187, -0.07866694778203964, -0.24184174835681915, -0.0717223733663559, 0.057143136858940125, 0.04288818687200546, 0.2938705086708069, 0.0665055364370346, 0.17817102372646332, -0.3295574486255646, 0.036805007606744766, 0.16135510802268982, 0.5394801497459412, -0.15292072296142578, 0.1041940301656723, -0.10665541887283325, -0.23690718412399292, -0.18716131150722504, 0.10465769469738007, 0.08098561316728592, -0.226913183927536, 0.13314197957515717, 0.0003741308464668691, 0.07908737659454346, -0.06598103791475296, -0.2297215610742569, -0.22359208762645721, 0.08163737505674362, -0.030005482956767082, 0.017719915136694908, 0.5720379948616028, -0.07980164885520935, -0.11627914756536484, 0.0911753699183464, 0.02268652431666851, 0.18975602090358734, -0.057327888906002045, -0.10292503237724304, -0.14109130203723907, 0.2796785533428192, -0.09537121653556824, -0.11796993017196655, 0.00967628788203001, 0.061341315507888794, 0.2102908343076706, 0.028705717995762825, -0.07575196772813797, -0.12893620133399963, 0.25599783658981323, -0.06191766634583473, -0.09357879310846329, -0.259289413690567, -0.005334013607352972, -0.0549933984875679, 0.6496308445930481, -0.15233927965164185, -0.2324654757976532, -0.32624197006225586, 0.020955238491296768, -0.1832590103149414, 0.09357259422540665, -0.11898894608020782, -0.14304853975772858, 0.05493221804499626, 0.02559439279139042, 0.5624077320098877, 0.27860572934150696, -0.12034425139427185, 0.3028979003429413, -0.011603585444390774, -0.018882546573877335, 0.02210366539657116, -0.21469596028327942, -0.18028289079666138, -0.050676386803388596, 0.16257168352603912, -0.11975299566984177, -0.04861826449632645, 0.10323585569858551, 0.06331109255552292, -0.15039756894111633, -0.021237732842564583, -0.1188555583357811, 0.1716168075799942, -0.1403982937335968, -0.09358959645032883, 0.12926030158996582, -0.32612285017967224, -0.03687053546309471, -0.04045668989419937, 0.13442054390907288, 0.00418701209127903, 0.06526622176170349, -0.12421100586652756, -0.06461706012487411, -0.17804327607154846, 0.09908510744571686, -0.06161890923976898, -0.00522192707285285, 0.018404532223939896, -0.10210823267698288, -0.18603885173797607, -0.05231992527842522, -0.2498857080936432, -0.06493566930294037, -0.12174449115991592, 0.009265698492527008, 0.07545584440231323, -0.03749692067503929, -0.17138445377349854, -0.06124863401055336, 0.12004102021455765, -0.2084144800901413, 0.19829487800598145, 0.0025957038160413504, 0.10632123798131943, 0.04809604212641716, 0.10860602557659149, 0.03214091807603836, -0.10501904040575027, -0.21142518520355225, -0.22521790862083435, -0.20723681151866913, -0.06004749611020088, -0.14301595091819763, 0.16811759769916534, 0.4876771569252014, -0.03591964766383171, -0.19046932458877563, 0.03399714082479477, -0.07552508264780045, -0.016488274559378624, 0.004989718087017536, 0.0756329894065857, -0.3257025480270386, -0.2878367304801941, 0.004553328268229961, -0.11959246546030045, 0.042735032737255096, -0.10997525602579117, 0.0875527411699295, -0.16683097183704376, -0.07696280628442764, -0.03330567106604576, 0.27167484164237976, -0.046540189534425735, -0.02286548726260662, -0.16091525554656982, 0.03653799742460251, 0.15689826011657715, 0.4083007872104645, -0.02373262494802475, -0.11702557653188705, -0.6576570272445679, -0.05172726511955261, 0.12381870299577713, -0.009928659535944462, -0.016705023124814034, -0.011549677699804306, 0.20401234924793243, -0.1281367540359497, 0.3397696316242218, 0.2888569235801697, 0.10647036135196686, 0.10732710361480713, -0.03018799051642418, -0.16209673881530762, -0.08444242179393768, 0.01910065859556198, 0.14278274774551392, 0.3001912236213684, -0.03408949822187424, 0.33381736278533936, 0.018095713108778, -0.07410436868667603, 0.269217312335968, -0.21779108047485352, -0.0761149451136589, -0.24703845381736755, -0.20409169793128967, 0.1498735100030899, -0.015442898496985435, 0.01195447240024805, 0.050191763788461685, 0.03650665655732155, 0.02315499447286129, -0.26529014110565186, 0.005307635758072138, -0.08012455701828003, 0.10398364812135696, 0.0028917985036969185, 0.17869730293750763, -0.046400781720876694, 0.03752570599317551, -0.13618972897529602, -0.090000681579113, 0.06190336495637894, -0.180048406124115, -0.1085812970995903, 0.1508573442697525, 0.43577250838279724, -0.07689323276281357, -0.03384730964899063, 0.2121516913175583, 0.14880605041980743, 0.07327569276094437, 0.3044259250164032, -0.16250070929527283, -0.10015171021223068, -0.04637276008725166, 0.018422795459628105, 0.02709859423339367, -0.19961518049240112, -0.16153888404369354, -0.00898039247840643, -0.05820759758353233, 0.15793262422084808, 0.19755122065544128, 0.10526176542043686, -0.11466975510120392, 0.25170424580574036, 0.08656556159257889, -0.36282533407211304, 0.02347196638584137, -0.02338540181517601, -0.056144457310438156, 0.027853330597281456, -0.1313917487859726, 0.05564107000827789, -0.11976689100265503, 0.04197097569704056, -0.04884515702724457, -0.26107120513916016, -0.020392848178744316, -0.1923583745956421, 0.042532119899988174, 0.00571990292519331, -0.028483247384428978, -0.19634303450584412, -0.05117097869515419, -0.17846646904945374, -0.0045541804283857346, 0.11811172962188721, 0.28290507197380066, -0.07358749955892563, 0.160696879029274, -0.2801104784011841, -0.1477874368429184, -0.009196260012686253, -0.05222660303115845, 0.03997792303562164, 0.21440137922763824, -0.005170867778360844, -0.21117189526557922, -0.1556507647037506, -0.10538512468338013, 0.13965874910354614, -0.14187848567962646, -0.09502264857292175, -0.07086223363876343, -0.013375419192016125, -0.11296289414167404, -0.009129505604505539, -0.24208474159240723, 0.07738656550645828, 0.08221932500600815, 0.2729991376399994, -0.11885590106248856, -0.07557006180286407, 0.1895158737897873, 0.12170308828353882, 0.07913041859865189, 0.26518532633781433, 0.13123370707035065, -0.08277558535337448, -0.08249671012163162, 0.04846932366490364, 0.19574026763439178, -0.2388727217912674, 0.16954171657562256, -0.01798279769718647, 0.11820802092552185, -0.06727926433086395, 0.02390567772090435, -0.19669924676418304, 0.005466391332447529, 0.15782956779003143, 0.2217218428850174, 0.0287037193775177, -0.11461549252271652, -0.21377964317798615, 0.024598494172096252, 0.11651701480150223, 0.13771192729473114, 0.2744256258010864, -0.004518889356404543, -0.340035617351532, -0.21673418581485748, -0.5271502137184143, -0.16785164177417755, -0.1496555656194687, -0.20806697010993958, 0.06657110154628754, 0.076276995241642, -0.1757402867078781, 0.0820273607969284, 0.11941248178482056, -0.06400850415229797, -0.08383513242006302, -0.04425925388932228, 0.2722729444503784, 0.029738400131464005, -0.207418754696846, 0.16936983168125153, 0.10185181349515915, -0.10542182624340057, -0.05682440474629402, -0.22043541073799133, 0.002528658602386713, 0.20105113089084625, 0.2229430228471756, -0.010524890385568142, -0.20747679471969604, -0.1561412513256073, -0.17693117260932922, 0.1115596741437912, 0.13159900903701782, -0.308140367269516, -0.07802653312683105, 0.13633234798908234, 0.13942164182662964, -0.21392831206321716, -0.13303907215595245, 0.0075590708293020725, 0.15507353842258453, 0.06082797050476074, 0.10673894733190536, 0.02316257171332836, -0.04570353776216507, 0.015426244586706161, 0.05777699500322342, -0.09378311038017273, -0.004610210657119751, -0.0023256572894752026, -0.14704246819019318, 0.10427169501781464, -0.08257970958948135, 0.05391320213675499, -0.030978739261627197, 0.18133093416690826, 0.08863338828086853, 0.11015123873949051, -0.10080230981111526, -0.026076186448335648, 0.22250144183635712, 0.17040365934371948, -0.07780272513628006, 0.13824719190597534, 0.21219466626644135, -0.08973058313131332, 0.04773551970720291, 0.2011464238166809, 0.20079746842384338, 0.10526380687952042, -0.1267206221818924, -0.025148125365376472, 0.13962814211845398, -0.1576269567012787, 0.020739585161209106, -0.20507808029651642, -0.2708154320716858, -0.2998727560043335, -0.1788976788520813, 0.23144997656345367, 0.08333459496498108, -0.16035611927509308, 0.2992892265319824, 0.15051580965518951, -0.00578328175470233, -0.26517602801322937, -0.07025376707315445, -0.08726933598518372, 0.2349015772342682, 0.0544486902654171, -0.005462226923555136, -0.1960057020187378, -0.1656101495027542, 0.06821272522211075, 0.4132159650325775, -0.09933778643608093, -0.18890029191970825, -0.19030027091503143, 0.17693446576595306, 0.08106836676597595, 0.15761281549930573, -0.06825365126132965, 0.0152443191036582, -0.2807229161262512, 0.23333580791950226, -0.0017731681000441313, -0.03399943187832832, -0.18047288060188293, 0.020360296592116356, -0.4342438578605652, -0.05949655920267105, -0.08251741528511047, 0.212960347533226, -0.05223848298192024, 0.006815047934651375, -0.23878441751003265, -0.09050817042589188, 0.05543673783540726, 0.01672661490738392, -0.051588043570518494, -0.11651305854320526, -0.11739098280668259, 0.04493271932005882, 0.0324600487947464, -0.012554487213492393, 0.06813809275627136, 0.17110902070999146, -0.15139803290367126, 0.22043141722679138, 0.2581442892551422, 0.007371487561613321, -0.17477653920650482, 0.06104655563831329, -0.0327087827026844, 0.08728545159101486, -0.04497775807976723, -0.023273104801774025, -0.21116992831230164, 0.10910531878471375, -0.08522500097751617, -0.10802807658910751, 0.09289126843214035, -0.11586419492959976, -0.02109164372086525, 0.08918176591396332, 0.011150667443871498, -0.015049665234982967, 0.022885940968990326, 0.40492352843284607, 0.18466444313526154, 0.020201243460178375, 0.10954678058624268, 0.03354696184396744, -0.008648723363876343, 0.22082902491092682, -0.169056698679924, -0.11480461061000824, -0.0091405576094985, 0.16628074645996094, -0.023534445092082024, -0.1585698127746582, 0.1383918970823288, 0.0321253277361393, -0.041321635246276855, -0.15881599485874176, 0.11699659377336502, 0.02576916664838791, 0.03506309539079666, -0.04904419556260109, 0.23753218352794647, -0.07279480248689651, 0.1122673898935318, 0.3252177834510803, 0.26247352361679077, 0.01556605938822031, 0.0439956970512867, -0.14137493073940277, 0.12608274817466736, -0.6313288807868958, -0.24887153506278992, 0.03555125743150711, 0.2778036296367645, 0.05652560666203499, 0.035421982407569885, -0.2509883940219879, -0.14678145945072174, -0.006856441497802734, 0.2596209645271301, 0.03787491098046303, -0.05553692951798439, -0.0003485132474452257, 0.17615503072738647, 0.021464459598064423, 0.3333703577518463, -0.0915660709142685, -0.13570436835289001, 0.28389838337898254, 0.06163092702627182, -0.06582102924585342, 0.009869605302810669, -0.1813105046749115, -0.11658588796854019, 0.19599515199661255, 0.15966828167438507, -0.29400569200515747, -0.00040980218909680843, 0.16658808290958405, 0.10936954617500305, -0.03873893618583679, 0.029120592400431633, -0.10372013598680496, -0.012274270877242088, -0.2830609679222107, 0.0739111378788948, 0.1631530523300171, -0.02550087869167328, 0.17326222360134125, -0.06456653028726578, -0.14199139177799225, -0.25942113995552063, 0.11954884976148605, 0.06297615170478821, -0.0938836932182312, -0.15088744461536407, -0.09596417099237442, 0.03592007979750633, 0.5682664513587952, -0.06740280240774155, -0.08613759279251099, 0.14943884313106537, 0.11794983595609665, 0.0625624805688858, -0.004404152277857065, -0.17636097967624664, 0.1488480120897293, 0.15813055634498596, -0.0828424021601677, 0.0014165111351758242, -0.05545211583375931, -0.32767510414123535, -0.2878713011741638, -0.061359405517578125, 0.12113265693187714, -0.11108209937810898, 0.39444175362586975, -0.03383161500096321, -0.11440377682447433, -0.16906316578388214, -0.2668347954750061, 0.10399586707353592, -0.08806568384170532, -0.055537011474370956, 0.2575681805610657, -0.35931599140167236, 0.18050451576709747, 0.103607177734375, -0.099455326795578, 0.1437920182943344, 0.22412410378456116, 0.10970582813024521, -0.39739102125167847, -0.04820743203163147, 0.16388456523418427, 0.04336930066347122, -0.029551837593317032, -0.034537576138973236, 0.057621076703071594, 0.05676298961043358, 0.1603153795003891, 0.01631094329059124, 0.19545583426952362, 0.02555704675614834, 0.010955997742712498, 0.08454655110836029, 0.388862282037735, -0.040438052266836166, -0.05603838339447975, 0.019738320261240005, 0.019803186878561974, 0.09552726149559021, -0.19146032631397247, 0.03469911217689514, -0.05856196582317352, 0.055164966732263565, 0.011070555076003075, 0.08549753576517105, 0.06213974952697754, -0.21111617982387543, 0.07067827135324478, -0.07408228516578674, -0.39383816719055176, -0.20188523828983307, -0.29490309953689575, 0.4534476399421692, 0.24486394226551056, 0.10681389272212982, -0.27277764678001404, -0.0510743148624897, 0.19989372789859772, -0.22263233363628387, 0.013250304386019707, -0.09762492775917053, 0.09874363243579865, 0.009640702977776527, 0.19061996042728424, -0.012267686426639557, -0.07667198032140732, 0.29889950156211853, -0.04527338966727257, 0.0757230892777443, 0.063579261302948, -0.16434548795223236, -0.07414814829826355, 0.1461491882801056, 0.06654732674360275, 0.0002735382877290249, -0.11183663457632065, 0.018940027803182602, -0.13169749081134796, 0.029347935691475868, -0.08740095794200897, 0.7784181237220764, 0.010425955057144165, 0.6267332434654236, -0.7276231646537781, -0.640735387802124, 0.060283586382865906, 0.25208961963653564, -0.020085478201508522, 0.31871652603149414, 0.5299064517021179, -0.8520649671554565, 0.5197293162345886, -0.26037198305130005, -1.1012458801269531, 0.0026057306677103043, -0.2689841687679291, -0.004406506661325693, -0.21714048087596893, 0.4091978967189789, -0.14703813195228577, 0.17937366664409637, 0.21607351303100586, 0.07670952379703522, -0.10384231060743332, -0.3579109013080597, 0.019071238115429878, 0.003436580067500472, -0.005580225493758917, 0.24898137152194977, -0.13801263272762299, 0.09743238240480423, -0.07637471705675125, -0.10962144285440445, 0.09100406616926193, 0.12502633035182953, -0.09290322661399841, 0.26822930574417114, -0.0626976415514946, 0.3534880578517914, -0.2062293291091919, -0.35427215695381165, -0.1362552046775818, -0.28765493631362915, 0.13705354928970337, -0.034454938024282455, 0.0804673358798027, -0.15572312474250793, 0.2651452422142029, -0.260884165763855, 0.21322335302829742, -0.37141183018684387, -0.07636357098817825, -0.02371142990887165, -0.10685619711875916, -0.2518782615661621, 0.007252661511301994, 0.26079100370407104, -0.10358696430921555, -0.28676891326904297, -0.23818838596343994, 0.023835545405745506, 0.255428284406662, -0.008177017793059349, 0.2551559507846832, -0.06334438174962997, -0.019242199137806892, -0.3086634576320648, 0.3544537127017975, 0.11917794495820999, 0.11355642974376678, 0.05135723203420639, 0.07858557254076004, -0.15738312900066376, -0.05720803886651993, 0.03245542198419571, -0.38528090715408325, 0.13794875144958496, 0.2111772745847702, 0.08934776484966278, -0.18930554389953613, 0.28084319829940796, -0.054454121738672256, 0.08812730014324188, -0.007078207563608885, 0.06951866298913956, -0.21368443965911865, -0.011436541564762592, -0.11398337781429291, 0.2942808270454407, 0.2052382081747055, 0.07697045803070068, 0.18478795886039734, 0.036615241318941116, -0.12838740646839142, -0.1467604786157608, -0.06994852423667908, -0.20965972542762756, 0.24743877351284027, 0.2313290387392044, 0.36952051520347595, -0.09164737164974213, 0.23100468516349792, 0.1368415802717209, 0.031587596982717514, 0.008463445119559765, 0.22136463224887848, -0.307277649641037, 0.07797692716121674, -0.08955752104520798, 0.060578301548957825, -0.30520352721214294, 0.11534152925014496, -0.030165737494826317, -0.14974747598171234, -0.03473226726055145, 0.14311569929122925, -0.16893309354782104, -0.2326965034008026, 0.06514167785644531, 0.18606036901474, -0.22547492384910583, -0.08066249638795853, 0.4031163156032562, 0.04703376069664955, -0.1138107106089592, -0.1072307601571083, 0.18380548059940338, -0.19649361073970795, -0.10071082413196564, 0.08005056530237198, -0.023660864681005478, 0.03848008066415787, 0.2054741382598877, -0.17471735179424286, -0.08803413808345795, 0.21499061584472656, -0.05519470199942589, -0.042679425328969955, -0.13444919884204865, 0.17187044024467468, 0.2286735475063324, -0.01711162179708481, 0.09739497303962708, 0.00768872257322073, -0.32549428939819336, 0.11437319219112396, -0.24683187901973724, -0.23495043814182281, 0.19262190163135529, 0.008297293446958065, -0.23752759397029877, -0.13465285301208496, -0.05074242874979973, -0.04665905237197876, -0.21680183708667755, -0.3353118896484375, 0.37503352761268616, 0.07057766616344452, 0.0515807569026947, 0.032744910567998886, 0.19169963896274567, 0.23754560947418213, 0.3166590631008148, -0.0896456390619278, -0.036824703216552734, 0.2835269868373871, 0.055032964795827866, 0.08162730187177658, -0.29967957735061646, -0.050947532057762146, 0.08787963539361954, -0.028418879956007004, 0.27991995215415955, -0.14620579779148102, 0.22170554101467133, 0.039795540273189545, -0.31619149446487427, 0.20530323684215546, -0.5058143734931946, -0.26023033261299133, -0.0115191750228405, 0.3308348059654236, 0.06593912839889526, -0.39013800024986267, 0.2828683853149414, 0.008507032878696918, -0.2680911123752594, -0.1539144217967987, -0.12113884091377258, 0.2628627419471741, 0.3396032750606537, -0.10054552555084229, -0.04379605874419212, 0.1923096477985382, -0.023068098351359367, -0.09311017394065857, 0.04981738701462746, -0.15001974999904633, 0.05294566974043846, 0.012071691453456879, -0.10108915716409683, 0.19274598360061646, 0.499759703874588, 0.31638026237487793, -0.2118041068315506, 0.30211004614830017, -0.07371120154857635, -0.12532803416252136, -0.13089512288570404, 0.2110760509967804, 0.18254946172237396, 0.3371393382549286, -0.16604335606098175, 0.22998715937137604, -0.20336709916591644, -0.003277597948908806, 0.21826152503490448, 0.0772668719291687, -0.3406735956668854, -0.06704194098711014, -0.0377533845603466, 0.1243971735239029, 0.1767055243253708, -0.17949581146240234, 0.1125417947769165, 0.16781243681907654, 0.09125866740942001, 0.164411723613739, -0.07656200975179672, 0.2753528952598572, -0.1360340565443039, 0.17588035762310028, 0.019833609461784363, 0.1924031376838684, 0.38703492283821106, -0.10915041714906693, -0.3308747708797455, -0.4514818489551544, 0.21985678374767303, 0.13674913346767426, 0.19498030841350555, -0.1361645609140396, 0.02401115745306015, 0.1047169640660286, -0.16940893232822418, -0.17291250824928284, -0.08557633310556412, 0.04520547762513161, -0.08922769874334335, 0.3309840261936188, -0.14523956179618835, -0.13205596804618835, -0.2553478479385376, -0.3176988661289215, -0.1761663258075714, 0.06353312730789185, -0.10400450229644775, -0.2378741353750229, -0.14931420981884003, -0.15742464363574982, 0.029891759157180786, -0.1118517816066742, 0.1832055300474167, -0.019482305273413658, -0.30029651522636414, 0.07500579953193665, -0.4792879521846771, -0.08641374111175537, 0.23542656004428864, -0.1127183809876442, 0.08609770238399506, -0.3104051351547241, -0.15382206439971924, 0.09165870398283005, 0.14830072224140167, -0.04434048756957054, 0.08446477353572845, 0.08696739375591278, 0.05832763388752937, 0.14917638897895813, -0.168234184384346, 0.1522129774093628, 0.11536955833435059, 0.035229649394750595, 0.04632745683193207, -0.1484760195016861, -0.07743707299232483, 0.021049845963716507, 0.14589110016822815, -0.09036384522914886, -0.03166633099317551, -0.027816249057650566, 0.1643133908510208, 0.0736057311296463, 0.07380140572786331, 0.061586759984493256, -0.34047356247901917, -0.07683413475751877, 0.08798283338546753, -0.08801642805337906, 0.03769298270344734, 0.08998516947031021, -0.3562973737716675, 0.18432356417179108, 0.006771948654204607, 0.031096845865249634, -0.04366832226514816, -0.008422204293310642, 0.24788671731948853, 0.29346469044685364, 0.24521611630916595, -0.21422775089740753, -0.08347155153751373, -0.16907523572444916, 0.21349996328353882, 0.26478829979896545, -0.11085197329521179, 0.06262175738811493, 0.22874762117862701, -0.06362151354551315, -0.48770982027053833, -0.08212180435657501, -0.06449398398399353, -0.1204468309879303, 0.1007961705327034, 0.061776094138622284, 0.03332404047250748, -0.30482006072998047, -0.09027916938066483, 0.16503052413463593, 0.15339019894599915, 0.02167973481118679, 0.15498685836791992, 0.1944582164287567, 0.07775276154279709, -0.21123380959033966, 0.08163442462682724, 1.1350712776184082, 0.23656374216079712, 0.2541630268096924, 0.8904897570610046, -0.21141551434993744, 0.3168555796146393, -0.5254524946212769, -0.191132590174675, 0.09914283454418182, 0.44851285219192505, 0.11140965670347214, 0.14268001914024353, -0.22908762097358704, 0.1039871871471405, 0.1266022026538849, 0.21494300663471222, -0.13659214973449707, -0.3923504650592804, 0.17618732154369354, 0.07818575948476791, 0.008950119838118553, -0.18086428940296173, -0.00429075350984931, 0.20720316469669342, 0.5110560655593872, 0.14229969680309296, 0.1620844304561615, 0.1397242695093155, 0.08346947282552719, 0.6256533861160278, 0.22159691154956818, -0.042907796800136566, -0.3970943093299866, -0.24896550178527832, -0.18060950934886932, 0.09763368219137192, -0.251565545797348, 0.13534577190876007, -0.34833893179893494, 0.13831420242786407, 0.09815031290054321, -0.2103797346353531, -0.6765352487564087, 0.04454169422388077, 0.3658556342124939, 0.04291149973869324, 0.09896127134561539, 0.11914744228124619, -0.061605460941791534, 0.1503085196018219, -0.049748022109270096, 0.22499090433120728, 0.805576503276825, 0.14293813705444336, 0.07120716571807861, -0.10545381158590317, -0.18214404582977295, 0.14098553359508514, 0.07398229092359543, 0.015920257195830345, -0.15889255702495575, -0.4780821204185486, 0.16272802650928497, 0.2090539038181305, 0.1217913031578064, -0.23431499302387238, -0.10106199234724045, 0.12674221396446228, 0.14720432460308075, 0.03498915955424309, -0.2847757637500763, -0.0730358213186264, -0.07025040686130524, 0.3011130392551422, 0.2829807996749878, -0.12703333795070648, 0.05769254267215729, 0.36201873421669006, 0.1852278709411621, 0.035906434059143066, -0.03853243961930275, -0.12453962117433548, 0.1699274778366089, 0.10499171912670135, 0.17810815572738647, -0.23091726005077362, -0.2240179032087326, -0.01899372786283493, 0.21978351473808289, 0.09030754864215851, 0.06250227987766266, -0.7930552363395691, 0.3449913561344147, -0.045858148485422134, -0.12003245949745178, 0.10935188829898834, -0.012827733531594276, 0.01448828261345625, -0.11942599713802338, -0.08758573234081268, -0.015823358669877052, 0.0706757977604866, 0.11168550699949265, 0.08773764222860336, -0.1014217883348465, -0.1335759460926056, 0.26373934745788574, 0.11921396106481552, 0.13791708648204803, -0.11851001530885696, 0.010385198518633842, 0.026710934937000275, -0.01957555115222931, 0.04349048063158989, -0.13069626688957214, 0.3013691306114197, 0.30634528398513794, 0.15620847046375275, -0.2187306433916092, -0.1028798371553421, -0.12910513579845428, 0.3735167682170868, 0.05773153528571129, 0.03515072166919708, -0.26186835765838623, 0.018420834094285965, -0.10300971567630768, 0.10029378533363342, -0.13754747807979584, -0.09244811534881592, 0.0035761985927820206, 0.07553545385599136, 0.1889231652021408, 0.09918089210987091, -0.21657615900039673, -0.02880442701280117, -0.058451395481824875, -0.07034076005220413, 0.057199861854314804, 0.030090318992733955, 0.25230535864830017, 0.10141228884458542, -0.07620622217655182, -0.21469202637672424, -0.07334093749523163, 0.18755212426185608, 0.1696304827928543, 0.22358529269695282, 0.07817245274782181, 0.08686056733131409, -0.006072682328522205, 0.21502433717250824, -0.0673803836107254, 0.1594114899635315, 0.017912425100803375, -0.012068620882928371, -0.08522176742553711, 0.1389249712228775, 0.0694245770573616, -0.05888912454247475, 0.005958345718681812, 0.26554161310195923, 0.07271424680948257, -0.09902971982955933, 0.019443059340119362, 0.032899968326091766, 0.15432722866535187, 0.037589047104120255, 0.13484445214271545, 0.09107083082199097, -0.06503452360630035, 0.07785741239786148, 0.160392627120018, -0.13506193459033966, 0.035395801067352295, 0.049934275448322296, 0.3711937963962555, 0.008629102259874344, -0.23918643593788147, -0.1228807270526886, 0.0735817700624466, 0.07674723863601685, -0.05132218822836876, 0.08443290740251541, -0.2171858847141266, -0.14975348114967346, -0.055588021874427795, -0.14959464967250824, -0.21261480450630188, -0.09783197939395905, 0.21854059398174286, -0.1332302689552307, 0.30323249101638794, -0.09756060689687729, 0.09597013145685196, -0.04265178367495537, 0.0581628680229187, -0.1214427500963211, -0.23780079185962677, 0.03537879139184952, 0.11655241996049881, -0.06211775168776512, -0.029618285596370697, -0.2068614810705185, 0.023437296971678734, -0.03997344523668289, -0.17726770043373108, 0.06434862315654755, 0.04444855824112892, 0.25917336344718933, -0.13588039577007294, -0.1495722383260727, -0.22742219269275665, 0.06820103526115417, -0.038225896656513214, -0.006490418221801519, -0.34873443841934204, 0.02268218994140625, -0.23740194737911224, 0.23297977447509766, -0.055295273661613464, -0.2547444999217987, -0.21350544691085815, 0.026901984587311745, 0.056820809841156006, 0.04481370747089386, -0.19308441877365112, -0.20154473185539246, -0.15622007846832275, -0.3015294671058655, 0.0140385702252388, -0.17088858783245087, -0.12222011387348175, 0.048181600868701935, 0.025450119748711586, 0.09892045706510544, -0.09660899639129639, 0.19622807204723358, 0.039351049810647964, -0.057255081832408905, 0.20887967944145203, 0.05130340903997421, 0.01870526559650898, -0.21942280232906342, 0.08532485365867615, -0.05455736443400383, -0.25853869318962097, 0.04574673995375633, 0.05453633517026901, -0.14633624255657196, 0.0791163295507431, 0.030417872592806816, 0.273950457572937, -0.03778513893485069, -0.04033421725034714, 0.2299078404903412, 0.4084157645702362, 0.22620789706707, -0.00746846292167902, -0.012104395776987076, -0.16022612154483795, 0.017526645213365555, 0.11527746170759201, 0.022383056581020355, -0.34767967462539673, 0.08196521550416946, 